~o
<STREAMINFO> 1 39
<VECSIZE> 39<NULLD><MFCC_D_A_0><DIAGC>
~h "sebelas"
<BEGINHMM>
<NUMSTATES> 20
<STATE> 2
<MEAN> 39
 -1.910752e+01 -5.567076e+00 -4.138305e+00 -3.753109e+00 2.627614e+00 -4.554655e+00 3.562507e+00 -5.300884e+00 2.518276e+00 -7.324990e+00 -6.887383e-01 -7.407946e+00 5.690526e+01 -9.344270e-01 1.433845e+00 -9.524326e-01 4.095915e-01 3.997381e-02 -1.263094e+00 9.555899e-01 -1.543671e+00 5.918456e-01 -4.746823e-01 6.452816e-01 4.130087e-01 5.779766e-01 -3.563576e-01 4.625075e-01 -3.110179e-01 2.647427e-01 2.102560e-02 -7.236205e-02 2.916157e-01 -2.013585e-01 1.065024e-01 -1.060978e-01 3.548346e-02 1.100950e-02 1.726831e-01
<VARIANCE> 39
 5.591170e+00 8.089700e+00 5.002690e+00 9.514769e+00 1.699810e+01 1.777630e+01 3.135750e+01 3.075636e+01 2.016064e+01 1.630765e+01 1.269543e+01 1.879427e+01 1.247414e+00 1.079782e+00 2.476986e+00 1.201738e+00 1.742929e+00 2.476887e+00 2.481483e+00 4.150744e+00 2.936329e+00 1.887057e+00 1.709665e+00 2.483612e+00 1.826713e+00 3.166721e-01 9.304048e-02 2.343498e-01 1.733055e-01 2.869150e-01 4.431413e-01 3.660191e-01 6.315573e-01 5.362935e-01 2.865879e-01 2.630095e-01 3.909604e-01 2.383683e-01 2.556159e-02
<GCONST> 9.264515e+01
<STATE> 3
<MEAN> 39
 -2.850636e+01 7.658536e+00 -1.224995e+01 8.699355e-01 5.537360e+00 -1.117433e+01 1.222626e+01 -1.133455e+01 6.036305e+00 -7.933789e+00 1.189108e+00 -4.590674e+00 6.248731e+01 2.110551e-01 1.265802e+00 -1.210503e-01 5.030901e-02 -4.483552e-01 -1.345108e+00 -5.270040e-01 -1.813360e-01 -3.816099e-01 5.892019e-01 -3.231238e-01 3.194468e-01 8.121681e-01 1.080841e+00 -5.151399e-01 5.811510e-01 -4.337762e-01 -3.820627e-01 -1.267993e-01 -9.888372e-01 1.117281e-01 -2.134552e-01 1.983843e-01 -1.828713e-01 -2.057031e-01 4.054170e-02
<VARIANCE> 39
 1.015799e+01 1.450643e+01 1.057998e+01 1.708560e+01 4.696430e+01 2.017443e+01 2.755898e+01 2.398316e+01 2.365848e+01 4.051391e+01 3.452320e+01 2.239346e+01 3.620853e+00 6.639205e+00 2.538467e+00 2.979011e+00 2.455925e+00 3.402035e+00 2.853679e+00 5.743193e+00 2.871685e+00 2.543593e+00 1.537894e+00 2.638057e+00 1.407665e+00 3.394975e-01 5.013803e-01 2.218419e-01 2.056400e-01 3.643520e-01 6.728489e-01 8.990301e-01 8.761761e-01 8.617279e-01 5.313509e-01 2.915611e-01 6.797512e-01 3.623636e-01 1.329785e-01
<GCONST> 1.106488e+02
<STATE> 4
<MEAN> 39
 -1.174908e+01 7.829083e+00 -6.584546e+00 -4.466175e+00 -1.467357e+00 -2.044925e+01 -4.631503e+00 -1.253109e+01 3.590988e+00 -4.117906e+00 -6.431181e-01 -7.178053e+00 6.903866e+01 4.752050e+00 -6.958397e-01 6.718550e-01 -1.710673e+00 -2.287804e-01 -8.062890e-01 -4.422540e+00 -4.831376e-01 -2.350654e-01 7.951636e-01 5.641385e-01 -1.056846e+00 2.060654e+00 -6.819164e-01 -8.586082e-02 -3.257658e-01 1.454784e-01 9.896845e-01 9.858344e-01 8.846362e-01 2.520501e-01 -8.126432e-02 -2.372137e-01 2.812737e-01 7.914104e-02 -2.785852e-01
<VARIANCE> 39
 5.462902e+01 2.084481e+01 1.735118e+01 1.857395e+01 1.102732e+02 7.855599e+01 9.230702e+01 1.001247e+02 3.694879e+01 9.658125e+01 3.161733e+01 2.240699e+01 1.992740e+01 2.415821e+00 1.551684e+00 1.573656e+00 1.775380e+00 8.813483e+00 9.540589e+00 9.796682e+00 1.088469e+01 4.928480e+00 2.660489e+00 2.918964e+00 1.675169e+00 1.064780e+00 7.933361e-01 2.158336e-01 1.752577e-01 4.181866e-01 7.462482e-01 9.185094e-01 1.676744e+00 1.022164e+00 1.000632e+00 6.333261e-01 3.541623e-01 2.898780e-01 4.869860e-01
<GCONST> 1.284283e+02
<STATE> 5
<MEAN> 39
 -2.168054e+00 5.193343e+00 -3.731148e+00 -8.063249e+00 7.232428e+00 -1.398627e+01 -1.052493e+01 -8.927222e+00 3.438891e-01 -3.353933e+00 4.528224e+00 -7.771680e+00 7.120529e+01 4.363816e-01 3.413562e-01 1.010087e+00 4.533059e-01 1.931266e-01 1.667040e+00 5.707794e-01 -5.857567e-02 -8.551123e-01 -7.951984e-01 -5.427576e-01 -1.793471e-01 -1.019385e+00 -4.680829e-01 8.761086e-02 1.957187e-01 3.667584e-01 -2.779753e-01 -7.407985e-02 3.645206e-01 1.688293e-01 -3.097987e-04 -2.303345e-01 -3.439389e-01 -3.122134e-02 -3.041148e-01
<VARIANCE> 39
 1.219863e+01 2.567888e+01 3.087077e+01 1.606365e+01 1.377039e+02 7.662341e+01 5.836972e+01 2.122132e+02 2.259328e+01 6.605109e+01 4.542976e+01 3.735634e+01 1.374350e+01 5.715644e-01 2.224805e-01 5.023184e-01 1.435178e+00 3.418433e+00 1.602996e+00 1.440788e+00 2.795823e+00 2.588238e+00 3.131849e+00 2.563099e+00 2.709814e+00 3.031755e-01 1.850766e-01 1.354833e-01 1.290016e-01 2.077066e-01 4.232496e-01 4.426059e-01 6.711015e-01 9.024618e-01 3.974082e-01 4.657503e-01 4.474403e-01 3.704705e-01 1.890793e-01
<GCONST> 1.085949e+02
<STATE> 6
<MEAN> 39
 -2.987754e+00 7.486023e+00 5.731776e-01 -3.703919e+00 7.346210e-02 -9.669619e+00 -6.798131e+00 -1.431082e+01 -3.217202e+00 -7.631039e+00 -1.687668e+00 -9.649714e+00 6.556717e+01 4.920471e-01 -6.472071e-01 3.504712e-01 -2.163072e-01 -3.637233e-01 7.542470e-01 -6.373690e-01 -9.857200e-01 -7.687291e-01 7.466562e-01 7.509506e-01 3.063488e-01 -1.396752e-01 2.414984e-01 -3.991671e-01 -5.599859e-01 -4.951251e-01 -2.179378e-01 -1.103291e-01 -4.591177e-01 -6.067974e-01 3.058273e-01 8.812776e-01 4.521225e-01 7.033903e-02 4.323048e-01
<VARIANCE> 39
 6.606907e+00 9.062959e+00 1.910548e+01 1.093583e+01 4.362745e+01 5.897503e+01 3.059365e+01 3.253625e+01 2.163568e+01 3.691241e+01 5.602194e+01 5.809159e+01 2.336463e+00 4.350953e-01 9.295411e-01 2.145597e+00 1.650340e+00 1.689285e+00 2.488039e+00 2.459965e+00 5.874874e+00 1.804836e+00 4.453122e+00 2.370825e+00 2.380763e+00 6.138286e-01 7.195554e-02 1.209897e-01 3.321680e-01 2.670005e-01 5.136058e-01 4.491270e-01 3.040569e-01 7.501702e-01 5.365213e-01 6.393774e-01 4.438882e-01 6.373047e-01 6.845201e-02
<GCONST> 1.041539e+02
<STATE> 7
<MEAN> 39
 2.001107e+00 2.212212e-02 -4.313574e+00 -9.581940e+00 -2.975057e+00 -7.520577e+00 -1.404010e+01 -2.248564e+01 -1.002760e+00 4.207531e+00 4.495808e+00 -9.196257e+00 6.963456e+01 1.106774e+00 -2.342700e+00 -1.107024e+00 -1.446861e+00 -6.265251e-01 1.163414e-01 -1.544797e+00 -2.784732e-01 2.241774e+00 2.334669e+00 -3.397919e-01 -1.147486e+00 1.386165e+00 -2.510349e-01 1.584520e-01 4.431420e-01 2.613676e-01 3.729771e-01 -5.610203e-02 3.583022e-01 1.084370e+00 1.000490e-01 -8.595482e-01 -6.861788e-01 -2.064310e-01 -1.672109e-01
<VARIANCE> 39
 7.174501e+00 2.314128e+01 4.860137e+01 2.006643e+01 8.264073e+01 4.794551e+01 1.656239e+01 7.907991e+01 4.845670e+01 1.220736e+02 6.105763e+01 4.441228e+01 5.219566e+00 3.588482e-01 1.078729e+00 5.350561e+00 2.622696e+00 6.640807e+00 4.891451e+00 1.838304e+00 8.909069e+00 3.615004e+00 9.227483e+00 3.667804e+00 2.047258e+00 5.450858e-01 4.882481e-02 3.259432e-01 4.807204e-01 2.706578e-01 6.215445e-01 7.402384e-01 3.198583e-01 4.443624e-01 8.761160e-01 1.179601e+00 3.624630e-01 4.164695e-01 1.596248e-01
<GCONST> 1.176628e+02
<STATE> 8
<MEAN> 39
 3.251447e+00 -7.756875e+00 5.210567e-02 -1.546083e+01 -7.439399e+00 6.796921e-01 -1.327158e+01 -2.172895e+01 7.016333e+00 8.279248e+00 2.741929e-02 -1.223775e+01 7.178497e+01 -9.031256e-02 -3.609210e-01 -2.031872e-01 -9.927610e-03 6.198980e-01 3.174907e-01 4.104080e-01 1.283065e+00 -4.570851e-01 -1.028114e+00 -1.274828e+00 -3.421441e-01 3.020847e-02 -1.295774e-01 2.988104e-01 -9.278894e-03 1.815223e-01 -2.857716e-02 -1.267674e-01 1.261413e-01 -1.378165e-01 -5.061381e-01 -1.306657e-01 9.930284e-02 2.438420e-01 -1.851129e-01
<VARIANCE> 39
 3.986932e+00 3.017009e+01 4.414903e+01 2.642775e+01 1.181934e+02 9.850691e+01 3.687573e+01 1.926491e+02 5.348262e+01 8.385153e+01 8.649190e+01 2.913957e+01 3.530352e+00 2.119887e-01 6.346200e-01 8.953510e-01 1.393521e+00 9.499696e-01 1.868637e+00 2.172846e+00 2.798014e+00 2.327048e+00 1.596195e+00 2.821257e+00 2.461965e+00 1.782753e-01 3.240144e-02 1.724960e-01 2.639759e-01 2.660679e-01 3.355728e-01 2.789763e-01 3.764550e-01 6.107655e-01 5.743083e-01 3.961767e-01 5.885379e-01 3.833627e-01 5.887936e-02
<GCONST> 1.038990e+02
<STATE> 9
<MEAN> 39
 2.085498e+00 -2.848711e+00 -4.810779e+00 -1.086991e+01 2.635645e+00 -1.356251e+01 -1.621719e+01 -9.176078e+00 -3.380688e+00 -9.340054e-01 -4.340462e+00 -1.084699e+01 7.054513e+01 -8.089870e-02 3.781217e-02 1.916786e-03 -1.999274e-01 1.221893e-01 -1.884063e-01 7.383680e-02 3.397801e-01 -2.927705e-01 1.015509e-02 -2.980704e-01 1.720395e-01 -1.350763e-01 1.918142e-02 -6.092918e-02 -9.472755e-02 -5.625728e-02 3.569067e-03 5.008060e-02 9.264958e-02 1.114609e-01 3.069463e-01 -2.105133e-02 -1.392685e-02 -5.573537e-02 6.445155e-02
<VARIANCE> 39
 2.866972e+00 1.392115e+01 2.456628e+01 1.116256e+01 5.740321e+01 1.746644e+02 4.501668e+01 2.148783e+02 4.322816e+01 7.973311e+01 1.425919e+02 7.299367e+01 4.522579e+00 1.244948e-01 4.807776e-01 7.509723e-01 7.553278e-01 7.803068e-01 9.745469e-01 1.010260e+00 2.489685e+00 2.204458e+00 1.740165e+00 1.690779e+00 1.389222e+00 1.228871e-01 1.311949e-02 8.172385e-02 1.332567e-01 1.302496e-01 7.684986e-02 1.435330e-01 1.641098e-01 4.788433e-01 2.407316e-01 2.669394e-01 2.410956e-01 2.142279e-01 2.466696e-02
<GCONST> 8.828717e+01
<STATE> 10
<MEAN> 39
 2.494766e+00 -7.107648e+00 -7.112353e+00 -1.437016e+01 1.489477e+00 -5.935878e+00 -1.101240e+01 -8.088762e+00 1.974065e+00 -1.183288e+00 -9.803487e+00 -1.421847e+01 7.173009e+01 -3.467820e-01 -1.097658e+00 1.046365e-02 -7.842452e-02 -1.628090e-01 2.491072e-01 1.635013e+00 2.047545e+00 8.855544e-01 -1.006761e+00 -1.420768e+00 2.681572e-01 5.292824e-01 -1.337681e-01 -6.628925e-03 2.357703e-01 2.638679e-01 -1.082365e-02 -6.231314e-02 1.883648e-01 -8.064086e-02 -2.679131e-01 -9.732600e-02 2.829266e-02 1.109411e-01 -6.715208e-03
<VARIANCE> 39
 4.504587e+00 2.936380e+01 4.046387e+01 8.293016e+00 7.859663e+01 8.886533e+01 8.793490e+01 1.363456e+02 4.373734e+01 7.926263e+01 1.833983e+02 5.987571e+01 8.840982e+00 2.109099e-01 3.649852e+00 1.998196e+00 1.114032e+00 6.193460e-01 1.234888e+00 1.800335e+00 2.730556e+00 3.442397e+00 1.716246e+00 2.045790e+00 2.492019e+00 5.535268e-01 2.735407e-02 3.808171e-01 1.889474e-01 1.348149e-01 1.889182e-01 3.090533e-01 2.918901e-01 5.205320e-01 6.131889e-01 3.468566e-01 3.948026e-01 2.397081e-01 5.849181e-02
<GCONST> 1.052282e+02
<STATE> 11
<MEAN> 39
 -3.165461e-01 -1.175363e+01 -5.263843e+00 -1.045827e+01 3.317639e+00 -1.250598e+01 -3.754382e+00 1.949577e+00 -3.164209e+00 -6.691229e+00 -1.240133e+01 -8.535139e+00 7.541362e+01 -3.012405e-01 3.703520e-01 4.867744e-01 6.621761e-01 -2.345970e-01 -5.472589e-01 5.562861e-01 -3.873457e-01 -8.857154e-01 -9.386349e-01 1.181891e-01 7.580509e-01 -2.670504e-01 -5.246683e-02 3.395578e-01 3.689506e-02 2.197386e-01 1.367181e-01 -4.324393e-02 -2.768644e-01 -4.399253e-01 -1.022599e-01 -2.189425e-02 2.282101e-01 6.859186e-02 -2.068854e-01
<VARIANCE> 39
 2.642191e+00 1.888585e+01 4.299867e+01 1.775948e+01 5.200763e+01 1.394714e+02 2.900602e+01 9.500053e+01 6.013549e+01 3.214536e+01 6.360913e+01 8.496135e+01 1.409317e+01 3.315683e-01 1.000576e+00 1.122116e+00 1.506342e+00 3.127839e+00 2.087114e+00 1.426178e+00 2.413008e+00 1.887348e+00 1.303215e+00 1.192394e+00 2.792223e+00 4.051214e-01 7.255794e-02 2.014378e-01 2.245662e-01 3.870993e-01 4.025036e-01 3.225031e-01 2.720356e-01 3.725620e-01 4.886534e-01 2.130772e-01 2.228465e-01 5.976744e-01 2.580948e-02
<GCONST> 1.026419e+02
<STATE> 12
<MEAN> 39
 -3.159058e+00 -6.078516e+00 -2.115418e+00 -5.361496e+00 1.533542e+00 -9.779822e+00 -2.771958e+00 -5.701021e+00 -2.413386e+00 -1.171404e+01 -1.224827e+01 -6.683773e+00 6.952716e+01 -1.875861e+00 2.028866e+00 -4.891298e-01 2.232830e+00 7.190534e-01 6.713160e-02 1.045292e+00 -1.299646e+00 8.606231e-01 -1.158509e+00 1.227076e+00 -4.930173e-01 -8.249155e-01 -6.861313e-01 6.625937e-01 -7.891773e-01 -5.594139e-02 -1.612177e-01 -1.541575e-01 7.246403e-01 -1.316021e-01 6.979680e-01 1.116684e-01 1.731435e-01 -4.606619e-01 2.275188e-01
<VARIANCE> 39
 9.187840e+00 1.017149e+01 1.271265e+01 1.765570e+01 3.232340e+01 1.543564e+02 2.747404e+01 4.564690e+01 6.098622e+01 4.493764e+01 7.426169e+01 3.143073e+01 1.232139e+01 9.678999e-01 2.085890e+00 1.917215e+00 1.575532e+00 2.134231e+00 2.779845e+00 2.915160e+00 3.596622e+00 4.537067e+00 1.423591e+00 2.982807e+00 1.587523e+00 2.962606e-01 1.408993e-01 1.935481e-01 1.020131e-01 3.066166e-01 4.157531e-01 5.943465e-01 3.670338e-01 2.362356e-01 5.902854e-01 1.522948e-01 4.572234e-01 2.145648e-01 6.209254e-02
<GCONST> 1.051828e+02
<STATE> 13
<MEAN> 39
 -1.516756e+01 7.303964e+00 -9.997101e+00 5.468004e-01 2.129349e+00 -1.065808e+01 6.620582e+00 -1.106531e+01 3.746944e+00 -1.274789e+01 -7.928902e+00 -1.007578e+01 6.978587e+01 -3.505361e+00 3.545295e+00 -2.369687e+00 1.216418e+00 6.982890e-02 -1.397650e+00 2.352387e+00 -4.918921e-01 1.826976e-01 1.453603e-01 3.259126e-01 -2.621932e-01 2.762187e-01 2.936003e-01 -4.218949e-01 2.245991e-01 -2.115422e-01 -9.631561e-04 1.558704e-01 -4.395495e-01 4.755932e-01 -5.789855e-01 3.498480e-01 -1.340382e-01 2.990214e-01 9.470952e-03
<VARIANCE> 39
 2.835489e+01 3.547285e+01 2.581480e+01 9.617318e+00 2.951688e+01 8.070298e+01 2.709356e+01 2.385078e+01 1.263813e+01 8.553259e+01 6.004663e+01 3.031835e+01 6.556365e+00 8.926180e-01 1.739052e+00 8.553354e-01 1.053335e+00 2.259861e+00 3.119364e+00 2.414959e+00 2.165777e+00 3.674904e+00 1.850515e+00 3.820064e+00 1.901152e+00 2.507173e-01 2.913773e-01 3.310287e-01 2.799384e-01 1.859707e-01 2.298591e-01 4.026816e-01 3.464112e-01 2.477651e-01 2.724980e-01 3.144766e-01 7.135318e-01 3.441138e-01 5.551329e-02
<GCONST> 1.043024e+02
<STATE> 14
<MEAN> 39
 -2.296337e+01 1.250384e+01 -1.356283e+01 4.793993e+00 7.358119e-01 -1.418709e+01 9.866426e+00 -9.094164e+00 1.136492e+00 -1.323652e+01 -4.008995e+00 -9.250610e+00 6.897462e+01 -1.104107e+00 8.535330e-01 -2.474557e-01 7.118572e-01 4.433428e-01 8.311405e-01 3.007717e-01 2.728653e-01 -4.817420e-01 2.576971e-01 6.298060e-01 1.114411e-01 -3.616767e-01 4.149944e-01 -4.312632e-01 3.597032e-01 -1.317338e-01 -4.586295e-02 2.752546e-01 -1.567803e-01 -4.990495e-02 6.599356e-02 -2.167534e-01 5.099373e-02 -9.236246e-03 -1.051668e-01
<VARIANCE> 39
 1.127207e+01 3.158163e+01 1.660533e+01 9.297168e+00 7.350172e+01 3.269809e+01 1.728380e+01 4.982799e+01 1.515477e+01 3.668493e+01 4.320156e+01 2.371412e+01 4.365308e+00 3.164076e-01 4.365014e-01 6.385520e-01 7.519622e-01 5.505931e-01 1.130452e+00 9.662371e-01 1.193571e+00 1.106106e+00 9.553382e-01 1.940971e+00 1.176301e+00 9.238240e-02 6.818190e-02 8.765907e-02 1.171156e-01 1.357142e-01 2.144214e-01 1.609950e-01 2.013960e-01 2.410521e-01 2.583313e-01 1.942289e-01 2.638858e-01 2.588758e-01 1.497930e-02
<GCONST> 8.178480e+01
<STATE> 15
<MEAN> 39
 -2.810264e+01 1.686353e+01 -1.473268e+01 6.682090e+00 4.821427e+00 -8.518134e+00 1.200323e+01 -8.843199e+00 -1.122130e+00 -8.297180e+00 -4.853322e+00 -6.201346e+00 6.700983e+01 -2.828979e-01 -3.796676e-01 3.436437e-01 1.475812e-01 6.795663e-02 3.141441e-01 2.149920e-01 1.697999e-02 -6.936087e-02 -8.591168e-03 3.820560e-01 2.494131e-01 -5.176789e-01 5.928373e-02 -1.682036e-01 5.104845e-02 -1.173175e-01 5.971347e-02 -7.394014e-03 9.265168e-03 -5.649886e-02 5.642564e-02 4.350661e-02 -4.776966e-02 -2.996470e-02 -4.259673e-02
<VARIANCE> 39
 1.181136e+01 8.590321e+00 2.709998e+01 9.403547e+00 1.879280e+01 1.383993e+01 1.087059e+01 1.597305e+01 2.304127e+01 4.521502e+01 2.054653e+01 4.907629e+01 7.650599e+00 2.018006e-01 3.986813e-01 3.685522e-01 6.824884e-01 6.992661e-01 8.746009e-01 7.851782e-01 1.097457e+00 1.788034e+00 1.670331e+00 1.224191e+00 1.448636e+00 1.030685e-01 2.742372e-02 7.376814e-02 7.660259e-02 1.216122e-01 1.286553e-01 1.509036e-01 1.864014e-01 1.577894e-01 3.054463e-01 2.963395e-01 2.073679e-01 2.995927e-01 1.911521e-02
<GCONST> 7.582356e+01
<STATE> 16
<MEAN> 39
 -2.691432e+01 7.157937e+00 -9.539394e+00 4.778303e+00 5.491828e+00 -5.289701e+00 1.285415e+01 -9.224051e+00 2.879676e-01 -1.254843e+01 1.381128e+00 -8.818086e+00 6.159777e+01 2.070604e-01 -1.557321e+00 5.970756e-01 -5.485160e-01 8.131891e-01 1.505733e+00 2.606889e-01 -6.064987e-02 -8.313868e-02 -2.063277e-01 -1.322082e-01 -2.023360e-01 -8.889386e-01 1.206532e-01 -1.383127e-01 -3.026737e-03 3.979127e-02 7.003917e-02 2.695422e-01 -5.379007e-02 1.926000e-01 6.615214e-02 -1.208642e-01 -1.830135e-01 -5.283015e-02 1.987646e-02
<VARIANCE> 39
 7.667147e+00 2.649292e+01 1.887691e+01 1.388872e+01 3.353588e+01 2.894983e+01 2.815312e+01 3.636298e+01 4.410216e+01 3.742344e+01 5.040349e+01 2.673984e+01 5.370336e+00 2.583646e-01 5.181980e-01 4.295103e-01 4.726187e-01 1.025422e+00 1.616997e+00 1.795686e+00 1.378964e+00 1.666923e+00 1.702774e+00 1.748229e+00 7.742063e-01 1.186067e-01 1.726842e-02 6.154516e-02 6.391145e-02 1.020759e-01 1.500703e-01 2.972471e-01 2.817985e-01 3.205805e-01 4.042448e-01 2.270649e-01 2.816803e-01 1.527818e-01 2.099169e-02
<GCONST> 8.289557e+01
<STATE> 17
<MEAN> 39
 -2.517568e+01 -1.221776e+00 -7.975975e+00 2.869431e+00 1.050725e+01 5.271522e+00 1.475936e+01 -5.686592e+00 -2.090748e-01 -1.442272e+01 -5.475055e+00 -9.217619e+00 5.799290e+01 5.780894e-01 -1.381409e+00 7.589409e-01 6.925602e-02 1.464782e-01 9.754727e-01 -1.716384e-01 8.819959e-01 2.924198e-01 -5.596787e-01 -6.150376e-01 -3.937258e-01 -5.228139e-01 3.845459e-02 2.425631e-01 8.943822e-02 1.689908e-02 -3.242895e-01 -5.491508e-01 -3.210909e-01 -2.429086e-01 -2.192655e-01 8.677261e-02 1.534143e-01 1.075345e-01 8.069317e-02
<VARIANCE> 39
 8.872617e+00 1.951661e+01 1.180908e+01 1.667551e+01 1.935442e+01 2.076855e+01 2.910449e+01 2.808232e+01 4.529710e+01 2.551273e+01 3.098585e+01 2.612523e+01 1.991230e+00 1.957975e-01 8.654368e-01 7.716783e-01 8.883810e-01 2.423063e+00 2.525396e+00 1.757922e+00 2.595917e+00 2.493246e+00 1.569144e+00 1.805521e+00 1.642686e+00 8.969446e-02 4.527241e-02 7.596819e-02 8.274522e-02 2.269990e-01 3.489099e-01 2.666546e-01 5.120022e-01 4.887519e-01 5.000942e-01 2.924910e-01 2.800321e-01 2.562066e-01 1.170631e-02
<GCONST> 8.805908e+01
<STATE> 18
<MEAN> 39
 -2.097110e+01 -4.535390e+00 -3.429497e+00 1.099550e+00 5.537315e+00 8.821454e-01 6.144086e+00 -8.485874e+00 -2.354007e+00 -1.319083e+01 -2.801042e+00 -7.361335e+00 5.665485e+01 7.433733e-01 -9.058104e-01 8.217443e-01 -2.552069e-01 1.392005e-01 8.064677e-02 -1.171828e+00 -1.698662e-01 -4.764040e-01 1.578492e-01 3.392980e-01 1.971056e-01 -2.797852e-01 -6.913119e-02 -2.489246e-02 -5.121392e-02 -6.837169e-02 1.891335e-01 2.253340e-01 3.025936e-01 1.651508e-01 -7.265244e-02 1.355376e-02 -7.390593e-02 -7.070334e-03 -4.510936e-03
<VARIANCE> 39
 9.166607e+00 2.036444e+01 1.658578e+01 2.243216e+01 2.192678e+01 1.506792e+01 2.775707e+01 2.259699e+01 2.879049e+01 2.549831e+01 3.348172e+01 2.571438e+01 1.454539e+00 2.315563e-01 5.690656e-01 5.670210e-01 1.444890e+00 1.882992e+00 1.789435e+00 3.407050e+00 2.924635e+00 1.544176e+00 1.419160e+00 2.040044e+00 1.746233e+00 5.948655e-02 3.852744e-02 9.515136e-02 1.119791e-01 3.049872e-01 2.807814e-01 2.100238e-01 4.801257e-01 4.569140e-01 2.427088e-01 3.016447e-01 3.830052e-01 4.652789e-01 9.286942e-03
<GCONST> 8.696768e+01
<STATE> 19
<MEAN> 39
 -2.083597e+01 -9.300056e+00 -6.921833e-01 1.291639e+00 1.270042e+01 1.087787e+01 1.189520e+01 -3.642247e+00 -3.693131e+00 -1.275834e+01 -4.982595e+00 -1.037677e+01 5.449763e+01 1.244934e-01 -8.402313e-01 3.094054e-01 -7.127199e-01 6.080605e-02 5.857798e-01 3.724158e-01 8.688001e-01 -4.712598e-01 7.033765e-01 6.756379e-02 2.930907e-03 -3.162323e-01 4.221486e-02 1.248113e-01 -8.567473e-03 -6.213619e-02 -1.624993e-01 -3.312468e-01 -1.413328e-01 -5.110019e-03 1.839543e-02 3.046177e-03 1.441461e-02 5.479566e-02 5.289439e-02
<VARIANCE> 39
 1.161508e+01 1.714134e+01 1.386401e+01 1.923632e+01 1.632212e+01 3.260868e+01 4.805092e+01 2.301366e+01 3.990877e+01 3.106130e+01 2.818427e+01 1.559125e+01 1.456885e+00 2.457653e-01 3.598462e-01 5.208633e-01 1.316911e+00 9.430850e-01 2.211709e+00 1.708210e+00 1.842778e+00 2.226385e+00 2.282651e+00 2.422952e+00 2.053675e+00 5.598944e-02 2.765108e-02 3.722111e-02 8.675115e-02 2.390531e-01 1.605940e-01 3.682860e-01 2.656383e-01 3.482181e-01 4.095512e-01 5.114310e-01 5.429401e-01 2.789082e-01 7.687994e-03
<GCONST> 8.457204e+01
<TRANSP> 20
 0.000000e+00 1.000000e+00 0.000000e+00 0.000000e+00 0.000000e+00 0.000000e+00 0.000000e+00 0.000000e+00 0.000000e+00 0.000000e+00 0.000000e+00 0.000000e+00 0.000000e+00 0.000000e+00 0.000000e+00 0.000000e+00 0.000000e+00 0.000000e+00 0.000000e+00 0.000000e+00
 0.000000e+00 8.206903e-01 1.793098e-01 0.000000e+00 0.000000e+00 0.000000e+00 0.000000e+00 0.000000e+00 0.000000e+00 0.000000e+00 0.000000e+00 0.000000e+00 0.000000e+00 0.000000e+00 0.000000e+00 0.000000e+00 0.000000e+00 0.000000e+00 0.000000e+00 0.000000e+00
 0.000000e+00 0.000000e+00 8.422626e-01 1.577374e-01 0.000000e+00 0.000000e+00 0.000000e+00 0.000000e+00 0.000000e+00 0.000000e+00 0.000000e+00 0.000000e+00 0.000000e+00 0.000000e+00 0.000000e+00 0.000000e+00 0.000000e+00 0.000000e+00 0.000000e+00 0.000000e+00
 0.000000e+00 0.000000e+00 0.000000e+00 7.280415e-01 2.719586e-01 0.000000e+00 0.000000e+00 0.000000e+00 0.000000e+00 0.000000e+00 0.000000e+00 0.000000e+00 0.000000e+00 0.000000e+00 0.000000e+00 0.000000e+00 0.000000e+00 0.000000e+00 0.000000e+00 0.000000e+00
 0.000000e+00 0.000000e+00 0.000000e+00 0.000000e+00 7.825554e-01 2.174446e-01 0.000000e+00 0.000000e+00 0.000000e+00 0.000000e+00 0.000000e+00 0.000000e+00 0.000000e+00 0.000000e+00 0.000000e+00 0.000000e+00 0.000000e+00 0.000000e+00 0.000000e+00 0.000000e+00
 0.000000e+00 0.000000e+00 0.000000e+00 0.000000e+00 0.000000e+00 7.955842e-01 2.044158e-01 0.000000e+00 0.000000e+00 0.000000e+00 0.000000e+00 0.000000e+00 0.000000e+00 0.000000e+00 0.000000e+00 0.000000e+00 0.000000e+00 0.000000e+00 0.000000e+00 0.000000e+00
 0.000000e+00 0.000000e+00 0.000000e+00 0.000000e+00 0.000000e+00 0.000000e+00 7.139569e-01 2.860432e-01 0.000000e+00 0.000000e+00 0.000000e+00 0.000000e+00 0.000000e+00 0.000000e+00 0.000000e+00 0.000000e+00 0.000000e+00 0.000000e+00 0.000000e+00 0.000000e+00
 0.000000e+00 0.000000e+00 0.000000e+00 0.000000e+00 0.000000e+00 0.000000e+00 0.000000e+00 7.887105e-01 2.112895e-01 0.000000e+00 0.000000e+00 0.000000e+00 0.000000e+00 0.000000e+00 0.000000e+00 0.000000e+00 0.000000e+00 0.000000e+00 0.000000e+00 0.000000e+00
 0.000000e+00 0.000000e+00 0.000000e+00 0.000000e+00 0.000000e+00 0.000000e+00 0.000000e+00 0.000000e+00 8.628833e-01 1.371166e-01 0.000000e+00 0.000000e+00 0.000000e+00 0.000000e+00 0.000000e+00 0.000000e+00 0.000000e+00 0.000000e+00 0.000000e+00 0.000000e+00
 0.000000e+00 0.000000e+00 0.000000e+00 0.000000e+00 0.000000e+00 0.000000e+00 0.000000e+00 0.000000e+00 0.000000e+00 7.826633e-01 2.173367e-01 0.000000e+00 0.000000e+00 0.000000e+00 0.000000e+00 0.000000e+00 0.000000e+00 0.000000e+00 0.000000e+00 0.000000e+00
 0.000000e+00 0.000000e+00 0.000000e+00 0.000000e+00 0.000000e+00 0.000000e+00 0.000000e+00 0.000000e+00 0.000000e+00 0.000000e+00 7.983088e-01 2.016912e-01 0.000000e+00 0.000000e+00 0.000000e+00 0.000000e+00 0.000000e+00 0.000000e+00 0.000000e+00 0.000000e+00
 0.000000e+00 0.000000e+00 0.000000e+00 0.000000e+00 0.000000e+00 0.000000e+00 0.000000e+00 0.000000e+00 0.000000e+00 0.000000e+00 0.000000e+00 7.075430e-01 2.924570e-01 0.000000e+00 0.000000e+00 0.000000e+00 0.000000e+00 0.000000e+00 0.000000e+00 0.000000e+00
 0.000000e+00 0.000000e+00 0.000000e+00 0.000000e+00 0.000000e+00 0.000000e+00 0.000000e+00 0.000000e+00 0.000000e+00 0.000000e+00 0.000000e+00 0.000000e+00 7.384613e-01 2.615388e-01 0.000000e+00 0.000000e+00 0.000000e+00 0.000000e+00 0.000000e+00 0.000000e+00
 0.000000e+00 0.000000e+00 0.000000e+00 0.000000e+00 0.000000e+00 0.000000e+00 0.000000e+00 0.000000e+00 0.000000e+00 0.000000e+00 0.000000e+00 0.000000e+00 0.000000e+00 7.302254e-01 2.697746e-01 0.000000e+00 0.000000e+00 0.000000e+00 0.000000e+00 0.000000e+00
 0.000000e+00 0.000000e+00 0.000000e+00 0.000000e+00 0.000000e+00 0.000000e+00 0.000000e+00 0.000000e+00 0.000000e+00 0.000000e+00 0.000000e+00 0.000000e+00 0.000000e+00 0.000000e+00 8.827089e-01 1.172911e-01 0.000000e+00 0.000000e+00 0.000000e+00 0.000000e+00
 0.000000e+00 0.000000e+00 0.000000e+00 0.000000e+00 0.000000e+00 0.000000e+00 0.000000e+00 0.000000e+00 0.000000e+00 0.000000e+00 0.000000e+00 0.000000e+00 0.000000e+00 0.000000e+00 0.000000e+00 8.189532e-01 1.810469e-01 0.000000e+00 0.000000e+00 0.000000e+00
 0.000000e+00 0.000000e+00 0.000000e+00 0.000000e+00 0.000000e+00 0.000000e+00 0.000000e+00 0.000000e+00 0.000000e+00 0.000000e+00 0.000000e+00 0.000000e+00 0.000000e+00 0.000000e+00 0.000000e+00 0.000000e+00 7.576783e-01 2.423217e-01 0.000000e+00 0.000000e+00
 0.000000e+00 0.000000e+00 0.000000e+00 0.000000e+00 0.000000e+00 0.000000e+00 0.000000e+00 0.000000e+00 0.000000e+00 0.000000e+00 0.000000e+00 0.000000e+00 0.000000e+00 0.000000e+00 0.000000e+00 0.000000e+00 0.000000e+00 7.979217e-01 2.020783e-01 0.000000e+00
 0.000000e+00 0.000000e+00 0.000000e+00 0.000000e+00 0.000000e+00 0.000000e+00 0.000000e+00 0.000000e+00 0.000000e+00 0.000000e+00 0.000000e+00 0.000000e+00 0.000000e+00 0.000000e+00 0.000000e+00 0.000000e+00 0.000000e+00 0.000000e+00 7.970315e-01 2.029684e-01
 0.000000e+00 0.000000e+00 0.000000e+00 0.000000e+00 0.000000e+00 0.000000e+00 0.000000e+00 0.000000e+00 0.000000e+00 0.000000e+00 0.000000e+00 0.000000e+00 0.000000e+00 0.000000e+00 0.000000e+00 0.000000e+00 0.000000e+00 0.000000e+00 0.000000e+00 0.000000e+00
<ENDHMM>
