~o
<STREAMINFO> 1 39
<VECSIZE> 39<NULLD><MFCC_D_A_0><DIAGC>
~h "pasang"
<BEGINHMM>
<NUMSTATES> 5
<STATE> 2
<MEAN> 39
 -1.009543e+01 8.849001e-01 -1.148544e+01 -3.147257e+00 4.462718e+00 -7.005741e+00 -8.518484e-01 -9.075857e+00 1.714818e+00 -8.620850e+00 -3.321174e+00 -9.748397e+00 6.913052e+01 4.266329e-01 -4.353068e-02 -4.210597e-01 -3.161528e-02 4.142752e-02 -1.301790e-01 -2.094123e-01 -5.479335e-02 1.045709e-01 -7.302094e-03 -1.620642e-01 -9.713026e-02 5.667155e-01 -1.661776e-03 -5.109224e-02 3.063571e-02 1.708947e-02 3.675010e-02 3.270569e-02 -1.255860e-02 -5.057100e-03 -1.846007e-02 -2.798407e-02 6.505321e-03 1.092727e-02 -1.667272e-02
<VARIANCE> 39
 1.054869e+02 9.987769e+01 5.075963e+01 6.132058e+01 6.588750e+01 4.976727e+01 6.039782e+01 6.743269e+01 3.156584e+01 7.622129e+01 8.365810e+01 2.489241e+01 3.373260e+01 7.437701e+00 4.975156e+00 3.267768e+00 3.622282e+00 2.630470e+00 3.334017e+00 3.917062e+00 3.523250e+00 2.646116e+00 3.684682e+00 3.110266e+00 2.078681e+00 1.612645e+00 8.102360e-01 3.990705e-01 5.884846e-01 5.354017e-01 4.071865e-01 5.308064e-01 5.878448e-01 5.846890e-01 5.252252e-01 5.388499e-01 5.181912e-01 3.376502e-01 2.423268e-01
<GCONST> 1.305291e+02
<STATE> 3
<MEAN> 39
 2.036076e-01 -5.528658e+00 -4.068082e+00 -1.031354e+01 3.297322e+00 -7.932609e+00 -1.005972e+01 -9.098045e+00 -3.576598e+00 -9.954950e+00 -5.674972e+00 -1.004837e+01 6.944408e+01 4.394881e-03 3.924642e-01 1.191645e+00 -4.095664e-02 1.304683e-01 1.535361e-01 7.904174e-02 -2.236015e-01 -6.257057e-01 -3.151538e-01 -7.419120e-02 -8.059146e-02 -7.397981e-01 -7.031949e-02 8.846861e-02 1.062241e-02 3.937098e-02 -4.803545e-02 -4.544733e-02 7.022224e-02 4.702047e-03 2.082620e-02 3.832053e-02 -2.847380e-02 -2.355367e-02 -3.140721e-02
<VARIANCE> 39
 8.886833e+00 2.028564e+01 1.032508e+02 3.803010e+01 4.527004e+01 7.302522e+01 4.893830e+01 1.292352e+02 8.519674e+01 8.389289e+01 6.858961e+01 3.018987e+01 3.186428e+01 3.868636e-01 7.032815e-01 7.732655e-01 1.283438e+00 1.635112e+00 1.780381e+00 1.873517e+00 2.028638e+00 3.536132e+00 1.608827e+00 2.301947e+00 1.547613e+00 1.157084e-01 3.563493e-02 1.122784e-01 1.047226e-01 1.155675e-01 2.025711e-01 2.231211e-01 2.636458e-01 3.164620e-01 5.371251e-01 2.941534e-01 3.439853e-01 2.216781e-01 1.688774e-02
<GCONST> 9.990531e+01
<STATE> 4
<MEAN> 39
 -1.160588e+01 -1.263873e+00 7.975041e+00 -8.885547e-01 2.266042e+00 -6.308667e+00 -2.027541e+00 -8.987906e+00 -9.565721e+00 -1.492465e+01 -7.955512e+00 -7.318419e+00 5.756308e+01 -6.287034e-01 -1.587154e-01 -9.160284e-02 3.051281e-01 -1.172322e-01 3.331994e-03 2.173898e-01 2.612942e-01 1.267181e-01 2.027218e-03 1.009584e-01 2.339099e-01 -2.327348e-01 1.609685e-02 -1.983790e-02 -5.022006e-02 -2.587911e-02 4.423937e-03 -1.121754e-02 -4.095105e-02 5.564121e-04 3.516015e-02 -4.192271e-03 2.394216e-02 -7.290119e-03 2.295207e-02
<VARIANCE> 39
 2.278873e+01 1.062587e+01 2.903798e+01 2.211531e+01 4.526834e+01 4.167113e+01 4.909548e+01 8.273135e+01 5.973244e+01 6.520226e+01 4.200202e+01 6.436259e+01 4.218736e+00 2.216004e-01 4.576849e-01 7.900787e-01 1.079583e+00 1.393929e+00 1.716894e+00 2.120806e+00 1.665713e+00 2.315228e+00 2.165752e+00 2.090196e+00 1.844809e+00 7.672060e-02 2.810607e-02 7.609385e-02 1.128222e-01 1.695910e-01 2.366591e-01 2.886303e-01 3.940100e-01 2.368623e-01 4.095145e-01 3.723818e-01 3.838756e-01 3.539986e-01 1.014106e-02
<GCONST> 9.354713e+01
<TRANSP> 5
 0.000000e+00 1.000000e+00 0.000000e+00 0.000000e+00 0.000000e+00
 0.000000e+00 9.698185e-01 3.018150e-02 0.000000e+00 0.000000e+00
 0.000000e+00 0.000000e+00 9.490532e-01 5.094681e-02 0.000000e+00
 0.000000e+00 0.000000e+00 0.000000e+00 9.583137e-01 4.168627e-02
 0.000000e+00 0.000000e+00 0.000000e+00 0.000000e+00 0.000000e+00
<ENDHMM>
