~o
<STREAMINFO> 1 39
<VECSIZE> 39<NULLD><MFCC_D_A_0><DIAGC>
~h "alarm"
<BEGINHMM>
<NUMSTATES> 5
<STATE> 2
<MEAN> 39
 -9.302470e+00 -1.217924e+01 -8.796740e+00 -6.116156e+00 2.921436e+00 -2.900948e+00 -1.753480e+00 -9.383247e+00 1.039724e+00 -7.777081e+00 -4.650336e+00 -9.933836e+00 6.507587e+01 2.217585e+00 -1.190678e+00 -1.327440e+00 -5.630479e-01 2.769448e-01 4.741230e-01 -7.452700e-01 -5.497218e-01 1.002947e-01 -2.459638e-01 -1.011756e+00 -7.717844e-01 2.361707e+00 -1.898251e-02 7.491064e-02 1.299736e-01 1.875260e-02 -1.372420e-01 -4.666170e-02 -8.751809e-02 6.277370e-02 -1.258822e-01 5.134758e-02 5.891500e-02 8.230959e-02 1.280103e-02
<VARIANCE> 39
 5.636440e+01 3.289602e+01 6.117173e+01 2.237499e+01 5.481241e+01 4.503140e+01 7.068700e+01 8.074660e+01 5.706548e+01 5.850944e+01 4.476397e+01 2.622954e+01 6.586325e+01 2.737364e+00 2.836501e+00 4.403319e+00 2.666800e+00 4.984960e+00 3.409349e+00 4.149611e+00 7.916624e+00 4.014794e+00 4.984704e+00 4.179331e+00 2.753580e+00 2.824110e+00 7.068922e-01 7.241472e-01 8.732753e-01 4.061405e-01 7.858395e-01 5.697897e-01 6.709812e-01 1.170627e+00 6.754035e-01 6.775009e-01 6.369796e-01 6.051580e-01 7.841061e-01
<GCONST> 1.348401e+02
<STATE> 3
<MEAN> 39
 1.346714e+00 -1.004417e+01 -8.709714e+00 -8.966812e+00 3.698194e-01 -5.097796e+00 -7.130659e+00 -7.512260e+00 -1.127023e-01 -4.676768e+00 -4.346702e+00 -1.241056e+01 7.356109e+01 -1.180696e-02 4.539483e-01 3.208532e-01 1.073814e-01 -1.439427e-01 -2.371339e-01 -2.368000e-02 -2.998065e-02 -1.304693e-01 -3.204955e-02 8.110446e-02 -1.403764e-02 -2.303437e-01 -2.891658e-02 2.979644e-02 1.796107e-02 2.395952e-02 4.844659e-02 1.083341e-02 1.055769e-02 -2.283240e-02 2.272669e-03 -4.033443e-02 -5.736422e-03 -5.945770e-03 -3.901080e-02
<VARIANCE> 39
 4.475060e+00 2.587358e+01 8.276185e+01 3.936325e+01 8.433427e+01 6.693018e+01 6.279002e+01 1.441485e+02 4.127924e+01 7.614719e+01 1.136875e+02 3.767213e+01 1.388080e+01 2.516695e-01 1.659594e+00 1.417672e+00 1.312686e+00 1.614854e+00 1.765688e+00 1.350297e+00 2.042058e+00 1.843135e+00 2.474205e+00 1.626551e+00 1.767881e+00 3.602073e-01 4.630359e-02 1.884176e-01 1.966797e-01 1.938082e-01 2.376671e-01 2.840035e-01 2.164679e-01 3.100112e-01 2.918274e-01 4.320800e-01 2.713332e-01 2.953800e-01 6.064588e-02
<GCONST> 1.038722e+02
<STATE> 4
<MEAN> 39
 -1.072290e+01 3.051174e+00 7.248517e+00 8.560870e-01 -6.626877e-01 -8.432988e+00 -4.046678e+00 -1.103691e+01 -6.323419e+00 -1.239219e+01 -3.269598e+00 -9.167702e+00 5.923339e+01 -5.604701e-01 -7.237880e-02 2.428742e-01 2.003036e-01 1.216856e-01 9.588867e-02 1.498702e-01 1.155988e-01 3.772973e-02 1.809528e-02 1.867054e-01 3.089751e-01 -3.613862e-01 3.401080e-03 -6.612879e-02 -5.880444e-02 -3.068777e-02 -2.172487e-02 -9.415303e-03 6.882017e-03 2.468605e-02 3.131448e-02 3.119792e-02 -1.024689e-03 7.765600e-03 1.766407e-02
<VARIANCE> 39
 3.724887e+01 1.552255e+01 3.433852e+01 3.190120e+01 3.695027e+01 4.092601e+01 4.590805e+01 4.742649e+01 4.358888e+01 4.619556e+01 4.958676e+01 3.638411e+01 1.328380e+01 2.219595e-01 6.820785e-01 1.123628e+00 9.494998e-01 1.390876e+00 1.529670e+00 1.547804e+00 2.114496e+00 1.840215e+00 1.817924e+00 1.667104e+00 1.790441e+00 1.071542e-01 3.016359e-02 7.783891e-02 1.540343e-01 1.757720e-01 2.310515e-01 2.555884e-01 2.630545e-01 3.514045e-01 3.155578e-01 3.411930e-01 2.935190e-01 3.301627e-01 8.352732e-03
<GCONST> 9.369866e+01
<TRANSP> 5
 0.000000e+00 1.000000e+00 0.000000e+00 0.000000e+00 0.000000e+00
 0.000000e+00 8.782966e-01 1.217035e-01 0.000000e+00 0.000000e+00
 0.000000e+00 0.000000e+00 9.732991e-01 2.670097e-02 0.000000e+00
 0.000000e+00 0.000000e+00 0.000000e+00 9.688292e-01 3.117086e-02
 0.000000e+00 0.000000e+00 0.000000e+00 0.000000e+00 0.000000e+00
<ENDHMM>
