~o
<STREAMINFO> 1 39
<VECSIZE> 39<NULLD><MFCC_D_A_0><DIAGC>
~h "seperempat"
<BEGINHMM>
<NUMSTATES> 5
<STATE> 2
<MEAN> 39
 -2.231594e+01 2.414973e+00 -8.536345e+00 -3.808703e-02 -8.980232e-01 -7.443357e+00 3.117991e+00 -9.050762e+00 3.245823e+00 -7.541999e+00 2.204887e+00 -5.930247e+00 6.032739e+01 5.676860e-01 1.221045e+00 -6.300766e-01 9.286157e-02 -5.782765e-01 -1.295962e+00 -7.972136e-01 -4.395094e-01 5.961764e-01 3.721216e-01 -1.688734e-01 -2.652090e-01 1.039094e+00 4.859824e-01 -1.486122e-01 5.375302e-02 -2.276186e-01 -9.334711e-05 -4.086822e-02 -3.715870e-01 -5.016993e-02 -7.442672e-04 1.526490e-01 -9.347178e-02 -1.628894e-01 1.723498e-01
<VARIANCE> 39
 2.551230e+01 4.468232e+01 2.200086e+01 2.428984e+01 2.835245e+01 4.447883e+01 3.367849e+01 2.500292e+01 2.543307e+01 3.316461e+01 2.061439e+01 2.471827e+01 1.018992e+01 8.579212e+00 2.338465e+00 2.388150e+00 3.890919e+00 2.867027e+00 4.480173e+00 8.822435e+00 2.519778e+00 2.072139e+00 2.987374e+00 3.056730e+00 2.759824e+00 7.063846e-01 8.653647e-01 4.252172e-01 4.594812e-01 5.401230e-01 4.975559e-01 7.926429e-01 1.043917e+00 5.456540e-01 3.361637e-01 3.698120e-01 5.202862e-01 5.294378e-01 8.938412e-02
<GCONST> 1.189798e+02
<STATE> 3
<MEAN> 39
 -1.754037e+00 -4.280104e+00 -6.497245e+00 -6.518405e+00 -1.047690e+00 -6.718794e+00 -5.137775e+00 -1.196068e+01 -1.450237e+00 -3.397533e+00 -8.587325e-01 -1.157313e+01 6.806967e+01 1.586465e-01 -2.783388e-01 4.786306e-02 -4.499983e-02 7.143995e-02 2.394418e-01 3.331704e-02 4.787014e-02 -9.225267e-02 -1.451920e-01 -1.643424e-01 -7.685442e-02 -4.901528e-03 -1.102314e-01 2.829711e-02 1.211686e-03 3.114102e-02 1.601294e-02 2.977105e-02 9.933054e-02 2.311630e-02 -1.290429e-02 -4.077049e-02 1.136147e-02 2.524818e-02 -6.197203e-02
<VARIANCE> 39
 2.358622e+01 6.065622e+01 5.399473e+01 2.605842e+01 5.353132e+01 7.245063e+01 7.048040e+01 6.003726e+01 5.916290e+01 8.542225e+01 6.673080e+01 4.094626e+01 2.428474e+01 2.487968e+00 2.381349e+00 3.335438e+00 2.690150e+00 2.349489e+00 2.708432e+00 3.187465e+00 3.157183e+00 2.673309e+00 4.289331e+00 2.419079e+00 2.927530e+00 1.946936e+00 4.396065e-01 2.461811e-01 5.681153e-01 5.337213e-01 4.050332e-01 4.948936e-01 6.037834e-01 5.662338e-01 4.428309e-01 7.683164e-01 4.574319e-01 5.203210e-01 2.833496e-01
<GCONST> 1.257605e+02
<STATE> 4
<MEAN> 39
 -1.159111e+01 -5.142685e+00 -4.402773e+00 -5.957955e+00 1.494081e+00 -9.402291e-01 3.117548e+00 -3.980300e+00 -4.058629e-01 -1.150460e+01 -6.866406e+00 -1.174107e+01 6.010818e+01 -7.692651e-01 1.465532e-01 2.846862e-01 1.821981e-01 2.833902e-01 3.795869e-01 7.015014e-01 3.769458e-01 -1.656609e-01 -6.728601e-02 3.337279e-01 1.527333e-01 -5.863662e-01 3.330807e-02 -6.270467e-02 2.621729e-03 2.442834e-02 -1.986860e-02 -1.930219e-02 -5.153662e-02 -2.121856e-02 1.336892e-02 2.265581e-02 2.276083e-02 5.393764e-02 5.065460e-02
<VARIANCE> 39
 2.119482e+01 6.721643e+00 1.455809e+01 1.647054e+01 2.749168e+01 2.371864e+01 3.102975e+01 2.963187e+01 2.200219e+01 3.159026e+01 3.261792e+01 2.048405e+01 1.182934e+01 1.410767e-01 4.157373e-01 5.300126e-01 8.481480e-01 1.062808e+00 1.167639e+00 1.634233e+00 1.398021e+00 1.263190e+00 1.348885e+00 1.389845e+00 1.184371e+00 1.008158e-01 2.211653e-02 4.725561e-02 7.616930e-02 1.164448e-01 1.660124e-01 1.712854e-01 2.639145e-01 2.215477e-01 2.262920e-01 1.984081e-01 2.168943e-01 2.260512e-01 7.867446e-03
<GCONST> 7.813048e+01
<TRANSP> 5
 0.000000e+00 1.000000e+00 0.000000e+00 0.000000e+00 0.000000e+00
 0.000000e+00 9.039593e-01 9.604070e-02 0.000000e+00 0.000000e+00
 0.000000e+00 0.000000e+00 9.819461e-01 1.805390e-02 0.000000e+00
 0.000000e+00 0.000000e+00 0.000000e+00 9.492335e-01 5.076649e-02
 0.000000e+00 0.000000e+00 0.000000e+00 0.000000e+00 0.000000e+00
<ENDHMM>
