~o
<STREAMINFO> 1 39
<VECSIZE> 39<NULLD><MFCC_D_A_0><DIAGC>
~h "pukul"
<BEGINHMM>
<NUMSTATES> 20
<STATE> 2
<MEAN> 39
 -1.664950e+01 -6.498610e+00 -2.712362e+00 -4.699206e+00 9.158693e-01 -4.209363e+00 7.251849e-01 -6.127728e+00 -9.761064e-01 -7.193678e+00 1.643633e+00 -5.085763e+00 5.749536e+01 1.607552e+00 7.016537e-01 -3.961780e-01 -8.001382e-01 -7.596066e-01 -6.154066e-01 -8.063598e-01 -1.576266e+00 -1.148177e+00 -2.837127e-01 6.391423e-01 7.321353e-01 9.893035e-01 8.409963e-01 5.722741e-01 -9.194534e-02 -6.316014e-01 -5.658212e-01 -1.717715e-01 -2.975082e-01 -2.842760e-01 -3.456107e-01 -1.767491e-02 2.039690e-01 1.673301e-01 4.132372e-01
<VARIANCE> 39
 2.663119e+00 2.538631e+00 8.324278e+00 9.088689e+00 9.765177e+00 2.017092e+01 1.928172e+01 1.841129e+01 1.509853e+01 1.157337e+01 1.688969e+01 1.336133e+01 2.005666e+00 2.988429e+00 1.925208e+00 1.677521e+00 2.857189e+00 3.184035e+00 2.442410e+00 2.990223e+00 3.163140e+00 2.135244e+00 1.773183e+00 2.630871e+00 2.095534e+00 8.579746e-01 2.582441e-01 2.826816e-01 2.353898e-01 4.555446e-01 4.800294e-01 4.817290e-01 5.549747e-01 4.431631e-01 3.554164e-01 2.779584e-01 6.404135e-01 4.136976e-01 6.985442e-02
<GCONST> 9.682703e+01
<STATE> 3
<MEAN> 39
 -6.354488e-01 4.064940e+00 -4.302717e+00 -1.583774e+01 -8.708623e+00 -7.733253e+00 -5.108226e+00 -1.391077e+01 -8.155336e+00 -9.035695e+00 5.410508e+00 -9.854410e-01 6.582215e+01 3.836596e+00 2.942893e+00 -6.035986e-02 -3.671717e+00 -2.464519e+00 8.827311e-02 -3.505628e-01 4.163135e-01 -1.363569e+00 -7.067890e-01 5.600792e-01 2.843527e-01 1.914207e+00 -8.632200e-01 -5.057421e-01 1.545438e-01 4.203019e-01 5.710984e-01 4.767572e-01 6.071360e-01 9.401833e-01 4.137708e-01 -1.344581e-01 -2.487729e-01 -3.022123e-01 -4.272486e-01
<VARIANCE> 39
 2.239835e+01 2.309039e+01 2.833778e+01 4.140764e+01 3.268317e+01 2.722204e+01 1.750014e+01 3.051011e+01 2.511723e+01 2.128788e+01 4.214769e+01 2.476804e+01 6.364721e+00 2.391995e+00 2.113000e+00 1.835018e+00 2.911497e+00 2.691674e+00 4.446987e+00 3.499531e+00 5.090786e+00 2.565581e+00 1.888186e+00 5.298980e+00 1.945537e+00 6.912714e-01 5.067810e-01 5.613443e-01 3.810329e-01 1.006188e+00 5.588045e-01 2.912144e-01 4.276090e-01 4.385342e-01 3.717477e-01 3.983848e-01 5.864264e-01 4.667980e-01 1.083097e-01
<GCONST> 1.142141e+02
<STATE> 4
<MEAN> 39
 4.189027e+00 8.110168e+00 -2.938001e+00 -2.261231e+01 -9.655927e+00 -3.056589e+00 -3.390604e+00 -8.188619e+00 -9.998264e+00 -1.255423e+01 7.187563e+00 -1.088593e-01 6.891573e+01 -5.240881e-01 2.719177e-02 4.160082e-01 8.204148e-01 5.709260e-01 -2.557327e-02 5.585372e-01 4.822083e-01 1.999740e-01 -5.487472e-01 -8.741966e-01 -3.966594e-01 -4.123889e-01 -6.823559e-01 -4.395399e-01 1.552143e-01 8.866868e-01 4.049734e-01 -2.702246e-01 -1.152213e-01 -2.840356e-01 3.011838e-01 2.028553e-01 -3.077520e-01 -1.935934e-01 -4.232594e-01
<VARIANCE> 39
 3.156450e+00 5.862641e+00 2.292733e+01 2.661796e+01 3.922091e+01 8.045875e+01 1.867612e+01 8.401940e+01 2.894195e+01 8.992542e+00 5.992381e+01 2.266917e+01 6.018150e+00 5.744064e-01 2.980024e-01 7.752796e-01 2.231784e+00 1.082337e+00 1.661040e+00 9.173174e-01 2.797821e+00 1.649905e+00 1.277213e+00 9.077817e-01 1.426741e+00 4.053369e-01 1.447212e-01 1.295823e-01 1.535278e-01 4.113567e-01 2.378923e-01 3.658958e-01 2.963553e-01 6.458002e-01 2.767247e-01 2.462976e-01 2.644204e-01 2.135700e-01 4.534961e-02
<GCONST> 9.192160e+01
<STATE> 5
<MEAN> 39
 -2.247353e+00 5.251888e+00 -1.296522e+00 -1.398083e+01 -6.840130e+00 -6.982778e+00 -2.041610e+00 -8.095443e+00 -6.966734e+00 -1.240215e+01 1.186558e-01 -4.519399e+00 6.424925e+01 -1.405517e+00 -9.070067e-01 3.441238e-01 1.361782e+00 4.665052e-01 -4.479024e-01 -1.893599e-01 -1.545723e-01 4.600443e-01 9.606442e-02 -7.294143e-01 -3.852370e-01 -8.186303e-01 4.030402e-02 -5.466867e-02 -1.212487e-01 -1.593078e-01 -8.138269e-02 4.682469e-02 -4.244269e-02 -1.426506e-01 -1.054801e-01 5.956192e-02 2.324878e-01 1.459090e-01 6.089954e-02
<VARIANCE> 39
 5.523405e+00 5.924600e+00 1.057770e+01 1.160756e+01 3.479074e+01 3.727667e+01 1.780944e+01 4.618070e+01 3.339857e+01 1.521877e+01 4.898317e+01 3.763694e+01 2.178793e+00 1.008317e-01 2.983783e-01 5.577114e-01 6.013931e-01 1.154512e+00 1.198929e+00 1.283968e+00 2.012017e+00 1.063923e+00 1.584905e+00 1.462334e+00 1.374314e+00 4.273399e-02 3.322119e-02 4.668466e-02 5.880066e-02 8.175880e-02 1.956680e-01 2.175315e-01 2.316513e-01 2.781552e-01 2.310006e-01 3.575492e-01 2.543886e-01 2.086958e-01 9.233437e-03
<GCONST> 7.531097e+01
<STATE> 6
<MEAN> 39
 -7.913368e+00 1.400714e+00 -2.059911e-01 -7.993066e+00 -4.259599e+00 -7.475678e+00 -2.136067e+00 -9.722723e+00 -4.721710e+00 -1.122966e+01 -1.836874e+00 -6.283387e+00 6.109085e+01 -6.874713e-01 -4.658598e-01 2.498141e-02 8.943062e-01 1.116295e+00 6.371318e-01 3.334062e-01 1.040273e-01 3.332243e-01 2.224631e-01 -2.164843e-01 -6.087764e-01 -3.409779e-01 1.807551e-01 5.694056e-02 -2.538600e-01 -2.589604e-01 4.991951e-02 2.541876e-01 2.621757e-01 2.764812e-01 -1.458458e-02 2.920059e-02 1.947768e-02 1.091965e-03 1.254470e-01
<VARIANCE> 39
 3.584246e+00 4.448819e+00 8.282953e+00 1.250721e+01 2.244886e+01 2.043064e+01 1.077417e+01 1.944719e+01 2.322095e+01 1.479945e+01 2.915026e+01 2.436783e+01 9.583938e-01 1.220921e-01 3.036608e-01 5.788925e-01 8.990313e-01 5.961536e-01 6.761817e-01 1.100153e+00 9.022091e-01 1.490196e+00 1.510162e+00 1.847625e+00 1.108639e+00 3.640619e-02 3.061146e-02 1.137714e-01 2.583318e-01 2.370905e-01 3.234631e-01 2.457155e-01 3.356974e-01 3.048696e-01 4.279464e-01 3.282082e-01 4.602255e-01 3.184278e-01 1.175385e-02
<GCONST> 7.468288e+01
<STATE> 7
<MEAN> 39
 -8.985791e+00 -7.512880e-01 -4.365832e+00 -9.210123e+00 -1.124379e+00 -2.777080e+00 2.630800e+00 -5.664330e+00 -3.015972e+00 -1.005657e+01 -2.808735e+00 -8.475900e+00 6.108781e+01 3.780419e-01 -5.349662e-01 -2.318259e+00 -1.974342e+00 -2.664743e-01 1.688117e+00 2.328663e+00 1.302211e+00 4.908506e-02 4.182707e-01 1.934216e-01 3.443953e-01 4.764132e-01 4.533415e-01 4.041774e-01 7.551260e-02 -4.087955e-01 -5.867307e-01 -4.213273e-01 -4.902332e-01 -5.692128e-01 -4.350770e-01 -1.457077e-01 4.004821e-01 4.630841e-01 2.095898e-01
<VARIANCE> 39
 4.370941e+00 6.176815e+00 3.104473e+01 4.525777e+01 4.716612e+01 3.498499e+01 3.363638e+01 3.678304e+01 4.239133e+01 5.006878e+01 4.253829e+01 2.587033e+01 1.933294e+00 4.575049e-01 1.209327e+00 3.038321e+00 3.048299e+00 4.185867e+00 3.085444e+00 3.981340e+00 3.494302e+00 3.358241e+00 2.644435e+00 3.771508e+00 1.428599e+00 2.152469e-01 1.018100e-01 1.859913e-01 7.884652e-01 8.307534e-01 4.654856e-01 7.420428e-01 1.470378e+00 6.165832e-01 4.513074e-01 5.799044e-01 4.796406e-01 2.271482e-01 4.659756e-02
<GCONST> 1.090559e+02
<STATE> 8
<MEAN> 39
 -6.677426e+00 1.543827e-01 -7.651736e+00 -1.335683e+01 -3.310753e+00 -9.337094e-01 5.224017e+00 -6.215043e+00 -6.346102e+00 -1.118417e+01 -4.338351e-01 -4.669313e+00 6.258844e+01 2.098938e+00 1.901131e+00 6.671788e-01 -8.364020e-01 -1.378071e+00 -1.509413e+00 -2.606299e+00 -2.529713e+00 -2.041205e+00 -6.918909e-01 1.679969e+00 1.751577e+00 1.011597e+00 5.215400e-01 4.660589e-01 5.320342e-01 -1.890797e-02 -2.121889e-01 -4.821738e-01 -1.156738e+00 -6.509857e-01 -1.392626e-01 6.043316e-02 3.372249e-01 -7.381111e-02 2.851269e-01
<VARIANCE> 39
 9.080841e+00 1.605378e+01 4.455621e+01 5.799124e+01 9.370409e+01 5.065010e+01 3.496631e+01 6.533904e+01 5.716185e+01 3.293828e+01 5.465408e+01 3.820237e+01 3.003799e+00 1.069536e+00 9.976783e-01 2.783619e+00 4.428397e+00 2.891169e+00 2.404138e+00 3.461375e+00 2.147180e+00 1.529824e+00 1.514312e+00 1.681677e+00 1.646688e+00 3.867276e-01 1.672748e-01 2.766121e-01 1.112880e+00 1.298309e+00 8.279442e-01 8.795255e-01 7.845427e-01 7.067273e-01 5.084349e-01 3.136823e-01 3.581909e-01 5.179981e-01 9.866466e-02
<GCONST> 1.149813e+02
<STATE> 9
<MEAN> 39
 1.625837e+00 6.982462e+00 -4.795256e+00 -1.821487e+01 -8.322174e+00 -6.643007e+00 -7.902342e+00 -1.491936e+01 -1.138543e+01 -1.138165e+01 6.559925e+00 -1.917338e+00 6.733789e+01 1.908034e+00 9.269053e-01 -1.331702e-02 -1.866630e+00 -7.159200e-01 8.610548e-02 -2.256218e+00 -7.713690e-01 -7.863779e-01 6.079950e-01 1.666667e+00 -2.768793e-01 1.363162e+00 -5.600660e-01 -6.333143e-01 -3.157789e-01 2.279157e-01 6.606414e-01 8.157343e-01 8.631951e-01 7.164694e-01 4.366075e-01 3.569202e-01 -3.807441e-01 -5.219077e-01 -2.110552e-01
<VARIANCE> 39
 3.884036e+00 1.675254e+01 4.111907e+01 3.490546e+01 3.136347e+01 3.356208e+01 6.720796e+01 6.389679e+01 5.783459e+01 2.602662e+01 1.066595e+02 2.925154e+01 4.251736e+00 1.011410e+00 1.320568e+00 2.127282e+00 4.478667e+00 2.988315e+00 3.999047e+00 4.843864e+00 4.550114e+00 3.435245e+00 3.000094e+00 2.692392e+00 2.769885e+00 5.201094e-01 8.032162e-02 7.476123e-02 2.555171e-01 4.766166e-01 2.606283e-01 3.495832e-01 3.495177e-01 4.227836e-01 4.755948e-01 1.767069e-01 3.096250e-01 3.209126e-01 5.722837e-02
<GCONST> 1.078863e+02
<STATE> 10
<MEAN> 39
 4.291739e+00 7.679749e+00 -8.292957e+00 -1.992570e+01 -9.010000e+00 -3.421147e+00 -2.619733e+00 -1.490812e+01 -1.146349e+01 -1.067002e+01 7.316094e+00 -1.072217e+00 6.889502e+01 1.060214e-01 -5.733781e-01 -5.884178e-01 -1.229582e-01 7.933484e-01 1.056406e+00 -4.929941e-01 -1.607028e+00 -3.427176e-01 1.655928e+00 1.307642e+00 -4.481777e-01 3.726236e-01 -2.385178e-01 -2.188882e-01 1.915409e-01 2.383088e-01 -9.757669e-04 -4.152169e-02 -5.763612e-02 -2.768835e-01 2.224785e-01 3.850913e-01 -2.343461e-01 -2.437561e-01 -9.595852e-02
<VARIANCE> 39
 2.964616e+00 1.561544e+01 2.991661e+01 2.871488e+01 2.672258e+01 2.613328e+01 3.891259e+01 4.771238e+01 2.758398e+01 3.943092e+01 4.877858e+01 2.588464e+01 1.513821e+00 1.938712e-01 5.600027e-01 7.970926e-01 6.541265e-01 8.551989e-01 1.178270e+00 1.418773e+00 4.101948e+00 1.395154e+00 3.353215e+00 2.263299e+00 3.464270e+00 5.519621e-02 4.823412e-02 6.828352e-02 1.645623e-01 1.368701e-01 1.832083e-01 1.484536e-01 2.216039e-01 3.486464e-01 1.952513e-01 3.717774e-01 6.354932e-01 3.889352e-01 1.894097e-02
<GCONST> 8.683209e+01
<STATE> 11
<MEAN> 39
 1.872677e+00 3.796857e+00 -1.725859e+00 -2.471881e+01 1.030884e+00 -4.200838e-01 -2.368319e+01 -1.185239e+01 -1.626151e+01 2.272926e+00 1.578675e+01 -9.156991e+00 7.340891e+01 1.591893e-02 -2.577519e-01 -1.712100e-01 2.818577e-01 2.894885e-01 -3.589847e-01 -2.347772e-01 -3.673453e-01 6.264203e-01 5.680075e-01 -8.366940e-01 -8.474936e-01 -3.883467e-02 -1.087292e-02 2.919534e-02 3.058230e-02 1.364536e-01 -7.750783e-02 -6.219079e-02 1.638986e-01 -2.796094e-02 2.756023e-02 -1.866987e-01 -2.019255e-01 9.873981e-02 -8.075316e-02
<VARIANCE> 39
 3.772547e+00 8.161776e+00 5.125545e+01 3.334248e+01 2.470232e+01 7.710035e+01 8.921262e+01 6.687253e+01 1.929376e+01 4.122438e+01 4.831779e+01 3.538145e+01 1.038297e+01 1.358085e-01 6.692590e-01 9.384748e-01 1.233825e+00 1.099231e+00 1.707244e+00 3.159628e+00 2.980993e+00 1.400543e+00 2.975491e+00 2.338988e+00 1.230819e+00 2.937169e-01 2.273863e-02 5.472315e-02 1.471891e-01 1.498336e-01 1.678615e-01 2.748826e-01 3.276064e-01 3.782935e-01 3.409127e-01 3.051565e-01 2.809480e-01 2.371502e-01 1.395655e-02
<GCONST> 9.222612e+01
<STATE> 12
<MEAN> 39
 2.364533e+00 -1.147683e-02 -7.849777e+00 -1.683978e+01 -6.000049e+00 8.727719e-01 -9.467508e+00 -2.783788e+01 -3.823535e+00 4.842577e+00 4.726945e+00 -8.671322e+00 6.962418e+01 -4.516187e-01 -2.775753e-01 5.928015e-01 3.926918e-01 -1.322823e-01 -2.486391e-01 -3.038310e-01 1.007931e-01 8.136562e-01 1.422167e-01 -8.718298e-01 -2.400602e-01 -2.463926e-01 -3.591689e-02 1.446816e-01 -5.300472e-03 6.224013e-02 4.475378e-02 -1.658555e-01 3.768203e-02 2.404780e-01 -3.121426e-01 -6.413435e-01 4.994843e-04 1.235456e-01 -9.973728e-02
<VARIANCE> 39
 4.505543e+00 8.554904e+00 6.628076e+01 2.327528e+01 4.378040e+01 8.617583e+01 5.993271e+01 5.543879e+01 5.929888e+01 1.784051e+01 6.145457e+01 7.609186e+01 9.349959e-01 7.875909e-02 4.077214e-01 5.702903e-01 5.788546e-01 1.246271e+00 1.331914e+00 1.093766e+00 1.970599e+00 2.841522e+00 4.388928e+00 1.381405e+00 1.940061e+00 1.050641e-01 1.447584e-02 4.951992e-02 8.606415e-02 1.016736e-01 1.869579e-01 2.227435e-01 1.854077e-01 4.161861e-01 4.485112e-01 4.732503e-01 2.819615e-01 4.918422e-01 6.306764e-03
<GCONST> 8.603406e+01
<STATE> 13
<MEAN> 39
 5.655191e-01 1.579237e+00 -6.394168e+00 -1.603578e+01 -3.302176e+00 -5.774364e+00 -1.401761e+01 -2.275741e+01 -7.919945e+00 -3.164997e+00 6.875128e-01 -1.233347e+01 6.747417e+01 -6.440139e-01 9.474902e-02 6.658828e-01 1.254624e+00 4.237056e-01 -2.858002e-01 3.235747e-01 -1.520159e-01 -4.057538e-01 -1.127850e+00 -6.417139e-01 1.271149e-02 -6.145561e-01 -1.182166e-01 -7.581944e-03 6.717934e-02 9.432684e-02 1.078282e-01 7.240313e-02 1.631323e-01 2.365779e-01 2.355240e-01 2.334558e-01 1.647187e-01 2.613936e-02 -4.794715e-02
<VARIANCE> 39
 4.489875e+00 1.176396e+01 2.591754e+01 2.244561e+01 6.387011e+01 3.075156e+01 2.116530e+01 3.693366e+01 4.236034e+01 1.444490e+01 9.568598e+01 3.799096e+01 1.681004e+00 1.814313e-01 4.594423e-01 6.395658e-01 8.287169e-01 1.099372e+00 1.548039e+00 1.601558e+00 2.414352e+00 1.688379e+00 2.084445e+00 1.188838e+00 1.632506e+00 5.349168e-02 3.326256e-02 8.114448e-02 7.627915e-02 1.464569e-01 2.217967e-01 2.787881e-01 2.778665e-01 3.198355e-01 2.061242e-01 1.982712e-01 2.401094e-01 2.521817e-01 9.492900e-03
<GCONST> 8.287460e+01
<STATE> 14
<MEAN> 39
 -3.962797e+00 1.874256e+00 -1.156166e+00 -7.043180e+00 1.102175e+00 -3.579520e+00 -9.130935e+00 -2.074212e+01 -6.337249e+00 -4.702930e+00 1.616630e+00 -1.008858e+01 6.405791e+01 -1.022705e+00 -1.828324e-01 4.318171e-01 1.154588e+00 5.575955e-01 -3.033306e-01 5.548950e-01 8.345258e-01 3.524715e-01 -4.478018e-01 -3.399019e-01 1.633886e-01 -7.648066e-01 -1.636185e-02 -5.287192e-02 -6.203426e-02 -1.155716e-01 -3.787561e-02 -9.587253e-02 -1.140178e-01 2.081630e-03 -5.839293e-02 -2.357590e-02 2.172298e-02 1.204179e-01 2.032328e-02
<VARIANCE> 39
 4.097772e+00 5.877759e+00 1.773296e+01 1.944195e+01 2.182937e+01 3.693381e+01 2.633409e+01 2.487805e+01 3.571374e+01 2.593652e+01 5.042723e+01 4.333662e+01 1.792389e+00 1.772369e-01 3.312834e-01 5.156211e-01 5.888616e-01 1.564486e+00 9.248867e-01 1.484622e+00 2.889340e+00 1.136327e+00 1.752908e+00 1.803730e+00 1.090553e+00 2.538834e-02 3.843887e-02 8.166894e-02 6.050468e-02 8.028504e-02 1.365821e-01 1.780751e-01 3.076569e-01 2.687476e-01 2.945769e-01 4.755696e-01 2.937017e-01 1.659524e-01 5.513758e-03
<GCONST> 7.698671e+01
<STATE> 15
<MEAN> 39
 -8.736332e+00 3.005938e-01 5.667818e-02 -4.164548e+00 5.993018e-02 -8.683435e+00 -9.570045e+00 -1.893616e+01 -7.974566e+00 -1.088348e+01 -5.004280e+00 -1.264961e+01 6.080137e+01 -6.307905e-01 -9.763324e-02 6.039460e-01 9.800380e-01 2.556480e-01 -3.084737e-02 4.617470e-01 6.756218e-01 -1.351541e-01 -7.106727e-01 -5.216238e-01 -1.302138e-01 -4.258820e-01 6.078546e-02 -1.766018e-02 -7.402141e-02 -9.153154e-02 -1.816382e-02 1.282443e-01 8.444177e-02 1.035996e-01 6.848677e-02 1.472934e-01 5.455250e-02 -1.133657e-01 4.989501e-02
<VARIANCE> 39
 3.397563e+00 5.860300e+00 9.294963e+00 1.561714e+01 2.334472e+01 1.954068e+01 1.415074e+01 9.230124e+00 1.600504e+01 1.133608e+01 1.731197e+01 1.815255e+01 9.944971e-01 1.321641e-01 3.534483e-01 4.751880e-01 4.580955e-01 5.169597e-01 1.072631e+00 7.483021e-01 1.021195e+00 1.708353e+00 1.156722e+00 1.503108e+00 1.358780e+00 4.704389e-02 2.828019e-02 6.162091e-02 9.957325e-02 9.243838e-02 8.892792e-02 1.800670e-01 1.278279e-01 1.222029e-01 3.446495e-01 2.444426e-01 2.391685e-01 2.393754e-01 1.042518e-02
<GCONST> 6.524672e+01
<STATE> 16
<MEAN> 39
 -1.059852e+01 4.302389e-01 2.527706e+00 6.796474e-01 5.529386e+00 -2.050224e+00 -1.484856e+00 -1.035801e+01 -2.578308e+00 -6.419187e+00 5.553796e-02 -8.509956e+00 5.959180e+01 -6.081861e-01 -4.753332e-01 -2.810941e-01 -6.151576e-02 -4.218900e-02 3.237690e-01 8.720279e-01 1.003758e+00 3.640116e-01 6.850327e-02 -1.471333e-01 -8.078923e-02 -3.474402e-01 -1.824628e-02 -1.115016e-01 -9.132294e-02 -1.097228e-01 -5.159430e-02 3.999233e-02 -5.859977e-02 -1.610409e-01 -2.397401e-02 2.030296e-02 -3.096039e-02 1.231611e-01 8.058459e-03
<VARIANCE> 39
 1.693385e+00 3.528846e+00 5.353451e+00 8.226624e+00 1.804675e+01 2.450826e+01 3.259347e+01 4.473965e+01 3.573843e+01 3.105550e+01 5.843320e+01 4.619865e+01 4.996841e-01 9.235971e-02 3.519627e-01 5.280187e-01 3.870710e-01 5.360066e-01 1.019861e+00 7.415559e-01 1.507286e+00 1.451557e+00 1.061905e+00 1.144704e+00 2.236119e+00 3.549762e-02 2.005411e-02 4.632368e-02 7.797047e-02 1.002773e-01 1.788065e-01 1.194920e-01 1.150227e-01 2.452770e-01 3.335716e-01 2.116325e-01 2.002942e-01 4.294103e-01 6.003808e-03
<GCONST> 6.790753e+01
<STATE> 17
<MEAN> 39
 -1.321724e+01 -2.450957e+00 1.350915e+00 -4.276748e-01 2.808504e+00 -4.236629e+00 -2.562577e+00 -1.158822e+01 -5.037215e+00 -9.599708e+00 -4.380411e+00 -1.150749e+01 5.818026e+01 -5.148945e-01 -4.643765e-01 4.375608e-02 3.371493e-01 4.416325e-01 4.006008e-01 3.642114e-01 4.530576e-01 2.906720e-01 -1.947864e-01 -5.066937e-01 -2.863767e-01 -2.256653e-01 -1.188086e-02 -1.700527e-02 -3.381696e-02 -1.084892e-02 5.423522e-02 -2.948348e-02 -1.022767e-01 -1.708911e-02 1.040604e-01 5.146154e-02 4.551606e-02 -1.253903e-01 2.962214e-02
<VARIANCE> 39
 7.846279e-01 1.930115e+00 6.338595e+00 1.063854e+01 2.532067e+01 4.536205e+01 2.863142e+01 1.530626e+01 1.708625e+01 2.365238e+01 3.972019e+01 2.947167e+01 1.561041e-01 1.827787e-01 5.002701e-01 6.559595e-01 8.307437e-01 1.109681e+00 8.060839e-01 1.347227e+00 1.812384e+00 1.575199e+00 1.630190e+00 2.362585e+00 1.784861e+00 4.189957e-02 2.027590e-02 7.011590e-02 1.911733e-01 2.292833e-01 2.805235e-01 2.286516e-01 1.547211e-01 3.752065e-01 1.976844e-01 2.986018e-01 4.545394e-01 3.106963e-01 5.638033e-03
<GCONST> 7.239226e+01
<STATE> 18
<MEAN> 39
 -1.578857e+01 -4.716884e+00 1.804614e-01 -7.206348e-01 3.640898e+00 -3.409444e+00 -1.018211e+00 -8.259855e+00 -2.115141e+00 -9.174134e+00 -4.037441e+00 -1.143529e+01 5.721865e+01 -6.182881e-01 -5.866454e-01 -4.067188e-01 -1.729761e-01 1.177686e-01 3.351006e-01 5.213537e-01 4.428125e-01 3.208748e-01 2.124934e-01 2.121139e-01 1.213407e-01 -2.622175e-01 1.745339e-02 1.416403e-02 2.362750e-03 8.813814e-03 2.176845e-02 1.010561e-01 6.355944e-02 -9.090521e-02 -1.857759e-01 -6.619062e-02 -2.786207e-02 1.370705e-02 1.088702e-02
<VARIANCE> 39
 1.380811e+00 2.622378e+00 5.339086e+00 9.882278e+00 2.119455e+01 3.591610e+01 4.351102e+01 5.065997e+01 2.243090e+01 1.463329e+01 2.465725e+01 2.552529e+01 3.535572e-01 1.007712e-01 2.273608e-01 4.412133e-01 5.193044e-01 1.013640e+00 1.419647e+00 1.258083e+00 2.216858e+00 1.340342e+00 1.088919e+00 1.587324e+00 1.869329e+00 1.598815e-02 1.484909e-02 4.221295e-02 8.253786e-02 1.257078e-01 1.274329e-01 2.437084e-01 2.812472e-01 3.721606e-01 2.540873e-01 1.830861e-01 2.771864e-01 3.081067e-01 3.088616e-03
<GCONST> 6.695113e+01
<STATE> 19
<MEAN> 39
 -1.864783e+01 -7.875209e+00 -1.708678e+00 8.945534e-01 8.336844e+00 2.978123e+00 3.359345e+00 -8.255221e+00 -5.307727e+00 -1.205103e+01 -6.013613e+00 -1.234294e+01 5.611235e+01 -4.510129e-01 -4.706540e-01 -2.803615e-01 2.021178e-02 3.953033e-01 8.095317e-01 1.167335e+00 9.488086e-01 1.849849e-02 -3.477915e-01 -3.316840e-01 -3.414946e-01 -1.679279e-01 1.302685e-01 1.323722e-01 1.097231e-01 1.129349e-02 -9.644371e-02 -5.622306e-02 1.736285e-01 3.686008e-01 3.215995e-01 8.023937e-02 -4.470670e-02 -6.144769e-02 4.066970e-02
<VARIANCE> 39
 1.973314e+00 3.042758e+00 5.602973e+00 1.761695e+01 4.390528e+01 6.315268e+01 5.537466e+01 3.669335e+01 2.317119e+01 2.396914e+01 2.586100e+01 2.467821e+01 2.965373e-01 2.230809e-01 2.045647e-01 6.224653e-01 1.379463e+00 1.459331e+00 1.432690e+00 1.860141e+00 1.961824e+00 1.625766e+00 1.445347e+00 1.528021e+00 1.524319e+00 3.392669e-02 1.688723e-02 3.979576e-02 1.427258e-01 2.705227e-01 2.832675e-01 2.486187e-01 4.006015e-01 3.493719e-01 2.856545e-01 2.707709e-01 3.053734e-01 2.980406e-01 5.059184e-03
<GCONST> 7.685600e+01
<TRANSP> 20
 0.000000e+00 1.000000e+00 0.000000e+00 0.000000e+00 0.000000e+00 0.000000e+00 0.000000e+00 0.000000e+00 0.000000e+00 0.000000e+00 0.000000e+00 0.000000e+00 0.000000e+00 0.000000e+00 0.000000e+00 0.000000e+00 0.000000e+00 0.000000e+00 0.000000e+00 0.000000e+00
 0.000000e+00 7.894391e-01 2.105609e-01 0.000000e+00 0.000000e+00 0.000000e+00 0.000000e+00 0.000000e+00 0.000000e+00 0.000000e+00 0.000000e+00 0.000000e+00 0.000000e+00 0.000000e+00 0.000000e+00 0.000000e+00 0.000000e+00 0.000000e+00 0.000000e+00 0.000000e+00
 0.000000e+00 0.000000e+00 7.129134e-01 2.870866e-01 0.000000e+00 0.000000e+00 0.000000e+00 0.000000e+00 0.000000e+00 0.000000e+00 0.000000e+00 0.000000e+00 0.000000e+00 0.000000e+00 0.000000e+00 0.000000e+00 0.000000e+00 0.000000e+00 0.000000e+00 0.000000e+00
 0.000000e+00 0.000000e+00 0.000000e+00 7.390026e-01 2.609974e-01 0.000000e+00 0.000000e+00 0.000000e+00 0.000000e+00 0.000000e+00 0.000000e+00 0.000000e+00 0.000000e+00 0.000000e+00 0.000000e+00 0.000000e+00 0.000000e+00 0.000000e+00 0.000000e+00 0.000000e+00
 0.000000e+00 0.000000e+00 0.000000e+00 0.000000e+00 8.027658e-01 1.972341e-01 0.000000e+00 0.000000e+00 0.000000e+00 0.000000e+00 0.000000e+00 0.000000e+00 0.000000e+00 0.000000e+00 0.000000e+00 0.000000e+00 0.000000e+00 0.000000e+00 0.000000e+00 0.000000e+00
 0.000000e+00 0.000000e+00 0.000000e+00 0.000000e+00 0.000000e+00 8.075354e-01 1.924646e-01 0.000000e+00 0.000000e+00 0.000000e+00 0.000000e+00 0.000000e+00 0.000000e+00 0.000000e+00 0.000000e+00 0.000000e+00 0.000000e+00 0.000000e+00 0.000000e+00 0.000000e+00
 0.000000e+00 0.000000e+00 0.000000e+00 0.000000e+00 0.000000e+00 0.000000e+00 6.581117e-01 3.418884e-01 0.000000e+00 0.000000e+00 0.000000e+00 0.000000e+00 0.000000e+00 0.000000e+00 0.000000e+00 0.000000e+00 0.000000e+00 0.000000e+00 0.000000e+00 0.000000e+00
 0.000000e+00 0.000000e+00 0.000000e+00 0.000000e+00 0.000000e+00 0.000000e+00 0.000000e+00 6.243070e-01 3.756929e-01 0.000000e+00 0.000000e+00 0.000000e+00 0.000000e+00 0.000000e+00 0.000000e+00 0.000000e+00 0.000000e+00 0.000000e+00 0.000000e+00 0.000000e+00
 0.000000e+00 0.000000e+00 0.000000e+00 0.000000e+00 0.000000e+00 0.000000e+00 0.000000e+00 0.000000e+00 6.572950e-01 3.427050e-01 0.000000e+00 0.000000e+00 0.000000e+00 0.000000e+00 0.000000e+00 0.000000e+00 0.000000e+00 0.000000e+00 0.000000e+00 0.000000e+00
 0.000000e+00 0.000000e+00 0.000000e+00 0.000000e+00 0.000000e+00 0.000000e+00 0.000000e+00 0.000000e+00 0.000000e+00 7.687684e-01 2.312316e-01 0.000000e+00 0.000000e+00 0.000000e+00 0.000000e+00 0.000000e+00 0.000000e+00 0.000000e+00 0.000000e+00 0.000000e+00
 0.000000e+00 0.000000e+00 0.000000e+00 0.000000e+00 0.000000e+00 0.000000e+00 0.000000e+00 0.000000e+00 0.000000e+00 0.000000e+00 8.134549e-01 1.865450e-01 0.000000e+00 0.000000e+00 0.000000e+00 0.000000e+00 0.000000e+00 0.000000e+00 0.000000e+00 0.000000e+00
 0.000000e+00 0.000000e+00 0.000000e+00 0.000000e+00 0.000000e+00 0.000000e+00 0.000000e+00 0.000000e+00 0.000000e+00 0.000000e+00 0.000000e+00 8.203520e-01 1.796480e-01 0.000000e+00 0.000000e+00 0.000000e+00 0.000000e+00 0.000000e+00 0.000000e+00 0.000000e+00
 0.000000e+00 0.000000e+00 0.000000e+00 0.000000e+00 0.000000e+00 0.000000e+00 0.000000e+00 0.000000e+00 0.000000e+00 0.000000e+00 0.000000e+00 0.000000e+00 7.756640e-01 2.243360e-01 0.000000e+00 0.000000e+00 0.000000e+00 0.000000e+00 0.000000e+00 0.000000e+00
 0.000000e+00 0.000000e+00 0.000000e+00 0.000000e+00 0.000000e+00 0.000000e+00 0.000000e+00 0.000000e+00 0.000000e+00 0.000000e+00 0.000000e+00 0.000000e+00 0.000000e+00 7.945300e-01 2.054701e-01 0.000000e+00 0.000000e+00 0.000000e+00 0.000000e+00 0.000000e+00
 0.000000e+00 0.000000e+00 0.000000e+00 0.000000e+00 0.000000e+00 0.000000e+00 0.000000e+00 0.000000e+00 0.000000e+00 0.000000e+00 0.000000e+00 0.000000e+00 0.000000e+00 0.000000e+00 8.097253e-01 1.902747e-01 0.000000e+00 0.000000e+00 0.000000e+00 0.000000e+00
 0.000000e+00 0.000000e+00 0.000000e+00 0.000000e+00 0.000000e+00 0.000000e+00 0.000000e+00 0.000000e+00 0.000000e+00 0.000000e+00 0.000000e+00 0.000000e+00 0.000000e+00 0.000000e+00 0.000000e+00 7.323112e-01 2.676888e-01 0.000000e+00 0.000000e+00 0.000000e+00
 0.000000e+00 0.000000e+00 0.000000e+00 0.000000e+00 0.000000e+00 0.000000e+00 0.000000e+00 0.000000e+00 0.000000e+00 0.000000e+00 0.000000e+00 0.000000e+00 0.000000e+00 0.000000e+00 0.000000e+00 0.000000e+00 7.097392e-01 2.902608e-01 0.000000e+00 0.000000e+00
 0.000000e+00 0.000000e+00 0.000000e+00 0.000000e+00 0.000000e+00 0.000000e+00 0.000000e+00 0.000000e+00 0.000000e+00 0.000000e+00 0.000000e+00 0.000000e+00 0.000000e+00 0.000000e+00 0.000000e+00 0.000000e+00 0.000000e+00 7.923818e-01 2.076182e-01 0.000000e+00
 0.000000e+00 0.000000e+00 0.000000e+00 0.000000e+00 0.000000e+00 0.000000e+00 0.000000e+00 0.000000e+00 0.000000e+00 0.000000e+00 0.000000e+00 0.000000e+00 0.000000e+00 0.000000e+00 0.000000e+00 0.000000e+00 0.000000e+00 0.000000e+00 7.002768e-01 2.997232e-01
 0.000000e+00 0.000000e+00 0.000000e+00 0.000000e+00 0.000000e+00 0.000000e+00 0.000000e+00 0.000000e+00 0.000000e+00 0.000000e+00 0.000000e+00 0.000000e+00 0.000000e+00 0.000000e+00 0.000000e+00 0.000000e+00 0.000000e+00 0.000000e+00 0.000000e+00 0.000000e+00
<ENDHMM>
