~o
<STREAMINFO> 1 39
<VECSIZE> 39<NULLD><MFCC_D_A_0><DIAGC>
~h "hapus"
<BEGINHMM>
<NUMSTATES> 5
<STATE> 2
<MEAN> 39
 -7.308962e+00 -7.476267e+00 -6.410665e+00 -6.132899e+00 5.500137e+00 -1.499845e+00 -2.510235e+00 -1.030219e+01 -1.971028e+00 -8.551626e+00 -2.914147e+00 -8.838242e+00 6.483407e+01 2.963860e-01 2.956243e-01 7.980675e-02 -5.658981e-02 -1.373794e-01 -1.027636e-01 -1.303087e-01 -2.136731e-01 -2.057337e-01 -5.187328e-02 -2.195614e-02 -6.363536e-02 1.650771e-01 7.801001e-02 8.771057e-02 2.305064e-03 -8.845325e-02 -1.187676e-01 -5.661520e-02 -5.684299e-02 -2.315579e-02 -2.429777e-02 5.697045e-02 6.980938e-02 6.785727e-02 2.933395e-02
<VARIANCE> 39
 4.375951e+01 3.378255e+01 4.933943e+01 3.286531e+01 5.182378e+01 4.411099e+01 4.010400e+01 6.432352e+01 3.124071e+01 5.042555e+01 4.435051e+01 4.654470e+01 3.920942e+01 2.745794e+00 1.450376e+00 2.543018e+00 2.166671e+00 2.036377e+00 2.172637e+00 2.171117e+00 3.170614e+00 2.089975e+00 2.540442e+00 2.152324e+00 2.731764e+00 1.706669e+00 3.650951e-01 2.445271e-01 3.573067e-01 4.288358e-01 3.320306e-01 2.791150e-01 3.272334e-01 4.735719e-01 4.098135e-01 4.053205e-01 3.005973e-01 3.731059e-01 1.664670e-01
<GCONST> 1.167899e+02
<STATE> 3
<MEAN> 39
 -5.066198e+00 6.800766e+00 -5.770611e+00 -1.106993e+01 -1.552937e+00 -1.566052e+01 -8.149157e+00 -1.491711e+01 -5.724394e+00 -5.842371e+00 1.597241e+00 -1.469573e+00 6.832957e+01 -8.512630e-01 1.027740e+00 -3.965818e-01 6.108077e-02 5.121143e-01 -1.382958e+00 1.721819e-01 -2.064487e-01 1.255824e-01 1.418238e-01 -1.250655e-01 3.196290e-01 5.570675e-01 -2.215688e-01 -6.446166e-02 5.835391e-02 1.864734e-01 1.701439e-01 1.324871e-01 1.474067e-01 8.994252e-02 4.091231e-02 -9.488163e-02 -1.135268e-01 -1.703841e-01 -7.391054e-02
<VARIANCE> 39
 8.445095e+01 4.224196e+01 3.524989e+01 8.803581e+01 7.257357e+01 1.241766e+02 7.196454e+01 3.644938e+01 5.498269e+01 6.416152e+01 9.743313e+01 4.498109e+01 8.515640e+00 7.204640e+00 2.745471e+00 2.295876e+00 5.918357e+00 5.544178e+00 4.982390e+00 6.302875e+00 3.933771e+00 3.691913e+00 3.958157e+00 5.476228e+00 4.677197e+00 6.190565e-01 5.940596e-01 4.734818e-01 3.970865e-01 5.978305e-01 7.342200e-01 8.671804e-01 8.252285e-01 6.647792e-01 6.435860e-01 6.854386e-01 8.790166e-01 8.660064e-01 9.255893e-02
<GCONST> 1.339103e+02
<STATE> 4
<MEAN> 39
 -2.415480e+01 8.103955e+00 -5.395885e+00 -7.533183e-01 6.504173e+00 -1.552494e+01 3.996638e+00 -8.108015e+00 -4.705094e-01 -7.548242e+00 -8.206406e-01 -4.768329e+00 6.365268e+01 1.902218e-01 -7.989164e-01 2.244092e-01 2.608406e-03 -1.556852e-01 9.269418e-01 7.013229e-02 2.897096e-01 1.403745e-01 -4.513161e-02 6.452924e-02 -2.560667e-01 -5.041664e-01 6.570850e-02 -4.190433e-02 -2.464380e-03 -3.347610e-02 -2.645418e-02 3.653432e-03 -4.523278e-02 -1.013945e-02 4.472894e-03 1.524946e-02 1.729092e-02 1.828381e-02 -6.473284e-03
<VARIANCE> 39
 1.905863e+01 9.552766e+01 1.803288e+01 4.186370e+01 4.637538e+01 1.065653e+02 3.751919e+01 3.558097e+01 3.409875e+01 6.284660e+01 3.237185e+01 3.149556e+01 3.177467e+01 4.085220e-01 6.649016e-01 5.740107e-01 9.462853e-01 9.882826e-01 1.549998e+00 1.559303e+00 1.462446e+00 1.661019e+00 2.025913e+00 1.274401e+00 1.445053e+00 1.220354e-01 4.125195e-02 6.969951e-02 9.920762e-02 1.424949e-01 1.577931e-01 2.705218e-01 2.436496e-01 2.720318e-01 2.964617e-01 3.421960e-01 2.409274e-01 2.664690e-01 1.562179e-02
<GCONST> 9.345511e+01
<TRANSP> 5
 0.000000e+00 1.000000e+00 0.000000e+00 0.000000e+00 0.000000e+00
 0.000000e+00 9.652901e-01 3.470989e-02 0.000000e+00 0.000000e+00
 0.000000e+00 0.000000e+00 9.403253e-01 5.967468e-02 0.000000e+00
 0.000000e+00 0.000000e+00 0.000000e+00 9.674076e-01 3.259236e-02
 0.000000e+00 0.000000e+00 0.000000e+00 0.000000e+00 0.000000e+00
<ENDHMM>
