~o
<STREAMINFO> 1 39
<VECSIZE> 39<NULLD><MFCC_D_A_0><DIAGC>
~h "kurang"
<BEGINHMM>
<NUMSTATES> 5
<STATE> 2
<MEAN> 39
 -2.908778e+00 -3.072603e+00 -7.979337e+00 -1.005528e+01 -3.330884e+00 -5.053243e+00 -5.629330e+00 -1.168421e+01 -4.150163e+00 -4.044166e+00 6.124546e+00 -3.691769e+00 6.617876e+01 8.042680e-01 -3.916705e-01 -3.725335e-01 8.569308e-02 -1.406226e-01 -1.487611e-01 -2.279767e-01 7.423348e-02 1.432077e-01 2.220040e-01 -1.369352e-02 -3.203774e-01 7.089742e-01 -1.510983e-02 -3.758509e-02 1.104071e-03 -2.388398e-03 -1.455635e-02 3.451427e-02 4.218150e-02 2.795738e-02 1.766712e-02 -1.728371e-02 -6.704968e-02 -1.623980e-02 1.323240e-02
<VARIANCE> 39
 7.181644e+01 6.696190e+01 4.315229e+01 6.352826e+01 6.466371e+01 7.418311e+01 8.382684e+01 1.003504e+02 6.716128e+01 6.949232e+01 7.072353e+01 6.934830e+01 3.482228e+01 2.386217e+00 4.678253e+00 3.298245e+00 4.366254e+00 3.416921e+00 4.657866e+00 4.458275e+00 6.551922e+00 5.220224e+00 5.571129e+00 4.147896e+00 4.829801e+00 7.331953e-01 3.395062e-01 5.779713e-01 7.100139e-01 5.885481e-01 5.478372e-01 7.897570e-01 7.045482e-01 7.917423e-01 8.480784e-01 1.066569e+00 6.328402e-01 7.207360e-01 1.370168e-01
<GCONST> 1.365647e+02
<STATE> 3
<MEAN> 39
 1.328133e+00 -8.430160e+00 -8.020978e+00 -6.171576e+00 3.204498e-01 -4.471238e+00 -4.624734e+00 -5.934766e+00 8.616357e-01 -5.737491e+00 -4.151989e+00 -1.203051e+01 7.117905e+01 -2.910893e-01 1.006071e+00 6.359715e-01 -7.444359e-02 4.108160e-01 2.943214e-01 7.211985e-02 -2.370211e-01 -3.662453e-01 -5.502660e-01 -2.515325e-01 6.809407e-02 -5.281265e-01 -4.682780e-02 6.978618e-02 4.837580e-02 6.659560e-02 3.062169e-02 -7.107235e-02 -1.472068e-02 -2.501996e-02 -1.890139e-03 5.999480e-03 6.549642e-02 3.762503e-03 -6.578351e-02
<VARIANCE> 39
 5.232715e+00 6.847021e+01 6.665008e+01 2.011362e+01 7.157581e+01 5.260481e+01 2.375165e+01 7.865677e+01 5.370247e+01 7.558405e+01 6.638982e+01 4.823167e+01 1.710053e+01 2.138464e-01 6.822142e-01 1.105049e+00 1.150516e+00 1.548325e+00 1.427726e+00 1.184990e+00 2.171179e+00 3.240557e+00 1.646251e+00 1.579080e+00 1.812194e+00 1.857488e-01 3.678533e-02 8.666375e-02 1.425219e-01 1.551649e-01 1.748993e-01 1.871426e-01 1.921950e-01 2.891246e-01 4.768689e-01 2.839659e-01 2.221685e-01 3.067413e-01 2.009014e-02
<GCONST> 9.637832e+01
<STATE> 4
<MEAN> 39
 -1.238979e+01 -3.081948e-02 3.395512e+00 8.882292e-01 5.945939e+00 -7.856706e-02 3.452713e+00 -4.259897e+00 -1.713857e+00 -1.156972e+01 -5.409272e+00 -1.060703e+01 5.868993e+01 -6.959609e-01 -4.078954e-01 2.542076e-02 1.977458e-01 4.811958e-02 1.916641e-01 4.602673e-01 3.145761e-01 1.791791e-01 9.404139e-02 3.811598e-02 7.153337e-02 -3.720543e-01 2.576737e-02 -3.908149e-02 -5.013765e-02 -3.727800e-02 -2.947377e-03 8.702304e-03 -2.838970e-02 1.212191e-02 -2.178234e-04 8.330704e-03 1.354020e-02 1.834969e-02 2.581910e-02
<VARIANCE> 39
 2.660379e+01 1.943491e+01 1.629345e+01 1.772915e+01 2.466562e+01 2.916270e+01 5.232913e+01 7.574635e+01 6.219764e+01 6.175930e+01 4.364025e+01 3.064022e+01 7.516968e+00 2.828829e-01 5.495100e-01 8.348101e-01 8.925748e-01 1.141124e+00 1.372984e+00 1.708380e+00 1.399753e+00 1.350964e+00 1.362267e+00 1.276433e+00 1.085927e+00 1.029594e-01 3.504312e-02 8.252213e-02 1.087336e-01 1.474037e-01 1.971422e-01 2.094361e-01 2.880765e-01 2.603498e-01 2.594340e-01 2.445603e-01 2.157258e-01 1.964591e-01 1.030297e-02
<GCONST> 8.750117e+01
<TRANSP> 5
 0.000000e+00 1.000000e+00 0.000000e+00 0.000000e+00 0.000000e+00
 0.000000e+00 9.606333e-01 3.936666e-02 0.000000e+00 0.000000e+00
 0.000000e+00 0.000000e+00 9.487284e-01 5.127160e-02 0.000000e+00
 0.000000e+00 0.000000e+00 0.000000e+00 9.584953e-01 4.150468e-02
 0.000000e+00 0.000000e+00 0.000000e+00 0.000000e+00 0.000000e+00
<ENDHMM>
