~o
<STREAMINFO> 1 39
<VECSIZE> 39<NULLD><MFCC_D_A_0><DIAGC>
~h "matikan"
<BEGINHMM>
<NUMSTATES> 5
<STATE> 2
<MEAN> 39
 -4.425872e+00 -5.332526e+00 -6.332356e+00 -6.794538e+00 1.358796e+00 -7.559635e+00 -5.888460e+00 -5.603766e+00 -5.860141e-01 -1.059035e+01 -3.700750e+00 -1.025078e+01 6.576640e+01 4.519654e-01 2.471940e-01 1.904387e-01 8.521701e-02 -2.892041e-01 -4.826096e-01 -3.162090e-01 -1.142622e-01 -2.037328e-01 -2.943450e-01 4.068696e-02 -7.768847e-02 3.851012e-01 -5.339598e-02 -1.133923e-03 1.812601e-01 -1.075767e-03 -1.794575e-01 -1.216522e-01 -4.339760e-02 -3.031016e-02 -4.069231e-02 4.218527e-02 1.645105e-01 6.361447e-02 1.818620e-02
<VARIANCE> 39
 4.273090e+01 2.330164e+01 2.795240e+01 2.417187e+01 3.329708e+01 4.666498e+01 3.795163e+01 9.058598e+01 3.315116e+01 5.718104e+01 6.116495e+01 3.318782e+01 3.142355e+01 4.323616e+00 2.690499e+00 3.933773e+00 2.407698e+00 3.165020e+00 3.454819e+00 3.719544e+00 6.287389e+00 3.978636e+00 3.125590e+00 4.670186e+00 3.057768e+00 2.564619e+00 4.707400e-01 5.154734e-01 7.813849e-01 4.446848e-01 6.157855e-01 5.996611e-01 5.667570e-01 1.080543e+00 7.168683e-01 5.051829e-01 5.808761e-01 5.585003e-01 3.001331e-01
<GCONST> 1.282607e+02
<STATE> 3
<MEAN> 39
 -7.326302e+00 -5.182295e+00 7.490437e+00 -4.578990e+00 -1.069394e+01 -1.702887e+01 -4.781403e+00 -7.415381e+00 -6.565223e+00 -1.058382e+01 1.471125e+00 -6.405753e+00 6.754220e+01 2.848801e-01 -3.818289e-01 -5.442023e-02 7.708459e-02 -1.030667e-02 -2.360432e-02 2.582064e-01 4.167503e-01 1.953430e-02 -4.255623e-02 -3.216463e-01 -1.340686e-01 2.942053e-01 -2.217668e-02 3.920379e-02 -1.245043e-01 3.557367e-02 2.045174e-01 1.409203e-01 4.163446e-02 3.785456e-02 5.950735e-02 -9.990091e-03 -1.108878e-01 -3.915307e-02 -8.590798e-02
<VARIANCE> 39
 2.136750e+01 7.289937e+01 1.245130e+02 5.493604e+01 9.077818e+01 8.999829e+01 7.057078e+01 1.634337e+02 6.826266e+01 6.097509e+01 8.616393e+01 3.778839e+01 3.106521e+01 1.680293e+00 3.076698e+00 6.639211e+00 4.722619e+00 6.253492e+00 8.033073e+00 4.312380e+00 6.554862e+00 4.596002e+00 4.795015e+00 4.047868e+00 3.741129e+00 2.039174e+00 2.688326e-01 4.579852e-01 6.835362e-01 8.387661e-01 8.775718e-01 1.266362e+00 6.915174e-01 8.946140e-01 8.059381e-01 9.157422e-01 7.483336e-01 6.813639e-01 2.674035e-01
<GCONST> 1.396257e+02
<STATE> 4
<MEAN> 39
 -9.110178e+00 -6.600673e-01 3.344388e+00 -4.955899e-01 2.943708e+00 -3.598551e+00 8.365095e-01 -4.266894e+00 -1.725484e+00 -9.925355e+00 -3.603362e+00 -8.876915e+00 6.147618e+01 -5.555971e-01 2.818209e-01 9.425631e-02 2.345948e-02 3.647110e-01 4.816665e-01 4.168264e-02 -3.388276e-01 5.108446e-02 2.360959e-01 1.408182e-01 2.650499e-02 -5.274270e-01 -3.578269e-03 -7.821490e-02 -3.255815e-02 -2.181685e-02 -5.785352e-02 -4.107668e-02 2.879568e-02 2.497344e-02 -3.310775e-03 -1.087682e-02 6.018878e-03 1.081254e-03 2.962819e-02
<VARIANCE> 39
 3.245327e+01 2.643534e+01 1.497528e+01 1.311818e+01 2.936767e+01 5.196991e+01 2.648582e+01 5.376369e+01 2.741344e+01 3.973578e+01 4.687949e+01 3.080408e+01 2.655238e+01 1.760086e-01 9.827953e-01 6.937895e-01 8.506382e-01 1.266204e+00 1.556458e+00 1.385509e+00 1.596302e+00 1.506169e+00 1.426211e+00 1.592293e+00 1.415357e+00 1.644200e-01 2.650708e-02 5.171463e-02 9.916809e-02 1.484870e-01 1.822559e-01 1.957695e-01 2.439170e-01 2.355378e-01 2.659017e-01 2.597916e-01 2.831526e-01 2.189095e-01 1.185915e-02
<GCONST> 8.792505e+01
<TRANSP> 5
 0.000000e+00 1.000000e+00 0.000000e+00 0.000000e+00 0.000000e+00
 0.000000e+00 9.492272e-01 5.077279e-02 0.000000e+00 0.000000e+00
 0.000000e+00 0.000000e+00 9.596280e-01 4.037194e-02 0.000000e+00
 0.000000e+00 0.000000e+00 0.000000e+00 9.665195e-01 3.348053e-02
 0.000000e+00 0.000000e+00 0.000000e+00 0.000000e+00 0.000000e+00
<ENDHMM>
