~o
<STREAMINFO> 1 39
<VECSIZE> 39<NULLD><MFCC_D_A_0><DIAGC>
~h "sepuluh"
<BEGINHMM>
<NUMSTATES> 20
<STATE> 2
<MEAN> 39
 -1.825119e+01 -6.576145e+00 -3.260816e+00 -3.607999e+00 1.443814e+00 -2.844550e+00 3.989570e+00 -4.662705e+00 1.347923e+00 -6.383486e+00 8.654702e-01 -6.925305e+00 5.680690e+01 -7.311810e-01 1.271773e+00 -9.792333e-01 2.335622e-01 -1.321077e-01 -1.118611e+00 7.894136e-01 -9.613659e-01 9.308045e-01 -6.035257e-01 7.741613e-01 6.050421e-03 5.062844e-01 -4.151262e-01 6.134223e-01 -3.773310e-01 2.880558e-01 1.442462e-01 -2.761274e-01 3.934183e-01 -3.463738e-01 3.011444e-01 -2.623498e-01 9.703214e-03 8.204447e-02 2.253380e-01
<VARIANCE> 39
 2.909324e+00 4.841923e+00 4.908546e+00 8.109348e+00 1.413259e+01 2.516272e+01 2.558927e+01 1.751892e+01 1.736991e+01 1.632287e+01 1.533634e+01 1.230777e+01 8.052458e-01 9.965333e-01 2.039191e+00 1.181118e+00 1.540204e+00 1.536304e+00 2.191144e+00 2.304966e+00 2.129063e+00 2.349916e+00 2.801681e+00 2.225074e+00 1.697902e+00 2.756341e-01 1.482248e-01 1.927024e-01 1.600095e-01 2.502597e-01 2.483089e-01 4.102240e-01 3.619103e-01 2.441766e-01 4.421532e-01 6.168942e-01 3.927217e-01 3.021277e-01 2.415746e-02
<GCONST> 8.805637e+01
<STATE> 3
<MEAN> 39
 -2.722283e+01 6.250685e+00 -1.156305e+01 4.115914e-01 3.909462e+00 -1.059119e+01 1.211870e+01 -1.185975e+01 8.102854e+00 -9.619859e+00 2.810962e+00 -3.800657e+00 6.186969e+01 -1.410451e+00 2.235931e+00 -8.133854e-01 4.097566e-01 9.834331e-01 -1.601988e+00 1.104870e+00 -1.660864e-01 -1.452414e-01 6.265829e-01 -7.511533e-01 8.577642e-01 1.008507e+00 6.719369e-01 -6.030539e-01 5.952854e-01 -4.051651e-01 -4.244574e-02 3.334219e-02 -7.233644e-01 4.259353e-01 -5.886943e-01 3.423938e-01 -3.075418e-01 -1.463193e-01 -1.522547e-01
<VARIANCE> 39
 8.792936e+00 2.392567e+01 9.074100e+00 1.682665e+01 1.208761e+01 1.810481e+01 2.121711e+01 1.377947e+01 2.615977e+01 4.304071e+01 2.980747e+01 2.978534e+01 4.602146e+00 1.614391e+00 2.521274e+00 2.438984e+00 2.357608e+00 1.365549e+00 1.372677e+00 2.671337e+00 3.104233e+00 3.591900e+00 4.316876e+00 2.345260e+00 2.472913e+00 3.508143e-01 4.112767e-01 3.258401e-01 2.087497e-01 3.255958e-01 3.741643e-01 3.168721e-01 7.042023e-01 6.451869e-01 3.972070e-01 6.876158e-01 6.104976e-01 6.777791e-01 5.417179e-02
<GCONST> 1.050950e+02
<STATE> 4
<MEAN> 39
 -1.919668e+01 8.324801e+00 -9.315590e+00 -3.948009e+00 4.118587e+00 -1.765771e+01 3.401720e+00 -9.794562e+00 3.173345e+00 -2.139218e+00 -6.363279e-01 -4.839381e+00 6.692228e+01 4.187281e+00 -8.101473e-01 6.148524e-01 -1.578213e+00 -7.147678e-01 -2.710405e-01 -3.612435e+00 -8.295687e-01 -4.741985e-01 9.675131e-01 5.040010e-01 -1.510555e+00 1.471017e+00 2.557833e-01 -2.490268e-01 -6.244984e-02 3.008024e-03 6.268099e-02 6.820555e-01 -1.429578e-02 -2.245003e-01 2.027216e-02 -1.359157e-01 3.596785e-01 -1.135237e-01 1.543908e-02
<VARIANCE> 39
 9.755004e+01 1.438810e+01 1.962874e+01 4.827566e+01 6.541511e+01 3.577849e+01 1.051078e+02 7.002586e+01 3.082437e+01 1.028054e+02 3.568577e+01 2.882406e+01 2.069513e+01 4.050278e+00 9.196602e-01 2.229904e+00 1.768301e+00 6.518946e+00 4.884021e+00 7.374948e+00 9.767570e+00 3.227997e+00 3.539562e+00 3.727355e+00 1.873720e+00 1.987625e+00 1.940550e+00 2.130749e-01 3.390699e-01 3.605687e-01 1.153338e+00 5.662500e-01 2.265651e+00 1.020435e+00 6.069897e-01 6.575665e-01 4.562321e-01 6.015374e-01 4.614987e-01
<GCONST> 1.304007e+02
<STATE> 5
<MEAN> 39
 -4.020872e+00 3.740888e+00 -7.798485e+00 -9.620746e+00 8.161240e+00 -1.154750e+01 -5.831426e+00 -1.135014e+01 6.468563e-01 5.424629e-01 5.026104e+00 -8.584246e+00 7.237573e+01 4.423765e-01 -1.431964e-01 7.277429e-01 4.374255e-01 6.281416e-01 1.935083e+00 4.028409e-01 -3.795837e-01 -1.052851e+00 -9.342059e-01 2.058868e-02 7.047822e-02 -1.084813e+00 -8.741490e-01 1.235049e-01 2.168447e-01 4.208622e-01 -2.532756e-01 -2.309920e-01 4.447777e-01 4.770628e-01 2.248991e-01 -4.236434e-01 -4.207561e-01 1.079997e-01 -6.510040e-01
<VARIANCE> 39
 4.884460e+01 1.854022e+01 3.645853e+01 5.375195e+01 1.874391e+02 7.097327e+01 7.607244e+01 2.164192e+02 1.667736e+01 1.225096e+02 4.791318e+01 1.903457e+01 2.710213e+01 1.068409e+00 6.275914e-01 8.151627e-01 1.283939e+00 1.897874e+00 1.530825e+00 1.699226e+00 2.767825e+00 1.007663e+00 2.780330e+00 2.134214e+00 1.456783e+00 7.773950e-01 2.593744e-01 2.060573e-01 3.218138e-01 3.904053e-01 6.862755e-01 5.385622e-01 7.601093e-01 1.233778e+00 2.175597e-01 5.759935e-01 4.188642e-01 2.751415e-01 2.467954e-01
<GCONST> 1.154821e+02
<STATE> 6
<MEAN> 39
 -9.949222e+00 1.241078e+00 -3.781167e+00 -5.652382e+00 2.901949e+00 -7.458274e+00 -2.455067e+00 -1.103757e+01 -5.000197e-01 -5.569403e+00 1.902983e+00 -8.332200e+00 6.282555e+01 -4.204817e-01 -9.037542e-01 7.729711e-01 1.739568e-01 -6.015157e-01 4.343340e-01 -3.896386e-02 5.367232e-01 -2.361429e-01 -3.724981e-01 -3.294540e-01 5.371854e-02 -8.992846e-01 4.313650e-02 -4.266828e-02 -8.670038e-02 5.978255e-03 2.081883e-02 -6.255760e-02 -4.490132e-03 -2.615854e-02 2.908347e-02 6.282783e-02 -1.035350e-02 8.994927e-02 1.598640e-01
<VARIANCE> 39
 4.122258e+01 1.474504e+01 1.280382e+01 1.802606e+01 4.772002e+01 2.641077e+01 3.082217e+01 6.169711e+01 2.709663e+01 4.448574e+01 2.136213e+01 1.325986e+01 1.377562e+01 4.375150e-01 3.417023e-01 6.926824e-01 1.035642e+00 1.579861e+00 1.116868e+00 1.564361e+00 1.818870e+00 9.236143e-01 2.232909e+00 1.642130e+00 1.096346e+00 2.481442e-01 3.336546e-02 8.266388e-02 9.682973e-02 1.828513e-01 2.232464e-01 2.162597e-01 2.812735e-01 1.879346e-01 2.217014e-01 3.106802e-01 3.355429e-01 2.126219e-01 1.303026e-02
<GCONST> 8.732704e+01
<STATE> 7
<MEAN> 39
 -9.941947e+00 -2.580882e+00 -4.617042e-01 -4.318205e+00 1.469125e-01 -6.715293e+00 -4.691475e+00 -1.041011e+01 -3.179164e+00 -8.860627e+00 -7.743644e-01 -6.985531e+00 6.104129e+01 2.150040e+00 8.292696e-01 -2.177462e-01 -1.410452e+00 -1.476918e+00 -4.440651e-01 -1.341449e+00 -1.398688e-01 -1.120152e+00 -9.705668e-01 6.803562e-02 1.149453e+00 8.755576e-01 8.065326e-01 7.633258e-01 -2.438493e-01 -9.264781e-01 -6.142311e-01 -1.775739e-01 -1.511042e-01 -8.869096e-02 -3.809163e-01 -1.370946e-01 2.162391e-01 2.940922e-01 3.916122e-01
<VARIANCE> 39
 2.296709e+01 1.599711e+01 1.800243e+01 1.865124e+01 2.300237e+01 3.672831e+01 2.598951e+01 3.510680e+01 1.559787e+01 3.329006e+01 2.473890e+01 1.523076e+01 4.824100e+00 3.437596e+00 4.797219e+00 2.386332e+00 5.584125e+00 3.949666e+00 3.952579e+00 2.637429e+00 2.352677e+00 4.878207e+00 4.085085e+00 2.411635e+00 2.346539e+00 7.869517e-01 2.126699e-01 3.492283e-01 1.947971e-01 6.272570e-01 4.214309e-01 5.771019e-01 5.920906e-01 3.855943e-01 7.380726e-01 6.188266e-01 3.835359e-01 3.736164e-01 8.206378e-02
<GCONST> 1.123448e+02
<STATE> 8
<MEAN> 39
 2.952268e+00 6.408940e+00 -2.011186e+00 -1.644262e+01 -1.140677e+01 -1.006707e+01 -8.233812e+00 -9.484998e+00 -8.427338e+00 -1.395790e+01 -5.301171e-01 -1.885255e+00 6.615088e+01 2.309633e+00 1.502226e+00 -5.999227e-01 -2.700987e+00 -1.617887e+00 8.579883e-01 4.177107e-01 1.597990e-01 -1.508344e+00 -8.047562e-01 6.766721e-01 1.315371e+00 1.090334e+00 -8.679786e-01 -7.888161e-01 1.950257e-02 7.801242e-01 1.010577e+00 7.779561e-01 4.302022e-01 -3.455884e-01 9.067083e-02 6.662084e-01 4.995808e-01 -1.071785e-01 -2.936924e-01
<VARIANCE> 39
 5.546381e+00 1.063226e+01 4.200131e+01 1.576639e+01 2.997304e+01 3.321571e+01 2.150190e+01 5.825134e+01 5.606816e+01 2.112196e+01 3.381252e+01 3.419479e+01 2.210490e+00 1.763136e+00 1.965101e+00 8.084556e-01 4.428052e+00 3.422664e+00 3.361429e+00 2.242913e+00 1.966081e+00 5.264153e+00 2.372827e+00 3.595107e+00 2.773926e+00 3.983142e-01 9.538692e-02 2.405789e-01 3.461076e-01 4.414001e-01 2.081119e-01 6.227717e-01 4.877034e-01 9.539237e-01 4.827337e-01 6.001346e-01 5.537637e-01 5.661674e-01 3.745348e-02
<GCONST> 1.074127e+02
<STATE> 9
<MEAN> 39
 4.974700e+00 6.391254e+00 -3.615603e+00 -1.784672e+01 -1.015979e+01 -3.953478e+00 -6.767718e+00 -1.367814e+01 -1.209343e+01 -1.106019e+01 4.791279e+00 1.287451e+00 6.748040e+01 1.294124e-01 -7.603048e-01 -4.373397e-01 3.770747e-01 9.755833e-01 1.809716e+00 -3.798946e-01 -2.381006e+00 -1.444907e+00 2.129098e+00 2.236716e+00 4.626827e-01 3.453228e-01 -2.765698e-01 -3.238795e-01 1.073582e-01 6.725606e-01 2.889588e-01 -3.123317e-01 -3.131999e-01 -4.164824e-01 1.228294e-01 6.012959e-01 -1.245204e-01 -7.149651e-01 -8.238555e-02
<VARIANCE> 39
 2.407578e+00 1.129182e+01 2.686234e+01 9.628572e+00 4.805511e+01 5.341223e+01 1.487234e+01 4.861884e+01 6.064021e+01 3.314244e+01 5.755262e+01 3.891498e+01 1.898984e+00 1.868612e-01 1.205535e+00 1.038966e+00 1.585821e+00 9.618124e-01 2.715634e+00 2.421769e+00 4.998652e+00 3.022258e+00 4.575179e+00 2.491833e+00 3.405488e+00 1.479163e-01 1.065186e-01 1.164614e-01 1.988947e-01 3.094171e-01 2.424770e-01 6.219995e-01 3.193289e-01 5.652557e-01 7.493459e-01 4.692231e-01 5.220607e-01 7.780721e-01 3.505169e-02
<GCONST> 1.001686e+02
<STATE> 10
<MEAN> 39
 3.655232e+00 3.790147e+00 -1.114381e+00 -1.522707e+01 7.945988e-02 1.099275e+00 -1.173519e+01 -2.090847e+01 -2.012794e+01 -2.204044e+00 1.583468e+01 -1.309182e+00 6.926991e+01 -1.888494e-01 -5.207210e-01 3.599164e-01 1.630632e+00 6.050789e-01 -6.671121e-01 -7.661803e-01 -1.419146e+00 1.239903e-01 1.508667e+00 -1.633921e-01 -1.907340e+00 -5.898683e-02 -2.937332e-02 1.339384e-01 1.344212e-01 2.985634e-02 -1.162686e-01 -3.656762e-01 -3.703433e-02 5.104678e-01 3.686451e-01 -4.266173e-01 -3.882872e-01 -9.297600e-02 -6.087470e-02
<VARIANCE> 39
 3.207454e+00 1.957354e+01 5.404312e+01 5.395577e+01 6.452634e+01 1.818430e+01 4.004739e+01 8.530953e+01 5.859636e+01 8.285654e+01 4.432443e+01 3.278753e+01 2.712980e+00 1.448530e-01 7.385848e-01 9.346566e-01 1.145206e+00 1.874484e+00 1.135331e+00 2.119222e+00 2.630166e+00 3.754761e+00 3.051987e+00 1.921141e+00 3.200467e+00 8.905168e-02 2.329118e-02 1.577347e-01 1.864585e-01 3.237517e-01 2.521905e-01 2.999995e-01 4.953041e-01 4.585409e-01 6.185943e-01 8.399903e-01 2.679506e-01 6.134298e-01 3.124762e-02
<GCONST> 9.950520e+01
<STATE> 11
<MEAN> 39
 3.199077e+00 1.239805e+00 -2.134259e+00 -6.114432e+00 1.957528e-01 -7.003175e+00 -1.817428e+01 -2.360449e+01 -1.259260e+01 -6.937844e-01 6.936199e+00 -7.687334e+00 6.801813e+01 -1.664753e-01 -3.365029e-02 2.655884e-01 5.979592e-02 2.300182e-01 -7.595467e-01 -6.152935e-01 6.317254e-01 5.663821e-01 2.285534e-02 6.444335e-01 -2.808387e-01 1.407355e-01 6.211777e-02 1.467651e-01 -1.419387e-01 -5.365232e-01 -2.051504e-01 3.265204e-01 2.161533e-01 1.650353e-01 -1.463499e-01 -2.201895e-01 1.982916e-01 4.625590e-01 4.723907e-02
<VARIANCE> 39
 5.880180e+00 1.974326e+01 7.411736e+01 3.120305e+01 4.788480e+01 3.312824e+01 5.290878e+01 3.189458e+01 5.311599e+01 3.485170e+01 6.486971e+01 1.180752e+01 4.200743e+00 1.744059e-01 6.331265e-01 6.834014e-01 2.494314e+00 1.265371e+00 1.818893e+00 2.742313e+00 1.617730e+00 3.109136e+00 2.499898e+00 2.875370e+00 2.454240e+00 2.565641e-01 3.004204e-02 7.541065e-02 1.762640e-01 1.758896e-01 2.842629e-01 3.231641e-01 3.835295e-01 3.090997e-01 5.452362e-01 5.277034e-01 4.814339e-01 4.712728e-01 2.237160e-02
<GCONST> 9.726290e+01
<STATE> 12
<MEAN> 39
 3.124391e+00 1.812522e+00 -1.759722e+00 -1.360358e+01 -2.324069e+00 -4.397071e+00 -1.568485e+01 -2.098495e+01 -1.315078e+01 3.546952e+00 1.421002e+01 -8.018471e+00 7.019588e+01 1.193413e-01 4.484953e-01 -8.903029e-01 -1.052884e+00 -1.249918e-01 6.871031e-01 5.787116e-01 9.779411e-03 -2.820669e-02 -6.828384e-01 -2.001405e-01 8.122306e-01 -9.134033e-02 -6.234897e-02 4.260488e-02 -5.970779e-02 1.686482e-01 3.307406e-02 -3.220220e-02 1.535410e-01 -4.708676e-02 -4.171268e-02 -3.061030e-01 -2.436607e-01 1.637710e-01 -1.165738e-01
<VARIANCE> 39
 2.196276e+00 1.098379e+01 4.765108e+01 4.515047e+01 6.676257e+01 3.533000e+01 1.187787e+02 8.545275e+01 6.726925e+01 5.881075e+01 2.199197e+01 4.793268e+01 5.269534e+00 1.420885e-01 5.010906e-01 8.103578e-01 2.091272e+00 1.127941e+00 1.183920e+00 1.582895e+00 2.093702e+00 1.415110e+00 1.756163e+00 9.427856e-01 1.792042e+00 1.956429e-01 2.548938e-02 8.532882e-02 2.224105e-01 2.734143e-01 2.294609e-01 2.047420e-01 3.046119e-01 3.145846e-01 2.714444e-01 2.907394e-01 1.284475e-01 3.055403e-01 2.426690e-02
<GCONST> 9.177694e+01
<STATE> 13
<MEAN> 39
 3.229698e+00 4.331818e+00 -8.398561e+00 -1.488524e+01 -5.743231e+00 -2.415087e+00 -8.607555e+00 -2.222589e+01 -1.454392e+01 -4.984138e+00 1.015322e+01 2.176643e-01 6.775614e+01 -4.119199e-01 4.180853e-01 4.114335e-01 2.160376e-01 6.918997e-02 -2.918402e-02 5.319307e-01 6.976066e-01 9.695736e-02 -1.110920e+00 -6.774964e-01 3.093819e-01 -3.285227e-01 -1.200064e-01 -6.828672e-02 2.923653e-01 3.384821e-01 1.851336e-01 -7.101790e-02 -2.411980e-02 -1.894261e-02 4.777913e-02 1.542659e-01 -3.028867e-02 -2.122728e-01 -6.510637e-02
<VARIANCE> 39
 2.787765e+00 6.202487e+00 1.678820e+01 7.109863e+00 4.502014e+01 2.569345e+01 3.351259e+01 3.199977e+01 1.962969e+01 2.254141e+01 2.531066e+01 3.433900e+01 1.472413e+00 1.840775e-01 2.486661e-01 7.177786e-01 1.069950e+00 8.199863e-01 5.193998e-01 1.127348e+00 1.518105e+00 1.898730e+00 1.562266e+00 8.108865e-01 6.180070e-01 7.868630e-02 2.536950e-02 3.389899e-02 5.967284e-02 8.605044e-02 1.269608e-01 1.281068e-01 2.404265e-01 2.012364e-01 2.087190e-01 2.096214e-01 1.458981e-01 1.139072e-01 3.809684e-03
<GCONST> 6.850296e+01
<STATE> 14
<MEAN> 39
 -1.111792e+00 5.038852e+00 -1.227867e+00 -9.803493e+00 -2.096945e+00 -5.088619e+00 -8.313494e+00 -1.786649e+01 -1.102452e+01 -8.263561e+00 7.120276e+00 -1.550444e+00 6.505654e+01 -1.000293e+00 -4.110869e-01 6.222835e-01 1.195603e+00 7.099661e-01 -3.546651e-01 3.797355e-01 3.870353e-01 4.085918e-01 -1.556257e-01 -4.124977e-01 -6.429079e-03 -6.330844e-01 -6.638553e-02 -1.555738e-01 -1.723296e-01 -1.051438e-01 -1.216298e-01 -4.182586e-02 -5.962947e-02 6.251734e-02 1.038729e-01 9.383384e-02 5.856986e-02 -9.108520e-03 -5.306915e-03
<VARIANCE> 39
 2.899326e+00 6.432157e+00 1.392448e+01 1.162962e+01 4.534618e+01 4.997044e+01 3.695618e+01 3.727323e+01 2.407086e+01 1.192777e+01 1.736590e+01 4.752081e+01 1.264588e+00 2.362104e-01 3.186334e-01 9.139723e-01 7.828697e-01 1.096957e+00 1.513322e+00 1.005895e+00 1.457722e+00 1.790999e+00 1.065524e+00 1.339236e+00 1.652309e+00 1.046693e-01 2.302471e-02 4.512242e-02 7.666208e-02 1.122781e-01 1.367287e-01 2.708218e-01 1.784860e-01 2.604079e-01 3.672737e-01 2.329849e-01 2.669919e-01 2.611912e-01 5.227362e-03
<GCONST> 7.604112e+01
<STATE> 15
<MEAN> 39
 -5.970662e+00 2.364606e+00 7.008201e-01 -4.030657e+00 1.163459e+00 -5.625169e+00 -7.303627e+00 -1.791211e+01 -1.113203e+01 -1.053370e+01 3.081571e+00 -4.253774e+00 6.205023e+01 -9.328505e-01 -3.913585e-01 4.241403e-01 7.588576e-01 8.071772e-02 -1.967500e-01 2.401635e-01 1.495613e-01 3.216446e-01 -4.840987e-01 -1.034771e+00 -3.162639e-01 -5.598412e-01 1.403566e-02 2.743007e-04 -5.714591e-02 -1.330068e-01 -5.839270e-02 8.201691e-04 -3.934991e-02 -2.768507e-02 1.173704e-02 5.264029e-02 5.116232e-03 5.242530e-02 2.932066e-02
<VARIANCE> 39
 2.486494e+00 6.393518e+00 1.639149e+01 1.348462e+01 2.260098e+01 2.576795e+01 3.214645e+01 4.672208e+01 2.314972e+01 1.606253e+01 2.850576e+01 4.282710e+01 9.681212e-01 1.665186e-01 3.351451e-01 3.504303e-01 6.282918e-01 6.307115e-01 9.920053e-01 1.219360e+00 1.108346e+00 1.105289e+00 1.338803e+00 1.284844e+00 9.903614e-01 2.875982e-02 2.949357e-02 7.055306e-02 8.566836e-02 1.047836e-01 1.275822e-01 1.789036e-01 1.421085e-01 1.962735e-01 2.163391e-01 2.386451e-01 2.004191e-01 2.074375e-01 5.673248e-03
<GCONST> 6.947044e+01
<STATE> 16
<MEAN> 39
 -1.069834e+01 -5.665110e-01 1.038774e+00 -1.707128e+00 2.601284e+00 -5.802853e+00 -5.555830e+00 -1.490403e+01 -7.889804e+00 -1.115543e+01 4.094131e-02 -3.672029e+00 5.977526e+01 -7.818892e-01 -6.713278e-01 -1.305946e-01 4.872161e-01 5.541717e-01 2.838041e-01 4.417778e-01 6.214630e-01 2.921467e-01 -3.666835e-02 -2.713974e-01 -1.261693e-01 -3.462905e-01 9.155223e-02 1.625893e-02 -8.528301e-03 2.269297e-02 1.051943e-01 1.570808e-01 1.191673e-01 1.083961e-01 3.466871e-02 6.727466e-03 -1.368172e-02 -1.030426e-01 4.221080e-02
<VARIANCE> 39
 2.726799e+00 6.049037e+00 1.166313e+01 1.576485e+01 3.348965e+01 2.138861e+01 1.728916e+01 2.441749e+01 2.292447e+01 1.713803e+01 2.811215e+01 3.352628e+01 1.233931e+00 1.415006e-01 2.772980e-01 3.319642e-01 7.001705e-01 1.127221e+00 7.713789e-01 1.136288e+00 9.041739e-01 8.768903e-01 7.446194e-01 1.010273e+00 1.684980e+00 4.112129e-02 2.055396e-02 6.063547e-02 5.547544e-02 9.727558e-02 1.769462e-01 1.091291e-01 2.310832e-01 1.645973e-01 1.845758e-01 1.427208e-01 2.509986e-01 3.585273e-01 6.731069e-03
<GCONST> 6.727900e+01
<STATE> 17
<MEAN> 39
 -1.379555e+01 -3.588047e+00 1.341571e-01 -4.657318e-01 5.348562e+00 -1.689674e+00 -8.161631e-01 -9.099418e+00 -3.449151e+00 -7.880329e+00 9.734753e-02 -5.577666e+00 5.829665e+01 -5.510855e-01 -3.836070e-01 1.042855e-02 1.454618e-02 5.155106e-02 3.922000e-01 9.077873e-01 1.128928e+00 7.541138e-01 1.409055e-01 -6.021034e-01 -6.519611e-01 -2.980728e-01 6.356135e-03 5.324040e-02 3.751078e-02 -5.779201e-03 -1.429398e-02 -4.171445e-03 2.576708e-03 -1.280572e-01 -1.418884e-01 -1.323953e-01 1.109148e-03 4.796736e-03 1.268852e-02
<VARIANCE> 39
 2.614312e+00 3.070332e+00 1.122372e+01 1.626231e+01 3.016494e+01 3.250814e+01 2.166661e+01 2.045563e+01 2.301722e+01 2.037597e+01 2.569635e+01 2.943518e+01 1.165779e+00 4.149192e-02 1.896983e-01 4.912321e-01 6.960930e-01 1.340816e+00 1.246921e+00 1.077481e+00 1.790491e+00 1.782308e+00 1.231031e+00 1.063486e+00 1.344339e+00 1.574148e-02 1.080071e-02 3.367772e-02 9.102409e-02 1.755647e-01 2.585686e-01 3.015092e-01 2.029141e-01 3.907177e-01 2.919893e-01 2.072403e-01 1.811492e-01 2.629308e-01 3.621170e-03
<GCONST> 6.851485e+01
<STATE> 18
<MEAN> 39
 -1.663781e+01 -4.990824e+00 1.026152e+00 1.203095e+00 6.549063e+00 -2.110866e-01 1.430746e+00 -9.504817e+00 -6.974083e+00 -1.410555e+01 -5.297845e+00 -8.883756e+00 5.690545e+01 -6.007911e-01 -3.934042e-01 -1.312928e-02 2.550212e-01 5.185624e-01 9.401280e-01 5.953292e-01 2.317518e-01 -7.966404e-02 -5.668690e-01 -3.184415e-01 -2.197988e-01 -2.713097e-01 -8.384250e-03 -3.353925e-02 -9.042042e-02 -1.141811e-01 -7.873234e-02 -3.476572e-02 -1.472557e-01 2.745970e-02 1.384346e-01 1.289100e-01 8.239483e-02 1.167913e-01 -2.650018e-02
<VARIANCE> 39
 1.699313e+00 1.781937e+00 5.009179e+00 1.002770e+01 1.603374e+01 1.906959e+01 2.424422e+01 2.682974e+01 2.632079e+01 3.863945e+01 3.438947e+01 3.480442e+01 4.822152e-01 9.020135e-02 2.247699e-01 5.930648e-01 7.196411e-01 8.826846e-01 1.393993e+00 1.186680e+00 2.173112e+00 1.046555e+00 9.408311e-01 1.163186e+00 1.768019e+00 5.278821e-02 1.601579e-02 2.904355e-02 8.596858e-02 1.198188e-01 1.415769e-01 1.878625e-01 2.383868e-01 4.042538e-01 1.375280e-01 1.432734e-01 2.072138e-01 3.117506e-01 9.260802e-03
<GCONST> 6.679028e+01
<STATE> 19
<MEAN> 39
 -1.940426e+01 -7.766392e+00 -1.036169e+00 3.867591e-01 7.808980e+00 3.137245e+00 4.185881e+00 -6.272961e+00 -4.317696e+00 -1.511432e+01 -7.548062e+00 -1.057954e+01 5.548134e+01 -3.529002e-01 -3.808786e-01 -2.964208e-01 -1.192760e-01 -4.540468e-02 1.070009e-01 2.224042e-01 2.402303e-01 4.646420e-01 1.542974e-01 -4.605646e-01 -5.515960e-01 -1.809980e-01 1.110067e-01 6.760920e-02 2.155045e-02 -3.246195e-02 -4.687931e-02 -7.236866e-02 7.523295e-02 2.444840e-02 -7.889559e-02 -1.447140e-02 -5.462178e-02 -1.105288e-01 7.091334e-02
<VARIANCE> 39
 1.928554e+00 2.788401e+00 1.303918e+01 2.231923e+01 2.995123e+01 1.976359e+01 2.615557e+01 3.186300e+01 3.957751e+01 6.039837e+01 4.228470e+01 3.409241e+01 5.018559e-01 2.781238e-01 2.296782e-01 6.727203e-01 1.028249e+00 1.139082e+00 1.273373e+00 1.475382e+00 1.779926e+00 1.927167e+00 2.628661e+00 1.591360e+00 1.668449e+00 6.883819e-02 3.283007e-02 3.827852e-02 1.509960e-01 2.123898e-01 1.933592e-01 2.328079e-01 2.498462e-01 3.655939e-01 3.180632e-01 4.839198e-01 2.125645e-01 3.581703e-01 7.801452e-03
<GCONST> 7.973306e+01
<TRANSP> 20
 0.000000e+00 1.000000e+00 0.000000e+00 0.000000e+00 0.000000e+00 0.000000e+00 0.000000e+00 0.000000e+00 0.000000e+00 0.000000e+00 0.000000e+00 0.000000e+00 0.000000e+00 0.000000e+00 0.000000e+00 0.000000e+00 0.000000e+00 0.000000e+00 0.000000e+00 0.000000e+00
 0.000000e+00 7.857181e-01 2.142819e-01 0.000000e+00 0.000000e+00 0.000000e+00 0.000000e+00 0.000000e+00 0.000000e+00 0.000000e+00 0.000000e+00 0.000000e+00 0.000000e+00 0.000000e+00 0.000000e+00 0.000000e+00 0.000000e+00 0.000000e+00 0.000000e+00 0.000000e+00
 0.000000e+00 0.000000e+00 7.939382e-01 2.060618e-01 0.000000e+00 0.000000e+00 0.000000e+00 0.000000e+00 0.000000e+00 0.000000e+00 0.000000e+00 0.000000e+00 0.000000e+00 0.000000e+00 0.000000e+00 0.000000e+00 0.000000e+00 0.000000e+00 0.000000e+00 0.000000e+00
 0.000000e+00 0.000000e+00 0.000000e+00 7.769580e-01 2.230420e-01 0.000000e+00 0.000000e+00 0.000000e+00 0.000000e+00 0.000000e+00 0.000000e+00 0.000000e+00 0.000000e+00 0.000000e+00 0.000000e+00 0.000000e+00 0.000000e+00 0.000000e+00 0.000000e+00 0.000000e+00
 0.000000e+00 0.000000e+00 0.000000e+00 0.000000e+00 6.581756e-01 3.418243e-01 0.000000e+00 0.000000e+00 0.000000e+00 0.000000e+00 0.000000e+00 0.000000e+00 0.000000e+00 0.000000e+00 0.000000e+00 0.000000e+00 0.000000e+00 0.000000e+00 0.000000e+00 0.000000e+00
 0.000000e+00 0.000000e+00 0.000000e+00 0.000000e+00 0.000000e+00 8.648215e-01 1.351785e-01 0.000000e+00 0.000000e+00 0.000000e+00 0.000000e+00 0.000000e+00 0.000000e+00 0.000000e+00 0.000000e+00 0.000000e+00 0.000000e+00 0.000000e+00 0.000000e+00 0.000000e+00
 0.000000e+00 0.000000e+00 0.000000e+00 0.000000e+00 0.000000e+00 0.000000e+00 7.695996e-01 2.304004e-01 0.000000e+00 0.000000e+00 0.000000e+00 0.000000e+00 0.000000e+00 0.000000e+00 0.000000e+00 0.000000e+00 0.000000e+00 0.000000e+00 0.000000e+00 0.000000e+00
 0.000000e+00 0.000000e+00 0.000000e+00 0.000000e+00 0.000000e+00 0.000000e+00 0.000000e+00 6.500798e-01 3.499202e-01 0.000000e+00 0.000000e+00 0.000000e+00 0.000000e+00 0.000000e+00 0.000000e+00 0.000000e+00 0.000000e+00 0.000000e+00 0.000000e+00 0.000000e+00
 0.000000e+00 0.000000e+00 0.000000e+00 0.000000e+00 0.000000e+00 0.000000e+00 0.000000e+00 0.000000e+00 7.471623e-01 2.528377e-01 0.000000e+00 0.000000e+00 0.000000e+00 0.000000e+00 0.000000e+00 0.000000e+00 0.000000e+00 0.000000e+00 0.000000e+00 0.000000e+00
 0.000000e+00 0.000000e+00 0.000000e+00 0.000000e+00 0.000000e+00 0.000000e+00 0.000000e+00 0.000000e+00 0.000000e+00 7.907434e-01 2.092566e-01 0.000000e+00 0.000000e+00 0.000000e+00 0.000000e+00 0.000000e+00 0.000000e+00 0.000000e+00 0.000000e+00 0.000000e+00
 0.000000e+00 0.000000e+00 0.000000e+00 0.000000e+00 0.000000e+00 0.000000e+00 0.000000e+00 0.000000e+00 0.000000e+00 0.000000e+00 7.986817e-01 2.013184e-01 0.000000e+00 0.000000e+00 0.000000e+00 0.000000e+00 0.000000e+00 0.000000e+00 0.000000e+00 0.000000e+00
 0.000000e+00 0.000000e+00 0.000000e+00 0.000000e+00 0.000000e+00 0.000000e+00 0.000000e+00 0.000000e+00 0.000000e+00 0.000000e+00 0.000000e+00 7.979423e-01 2.020577e-01 0.000000e+00 0.000000e+00 0.000000e+00 0.000000e+00 0.000000e+00 0.000000e+00 0.000000e+00
 0.000000e+00 0.000000e+00 0.000000e+00 0.000000e+00 0.000000e+00 0.000000e+00 0.000000e+00 0.000000e+00 0.000000e+00 0.000000e+00 0.000000e+00 0.000000e+00 8.183102e-01 1.816898e-01 0.000000e+00 0.000000e+00 0.000000e+00 0.000000e+00 0.000000e+00 0.000000e+00
 0.000000e+00 0.000000e+00 0.000000e+00 0.000000e+00 0.000000e+00 0.000000e+00 0.000000e+00 0.000000e+00 0.000000e+00 0.000000e+00 0.000000e+00 0.000000e+00 0.000000e+00 8.025838e-01 1.974163e-01 0.000000e+00 0.000000e+00 0.000000e+00 0.000000e+00 0.000000e+00
 0.000000e+00 0.000000e+00 0.000000e+00 0.000000e+00 0.000000e+00 0.000000e+00 0.000000e+00 0.000000e+00 0.000000e+00 0.000000e+00 0.000000e+00 0.000000e+00 0.000000e+00 0.000000e+00 8.011414e-01 1.988585e-01 0.000000e+00 0.000000e+00 0.000000e+00 0.000000e+00
 0.000000e+00 0.000000e+00 0.000000e+00 0.000000e+00 0.000000e+00 0.000000e+00 0.000000e+00 0.000000e+00 0.000000e+00 0.000000e+00 0.000000e+00 0.000000e+00 0.000000e+00 0.000000e+00 0.000000e+00 8.158768e-01 1.841232e-01 0.000000e+00 0.000000e+00 0.000000e+00
 0.000000e+00 0.000000e+00 0.000000e+00 0.000000e+00 0.000000e+00 0.000000e+00 0.000000e+00 0.000000e+00 0.000000e+00 0.000000e+00 0.000000e+00 0.000000e+00 0.000000e+00 0.000000e+00 0.000000e+00 0.000000e+00 7.922469e-01 2.077532e-01 0.000000e+00 0.000000e+00
 0.000000e+00 0.000000e+00 0.000000e+00 0.000000e+00 0.000000e+00 0.000000e+00 0.000000e+00 0.000000e+00 0.000000e+00 0.000000e+00 0.000000e+00 0.000000e+00 0.000000e+00 0.000000e+00 0.000000e+00 0.000000e+00 0.000000e+00 7.663194e-01 2.336806e-01 0.000000e+00
 0.000000e+00 0.000000e+00 0.000000e+00 0.000000e+00 0.000000e+00 0.000000e+00 0.000000e+00 0.000000e+00 0.000000e+00 0.000000e+00 0.000000e+00 0.000000e+00 0.000000e+00 0.000000e+00 0.000000e+00 0.000000e+00 0.000000e+00 0.000000e+00 7.573270e-01 2.426730e-01
 0.000000e+00 0.000000e+00 0.000000e+00 0.000000e+00 0.000000e+00 0.000000e+00 0.000000e+00 0.000000e+00 0.000000e+00 0.000000e+00 0.000000e+00 0.000000e+00 0.000000e+00 0.000000e+00 0.000000e+00 0.000000e+00 0.000000e+00 0.000000e+00 0.000000e+00 0.000000e+00
<ENDHMM>
