~o
<STREAMINFO> 1 39
<VECSIZE> 39<NULLD><MFCC_D_A_0><DIAGC>
~h "alarm"
<BEGINHMM>
<NUMSTATES> 20
<STATE> 2
<MEAN> 39
 -1.629394e+01 -7.371088e+00 -3.272314e+00 -4.379049e+00 3.992108e-01 -4.821257e+00 4.908066e-01 -6.300517e+00 -1.888558e-01 -6.333474e+00 -9.529501e-01 -6.935176e+00 5.740952e+01 1.904923e+00 -9.017123e-01 -1.687637e+00 -7.883137e-01 6.535179e-01 6.956019e-01 -3.393331e-01 -7.093459e-01 5.815272e-01 -8.635698e-02 -1.423877e+00 -1.008795e+00 1.717616e+00 6.805637e-01 -5.378717e-01 -6.014581e-01 -1.443473e-01 3.409838e-01 1.780155e-01 -3.331412e-01 -3.148113e-01 1.121990e-01 -1.221426e-01 -3.501444e-01 -3.807593e-01 7.781107e-01
<VARIANCE> 39
 6.902005e+00 4.513939e+00 1.484379e+01 1.352764e+01 1.162594e+01 2.212533e+01 2.435018e+01 1.330328e+01 2.588040e+01 2.004239e+01 1.433568e+01 1.123633e+01 3.428738e+00 3.106654e+00 1.787851e+00 2.778505e+00 1.976343e+00 4.092962e+00 3.136230e+00 5.060404e+00 4.551582e+00 3.792654e+00 3.707024e+00 2.796579e+00 2.278305e+00 2.274498e+00 2.288625e-01 2.203996e-01 4.304217e-01 3.484961e-01 5.554113e-01 4.520715e-01 5.365545e-01 8.173910e-01 5.543593e-01 4.533399e-01 4.700497e-01 3.065057e-01 2.137092e-01
<GCONST> 1.067864e+02
<STATE> 3
<MEAN> 39
 -3.270553e+00 -1.610092e+01 -1.397399e+01 -7.517102e+00 4.751395e+00 -1.373865e+00 -3.772482e+00 -1.283189e+01 2.233469e+00 -9.264202e+00 -8.462588e+00 -1.235555e+01 7.143980e+01 2.414583e+00 -1.253615e+00 -9.318216e-01 -3.311787e-01 -1.988000e-01 2.162989e-01 -1.072360e+00 -3.663302e-01 -4.016520e-01 -3.855474e-01 -6.566889e-01 -4.980612e-01 2.728772e+00 -6.072796e-01 5.452479e-01 7.552002e-01 1.345137e-01 -5.215675e-01 -1.995163e-01 1.283703e-01 3.954701e-01 -2.609063e-01 2.456381e-01 4.295961e-01 4.415811e-01 -6.131991e-01
<VARIANCE> 39
 2.181450e+01 1.989279e+01 4.500213e+01 2.360511e+01 8.368223e+01 5.543142e+01 1.031652e+02 1.157311e+02 8.023948e+01 9.488802e+01 4.760036e+01 2.394687e+01 2.458523e+01 2.230276e+00 4.085601e+00 5.483376e+00 3.341111e+00 5.594310e+00 3.561942e+00 3.274110e+00 1.044397e+01 3.723361e+00 5.792290e+00 4.884793e+00 3.110191e+00 3.085591e+00 3.339254e-01 5.417724e-01 3.856862e-01 4.274975e-01 6.002445e-01 5.341442e-01 6.644284e-01 1.143827e+00 7.148219e-01 8.883413e-01 4.890297e-01 5.178065e-01 3.381546e-01
<GCONST> 1.324510e+02
<STATE> 4
<MEAN> 39
 9.430990e-01 -1.541035e+01 -8.584209e+00 -1.011492e+01 7.813005e-01 -1.604260e+00 -4.183292e+00 -5.849560e+00 -2.785905e+00 -3.873306e+00 -1.796036e+00 -1.075659e+01 7.697217e+01 2.225268e-01 1.334176e+00 3.680696e-01 -5.851215e-01 -4.263282e-01 -4.972906e-01 -1.514109e-01 -1.508149e-01 1.901371e-01 6.664667e-01 4.195948e-01 3.726391e-01 -2.755651e-01 -3.821835e-02 2.823258e-01 2.298113e-02 -1.264642e-01 9.320530e-02 -1.794474e-01 -1.216030e-02 -2.534276e-01 1.407910e-01 1.442091e-01 -1.840847e-02 -7.267841e-02 -2.799699e-01
<VARIANCE> 39
 3.041606e+00 1.520939e+01 1.086103e+02 5.444189e+01 1.231416e+02 6.041176e+01 9.017405e+01 1.276093e+02 3.821004e+01 6.595300e+01 8.455326e+01 1.733676e+01 1.137715e+01 1.288322e-01 6.759242e-01 1.318890e+00 7.099353e-01 1.138248e+00 1.316050e+00 1.177590e+00 1.699217e+00 1.151683e+00 2.006787e+00 1.478292e+00 1.481802e+00 3.051431e-01 4.953253e-02 1.509216e-01 2.303316e-01 2.541096e-01 1.981480e-01 2.620989e-01 1.979577e-01 3.863932e-01 2.343100e-01 2.682550e-01 2.411713e-01 2.280239e-01 6.332726e-02
<GCONST> 9.735182e+01
<STATE> 5
<MEAN> 39
 2.118140e+00 -6.705998e+00 -9.306696e+00 -1.327230e+01 -3.627463e+00 -2.162153e+00 -6.043037e+00 -1.495542e+01 1.413680e+00 -1.320342e+00 -4.846056e+00 -1.053188e+01 7.258069e+01 1.461897e-01 9.036314e-01 1.470427e-01 -5.872008e-01 -4.195591e-02 1.352454e-01 -3.095538e-01 -4.157033e-01 1.365890e-01 6.346253e-01 8.484560e-02 -9.083357e-02 -3.471170e-01 -6.425957e-02 -3.906972e-01 -3.578858e-01 1.816850e-01 2.786111e-01 3.256879e-01 6.409550e-02 1.882954e-01 4.414278e-02 -3.572640e-01 -1.188083e-01 -7.325345e-02 1.392165e-01
<VARIANCE> 39
 2.760073e+00 8.904073e+00 4.016861e+01 2.539290e+01 9.788343e+01 9.721445e+01 6.970615e+01 1.081421e+02 4.482347e+01 5.962519e+01 1.215579e+02 1.850078e+01 5.831528e+00 1.051744e-01 5.071434e-01 1.249609e+00 8.809823e-01 1.052022e+00 1.359460e+00 7.021590e-01 1.342167e+00 1.170019e+00 1.383703e+00 1.033590e+00 6.946402e-01 1.032932e-01 1.178771e-02 4.618731e-02 1.187226e-01 1.008316e-01 1.332688e-01 1.944136e-01 1.237502e-01 3.192478e-01 2.101126e-01 2.939151e-01 2.015490e-01 2.012111e-01 1.142102e-02
<GCONST> 8.332361e+01
<STATE> 6
<MEAN> 39
 2.589417e+00 -7.625124e+00 -1.418899e+01 -1.227169e+01 2.160408e+00 -3.636888e+00 -9.491590e+00 -1.263035e+01 1.303391e+00 -7.043501e+00 -9.578264e+00 -1.014824e+01 7.227463e+01 -3.555263e-02 -8.165526e-01 -9.010541e-01 3.519394e-01 1.000287e+00 3.841681e-01 4.029446e-01 8.654779e-01 9.796406e-02 -8.581790e-01 -9.374599e-01 -3.770191e-01 3.008092e-01 -1.035511e-01 -1.062084e-01 1.758988e-01 7.642671e-02 1.440023e-02 -1.615990e-01 2.641293e-03 1.675302e-01 3.787838e-02 -3.938253e-02 -2.177064e-02 -8.234583e-02 6.067851e-02
<VARIANCE> 39
 2.195130e+00 1.321769e+01 3.817024e+01 2.201428e+01 5.436060e+01 3.386347e+01 5.450895e+01 9.077432e+01 4.320796e+01 7.357671e+01 1.515580e+02 2.810357e+01 4.265273e+00 1.794843e-01 5.885224e-01 8.141903e-01 7.416747e-01 6.300587e-01 1.482132e+00 1.879872e+00 1.952058e+00 3.001337e+00 2.294516e+00 1.036380e+00 2.303239e+00 8.362728e-02 2.939204e-02 1.464621e-01 1.431105e-01 1.114720e-01 1.472928e-01 2.277686e-01 2.331113e-01 2.060213e-01 3.317184e-01 4.324113e-01 2.793665e-01 3.382438e-01 2.103692e-02
<GCONST> 9.029341e+01
<STATE> 7
<MEAN> 39
 1.849172e+00 -1.232508e+01 -3.926952e+00 -1.242578e+01 1.242067e+01 -1.457138e+00 -1.105304e+01 4.410660e+00 -9.467097e-02 -4.145998e+00 -1.634385e+00 -1.587886e+01 7.721957e+01 -2.804621e-01 -6.618259e-01 4.397186e-01 4.347804e-01 -4.015656e-01 1.525659e-01 8.370896e-02 9.051093e-02 1.069511e-01 -2.179665e-01 -1.452897e-01 -1.423790e-01 1.917531e-01 6.471315e-03 1.234665e-01 -2.101106e-03 1.289477e-02 -3.049113e-01 -1.167473e-01 2.401351e-02 -1.745715e-01 -8.474270e-03 9.029155e-02 1.505621e-01 1.803105e-01 -8.506119e-02
<VARIANCE> 39
 1.589172e+00 9.830041e+00 7.486076e+01 1.993242e+01 6.237206e+01 2.188898e+01 4.025996e+01 1.449369e+02 2.227082e+01 3.424303e+01 6.998795e+01 3.797221e+01 6.938783e+00 1.303412e-01 3.327778e-01 4.973143e-01 6.326609e-01 1.490173e+00 1.468581e+00 1.318735e+00 1.786611e+00 8.257635e-01 2.213069e+00 9.131595e-01 9.339952e-01 9.276541e-02 2.393524e-02 5.024460e-02 6.714848e-02 8.978885e-02 1.072757e-01 2.062251e-01 2.112466e-01 3.049525e-01 1.549655e-01 1.500310e-01 1.888697e-01 1.645785e-01 1.107642e-02
<GCONST> 7.937242e+01
<STATE> 8
<MEAN> 39
 -5.501185e-01 -1.012242e+01 -1.596618e+01 -5.940300e+00 -3.732186e+00 2.327372e+00 -4.244124e+00 -1.409467e+01 3.457191e+00 -5.988980e+00 -7.892896e+00 -1.059563e+01 7.399557e+01 -1.789427e-01 -3.563831e-02 6.931821e-02 4.157456e-01 -4.678477e-01 -1.070189e+00 5.797275e-02 3.008239e-01 -1.026958e-01 -1.789590e-01 2.818217e-01 5.655006e-01 -2.329368e-01 8.805737e-02 1.437411e-01 2.191498e-01 -1.209788e-01 1.938640e-02 -3.047713e-01 9.393077e-02 2.011914e-02 -1.743198e-01 2.331182e-01 7.648335e-02 2.387663e-02 -1.295750e-01
<VARIANCE> 39
 2.237256e+00 1.785004e+01 4.520658e+01 3.827709e+01 6.414094e+01 8.751987e+01 6.893002e+01 8.468414e+01 4.894447e+01 1.657460e+02 5.338478e+01 7.138178e+01 5.283860e+00 2.138649e-01 1.681962e-01 7.940779e-01 1.048549e+00 8.928595e-01 1.742720e+00 7.076718e-01 2.919478e-01 1.551126e+00 2.339725e+00 8.451209e-01 1.187763e+00 9.719789e-02 3.496611e-02 6.896162e-02 2.295107e-01 1.804813e-01 1.666705e-01 2.170216e-01 1.500108e-01 1.467093e-01 3.142596e-01 6.614316e-01 1.598409e-01 2.858044e-01 1.359425e-02
<GCONST> 8.805328e+01
<STATE> 9
<MEAN> 39
 9.333276e-02 -9.464063e+00 -8.244531e+00 -8.078506e+00 1.241234e+00 -7.895764e+00 -7.243911e+00 -5.352176e+00 -2.105228e+00 -5.882927e+00 -2.222523e+00 -1.198255e+01 7.277652e+01 2.057636e-01 2.757686e-01 6.451273e-01 2.932793e-01 -5.724430e-01 -1.277272e+00 4.500190e-01 3.931399e-01 -6.509295e-01 1.610047e+00 8.248455e-01 -5.217901e-01 -3.832211e-01 7.797703e-02 -1.597632e-01 -8.575551e-02 2.640841e-01 3.887940e-02 1.564729e-01 -9.242405e-02 1.206841e-01 1.110591e-01 -2.606708e-02 -9.647959e-02 -1.268878e-01 1.170759e-01
<VARIANCE> 39
 3.341775e+00 1.929161e+01 9.268153e+01 2.715144e+01 4.137990e+01 1.779037e+01 3.432869e+01 1.418722e+02 3.998518e+01 9.170370e+01 9.757047e+01 5.223803e+01 9.827640e+00 1.628097e-01 1.159081e+00 1.415204e+00 1.241617e+00 1.757794e+00 1.496837e+00 5.378935e-01 2.402786e+00 2.660596e+00 2.615919e+00 1.067582e+00 1.880900e+00 3.044167e-01 2.150437e-02 3.197539e-01 2.341484e-01 1.727537e-01 4.862510e-01 2.638962e-01 2.235880e-01 4.405092e-01 4.609380e-01 6.880370e-01 2.408833e-01 2.868194e-01 9.841630e-02
<GCONST> 1.006654e+02
<STATE> 10
<MEAN> 39
 3.848827e-01 -1.172204e+01 -4.820650e+00 -4.771998e+00 -1.586639e+00 -8.178633e+00 -3.102402e+00 -3.037001e+00 2.119281e+00 1.588958e+00 -1.643415e+00 -1.357121e+01 7.241886e+01 8.397222e-02 1.231599e-01 5.234081e-01 1.275547e+00 -2.798000e-01 -1.006270e+00 3.038459e-01 4.819849e-01 1.774242e-01 -2.999116e-01 3.109643e-02 -6.245354e-01 -2.437476e-01 1.601596e-02 3.151906e-02 9.443508e-02 4.325017e-02 1.294446e-01 1.127114e-01 -1.731388e-01 1.332679e-03 -2.085818e-01 -5.211293e-01 -4.250191e-02 -7.284606e-02 1.002239e-01
<VARIANCE> 39
 7.891022e+00 1.326264e+01 8.019859e+01 3.154913e+01 3.774211e+01 3.616325e+01 6.520242e+01 8.279537e+01 1.964907e+01 4.196205e+01 7.584307e+01 2.899739e+01 1.056803e+01 8.882493e-01 3.051411e+00 9.009172e-01 7.083849e-01 3.061923e+00 2.983343e+00 2.170631e+00 2.384886e+00 2.210815e+00 2.440522e+00 1.426883e+00 2.994761e+00 1.373047e+00 1.595578e-01 4.273809e-01 1.114924e-01 1.437192e-01 4.991629e-01 7.242196e-01 3.297460e-01 1.952021e-01 2.696208e-01 4.772302e-01 3.380390e-01 5.827805e-01 1.766845e-01
<GCONST> 1.086161e+02
<STATE> 11
<MEAN> 39
 2.777067e+00 -1.353202e+01 -7.301488e+00 -4.368158e+00 -9.065807e-01 -1.259556e+01 -8.064178e+00 -1.334053e+00 -1.231115e+00 -4.482780e+00 -1.249216e+00 -1.582806e+01 7.464717e+01 -2.573487e-02 4.342662e-01 9.479713e-02 -5.075273e-01 8.667332e-02 4.909675e-01 -4.406756e-01 -5.257275e-01 -7.286762e-02 -6.124269e-01 1.934294e-01 4.090340e-01 -2.673154e-01 -7.945248e-02 4.396164e-01 1.709657e-01 -9.333990e-02 -2.677223e-02 1.185930e-01 2.106577e-02 -2.673782e-01 -7.751137e-02 6.534863e-02 1.295327e-01 1.282988e-01 -2.007810e-01
<VARIANCE> 39
 3.932480e+00 1.038717e+01 1.105491e+02 2.327576e+01 2.810297e+01 1.057796e+01 3.465492e+01 1.085129e+02 5.313334e+01 5.139378e+01 1.407309e+02 5.045971e+01 9.475760e+00 1.460841e-01 2.170448e+00 1.372841e+00 1.476575e+00 1.322737e+00 6.689556e-01 1.879156e+00 2.081659e+00 1.819813e+00 1.319366e+00 2.242482e+00 2.098122e+00 3.394238e-01 4.347471e-02 8.276696e-02 2.155966e-01 3.288447e-01 2.505152e-01 1.989694e-01 3.232598e-01 2.358301e-01 3.635550e-01 3.155322e-01 4.207097e-01 4.186635e-01 1.877565e-02
<GCONST> 9.661594e+01
<STATE> 12
<MEAN> 39
 4.705528e-01 -2.240030e+00 -5.209776e+00 -7.610110e+00 -3.481755e+00 -1.223140e+01 -1.021531e+01 -1.202539e+01 -3.294084e+00 -1.213045e+01 -8.927397e+00 -1.369826e+01 6.802926e+01 -2.898589e-01 1.612439e+00 1.502010e+00 3.929077e-01 -3.867894e-01 -3.032783e-01 -2.240386e-01 -6.778213e-01 -1.213417e+00 -8.147842e-01 2.655574e-01 -2.889163e-01 -6.706174e-01 -5.095303e-02 -1.089611e-01 -3.606803e-02 5.177525e-02 9.461021e-02 5.752147e-02 5.705472e-02 4.905425e-03 1.152332e-02 2.771166e-02 -9.355258e-02 6.323180e-02 2.818191e-02
<VARIANCE> 39
 4.057827e+00 2.538958e+01 3.585857e+01 1.380592e+01 1.649177e+01 1.445537e+01 2.742443e+01 4.262876e+01 2.018661e+01 4.567792e+01 1.060785e+02 1.400226e+01 8.565806e+00 1.522925e-01 4.487414e-01 1.043255e+00 1.046384e+00 1.546715e+00 7.242854e-01 8.307833e-01 1.932888e+00 1.169788e+00 1.816160e+00 2.438311e+00 1.526536e+00 1.081725e-01 2.476838e-02 6.542913e-02 1.722433e-01 2.154505e-01 1.735046e-01 1.397544e-01 1.412143e-01 3.068033e-01 2.481678e-01 3.134840e-01 2.693911e-01 1.949165e-01 1.211517e-02
<GCONST> 8.267699e+01
<STATE> 13
<MEAN> 39
 -8.521041e-01 3.789823e+00 2.949872e+00 -2.402774e+00 -2.367012e+00 -1.141106e+01 -9.571745e+00 -1.531430e+01 -8.329600e+00 -1.147039e+01 -2.446827e+00 -9.981111e+00 6.578534e+01 -6.569864e-01 8.519347e-01 6.034626e-01 4.091852e-01 1.937635e-01 2.887730e-01 1.451613e-01 -4.235902e-01 -1.396180e-01 -6.641810e-02 -1.971122e-02 4.917315e-01 -7.225075e-01 -9.414413e-02 -1.729385e-01 -8.915707e-02 -9.932481e-02 -1.647693e-02 3.487599e-02 1.234059e-01 2.344269e-01 2.161758e-01 2.209907e-01 7.273047e-02 -9.977014e-02 -1.411301e-02
<VARIANCE> 39
 3.923033e+00 1.263368e+01 1.011535e+01 1.554787e+01 7.118979e+00 1.290413e+01 2.298377e+01 2.461308e+01 1.041696e+01 3.137045e+01 5.087192e+01 2.210733e+01 4.117886e+00 1.386218e-01 3.813598e-01 5.564063e-01 8.371839e-01 8.892155e-01 5.436195e-01 9.841347e-01 1.912619e+00 6.769596e-01 1.006114e+00 1.315072e+00 1.183067e+00 3.154998e-02 1.371373e-02 2.506655e-02 8.079769e-02 1.858934e-01 6.185492e-02 7.961514e-02 1.577457e-01 9.043505e-02 1.100288e-01 1.430390e-01 1.361721e-01 2.695352e-01 5.243621e-03
<GCONST> 6.408535e+01
<STATE> 14
<MEAN> 39
 -5.727739e+00 3.512250e+00 4.548208e+00 1.325968e+00 3.339731e+00 -2.844726e+00 1.043968e+00 -6.980776e+00 -2.322787e+00 -6.821621e+00 5.137131e-02 -9.844125e+00 6.235580e+01 -8.421742e-01 5.120585e-01 5.464215e-01 1.950298e-02 2.963058e-01 4.831401e-02 9.873642e-02 5.894164e-01 6.079164e-01 -1.426134e-01 -4.662996e-02 4.156683e-01 -7.069222e-01 -3.987146e-02 -1.957086e-01 -8.069916e-02 -4.432656e-02 -2.048770e-01 -1.713215e-01 -3.285131e-02 -2.345244e-02 -7.128452e-03 -1.746847e-01 -1.631140e-01 1.941805e-03 2.223084e-02
<VARIANCE> 39
 4.489137e+00 1.410348e+01 1.704918e+01 2.738382e+01 3.187810e+01 4.494425e+01 5.165982e+01 4.757702e+01 3.114082e+01 3.148935e+01 2.020190e+01 1.596089e+01 3.007162e+00 1.291194e-01 5.047213e-01 7.363703e-01 6.272079e-01 1.181077e+00 1.491144e+00 1.176236e+00 1.308589e+00 8.639905e-01 1.411965e+00 8.930957e-01 8.658514e-01 4.389274e-02 1.721276e-02 3.517098e-02 6.978583e-02 1.274620e-01 1.009937e-01 1.661303e-01 1.772451e-01 2.795902e-01 2.081040e-01 2.117412e-01 1.818002e-01 9.996490e-02 4.631130e-03
<GCONST> 7.339140e+01
<STATE> 15
<MEAN> 39
 -7.924749e+00 5.952373e+00 7.085654e+00 -2.491959e+00 -5.307994e+00 -1.294695e+01 -8.269503e+00 -1.412811e+01 -8.879572e+00 -1.603069e+01 -8.160018e+00 -1.309664e+01 6.029885e+01 -7.805262e-01 -2.045816e-02 8.505613e-01 6.096595e-01 8.727726e-02 1.678008e-01 4.922373e-01 5.104180e-02 -4.222853e-01 -4.705337e-01 -1.627035e-02 1.516920e-01 -5.056012e-01 2.881774e-02 -7.816432e-03 -6.697207e-03 1.069350e-02 3.086296e-02 9.468200e-02 3.961768e-02 -8.955324e-02 -2.020748e-01 -3.350243e-02 8.115818e-02 5.151308e-02 2.610060e-02
<VARIANCE> 39
 6.024398e+00 7.419052e+00 1.514424e+01 2.013516e+01 3.783424e+01 2.030839e+01 2.408733e+01 2.077111e+01 3.060410e+01 3.693078e+01 3.050978e+01 1.883556e+01 1.591347e+00 8.667761e-02 2.312998e-01 5.262969e-01 5.439055e-01 7.963035e-01 1.027611e+00 1.512674e+00 1.571196e+00 1.693857e+00 1.844417e+00 1.438715e+00 9.234654e-01 4.100163e-02 2.164106e-02 4.532805e-02 1.523284e-01 1.217415e-01 1.699588e-01 1.883160e-01 3.479259e-01 3.425393e-01 2.600828e-01 3.766602e-01 2.592137e-01 2.208576e-01 9.586711e-03
<GCONST> 7.532467e+01
<STATE> 16
<MEAN> 39
 -1.151037e+01 4.337370e+00 7.488320e+00 -7.731453e-01 -2.261939e+00 -7.055739e+00 -3.215614e+00 -1.447397e+01 -1.069446e+01 -1.597068e+01 -6.463218e+00 -1.053993e+01 5.818526e+01 -5.882491e-01 -3.124302e-01 1.942059e-01 4.846577e-01 4.040603e-01 4.844217e-01 1.962642e-01 -1.933860e-03 -1.121615e-01 1.620248e-01 3.601690e-01 1.968486e-01 -2.935205e-01 -1.607272e-03 -8.023477e-02 1.121038e-02 1.238060e-01 7.056567e-02 -2.121333e-01 -2.074777e-01 7.856481e-02 1.549870e-01 5.421069e-02 8.162889e-02 1.088253e-02 2.850824e-02
<VARIANCE> 39
 2.402886e+00 8.862748e+00 1.658805e+01 1.166311e+01 2.166982e+01 2.309649e+01 2.083530e+01 3.931631e+01 4.511373e+01 4.619745e+01 3.181974e+01 2.275861e+01 7.562600e-01 2.426387e-01 7.869367e-01 1.725230e+00 1.016258e+00 1.594891e+00 1.580127e+00 1.245478e+00 2.014313e+00 1.890276e+00 2.246292e+00 1.928320e+00 2.535408e+00 7.326741e-02 4.153946e-02 1.604519e-01 2.679300e-01 1.236415e-01 2.527699e-01 3.023888e-01 2.312912e-01 2.979223e-01 3.578032e-01 4.610536e-01 3.229017e-01 4.395491e-01 9.405364e-03
<GCONST> 8.595618e+01
<STATE> 17
<MEAN> 39
 -1.519439e+01 5.167798e+00 1.415657e+01 4.154446e+00 -3.646617e+00 -1.101217e+01 -2.259064e+00 -8.512221e+00 -7.122923e+00 -1.422007e+01 -2.756870e+00 -7.532334e+00 5.613628e+01 -6.327125e-01 -5.808349e-01 -6.154448e-03 2.229101e-01 9.825820e-02 -1.801019e-01 1.316070e-01 7.470147e-01 7.512692e-01 3.835990e-01 2.275461e-01 2.038705e-01 -2.771993e-01 8.035454e-02 -6.705489e-02 -1.819005e-01 -6.332242e-02 1.535769e-01 2.449288e-01 4.897784e-02 -1.308529e-01 -5.443187e-04 2.040675e-01 1.733907e-01 1.258602e-01 5.461565e-02
<VARIANCE> 39
 3.522278e+00 1.388917e+01 2.992271e+01 1.135974e+01 2.325243e+01 2.089094e+01 3.426979e+01 5.255240e+01 5.176997e+01 2.981513e+01 3.824858e+01 6.996188e+01 1.539192e+00 2.315231e-01 6.545541e-01 1.147673e+00 7.296978e-01 1.662492e+00 2.943909e+00 2.063783e+00 3.720728e+00 4.206457e+00 2.171361e+00 2.779959e+00 3.309600e+00 7.936386e-02 2.434640e-02 1.387221e-01 1.911291e-01 1.169299e-01 2.370679e-01 3.934026e-01 3.735648e-01 7.562876e-01 8.674068e-01 4.796661e-01 4.321629e-01 8.313436e-01 6.060057e-03
<GCONST> 9.406825e+01
<STATE> 18
<MEAN> 39
 -1.510850e+01 -3.055536e-01 7.187123e+00 4.272829e+00 4.990515e+00 -3.387874e+00 6.567734e-01 -5.659789e+00 -2.523782e-01 -8.386124e+00 9.237652e-02 -6.038156e+00 5.708626e+01 -1.719047e-01 -3.414105e-01 -2.462488e-01 7.600565e-02 2.263635e-01 1.919204e-01 -1.168899e-01 -1.881043e-01 -8.977699e-02 2.574042e-01 4.116472e-01 3.774293e-01 -4.877961e-02 1.824713e-02 3.470758e-02 -2.933916e-02 -1.068040e-01 -7.812143e-02 -5.765557e-02 4.914467e-02 1.981882e-03 1.307031e-02 4.973452e-02 -6.173378e-02 -2.481203e-02 1.754723e-03
<VARIANCE> 39
 3.408298e+00 5.752631e+00 1.369407e+01 1.559719e+01 2.010717e+01 2.472423e+01 3.688895e+01 3.207273e+01 2.347310e+01 2.327502e+01 2.617410e+01 2.552728e+01 8.960980e-01 2.449168e-01 3.889045e-01 8.364208e-01 1.291627e+00 2.058060e+00 2.023213e+00 1.905459e+00 2.465681e+00 1.358817e+00 1.706286e+00 1.703727e+00 1.927074e+00 5.902256e-02 3.589249e-02 4.722964e-02 1.380040e-01 2.425540e-01 3.931367e-01 3.281506e-01 2.606156e-01 4.128285e-01 2.506183e-01 2.825209e-01 2.925338e-01 2.605558e-01 1.255457e-02
<GCONST> 8.224566e+01
<STATE> 19
<MEAN> 39
 -1.808498e+01 -4.939482e-01 9.480998e+00 3.688155e+00 4.197231e-01 -9.367729e+00 -4.691363e+00 -1.154602e+01 -7.401342e+00 -1.126003e+01 2.397386e-01 -6.056115e+00 5.534976e+01 -4.743465e-01 -5.221187e-01 -3.079275e-01 -2.899246e-01 -1.549017e-01 -2.182558e-01 2.824460e-01 3.916142e-01 3.944020e-01 2.480024e-01 1.885739e-01 6.324593e-01 -1.891142e-01 3.384959e-02 -9.193188e-03 -6.425957e-02 -3.829336e-02 -5.725900e-02 2.655225e-02 2.641909e-04 1.005414e-01 7.818508e-02 -2.144653e-01 -2.311298e-01 -6.353036e-02 5.554953e-03
<VARIANCE> 39
 8.835830e+00 8.955739e+00 5.738310e+01 4.718283e+01 2.571055e+01 4.554502e+01 3.079823e+01 3.207529e+01 3.081069e+01 4.347316e+01 5.903716e+01 2.897536e+01 2.718534e+00 1.488195e-01 4.072334e-01 7.999356e-01 8.983540e-01 1.102953e+00 9.942735e-01 1.608488e+00 1.133447e+00 1.025923e+00 1.351943e+00 1.424098e+00 1.548774e+00 2.104685e-02 3.493710e-02 5.415998e-02 1.082062e-01 1.984716e-01 2.339627e-01 2.068473e-01 2.586170e-01 2.303881e-01 1.548084e-01 2.537899e-01 3.117394e-01 2.385613e-01 4.397956e-03
<GCONST> 8.115235e+01
<TRANSP> 20
 0.000000e+00 1.000000e+00 0.000000e+00 0.000000e+00 0.000000e+00 0.000000e+00 0.000000e+00 0.000000e+00 0.000000e+00 0.000000e+00 0.000000e+00 0.000000e+00 0.000000e+00 0.000000e+00 0.000000e+00 0.000000e+00 0.000000e+00 0.000000e+00 0.000000e+00 0.000000e+00
 0.000000e+00 7.335860e-01 2.664140e-01 0.000000e+00 0.000000e+00 0.000000e+00 0.000000e+00 0.000000e+00 0.000000e+00 0.000000e+00 0.000000e+00 0.000000e+00 0.000000e+00 0.000000e+00 0.000000e+00 0.000000e+00 0.000000e+00 0.000000e+00 0.000000e+00 0.000000e+00
 0.000000e+00 0.000000e+00 7.875774e-01 2.124227e-01 0.000000e+00 0.000000e+00 0.000000e+00 0.000000e+00 0.000000e+00 0.000000e+00 0.000000e+00 0.000000e+00 0.000000e+00 0.000000e+00 0.000000e+00 0.000000e+00 0.000000e+00 0.000000e+00 0.000000e+00 0.000000e+00
 0.000000e+00 0.000000e+00 0.000000e+00 7.929154e-01 2.070846e-01 0.000000e+00 0.000000e+00 0.000000e+00 0.000000e+00 0.000000e+00 0.000000e+00 0.000000e+00 0.000000e+00 0.000000e+00 0.000000e+00 0.000000e+00 0.000000e+00 0.000000e+00 0.000000e+00 0.000000e+00
 0.000000e+00 0.000000e+00 0.000000e+00 0.000000e+00 8.097649e-01 1.902351e-01 0.000000e+00 0.000000e+00 0.000000e+00 0.000000e+00 0.000000e+00 0.000000e+00 0.000000e+00 0.000000e+00 0.000000e+00 0.000000e+00 0.000000e+00 0.000000e+00 0.000000e+00 0.000000e+00
 0.000000e+00 0.000000e+00 0.000000e+00 0.000000e+00 0.000000e+00 7.578998e-01 2.421002e-01 0.000000e+00 0.000000e+00 0.000000e+00 0.000000e+00 0.000000e+00 0.000000e+00 0.000000e+00 0.000000e+00 0.000000e+00 0.000000e+00 0.000000e+00 0.000000e+00 0.000000e+00
 0.000000e+00 0.000000e+00 0.000000e+00 0.000000e+00 0.000000e+00 0.000000e+00 7.700493e-01 2.299507e-01 0.000000e+00 0.000000e+00 0.000000e+00 0.000000e+00 0.000000e+00 0.000000e+00 0.000000e+00 0.000000e+00 0.000000e+00 0.000000e+00 0.000000e+00 0.000000e+00
 0.000000e+00 0.000000e+00 0.000000e+00 0.000000e+00 0.000000e+00 0.000000e+00 0.000000e+00 7.231662e-01 2.768338e-01 0.000000e+00 0.000000e+00 0.000000e+00 0.000000e+00 0.000000e+00 0.000000e+00 0.000000e+00 0.000000e+00 0.000000e+00 0.000000e+00 0.000000e+00
 0.000000e+00 0.000000e+00 0.000000e+00 0.000000e+00 0.000000e+00 0.000000e+00 0.000000e+00 0.000000e+00 6.394584e-01 3.605416e-01 0.000000e+00 0.000000e+00 0.000000e+00 0.000000e+00 0.000000e+00 0.000000e+00 0.000000e+00 0.000000e+00 0.000000e+00 0.000000e+00
 0.000000e+00 0.000000e+00 0.000000e+00 0.000000e+00 0.000000e+00 0.000000e+00 0.000000e+00 0.000000e+00 0.000000e+00 6.680646e-01 3.319355e-01 0.000000e+00 0.000000e+00 0.000000e+00 0.000000e+00 0.000000e+00 0.000000e+00 0.000000e+00 0.000000e+00 0.000000e+00
 0.000000e+00 0.000000e+00 0.000000e+00 0.000000e+00 0.000000e+00 0.000000e+00 0.000000e+00 0.000000e+00 0.000000e+00 0.000000e+00 7.782687e-01 2.217313e-01 0.000000e+00 0.000000e+00 0.000000e+00 0.000000e+00 0.000000e+00 0.000000e+00 0.000000e+00 0.000000e+00
 0.000000e+00 0.000000e+00 0.000000e+00 0.000000e+00 0.000000e+00 0.000000e+00 0.000000e+00 0.000000e+00 0.000000e+00 0.000000e+00 0.000000e+00 8.197157e-01 1.802842e-01 0.000000e+00 0.000000e+00 0.000000e+00 0.000000e+00 0.000000e+00 0.000000e+00 0.000000e+00
 0.000000e+00 0.000000e+00 0.000000e+00 0.000000e+00 0.000000e+00 0.000000e+00 0.000000e+00 0.000000e+00 0.000000e+00 0.000000e+00 0.000000e+00 0.000000e+00 7.699606e-01 2.300394e-01 0.000000e+00 0.000000e+00 0.000000e+00 0.000000e+00 0.000000e+00 0.000000e+00
 0.000000e+00 0.000000e+00 0.000000e+00 0.000000e+00 0.000000e+00 0.000000e+00 0.000000e+00 0.000000e+00 0.000000e+00 0.000000e+00 0.000000e+00 0.000000e+00 0.000000e+00 7.044368e-01 2.955633e-01 0.000000e+00 0.000000e+00 0.000000e+00 0.000000e+00 0.000000e+00
 0.000000e+00 0.000000e+00 0.000000e+00 0.000000e+00 0.000000e+00 0.000000e+00 0.000000e+00 0.000000e+00 0.000000e+00 0.000000e+00 0.000000e+00 0.000000e+00 0.000000e+00 0.000000e+00 7.917888e-01 2.082113e-01 0.000000e+00 0.000000e+00 0.000000e+00 0.000000e+00
 0.000000e+00 0.000000e+00 0.000000e+00 0.000000e+00 0.000000e+00 0.000000e+00 0.000000e+00 0.000000e+00 0.000000e+00 0.000000e+00 0.000000e+00 0.000000e+00 0.000000e+00 0.000000e+00 0.000000e+00 7.733939e-01 2.266061e-01 0.000000e+00 0.000000e+00 0.000000e+00
 0.000000e+00 0.000000e+00 0.000000e+00 0.000000e+00 0.000000e+00 0.000000e+00 0.000000e+00 0.000000e+00 0.000000e+00 0.000000e+00 0.000000e+00 0.000000e+00 0.000000e+00 0.000000e+00 0.000000e+00 0.000000e+00 7.344741e-01 2.655259e-01 0.000000e+00 0.000000e+00
 0.000000e+00 0.000000e+00 0.000000e+00 0.000000e+00 0.000000e+00 0.000000e+00 0.000000e+00 0.000000e+00 0.000000e+00 0.000000e+00 0.000000e+00 0.000000e+00 0.000000e+00 0.000000e+00 0.000000e+00 0.000000e+00 0.000000e+00 8.311985e-01 1.688016e-01 0.000000e+00
 0.000000e+00 0.000000e+00 0.000000e+00 0.000000e+00 0.000000e+00 0.000000e+00 0.000000e+00 0.000000e+00 0.000000e+00 0.000000e+00 0.000000e+00 0.000000e+00 0.000000e+00 0.000000e+00 0.000000e+00 0.000000e+00 0.000000e+00 0.000000e+00 7.841199e-01 2.158801e-01
 0.000000e+00 0.000000e+00 0.000000e+00 0.000000e+00 0.000000e+00 0.000000e+00 0.000000e+00 0.000000e+00 0.000000e+00 0.000000e+00 0.000000e+00 0.000000e+00 0.000000e+00 0.000000e+00 0.000000e+00 0.000000e+00 0.000000e+00 0.000000e+00 0.000000e+00 0.000000e+00
<ENDHMM>
