~o
<STREAMINFO> 1 39
<VECSIZE> 39<NULLD><MFCC_D_A_0><DIAGC>
~h "satu"
<BEGINHMM>
<NUMSTATES> 20
<STATE> 2
<MEAN> 39
 -1.876060e+01 -5.103671e+00 -3.402822e+00 -3.913757e+00 1.427605e-01 -7.326108e+00 2.635030e+00 -7.122564e+00 2.000097e+00 -6.791285e+00 2.416890e+00 -3.615363e+00 5.729386e+01 -1.058378e+00 1.481178e+00 -9.810674e-01 6.907299e-01 6.418920e-01 -7.992688e-01 1.230936e+00 -7.361178e-01 1.224160e+00 -1.591571e-01 7.757349e-01 -3.571514e-02 5.886738e-01 -3.149337e-01 5.206871e-01 -3.693545e-01 2.617108e-01 4.552784e-02 -1.105484e-01 2.904360e-01 -2.198868e-01 2.670474e-01 7.329262e-02 -2.876481e-02 -2.207159e-01 1.745390e-01
<VARIANCE> 39
 3.490273e+00 1.365757e+01 1.472985e+01 1.193075e+01 1.459457e+01 1.797697e+01 1.983187e+01 2.190091e+01 1.876453e+01 1.292105e+01 2.448695e+01 1.704310e+01 1.380059e+00 1.001745e+00 2.226765e+00 1.677380e+00 1.315614e+00 1.547256e+00 1.562636e+00 1.849820e+00 3.218390e+00 2.199678e+00 2.453637e+00 2.256642e+00 2.179402e+00 2.807423e-01 1.187757e-01 1.953353e-01 2.172084e-01 1.604194e-01 2.428872e-01 2.339609e-01 3.631784e-01 4.733072e-01 3.280669e-01 4.108337e-01 2.821594e-01 3.333718e-01 1.845165e-02
<GCONST> 9.036051e+01
<STATE> 3
<MEAN> 39
 -2.711795e+01 7.129845e+00 -1.134832e+01 1.819913e+00 1.817822e+00 -1.139314e+01 1.019351e+01 -1.221077e+01 9.185953e+00 -5.880874e+00 4.946647e+00 -3.354213e+00 6.146590e+01 -1.259058e+00 1.622386e+00 -1.263148e+00 7.586156e-01 4.637771e-01 -3.667274e-01 9.868047e-01 -3.472318e-01 4.357213e-01 5.516134e-01 -7.198215e-03 -2.058579e-02 7.078150e-01 5.710386e-01 -6.290326e-01 4.247704e-01 -4.673728e-01 -3.718769e-02 1.754103e-01 -4.579148e-01 3.913977e-01 -5.571238e-01 -9.702075e-02 -2.961592e-01 -4.821661e-02 -1.359745e-01
<VARIANCE> 39
 1.069258e+01 2.600009e+01 2.890406e+01 2.064248e+01 1.891304e+01 3.099165e+01 3.071539e+01 2.516051e+01 2.177531e+01 2.377017e+01 3.922203e+01 2.834211e+01 3.602470e+00 1.166118e+00 1.875110e+00 1.661480e+00 1.771393e+00 1.090464e+00 1.539617e+00 2.769513e+00 1.903858e+00 2.209818e+00 2.401071e+00 1.812429e+00 1.285027e+00 1.751994e-01 1.391139e-01 1.758311e-01 1.690264e-01 2.695802e-01 3.104241e-01 2.192741e-01 4.924243e-01 2.917038e-01 2.787813e-01 4.699651e-01 4.723651e-01 2.295306e-01 2.674489e-02
<GCONST> 9.677664e+01
<STATE> 4
<MEAN> 39
 -2.471793e+01 6.017400e+00 -1.168618e+01 -1.317065e+00 3.483924e+00 -1.264615e+01 8.839306e+00 -1.164952e+01 6.301520e+00 -5.693311e+00 1.738754e+00 -4.470378e+00 6.291633e+01 3.527893e+00 -7.707074e-01 -2.234243e-01 -1.955780e+00 -7.106550e-01 -1.128104e-01 -2.478458e+00 1.144878e-01 -8.867965e-01 -2.949135e-01 -1.745384e+00 -1.050429e+00 1.177845e+00 1.210993e+00 -3.227697e-01 -2.664359e-01 -3.740724e-01 -2.658406e-01 1.242869e-01 -6.346051e-01 -2.307129e-02 1.188377e-01 1.958188e-02 -4.382784e-01 -2.685741e-01 5.685325e-01
<VARIANCE> 39
 3.376174e+01 2.550899e+01 3.132402e+01 2.691485e+01 2.079325e+01 3.526418e+01 3.522530e+01 2.376947e+01 2.421573e+01 3.694228e+01 3.549553e+01 2.867733e+01 6.660734e+00 4.778708e+00 1.461405e+00 2.277663e+00 1.616254e+00 2.981188e+00 2.981710e+00 5.410348e+00 1.629020e+00 1.717738e+00 2.808684e+00 7.095153e+00 2.218405e+00 1.427805e+00 3.933972e-01 2.688252e-01 4.352971e-01 3.471343e-01 5.570460e-01 7.518987e-01 9.197080e-01 5.141529e-01 4.885293e-01 4.883507e-01 5.939300e-01 4.140019e-01 1.357189e-01
<GCONST> 1.158237e+02
<STATE> 5
<MEAN> 39
 -5.470896e+00 1.148728e+00 -1.584073e+01 -9.139177e+00 1.417608e+00 -1.082588e+01 -1.881890e+00 -9.849206e+00 4.757967e+00 -5.313666e+00 -6.188696e+00 -9.969038e+00 7.296967e+01 3.389385e+00 -2.575860e+00 -6.268312e-01 -9.139503e-01 4.747021e-01 1.129812e+00 -1.256962e+00 4.297867e-01 -1.223440e-01 2.062361e-02 -1.247006e+00 -5.296322e-01 2.074245e+00 -1.104865e+00 -1.202045e-01 3.834627e-01 7.003551e-01 2.974503e-01 1.975809e-01 6.630463e-01 -1.801235e-02 -2.047294e-02 -6.536499e-02 5.675299e-01 3.570181e-01 -5.616202e-01
<VARIANCE> 39
 1.157740e+01 2.752450e+01 3.520689e+01 2.441408e+01 4.247618e+01 6.698290e+01 7.852648e+01 8.445951e+01 4.043336e+01 1.151026e+02 1.456319e+02 3.031222e+01 2.161887e+01 3.539764e+00 2.092081e+00 4.449616e+00 2.497190e+00 3.140972e+00 4.267066e+00 5.115292e+00 7.613789e+00 3.721252e+00 3.720072e+00 4.553948e+00 3.313035e+00 1.765065e+00 1.330099e-01 4.034367e-01 3.681218e-01 2.207015e-01 4.002488e-01 7.775863e-01 7.815890e-01 6.371731e-01 4.361711e-01 6.490924e-01 6.498801e-01 3.926052e-01 1.647593e-01
<GCONST> 1.257094e+02
<STATE> 6
<MEAN> 39
 -3.191510e-01 -8.188057e+00 -1.092394e+01 -7.922358e+00 4.873966e+00 -8.964679e+00 -3.227900e+00 -5.372747e+00 1.840116e+00 -5.459185e+00 -5.383556e+00 -1.075693e+01 7.569688e+01 3.918567e-01 -2.920971e-01 8.186525e-01 1.248128e-01 -2.231913e-01 -6.988036e-02 -6.635093e-01 7.541864e-02 -1.987303e-01 1.920236e-01 -1.221320e-01 -4.034451e-03 -4.511277e-01 -3.124506e-01 4.719616e-01 2.206947e-01 2.913188e-02 -1.145908e-01 -1.726659e-01 -5.714632e-02 -5.235976e-02 -4.466198e-02 6.444545e-02 1.797962e-01 1.425322e-02 -3.703831e-01
<VARIANCE> 39
 3.927150e+00 2.871225e+01 9.002416e+01 2.174063e+01 5.903995e+01 3.647966e+01 8.544631e+01 1.572717e+02 6.936102e+01 7.005402e+01 1.356781e+02 2.935061e+01 2.135609e+01 1.962324e-01 1.055210e+00 1.079698e+00 7.326657e-01 8.502169e-01 8.895322e-01 1.708265e+00 1.062181e+00 1.231816e+00 1.708621e+00 1.590263e+00 7.750616e-01 4.409202e-01 5.323987e-02 1.004749e-01 2.359900e-01 1.734699e-01 1.991519e-01 2.320118e-01 2.942690e-01 3.607225e-01 2.993584e-01 2.197604e-01 3.839346e-01 1.993177e-01 2.172145e-02
<GCONST> 9.677883e+01
<STATE> 7
<MEAN> 39
 -2.010340e+00 -4.971742e+00 -4.945529e+00 -6.584307e+00 2.883161e+00 -6.865509e+00 -6.158534e+00 -5.546598e+00 3.294065e-01 -4.618816e+00 -4.774839e+00 -1.052814e+01 6.836968e+01 -7.746259e-01 4.764841e-01 8.868522e-01 4.625481e-01 -1.082001e-01 5.142501e-01 2.122908e-01 1.397098e-01 -7.358181e-01 -5.649214e-01 3.374551e-01 -2.738014e-02 -1.488755e+00 -1.479459e-01 -1.726086e-01 -1.392958e-01 -8.844214e-02 -5.430195e-03 5.439360e-02 2.170708e-01 1.319506e-01 -1.083936e-02 -2.584041e-02 1.581205e-02 -3.957926e-02 2.967571e-02
<VARIANCE> 39
 4.577468e+00 1.726161e+01 6.715004e+01 1.687264e+01 2.878325e+01 3.229628e+01 5.392952e+01 9.303770e+01 4.020404e+01 6.221021e+01 7.397452e+01 3.890355e+01 9.472432e+00 3.746439e-01 4.737428e-01 1.335133e+00 8.049915e-01 7.738645e-01 1.472410e+00 1.533598e+00 1.788170e+00 2.130171e+00 1.098930e+00 2.710914e+00 1.114416e+00 2.215324e-01 8.084885e-02 4.633277e-02 7.203601e-02 1.510595e-01 7.369606e-02 1.873724e-01 2.040372e-01 2.216568e-01 3.132386e-01 2.921273e-01 2.348481e-01 1.548699e-01 3.718625e-02
<GCONST> 8.992067e+01
<STATE> 8
<MEAN> 39
 -7.372926e+00 -4.386555e+00 -5.245516e+00 -7.359455e+00 6.543854e-01 -6.285720e+00 -3.895148e+00 -9.455117e+00 -1.757990e+00 -8.878230e+00 -5.047909e+00 -9.895887e+00 6.185483e+01 -7.475413e-01 -1.571120e-01 1.056676e+00 -1.911209e-01 1.196526e-01 1.318230e-01 4.325739e-01 4.435674e-01 -3.767204e-01 -2.516909e-01 1.901234e-01 -1.482124e-01 -7.977618e-01 6.220736e-02 5.159215e-02 -3.368965e-02 -2.279805e-03 2.965236e-02 -1.341800e-01 7.028414e-02 -7.436368e-02 2.056591e-01 6.142534e-02 -5.866003e-02 8.273994e-02 1.481547e-01
<VARIANCE> 39
 5.064424e+00 4.975476e+00 1.353629e+01 1.116463e+01 1.284647e+01 1.057434e+01 2.468066e+01 1.770762e+01 2.311971e+01 2.340232e+01 3.672412e+01 2.197389e+01 4.333805e+00 2.328437e-01 3.476771e-01 4.890442e-01 6.041121e-01 9.575548e-01 7.421076e-01 1.525005e+00 9.793254e-01 1.335777e+00 1.701450e+00 2.037886e+00 1.566511e+00 1.001065e-01 2.971549e-02 3.468857e-02 6.685583e-02 1.545471e-01 1.654324e-01 2.170903e-01 3.015905e-01 1.914051e-01 2.009730e-01 2.468427e-01 3.759273e-01 3.018279e-01 1.621956e-02
<GCONST> 7.444341e+01
<STATE> 9
<MEAN> 39
 -9.735961e+00 -4.244286e+00 9.225629e-02 -7.089440e+00 1.773006e+00 -5.935133e+00 -9.267585e-01 -5.075855e+00 -1.219396e+00 -8.183059e+00 -3.984106e+00 -1.077150e+01 5.948695e+01 -7.412179e-01 1.091712e-01 -2.138103e-01 -1.508340e-01 1.932394e-01 -2.040928e+00 2.606644e-01 -5.764926e-01 9.432310e-01 1.081483e+00 9.434322e-01 1.200526e+00 4.970485e-01 4.544951e-01 1.671672e-01 -3.770722e-01 -3.217946e-01 4.528032e-02 -1.082928e+00 -8.735586e-01 -7.702981e-01 -1.101273e-01 5.841889e-01 2.564080e-01 4.994435e-01 7.510082e-01
<VARIANCE> 39
 7.443933e+00 8.409300e+00 1.131194e+01 1.567257e+01 2.479519e+01 1.036944e+01 3.072130e+01 3.128297e+01 2.571705e+01 2.265467e+01 1.688977e+01 4.267890e+01 2.352399e+00 4.234163e-01 6.969760e-01 2.074165e+00 2.249424e+00 6.707434e+00 5.542458e+00 3.498925e+00 5.472160e+00 2.452945e+00 4.359865e+00 2.774139e+00 4.043255e+00 9.875480e-01 2.636014e-01 2.458939e-01 6.865559e-01 3.039246e-01 1.040457e+00 5.040064e-01 8.573809e-01 8.392934e-01 6.466948e-01 7.160342e-01 7.472920e-01 1.202693e+00 7.209843e-02
<GCONST> 1.100907e+02
<STATE> 10
<MEAN> 39
 -8.535048e+00 -2.763439e+00 -1.910538e+00 -1.024147e+01 3.362224e+00 -1.958556e+01 -6.920194e+00 -1.154006e+01 2.897262e-01 -1.473219e+00 -3.481451e-01 -3.884511e+00 6.604035e+01 2.427807e+00 1.104871e+00 -4.203856e-01 -1.773634e+00 1.549229e-01 -2.790687e+00 -3.706538e+00 -2.921491e+00 -1.331528e+00 2.867784e+00 1.323011e+00 1.248560e+00 2.678535e+00 6.624597e-01 1.713718e-01 5.155431e-02 -1.866701e-01 -1.262995e-01 1.455879e+00 -1.884485e-01 -3.546606e-02 -9.615573e-01 -2.033828e-01 3.050699e-02 -2.604597e-01 -7.200715e-02
<VARIANCE> 39
 2.696324e+01 1.822688e+01 3.704299e+01 2.610696e+01 5.726392e+01 6.906239e+01 1.041071e+02 1.132261e+02 6.617101e+01 5.824611e+01 7.125462e+01 3.593906e+01 2.215730e+01 1.937202e+00 3.406155e+00 7.133218e+00 2.307563e+00 6.130635e+00 8.384728e+00 6.467611e+00 9.570635e+00 6.396579e+00 6.113266e+00 5.712739e+00 7.424933e+00 6.128036e-01 5.217524e-01 3.647249e-01 8.145818e-01 6.199340e-01 1.030049e+00 1.141057e+00 1.328347e+00 1.393671e+00 6.662644e-01 1.335569e+00 6.058806e-01 5.971016e-01 3.671659e-01
<GCONST> 1.375862e+02
<STATE> 11
<MEAN> 39
 -8.831604e-02 7.307267e-01 -1.772487e+00 -1.519513e+01 2.421499e+00 -1.622048e+01 -1.648361e+01 -1.938999e+01 -7.631696e+00 4.630978e+00 2.783896e+00 -3.165900e+00 7.150085e+01 1.550995e+00 8.010478e-01 -6.510840e-01 -9.580551e-01 -2.400081e-01 2.574974e+00 -6.841418e-01 -1.024810e+00 -2.620109e+00 2.483595e-01 1.166764e+00 9.806005e-01 4.830590e-01 -5.614685e-01 -1.396348e-01 -1.614150e-01 1.625034e-01 -7.267877e-02 4.959192e-01 9.453605e-01 8.342016e-01 2.763871e-01 -8.447456e-01 -3.137445e-01 -6.972785e-02 -5.755156e-01
<VARIANCE> 39
 4.937759e+00 3.239395e+01 8.742659e+01 1.673607e+01 7.899183e+01 6.326247e+01 1.444260e+02 2.470622e+02 7.313164e+01 4.647762e+01 1.098265e+02 4.824066e+01 1.095755e+01 2.184433e+00 1.507256e+00 1.557789e+00 1.504312e+00 1.397762e+00 1.608538e+00 2.694829e+00 4.356980e+00 1.641714e+00 4.693327e+00 1.721155e+00 1.673707e+00 4.469866e-01 2.174163e-01 2.582395e-01 5.377258e-01 3.019772e-01 4.560101e-01 9.356198e-01 5.260084e-01 1.357021e+00 4.732217e-01 6.785707e-01 8.132868e-01 3.788908e-01 1.046145e-01
<GCONST> 1.192940e+02
<STATE> 12
<MEAN> 39
 1.523310e+00 2.238289e+00 -4.388607e+00 -1.922466e+01 3.943881e+00 -9.364913e+00 -1.789199e+01 -1.710566e+01 -1.485560e+01 3.441849e+00 6.443214e+00 -3.628536e+00 7.112311e+01 9.509218e-02 5.149481e-01 -3.702233e-01 -2.333706e-01 -8.918185e-01 5.315473e-01 9.932681e-01 9.432043e-02 -1.619750e-01 -1.017178e+00 5.016105e-01 4.057501e-01 -6.113081e-01 -1.818576e-01 -2.561784e-02 2.012040e-01 1.923645e-01 -8.983077e-02 -2.619883e-01 8.665831e-02 8.588901e-02 2.470110e-01 -6.797985e-02 -1.836492e-01 -1.308260e-01 -8.222981e-02
<VARIANCE> 39
 3.090551e+00 2.795658e+01 6.182057e+01 1.348868e+01 4.650005e+01 4.254079e+01 9.058489e+01 1.022644e+02 3.763441e+01 3.659151e+01 5.696878e+01 5.499790e+01 8.558424e+00 3.381895e-01 4.025476e-01 7.022269e-01 9.695799e-01 8.984851e-01 1.670323e+00 1.280673e+00 2.802879e+00 1.610824e+00 2.207642e+00 2.133675e+00 2.311725e+00 1.436978e-01 7.217829e-02 8.298482e-02 9.296882e-02 1.100155e-01 8.174748e-02 1.947849e-01 2.212128e-01 3.045423e-01 1.782722e-01 4.634272e-01 2.889619e-01 4.938228e-01 2.211491e-02
<GCONST> 9.245053e+01
<STATE> 13
<MEAN> 39
 2.234003e+00 6.493048e+00 -6.190125e+00 -1.787462e+01 -8.396855e+00 -9.138841e+00 -4.457770e+00 -1.612587e+01 -1.304120e+01 -8.909609e+00 4.485953e+00 1.660972e+00 6.680841e+01 -3.481089e-01 9.479671e-02 2.581528e-01 1.299760e-01 -7.027929e-01 4.075134e-01 4.801435e-01 6.503760e-01 -6.184842e-02 -8.069556e-01 -7.158005e-01 -1.550057e-01 -3.641158e-01 -1.835075e-01 -1.472029e-01 9.067554e-02 2.228557e-01 1.704883e-01 -1.254574e-01 -8.485813e-02 -3.915996e-02 1.710456e-01 1.692030e-01 8.663119e-02 1.048687e-02 -5.627237e-02
<VARIANCE> 39
 2.012005e+00 5.109137e+00 1.286614e+01 1.105223e+01 2.372628e+01 2.515977e+01 2.225481e+01 3.976629e+01 1.783371e+01 4.037838e+01 2.115001e+01 3.128842e+01 7.849401e-01 2.571745e-01 3.809144e-01 6.171613e-01 9.063222e-01 1.008960e+00 1.057329e+00 9.364694e-01 1.621457e+00 1.804866e+00 1.458534e+00 1.612066e+00 1.729706e+00 9.369960e-02 4.144733e-02 3.670697e-02 1.090817e-01 1.715949e-01 1.667041e-01 2.170185e-01 1.853864e-01 2.555504e-01 3.363321e-01 3.566452e-01 2.383779e-01 3.902180e-01 1.084280e-02
<GCONST> 7.632282e+01
<STATE> 14
<MEAN> 39
 -2.252009e+00 5.109020e+00 -2.305317e+00 -1.326774e+01 -6.688140e+00 -7.840244e+00 -6.131664e+00 -1.426013e+01 -1.131088e+01 -7.559482e+00 4.679815e+00 2.228786e+00 6.414618e+01 -8.265554e-01 -1.085015e-01 1.247028e+00 1.583578e+00 4.909504e-01 -2.463154e-01 1.577784e-01 7.301152e-04 3.309905e-01 -6.191581e-01 -1.236888e-01 -3.377042e-01 -6.373327e-01 3.420368e-02 1.998940e-02 1.268095e-01 6.199091e-02 1.299826e-01 1.749916e-02 -3.198904e-02 -8.613664e-02 -5.369648e-02 4.737875e-02 2.885666e-02 -2.185518e-01 4.266398e-02
<VARIANCE> 39
 5.214991e+00 9.005260e+00 2.359553e+01 2.478975e+01 2.897217e+01 1.839604e+01 3.255705e+01 3.185294e+01 1.633492e+01 2.738610e+01 1.605047e+01 4.351371e+01 1.798266e+00 3.362987e-01 4.382291e-01 3.417490e-01 5.740690e-01 1.702436e+00 1.686406e+00 2.150463e+00 2.273823e+00 9.863607e-01 1.644248e+00 1.315052e+00 9.862875e-01 1.042209e-01 3.175033e-02 4.283362e-02 6.199049e-02 1.384906e-01 2.056905e-01 3.291050e-01 2.880552e-01 3.550746e-01 2.070697e-01 1.965328e-01 2.288431e-01 2.095006e-01 1.269306e-02
<GCONST> 7.900347e+01
<STATE> 15
<MEAN> 39
 -4.603462e+00 5.901114e+00 4.766054e+00 -4.792344e+00 -2.045471e+00 -8.153988e+00 -4.937414e+00 -1.503637e+01 -9.047457e+00 -8.431714e+00 3.031971e+00 -8.643777e-01 6.216157e+01 -8.867979e-01 -4.367080e-01 3.554258e-01 8.298985e-01 -1.335011e-01 -3.134028e-01 2.530735e-01 4.047683e-02 6.073009e-01 -7.246873e-02 -2.286707e-02 -3.493214e-01 -4.830686e-01 -5.747961e-02 -1.788844e-01 -3.183111e-01 -2.678268e-01 -1.993067e-01 -6.318158e-02 -4.355611e-02 2.592928e-03 -6.035394e-02 -5.049785e-02 -2.915739e-02 1.408140e-01 1.365421e-02
<VARIANCE> 39
 3.607507e+00 7.340139e+00 1.785770e+01 2.605385e+01 2.124495e+01 8.514250e+00 3.176252e+01 2.739861e+01 2.472972e+01 1.441978e+01 2.619638e+01 5.470551e+01 8.730200e-01 2.393009e-01 4.383574e-01 8.573572e-01 8.791655e-01 9.786900e-01 7.484342e-01 1.351443e+00 1.322472e+00 1.964693e+00 1.508603e+00 1.246074e+00 2.294397e+00 4.608634e-02 2.605603e-02 5.847555e-02 7.333536e-02 8.115216e-02 1.296523e-01 2.052874e-01 2.341240e-01 2.988312e-01 3.696226e-01 2.353559e-01 3.187495e-01 2.375515e-01 7.048369e-03
<GCONST> 7.498848e+01
<STATE> 16
<MEAN> 39
 -8.810213e+00 9.958149e-01 -3.675541e-01 -8.366358e+00 -6.194791e+00 -9.623842e+00 -5.211286e+00 -1.493268e+01 -8.171697e+00 -1.062545e+01 3.196559e+00 -2.447300e+00 6.041067e+01 -8.149561e-01 -4.805816e-01 2.483060e-01 6.776649e-01 3.892372e-01 3.148482e-01 1.232673e-01 6.168960e-03 3.513892e-01 -1.490974e-01 -2.675432e-01 -1.691194e-02 -4.746497e-01 1.055441e-01 1.337834e-01 7.364841e-02 6.020899e-02 1.141030e-01 1.252692e-01 3.663333e-02 4.740089e-02 1.746516e-02 7.397278e-02 -1.006995e-01 4.265508e-02 4.861988e-02
<VARIANCE> 39
 2.320274e+00 5.384800e+00 1.379755e+01 2.132252e+01 1.324734e+01 1.391025e+01 1.536945e+01 1.640054e+01 1.480913e+01 1.200245e+01 1.217852e+01 2.747873e+01 9.787371e-01 6.116702e-02 2.761348e-01 6.313514e-01 7.570287e-01 7.460185e-01 8.264768e-01 7.904903e-01 7.565013e-01 1.887801e+00 1.532740e+00 9.203854e-01 1.365624e+00 2.263445e-02 1.869616e-02 1.966203e-02 8.985683e-02 1.300010e-01 1.526133e-01 1.603740e-01 1.598469e-01 1.710262e-01 2.634708e-01 2.827357e-01 1.548517e-01 3.291843e-01 5.628814e-03
<GCONST> 6.286948e+01
<STATE> 17
<MEAN> 39
 -1.144006e+01 1.767053e+00 4.737396e+00 -2.629506e+00 -3.792518e+00 -9.137876e+00 -4.566025e+00 -1.686409e+01 -1.028534e+01 -1.261907e+01 1.354010e+00 -3.301719e-01 5.845911e+01 -6.487284e-01 -3.798334e-01 -1.100022e-02 1.914155e-01 2.921270e-02 3.875433e-03 1.603537e-01 7.191908e-01 1.810552e-01 -4.120195e-01 -5.582191e-01 -4.790737e-01 -2.756802e-01 1.360937e-02 -5.972171e-02 -1.014679e-01 -1.396467e-01 2.117485e-02 5.889094e-02 1.177454e-01 1.862966e-01 1.710915e-01 9.573418e-02 2.325350e-02 -8.380555e-02 3.150642e-02
<VARIANCE> 39
 3.651021e+00 6.472430e+00 9.087408e+00 1.179684e+01 4.125076e+01 1.307627e+01 2.363293e+01 2.893521e+01 3.271954e+01 2.069875e+01 1.749121e+01 4.262419e+01 1.213700e+00 9.974360e-02 2.935390e-01 5.505787e-01 1.096793e+00 9.494948e-01 8.723307e-01 1.507262e+00 2.209188e+00 6.231775e-01 1.631237e+00 2.025222e+00 2.036722e+00 3.805000e-02 1.597768e-02 5.193799e-02 7.614737e-02 1.552299e-01 1.449936e-01 1.598217e-01 3.041085e-01 2.119301e-01 1.725579e-01 3.191718e-01 2.671644e-01 3.132791e-01 6.382974e-03
<GCONST> 7.232975e+01
<STATE> 18
<MEAN> 39
 -1.410887e+01 -1.710521e+00 2.031564e+00 -2.748073e+00 -1.027971e+00 -7.503483e+00 -2.299732e+00 -8.270115e+00 -9.744167e-01 -8.557997e+00 -2.510959e-02 -5.187209e+00 5.783495e+01 -3.927451e-01 -3.663563e-01 -6.618026e-02 5.427914e-02 3.914859e-01 3.619293e-01 5.550873e-01 5.289803e-01 5.451481e-01 2.612792e-01 -8.667417e-03 4.541047e-02 -1.529190e-01 4.307276e-03 -1.795845e-02 -3.507257e-02 6.839412e-03 -1.179491e-02 5.037336e-02 2.146105e-02 -8.602983e-02 -1.845529e-01 -9.743654e-02 3.088400e-02 5.336964e-02 -3.785578e-03
<VARIANCE> 39
 2.348413e+00 5.512279e+00 7.439036e+00 9.692996e+00 1.363130e+01 1.477295e+01 2.442972e+01 2.685567e+01 3.457760e+01 2.013289e+01 1.571684e+01 1.612598e+01 4.420615e-01 1.902972e-01 3.507496e-01 5.449142e-01 6.483333e-01 8.741145e-01 1.353855e+00 1.840612e+00 9.800289e-01 1.994231e+00 1.158136e+00 1.572042e+00 1.342498e+00 3.072779e-02 3.049497e-02 4.947704e-02 9.329901e-02 1.245697e-01 1.403514e-01 2.564919e-01 3.376694e-01 2.056282e-01 3.817419e-01 2.337535e-01 3.429871e-01 2.728095e-01 4.591221e-03
<GCONST> 6.957226e+01
<STATE> 19
<MEAN> 39
 -1.671641e+01 -3.890182e+00 1.666000e+00 -2.703114e+00 -6.197867e-01 -4.990235e+00 1.032979e+00 -7.843581e+00 -4.820414e+00 -1.235911e+01 -1.367549e+00 -3.053679e+00 5.658060e+01 -4.128608e-01 -4.227594e-01 -2.808130e-01 1.755629e-01 4.202563e-01 5.512711e-01 5.703904e-01 5.107399e-01 -1.383288e-01 -8.538121e-02 -1.358645e-01 8.825775e-02 -1.619387e-01 7.458615e-02 6.394249e-02 -1.857039e-02 5.421502e-02 -1.390387e-02 -1.900444e-01 -3.555357e-01 -1.465448e-01 1.666862e-01 1.848017e-01 7.279047e-02 -5.937678e-02 3.553081e-02
<VARIANCE> 39
 3.355788e+00 5.184300e+00 8.734969e+00 1.882518e+01 2.230651e+01 1.414952e+01 3.192850e+01 2.826316e+01 2.968301e+01 4.053413e+01 2.963508e+01 3.874711e+01 1.102733e+00 1.064728e-01 2.257465e-01 5.037127e-01 7.550538e-01 1.167820e+00 7.814761e-01 1.676417e+00 1.362565e+00 2.097663e+00 2.303745e+00 1.524355e+00 2.083681e+00 4.993216e-02 1.545120e-02 3.761703e-02 1.043841e-01 1.767465e-01 2.135923e-01 1.439840e-01 2.903393e-01 2.415281e-01 4.458362e-01 5.031443e-01 5.633379e-01 6.219909e-01 8.549774e-03
<GCONST> 7.731832e+01
<TRANSP> 20
 0.000000e+00 1.000000e+00 0.000000e+00 0.000000e+00 0.000000e+00 0.000000e+00 0.000000e+00 0.000000e+00 0.000000e+00 0.000000e+00 0.000000e+00 0.000000e+00 0.000000e+00 0.000000e+00 0.000000e+00 0.000000e+00 0.000000e+00 0.000000e+00 0.000000e+00 0.000000e+00
 0.000000e+00 7.640154e-01 2.359846e-01 0.000000e+00 0.000000e+00 0.000000e+00 0.000000e+00 0.000000e+00 0.000000e+00 0.000000e+00 0.000000e+00 0.000000e+00 0.000000e+00 0.000000e+00 0.000000e+00 0.000000e+00 0.000000e+00 0.000000e+00 0.000000e+00 0.000000e+00
 0.000000e+00 0.000000e+00 7.794089e-01 2.205911e-01 0.000000e+00 0.000000e+00 0.000000e+00 0.000000e+00 0.000000e+00 0.000000e+00 0.000000e+00 0.000000e+00 0.000000e+00 0.000000e+00 0.000000e+00 0.000000e+00 0.000000e+00 0.000000e+00 0.000000e+00 0.000000e+00
 0.000000e+00 0.000000e+00 0.000000e+00 7.433020e-01 2.566980e-01 0.000000e+00 0.000000e+00 0.000000e+00 0.000000e+00 0.000000e+00 0.000000e+00 0.000000e+00 0.000000e+00 0.000000e+00 0.000000e+00 0.000000e+00 0.000000e+00 0.000000e+00 0.000000e+00 0.000000e+00
 0.000000e+00 0.000000e+00 0.000000e+00 0.000000e+00 7.205266e-01 2.794733e-01 0.000000e+00 0.000000e+00 0.000000e+00 0.000000e+00 0.000000e+00 0.000000e+00 0.000000e+00 0.000000e+00 0.000000e+00 0.000000e+00 0.000000e+00 0.000000e+00 0.000000e+00 0.000000e+00
 0.000000e+00 0.000000e+00 0.000000e+00 0.000000e+00 0.000000e+00 8.141822e-01 1.858178e-01 0.000000e+00 0.000000e+00 0.000000e+00 0.000000e+00 0.000000e+00 0.000000e+00 0.000000e+00 0.000000e+00 0.000000e+00 0.000000e+00 0.000000e+00 0.000000e+00 0.000000e+00
 0.000000e+00 0.000000e+00 0.000000e+00 0.000000e+00 0.000000e+00 0.000000e+00 7.930752e-01 2.069248e-01 0.000000e+00 0.000000e+00 0.000000e+00 0.000000e+00 0.000000e+00 0.000000e+00 0.000000e+00 0.000000e+00 0.000000e+00 0.000000e+00 0.000000e+00 0.000000e+00
 0.000000e+00 0.000000e+00 0.000000e+00 0.000000e+00 0.000000e+00 0.000000e+00 0.000000e+00 8.393654e-01 1.606347e-01 0.000000e+00 0.000000e+00 0.000000e+00 0.000000e+00 0.000000e+00 0.000000e+00 0.000000e+00 0.000000e+00 0.000000e+00 0.000000e+00 0.000000e+00
 0.000000e+00 0.000000e+00 0.000000e+00 0.000000e+00 0.000000e+00 0.000000e+00 0.000000e+00 0.000000e+00 6.649088e-01 3.350911e-01 0.000000e+00 0.000000e+00 0.000000e+00 0.000000e+00 0.000000e+00 0.000000e+00 0.000000e+00 0.000000e+00 0.000000e+00 0.000000e+00
 0.000000e+00 0.000000e+00 0.000000e+00 0.000000e+00 0.000000e+00 0.000000e+00 0.000000e+00 0.000000e+00 0.000000e+00 6.663970e-01 3.336030e-01 0.000000e+00 0.000000e+00 0.000000e+00 0.000000e+00 0.000000e+00 0.000000e+00 0.000000e+00 0.000000e+00 0.000000e+00
 0.000000e+00 0.000000e+00 0.000000e+00 0.000000e+00 0.000000e+00 0.000000e+00 0.000000e+00 0.000000e+00 0.000000e+00 0.000000e+00 6.623968e-01 3.376032e-01 0.000000e+00 0.000000e+00 0.000000e+00 0.000000e+00 0.000000e+00 0.000000e+00 0.000000e+00 0.000000e+00
 0.000000e+00 0.000000e+00 0.000000e+00 0.000000e+00 0.000000e+00 0.000000e+00 0.000000e+00 0.000000e+00 0.000000e+00 0.000000e+00 0.000000e+00 8.228301e-01 1.771699e-01 0.000000e+00 0.000000e+00 0.000000e+00 0.000000e+00 0.000000e+00 0.000000e+00 0.000000e+00
 0.000000e+00 0.000000e+00 0.000000e+00 0.000000e+00 0.000000e+00 0.000000e+00 0.000000e+00 0.000000e+00 0.000000e+00 0.000000e+00 0.000000e+00 0.000000e+00 8.058084e-01 1.941916e-01 0.000000e+00 0.000000e+00 0.000000e+00 0.000000e+00 0.000000e+00 0.000000e+00
 0.000000e+00 0.000000e+00 0.000000e+00 0.000000e+00 0.000000e+00 0.000000e+00 0.000000e+00 0.000000e+00 0.000000e+00 0.000000e+00 0.000000e+00 0.000000e+00 0.000000e+00 7.538617e-01 2.461383e-01 0.000000e+00 0.000000e+00 0.000000e+00 0.000000e+00 0.000000e+00
 0.000000e+00 0.000000e+00 0.000000e+00 0.000000e+00 0.000000e+00 0.000000e+00 0.000000e+00 0.000000e+00 0.000000e+00 0.000000e+00 0.000000e+00 0.000000e+00 0.000000e+00 0.000000e+00 7.283013e-01 2.716986e-01 0.000000e+00 0.000000e+00 0.000000e+00 0.000000e+00
 0.000000e+00 0.000000e+00 0.000000e+00 0.000000e+00 0.000000e+00 0.000000e+00 0.000000e+00 0.000000e+00 0.000000e+00 0.000000e+00 0.000000e+00 0.000000e+00 0.000000e+00 0.000000e+00 0.000000e+00 7.452278e-01 2.547722e-01 0.000000e+00 0.000000e+00 0.000000e+00
 0.000000e+00 0.000000e+00 0.000000e+00 0.000000e+00 0.000000e+00 0.000000e+00 0.000000e+00 0.000000e+00 0.000000e+00 0.000000e+00 0.000000e+00 0.000000e+00 0.000000e+00 0.000000e+00 0.000000e+00 0.000000e+00 7.919105e-01 2.080895e-01 0.000000e+00 0.000000e+00
 0.000000e+00 0.000000e+00 0.000000e+00 0.000000e+00 0.000000e+00 0.000000e+00 0.000000e+00 0.000000e+00 0.000000e+00 0.000000e+00 0.000000e+00 0.000000e+00 0.000000e+00 0.000000e+00 0.000000e+00 0.000000e+00 0.000000e+00 8.196195e-01 1.803805e-01 0.000000e+00
 0.000000e+00 0.000000e+00 0.000000e+00 0.000000e+00 0.000000e+00 0.000000e+00 0.000000e+00 0.000000e+00 0.000000e+00 0.000000e+00 0.000000e+00 0.000000e+00 0.000000e+00 0.000000e+00 0.000000e+00 0.000000e+00 0.000000e+00 0.000000e+00 6.900880e-01 3.099120e-01
 0.000000e+00 0.000000e+00 0.000000e+00 0.000000e+00 0.000000e+00 0.000000e+00 0.000000e+00 0.000000e+00 0.000000e+00 0.000000e+00 0.000000e+00 0.000000e+00 0.000000e+00 0.000000e+00 0.000000e+00 0.000000e+00 0.000000e+00 0.000000e+00 0.000000e+00 0.000000e+00
<ENDHMM>
