~o
<STREAMINFO> 1 39
<VECSIZE> 39<NULLD><MFCC_D_A_0><DIAGC>
~h "belas"
<BEGINHMM>
<NUMSTATES> 5
<STATE> 2
<MEAN> 39
 -4.865884e+00 -2.615174e+00 2.940679e+00 -7.430865e+00 1.404388e+00 -6.562741e+00 -9.083652e+00 -1.038709e+01 3.318886e-01 -2.676343e+00 1.428111e+00 -1.026571e+01 6.656558e+01 7.353791e-01 1.824149e-01 -2.047950e-01 -2.276291e-01 -3.359200e-01 -1.878479e-01 -5.901833e-01 -4.124237e-01 2.505885e-01 7.805362e-02 -2.648705e-01 -2.633473e-01 7.743071e-01 -2.255398e-02 -6.198688e-02 -8.148677e-02 -4.881707e-03 -2.130850e-02 2.394585e-02 5.324377e-03 3.100068e-02 2.735046e-02 -4.718180e-02 -8.828386e-02 6.688854e-02 1.778093e-02
<VARIANCE> 39
 5.924242e+01 5.689407e+01 3.126842e+01 6.344855e+01 9.393150e+01 6.607742e+01 1.235499e+02 1.570262e+02 7.095129e+01 1.107953e+02 6.418835e+01 3.787151e+01 6.845258e+01 2.285249e+00 5.312518e+00 3.963257e+00 4.083297e+00 3.782812e+00 2.992821e+00 4.923079e+00 5.938551e+00 5.276628e+00 6.765207e+00 3.706418e+00 2.597373e+00 9.269782e-01 2.327347e-01 6.570906e-01 6.456161e-01 7.131385e-01 6.094685e-01 3.725339e-01 5.513436e-01 8.422121e-01 8.916827e-01 1.115576e+00 6.425971e-01 4.340941e-01 1.128323e-01
<GCONST> 1.354706e+02
<STATE> 3
<MEAN> 39
 -2.661432e+00 -5.615726e+00 -7.782397e+00 -7.414333e+00 -2.060322e+00 -9.934703e+00 -7.127507e+00 -8.391673e+00 3.008373e+00 -8.721345e+00 -1.387429e+01 -6.046107e+00 7.214777e+01 -9.918601e-01 7.349207e-01 -4.008918e-01 5.533252e-01 3.322457e-01 -1.868431e-01 8.865465e-01 2.376656e-01 -1.815030e-01 -3.802482e-01 -1.752602e-02 1.292778e-01 -5.723768e-02 -6.978332e-02 1.020960e-01 4.381848e-02 -9.906425e-05 3.692822e-02 -1.754384e-02 6.869160e-03 -1.893912e-02 -6.927177e-02 8.718309e-02 1.248295e-01 -5.525295e-02 -3.074591e-02
<VARIANCE> 39
 5.793911e+01 6.485085e+01 2.512288e+01 4.101545e+01 6.267341e+01 1.848931e+02 8.392564e+01 1.118516e+02 5.853970e+01 5.862249e+01 4.514867e+01 4.977879e+01 1.197481e+01 1.970805e+00 3.127861e+00 1.919923e+00 1.366534e+00 1.812035e+00 1.636583e+00 1.519770e+00 2.214984e+00 2.033754e+00 2.197875e+00 2.569966e+00 1.826307e+00 3.499745e-01 1.766022e-01 2.817449e-01 3.461808e-01 1.649290e-01 2.897477e-01 2.437455e-01 2.929870e-01 3.055573e-01 3.687024e-01 3.329805e-01 3.121992e-01 2.873275e-01 4.993948e-02
<GCONST> 1.123374e+02
<STATE> 4
<MEAN> 39
 -2.429034e+01 5.811431e+00 -9.030358e+00 2.310933e+00 5.264997e+00 -5.357375e+00 7.860699e+00 -7.664705e+00 -1.499534e+00 -1.090721e+01 -2.852257e+00 -6.903882e+00 6.273738e+01 1.199595e-01 -6.901897e-01 3.923389e-01 -1.989628e-01 9.434764e-02 4.695337e-01 -9.436174e-02 1.625157e-01 -1.681566e-01 1.389848e-02 3.559002e-02 -2.578471e-02 -5.029874e-01 5.808586e-02 -8.060583e-02 2.576695e-02 -2.586368e-02 -2.447347e-02 -1.019098e-03 -2.247189e-02 2.286163e-02 2.996716e-02 -4.431447e-03 -2.426712e-02 -1.214340e-02 -4.982674e-03
<VARIANCE> 39
 1.741558e+01 1.017685e+02 3.950824e+01 2.986339e+01 4.296397e+01 6.914627e+01 2.539842e+01 2.754685e+01 4.806990e+01 4.716592e+01 3.759290e+01 3.567449e+01 3.549291e+01 4.826970e-01 8.607684e-01 7.271551e-01 1.025849e+00 1.268073e+00 1.414354e+00 1.699496e+00 2.143582e+00 2.185848e+00 1.897284e+00 1.762280e+00 1.477556e+00 1.323782e-01 4.742958e-02 9.680291e-02 1.196272e-01 1.479906e-01 2.217559e-01 2.090313e-01 3.094803e-01 3.714301e-01 4.012025e-01 3.036653e-01 2.815054e-01 2.703624e-01 1.609477e-02
<GCONST> 9.687518e+01
<TRANSP> 5
 0.000000e+00 1.000000e+00 0.000000e+00 0.000000e+00 0.000000e+00
 0.000000e+00 9.520000e-01 4.800000e-02 0.000000e+00 0.000000e+00
 0.000000e+00 0.000000e+00 9.533074e-01 4.669261e-02 0.000000e+00
 0.000000e+00 0.000000e+00 0.000000e+00 9.697733e-01 3.022670e-02
 0.000000e+00 0.000000e+00 0.000000e+00 0.000000e+00 0.000000e+00
<ENDHMM>
