~o
<STREAMINFO> 1 39
<VECSIZE> 39<NULLD><MFCC_D_A_0><DIAGC>
~h "lebih"
<BEGINHMM>
<NUMSTATES> 5
<STATE> 2
<MEAN> 39
 -4.846482e+00 -2.004791e+00 3.098720e+00 -3.967117e+00 -2.361576e+00 -9.579080e+00 -1.263398e+01 -1.057701e+01 1.668482e+00 -1.568954e+00 1.246793e+00 -9.795684e+00 6.616898e+01 1.339034e+00 4.566093e-01 5.661691e-01 -7.119765e-02 -4.048553e-01 -6.723408e-01 -1.112404e+00 -3.947963e-01 -8.024774e-02 2.488893e-01 -8.322269e-02 -5.016618e-01 9.991113e-01 -1.381104e-01 -4.584938e-02 7.508188e-03 -4.622081e-02 8.513333e-02 1.560812e-01 1.814356e-01 9.766702e-02 1.585197e-02 -5.182106e-02 -9.429500e-03 -4.220575e-02 -9.077853e-02
<VARIANCE> 39
 5.089799e+01 2.473172e+01 6.916632e+01 2.544757e+01 9.028944e+01 1.066199e+02 1.224927e+02 1.375048e+02 5.768410e+01 1.104446e+02 8.550006e+01 3.335637e+01 4.386679e+01 2.888253e+00 3.557783e+00 3.882741e+00 2.350860e+00 5.285104e+00 7.429008e+00 8.135811e+00 9.318511e+00 6.833479e+00 8.958954e+00 5.748110e+00 3.599173e+00 2.419108e+00 3.995692e-01 6.274807e-01 6.003722e-01 4.546126e-01 8.060691e-01 1.254012e+00 1.051507e+00 1.542042e+00 1.267932e+00 1.568355e+00 9.688753e-01 7.439837e-01 3.859942e-01
<GCONST> 1.434761e+02
<STATE> 3
<MEAN> 39
 -5.779105e+00 2.671311e+00 1.210960e+01 -4.892091e-01 -8.866975e+00 -1.167699e+01 -8.014829e+00 -1.321884e+01 -5.890598e+00 -7.735390e+00 2.232793e+00 -8.007597e+00 6.597476e+01 -4.924145e-01 2.197939e-01 4.314876e-01 2.687078e-01 1.662660e-02 2.435443e-01 3.831578e-01 -3.412201e-01 -2.066378e-01 -2.605338e-01 1.529523e-01 4.837758e-01 -2.789881e-01 -1.420146e-02 -5.761956e-02 -8.550934e-02 -1.750662e-02 3.718342e-02 1.878447e-03 -6.379487e-03 -6.378192e-03 3.649423e-02 5.330527e-02 -3.071257e-02 4.405199e-02 5.191465e-03
<VARIANCE> 39
 1.820120e+01 1.686219e+01 1.070747e+02 5.264309e+01 1.718592e+02 5.168601e+01 4.458558e+01 1.013489e+02 6.582542e+01 6.636613e+01 1.110141e+02 4.311338e+01 1.087717e+01 5.180920e-01 9.882225e-01 2.181047e+00 2.154963e+00 7.621037e+00 4.427355e+00 2.600320e+00 2.848602e+00 3.187836e+00 2.823084e+00 3.700065e+00 2.427552e+00 6.514330e-01 8.119465e-02 1.589876e-01 2.423392e-01 3.089152e-01 1.054258e+00 7.623146e-01 4.024895e-01 4.156766e-01 4.643453e-01 4.540439e-01 5.502087e-01 4.821405e-01 9.286258e-02
<GCONST> 1.189454e+02
<STATE> 4
<MEAN> 39
 -1.575706e+01 -1.463553e+00 5.802779e+00 -1.478638e-01 4.317831e+00 -1.028380e+00 -4.253436e-01 -1.214030e+01 -2.901000e+00 -1.201270e+01 -2.994021e+00 -4.190833e+00 5.896058e+01 -3.873881e-01 -5.215025e-01 -7.288505e-01 -5.776648e-02 5.605058e-01 4.348463e-01 4.509993e-01 6.161314e-01 2.147134e-01 -1.504507e-01 -3.380924e-01 -2.285214e-01 -3.690853e-01 2.387824e-02 -6.365477e-03 -4.078604e-03 -1.311419e-02 -7.579450e-02 -3.089831e-02 -3.730640e-03 4.905206e-02 3.082593e-02 2.169864e-02 2.290870e-02 -3.537656e-02 1.449738e-02
<VARIANCE> 39
 1.912721e+01 1.836528e+01 4.175404e+01 2.479318e+01 5.988840e+01 4.946720e+01 6.076520e+01 6.638990e+01 4.434715e+01 4.934498e+01 3.610985e+01 3.146790e+01 9.878191e+00 2.095438e-01 3.900913e-01 5.846853e-01 9.873114e-01 1.345683e+00 1.066494e+00 1.276406e+00 1.578849e+00 1.523120e+00 1.921896e+00 1.866833e+00 1.464082e+00 8.585734e-02 2.887294e-02 6.781576e-02 8.377718e-02 1.680859e-01 1.653846e-01 1.667042e-01 1.918050e-01 2.334400e-01 3.054913e-01 2.728255e-01 3.170605e-01 2.622613e-01 1.000000e-02
<GCONST> 8.865425e+01
<TRANSP> 5
 0.000000e+00 1.000000e+00 0.000000e+00 0.000000e+00 0.000000e+00
 0.000000e+00 9.225807e-01 7.741936e-02 0.000000e+00 0.000000e+00
 0.000000e+00 0.000000e+00 9.527559e-01 4.724410e-02 0.000000e+00
 0.000000e+00 0.000000e+00 0.000000e+00 9.547170e-01 4.528302e-02
 0.000000e+00 0.000000e+00 0.000000e+00 0.000000e+00 0.000000e+00
<ENDHMM>
