~o
<STREAMINFO> 1 39
<VECSIZE> 39<NULLD><MFCC_D_A_0><DIAGC>
~h "seperempat"
<BEGINHMM>
<NUMSTATES> 5
<STATE> 2
<MEAN> 39
 -1.596095e+01 2.865228e+00 -6.452730e+00 -1.832296e+00 1.535155e-01 -1.013725e+01 -3.010698e+00 -1.006716e+01 3.706793e+00 -5.738596e+00 1.435885e+00 -7.820821e+00 6.259632e+01 8.080900e-01 3.558475e-01 -4.687836e-01 -2.160466e-01 -2.909758e-01 -4.631706e-01 -6.422557e-01 -3.642603e-01 1.787105e-01 3.608922e-01 -1.886447e-03 -3.151411e-01 7.204381e-01 1.852780e-01 -1.392596e-01 -6.712563e-02 -1.172708e-01 8.338943e-02 7.960177e-02 -6.250468e-02 -6.505666e-03 -2.396059e-02 9.134724e-02 -7.187773e-03 -9.107620e-02 8.024782e-02
<VARIANCE> 39
 7.597357e+01 3.306821e+01 3.022631e+01 2.483098e+01 5.551828e+01 6.115918e+01 9.062469e+01 3.184678e+01 3.292204e+01 5.236735e+01 3.966988e+01 3.136231e+01 2.011112e+01 7.136202e+00 2.848426e+00 2.538584e+00 3.653858e+00 2.930170e+00 4.786108e+00 8.024933e+00 2.946342e+00 2.233632e+00 3.461438e+00 3.104268e+00 2.967275e+00 1.673415e+00 1.036138e+00 2.841398e-01 3.972057e-01 5.308329e-01 5.593843e-01 8.334208e-01 1.352404e+00 5.378319e-01 3.536687e-01 4.995716e-01 5.298718e-01 6.036821e-01 2.689028e-01
<GCONST> 1.275811e+02
<STATE> 3
<MEAN> 39
 -9.601515e-01 -5.466522e+00 -6.953985e+00 -6.847155e+00 -1.461705e+00 -5.598969e+00 -4.127706e+00 -1.203804e+01 -2.340111e+00 -3.413799e+00 -1.033911e+00 -1.173754e+01 6.841651e+01 9.196378e-03 -1.884882e-01 9.158067e-02 4.656365e-02 6.350124e-02 1.649845e-01 1.005891e-01 9.287636e-02 -4.181521e-02 -2.184411e-01 -2.251619e-01 -2.849664e-02 -4.538473e-02 -9.044556e-02 5.225517e-02 3.810832e-02 3.047772e-02 -1.217924e-02 -4.085251e-03 5.712699e-02 1.799851e-02 -6.058946e-03 -4.767449e-02 -4.334755e-03 2.738274e-02 -6.414577e-02
<VARIANCE> 39
 2.110167e+01 5.688453e+01 5.659094e+01 2.704035e+01 4.668709e+01 6.513009e+01 6.718838e+01 6.333733e+01 5.576407e+01 8.787164e+01 6.669917e+01 4.262724e+01 2.458994e+01 1.947822e+00 2.531373e+00 3.428246e+00 2.585326e+00 2.291970e+00 2.649168e+00 2.595209e+00 3.079843e+00 2.784377e+00 4.272539e+00 2.293318e+00 2.862278e+00 1.819707e+00 3.561990e-01 2.670028e-01 6.057698e-01 5.429018e-01 3.660691e-01 4.339548e-01 4.601111e-01 5.738563e-01 4.527641e-01 7.831872e-01 4.465415e-01 4.946535e-01 2.512166e-01
<GCONST> 1.241802e+02
<STATE> 4
<MEAN> 39
 -1.156643e+01 -5.148995e+00 -4.413132e+00 -5.955318e+00 1.493185e+00 -9.871649e-01 3.081260e+00 -3.980667e+00 -4.047740e-01 -1.152471e+01 -6.871514e+00 -1.173828e+01 6.012365e+01 -7.716415e-01 1.475735e-01 2.847283e-01 1.854744e-01 2.853026e-01 3.821812e-01 7.055460e-01 3.801520e-01 -1.686287e-01 -7.157090e-02 3.318374e-01 1.494421e-01 -5.879413e-01 3.358186e-02 -6.337278e-02 2.060364e-03 2.302458e-02 -2.030006e-02 -1.891116e-02 -5.138698e-02 -2.067288e-02 1.301113e-02 2.250436e-02 2.228213e-02 5.402932e-02 5.135811e-02
<VARIANCE> 39
 2.136986e+01 6.713782e+00 1.456019e+01 1.641788e+01 2.741828e+01 2.422059e+01 3.142882e+01 2.962333e+01 2.195758e+01 3.156083e+01 3.277249e+01 2.057825e+01 1.190537e+01 1.420271e-01 4.165778e-01 5.261105e-01 8.364916e-01 1.060318e+00 1.167388e+00 1.636987e+00 1.409475e+00 1.252374e+00 1.353453e+00 1.387002e+00 1.186819e+00 1.017857e-01 2.210611e-02 4.715354e-02 7.621779e-02 1.166993e-01 1.654808e-01 1.705980e-01 2.622905e-01 2.206640e-01 2.264841e-01 1.991057e-01 2.168985e-01 2.256017e-01 1.000000e-02
<GCONST> 7.840220e+01
<TRANSP> 5
 0.000000e+00 1.000000e+00 0.000000e+00 0.000000e+00 0.000000e+00
 0.000000e+00 9.436620e-01 5.633803e-02 0.000000e+00 0.000000e+00
 0.000000e+00 0.000000e+00 9.791667e-01 2.083333e-02 0.000000e+00
 0.000000e+00 0.000000e+00 0.000000e+00 9.493671e-01 5.063291e-02
 0.000000e+00 0.000000e+00 0.000000e+00 0.000000e+00 0.000000e+00
<ENDHMM>
