~o
<STREAMINFO> 1 39
<VECSIZE> 39<NULLD><MFCC_D_A_0><DIAGC>
~h "sepuluh"
<BEGINHMM>
<NUMSTATES> 20
<STATE> 2
<MEAN> 39
 -1.825124e+01 -6.576223e+00 -3.260890e+00 -3.607941e+00 1.443969e+00 -2.844262e+00 3.989852e+00 -4.662666e+00 1.348050e+00 -6.383370e+00 8.655911e-01 -6.925156e+00 5.680690e+01 -7.311918e-01 1.271799e+00 -9.792531e-01 2.335133e-01 -1.321622e-01 -1.118654e+00 7.894139e-01 -9.614146e-01 9.308286e-01 -6.035075e-01 7.742062e-01 6.072216e-03 5.062943e-01 -4.151242e-01 6.134360e-01 -3.773197e-01 2.880641e-01 1.442314e-01 -2.761479e-01 3.934008e-01 -3.463889e-01 3.011315e-01 -2.623764e-01 9.692188e-03 8.201149e-02 2.253377e-01
<VARIANCE> 39
 2.909600e+00 4.842177e+00 4.908590e+00 8.109497e+00 1.413249e+01 2.516290e+01 2.558999e+01 1.752000e+01 1.737204e+01 1.632399e+01 1.533629e+01 1.230830e+01 8.052401e-01 9.965260e-01 2.039320e+00 1.181059e+00 1.540259e+00 1.536219e+00 2.191321e+00 2.304914e+00 2.129161e+00 2.350027e+00 2.801655e+00 2.225057e+00 1.697901e+00 2.756396e-01 1.482200e-01 1.927062e-01 1.600035e-01 2.502688e-01 2.483162e-01 4.102511e-01 3.619092e-01 2.441970e-01 4.421864e-01 6.169065e-01 3.927247e-01 3.021125e-01 2.415808e-02
<GCONST> 8.805723e+01
<STATE> 3
<MEAN> 39
 -2.722289e+01 6.250712e+00 -1.156311e+01 4.116937e-01 3.909368e+00 -1.059115e+01 1.211876e+01 -1.185976e+01 8.103122e+00 -9.619883e+00 2.811114e+00 -3.800552e+00 6.186971e+01 -1.410416e+00 2.235951e+00 -8.133473e-01 4.098535e-01 9.833521e-01 -1.602025e+00 1.104775e+00 -1.661272e-01 -1.452370e-01 6.264800e-01 -7.511537e-01 8.577456e-01 1.008518e+00 6.719266e-01 -6.030549e-01 5.952789e-01 -4.051513e-01 -4.242955e-02 3.335529e-02 -7.233458e-01 4.259349e-01 -5.886914e-01 3.423892e-01 -3.075440e-01 -1.463101e-01 -1.522522e-01
<VARIANCE> 39
 8.792874e+00 2.392640e+01 9.074212e+00 1.682730e+01 1.208734e+01 1.810456e+01 2.121714e+01 1.377936e+01 2.615771e+01 4.303557e+01 2.980501e+01 2.978303e+01 4.602183e+00 1.614325e+00 2.521237e+00 2.439035e+00 2.357657e+00 1.365595e+00 1.372688e+00 2.671272e+00 3.104291e+00 3.591911e+00 4.316648e+00 2.345126e+00 2.472683e+00 3.507933e-01 4.112624e-01 3.258354e-01 2.087579e-01 3.256255e-01 3.741806e-01 3.168686e-01 7.042096e-01 6.452096e-01 3.972146e-01 6.875790e-01 6.104909e-01 6.777342e-01 5.416967e-02
<GCONST> 1.050945e+02
<STATE> 4
<MEAN> 39
 -1.919666e+01 8.324853e+00 -9.315495e+00 -3.947470e+00 4.118459e+00 -1.765784e+01 3.401437e+00 -9.794588e+00 3.173653e+00 -2.139695e+00 -6.360570e-01 -4.839378e+00 6.692231e+01 4.187250e+00 -8.101590e-01 6.148736e-01 -1.578184e+00 -7.146940e-01 -2.711169e-01 -3.612475e+00 -8.294503e-01 -4.742267e-01 9.674675e-01 5.039943e-01 -1.510542e+00 1.470999e+00 2.557745e-01 -2.490325e-01 -6.243935e-02 3.003706e-03 6.269014e-02 6.820545e-01 -1.429595e-02 -2.244719e-01 2.027081e-02 -1.359083e-01 3.596806e-01 -1.135347e-01 1.543706e-02
<VARIANCE> 39
 9.755059e+01 1.438775e+01 1.962839e+01 4.827480e+01 6.541533e+01 3.577928e+01 1.051081e+02 7.002637e+01 3.082228e+01 1.027954e+02 3.568689e+01 2.882431e+01 2.069497e+01 4.050330e+00 9.196629e-01 2.229968e+00 1.768269e+00 6.518836e+00 4.883897e+00 7.375097e+00 9.766960e+00 3.227767e+00 3.539505e+00 3.727430e+00 1.873839e+00 1.987670e+00 1.940537e+00 2.130743e-01 3.390874e-01 3.605716e-01 1.153219e+00 5.662429e-01 2.265690e+00 1.020353e+00 6.069378e-01 6.575585e-01 4.562274e-01 6.015617e-01 4.615020e-01
<GCONST> 1.304003e+02
<STATE> 5
<MEAN> 39
 -4.020747e+00 3.740848e+00 -7.798280e+00 -9.620106e+00 8.161282e+00 -1.154753e+01 -5.831783e+00 -1.134996e+01 6.471441e-01 5.421599e-01 5.026478e+00 -8.584266e+00 7.237576e+01 4.423363e-01 -1.432056e-01 7.277638e-01 4.373843e-01 6.281415e-01 1.935112e+00 4.028515e-01 -3.796517e-01 -1.052812e+00 -9.341365e-01 2.049391e-02 7.042746e-02 -1.084836e+00 -8.741422e-01 1.235114e-01 2.168117e-01 4.208293e-01 -2.532797e-01 -2.309757e-01 4.447826e-01 4.770179e-01 2.249006e-01 -4.235998e-01 -4.207920e-01 1.079858e-01 -6.510041e-01
<VARIANCE> 39
 4.884330e+01 1.853898e+01 3.645779e+01 5.375127e+01 1.874438e+02 7.097499e+01 7.607243e+01 2.164102e+02 1.667696e+01 1.224979e+02 4.791488e+01 1.903303e+01 2.710119e+01 1.068444e+00 6.276060e-01 8.151172e-01 1.283925e+00 1.897921e+00 1.530771e+00 1.699206e+00 2.767944e+00 1.007591e+00 2.779956e+00 2.134419e+00 1.456778e+00 7.774071e-01 2.593688e-01 2.060623e-01 3.218108e-01 3.904139e-01 6.862973e-01 5.385524e-01 7.601244e-01 1.233707e+00 2.175420e-01 5.759211e-01 4.188915e-01 2.751302e-01 2.468050e-01
<GCONST> 1.154815e+02
<STATE> 6
<MEAN> 39
 -9.949121e+00 1.241089e+00 -3.781020e+00 -5.652194e+00 2.902122e+00 -7.458371e+00 -2.455327e+00 -1.103759e+01 -4.997677e-01 -5.569395e+00 1.902864e+00 -8.332309e+00 6.282562e+01 -4.204912e-01 -9.037523e-01 7.729734e-01 1.739234e-01 -6.015242e-01 4.343370e-01 -3.892571e-02 5.366943e-01 -2.361553e-01 -3.724626e-01 -3.294533e-01 5.374236e-02 -8.992965e-01 4.313812e-02 -4.266330e-02 -8.669364e-02 5.988370e-03 2.081841e-02 -6.257065e-02 -4.486694e-03 -2.614871e-02 2.907472e-02 6.281657e-02 -1.034179e-02 8.997189e-02 1.598663e-01
<VARIANCE> 39
 4.122247e+01 1.474457e+01 1.280374e+01 1.802546e+01 4.772328e+01 2.641410e+01 3.082226e+01 6.169551e+01 2.709421e+01 4.448506e+01 2.136198e+01 1.325975e+01 1.377528e+01 4.375120e-01 3.416936e-01 6.926871e-01 1.035593e+00 1.579873e+00 1.116886e+00 1.564351e+00 1.818882e+00 9.235699e-01 2.232770e+00 1.642089e+00 1.096388e+00 2.481351e-01 3.336561e-02 8.266363e-02 9.682819e-02 1.828436e-01 2.232400e-01 2.162679e-01 2.812652e-01 1.879356e-01 2.216823e-01 3.106818e-01 3.355404e-01 2.126259e-01 1.303047e-02
<GCONST> 8.732669e+01
<STATE> 7
<MEAN> 39
 -9.941960e+00 -2.580653e+00 -4.614852e-01 -4.318170e+00 1.469378e-01 -6.715607e+00 -4.691442e+00 -1.041012e+01 -3.179106e+00 -8.860630e+00 -7.744345e-01 -6.985283e+00 6.104131e+01 2.150048e+00 8.292671e-01 -2.177442e-01 -1.410516e+00 -1.476902e+00 -4.440238e-01 -1.341375e+00 -1.398526e-01 -1.120294e+00 -9.706855e-01 6.801838e-02 1.149541e+00 8.755558e-01 8.065507e-01 7.633103e-01 -2.438699e-01 -9.265011e-01 -6.142133e-01 -1.775417e-01 -1.511104e-01 -8.871759e-02 -3.809499e-01 -1.371063e-01 2.162454e-01 2.940846e-01 3.916239e-01
<VARIANCE> 39
 2.296687e+01 1.599654e+01 1.800429e+01 1.865107e+01 2.300199e+01 3.672675e+01 2.598907e+01 3.510726e+01 1.559827e+01 3.329025e+01 2.473821e+01 1.523183e+01 4.824033e+00 3.437628e+00 4.796946e+00 2.386457e+00 5.584352e+00 3.949449e+00 3.952695e+00 2.637516e+00 2.352736e+00 4.878329e+00 4.085182e+00 2.411704e+00 2.346533e+00 7.869701e-01 2.126677e-01 3.492045e-01 1.948049e-01 6.272438e-01 4.214123e-01 5.770825e-01 5.920715e-01 3.855966e-01 7.380944e-01 6.188233e-01 3.835166e-01 3.736456e-01 8.206336e-02
<GCONST> 1.123449e+02
<STATE> 8
<MEAN> 39
 2.952335e+00 6.408966e+00 -2.011096e+00 -1.644296e+01 -1.140641e+01 -1.006711e+01 -8.233648e+00 -9.485272e+00 -8.427945e+00 -1.395818e+01 -5.301150e-01 -1.884711e+00 6.615095e+01 2.309693e+00 1.502242e+00 -5.999596e-01 -2.701012e+00 -1.617833e+00 8.580353e-01 4.176294e-01 1.597604e-01 -1.508413e+00 -8.046635e-01 6.767169e-01 1.315390e+00 1.090361e+00 -8.679946e-01 -7.888035e-01 1.951391e-02 7.801949e-01 1.010592e+00 7.779416e-01 4.301710e-01 -3.455666e-01 9.073560e-02 6.662565e-01 4.995580e-01 -1.072309e-01 -2.936980e-01
<VARIANCE> 39
 5.546426e+00 1.063200e+01 4.200589e+01 1.576645e+01 2.997020e+01 3.321610e+01 2.150279e+01 5.825311e+01 5.606877e+01 2.112319e+01 3.381380e+01 3.419468e+01 2.210439e+00 1.763198e+00 1.965009e+00 8.084834e-01 4.427995e+00 3.422735e+00 3.361541e+00 2.242847e+00 1.966099e+00 5.264005e+00 2.372947e+00 3.595061e+00 2.774000e+00 3.983163e-01 9.538482e-02 2.405784e-01 3.461061e-01 4.414088e-01 2.081091e-01 6.227794e-01 4.877041e-01 9.539264e-01 4.827462e-01 6.001083e-01 5.537872e-01 5.661827e-01 3.745477e-02
<GCONST> 1.074130e+02
<STATE> 9
<MEAN> 39
 4.974697e+00 6.391379e+00 -3.615324e+00 -1.784666e+01 -1.015918e+01 -3.953537e+00 -6.767887e+00 -1.367823e+01 -1.209394e+01 -1.106024e+01 4.791298e+00 1.287651e+00 6.748042e+01 1.294112e-01 -7.602993e-01 -4.373356e-01 3.771248e-01 9.756408e-01 1.809714e+00 -3.799469e-01 -2.380994e+00 -1.444818e+00 2.129066e+00 2.236677e+00 4.626588e-01 3.453190e-01 -2.765709e-01 -3.238881e-01 1.073628e-01 6.725404e-01 2.889367e-01 -3.123242e-01 -3.131925e-01 -4.164841e-01 1.228708e-01 6.012663e-01 -1.245264e-01 -7.149535e-01 -8.239008e-02
<VARIANCE> 39
 2.407469e+00 1.129150e+01 2.686498e+01 9.628531e+00 4.805109e+01 5.341168e+01 1.487217e+01 4.861842e+01 6.064166e+01 3.314425e+01 5.755116e+01 3.891782e+01 1.898987e+00 1.868673e-01 1.205561e+00 1.039006e+00 1.585782e+00 9.617307e-01 2.715462e+00 2.421756e+00 4.998536e+00 3.022084e+00 4.575088e+00 2.491879e+00 3.405514e+00 1.479200e-01 1.065279e-01 1.164616e-01 1.989007e-01 3.094157e-01 2.424565e-01 6.219733e-01 3.193392e-01 5.652379e-01 7.493261e-01 4.692251e-01 5.220636e-01 7.780868e-01 3.505319e-02
<GCONST> 1.001685e+02
<STATE> 10
<MEAN> 39
 3.655293e+00 3.790135e+00 -1.114348e+00 -1.522679e+01 7.975592e-02 1.099445e+00 -1.173549e+01 -2.090885e+01 -2.012765e+01 -2.204338e+00 1.583435e+01 -1.308943e+00 6.926987e+01 -1.888386e-01 -5.207346e-01 3.599191e-01 1.630653e+00 6.050540e-01 -6.670938e-01 -7.662226e-01 -1.419143e+00 1.240491e-01 1.508700e+00 -1.634489e-01 -1.907381e+00 -5.898774e-02 -2.937486e-02 1.339400e-01 1.344294e-01 2.987920e-02 -1.162712e-01 -3.656947e-01 -3.702492e-02 5.104877e-01 3.686377e-01 -4.265872e-01 -3.883057e-01 -9.298442e-02 -6.087543e-02
<VARIANCE> 39
 3.207627e+00 1.957326e+01 5.404597e+01 5.395452e+01 6.452008e+01 1.818379e+01 4.004723e+01 8.530879e+01 5.859439e+01 8.285930e+01 4.432425e+01 3.278632e+01 2.712869e+00 1.448541e-01 7.385783e-01 9.346684e-01 1.145189e+00 1.874189e+00 1.135375e+00 2.119318e+00 2.630187e+00 3.754738e+00 3.051960e+00 1.921290e+00 3.200509e+00 8.905382e-02 2.329195e-02 1.577358e-01 1.864544e-01 3.237444e-01 2.521674e-01 2.999955e-01 4.953152e-01 4.585424e-01 6.185882e-01 8.399675e-01 2.679504e-01 6.134161e-01 3.124718e-02
<GCONST> 9.950493e+01
<STATE> 11
<MEAN> 39
 3.199179e+00 1.239966e+00 -2.133698e+00 -6.113863e+00 1.965623e-01 -7.002974e+00 -1.817493e+01 -2.360424e+01 -1.259228e+01 -6.938407e-01 6.935915e+00 -7.687200e+00 6.801816e+01 -1.664938e-01 -3.367120e-02 2.655962e-01 5.978544e-02 2.300331e-01 -7.595629e-01 -6.153581e-01 6.317858e-01 5.664808e-01 2.288433e-02 6.444245e-01 -2.808736e-01 1.407416e-01 6.211193e-02 1.467556e-01 -1.419299e-01 -5.365387e-01 -2.051453e-01 3.265219e-01 2.161432e-01 1.650167e-01 -1.463675e-01 -2.201991e-01 1.983131e-01 4.625268e-01 4.723899e-02
<VARIANCE> 39
 5.880654e+00 1.974544e+01 7.412813e+01 3.120216e+01 4.788367e+01 3.312665e+01 5.291065e+01 3.189366e+01 5.311474e+01 3.484897e+01 6.487083e+01 1.180798e+01 4.200683e+00 1.744052e-01 6.331110e-01 6.833844e-01 2.494570e+00 1.265407e+00 1.818928e+00 2.742496e+00 1.617748e+00 3.109374e+00 2.499812e+00 2.875472e+00 2.454213e+00 2.565737e-01 3.004041e-02 7.541324e-02 1.762535e-01 1.758868e-01 2.842535e-01 3.231682e-01 3.835731e-01 3.090912e-01 5.452773e-01 5.277072e-01 4.814460e-01 4.713074e-01 2.237242e-02
<GCONST> 9.726356e+01
<STATE> 12
<MEAN> 39
 3.124377e+00 1.812563e+00 -1.759377e+00 -1.360366e+01 -2.323854e+00 -4.396980e+00 -1.568553e+01 -2.098484e+01 -1.315003e+01 3.546622e+00 1.421011e+01 -8.018375e+00 7.019589e+01 1.193516e-01 4.484711e-01 -8.903178e-01 -1.052905e+00 -1.250234e-01 6.871241e-01 5.787524e-01 9.721083e-03 -2.825633e-02 -6.828296e-01 -2.001433e-01 8.121850e-01 -9.133437e-02 -6.235442e-02 4.261184e-02 -5.970477e-02 1.686851e-01 3.309627e-02 -3.221901e-02 1.535596e-01 -4.710424e-02 -4.173246e-02 -3.060935e-01 -2.436652e-01 1.637678e-01 -1.165820e-01
<VARIANCE> 39
 2.196332e+00 1.098398e+01 4.765247e+01 4.514911e+01 6.676074e+01 3.532870e+01 1.187792e+02 8.545424e+01 6.726819e+01 5.881345e+01 2.199235e+01 4.792986e+01 5.269132e+00 1.421007e-01 5.010653e-01 8.103924e-01 2.091353e+00 1.128030e+00 1.183875e+00 1.582901e+00 2.093825e+00 1.415192e+00 1.756183e+00 9.427968e-01 1.792029e+00 1.956432e-01 2.549226e-02 8.532353e-02 2.224225e-01 2.734292e-01 2.294712e-01 2.047353e-01 3.046161e-01 3.145989e-01 2.714424e-01 2.907364e-01 1.284419e-01 3.055444e-01 2.426689e-02
<GCONST> 9.177734e+01
<STATE> 13
<MEAN> 39
 3.229729e+00 4.331709e+00 -8.398526e+00 -1.488525e+01 -5.742787e+00 -2.415257e+00 -8.607748e+00 -2.222606e+01 -1.454376e+01 -4.983941e+00 1.015308e+01 2.175980e-01 6.775617e+01 -4.119190e-01 4.181026e-01 4.114625e-01 2.160711e-01 6.920774e-02 -2.917121e-02 5.319709e-01 6.975075e-01 9.685704e-02 -1.110934e+00 -6.774331e-01 3.093638e-01 -3.285416e-01 -1.200090e-01 -6.829025e-02 2.923659e-01 3.384859e-01 1.851258e-01 -7.101418e-02 -2.414039e-02 -1.894535e-02 4.778374e-02 1.542628e-01 -3.028471e-02 -2.122685e-01 -6.510689e-02
<VARIANCE> 39
 2.787810e+00 6.202751e+00 1.678943e+01 7.109605e+00 4.501929e+01 2.569172e+01 3.351340e+01 3.199883e+01 1.963050e+01 2.254076e+01 2.531286e+01 3.434181e+01 1.472368e+00 1.840857e-01 2.486660e-01 7.177530e-01 1.069988e+00 8.199821e-01 5.193883e-01 1.127361e+00 1.518261e+00 1.898865e+00 1.562207e+00 8.108776e-01 6.179928e-01 7.869056e-02 2.537009e-02 3.389819e-02 5.967247e-02 8.605490e-02 1.269600e-01 1.281021e-01 2.404262e-01 2.012618e-01 2.087361e-01 2.096177e-01 1.459060e-01 1.139097e-01 3.809761e-03
<GCONST> 6.850361e+01
<STATE> 14
<MEAN> 39
 -1.111728e+00 5.038767e+00 -1.227719e+00 -9.803468e+00 -2.096505e+00 -5.088494e+00 -8.313931e+00 -1.786686e+01 -1.102454e+01 -8.263447e+00 7.120394e+00 -1.550926e+00 6.505659e+01 -1.000332e+00 -4.110998e-01 6.222614e-01 1.195635e+00 7.099132e-01 -3.546752e-01 3.797438e-01 3.870924e-01 4.085912e-01 -1.556537e-01 -4.125567e-01 -6.431157e-03 -6.331122e-01 -6.638986e-02 -1.555796e-01 -1.723334e-01 -1.051443e-01 -1.216275e-01 -4.183925e-02 -5.962473e-02 6.254681e-02 1.038887e-01 9.384451e-02 5.856811e-02 -9.091763e-03 -5.303101e-03
<VARIANCE> 39
 2.899414e+00 6.432046e+00 1.392443e+01 1.162950e+01 4.534446e+01 4.996843e+01 3.695929e+01 3.727327e+01 2.407256e+01 1.192692e+01 1.736592e+01 4.752056e+01 1.264609e+00 2.362095e-01 3.186311e-01 9.140204e-01 7.828391e-01 1.096920e+00 1.513254e+00 1.005879e+00 1.457712e+00 1.790959e+00 1.065472e+00 1.339269e+00 1.652319e+00 1.046708e-01 2.302536e-02 4.512078e-02 7.666240e-02 1.122738e-01 1.367196e-01 2.708104e-01 1.784873e-01 2.604158e-01 3.672779e-01 2.329693e-01 2.669828e-01 2.611953e-01 5.227598e-03
<GCONST> 7.604088e+01
<STATE> 15
<MEAN> 39
 -5.970685e+00 2.364546e+00 7.007916e-01 -4.030457e+00 1.163631e+00 -5.625317e+00 -7.304171e+00 -1.791251e+01 -1.113220e+01 -1.053344e+01 3.081659e+00 -4.254080e+00 6.205023e+01 -9.328536e-01 -3.913322e-01 4.241485e-01 7.588820e-01 8.070657e-02 -1.967760e-01 2.402037e-01 1.495886e-01 3.216710e-01 -4.840457e-01 -1.034727e+00 -3.162136e-01 -5.598418e-01 1.404424e-02 2.716801e-04 -5.714473e-02 -1.330137e-01 -5.838393e-02 8.282136e-04 -3.935268e-02 -2.769288e-02 1.175099e-02 5.263145e-02 5.115378e-03 5.240865e-02 2.932462e-02
<VARIANCE> 39
 2.486631e+00 6.393209e+00 1.639168e+01 1.348513e+01 2.260019e+01 2.576834e+01 3.214906e+01 4.672322e+01 2.315090e+01 1.606092e+01 2.850687e+01 4.282969e+01 9.681622e-01 1.665218e-01 3.351602e-01 3.504255e-01 6.283153e-01 6.306789e-01 9.919917e-01 1.219365e+00 1.108342e+00 1.105304e+00 1.338731e+00 1.284906e+00 9.902589e-01 2.876071e-02 2.949340e-02 7.055874e-02 8.566795e-02 1.047800e-01 1.275757e-01 1.788979e-01 1.421134e-01 1.962765e-01 2.163378e-01 2.386255e-01 2.004151e-01 2.074213e-01 5.673292e-03
<GCONST> 6.947047e+01
<STATE> 16
<MEAN> 39
 -1.069825e+01 -5.664537e-01 1.038844e+00 -1.706836e+00 2.601671e+00 -5.802865e+00 -5.556008e+00 -1.490406e+01 -7.889620e+00 -1.115525e+01 4.088970e-02 -3.672351e+00 5.977531e+01 -7.818744e-01 -6.713083e-01 -1.305877e-01 4.872317e-01 5.542171e-01 2.838483e-01 4.418408e-01 6.214942e-01 2.921613e-01 -3.672282e-02 -2.714347e-01 -1.261857e-01 -3.462864e-01 9.154986e-02 1.625969e-02 -8.526175e-03 2.269052e-02 1.051897e-01 1.570910e-01 1.191721e-01 1.083927e-01 3.465643e-02 6.720817e-03 -1.367418e-02 -1.030314e-01 4.220809e-02
<VARIANCE> 39
 2.726655e+00 6.048794e+00 1.166320e+01 1.576487e+01 3.349105e+01 2.138945e+01 1.729004e+01 2.441944e+01 2.292552e+01 1.713808e+01 2.811514e+01 3.353075e+01 1.233937e+00 1.415043e-01 2.773127e-01 3.319585e-01 7.001904e-01 1.127211e+00 7.714052e-01 1.136358e+00 9.041887e-01 8.769444e-01 7.446117e-01 1.010341e+00 1.685016e+00 4.111981e-02 2.055456e-02 6.063787e-02 5.547184e-02 9.727519e-02 1.769507e-01 1.091343e-01 2.310954e-01 1.645981e-01 1.845778e-01 1.427174e-01 2.510144e-01 3.585351e-01 6.730775e-03
<GCONST> 6.727986e+01
<STATE> 17
<MEAN> 39
 -1.379550e+01 -3.588004e+00 1.342608e-01 -4.655020e-01 5.348926e+00 -1.689345e+00 -8.159868e-01 -9.099365e+00 -3.449085e+00 -7.880388e+00 9.726147e-02 -5.577870e+00 5.829668e+01 -5.510913e-01 -3.836100e-01 1.044264e-02 1.452962e-02 5.150740e-02 3.921726e-01 9.077722e-01 1.128906e+00 7.541106e-01 1.409317e-01 -6.020749e-01 -6.519530e-01 -2.980740e-01 6.355199e-03 5.323955e-02 3.750420e-02 -5.790113e-03 -1.431188e-02 -4.204872e-03 2.553469e-03 -1.280604e-01 -1.418781e-01 -1.323707e-01 1.122564e-03 4.807943e-03 1.268858e-02
<VARIANCE> 39
 2.614347e+00 3.070367e+00 1.122400e+01 1.626212e+01 3.016477e+01 3.250758e+01 2.166707e+01 2.045605e+01 2.301624e+01 2.037547e+01 2.569526e+01 2.943660e+01 1.165795e+00 4.149192e-02 1.897073e-01 4.912410e-01 6.960891e-01 1.340828e+00 1.246966e+00 1.077497e+00 1.790577e+00 1.782323e+00 1.231013e+00 1.063482e+00 1.344319e+00 1.574072e-02 1.080079e-02 3.367746e-02 9.102446e-02 1.755596e-01 2.585652e-01 3.015040e-01 2.029168e-01 3.907242e-01 2.919900e-01 2.072467e-01 1.811499e-01 2.629232e-01 3.620972e-03
<GCONST> 6.851489e+01
<STATE> 18
<MEAN> 39
 -1.663783e+01 -4.990801e+00 1.026203e+00 1.203170e+00 6.549239e+00 -2.111460e-01 1.430591e+00 -9.504975e+00 -6.974113e+00 -1.410551e+01 -5.297689e+00 -8.883640e+00 5.690542e+01 -6.007954e-01 -3.934182e-01 -1.315058e-02 2.550123e-01 5.185655e-01 9.401183e-01 5.952928e-01 2.317518e-01 -7.965673e-02 -5.668414e-01 -3.183645e-01 -2.197048e-01 -2.713097e-01 -8.380844e-03 -3.353710e-02 -9.041370e-02 -1.141691e-01 -7.872440e-02 -3.474716e-02 -1.472424e-01 2.746759e-02 1.384384e-01 1.289136e-01 8.238644e-02 1.167721e-01 -2.649700e-02
<VARIANCE> 39
 1.699334e+00 1.781940e+00 5.009010e+00 1.002690e+01 1.603223e+01 1.906967e+01 2.424617e+01 2.683155e+01 2.632112e+01 3.864069e+01 3.439029e+01 3.480483e+01 4.822126e-01 9.019850e-02 2.247864e-01 5.930951e-01 7.195880e-01 8.826724e-01 1.394042e+00 1.186747e+00 2.173199e+00 1.046542e+00 9.408698e-01 1.163227e+00 1.767908e+00 5.278610e-02 1.601530e-02 2.904442e-02 8.597212e-02 1.198151e-01 1.415815e-01 1.878657e-01 2.384025e-01 4.042660e-01 1.375280e-01 1.432676e-01 2.072248e-01 3.117417e-01 9.260569e-03
<GCONST> 6.679052e+01
<STATE> 19
<MEAN> 39
 -1.940429e+01 -7.766371e+00 -1.036002e+00 3.870420e-01 7.809311e+00 3.137453e+00 4.185898e+00 -6.272973e+00 -4.317563e+00 -1.511410e+01 -7.547795e+00 -1.057945e+01 5.548132e+01 -3.529049e-01 -3.808749e-01 -2.964107e-01 -1.192501e-01 -4.540645e-02 1.070154e-01 2.224531e-01 2.402363e-01 4.646169e-01 1.542449e-01 -4.606158e-01 -5.516452e-01 -1.809977e-01 1.110036e-01 6.760374e-02 2.153994e-02 -3.247085e-02 -4.688105e-02 -7.237940e-02 7.523909e-02 2.445113e-02 -7.889895e-02 -1.448208e-02 -5.464436e-02 -1.105466e-01 7.091194e-02
<VARIANCE> 39
 1.928558e+00 2.788459e+00 1.303810e+01 2.231655e+01 2.994830e+01 1.976372e+01 2.615802e+01 3.186384e+01 3.957740e+01 6.039822e+01 4.228436e+01 3.409274e+01 5.018697e-01 2.781172e-01 2.296889e-01 6.727208e-01 1.028269e+00 1.139158e+00 1.273461e+00 1.475488e+00 1.779907e+00 1.927154e+00 2.628680e+00 1.591465e+00 1.668547e+00 6.883799e-02 3.282681e-02 3.827828e-02 1.510022e-01 2.123934e-01 1.933652e-01 2.328108e-01 2.498464e-01 3.655863e-01 3.180635e-01 4.839313e-01 2.125763e-01 3.581589e-01 7.801295e-03
<GCONST> 7.973331e+01
<TRANSP> 20
 0.000000e+00 1.000000e+00 0.000000e+00 0.000000e+00 0.000000e+00 0.000000e+00 0.000000e+00 0.000000e+00 0.000000e+00 0.000000e+00 0.000000e+00 0.000000e+00 0.000000e+00 0.000000e+00 0.000000e+00 0.000000e+00 0.000000e+00 0.000000e+00 0.000000e+00 0.000000e+00
 0.000000e+00 7.857155e-01 2.142845e-01 0.000000e+00 0.000000e+00 0.000000e+00 0.000000e+00 0.000000e+00 0.000000e+00 0.000000e+00 0.000000e+00 0.000000e+00 0.000000e+00 0.000000e+00 0.000000e+00 0.000000e+00 0.000000e+00 0.000000e+00 0.000000e+00 0.000000e+00
 0.000000e+00 0.000000e+00 7.939398e-01 2.060603e-01 0.000000e+00 0.000000e+00 0.000000e+00 0.000000e+00 0.000000e+00 0.000000e+00 0.000000e+00 0.000000e+00 0.000000e+00 0.000000e+00 0.000000e+00 0.000000e+00 0.000000e+00 0.000000e+00 0.000000e+00 0.000000e+00
 0.000000e+00 0.000000e+00 0.000000e+00 7.769611e-01 2.230388e-01 0.000000e+00 0.000000e+00 0.000000e+00 0.000000e+00 0.000000e+00 0.000000e+00 0.000000e+00 0.000000e+00 0.000000e+00 0.000000e+00 0.000000e+00 0.000000e+00 0.000000e+00 0.000000e+00 0.000000e+00
 0.000000e+00 0.000000e+00 0.000000e+00 0.000000e+00 6.581783e-01 3.418218e-01 0.000000e+00 0.000000e+00 0.000000e+00 0.000000e+00 0.000000e+00 0.000000e+00 0.000000e+00 0.000000e+00 0.000000e+00 0.000000e+00 0.000000e+00 0.000000e+00 0.000000e+00 0.000000e+00
 0.000000e+00 0.000000e+00 0.000000e+00 0.000000e+00 0.000000e+00 8.648183e-01 1.351818e-01 0.000000e+00 0.000000e+00 0.000000e+00 0.000000e+00 0.000000e+00 0.000000e+00 0.000000e+00 0.000000e+00 0.000000e+00 0.000000e+00 0.000000e+00 0.000000e+00 0.000000e+00
 0.000000e+00 0.000000e+00 0.000000e+00 0.000000e+00 0.000000e+00 0.000000e+00 7.695976e-01 2.304024e-01 0.000000e+00 0.000000e+00 0.000000e+00 0.000000e+00 0.000000e+00 0.000000e+00 0.000000e+00 0.000000e+00 0.000000e+00 0.000000e+00 0.000000e+00 0.000000e+00
 0.000000e+00 0.000000e+00 0.000000e+00 0.000000e+00 0.000000e+00 0.000000e+00 0.000000e+00 6.500735e-01 3.499265e-01 0.000000e+00 0.000000e+00 0.000000e+00 0.000000e+00 0.000000e+00 0.000000e+00 0.000000e+00 0.000000e+00 0.000000e+00 0.000000e+00 0.000000e+00
 0.000000e+00 0.000000e+00 0.000000e+00 0.000000e+00 0.000000e+00 0.000000e+00 0.000000e+00 0.000000e+00 7.471626e-01 2.528374e-01 0.000000e+00 0.000000e+00 0.000000e+00 0.000000e+00 0.000000e+00 0.000000e+00 0.000000e+00 0.000000e+00 0.000000e+00 0.000000e+00
 0.000000e+00 0.000000e+00 0.000000e+00 0.000000e+00 0.000000e+00 0.000000e+00 0.000000e+00 0.000000e+00 0.000000e+00 7.907413e-01 2.092587e-01 0.000000e+00 0.000000e+00 0.000000e+00 0.000000e+00 0.000000e+00 0.000000e+00 0.000000e+00 0.000000e+00 0.000000e+00
 0.000000e+00 0.000000e+00 0.000000e+00 0.000000e+00 0.000000e+00 0.000000e+00 0.000000e+00 0.000000e+00 0.000000e+00 0.000000e+00 7.986946e-01 2.013054e-01 0.000000e+00 0.000000e+00 0.000000e+00 0.000000e+00 0.000000e+00 0.000000e+00 0.000000e+00 0.000000e+00
 0.000000e+00 0.000000e+00 0.000000e+00 0.000000e+00 0.000000e+00 0.000000e+00 0.000000e+00 0.000000e+00 0.000000e+00 0.000000e+00 0.000000e+00 7.979460e-01 2.020540e-01 0.000000e+00 0.000000e+00 0.000000e+00 0.000000e+00 0.000000e+00 0.000000e+00 0.000000e+00
 0.000000e+00 0.000000e+00 0.000000e+00 0.000000e+00 0.000000e+00 0.000000e+00 0.000000e+00 0.000000e+00 0.000000e+00 0.000000e+00 0.000000e+00 0.000000e+00 8.183051e-01 1.816950e-01 0.000000e+00 0.000000e+00 0.000000e+00 0.000000e+00 0.000000e+00 0.000000e+00
 0.000000e+00 0.000000e+00 0.000000e+00 0.000000e+00 0.000000e+00 0.000000e+00 0.000000e+00 0.000000e+00 0.000000e+00 0.000000e+00 0.000000e+00 0.000000e+00 0.000000e+00 8.025782e-01 1.974218e-01 0.000000e+00 0.000000e+00 0.000000e+00 0.000000e+00 0.000000e+00
 0.000000e+00 0.000000e+00 0.000000e+00 0.000000e+00 0.000000e+00 0.000000e+00 0.000000e+00 0.000000e+00 0.000000e+00 0.000000e+00 0.000000e+00 0.000000e+00 0.000000e+00 0.000000e+00 8.011432e-01 1.988569e-01 0.000000e+00 0.000000e+00 0.000000e+00 0.000000e+00
 0.000000e+00 0.000000e+00 0.000000e+00 0.000000e+00 0.000000e+00 0.000000e+00 0.000000e+00 0.000000e+00 0.000000e+00 0.000000e+00 0.000000e+00 0.000000e+00 0.000000e+00 0.000000e+00 0.000000e+00 8.158745e-01 1.841255e-01 0.000000e+00 0.000000e+00 0.000000e+00
 0.000000e+00 0.000000e+00 0.000000e+00 0.000000e+00 0.000000e+00 0.000000e+00 0.000000e+00 0.000000e+00 0.000000e+00 0.000000e+00 0.000000e+00 0.000000e+00 0.000000e+00 0.000000e+00 0.000000e+00 0.000000e+00 7.922525e-01 2.077475e-01 0.000000e+00 0.000000e+00
 0.000000e+00 0.000000e+00 0.000000e+00 0.000000e+00 0.000000e+00 0.000000e+00 0.000000e+00 0.000000e+00 0.000000e+00 0.000000e+00 0.000000e+00 0.000000e+00 0.000000e+00 0.000000e+00 0.000000e+00 0.000000e+00 0.000000e+00 7.663162e-01 2.336839e-01 0.000000e+00
 0.000000e+00 0.000000e+00 0.000000e+00 0.000000e+00 0.000000e+00 0.000000e+00 0.000000e+00 0.000000e+00 0.000000e+00 0.000000e+00 0.000000e+00 0.000000e+00 0.000000e+00 0.000000e+00 0.000000e+00 0.000000e+00 0.000000e+00 0.000000e+00 7.573210e-01 2.426790e-01
 0.000000e+00 0.000000e+00 0.000000e+00 0.000000e+00 0.000000e+00 0.000000e+00 0.000000e+00 0.000000e+00 0.000000e+00 0.000000e+00 0.000000e+00 0.000000e+00 0.000000e+00 0.000000e+00 0.000000e+00 0.000000e+00 0.000000e+00 0.000000e+00 0.000000e+00 0.000000e+00
<ENDHMM>
