~o
<STREAMINFO> 1 39
<VECSIZE> 39<NULLD><MFCC_D_A_0><DIAGC>
~h "sil"
<BEGINHMM>
<NUMSTATES> 20
<STATE> 2
<MEAN> 39
 -1.530775e+01 -4.889462e+00 -5.628927e-01 -3.212503e+00 2.384605e+00 -1.094365e+00 3.417763e+00 -4.803750e+00 -1.063156e+00 -7.937055e+00 -1.167504e+00 -6.697211e+00 5.752620e+01 -3.921312e-01 -3.214651e-01 -3.419581e-02 -1.286499e-01 -1.205010e-01 -1.271823e-02 1.420553e-01 3.637470e-01 2.620863e-01 -1.728218e-02 -9.581617e-02 -5.027092e-02 1.363410e-01 -2.614439e-02 3.460639e-02 -3.125558e-02 6.385448e-02 2.405826e-02 5.142907e-03 -6.849803e-02 6.963825e-02 4.507943e-02 1.150086e-01 1.610722e-02 3.590584e-02 -3.965812e-01
<VARIANCE> 39
 3.883102e+01 2.077441e+01 3.228640e+01 4.242568e+01 3.554579e+01 4.912539e+01 4.124233e+01 3.303996e+01 3.829527e+01 3.999482e+01 4.455162e+01 3.035904e+01 2.380763e+01 4.652289e-01 4.875169e-01 8.998578e-01 1.232441e+00 1.651574e+00 1.702004e+00 1.940221e+00 2.219523e+00 1.921174e+00 2.495859e+00 1.543717e+00 1.838832e+00 3.794529e+00 6.149673e-02 9.484904e-02 1.635268e-01 2.358140e-01 2.603786e-01 2.846345e-01 3.312439e-01 3.898005e-01 3.758919e-01 4.264272e-01 3.583879e-01 3.441315e-01 8.694147e-01
<GCONST> 1.059342e+02
<STATE> 3
<MEAN> 39
 -1.498934e+01 -5.614316e+00 8.060362e-01 -3.239170e+00 2.187245e+00 -2.533519e+00 9.589910e-01 -5.209965e+00 -1.723026e+00 -8.702943e+00 -1.414295e+00 -6.839713e+00 5.684610e+01 -3.164170e-01 -3.158323e-01 -3.250729e-02 2.075574e-02 1.324922e-01 -3.644253e-02 -2.893156e-02 1.963086e-01 1.741965e-01 1.799882e-01 2.319899e-02 2.716014e-02 -1.967742e-01 5.197858e-03 -7.584509e-03 -6.274772e-02 -2.758723e-02 1.834159e-02 3.234958e-02 2.511078e-02 -3.087867e-02 4.950684e-04 3.546999e-02 1.612357e-02 -1.165009e-02 2.520894e-02
<VARIANCE> 39
 1.764822e+01 2.996979e+01 2.353548e+01 3.106170e+01 3.675068e+01 4.789066e+01 4.934119e+01 4.134446e+01 4.291541e+01 3.951709e+01 3.976445e+01 3.115820e+01 6.441727e+00 4.447787e-01 4.917109e-01 7.925335e-01 1.009103e+00 1.416590e+00 1.616523e+00 1.900164e+00 1.989281e+00 1.921455e+00 2.059555e+00 1.948963e+00 1.572978e+00 1.063932e-01 3.896158e-02 7.716405e-02 1.281163e-01 1.588432e-01 2.506811e-01 2.579952e-01 3.319174e-01 3.595911e-01 3.580637e-01 3.576387e-01 3.127678e-01 2.810546e-01 1.018169e-02
<GCONST> 9.308744e+01
<STATE> 4
<MEAN> 39
 -2.089491e+01 -9.494453e+00 -3.857265e+00 -3.619726e+00 6.424729e+00 4.746658e+00 8.951702e+00 5.033698e-01 2.909569e+00 -7.074783e+00 -1.988329e+00 -8.236858e+00 5.450180e+01 -1.369934e-01 -2.153018e-01 -1.851701e-01 -2.089030e-01 -1.875263e-01 -1.016103e-01 1.253202e-01 3.190080e-01 3.700978e-01 3.585138e-01 2.750607e-01 8.234185e-02 -2.862755e-02 7.739674e-02 8.447023e-02 7.088725e-02 3.549503e-02 -4.920905e-02 -9.132261e-02 -1.270028e-01 -1.494541e-01 -1.257756e-01 -8.280560e-02 -1.452116e-02 -5.207238e-03 3.997456e-02
<VARIANCE> 39
 1.130991e+01 2.203051e+01 2.529177e+01 3.493188e+01 4.079083e+01 5.478797e+01 5.730772e+01 5.401691e+01 7.672964e+01 6.958106e+01 4.472564e+01 3.492282e+01 2.564748e+00 2.626559e-01 5.141398e-01 7.774712e-01 1.498987e+00 2.058658e+00 2.373060e+00 2.334700e+00 2.623354e+00 2.742428e+00 2.846370e+00 2.469496e+00 1.972239e+00 6.916638e-02 3.554643e-02 8.522341e-02 1.357661e-01 2.665683e-01 3.482670e-01 3.876756e-01 4.358366e-01 5.024261e-01 5.347108e-01 5.819685e-01 4.301478e-01 3.908117e-01 1.001354e-02
<GCONST> 9.892964e+01
<STATE> 5
<MEAN> 39
 -1.842050e+01 -8.016761e+00 -2.875760e+00 -4.941563e+00 1.771852e+00 -1.233430e+00 3.616289e+00 -3.020044e+00 5.350949e-01 -7.019492e+00 -4.392302e-02 -6.653920e+00 5.577112e+01 1.149728e-01 1.314528e-01 2.163225e-01 2.286080e-01 9.881759e-02 4.581323e-02 -7.699803e-02 -2.759027e-01 -4.093805e-01 -3.552245e-01 -2.468323e-01 -1.537099e-01 5.923508e-02 2.372915e-02 4.973370e-02 8.032168e-02 1.571706e-01 1.798480e-01 1.572959e-01 7.743964e-02 -1.841849e-02 -6.920165e-02 -1.042482e-01 -1.188130e-01 -4.992454e-02 6.118362e-03
<VARIANCE> 39
 7.230304e+00 1.329792e+01 2.019586e+01 2.227957e+01 2.528555e+01 3.854323e+01 4.328679e+01 3.753147e+01 3.876132e+01 3.165073e+01 3.161257e+01 2.743660e+01 1.660440e+00 2.995983e-01 5.340559e-01 8.016697e-01 1.233048e+00 1.741680e+00 2.287537e+00 2.893136e+00 2.887070e+00 2.758589e+00 2.490438e+00 2.006766e+00 1.962431e+00 8.919384e-02 3.545982e-02 7.789951e-02 1.359086e-01 1.933936e-01 3.026828e-01 4.044636e-01 4.411428e-01 4.299314e-01 3.892369e-01 3.811643e-01 3.555467e-01 3.230779e-01 1.189521e-02
<GCONST> 9.175673e+01
<STATE> 6
<MEAN> 39
 -1.880539e+01 -7.532231e+00 -7.151298e-01 -5.403559e-01 6.734540e+00 2.966722e+00 6.256634e+00 -3.162779e+00 -1.879835e+00 -1.147906e+01 -4.821106e+00 -9.254573e+00 5.566944e+01 -1.006597e-02 -1.718118e-02 5.788376e-02 2.078061e-01 2.016325e-01 7.331805e-02 -8.031016e-02 -1.595044e-01 -8.754940e-02 9.541444e-03 -1.197239e-02 1.182134e-02 3.646154e-03 -1.900126e-02 -6.694227e-02 -1.334950e-01 -1.917466e-01 -2.099455e-01 -1.669985e-01 -8.508173e-02 4.446376e-02 1.738457e-01 2.257738e-01 2.040629e-01 1.335564e-01 -8.879930e-04
<VARIANCE> 39
 5.170161e+00 7.899253e+00 1.180149e+01 2.367048e+01 3.381181e+01 4.081953e+01 3.453441e+01 3.237278e+01 3.698662e+01 4.035547e+01 3.526671e+01 2.954607e+01 1.156453e+00 2.025487e-01 4.281024e-01 6.773189e-01 1.047666e+00 1.432973e+00 1.765527e+00 1.959977e+00 2.070605e+00 2.609590e+00 2.361233e+00 1.870880e+00 1.779012e+00 5.095591e-02 3.425289e-02 5.972203e-02 1.033928e-01 1.899693e-01 2.729755e-01 2.972439e-01 3.420335e-01 3.697118e-01 4.502983e-01 4.272555e-01 3.444678e-01 3.088716e-01 8.633378e-03
<GCONST> 8.591338e+01
<STATE> 7
<MEAN> 39
 -1.790993e+01 -6.905552e+00 -7.304313e-01 -2.103529e+00 3.967507e+00 -1.126168e-01 3.540077e+00 -4.165575e+00 -2.003487e-01 -7.003393e+00 -3.806759e-01 -6.306971e+00 5.595597e+01 -5.965324e-02 -2.220779e-01 -3.860880e-01 -5.391561e-01 -6.525795e-01 -4.622145e-01 -3.605302e-01 -6.436443e-02 3.315355e-01 6.117324e-01 6.024835e-01 4.108037e-01 1.336175e-02 -6.093097e-02 -1.269045e-01 -1.926951e-01 -2.150228e-01 -1.802091e-01 -1.249192e-01 -1.671285e-02 7.860994e-02 6.727227e-02 2.853362e-02 6.990640e-02 3.859505e-02 -1.327167e-02
<VARIANCE> 39
 6.889033e+00 1.038430e+01 1.424488e+01 2.013338e+01 2.532854e+01 3.785033e+01 4.833514e+01 4.220303e+01 2.799241e+01 2.581499e+01 3.061351e+01 3.039438e+01 1.599400e+00 2.244868e-01 3.656655e-01 5.441003e-01 1.150967e+00 1.757840e+00 1.964286e+00 1.803030e+00 1.964720e+00 2.249841e+00 2.267620e+00 2.039132e+00 1.773833e+00 5.485184e-02 3.435044e-02 6.604280e-02 1.265469e-01 1.808450e-01 2.603524e-01 3.259721e-01 3.859154e-01 3.877749e-01 3.591514e-01 3.744366e-01 3.889267e-01 3.503763e-01 9.751411e-03
<GCONST> 8.666706e+01
<STATE> 8
<MEAN> 39
 -1.817773e+01 -7.816852e+00 -2.920061e+00 -4.668205e+00 1.456449e+00 -1.957653e+00 2.865428e+00 -3.633278e+00 8.290393e-01 -6.501216e+00 3.116763e-01 -6.238811e+00 5.612076e+01 -2.304589e-01 -4.058780e-01 -4.942003e-01 -4.220731e-01 -3.341473e-01 -2.460564e-01 -1.302029e-01 1.393697e-01 2.305531e-01 1.700252e-01 2.366823e-01 1.465447e-01 -6.353676e-02 1.620045e-03 7.290875e-03 2.831431e-02 6.959462e-02 6.855485e-02 3.262972e-02 4.409548e-02 7.298278e-03 -3.258239e-03 -5.122066e-02 -6.363681e-02 -2.066747e-02 -3.707862e-03
<VARIANCE> 39
 4.155941e+00 5.781302e+00 9.238222e+00 1.297683e+01 1.941068e+01 2.892980e+01 3.207205e+01 2.717023e+01 2.373700e+01 2.494012e+01 2.593927e+01 2.448185e+01 9.681190e-01 1.577112e-01 2.697237e-01 5.606455e-01 9.091381e-01 1.240040e+00 1.469471e+00 1.679807e+00 1.794990e+00 1.908620e+00 1.978179e+00 1.844653e+00 1.533311e+00 4.053440e-02 2.821045e-02 4.332889e-02 9.218142e-02 1.488530e-01 2.135831e-01 2.471015e-01 3.058538e-01 3.537507e-01 3.670585e-01 3.902433e-01 3.397008e-01 3.240290e-01 7.820110e-03
<GCONST> 7.742143e+01
<STATE> 9
<MEAN> 39
 -1.894083e+01 -8.975687e+00 -3.540327e+00 -5.166630e+00 1.761315e+00 -1.253725e+00 3.644454e+00 -3.000094e+00 9.443309e-01 -6.194979e+00 4.558440e-01 -5.995605e+00 5.568214e+01 -1.569957e-01 -3.277935e-01 -4.106309e-01 -3.428249e-01 -3.861525e-01 -3.985062e-01 -1.523208e-01 4.624086e-02 3.118552e-01 3.150525e-01 2.323374e-01 2.615117e-01 -3.587385e-02 1.248372e-01 2.233704e-01 2.699207e-01 2.709821e-01 2.025688e-01 4.183728e-02 -1.093392e-02 -1.330851e-01 -1.744244e-01 -1.978723e-01 -1.597504e-01 -4.910627e-02 4.141404e-02
<VARIANCE> 39
 5.901921e+00 7.797986e+00 1.132413e+01 1.811243e+01 2.606971e+01 3.432711e+01 4.119169e+01 3.350426e+01 2.933465e+01 2.772132e+01 2.881844e+01 2.419502e+01 1.108949e+00 1.626708e-01 2.372274e-01 5.697017e-01 7.631610e-01 1.301730e+00 1.707716e+00 1.776901e+00 1.438578e+00 1.644100e+00 1.744804e+00 2.127991e+00 1.757848e+00 4.594607e-02 2.267707e-02 4.103696e-02 9.057099e-02 1.915771e-01 2.451263e-01 3.049176e-01 3.558110e-01 3.974434e-01 4.248717e-01 4.015156e-01 3.499377e-01 2.903738e-01 5.947812e-03
<GCONST> 8.038724e+01
<STATE> 10
<MEAN> 39
 -1.909026e+01 -9.423913e+00 -3.930048e+00 -5.182515e+00 1.488642e+00 -1.730808e+00 3.153698e+00 -3.035078e+00 1.386422e+00 -5.800133e+00 6.794079e-01 -5.899711e+00 5.564802e+01 7.593296e-02 7.082155e-02 4.232253e-02 1.265487e-01 -2.613962e-02 -2.695578e-01 -1.802616e-01 -1.860026e-01 -2.856261e-02 -8.140801e-02 -2.350064e-02 1.563043e-01 3.955340e-02 1.601615e-01 3.007075e-01 3.417074e-01 3.014256e-01 2.508831e-01 1.195977e-01 5.874888e-03 -1.569425e-01 -2.476333e-01 -2.624229e-01 -1.943128e-01 -1.039346e-01 5.851705e-02
<VARIANCE> 39
 5.894929e+00 7.422790e+00 1.290868e+01 1.735541e+01 2.273392e+01 3.350739e+01 3.791496e+01 2.834508e+01 2.442382e+01 2.790510e+01 2.693898e+01 2.475404e+01 1.162843e+00 1.275753e-01 1.914080e-01 4.394006e-01 6.864079e-01 1.110249e+00 1.547156e+00 1.908390e+00 1.827873e+00 1.795093e+00 2.002385e+00 1.741199e+00 1.576211e+00 3.661850e-02 2.790316e-02 4.904634e-02 1.082643e-01 1.747175e-01 2.538617e-01 3.162559e-01 3.594362e-01 3.563864e-01 3.878662e-01 3.474034e-01 3.827769e-01 3.161605e-01 7.492746e-03
<GCONST> 7.937316e+01
<STATE> 11
<MEAN> 39
 -1.892663e+01 -8.995402e+00 -3.834288e+00 -5.058107e+00 1.369936e+00 -2.150374e+00 2.940732e+00 -3.277694e+00 1.596132e+00 -6.103630e+00 1.396669e-01 -5.802804e+00 5.576918e+01 3.126761e-01 5.392075e-01 6.201094e-01 6.250919e-01 4.470848e-01 2.034907e-02 -1.429544e-01 -3.642547e-01 -4.980294e-01 -5.784565e-01 -3.516893e-01 -1.384495e-01 1.375420e-01 9.674310e-02 1.937404e-01 2.014787e-01 1.367915e-01 1.265035e-01 1.059455e-01 2.514156e-02 -8.954951e-02 -1.915278e-01 -1.662640e-01 -9.743004e-02 -1.164140e-01 3.504360e-02
<VARIANCE> 39
 4.795008e+00 6.752603e+00 1.155967e+01 1.713562e+01 2.259470e+01 3.277516e+01 3.319213e+01 2.611708e+01 2.514092e+01 2.978388e+01 3.062550e+01 2.610674e+01 1.012900e+00 1.495923e-01 2.636831e-01 5.470024e-01 8.448537e-01 1.398444e+00 1.734112e+00 2.039976e+00 2.154785e+00 2.073595e+00 2.045291e+00 1.955369e+00 1.466171e+00 3.426182e-02 2.876609e-02 4.434657e-02 9.214530e-02 1.431911e-01 2.258105e-01 2.904524e-01 3.382081e-01 2.969390e-01 3.081618e-01 3.633831e-01 4.013451e-01 3.124812e-01 8.019174e-03
<GCONST> 7.951062e+01
<STATE> 12
<MEAN> 39
 -1.804732e+01 -7.347532e+00 -2.029261e+00 -3.552695e+00 2.517964e+00 -1.822546e+00 2.998739e+00 -4.255423e+00 -2.541555e-01 -7.873643e+00 -4.836082e-01 -6.140501e+00 5.612143e+01 3.316430e-01 5.960503e-01 6.335393e-01 5.652506e-01 4.614742e-01 1.596593e-01 -3.516309e-02 -3.910476e-01 -5.332643e-01 -4.834415e-01 -3.050785e-01 -1.942354e-01 1.390204e-01 -4.798483e-02 -8.336668e-02 -1.111746e-01 -1.285789e-01 -1.064891e-01 -1.602330e-02 -2.065491e-02 4.515812e-02 1.270244e-01 1.730769e-01 8.485123e-02 -1.980096e-02 -1.676056e-02
<VARIANCE> 39
 4.021698e+00 6.429944e+00 9.956923e+00 1.556328e+01 1.995689e+01 2.766796e+01 2.813175e+01 2.596979e+01 2.359669e+01 2.289767e+01 2.024127e+01 1.932126e+01 9.043869e-01 1.726715e-01 2.933455e-01 5.866716e-01 9.180973e-01 1.417959e+00 1.752327e+00 1.872922e+00 2.156426e+00 2.204114e+00 2.055854e+00 1.866291e+00 1.599291e+00 4.904290e-02 2.869112e-02 4.720848e-02 9.307494e-02 1.663090e-01 2.404488e-01 2.931751e-01 3.269347e-01 3.822174e-01 3.394304e-01 3.595958e-01 3.176186e-01 2.888996e-01 8.444442e-03
<GCONST> 7.856471e+01
<STATE> 13
<MEAN> 39
 -1.767756e+01 -6.491233e+00 -4.860659e-01 -1.652641e+00 4.145818e+00 -1.217821e+00 2.478812e+00 -5.630754e+00 -2.266670e+00 -9.374942e+00 -1.827453e+00 -6.816097e+00 5.625536e+01 8.338924e-02 1.391698e-01 -6.548699e-03 -1.282675e-01 -1.820833e-01 -1.094380e-01 -1.054039e-01 -3.941947e-02 1.536022e-01 2.998965e-01 1.665994e-01 -1.224146e-01 4.272552e-02 -1.006747e-01 -2.124039e-01 -2.904523e-01 -3.193594e-01 -2.924401e-01 -1.435594e-01 -2.164226e-02 1.740283e-01 3.237272e-01 3.239749e-01 2.212009e-01 9.502647e-02 -4.039476e-02
<VARIANCE> 39
 4.058279e+00 7.159760e+00 9.835564e+00 1.726611e+01 2.078106e+01 2.374318e+01 2.560040e+01 3.023414e+01 3.012319e+01 2.737216e+01 2.682253e+01 2.522209e+01 9.551436e-01 1.599279e-01 2.827258e-01 5.321537e-01 8.155172e-01 1.149416e+00 1.537310e+00 1.772246e+00 2.007610e+00 2.006536e+00 1.867502e+00 1.493376e+00 1.421827e+00 4.130912e-02 3.263187e-02 6.181422e-02 1.187041e-01 1.661308e-01 2.474822e-01 3.167705e-01 3.084097e-01 3.790486e-01 4.010347e-01 3.744482e-01 3.164648e-01 2.696251e-01 7.425103e-03
<GCONST> 7.893001e+01
<STATE> 14
<MEAN> 39
 -1.807145e+01 -7.498658e+00 -2.443327e+00 -3.552602e+00 2.960753e+00 -3.904351e-01 4.525515e+00 -2.102998e+00 2.060940e+00 -5.769675e+00 1.077602e-01 -6.824187e+00 5.615189e+01 -2.104248e-02 -1.247839e-01 -2.920601e-01 -3.954466e-01 -5.420252e-01 -5.120556e-01 -3.837342e-01 -5.770445e-02 2.661804e-01 3.139311e-01 2.840635e-01 2.175627e-01 7.253994e-03 -2.096359e-02 -2.988200e-02 -2.493127e-03 1.576882e-02 -4.038912e-02 -1.363909e-01 -1.575526e-01 -1.661949e-01 -1.645518e-01 -1.390913e-01 -4.958256e-02 2.456252e-02 -7.524740e-03
<VARIANCE> 39
 2.939260e+00 4.910646e+00 7.159636e+00 1.096196e+01 1.447926e+01 1.907205e+01 2.189137e+01 2.688655e+01 2.741620e+01 2.281175e+01 2.170642e+01 1.815680e+01 5.855943e-01 1.789014e-01 3.154885e-01 4.498934e-01 7.368608e-01 1.002398e+00 1.493364e+00 1.544373e+00 1.871800e+00 1.958981e+00 1.961412e+00 1.564132e+00 1.559186e+00 4.047480e-02 2.956842e-02 5.425695e-02 7.896690e-02 1.238272e-01 1.967288e-01 2.773211e-01 3.010404e-01 3.647556e-01 3.971981e-01 3.922395e-01 3.264658e-01 2.773062e-01 7.381469e-03
<GCONST> 7.375480e+01
<STATE> 15
<MEAN> 39
 -1.764648e+01 -7.087029e+00 -2.771643e+00 -4.615080e+00 3.940187e-01 -4.394586e+00 5.340584e-01 -5.678470e+00 2.162219e-02 -6.871552e+00 3.293044e-01 -5.848838e+00 5.652885e+01 -2.765391e-02 -5.261249e-02 -6.164059e-02 -8.244761e-02 -1.153784e-01 -1.596252e-01 -1.390284e-01 -1.259321e-01 -6.793369e-02 -1.077809e-02 1.398869e-02 3.897160e-02 -8.941118e-03 -4.612557e-03 -1.261929e-03 4.577591e-03 1.211391e-02 2.954795e-02 3.505987e-02 2.937270e-02 1.806241e-02 -1.983274e-03 -1.446366e-02 -1.656339e-02 -1.126059e-02 -9.499167e-04
<VARIANCE> 39
 1.211455e+00 2.519074e+00 4.401973e+00 6.461720e+00 8.399069e+00 1.021214e+01 1.234398e+01 1.353234e+01 1.415940e+01 1.275542e+01 1.197209e+01 1.216891e+01 3.351755e-01 1.182208e-01 2.492835e-01 4.369397e-01 6.245311e-01 8.368106e-01 1.065103e+00 1.317122e+00 1.499427e+00 1.592469e+00 1.396167e+00 1.253093e+00 1.292826e+00 3.200628e-02 2.203546e-02 4.571145e-02 8.784197e-02 1.286568e-01 1.635570e-01 2.122343e-01 2.624021e-01 2.913929e-01 3.177532e-01 2.848395e-01 2.496492e-01 2.574946e-01 6.396407e-03
<GCONST> 6.086380e+01
<STATE> 16
<MEAN> 39
 -1.839748e+01 -8.258789e+00 -3.962458e+00 -6.091816e+00 -1.033948e+00 -5.913094e+00 -9.664544e-01 -6.825321e+00 -6.041266e-01 -7.183436e+00 1.352335e-01 -5.677349e+00 5.616430e+01 1.510491e-01 2.301647e-01 2.245476e-01 2.676658e-01 3.088038e-01 2.864817e-01 2.262616e-01 1.321232e-01 5.067078e-02 -6.051372e-02 -2.721483e-02 -1.053148e-01 7.437298e-02 1.060160e-01 1.614550e-01 2.034348e-01 2.458187e-01 2.873962e-01 3.226504e-01 2.868263e-01 2.023810e-01 1.002304e-01 5.307933e-02 1.604557e-02 -1.169131e-02 3.896553e-02
<VARIANCE> 39
 1.818267e+00 3.284776e+00 6.542223e+00 9.147130e+00 1.426670e+01 1.649762e+01 1.952609e+01 1.837720e+01 1.914556e+01 1.687043e+01 1.710350e+01 1.683975e+01 4.808915e-01 1.469849e-01 3.255521e-01 5.750691e-01 8.233419e-01 1.113715e+00 1.364277e+00 1.656699e+00 1.710670e+00 1.714781e+00 1.730352e+00 1.438886e+00 1.345785e+00 3.562132e-02 2.637805e-02 6.288076e-02 9.732820e-02 1.383942e-01 2.044940e-01 2.420947e-01 2.848406e-01 3.286976e-01 3.585189e-01 3.444839e-01 2.941027e-01 3.040500e-01 6.631378e-03
<GCONST> 7.009009e+01
<STATE> 17
<MEAN> 39
 -1.688739e+01 -5.919899e+00 -9.628366e-01 -2.430414e+00 2.985801e+00 -1.650435e+00 2.834088e+00 -4.245797e+00 7.183038e-01 -6.549715e+00 3.925716e-01 -6.073125e+00 5.677071e+01 8.424509e-02 1.008239e-01 1.170461e-01 1.531907e-01 1.717712e-01 2.169793e-01 2.376457e-01 2.174641e-01 1.027298e-01 3.311265e-02 1.185596e-02 3.950208e-02 3.659457e-02 -8.473032e-02 -1.274153e-01 -1.716260e-01 -1.999718e-01 -2.248934e-01 -2.322653e-01 -1.983972e-01 -1.279474e-01 -3.629724e-02 -3.415379e-03 -1.457831e-02 1.974005e-02 -2.987110e-02
<VARIANCE> 39
 2.021385e+00 3.936901e+00 5.758484e+00 9.125622e+00 1.090450e+01 1.309925e+01 1.415965e+01 1.463560e+01 1.554874e+01 1.648101e+01 1.490210e+01 1.189178e+01 5.586588e-01 1.571270e-01 3.397600e-01 5.949689e-01 9.075225e-01 1.257267e+00 1.500164e+00 1.402888e+00 1.377514e+00 1.460924e+00 1.534343e+00 1.359444e+00 1.156216e+00 4.111079e-02 2.829213e-02 5.614171e-02 8.570901e-02 1.386611e-01 2.086206e-01 2.509233e-01 2.634013e-01 2.704833e-01 2.930232e-01 3.268469e-01 2.704251e-01 2.122040e-01 7.665989e-03
<GCONST> 6.742104e+01
<STATE> 18
<MEAN> 39
 -1.755992e+01 -7.002968e+00 -2.848793e+00 -4.622825e+00 3.880522e-01 -4.393043e+00 4.866340e-01 -5.727584e+00 3.406958e-01 -6.535155e+00 3.751198e-01 -5.849055e+00 5.657835e+01 -1.082922e-02 -1.714927e-02 -3.121350e-02 -3.735922e-02 -5.461524e-02 -6.189876e-02 -6.086402e-02 -3.278701e-02 -1.129240e-03 1.764793e-02 -6.763983e-03 -4.202527e-05 -2.169577e-03 5.599894e-03 6.331930e-03 1.115366e-02 1.514116e-02 1.012199e-02 7.887835e-03 4.691624e-03 3.739037e-03 3.246492e-03 -1.426191e-03 -4.893671e-03 -4.557957e-03 1.910237e-03
<VARIANCE> 39
 9.936695e-01 2.182987e+00 3.870543e+00 5.311869e+00 7.141324e+00 9.233317e+00 1.094402e+01 1.190814e+01 1.239146e+01 1.189976e+01 1.166217e+01 1.058281e+01 2.640773e-01 1.082655e-01 2.431556e-01 4.255446e-01 5.514636e-01 7.382724e-01 9.908431e-01 1.207460e+00 1.286345e+00 1.349502e+00 1.302532e+00 1.294438e+00 1.082716e+00 2.763393e-02 2.202424e-02 4.881106e-02 8.546168e-02 1.096476e-01 1.471249e-01 2.036266e-01 2.495397e-01 2.662168e-01 2.780630e-01 2.656366e-01 2.626786e-01 2.254584e-01 5.524793e-03
<GCONST> 5.700942e+01
<STATE> 19
<MEAN> 39
 -1.671816e+01 -6.074170e+00 -1.709478e+00 -3.831034e+00 5.686495e-01 -5.337648e+00 4.994737e-01 -6.004494e+00 -3.972254e-01 -7.835225e+00 -7.025746e-01 -6.074970e+00 5.699290e+01 4.158057e-02 2.868116e-02 7.546582e-03 1.793241e-02 -7.544704e-02 -1.413310e-01 -1.515285e-01 -6.522498e-02 1.792246e-02 -8.572938e-02 -1.230495e-01 -6.585475e-02 3.407293e-02 1.942635e-02 2.717505e-02 5.957403e-03 -6.228187e-03 -2.144482e-02 8.054243e-03 1.276759e-03 -4.250453e-02 -1.683478e-02 -3.194546e-03 1.786947e-02 -2.097533e-02 1.622885e-02
<VARIANCE> 39
 6.183972e+00 8.446744e+00 7.776856e+00 1.391938e+01 1.915199e+01 2.491495e+01 2.740457e+01 2.919979e+01 2.746783e+01 2.398804e+01 2.073737e+01 1.871441e+01 1.814820e+00 2.072680e-01 4.098393e-01 5.043397e-01 8.461179e-01 1.142098e+00 1.540321e+00 1.730492e+00 1.871098e+00 1.730570e+00 1.663474e+00 1.559166e+00 1.513607e+00 5.367078e-02 4.456141e-02 9.017842e-02 1.130387e-01 1.749798e-01 2.230375e-01 2.879039e-01 3.271846e-01 3.856305e-01 3.476968e-01 3.072163e-01 3.110841e-01 2.877746e-01 1.302586e-02
<GCONST> 8.038518e+01
<TRANSP> 20
 0.000000e+00 1.000000e+00 0.000000e+00 0.000000e+00 0.000000e+00 0.000000e+00 0.000000e+00 0.000000e+00 0.000000e+00 0.000000e+00 0.000000e+00 0.000000e+00 0.000000e+00 0.000000e+00 0.000000e+00 0.000000e+00 0.000000e+00 0.000000e+00 0.000000e+00 0.000000e+00
 0.000000e+00 2.422099e-01 7.577901e-01 0.000000e+00 0.000000e+00 0.000000e+00 0.000000e+00 0.000000e+00 0.000000e+00 0.000000e+00 0.000000e+00 0.000000e+00 0.000000e+00 0.000000e+00 0.000000e+00 0.000000e+00 0.000000e+00 0.000000e+00 0.000000e+00 0.000000e+00
 0.000000e+00 0.000000e+00 7.013237e-01 2.986763e-01 0.000000e+00 0.000000e+00 0.000000e+00 0.000000e+00 0.000000e+00 0.000000e+00 0.000000e+00 0.000000e+00 0.000000e+00 0.000000e+00 0.000000e+00 0.000000e+00 0.000000e+00 0.000000e+00 0.000000e+00 0.000000e+00
 0.000000e+00 0.000000e+00 0.000000e+00 6.730692e-01 3.269308e-01 0.000000e+00 0.000000e+00 0.000000e+00 0.000000e+00 0.000000e+00 0.000000e+00 0.000000e+00 0.000000e+00 0.000000e+00 0.000000e+00 0.000000e+00 0.000000e+00 0.000000e+00 0.000000e+00 0.000000e+00
 0.000000e+00 0.000000e+00 0.000000e+00 0.000000e+00 4.606121e-01 5.393879e-01 0.000000e+00 0.000000e+00 0.000000e+00 0.000000e+00 0.000000e+00 0.000000e+00 0.000000e+00 0.000000e+00 0.000000e+00 0.000000e+00 0.000000e+00 0.000000e+00 0.000000e+00 0.000000e+00
 0.000000e+00 0.000000e+00 0.000000e+00 0.000000e+00 0.000000e+00 5.813918e-01 4.186083e-01 0.000000e+00 0.000000e+00 0.000000e+00 0.000000e+00 0.000000e+00 0.000000e+00 0.000000e+00 0.000000e+00 0.000000e+00 0.000000e+00 0.000000e+00 0.000000e+00 0.000000e+00
 0.000000e+00 0.000000e+00 0.000000e+00 0.000000e+00 0.000000e+00 0.000000e+00 2.444232e-01 7.555768e-01 0.000000e+00 0.000000e+00 0.000000e+00 0.000000e+00 0.000000e+00 0.000000e+00 0.000000e+00 0.000000e+00 0.000000e+00 0.000000e+00 0.000000e+00 0.000000e+00
 0.000000e+00 0.000000e+00 0.000000e+00 0.000000e+00 0.000000e+00 0.000000e+00 0.000000e+00 5.762689e-01 4.237312e-01 0.000000e+00 0.000000e+00 0.000000e+00 0.000000e+00 0.000000e+00 0.000000e+00 0.000000e+00 0.000000e+00 0.000000e+00 0.000000e+00 0.000000e+00
 0.000000e+00 0.000000e+00 0.000000e+00 0.000000e+00 0.000000e+00 0.000000e+00 0.000000e+00 0.000000e+00 0.000000e+00 1.000000e+00 0.000000e+00 0.000000e+00 0.000000e+00 0.000000e+00 0.000000e+00 0.000000e+00 0.000000e+00 0.000000e+00 0.000000e+00 0.000000e+00
 0.000000e+00 0.000000e+00 0.000000e+00 0.000000e+00 0.000000e+00 0.000000e+00 0.000000e+00 0.000000e+00 0.000000e+00 0.000000e+00 1.000000e+00 0.000000e+00 0.000000e+00 0.000000e+00 0.000000e+00 0.000000e+00 0.000000e+00 0.000000e+00 0.000000e+00 0.000000e+00
 0.000000e+00 0.000000e+00 0.000000e+00 0.000000e+00 0.000000e+00 0.000000e+00 0.000000e+00 0.000000e+00 0.000000e+00 0.000000e+00 2.140387e-01 7.859613e-01 0.000000e+00 0.000000e+00 0.000000e+00 0.000000e+00 0.000000e+00 0.000000e+00 0.000000e+00 0.000000e+00
 0.000000e+00 0.000000e+00 0.000000e+00 0.000000e+00 0.000000e+00 0.000000e+00 0.000000e+00 0.000000e+00 0.000000e+00 0.000000e+00 0.000000e+00 2.817460e-01 7.182540e-01 0.000000e+00 0.000000e+00 0.000000e+00 0.000000e+00 0.000000e+00 0.000000e+00 0.000000e+00
 0.000000e+00 0.000000e+00 0.000000e+00 0.000000e+00 0.000000e+00 0.000000e+00 0.000000e+00 0.000000e+00 0.000000e+00 0.000000e+00 0.000000e+00 0.000000e+00 3.871817e-01 6.128182e-01 0.000000e+00 0.000000e+00 0.000000e+00 0.000000e+00 0.000000e+00 0.000000e+00
 0.000000e+00 0.000000e+00 0.000000e+00 0.000000e+00 0.000000e+00 0.000000e+00 0.000000e+00 0.000000e+00 0.000000e+00 0.000000e+00 0.000000e+00 0.000000e+00 0.000000e+00 5.726610e-01 4.273390e-01 0.000000e+00 0.000000e+00 0.000000e+00 0.000000e+00 0.000000e+00
 0.000000e+00 0.000000e+00 0.000000e+00 0.000000e+00 0.000000e+00 0.000000e+00 0.000000e+00 0.000000e+00 0.000000e+00 0.000000e+00 0.000000e+00 0.000000e+00 0.000000e+00 0.000000e+00 8.833413e-01 1.166588e-01 0.000000e+00 0.000000e+00 0.000000e+00 0.000000e+00
 0.000000e+00 0.000000e+00 0.000000e+00 0.000000e+00 0.000000e+00 0.000000e+00 0.000000e+00 0.000000e+00 0.000000e+00 0.000000e+00 0.000000e+00 0.000000e+00 0.000000e+00 0.000000e+00 0.000000e+00 5.769913e-01 4.230087e-01 0.000000e+00 0.000000e+00 0.000000e+00
 0.000000e+00 0.000000e+00 0.000000e+00 0.000000e+00 0.000000e+00 0.000000e+00 0.000000e+00 0.000000e+00 0.000000e+00 0.000000e+00 0.000000e+00 0.000000e+00 0.000000e+00 0.000000e+00 0.000000e+00 0.000000e+00 6.673853e-01 3.326147e-01 0.000000e+00 0.000000e+00
 0.000000e+00 0.000000e+00 0.000000e+00 0.000000e+00 0.000000e+00 0.000000e+00 0.000000e+00 0.000000e+00 0.000000e+00 0.000000e+00 0.000000e+00 0.000000e+00 0.000000e+00 0.000000e+00 0.000000e+00 0.000000e+00 0.000000e+00 9.209386e-01 7.906149e-02 0.000000e+00
 0.000000e+00 0.000000e+00 0.000000e+00 0.000000e+00 0.000000e+00 0.000000e+00 0.000000e+00 0.000000e+00 0.000000e+00 0.000000e+00 0.000000e+00 0.000000e+00 0.000000e+00 0.000000e+00 0.000000e+00 0.000000e+00 0.000000e+00 0.000000e+00 5.016669e-01 4.983331e-01
 0.000000e+00 0.000000e+00 0.000000e+00 0.000000e+00 0.000000e+00 0.000000e+00 0.000000e+00 0.000000e+00 0.000000e+00 0.000000e+00 0.000000e+00 0.000000e+00 0.000000e+00 0.000000e+00 0.000000e+00 0.000000e+00 0.000000e+00 0.000000e+00 0.000000e+00 0.000000e+00
<ENDHMM>
