~o
<STREAMINFO> 1 39
<VECSIZE> 39<NULLD><MFCC_D_A_0><DIAGC>
~h "hapus"
<BEGINHMM>
<NUMSTATES> 5
<STATE> 2
<MEAN> 39
 -7.309031e+00 -7.476106e+00 -6.410462e+00 -6.133008e+00 5.499823e+00 -1.499691e+00 -2.510100e+00 -1.030237e+01 -1.970978e+00 -8.551169e+00 -2.913841e+00 -8.838235e+00 6.483398e+01 2.963782e-01 2.956110e-01 7.981483e-02 -5.657131e-02 -1.373596e-01 -1.027716e-01 -1.303121e-01 -2.136803e-01 -2.057260e-01 -5.186979e-02 -2.194954e-02 -6.362549e-02 1.650728e-01 7.801187e-02 8.770864e-02 2.306252e-03 -8.845122e-02 -1.187662e-01 -5.661743e-02 -5.684046e-02 -2.315293e-02 -2.429799e-02 5.696359e-02 6.980475e-02 6.785677e-02 2.933451e-02
<VARIANCE> 39
 4.375929e+01 3.378169e+01 4.933830e+01 3.286484e+01 5.182418e+01 4.411117e+01 4.010180e+01 6.432301e+01 3.124076e+01 5.042457e+01 4.434681e+01 4.654247e+01 3.920964e+01 2.745797e+00 1.450341e+00 2.543019e+00 2.166640e+00 2.036333e+00 2.172654e+00 2.170991e+00 3.170549e+00 2.089945e+00 2.540415e+00 2.152298e+00 2.731703e+00 1.706678e+00 3.650977e-01 2.445276e-01 3.573128e-01 4.288358e-01 3.320350e-01 2.791130e-01 3.272167e-01 4.735590e-01 4.098051e-01 4.053191e-01 3.005931e-01 3.730990e-01 1.664679e-01
<GCONST> 1.167893e+02
<STATE> 3
<MEAN> 39
 -5.066199e+00 6.800865e+00 -5.770423e+00 -1.106948e+01 -1.553023e+00 -1.566065e+01 -8.148984e+00 -1.491723e+01 -5.724299e+00 -5.842565e+00 1.597471e+00 -1.469220e+00 6.832951e+01 -8.512529e-01 1.027753e+00 -3.966103e-01 6.108908e-02 5.120816e-01 -1.382944e+00 1.722227e-01 -2.064259e-01 1.255958e-01 1.418162e-01 -1.250865e-01 3.196444e-01 5.570771e-01 -2.215694e-01 -6.446462e-02 5.834799e-02 1.864699e-01 1.701403e-01 1.324898e-01 1.474032e-01 8.993531e-02 4.091467e-02 -9.487164e-02 -1.135237e-01 -1.703846e-01 -7.390842e-02
<VARIANCE> 39
 8.445170e+01 4.224221e+01 3.524911e+01 8.803604e+01 7.257370e+01 1.241784e+02 7.196426e+01 3.644881e+01 5.498108e+01 6.416110e+01 9.743412e+01 4.497955e+01 8.515812e+00 7.204729e+00 2.745554e+00 2.295799e+00 5.918381e+00 5.544333e+00 4.982512e+00 6.302754e+00 3.933701e+00 3.691853e+00 3.958121e+00 5.476068e+00 4.676933e+00 6.190541e-01 5.940630e-01 4.734981e-01 3.970802e-01 5.978323e-01 7.342280e-01 8.672032e-01 8.252239e-01 6.647727e-01 6.435757e-01 6.854465e-01 8.789767e-01 8.659600e-01 9.255775e-02
<GCONST> 1.339101e+02
<STATE> 4
<MEAN> 39
 -2.415473e+01 8.103976e+00 -5.396097e+00 -7.530487e-01 6.503890e+00 -1.552486e+01 3.996688e+00 -8.108338e+00 -4.702251e-01 -7.548366e+00 -8.205538e-01 -4.768282e+00 6.365269e+01 1.902292e-01 -7.989144e-01 2.244163e-01 2.590806e-03 -1.556896e-01 9.269358e-01 7.010307e-02 2.896965e-01 1.403530e-01 -4.514927e-02 6.453728e-02 -2.560846e-01 -5.041644e-01 6.570588e-02 -4.190431e-02 -2.462448e-03 -3.347535e-02 -2.645426e-02 3.649661e-03 -4.523370e-02 -1.013929e-02 4.466698e-03 1.524738e-02 1.729056e-02 1.828586e-02 -6.474552e-03
<VARIANCE> 39
 1.905918e+01 9.552767e+01 1.803262e+01 4.186446e+01 4.637659e+01 1.065660e+02 3.751941e+01 3.557935e+01 3.409653e+01 6.284699e+01 3.237252e+01 3.149579e+01 3.177491e+01 4.085233e-01 6.648938e-01 5.740052e-01 9.463021e-01 9.882784e-01 1.549984e+00 1.559331e+00 1.462432e+00 1.660998e+00 2.025942e+00 1.274406e+00 1.445083e+00 1.220399e-01 4.125259e-02 6.969769e-02 9.920677e-02 1.424969e-01 1.577913e-01 2.705148e-01 2.436555e-01 2.720284e-01 2.964614e-01 3.421988e-01 2.409264e-01 2.664748e-01 1.562262e-02
<GCONST> 9.345522e+01
<TRANSP> 5
 0.000000e+00 1.000000e+00 0.000000e+00 0.000000e+00 0.000000e+00
 0.000000e+00 9.652902e-01 3.470979e-02 0.000000e+00 0.000000e+00
 0.000000e+00 0.000000e+00 9.403256e-01 5.967439e-02 0.000000e+00
 0.000000e+00 0.000000e+00 0.000000e+00 9.674079e-01 3.259208e-02
 0.000000e+00 0.000000e+00 0.000000e+00 0.000000e+00 0.000000e+00
<ENDHMM>
