~o
<STREAMINFO> 1 39
<VECSIZE> 39<NULLD><MFCC_D_A_0><DIAGC>
~h "tiga"
<BEGINHMM>
<NUMSTATES> 5
<STATE> 2
<MEAN> 39
 -9.266326e+00 8.983478e-01 1.434431e+01 -3.085279e+00 -9.192547e+00 -1.176185e+01 -4.291358e+00 -1.346224e+01 -7.752943e+00 -6.538444e+00 1.760904e+00 -8.159801e+00 6.563314e+01 5.282434e-01 -1.067903e-01 4.481111e-01 1.989953e-01 -8.234422e-01 -7.432209e-01 -1.509047e-02 1.912679e-01 -1.404764e-01 -1.206049e-01 2.104825e-01 7.330412e-02 6.260581e-01 2.814019e-02 -7.131979e-02 -9.551378e-02 -1.944382e-02 6.287847e-02 5.525789e-02 -6.100106e-03 1.403037e-01 9.423773e-02 -3.623145e-02 -1.142632e-01 -1.402238e-02 8.462342e-03
<VARIANCE> 39
 2.356749e+01 4.378600e+01 1.368526e+02 7.082599e+01 1.553776e+02 9.728699e+01 7.696706e+01 1.110966e+02 4.312148e+01 5.213937e+01 7.944815e+01 5.149599e+01 2.801588e+01 1.979318e+00 3.402983e+00 8.246091e+00 3.397431e+00 9.226266e+00 5.989347e+00 5.793256e+00 7.589046e+00 4.842137e+00 3.403093e+00 5.636889e+00 3.235242e+00 1.748158e+00 3.349152e-01 4.298564e-01 1.151917e+00 5.234926e-01 1.610597e+00 1.092939e+00 9.651226e-01 1.028437e+00 8.190580e-01 6.380321e-01 1.057783e+00 5.030574e-01 2.071384e-01
<GCONST> 1.403996e+02
<STATE> 3
<MEAN> 39
 -1.437733e+00 -1.398727e+01 -2.474733e-01 -4.444167e+00 -1.033778e+01 -1.635684e+01 -2.340507e+00 3.200197e+00 -1.127885e-02 -1.026398e+01 -6.599378e+00 -8.559475e+00 7.470806e+01 -9.274368e-02 -7.627723e-02 -1.081457e+00 -5.358133e-01 1.250476e+00 1.061756e+00 -4.379283e-01 1.616170e-02 4.255910e-01 -2.512404e-01 -1.490563e+00 -4.986737e-01 -3.940443e-01 -1.206754e-01 2.393763e-01 2.142701e-01 5.670141e-02 -9.355411e-02 -1.002148e-01 4.617757e-03 -3.298526e-01 -1.938712e-01 2.332611e-02 2.368115e-01 5.673629e-02 -1.605328e-01
<VARIANCE> 39
 3.693986e+00 1.563882e+01 6.761349e+01 3.368357e+01 1.692480e+02 1.139637e+02 5.013786e+01 1.264251e+02 6.326180e+01 3.721067e+01 1.401365e+02 5.007469e+01 9.077453e+00 2.717178e-01 1.443256e+00 1.724379e+00 1.359301e+00 2.164999e+00 2.393234e+00 1.634936e+00 3.482633e+00 2.301075e+00 2.237823e+00 2.509866e+00 1.559826e+00 5.020682e-01 2.830780e-02 1.011697e-01 1.616637e-01 1.882217e-01 3.014835e-01 2.371732e-01 2.989374e-01 4.555478e-01 3.019156e-01 3.134299e-01 2.437395e-01 2.401151e-01 2.352895e-02
<GCONST> 1.036015e+02
<STATE> 4
<MEAN> 39
 -1.105495e+01 -4.610763e+00 -4.187098e+00 -5.950765e+00 5.270855e-01 -5.238022e+00 -1.435379e+00 -3.169219e+00 2.580106e+00 -1.156320e+01 -7.737606e+00 -9.044281e+00 6.054725e+01 -6.695480e-01 3.514833e-01 -1.153167e-01 -8.747195e-02 6.819448e-01 7.821318e-01 3.912974e-01 -1.316932e-01 2.416310e-01 2.584260e-01 3.246091e-01 4.517576e-03 -7.153521e-01 2.625063e-02 -6.992042e-02 -3.041056e-02 -2.673924e-02 4.192153e-04 1.986129e-02 6.276411e-03 7.710568e-02 4.590498e-02 5.567313e-02 -8.347896e-03 -1.046196e-02 6.263463e-02
<VARIANCE> 39
 2.068689e+01 1.419482e+01 1.538746e+01 2.110299e+01 5.832120e+01 5.420218e+01 2.210473e+01 4.239445e+01 3.170655e+01 4.108303e+01 3.945004e+01 3.432190e+01 1.974359e+01 1.341738e-01 4.555312e-01 5.663717e-01 9.705860e-01 1.095096e+00 1.414462e+00 1.306735e+00 1.720139e+00 1.650082e+00 1.383781e+00 1.507904e+00 1.922158e+00 1.570688e-01 1.708170e-02 4.518070e-02 8.045170e-02 1.257600e-01 1.612166e-01 1.674495e-01 2.707763e-01 2.764577e-01 2.364519e-01 2.063379e-01 1.991321e-01 2.868259e-01 6.358521e-03
<GCONST> 8.439739e+01
<TRANSP> 5
 0.000000e+00 1.000000e+00 0.000000e+00 0.000000e+00 0.000000e+00
 0.000000e+00 9.656451e-01 3.435485e-02 0.000000e+00 0.000000e+00
 0.000000e+00 0.000000e+00 9.244817e-01 7.551835e-02 0.000000e+00
 0.000000e+00 0.000000e+00 0.000000e+00 9.509809e-01 4.901907e-02
 0.000000e+00 0.000000e+00 0.000000e+00 0.000000e+00 0.000000e+00
<ENDHMM>
