~o
<STREAMINFO> 1 39
<VECSIZE> 39<NULLD><MFCC_D_A_0><DIAGC>
~h "dua"
<BEGINHMM>
<NUMSTATES> 5
<STATE> 2
<MEAN> 39
 -8.568089e+00 1.131589e+00 4.608663e+00 6.081895e-01 2.327100e-01 -9.033808e+00 -7.846754e+00 -1.283144e+01 -5.025080e+00 -8.976608e+00 -1.035967e+00 -7.710666e+00 6.139024e+01 1.473830e+00 1.004612e+00 4.382526e-01 4.572113e-02 -2.793893e-01 -6.076970e-01 -1.423669e+00 -1.304462e+00 -7.939494e-01 4.134852e-01 6.330690e-01 9.121426e-02 8.693593e-01 -1.376245e-03 -1.559788e-02 -1.706255e-01 -2.063063e-01 -1.618508e-02 1.322173e-01 1.271334e-01 -3.588019e-03 -4.036783e-02 2.540526e-02 1.283286e-01 1.300672e-01 -1.877600e-02
<VARIANCE> 39
 4.581319e+01 3.809169e+01 4.912375e+01 2.840711e+01 3.067779e+01 5.672303e+01 9.033482e+01 8.330296e+01 3.800321e+01 4.992415e+01 6.306148e+01 4.163729e+01 2.024703e+01 9.823744e-01 2.754060e+00 5.067775e+00 4.140951e+00 3.339594e+00 5.051353e+00 4.376349e+00 3.823183e+00 4.785601e+00 7.450206e+00 6.853129e+00 4.415041e+00 5.533714e-01 2.109133e-01 5.104104e-01 6.582772e-01 5.186262e-01 6.347510e-01 1.067510e+00 1.054174e+00 8.324494e-01 9.726202e-01 1.512750e+00 1.010167e+00 6.706110e-01 1.141869e-01
<GCONST> 1.312770e+02
<STATE> 3
<MEAN> 39
 1.859700e+00 -1.120295e+00 -5.251903e+00 -1.241662e+01 -3.774508e+00 -3.686107e+00 -9.087321e+00 -1.519566e+01 -4.414554e+00 -2.353009e+00 1.641328e+00 -6.965401e+00 7.001733e+01 -1.089229e-01 -4.986976e-01 -3.572489e-01 -2.950570e-01 5.350554e-02 3.216927e-01 3.460121e-01 4.885153e-01 4.560541e-01 -1.486362e-01 -7.264322e-01 -3.519920e-01 7.217024e-02 -4.908012e-02 1.628391e-02 6.939334e-02 9.948739e-02 7.123074e-03 -8.127848e-02 -1.640286e-02 2.672800e-02 3.106779e-02 -2.484818e-02 -2.119444e-02 -1.939462e-02 -4.156675e-02
<VARIANCE> 39
 5.579743e+00 9.541970e+01 8.038939e+01 2.810055e+01 4.537428e+01 8.488212e+01 3.234356e+01 1.060854e+02 1.071449e+02 5.922017e+01 1.233467e+02 9.347630e+01 1.748473e+01 2.755493e-01 1.648165e+00 1.349254e+00 1.041858e+00 1.328070e+00 2.412736e+00 2.199626e+00 3.493771e+00 3.622920e+00 3.931252e+00 3.238547e+00 3.679661e+00 4.515621e-01 3.652138e-02 1.524092e-01 1.784753e-01 1.237628e-01 1.974278e-01 2.902086e-01 3.034359e-01 4.919989e-01 4.781718e-01 5.230564e-01 5.550033e-01 5.262889e-01 3.386641e-02
<GCONST> 1.103708e+02
<STATE> 4
<MEAN> 39
 -9.982397e+00 -4.943164e+00 -4.768028e+00 -7.681697e+00 -8.891026e-01 -4.951041e+00 -1.755970e+00 -5.701796e+00 1.043650e+00 -9.447398e+00 -6.445708e+00 -9.191550e+00 6.139653e+01 -6.824620e-01 2.211041e-01 2.475943e-01 3.017020e-01 5.283005e-02 3.737551e-02 6.278246e-01 1.902332e-01 -3.151893e-01 -2.006224e-01 5.797791e-01 4.425840e-01 -6.287493e-01 1.876948e-02 -6.028668e-02 -2.450792e-02 -3.968771e-02 -9.201910e-03 8.811472e-02 2.481313e-02 2.988329e-02 2.596756e-02 5.032002e-02 1.409548e-02 6.371087e-03 4.711783e-02
<VARIANCE> 39
 2.271861e+01 1.268646e+01 2.413943e+01 1.736647e+01 1.372977e+01 3.438981e+01 3.242299e+01 3.718648e+01 2.290198e+01 2.167982e+01 4.541247e+01 3.143555e+01 1.522121e+01 1.527292e-01 4.990917e-01 6.147462e-01 7.307198e-01 1.138029e+00 1.808796e+00 1.324458e+00 1.743821e+00 1.316880e+00 1.446154e+00 1.614056e+00 1.148493e+00 1.340739e-01 1.886812e-02 5.701137e-02 9.696402e-02 1.122569e-01 1.636474e-01 2.083267e-01 2.188734e-01 2.614011e-01 2.023559e-01 2.457949e-01 2.372494e-01 1.974131e-01 6.484801e-03
<GCONST> 8.156699e+01
<TRANSP> 5
 0.000000e+00 1.000000e+00 0.000000e+00 0.000000e+00 0.000000e+00
 0.000000e+00 9.201081e-01 7.989191e-02 0.000000e+00 0.000000e+00
 0.000000e+00 0.000000e+00 9.666662e-01 3.333382e-02 0.000000e+00
 0.000000e+00 0.000000e+00 0.000000e+00 9.515740e-01 4.842606e-02
 0.000000e+00 0.000000e+00 0.000000e+00 0.000000e+00 0.000000e+00
<ENDHMM>
