~o
<STREAMINFO> 1 39
<VECSIZE> 39<NULLD><MFCC_D_A_0><DIAGC>
~h "enam"
<BEGINHMM>
<NUMSTATES> 5
<STATE> 2
<MEAN> 39
 -5.158389e+00 -2.967951e+00 4.806628e-01 -3.205960e+00 -9.474606e-01 -9.692029e+00 -5.699150e+00 -6.037606e+00 -4.083343e-01 -9.624860e+00 -3.469877e+00 -5.495393e+00 6.516997e+01 7.825672e-01 -2.075253e-01 -1.966942e-01 -8.218403e-02 1.758373e-01 -1.665734e-01 -4.349927e-01 1.354226e-01 6.566295e-02 -1.429492e-01 -2.420741e-01 -6.137455e-02 7.015194e-01 2.736906e-03 -8.300880e-03 -1.610155e-02 -6.936810e-03 2.870013e-02 6.451878e-03 1.023166e-02 -8.468519e-03 -2.185551e-02 -2.463181e-02 2.809804e-03 2.422069e-02 8.168272e-03
<VARIANCE> 39
 7.454247e+01 6.186274e+01 5.696241e+01 2.580111e+01 5.261334e+01 6.315371e+01 6.309696e+01 7.420015e+01 4.124009e+01 9.285133e+01 1.015947e+02 4.914148e+01 4.539778e+01 1.660656e+00 4.174263e+00 3.150142e+00 2.367592e+00 3.698529e+00 3.323661e+00 3.321104e+00 4.437335e+00 3.396744e+00 4.294919e+00 3.814647e+00 3.351825e+00 1.355252e+00 2.394837e-01 5.719871e-01 4.155031e-01 3.891185e-01 5.014587e-01 4.914706e-01 5.700924e-01 6.906977e-01 6.385335e-01 7.072231e-01 5.618573e-01 4.884176e-01 2.281356e-01
<GCONST> 1.295167e+02
<STATE> 3
<MEAN> 39
 1.546846e+00 -3.806633e+00 -3.994919e+00 -5.737576e+00 1.983919e+00 -5.632229e+00 -8.489123e+00 -1.180846e+01 -1.987488e+00 -1.203686e+01 -3.619679e+00 -7.154788e+00 7.033321e+01 -2.288977e-01 6.062900e-01 3.874940e-01 1.573772e-01 -5.119571e-02 2.170959e-01 2.159122e-01 -5.515996e-01 -4.085276e-01 -5.535328e-02 1.209569e-01 2.399215e-02 -4.106165e-01 -4.319213e-02 7.197804e-03 2.323128e-02 2.606720e-02 -1.730910e-02 -1.660565e-03 1.507189e-02 3.934193e-02 3.508579e-02 3.466399e-02 2.082255e-03 -1.435973e-02 -3.606874e-02
<VARIANCE> 39
 5.048813e+00 5.532388e+01 5.606353e+01 2.423699e+01 4.732216e+01 4.005412e+01 5.042815e+01 1.019265e+02 8.994391e+01 5.821274e+01 7.946729e+01 5.122285e+01 1.899124e+01 2.261595e-01 1.288461e+00 1.428033e+00 1.103605e+00 1.361345e+00 1.117270e+00 1.836378e+00 2.760723e+00 2.324988e+00 1.513888e+00 1.518014e+00 1.465524e+00 2.692918e-01 2.259820e-02 1.436883e-01 2.075523e-01 1.562685e-01 1.956060e-01 1.954677e-01 3.556626e-01 3.898645e-01 3.526515e-01 2.988020e-01 3.002611e-01 2.145213e-01 2.416622e-02
<GCONST> 9.933147e+01
<STATE> 4
<MEAN> 39
 -1.229251e+01 -5.805784e-01 2.024249e+00 -1.234862e+00 3.453876e+00 -1.136220e+00 1.309399e+00 -9.443983e+00 -4.188673e+00 -9.575111e+00 -1.491490e+00 -7.367507e+00 5.878233e+01 -4.500463e-01 -3.598915e-01 -1.905919e-01 -7.178311e-02 -5.901493e-02 6.120272e-03 1.872594e-01 3.555616e-01 2.653683e-01 1.600789e-01 1.210082e-01 5.861461e-02 -2.302071e-01 3.095826e-02 -9.993204e-03 -1.842124e-02 -2.149695e-02 -3.975542e-03 -3.166343e-03 -2.679364e-02 -3.416272e-02 -1.101243e-02 1.488936e-02 1.730168e-02 3.858832e-03 2.270963e-02
<VARIANCE> 39
 1.589137e+01 1.896687e+01 1.878445e+01 2.551905e+01 2.682638e+01 2.977570e+01 3.145441e+01 4.452725e+01 4.268754e+01 3.347744e+01 3.071103e+01 2.614464e+01 3.881219e+00 2.207515e-01 4.320120e-01 6.899270e-01 1.136652e+00 1.239131e+00 1.412034e+00 1.643478e+00 2.322091e+00 1.698015e+00 1.939946e+00 1.869243e+00 1.737905e+00 1.023678e-01 2.681369e-02 9.643121e-02 1.349649e-01 1.960417e-01 2.016226e-01 2.433522e-01 2.985313e-01 4.601509e-01 3.300004e-01 3.740661e-01 3.472826e-01 3.339437e-01 1.197973e-02
<GCONST> 8.893127e+01
<TRANSP> 5
 0.000000e+00 1.000000e+00 0.000000e+00 0.000000e+00 0.000000e+00
 0.000000e+00 9.604263e-01 3.957367e-02 0.000000e+00 0.000000e+00
 0.000000e+00 0.000000e+00 9.624319e-01 3.756810e-02 0.000000e+00
 0.000000e+00 0.000000e+00 0.000000e+00 9.660392e-01 3.396079e-02
 0.000000e+00 0.000000e+00 0.000000e+00 0.000000e+00 0.000000e+00
<ENDHMM>
