~o
<STREAMINFO> 1 39
<VECSIZE> 39<NULLD><MFCC_D_A_0><DIAGC>
~h "kurang"
<BEGINHMM>
<NUMSTATES> 20
<STATE> 2
<MEAN> 39
 -1.698380e+01 -6.447705e+00 -2.893770e+00 -5.216035e+00 3.283713e-01 -3.629352e+00 3.618201e-01 -5.614937e+00 1.432704e-01 -5.845502e+00 2.759427e-01 -6.055076e+00 5.681978e+01 5.640751e-01 -3.441292e-01 -1.285939e+00 -1.463291e+00 -4.607068e-01 4.183249e-01 3.465739e-01 4.810764e-01 -4.781744e-02 2.641641e-01 8.142536e-01 8.201205e-01 4.626211e-01 2.601258e-01 -1.180818e-01 -5.340314e-01 -4.525084e-01 -3.030437e-01 -1.219501e-01 2.419805e-01 1.265023e-01 -6.338205e-02 -2.003522e-01 1.135700e-01 3.902714e-01 2.005920e-01
<VARIANCE> 39
 9.526092e-01 1.576719e+00 5.051490e+00 7.062684e+00 9.052071e+00 1.299214e+01 1.724729e+01 1.774230e+01 2.086291e+01 1.074234e+01 1.589570e+01 1.233501e+01 2.275535e-01 4.251158e-01 7.925716e-01 2.655006e+00 3.811368e+00 3.716103e+00 3.464283e+00 3.278069e+00 5.298538e+00 4.921122e+00 4.041400e+00 1.610843e+00 1.994180e+00 2.008682e-01 1.093729e-01 2.124313e-01 3.574996e-01 5.547071e-01 3.992535e-01 3.249949e-01 5.351208e-01 9.386641e-01 7.705603e-01 6.166643e-01 4.178194e-01 3.013550e-01 1.816751e-02
<GCONST> 8.961313e+01
<STATE> 3
<MEAN> 39
 -1.337336e+01 -8.407014e+00 -9.933552e+00 -1.015877e+01 -1.744538e+00 -3.850581e+00 2.697741e+00 -4.943974e+00 -2.175024e+00 -7.766979e+00 3.857314e+00 -1.039996e+00 5.965614e+01 1.997546e+00 1.789245e+00 3.095751e-01 -6.665477e-01 -1.132452e+00 -7.472807e-01 -9.801694e-01 -1.476583e+00 -1.264822e+00 -5.577540e-01 2.741436e-01 4.348582e-01 9.143192e-01 5.433906e-01 8.500805e-01 7.872564e-01 2.328797e-01 -2.501720e-01 -3.589989e-01 -6.369233e-01 -4.396036e-01 -2.864113e-01 -4.271425e-02 8.291502e-02 -6.596567e-02 2.105853e-01
<VARIANCE> 39
 1.174526e+01 2.612288e+01 3.263930e+01 7.177587e+01 5.066234e+01 7.807780e+01 2.227002e+01 9.695635e+01 5.942579e+01 3.968507e+01 2.440030e+01 4.156344e+01 1.809875e+00 2.260671e+00 4.896052e+00 7.280363e+00 4.588639e+00 2.428268e+00 4.398640e+00 3.545660e+00 4.762566e+00 3.333436e+00 2.700243e+00 2.402944e+00 3.224386e+00 5.049766e-01 1.776421e-01 3.764336e-01 1.095450e+00 9.199239e-01 4.532251e-01 9.451481e-01 5.973923e-01 7.046087e-01 7.099637e-01 7.007957e-01 7.396398e-01 7.855632e-01 8.556177e-02
<GCONST> 1.229632e+02
<STATE> 4
<MEAN> 39
 9.035457e-01 6.813673e+00 -4.591333e+00 -1.543081e+01 -9.865296e+00 -7.577495e+00 -5.711663e+00 -1.333691e+01 -9.649655e+00 -9.715148e+00 5.798805e+00 1.397773e+00 6.630238e+01 2.754348e+00 1.938897e+00 -2.923564e-01 -1.480789e+00 -8.149673e-01 7.113310e-01 -1.188874e+00 -1.444945e+00 -1.613732e+00 6.696122e-02 1.652244e+00 1.290732e+00 1.658974e+00 -7.744195e-01 -1.088698e+00 -7.959312e-01 -3.489555e-03 7.629916e-01 9.516466e-01 4.590949e-01 8.068516e-02 3.691271e-01 5.543031e-01 2.588521e-01 -8.144969e-02 -2.798650e-01
<VARIANCE> 39
 8.573627e+00 9.204851e+00 2.162958e+01 2.400657e+01 5.948885e+01 2.999697e+01 2.090039e+01 7.663464e+01 3.009345e+01 2.545062e+01 4.238804e+01 3.652787e+01 4.219405e+00 1.907435e+00 3.023079e+00 3.092747e+00 1.191161e+00 2.903847e+00 5.141294e+00 3.557808e+00 2.128393e+00 2.539101e+00 3.951981e+00 3.804783e+00 4.376721e+00 4.480993e-01 1.464649e-01 1.070833e-01 2.243327e-01 3.413729e-01 4.363275e-01 2.854611e-01 3.204026e-01 3.289159e-01 3.845743e-01 7.097831e-01 4.917414e-01 3.551181e-01 6.338067e-02
<GCONST> 1.078293e+02
<STATE> 5
<MEAN> 39
 4.074191e+00 6.235134e+00 -8.204437e+00 -1.891111e+01 -7.062467e+00 1.243895e+00 -6.582806e+00 -1.815113e+01 -1.259112e+01 -5.084402e+00 1.460610e+01 5.583504e+00 6.932799e+01 3.224885e-02 -1.139508e+00 -9.885117e-01 1.821650e-01 1.176359e+00 9.909948e-01 -1.175972e+00 -1.536291e+00 9.724869e-01 2.627478e+00 1.168272e+00 -1.046928e+00 3.730581e-01 -2.684378e-01 -3.642722e-01 1.626421e-01 6.733521e-01 2.844968e-01 -6.907353e-01 -3.080825e-01 1.993078e-01 7.627698e-01 2.581224e-01 -7.745139e-01 -8.778157e-01 -1.541159e-01
<VARIANCE> 39
 1.373474e+00 9.748611e+00 4.633798e+01 1.456408e+01 6.273441e+01 4.639617e+01 3.694083e+01 3.884010e+01 2.931050e+01 9.405288e+01 4.510174e+01 3.656688e+01 2.482002e+00 1.690498e-01 7.727715e-01 5.437989e-01 1.404828e+00 2.169635e+00 1.889473e+00 1.766521e+00 3.012337e+00 3.568318e+00 5.626932e+00 3.634266e+00 3.331944e+00 5.787276e-02 7.062484e-02 1.396745e-01 1.983295e-01 1.667309e-01 2.235807e-01 1.534185e-01 3.165697e-01 3.414118e-01 5.179099e-01 1.297871e+00 6.477832e-01 4.687114e-01 3.860560e-02
<GCONST> 9.722309e+01
<STATE> 6
<MEAN> 39
 3.433556e+00 -3.219999e-01 -1.074531e+01 -1.220303e+01 2.141098e-01 -2.585494e+00 -1.563353e+01 -2.333713e+01 -3.445124e+00 4.107449e+00 9.533762e+00 -6.301744e+00 6.990196e+01 -6.440951e-01 -1.371763e+00 5.524471e-01 2.713125e+00 1.367042e+00 -2.172361e+00 -9.971880e-01 1.148262e+00 1.711320e+00 -3.299862e-01 -2.116928e+00 -2.250960e+00 -3.020631e-01 -2.178753e-01 -5.001963e-03 3.749019e-01 1.817983e-01 -5.799283e-01 -5.273575e-01 8.387824e-01 1.096232e+00 -5.420963e-01 -1.229138e+00 -7.969574e-02 4.897380e-01 -1.422889e-01
<VARIANCE> 39
 1.950921e+00 7.844986e+00 4.391233e+01 2.031811e+01 5.555048e+01 6.501850e+01 5.129214e+01 5.077652e+01 3.465280e+01 5.430565e+01 6.216657e+01 3.564133e+01 3.570911e+00 4.464091e-01 1.020019e+00 1.131712e+00 1.484983e+00 2.680822e+00 1.340130e+00 4.349654e+00 4.837707e+00 4.846819e+00 6.657233e+00 2.568005e+00 4.419763e+00 3.894522e-01 8.916631e-02 1.786058e-01 1.678027e-01 2.598333e-01 4.303386e-01 2.477327e-01 4.873235e-01 3.707209e-01 7.122902e-01 5.822684e-01 4.750107e-01 5.239734e-01 7.965426e-02
<GCONST> 1.067671e+02
<STATE> 7
<MEAN> 39
 -2.149313e-01 -5.167221e+00 -7.487662e+00 -3.289850e+00 -5.644731e-01 -1.238902e+01 -1.208138e+01 -1.186359e+01 -2.653416e+00 -3.227758e+00 5.146778e+00 -9.534230e+00 6.844696e+01 1.649028e-01 -2.375582e+00 -4.581200e-01 1.414355e+00 -6.947157e-01 -1.665598e+00 1.569733e+00 3.116306e+00 5.219984e-01 -9.906484e-01 -1.023336e+00 -1.029684e+00 6.962973e-01 5.657208e-01 -2.806183e-01 -6.254271e-01 -6.832485e-01 -1.180396e-01 8.361402e-01 1.684697e-01 -2.133804e-01 2.054678e-01 6.437567e-01 1.245216e-01 -4.011461e-02 5.055759e-01
<VARIANCE> 39
 5.176344e+00 2.052577e+01 4.963757e+01 3.599907e+01 3.900996e+01 5.629921e+01 1.115152e+02 5.586148e+01 5.347596e+01 3.291687e+01 1.011881e+02 1.990846e+01 3.928632e+00 1.523102e+00 9.162913e-01 2.205606e+00 2.083571e+00 1.616486e+00 2.012950e+00 3.414170e+00 2.840069e+00 4.668179e+00 4.614395e+00 1.783299e+00 5.298296e+00 8.883859e-01 1.508081e-01 3.196112e-01 1.708278e-01 3.165010e-01 4.762480e-01 3.051307e-01 6.459672e-01 6.218158e-01 1.082124e+00 4.711179e-01 4.833582e-01 7.852976e-01 1.100846e-01
<GCONST> 1.145801e+02
<STATE> 8
<MEAN> 39
 3.948947e+00 -1.471271e+01 -1.218107e+01 -2.148863e+00 -8.874068e-01 -1.103613e+01 -5.390457e+00 -3.049735e+00 1.261266e+00 -7.688630e-01 1.575275e+00 -1.498467e+01 7.415454e+01 3.270719e-01 -1.647889e+00 -4.167285e-01 -3.493563e-01 4.887405e-03 1.509903e+00 1.187106e+00 1.310772e+00 9.737942e-01 -5.547388e-02 -1.247080e+00 -4.601777e-01 9.637831e-01 -3.334548e-01 4.474160e-01 4.038466e-01 -1.958470e-01 4.727668e-02 3.626786e-01 -2.584106e-01 -5.271099e-01 -1.954270e-01 -9.959820e-02 -1.716065e-02 3.557575e-01 -2.575926e-01
<VARIANCE> 39
 2.627518e+00 9.932655e+00 6.103229e+01 2.663847e+01 5.488237e+01 5.245749e+01 7.281734e+01 5.814257e+01 5.835706e+01 9.295871e+01 8.598870e+01 4.212967e+01 5.584081e+00 8.356952e-01 1.766211e+00 2.553061e+00 1.920380e+00 2.042777e+00 2.110716e+00 2.944592e+00 3.168130e+00 3.204129e+00 2.754026e+00 1.599139e+00 1.846400e+00 4.574384e-01 6.373946e-02 9.835889e-02 2.142926e-01 1.809338e-01 2.472062e-01 3.445273e-01 4.005803e-01 4.195317e-01 4.914932e-01 6.811317e-01 2.950452e-01 3.511880e-01 3.196605e-02
<GCONST> 1.059411e+02
<STATE> 9
<MEAN> 39
 1.666576e+00 -1.794470e+01 -1.080483e+01 -4.950034e+00 -9.314343e+00 9.270273e-01 -2.277771e+00 -7.732483e+00 4.638771e+00 3.939129e-01 -3.980564e+00 -1.030181e+01 7.587682e+01 -1.989971e-01 3.474571e-01 1.969102e-01 -3.048119e-01 3.724053e-01 2.119984e-01 -2.764096e-03 1.219723e-02 2.809101e-01 -2.049916e-01 -5.477695e-01 2.561924e-01 -2.163355e-01 8.188954e-02 3.919385e-01 -1.084911e-02 7.783945e-02 2.832637e-01 -3.242191e-01 -7.049267e-02 -1.502237e-02 -4.500998e-02 -6.421967e-02 1.671286e-01 -6.403205e-02 -1.832685e-01
<VARIANCE> 39
 2.162536e+00 1.006840e+01 5.445264e+01 1.552875e+01 1.338695e+02 9.394446e+01 2.311391e+01 1.051884e+02 5.871439e+01 5.368248e+01 3.678773e+01 4.675397e+01 4.557433e+00 1.267752e-01 5.687750e-01 6.385894e-01 1.039090e+00 2.049730e+00 1.829957e+00 9.814643e-01 1.648180e+00 2.255455e+00 1.557492e+00 2.063227e+00 1.144858e+00 2.148822e-01 2.219638e-02 6.355440e-02 1.802952e-01 1.741879e-01 1.835205e-01 1.852523e-01 1.647660e-01 4.183133e-01 5.137421e-01 2.560874e-01 2.672606e-01 2.558261e-01 2.183446e-02
<GCONST> 9.048180e+01
<STATE> 10
<MEAN> 39
 2.857722e+00 -1.109089e+01 -1.078897e+01 -6.640753e+00 3.513903e+00 -7.489712e+00 -5.476581e+00 -1.120757e+00 4.152140e+00 -4.430876e+00 -4.843674e+00 -1.421701e+01 7.263895e+01 -1.061377e-01 1.532776e+00 1.047336e-01 -5.706407e-01 1.098480e-01 7.474993e-02 -1.431834e-01 -9.906074e-01 -3.622636e-01 -4.801772e-01 -2.620454e-01 3.676898e-01 -6.993008e-01 -5.975017e-02 1.161787e-01 1.688562e-01 1.122546e-02 -1.078254e-01 -7.149857e-02 -8.786900e-02 -2.235533e-01 -3.793777e-01 -1.579980e-01 1.541646e-01 -1.108499e-03 -3.852146e-02
<VARIANCE> 39
 2.775053e+00 2.084122e+01 7.398315e+01 2.577589e+01 1.994444e+01 3.233289e+01 1.830853e+01 5.784418e+01 2.881436e+01 4.295305e+01 5.680433e+01 2.603016e+01 4.700365e+00 1.664826e-01 4.031162e-01 8.572119e-01 9.882894e-01 1.351830e+00 1.911277e+00 8.402119e-01 1.851911e+00 2.436013e+00 1.479449e+00 8.544732e-01 2.934483e+00 3.692299e-02 2.635851e-02 4.069894e-02 1.050614e-01 1.601187e-01 8.404619e-02 1.774210e-01 1.146012e-01 2.049225e-01 3.088823e-01 3.249578e-01 1.472462e-01 2.517200e-01 1.067993e-02
<GCONST> 8.110326e+01
<STATE> 11
<MEAN> 39
 1.317295e+00 -6.573900e+00 -7.266592e+00 -7.178797e+00 1.795082e+00 -3.029720e+00 -4.967418e+00 -8.900382e+00 -1.473336e+00 -8.948682e+00 -2.699651e+00 -9.921975e+00 7.005009e+01 -3.564101e-01 1.525668e+00 1.444661e+00 1.167669e-01 1.022588e+00 -3.135534e-03 -5.831249e-01 -1.949910e-01 -1.643525e+00 -8.843693e-01 9.169908e-01 -1.059190e-01 -6.792339e-01 -1.084503e-01 -5.611635e-02 4.894822e-02 1.910923e-01 -1.291862e-01 8.267742e-02 1.824999e-01 3.156672e-01 4.508467e-01 2.949167e-01 -6.847215e-02 1.681839e-01 -3.066552e-02
<VARIANCE> 39
 1.804208e+00 9.500233e+00 5.503773e+01 1.241718e+01 2.848325e+01 2.186411e+01 3.078683e+01 2.314274e+01 3.085598e+01 2.383876e+01 6.435847e+01 5.961541e+01 3.291565e+00 2.660019e-01 2.963230e-01 6.787744e-01 5.286252e-01 2.583254e+00 7.142116e-01 7.425343e-01 2.321277e+00 4.389554e+00 2.151640e+00 7.865670e-01 1.998476e+00 6.035048e-02 2.527705e-02 4.512348e-02 1.598190e-01 9.373154e-02 2.109145e-01 1.186001e-01 2.445081e-01 1.232715e-01 7.114941e-01 2.255237e-01 2.065952e-01 5.137313e-01 1.024022e-02
<GCONST> 8.075304e+01
<STATE> 12
<MEAN> 39
 -7.223722e-01 1.925623e+00 -1.148492e+00 -6.712475e+00 3.774208e+00 -4.808700e+00 -3.141609e+00 -3.423631e+00 1.044083e+00 -4.502157e+00 5.757998e-01 -7.931503e+00 6.659538e+01 -6.499473e-01 9.348704e-01 7.482043e-01 6.823344e-01 2.683655e-01 5.652105e-01 6.635959e-01 2.215266e-02 3.109199e-01 -3.395004e-01 -3.836182e-01 -9.565496e-02 -7.984740e-01 -3.935596e-02 -1.084403e-01 -2.177655e-03 1.121154e-01 -1.255676e-02 4.728686e-02 -3.385769e-03 -1.154247e-01 -1.837167e-01 -1.851536e-01 -1.372176e-01 -1.594867e-01 3.590960e-03
<VARIANCE> 39
 7.337833e+00 1.897801e+01 2.425043e+01 2.349537e+01 2.431956e+01 3.478144e+01 2.690330e+01 4.513234e+01 1.225371e+01 2.693756e+01 3.423880e+01 2.351222e+01 4.948934e+00 1.363693e-01 3.731680e-01 8.784045e-01 7.766890e-01 8.574070e-01 8.628353e-01 9.107907e-01 1.453438e+00 2.045538e+00 1.488747e+00 1.020419e+00 1.429225e+00 7.499397e-02 3.325969e-02 3.814610e-02 4.553456e-02 1.211937e-01 1.659123e-01 1.582301e-01 1.783019e-01 2.069297e-01 2.106670e-01 1.557741e-01 1.687604e-01 1.639449e-01 7.811483e-03
<GCONST> 7.574408e+01
<STATE> 13
<MEAN> 39
 -3.574189e+00 1.206981e+00 -2.398546e+00 -3.373077e+00 5.925440e+00 -2.057498e+00 -5.480434e+00 -1.435257e+01 -9.387838e+00 -2.009892e+01 -1.377737e+01 -1.806632e+01 6.378001e+01 -4.282191e-01 9.162759e-01 1.299967e+00 7.969708e-01 -1.013681e-01 -1.918849e-02 1.751647e-01 -7.179282e-01 -1.538732e+00 -8.723381e-01 -2.346958e-01 -3.785082e-01 -4.768909e-01 -1.315205e-02 -1.802282e-01 -1.771776e-01 -1.205619e-01 -4.980155e-02 -1.139071e-01 -4.463813e-02 8.978062e-02 1.643336e-01 2.528062e-01 9.486815e-02 3.887725e-02 6.207867e-02
<VARIANCE> 39
 5.268342e+00 1.393293e+01 2.578920e+01 8.714391e+00 9.448096e+00 1.035399e+01 1.705499e+01 4.080663e+01 6.771636e+01 6.458175e+01 6.085047e+01 2.799674e+01 2.407359e+00 2.982045e-01 2.351406e-01 7.019324e-01 6.386590e-01 5.050244e-01 9.863540e-01 1.409575e+00 1.225963e+00 1.039855e+00 9.214303e-01 6.557907e-01 8.019695e-01 1.092248e-01 4.392949e-02 4.033798e-02 7.981954e-02 1.061317e-01 9.641732e-02 2.243146e-01 2.588907e-01 1.532076e-01 1.801143e-01 1.354623e-01 1.661458e-01 2.401048e-01 1.702860e-02
<GCONST> 7.353401e+01
<STATE> 14
<MEAN> 39
 -4.615356e+00 3.854223e+00 1.747362e+00 -1.866070e+00 4.347042e+00 -2.760327e+00 -4.146720e+00 -1.198982e+01 -7.949855e+00 -1.647293e+01 -8.593972e+00 -1.494312e+01 6.264919e+01 -9.899569e-01 -3.292456e-02 3.949468e-01 1.402570e-01 7.071111e-02 -2.812088e-01 3.204233e-01 3.468764e-01 3.867832e-01 3.354533e-01 -9.150074e-02 -5.487178e-02 -5.675762e-01 -1.553239e-01 -3.015292e-01 -2.415054e-01 -1.962795e-01 9.290763e-02 -2.470333e-02 2.054957e-01 1.612567e-01 3.393400e-01 3.501520e-01 1.294837e-01 2.962964e-01 -8.892708e-03
<VARIANCE> 39
 3.034697e+00 8.640897e+00 1.364305e+01 1.020248e+01 1.227085e+01 1.177777e+01 1.308266e+01 6.922308e+01 8.930298e+01 7.865220e+01 7.283453e+01 4.149180e+01 1.353341e+00 2.340038e-01 3.717705e-01 2.187901e-01 3.665268e-01 7.306571e-01 7.055390e-01 8.067381e-01 1.578218e+00 1.051681e+00 6.427171e-01 1.954876e+00 9.728579e-01 6.216718e-02 2.109311e-02 5.129730e-02 4.886835e-02 1.173734e-01 1.043487e-01 1.855489e-01 7.262510e-02 2.169726e-01 1.705343e-01 1.365760e-01 2.774321e-01 1.982839e-01 5.464384e-03
<GCONST> 6.896776e+01
<STATE> 15
<MEAN> 39
 -9.324879e+00 2.772277e+00 2.810258e+00 -1.237588e+00 4.483410e+00 -3.038620e+00 -9.805475e-01 -1.032440e+01 -5.418750e+00 -1.314652e+01 -7.179561e+00 -1.205232e+01 6.037260e+01 -1.188082e+00 -4.386436e-01 4.605491e-02 9.257171e-02 -6.036614e-02 1.266969e-02 5.918071e-01 2.659771e-01 2.066033e-01 1.812942e-01 3.023767e-01 7.680665e-01 -5.423212e-01 6.165094e-02 -8.479182e-02 -8.405318e-03 -3.109510e-02 -1.218721e-01 1.146231e-01 -3.729316e-02 1.123840e-01 -6.564039e-03 -2.161635e-01 -3.847644e-02 -1.268440e-02 2.274762e-02
<VARIANCE> 39
 6.008424e+00 1.523341e+01 1.709699e+01 7.575161e+00 8.609512e+00 1.572399e+01 1.890124e+01 3.298278e+01 5.674474e+01 6.744600e+01 4.073328e+01 2.821668e+01 1.944463e+00 1.403801e-01 2.438073e-01 4.148228e-01 4.176829e-01 4.667552e-01 9.548833e-01 1.211117e+00 7.306566e-01 1.829197e+00 9.958141e-01 7.798669e-01 6.832290e-01 5.008503e-02 2.963500e-02 8.177856e-02 8.202603e-02 8.114979e-02 9.858583e-02 1.879803e-01 1.630895e-01 1.365507e-01 3.208423e-01 9.450220e-02 9.458389e-02 1.863930e-01 1.015595e-02
<GCONST> 6.832945e+01
<STATE> 16
<MEAN> 39
 -1.213205e+01 8.447714e-01 2.658647e+00 -1.831213e+00 3.892160e+00 -1.359894e+00 2.289795e+00 -4.320695e+00 1.999210e-01 -1.077226e+01 -4.754758e+00 -8.946603e+00 5.876838e+01 -5.919949e-01 -5.298094e-01 4.798852e-01 5.001236e-01 -3.983259e-01 4.719175e-01 6.544567e-01 8.169893e-01 1.587017e-01 -8.993248e-01 -5.328285e-01 -3.525694e-01 -4.277678e-01 1.197665e-01 7.840009e-02 7.376233e-02 2.355012e-01 1.863848e-01 4.341631e-02 4.410609e-02 -1.160680e-03 -1.591709e-01 1.068895e-01 8.461179e-02 -1.409865e-01 7.654321e-02
<VARIANCE> 39
 2.603519e+00 1.034656e+01 1.403485e+01 1.080349e+01 2.711991e+01 2.150235e+01 2.592046e+01 3.477913e+01 3.503980e+01 4.172600e+01 3.090189e+01 2.173291e+01 5.833181e-01 1.007120e-01 6.418829e-01 6.544314e-01 7.418165e-01 8.247936e-01 1.086672e+00 1.458702e+00 1.066622e+00 1.375498e+00 1.126030e+00 1.337632e+00 9.946349e-01 9.424105e-02 3.210979e-02 1.080249e-01 1.337142e-01 7.533588e-02 1.721310e-01 2.756010e-01 3.471788e-01 2.298366e-01 3.611310e-01 2.889984e-01 2.986593e-01 1.567962e-01 9.199619e-03
<GCONST> 7.580692e+01
<STATE> 17
<MEAN> 39
 -1.488365e+01 2.656748e-01 7.978822e+00 5.348416e+00 6.746282e+00 -1.084525e-01 6.112710e+00 1.814040e+00 4.815320e+00 -7.773218e+00 -3.872085e+00 -8.742163e+00 5.718835e+01 -1.950132e-01 -1.803644e-01 8.961195e-02 2.472235e-01 5.813220e-02 2.800364e-02 3.005273e-01 2.122078e-01 -7.192367e-02 1.001406e-01 2.105622e-01 2.885880e-01 -1.139220e-01 -2.014833e-02 -9.276051e-02 -1.858192e-01 -9.349152e-02 3.070252e-02 -3.501314e-02 -1.655739e-02 -2.499234e-02 2.599628e-02 4.466376e-02 -7.247028e-03 6.368132e-02 3.171327e-03
<VARIANCE> 39
 7.107460e+00 4.167970e+00 1.508137e+01 2.113736e+01 2.329827e+01 2.736237e+01 4.273497e+01 3.645033e+01 3.743402e+01 4.180659e+01 1.369333e+01 1.859346e+01 2.014536e+00 5.020061e-01 3.758430e-01 1.377319e+00 1.497098e+00 1.618932e+00 2.011431e+00 3.060587e+00 1.107013e+00 1.126004e+00 1.017072e+00 1.298221e+00 5.607336e-01 1.381142e-01 8.799855e-02 3.538451e-02 1.542774e-01 1.513212e-01 3.303535e-01 2.443937e-01 3.761823e-01 2.179812e-01 1.435031e-01 1.864831e-01 2.575389e-01 1.337744e-01 2.053837e-02
<GCONST> 8.210844e+01
<STATE> 18
<MEAN> 39
 -1.523535e+01 -1.664560e+00 3.681906e+00 2.589491e+00 6.739932e+00 1.083940e+00 6.380072e+00 -2.072118e+00 -2.859207e+00 -1.342373e+01 -5.299780e+00 -9.360847e+00 5.714964e+01 -6.464499e-01 -8.411474e-01 -4.241269e-01 3.090657e-01 5.511041e-01 5.232908e-01 5.117411e-01 1.732681e-01 2.767965e-01 3.926218e-01 1.469872e-01 6.270607e-02 -2.705213e-01 -4.812830e-03 -2.953366e-02 -9.680444e-03 -1.386486e-01 -5.680939e-02 5.432594e-02 -8.294810e-02 -3.853653e-02 1.511976e-01 1.737304e-01 1.855685e-02 -4.838402e-02 -2.010668e-02
<VARIANCE> 39
 1.245532e+00 4.274939e+00 7.660558e+00 9.417259e+00 2.835279e+01 1.382024e+01 3.519970e+01 9.163123e+01 4.376695e+01 3.174346e+01 2.400838e+01 2.352725e+01 2.765784e-01 7.974836e-02 4.203966e-01 6.648536e-01 4.496675e-01 7.695743e-01 1.092151e+00 9.606069e-01 1.622895e+00 9.591564e-01 8.603464e-01 1.230798e+00 1.426808e+00 4.042410e-02 7.958997e-03 6.222408e-02 9.360812e-02 1.671201e-01 1.302654e-01 1.669188e-01 2.307785e-01 3.054645e-01 2.516433e-01 2.149425e-01 1.609060e-01 2.647453e-01 6.424855e-03
<GCONST> 6.742632e+01
<STATE> 19
<MEAN> 39
 -1.888600e+01 -5.973370e+00 1.893904e+00 1.980873e+00 7.492824e+00 4.674238e+00 9.887471e+00 -5.002272e-01 -3.103015e-02 -9.699306e+00 -4.649087e+00 -1.012906e+01 5.541431e+01 -5.962129e-01 -7.342818e-01 -5.571364e-01 -3.757735e-01 7.650486e-02 4.022276e-01 5.086140e-01 5.079711e-01 4.358599e-01 5.985053e-01 6.840795e-02 -2.522691e-01 -2.371446e-01 7.027602e-02 1.048249e-01 -1.797208e-02 3.297820e-03 3.857637e-02 -5.381204e-02 -8.544450e-02 -1.335236e-02 -1.006721e-01 -1.515850e-01 -2.776536e-02 2.634710e-02 5.405376e-02
<VARIANCE> 39
 3.821497e+00 8.356552e+00 8.276198e+00 1.344197e+01 3.556347e+01 4.123239e+01 4.829607e+01 4.110176e+01 2.286395e+01 4.829690e+01 4.411113e+01 2.281988e+01 1.047138e+00 1.172528e-01 5.104339e-01 3.889197e-01 1.233014e+00 1.963704e+00 1.914829e+00 2.348912e+00 2.293774e+00 1.351161e+00 2.097881e+00 1.500158e+00 1.079807e+00 4.277715e-02 1.164190e-02 9.929751e-02 1.026118e-01 2.101998e-01 2.827384e-01 2.318343e-01 4.272895e-01 4.626341e-01 2.075396e-01 3.756730e-01 3.106310e-01 2.235878e-01 5.891073e-03
<GCONST> 8.123596e+01
<TRANSP> 20
 0.000000e+00 1.000000e+00 0.000000e+00 0.000000e+00 0.000000e+00 0.000000e+00 0.000000e+00 0.000000e+00 0.000000e+00 0.000000e+00 0.000000e+00 0.000000e+00 0.000000e+00 0.000000e+00 0.000000e+00 0.000000e+00 0.000000e+00 0.000000e+00 0.000000e+00 0.000000e+00
 0.000000e+00 6.919155e-01 3.080845e-01 0.000000e+00 0.000000e+00 0.000000e+00 0.000000e+00 0.000000e+00 0.000000e+00 0.000000e+00 0.000000e+00 0.000000e+00 0.000000e+00 0.000000e+00 0.000000e+00 0.000000e+00 0.000000e+00 0.000000e+00 0.000000e+00 0.000000e+00
 0.000000e+00 0.000000e+00 7.821701e-01 2.178299e-01 0.000000e+00 0.000000e+00 0.000000e+00 0.000000e+00 0.000000e+00 0.000000e+00 0.000000e+00 0.000000e+00 0.000000e+00 0.000000e+00 0.000000e+00 0.000000e+00 0.000000e+00 0.000000e+00 0.000000e+00 0.000000e+00
 0.000000e+00 0.000000e+00 0.000000e+00 7.148756e-01 2.851244e-01 0.000000e+00 0.000000e+00 0.000000e+00 0.000000e+00 0.000000e+00 0.000000e+00 0.000000e+00 0.000000e+00 0.000000e+00 0.000000e+00 0.000000e+00 0.000000e+00 0.000000e+00 0.000000e+00 0.000000e+00
 0.000000e+00 0.000000e+00 0.000000e+00 0.000000e+00 7.494364e-01 2.505636e-01 0.000000e+00 0.000000e+00 0.000000e+00 0.000000e+00 0.000000e+00 0.000000e+00 0.000000e+00 0.000000e+00 0.000000e+00 0.000000e+00 0.000000e+00 0.000000e+00 0.000000e+00 0.000000e+00
 0.000000e+00 0.000000e+00 0.000000e+00 0.000000e+00 0.000000e+00 7.119828e-01 2.880171e-01 0.000000e+00 0.000000e+00 0.000000e+00 0.000000e+00 0.000000e+00 0.000000e+00 0.000000e+00 0.000000e+00 0.000000e+00 0.000000e+00 0.000000e+00 0.000000e+00 0.000000e+00
 0.000000e+00 0.000000e+00 0.000000e+00 0.000000e+00 0.000000e+00 0.000000e+00 7.023047e-01 2.976953e-01 0.000000e+00 0.000000e+00 0.000000e+00 0.000000e+00 0.000000e+00 0.000000e+00 0.000000e+00 0.000000e+00 0.000000e+00 0.000000e+00 0.000000e+00 0.000000e+00
 0.000000e+00 0.000000e+00 0.000000e+00 0.000000e+00 0.000000e+00 0.000000e+00 0.000000e+00 7.583551e-01 2.416448e-01 0.000000e+00 0.000000e+00 0.000000e+00 0.000000e+00 0.000000e+00 0.000000e+00 0.000000e+00 0.000000e+00 0.000000e+00 0.000000e+00 0.000000e+00
 0.000000e+00 0.000000e+00 0.000000e+00 0.000000e+00 0.000000e+00 0.000000e+00 0.000000e+00 0.000000e+00 7.955271e-01 2.044729e-01 0.000000e+00 0.000000e+00 0.000000e+00 0.000000e+00 0.000000e+00 0.000000e+00 0.000000e+00 0.000000e+00 0.000000e+00 0.000000e+00
 0.000000e+00 0.000000e+00 0.000000e+00 0.000000e+00 0.000000e+00 0.000000e+00 0.000000e+00 0.000000e+00 0.000000e+00 7.813844e-01 2.186156e-01 0.000000e+00 0.000000e+00 0.000000e+00 0.000000e+00 0.000000e+00 0.000000e+00 0.000000e+00 0.000000e+00 0.000000e+00
 0.000000e+00 0.000000e+00 0.000000e+00 0.000000e+00 0.000000e+00 0.000000e+00 0.000000e+00 0.000000e+00 0.000000e+00 0.000000e+00 6.843594e-01 3.156406e-01 0.000000e+00 0.000000e+00 0.000000e+00 0.000000e+00 0.000000e+00 0.000000e+00 0.000000e+00 0.000000e+00
 0.000000e+00 0.000000e+00 0.000000e+00 0.000000e+00 0.000000e+00 0.000000e+00 0.000000e+00 0.000000e+00 0.000000e+00 0.000000e+00 0.000000e+00 8.053148e-01 1.946852e-01 0.000000e+00 0.000000e+00 0.000000e+00 0.000000e+00 0.000000e+00 0.000000e+00 0.000000e+00
 0.000000e+00 0.000000e+00 0.000000e+00 0.000000e+00 0.000000e+00 0.000000e+00 0.000000e+00 0.000000e+00 0.000000e+00 0.000000e+00 0.000000e+00 0.000000e+00 6.492952e-01 3.507049e-01 0.000000e+00 0.000000e+00 0.000000e+00 0.000000e+00 0.000000e+00 0.000000e+00
 0.000000e+00 0.000000e+00 0.000000e+00 0.000000e+00 0.000000e+00 0.000000e+00 0.000000e+00 0.000000e+00 0.000000e+00 0.000000e+00 0.000000e+00 0.000000e+00 0.000000e+00 6.123031e-01 3.876970e-01 0.000000e+00 0.000000e+00 0.000000e+00 0.000000e+00 0.000000e+00
 0.000000e+00 0.000000e+00 0.000000e+00 0.000000e+00 0.000000e+00 0.000000e+00 0.000000e+00 0.000000e+00 0.000000e+00 0.000000e+00 0.000000e+00 0.000000e+00 0.000000e+00 0.000000e+00 7.565717e-01 2.434284e-01 0.000000e+00 0.000000e+00 0.000000e+00 0.000000e+00
 0.000000e+00 0.000000e+00 0.000000e+00 0.000000e+00 0.000000e+00 0.000000e+00 0.000000e+00 0.000000e+00 0.000000e+00 0.000000e+00 0.000000e+00 0.000000e+00 0.000000e+00 0.000000e+00 0.000000e+00 7.043309e-01 2.956691e-01 0.000000e+00 0.000000e+00 0.000000e+00
 0.000000e+00 0.000000e+00 0.000000e+00 0.000000e+00 0.000000e+00 0.000000e+00 0.000000e+00 0.000000e+00 0.000000e+00 0.000000e+00 0.000000e+00 0.000000e+00 0.000000e+00 0.000000e+00 0.000000e+00 0.000000e+00 7.269865e-01 2.730135e-01 0.000000e+00 0.000000e+00
 0.000000e+00 0.000000e+00 0.000000e+00 0.000000e+00 0.000000e+00 0.000000e+00 0.000000e+00 0.000000e+00 0.000000e+00 0.000000e+00 0.000000e+00 0.000000e+00 0.000000e+00 0.000000e+00 0.000000e+00 0.000000e+00 0.000000e+00 7.545055e-01 2.454945e-01 0.000000e+00
 0.000000e+00 0.000000e+00 0.000000e+00 0.000000e+00 0.000000e+00 0.000000e+00 0.000000e+00 0.000000e+00 0.000000e+00 0.000000e+00 0.000000e+00 0.000000e+00 0.000000e+00 0.000000e+00 0.000000e+00 0.000000e+00 0.000000e+00 0.000000e+00 7.657778e-01 2.342222e-01
 0.000000e+00 0.000000e+00 0.000000e+00 0.000000e+00 0.000000e+00 0.000000e+00 0.000000e+00 0.000000e+00 0.000000e+00 0.000000e+00 0.000000e+00 0.000000e+00 0.000000e+00 0.000000e+00 0.000000e+00 0.000000e+00 0.000000e+00 0.000000e+00 0.000000e+00 0.000000e+00
<ENDHMM>
