~o
<STREAMINFO> 1 39
<VECSIZE> 39<NULLD><MFCC_D_A_0><DIAGC>
~h "kurang"
<BEGINHMM>
<NUMSTATES> 5
<STATE> 2
<MEAN> 39
 -2.908785e+00 -3.072457e+00 -7.978779e+00 -1.005500e+01 -3.330968e+00 -5.052958e+00 -5.629158e+00 -1.168380e+01 -4.150180e+00 -4.043976e+00 6.125072e+00 -3.691499e+00 6.617886e+01 8.042647e-01 -3.916670e-01 -3.724965e-01 8.569825e-02 -1.406374e-01 -1.487558e-01 -2.279505e-01 7.426551e-02 1.432232e-01 2.220558e-01 -1.367060e-02 -3.204046e-01 7.089773e-01 -1.511208e-02 -3.758547e-02 1.109643e-03 -2.385641e-03 -1.455281e-02 3.451411e-02 4.217703e-02 2.796335e-02 1.766596e-02 -1.728699e-02 -6.704866e-02 -1.623707e-02 1.323141e-02
<VARIANCE> 39
 7.181744e+01 6.696394e+01 4.315341e+01 6.352927e+01 6.466269e+01 7.418572e+01 8.382314e+01 1.003492e+02 6.715831e+01 6.949703e+01 7.072555e+01 6.935477e+01 3.482320e+01 2.386240e+00 4.678324e+00 3.298235e+00 4.366262e+00 3.416855e+00 4.657914e+00 4.458402e+00 6.551735e+00 5.220081e+00 5.571333e+00 4.147984e+00 4.830008e+00 7.332080e-01 3.395102e-01 5.779715e-01 7.100040e-01 5.885432e-01 5.478234e-01 7.897502e-01 7.045878e-01 7.917221e-01 8.480747e-01 1.066610e+00 6.328467e-01 7.207543e-01 1.370183e-01
<GCONST> 1.365651e+02
<STATE> 3
<MEAN> 39
 1.328206e+00 -8.429780e+00 -8.020079e+00 -6.171642e+00 3.201891e-01 -4.471391e+00 -4.624491e+00 -5.933908e+00 8.618617e-01 -5.736545e+00 -4.151221e+00 -1.203028e+01 7.117919e+01 -2.910853e-01 1.006076e+00 6.359331e-01 -7.445645e-02 4.108065e-01 2.942827e-01 7.210223e-02 -2.370109e-01 -3.661773e-01 -5.502624e-01 -2.515293e-01 6.815948e-02 -5.281312e-01 -4.682577e-02 6.978385e-02 4.836539e-02 6.659107e-02 3.061613e-02 -7.106882e-02 -1.470937e-02 -2.502778e-02 -1.887666e-03 6.004300e-03 6.549597e-02 3.758022e-03 -6.578293e-02
<VARIANCE> 39
 5.232531e+00 6.847237e+01 6.665145e+01 2.011406e+01 7.157527e+01 5.260626e+01 2.375014e+01 7.866110e+01 5.369730e+01 7.558165e+01 6.638377e+01 4.823130e+01 1.710085e+01 2.138445e-01 6.822072e-01 1.105050e+00 1.150548e+00 1.548345e+00 1.427792e+00 1.184958e+00 2.171213e+00 3.240491e+00 1.646239e+00 1.579113e+00 1.812139e+00 1.857498e-01 3.678482e-02 8.666272e-02 1.425227e-01 1.551690e-01 1.749022e-01 1.871533e-01 1.921900e-01 2.891281e-01 4.768707e-01 2.839628e-01 2.221714e-01 3.067299e-01 2.008928e-02
<GCONST> 9.637816e+01
<STATE> 4
<MEAN> 39
 -1.238979e+01 -3.065751e-02 3.395761e+00 8.883412e-01 5.945876e+00 -7.855389e-02 3.453130e+00 -4.259445e+00 -1.713597e+00 -1.156957e+01 -5.409003e+00 -1.060651e+01 5.868991e+01 -6.959690e-01 -4.079229e-01 2.540006e-02 1.977480e-01 4.815182e-02 1.917020e-01 4.602835e-01 3.145612e-01 1.791371e-01 9.399696e-02 3.809137e-02 7.151763e-02 -3.720554e-01 2.576604e-02 -3.908161e-02 -5.013669e-02 -3.727999e-02 -2.950433e-03 8.701506e-03 -2.839276e-02 1.212072e-02 -2.199827e-04 8.329624e-03 1.354134e-02 1.834990e-02 2.581850e-02
<VARIANCE> 39
 2.660389e+01 1.943672e+01 1.629345e+01 1.772910e+01 2.466570e+01 2.916283e+01 5.232870e+01 7.574123e+01 6.219092e+01 6.175247e+01 4.363768e+01 3.064041e+01 7.516870e+00 2.828728e-01 5.495206e-01 8.348242e-01 8.925477e-01 1.141109e+00 1.372942e+00 1.708346e+00 1.399766e+00 1.350975e+00 1.362306e+00 1.276470e+00 1.085944e+00 1.029551e-01 3.504205e-02 8.252204e-02 1.087330e-01 1.473965e-01 1.971366e-01 2.094259e-01 2.880761e-01 2.603520e-01 2.594345e-01 2.445655e-01 2.157319e-01 1.964606e-01 1.030310e-02
<GCONST> 8.750079e+01
<TRANSP> 5
 0.000000e+00 1.000000e+00 0.000000e+00 0.000000e+00 0.000000e+00
 0.000000e+00 9.606336e-01 3.936645e-02 0.000000e+00 0.000000e+00
 0.000000e+00 0.000000e+00 9.487291e-01 5.127092e-02 0.000000e+00
 0.000000e+00 0.000000e+00 0.000000e+00 9.584954e-01 4.150457e-02
 0.000000e+00 0.000000e+00 0.000000e+00 0.000000e+00 0.000000e+00
<ENDHMM>
