~o
<STREAMINFO> 1 39
<VECSIZE> 39<NULLD><MFCC_D_A_0><DIAGC>
~h "matikan"
<BEGINHMM>
<NUMSTATES> 5
<STATE> 2
<MEAN> 39
 -4.425856e+00 -5.332469e+00 -6.332206e+00 -6.794335e+00 1.359102e+00 -7.559951e+00 -5.888777e+00 -5.603477e+00 -5.861062e-01 -1.059067e+01 -3.700727e+00 -1.025068e+01 6.576645e+01 4.519677e-01 2.472004e-01 1.904406e-01 8.522001e-02 -2.891865e-01 -4.826077e-01 -3.162188e-01 -1.142543e-01 -2.037256e-01 -2.943592e-01 4.068464e-02 -7.768129e-02 3.851004e-01 -5.339659e-02 -1.133499e-03 1.812539e-01 -1.085083e-03 -1.794513e-01 -1.216458e-01 -4.339693e-02 -3.030850e-02 -4.068964e-02 4.218965e-02 1.645120e-01 6.361166e-02 1.818611e-02
<VARIANCE> 39
 4.273138e+01 2.330120e+01 2.795247e+01 2.417137e+01 3.329759e+01 4.666410e+01 3.795324e+01 9.059290e+01 3.315051e+01 5.717906e+01 6.116566e+01 3.318845e+01 3.142429e+01 4.323612e+00 2.690525e+00 3.933708e+00 2.407606e+00 3.165017e+00 3.454817e+00 3.719747e+00 6.287722e+00 3.978624e+00 3.125608e+00 4.670169e+00 3.057817e+00 2.564640e+00 4.707360e-01 5.154780e-01 7.813761e-01 4.446740e-01 6.157765e-01 5.996691e-01 5.667735e-01 1.080587e+00 7.168670e-01 5.051856e-01 5.808707e-01 5.585221e-01 3.001327e-01
<GCONST> 1.282609e+02
<STATE> 3
<MEAN> 39
 -7.326411e+00 -5.181990e+00 7.490533e+00 -4.579278e+00 -1.069356e+01 -1.702902e+01 -4.781645e+00 -7.415464e+00 -6.565348e+00 -1.058410e+01 1.471153e+00 -6.405677e+00 6.754208e+01 2.848790e-01 -3.818285e-01 -5.441124e-02 7.708069e-02 -1.030607e-02 -2.362965e-02 2.582152e-01 4.167788e-01 1.952271e-02 -4.254684e-02 -3.216312e-01 -1.340727e-01 2.942083e-01 -2.217508e-02 3.920032e-02 -1.245027e-01 3.558121e-02 2.045149e-01 1.409228e-01 4.163686e-02 3.785699e-02 5.950788e-02 -9.988612e-03 -1.108861e-01 -3.915204e-02 -8.590677e-02
<VARIANCE> 39
 2.136776e+01 7.289885e+01 1.245152e+02 5.493716e+01 9.077474e+01 8.999594e+01 7.057265e+01 1.634411e+02 6.826457e+01 6.097542e+01 8.616396e+01 3.778896e+01 3.106499e+01 1.680307e+00 3.076767e+00 6.639151e+00 4.722714e+00 6.253153e+00 8.032831e+00 4.312481e+00 6.554970e+00 4.596051e+00 4.795088e+00 4.047790e+00 3.741138e+00 2.039167e+00 2.688347e-01 4.580004e-01 6.835329e-01 8.387723e-01 8.775192e-01 1.266325e+00 6.915321e-01 8.946115e-01 8.059379e-01 9.157524e-01 7.483203e-01 6.813588e-01 2.674039e-01
<GCONST> 1.396258e+02
<STATE> 4
<MEAN> 39
 -9.110103e+00 -6.600368e-01 3.344559e+00 -4.954971e-01 2.943724e+00 -3.598722e+00 8.365334e-01 -4.266670e+00 -1.725507e+00 -9.925155e+00 -3.603005e+00 -8.876869e+00 6.147626e+01 -5.555930e-01 2.818118e-01 9.424130e-02 2.345654e-02 3.647066e-01 4.817002e-01 4.168607e-02 -3.388515e-01 5.108824e-02 2.361066e-01 1.408181e-01 2.650397e-02 -5.274256e-01 -3.579186e-03 -7.821319e-02 -3.255975e-02 -2.181945e-02 -5.785215e-02 -4.107763e-02 2.879756e-02 2.497499e-02 -3.309754e-03 -1.087728e-02 6.016369e-03 1.082466e-03 2.962703e-02
<VARIANCE> 39
 3.245367e+01 2.643601e+01 1.497522e+01 1.311830e+01 2.936735e+01 5.197204e+01 2.648642e+01 5.376717e+01 2.741350e+01 3.973623e+01 4.687897e+01 3.080470e+01 2.655320e+01 1.760117e-01 9.827895e-01 6.937924e-01 8.506483e-01 1.266197e+00 1.556464e+00 1.385537e+00 1.596310e+00 1.506182e+00 1.426186e+00 1.592261e+00 1.415365e+00 1.644193e-01 2.650740e-02 5.171568e-02 9.916843e-02 1.484884e-01 1.822561e-01 1.957687e-01 2.439203e-01 2.355343e-01 2.659054e-01 2.597838e-01 2.831401e-01 2.189070e-01 1.185915e-02
<GCONST> 8.792524e+01
<TRANSP> 5
 0.000000e+00 1.000000e+00 0.000000e+00 0.000000e+00 0.000000e+00
 0.000000e+00 9.492276e-01 5.077247e-02 0.000000e+00 0.000000e+00
 0.000000e+00 0.000000e+00 9.596280e-01 4.037205e-02 0.000000e+00
 0.000000e+00 0.000000e+00 0.000000e+00 9.665197e-01 3.348038e-02
 0.000000e+00 0.000000e+00 0.000000e+00 0.000000e+00 0.000000e+00
<ENDHMM>
