~o
<STREAMINFO> 1 39
<VECSIZE> 39<NULLD><MFCC_D_A_0><DIAGC>
~h "pukul"
<BEGINHMM>
<NUMSTATES> 5
<STATE> 2
<MEAN> 39
 -4.630814e+00 2.605136e+00 -3.194191e+00 -1.294651e+01 -5.427483e+00 -5.174969e+00 -1.492244e+00 -9.101163e+00 -6.282684e+00 -1.083091e+01 1.962781e+00 -3.953669e+00 6.354140e+01 6.522948e-01 3.818196e-01 -1.561610e-01 -4.838374e-01 -2.271589e-01 6.900107e-02 -2.664062e-01 -4.050896e-01 -4.518144e-01 -6.544666e-02 3.332242e-01 1.233443e-01 3.917682e-01 1.287632e-03 -2.496877e-02 -6.011439e-03 -1.278878e-02 1.710548e-02 4.068319e-02 -2.380568e-02 -1.944838e-02 7.487524e-03 7.687563e-02 4.233519e-02 -2.453553e-02 1.182587e-02
<VARIANCE> 39
 5.000758e+01 3.290208e+01 2.541660e+01 5.616013e+01 4.850782e+01 4.077169e+01 3.591368e+01 5.083050e+01 4.201549e+01 2.476330e+01 5.859405e+01 3.239162e+01 1.640493e+01 3.674437e+00 2.397971e+00 2.032806e+00 4.819837e+00 3.243931e+00 2.913839e+00 4.042315e+00 4.059401e+00 2.671536e+00 2.100301e+00 3.373300e+00 2.150967e+00 1.165710e+00 4.692779e-01 3.651786e-01 3.941212e-01 7.072276e-01 5.581501e-01 5.360196e-01 7.553593e-01 7.052397e-01 4.493671e-01 3.697811e-01 5.151525e-01 4.016643e-01 1.326429e-01
<GCONST> 1.218333e+02
<STATE> 3
<MEAN> 39
 1.348278e+00 2.309072e+00 -5.371544e+00 -1.814354e+01 -2.940103e+00 -2.138701e+00 -1.349142e+01 -2.040114e+01 -9.502795e+00 -5.851915e-01 6.735141e+00 -8.805733e+00 6.938130e+01 -3.888645e-01 -2.201584e-01 2.917292e-01 6.355579e-01 3.149807e-01 -1.593537e-01 -8.723227e-02 -1.636386e-01 3.637184e-01 1.516500e-01 -5.767819e-01 -4.269125e-01 -2.787184e-01 -6.181134e-02 2.525406e-02 3.094374e-02 8.714578e-02 4.284221e-03 -7.907947e-02 5.244512e-02 7.228955e-02 -1.194612e-02 -1.299325e-01 -8.400527e-02 2.853802e-02 -6.424650e-02
<VARIANCE> 39
 8.603693e+00 1.243997e+01 5.261690e+01 5.141177e+01 4.833434e+01 6.529532e+01 9.417046e+01 8.566588e+01 6.116563e+01 4.704196e+01 9.714850e+01 5.730679e+01 1.174721e+01 2.433146e-01 5.450058e-01 8.977065e-01 1.065610e+00 1.332327e+00 1.538649e+00 2.069546e+00 3.177512e+00 1.994417e+00 4.061393e+00 1.807698e+00 1.903468e+00 2.422541e-01 3.150295e-02 7.001089e-02 1.075292e-01 1.378140e-01 1.889152e-01 2.445069e-01 2.864830e-01 3.773213e-01 3.726705e-01 4.888334e-01 3.166757e-01 3.281453e-01 1.242499e-02
<GCONST> 9.882178e+01
<STATE> 4
<MEAN> 39
 -1.245183e+01 -2.279612e+00 4.332204e-01 -1.271605e+00 3.662712e+00 -3.533930e+00 -3.298548e+00 -1.259874e+01 -4.758262e+00 -9.160557e+00 -3.471860e+00 -1.127020e+01 5.890955e+01 -6.310608e-01 -4.049828e-01 -1.965581e-02 2.994377e-01 2.599148e-01 2.614184e-01 6.273372e-01 7.228954e-01 1.630847e-01 -2.084772e-01 -2.366246e-01 -8.147401e-02 -3.353811e-01 3.071383e-02 -8.375335e-03 -2.171022e-02 -5.232050e-02 -2.195618e-02 4.525126e-02 3.805988e-02 4.842808e-02 4.135623e-02 3.058934e-02 1.531977e-02 -1.173424e-02 2.684719e-02
<VARIANCE> 39
 1.812625e+01 1.382797e+01 8.441898e+00 1.627796e+01 3.100089e+01 4.832501e+01 5.261300e+01 5.151070e+01 2.821007e+01 2.581621e+01 3.807888e+01 3.189062e+01 4.666779e+00 1.709802e-01 3.426899e-01 6.553474e-01 8.677554e-01 9.547117e-01 1.220754e+00 1.171444e+00 1.714890e+00 1.521734e+00 1.316974e+00 1.680660e+00 1.722327e+00 5.683496e-02 2.409753e-02 5.908382e-02 1.126131e-01 1.515348e-01 1.746969e-01 2.003295e-01 2.140226e-01 3.012359e-01 3.014435e-01 2.458905e-01 2.904797e-01 3.086616e-01 6.021150e-03
<GCONST> 8.206824e+01
<TRANSP> 5
 0.000000e+00 1.000000e+00 0.000000e+00 0.000000e+00 0.000000e+00
 0.000000e+00 9.692628e-01 3.073727e-02 0.000000e+00 0.000000e+00
 0.000000e+00 0.000000e+00 9.524990e-01 4.750099e-02 0.000000e+00
 0.000000e+00 0.000000e+00 0.000000e+00 9.553852e-01 4.461477e-02
 0.000000e+00 0.000000e+00 0.000000e+00 0.000000e+00 0.000000e+00
<ENDHMM>
