~o
<STREAMINFO> 1 39
<VECSIZE> 39<NULLD><MFCC_D_A_0><DIAGC>
~h "sil"
<BEGINHMM>
<NUMSTATES> 20
<STATE> 2
<MEAN> 39
 -1.530726e+01 -4.889369e+00 -5.632288e-01 -3.213192e+00 2.384028e+00 -1.094564e+00 3.417748e+00 -4.803470e+00 -1.062605e+00 -7.936470e+00 -1.167207e+00 -6.697200e+00 5.752658e+01 -3.921557e-01 -3.214604e-01 -3.417921e-02 -1.286063e-01 -1.204779e-01 -1.274431e-02 1.420617e-01 3.637134e-01 2.620748e-01 -1.729830e-02 -9.587247e-02 -5.032466e-02 1.362725e-01 -2.615679e-02 3.458969e-02 -3.124098e-02 6.387954e-02 2.406915e-02 5.117698e-03 -6.849879e-02 6.961028e-02 4.506051e-02 1.149742e-01 1.610128e-02 3.590116e-02 -3.965667e-01
<VARIANCE> 39
 3.882973e+01 2.077520e+01 3.228245e+01 4.241793e+01 3.554320e+01 4.912655e+01 4.124263e+01 3.303915e+01 3.829355e+01 3.998774e+01 4.454895e+01 3.035810e+01 2.380689e+01 4.652359e-01 4.875030e-01 8.998863e-01 1.232438e+00 1.651442e+00 1.701952e+00 1.940112e+00 2.219477e+00 1.921266e+00 2.495741e+00 1.543694e+00 1.838673e+00 3.794267e+00 6.148977e-02 9.484818e-02 1.635284e-01 2.358045e-01 2.603721e-01 2.846492e-01 3.312363e-01 3.897949e-01 3.758810e-01 4.264086e-01 3.583788e-01 3.441288e-01 8.693636e-01
<GCONST> 1.059328e+02
<STATE> 3
<MEAN> 39
 -1.499257e+01 -5.608279e+00 8.071474e-01 -3.237444e+00 2.195399e+00 -2.539946e+00 9.672297e-01 -5.216637e+00 -1.727080e+00 -8.706092e+00 -1.419862e+00 -6.834212e+00 5.684786e+01 -3.163747e-01 -3.163712e-01 -3.318378e-02 1.948906e-02 1.321415e-01 -3.525475e-02 -2.967070e-02 1.961360e-01 1.734653e-01 1.803671e-01 2.450017e-02 2.817919e-02 -1.968700e-01 5.211318e-03 -7.567750e-03 -6.291395e-02 -2.741896e-02 1.842439e-02 3.267786e-02 2.520144e-02 -3.023929e-02 9.612894e-04 3.601914e-02 1.608427e-02 -1.209077e-02 2.528039e-02
<VARIANCE> 39
 1.765319e+01 2.992668e+01 2.355778e+01 3.109483e+01 3.668840e+01 4.788379e+01 4.927379e+01 4.131704e+01 4.293369e+01 3.954172e+01 3.975464e+01 3.118111e+01 6.440746e+00 4.448725e-01 4.911456e-01 7.924400e-01 1.008829e+00 1.417664e+00 1.617717e+00 1.900978e+00 1.990069e+00 1.920871e+00 2.061905e+00 1.951203e+00 1.574769e+00 1.063886e-01 3.899777e-02 7.721734e-02 1.280746e-01 1.589520e-01 2.509463e-01 2.580929e-01 3.322212e-01 3.596591e-01 3.582043e-01 3.579552e-01 3.128336e-01 2.811523e-01 1.018445e-02
<GCONST> 9.309653e+01
<STATE> 4
<MEAN> 39
 -2.089415e+01 -9.496113e+00 -3.861034e+00 -3.624527e+00 6.421729e+00 4.746649e+00 8.948554e+00 5.026057e-01 2.908256e+00 -7.071159e+00 -1.984517e+00 -8.234293e+00 5.450203e+01 -1.367036e-01 -2.149136e-01 -1.850122e-01 -2.083551e-01 -1.873868e-01 -1.023193e-01 1.253185e-01 3.200160e-01 3.713171e-01 3.597471e-01 2.749302e-01 8.150744e-02 -2.841265e-02 7.747295e-02 8.469791e-02 7.139768e-02 3.600620e-02 -4.892543e-02 -9.168157e-02 -1.265768e-01 -1.495333e-01 -1.257628e-01 -8.330564e-02 -1.525276e-02 -5.566194e-03 3.996056e-02
<VARIANCE> 39
 1.130407e+01 2.202913e+01 2.524701e+01 3.490993e+01 4.082906e+01 5.474600e+01 5.734708e+01 5.400083e+01 7.671128e+01 6.955199e+01 4.476482e+01 3.491452e+01 2.563889e+00 2.626632e-01 5.141921e-01 7.772970e-01 1.500441e+00 2.059813e+00 2.374732e+00 2.335378e+00 2.623016e+00 2.743310e+00 2.846292e+00 2.469479e+00 1.972098e+00 6.918211e-02 3.552115e-02 8.520461e-02 1.357366e-01 2.665697e-01 3.483147e-01 3.877906e-01 4.360332e-01 5.023180e-01 5.345420e-01 5.821168e-01 4.303654e-01 3.907999e-01 1.001260e-02
<GCONST> 9.892947e+01
<STATE> 5
<MEAN> 39
 -1.841697e+01 -8.016540e+00 -2.871339e+00 -4.937736e+00 1.772974e+00 -1.230088e+00 3.615602e+00 -3.012640e+00 5.359647e-01 -7.023370e+00 -5.065143e-02 -6.664769e+00 5.577184e+01 1.157294e-01 1.327705e-01 2.184346e-01 2.315690e-01 1.011090e-01 4.643810e-02 -7.505375e-02 -2.744792e-01 -4.086477e-01 -3.572191e-01 -2.513253e-01 -1.563745e-01 5.944343e-02 2.363122e-02 4.953873e-02 8.021826e-02 1.563059e-01 1.790248e-01 1.564105e-01 7.684786e-02 -1.971349e-02 -6.922936e-02 -1.037902e-01 -1.171308e-01 -4.813355e-02 5.949096e-03
<VARIANCE> 39
 7.243859e+00 1.333399e+01 2.019380e+01 2.228507e+01 2.528371e+01 3.857272e+01 4.342096e+01 3.761771e+01 3.879520e+01 3.162081e+01 3.158095e+01 2.743453e+01 1.660708e+00 2.994553e-01 5.351965e-01 8.024815e-01 1.233339e+00 1.741170e+00 2.287200e+00 2.896354e+00 2.886172e+00 2.758488e+00 2.485568e+00 1.999170e+00 1.958943e+00 8.921637e-02 3.544746e-02 7.787493e-02 1.358155e-01 1.935463e-01 3.029044e-01 4.042976e-01 4.406012e-01 4.302996e-01 3.892044e-01 3.809299e-01 3.555303e-01 3.234735e-01 1.189311e-02
<GCONST> 9.176225e+01
<STATE> 6
<MEAN> 39
 -1.880284e+01 -7.530221e+00 -7.069073e-01 -5.294145e-01 6.746046e+00 2.970272e+00 6.250816e+00 -3.165351e+00 -1.880421e+00 -1.147589e+01 -4.819783e+00 -9.251347e+00 5.566964e+01 -9.606406e-03 -1.752029e-02 5.670340e-02 2.031893e-01 1.951272e-01 6.664917e-02 -8.514224e-02 -1.625468e-01 -8.649097e-02 1.407708e-02 -7.069903e-03 1.607736e-02 3.535297e-03 -1.897515e-02 -6.714202e-02 -1.340426e-01 -1.935764e-01 -2.119367e-01 -1.684566e-01 -8.616555e-02 4.395128e-02 1.736857e-01 2.266146e-01 2.056398e-01 1.343140e-01 -8.255501e-04
<VARIANCE> 39
 5.176180e+00 7.896748e+00 1.179158e+01 2.364552e+01 3.372305e+01 4.080798e+01 3.452840e+01 3.236993e+01 3.693269e+01 4.037483e+01 3.514719e+01 2.958625e+01 1.157180e+00 2.027488e-01 4.278889e-01 6.761687e-01 1.048712e+00 1.437223e+00 1.767623e+00 1.958595e+00 2.074057e+00 2.608564e+00 2.367132e+00 1.877451e+00 1.783976e+00 5.100240e-02 3.430129e-02 5.976002e-02 1.033089e-01 1.900968e-01 2.733553e-01 2.978769e-01 3.414317e-01 3.695804e-01 4.506859e-01 4.259167e-01 3.428964e-01 3.089965e-01 8.651799e-03
<GCONST> 8.591998e+01
<STATE> 7
<MEAN> 39
 -1.789614e+01 -6.900479e+00 -7.336712e-01 -2.156356e+00 3.832436e+00 -2.507034e-01 3.401240e+00 -4.196988e+00 -1.757991e-01 -6.943679e+00 -2.839387e-01 -6.239804e+00 5.596014e+01 -6.080394e-02 -2.186139e-01 -3.850474e-01 -5.420820e-01 -6.632830e-01 -4.735019e-01 -3.704551e-01 -6.716742e-02 3.288105e-01 6.009260e-01 5.982219e-01 4.084718e-01 1.270482e-02 -6.260616e-02 -1.286481e-01 -1.928730e-01 -2.074937e-01 -1.672537e-01 -1.093544e-01 -3.381577e-03 8.351628e-02 6.069701e-02 1.133004e-02 4.899221e-02 2.309273e-02 -1.445482e-02
<VARIANCE> 39
 6.907987e+00 1.034708e+01 1.414221e+01 2.007557e+01 2.598018e+01 3.909232e+01 4.940836e+01 4.188597e+01 2.781138e+01 2.582581e+01 3.107701e+01 3.043816e+01 1.597539e+00 2.235427e-01 3.626770e-01 5.455349e-01 1.151372e+00 1.764730e+00 1.976868e+00 1.811399e+00 1.949713e+00 2.251073e+00 2.296591e+00 2.050239e+00 1.778139e+00 5.472910e-02 3.408769e-02 6.558891e-02 1.265389e-01 1.817554e-01 2.619486e-01 3.312266e-01 3.951436e-01 3.874048e-01 3.595261e-01 3.962927e-01 4.145201e-01 3.624619e-01 9.838171e-03
<GCONST> 8.695354e+01
<STATE> 8
<MEAN> 39
 -1.818178e+01 -7.833080e+00 -2.938416e+00 -4.671807e+00 1.489592e+00 -1.901283e+00 2.923932e+00 -3.616001e+00 8.237762e-01 -6.530852e+00 2.724698e-01 -6.276281e+00 5.611717e+01 -2.326763e-01 -4.098851e-01 -4.954069e-01 -4.157684e-01 -3.209313e-01 -2.333717e-01 -1.181174e-01 1.434109e-01 2.319019e-01 1.704851e-01 2.346867e-01 1.439632e-01 -6.402760e-02 2.885284e-03 9.236562e-03 3.043922e-02 6.955651e-02 6.559765e-02 2.758473e-02 3.842883e-02 5.325083e-03 -1.978040e-04 -4.297784e-02 -5.449885e-02 -1.373510e-02 -2.909932e-03
<VARIANCE> 39
 4.169315e+00 5.790687e+00 9.262233e+00 1.300207e+01 1.930467e+01 2.837811e+01 3.156925e+01 2.725118e+01 2.380052e+01 2.486652e+01 2.574197e+01 2.436696e+01 9.690232e-01 1.572010e-01 2.689448e-01 5.601692e-01 9.085841e-01 1.227051e+00 1.452388e+00 1.667213e+00 1.793826e+00 1.905523e+00 1.956291e+00 1.831807e+00 1.523215e+00 4.046629e-02 2.809779e-02 4.306167e-02 9.189616e-02 1.491616e-01 2.137407e-01 2.455025e-01 3.020467e-01 3.533012e-01 3.664250e-01 3.784615e-01 3.277574e-01 3.173602e-01 7.721059e-03
<GCONST> 7.718309e+01
<STATE> 9
<MEAN> 39
 -1.894398e+01 -8.979286e+00 -3.540617e+00 -5.158189e+00 1.764886e+00 -1.255657e+00 3.650311e+00 -2.992738e+00 9.542245e-01 -6.182277e+00 4.613510e-01 -5.995803e+00 5.568127e+01 -1.558949e-01 -3.260256e-01 -4.067546e-01 -3.404328e-01 -3.846852e-01 -3.974617e-01 -1.515718e-01 4.660792e-02 3.115469e-01 3.155347e-01 2.318000e-01 2.607011e-01 -3.537891e-02 1.254835e-01 2.244776e-01 2.705587e-01 2.705197e-01 2.022711e-01 4.210250e-02 -1.195908e-02 -1.338026e-01 -1.765216e-01 -2.000797e-01 -1.599559e-01 -4.920220e-02 4.161492e-02
<VARIANCE> 39
 5.902927e+00 7.804582e+00 1.134526e+01 1.812575e+01 2.605197e+01 3.427595e+01 4.100321e+01 3.344090e+01 2.930548e+01 2.770092e+01 2.880097e+01 2.415849e+01 1.109123e+00 1.623568e-01 2.363640e-01 5.684518e-01 7.629811e-01 1.303403e+00 1.712448e+00 1.784599e+00 1.441040e+00 1.645371e+00 1.742639e+00 2.129876e+00 1.761376e+00 4.583766e-02 2.268451e-02 4.097318e-02 9.095859e-02 1.919054e-01 2.455423e-01 3.036036e-01 3.538165e-01 3.962158e-01 4.243403e-01 4.005381e-01 3.495058e-01 2.888521e-01 5.958043e-03
<GCONST> 8.036559e+01
<STATE> 10
<MEAN> 39
 -1.909231e+01 -9.426758e+00 -3.927968e+00 -5.177132e+00 1.500507e+00 -1.721858e+00 3.152524e+00 -3.034724e+00 1.401804e+00 -5.789083e+00 6.830568e-01 -5.904460e+00 5.564721e+01 7.726864e-02 7.375121e-02 4.531178e-02 1.299734e-01 -2.485644e-02 -2.678242e-01 -1.815047e-01 -1.844658e-01 -2.997689e-02 -8.340239e-02 -2.267767e-02 1.550172e-01 4.013759e-02 1.602912e-01 3.011413e-01 3.409496e-01 2.998824e-01 2.497256e-01 1.190276e-01 5.179901e-03 -1.573201e-01 -2.497434e-01 -2.644871e-01 -1.949401e-01 -1.033920e-01 5.855547e-02
<VARIANCE> 39
 5.893468e+00 7.409266e+00 1.289742e+01 1.730769e+01 2.272268e+01 3.351497e+01 3.791686e+01 2.830091e+01 2.440881e+01 2.792345e+01 2.698547e+01 2.479471e+01 1.161589e+00 1.272051e-01 1.906238e-01 4.411550e-01 6.884280e-01 1.112846e+00 1.550251e+00 1.908161e+00 1.832488e+00 1.792163e+00 2.002177e+00 1.741706e+00 1.577670e+00 3.650090e-02 2.795656e-02 4.893348e-02 1.082504e-01 1.749319e-01 2.537650e-01 3.154936e-01 3.586492e-01 3.562502e-01 3.880265e-01 3.485583e-01 3.842380e-01 3.163100e-01 7.499416e-03
<GCONST> 7.937518e+01
<STATE> 11
<MEAN> 39
 -1.892425e+01 -8.987822e+00 -3.829784e+00 -5.052592e+00 1.366686e+00 -2.145863e+00 2.947076e+00 -3.270549e+00 1.592221e+00 -6.113387e+00 1.384227e-01 -5.803617e+00 5.577053e+01 3.147501e-01 5.417653e-01 6.212734e-01 6.236092e-01 4.460518e-01 1.972457e-02 -1.447483e-01 -3.681363e-01 -5.047939e-01 -5.843465e-01 -3.555003e-01 -1.385299e-01 1.383117e-01 9.625226e-02 1.928721e-01 2.004883e-01 1.357308e-01 1.258307e-01 1.050890e-01 2.494222e-02 -9.006478e-02 -1.905200e-01 -1.647102e-01 -9.659668e-02 -1.160093e-01 3.489077e-02
<VARIANCE> 39
 4.789704e+00 6.754460e+00 1.155751e+01 1.716794e+01 2.264342e+01 3.281754e+01 3.327504e+01 2.614960e+01 2.515372e+01 2.984996e+01 3.066770e+01 2.611905e+01 1.014929e+00 1.494883e-01 2.638173e-01 5.483375e-01 8.474118e-01 1.401290e+00 1.734324e+00 2.038018e+00 2.151151e+00 2.069330e+00 2.043556e+00 1.953126e+00 1.462751e+00 3.429847e-02 2.871962e-02 4.421446e-02 9.210297e-02 1.432254e-01 2.261055e-01 2.915923e-01 3.388952e-01 2.975094e-01 3.079989e-01 3.637887e-01 4.015862e-01 3.132378e-01 8.009516e-03
<GCONST> 7.953147e+01
<STATE> 12
<MEAN> 39
 -1.804488e+01 -7.344132e+00 -2.026998e+00 -3.550536e+00 2.517526e+00 -1.820787e+00 2.995458e+00 -4.255618e+00 -2.593716e-01 -7.870332e+00 -4.859939e-01 -6.138418e+00 5.612242e+01 3.311397e-01 5.959253e-01 6.331569e-01 5.643461e-01 4.615422e-01 1.591874e-01 -3.495285e-02 -3.911616e-01 -5.329775e-01 -4.822481e-01 -3.038054e-01 -1.934855e-01 1.388508e-01 -4.844881e-02 -8.411287e-02 -1.118606e-01 -1.287002e-01 -1.065488e-01 -1.657147e-02 -2.033064e-02 4.531992e-02 1.280012e-01 1.737297e-01 8.503080e-02 -1.963381e-02 -1.694234e-02
<VARIANCE> 39
 4.024786e+00 6.433095e+00 9.967047e+00 1.558458e+01 1.996058e+01 2.766043e+01 2.813425e+01 2.597021e+01 2.357205e+01 2.295005e+01 2.024230e+01 1.930846e+01 9.046502e-01 1.727620e-01 2.931229e-01 5.863205e-01 9.190191e-01 1.417598e+00 1.752752e+00 1.871886e+00 2.157279e+00 2.204139e+00 2.055620e+00 1.869544e+00 1.601896e+00 4.905776e-02 2.867682e-02 4.713989e-02 9.313242e-02 1.664531e-01 2.405828e-01 2.934932e-01 3.270328e-01 3.822680e-01 3.387315e-01 3.594893e-01 3.175511e-01 2.885791e-01 8.439926e-03
<GCONST> 7.857025e+01
<STATE> 13
<MEAN> 39
 -1.767977e+01 -6.491406e+00 -4.865609e-01 -1.656136e+00 4.143244e+00 -1.220109e+00 2.480025e+00 -5.632624e+00 -2.270127e+00 -9.380990e+00 -1.827691e+00 -6.816034e+00 5.625487e+01 8.287610e-02 1.379597e-01 -8.109792e-03 -1.291912e-01 -1.829639e-01 -1.106128e-01 -1.060911e-01 -3.965904e-02 1.540734e-01 3.006462e-01 1.672832e-01 -1.214574e-01 4.254247e-02 -1.005788e-01 -2.123534e-01 -2.901660e-01 -3.186350e-01 -2.919728e-01 -1.431701e-01 -2.159812e-02 1.741316e-01 3.241659e-01 3.243172e-01 2.207685e-01 9.454633e-02 -4.039453e-02
<VARIANCE> 39
 4.055569e+00 7.159723e+00 9.833354e+00 1.726748e+01 2.077237e+01 2.373319e+01 2.556925e+01 3.021246e+01 3.011108e+01 2.729772e+01 2.682098e+01 2.524044e+01 9.548570e-01 1.597096e-01 2.821717e-01 5.318023e-01 8.152000e-01 1.149325e+00 1.536643e+00 1.771659e+00 2.007806e+00 2.006582e+00 1.867803e+00 1.493523e+00 1.422183e+00 4.126409e-02 3.263890e-02 6.182417e-02 1.187575e-01 1.665892e-01 2.475107e-01 3.166439e-01 3.084120e-01 3.787957e-01 4.007590e-01 3.736326e-01 3.164786e-01 2.697406e-01 7.425737e-03
<GCONST> 7.891830e+01
<STATE> 14
<MEAN> 39
 -1.807192e+01 -7.499206e+00 -2.444134e+00 -3.553019e+00 2.961948e+00 -3.902533e-01 4.525107e+00 -2.103377e+00 2.063001e+00 -5.767103e+00 1.102610e-01 -6.821641e+00 5.615167e+01 -2.110429e-02 -1.248111e-01 -2.919642e-01 -3.951315e-01 -5.419137e-01 -5.119980e-01 -3.835472e-01 -5.790599e-02 2.664784e-01 3.138174e-01 2.836795e-01 2.172805e-01 7.183400e-03 -2.087249e-02 -2.979865e-02 -2.337353e-03 1.577893e-02 -4.049557e-02 -1.363161e-01 -1.575112e-01 -1.661691e-01 -1.647769e-01 -1.394199e-01 -4.988964e-02 2.426036e-02 -7.505854e-03
<VARIANCE> 39
 2.940846e+00 4.911104e+00 7.162898e+00 1.096754e+01 1.448281e+01 1.907567e+01 2.190638e+01 2.689132e+01 2.742838e+01 2.281958e+01 2.171423e+01 1.815915e+01 5.856449e-01 1.789624e-01 3.156930e-01 4.500476e-01 7.370751e-01 1.002271e+00 1.493838e+00 1.545082e+00 1.872521e+00 1.958539e+00 1.961565e+00 1.564200e+00 1.559540e+00 4.047485e-02 2.957622e-02 5.424798e-02 7.894671e-02 1.237859e-01 1.967577e-01 2.771274e-01 3.010008e-01 3.647568e-01 3.973599e-01 3.923492e-01 3.266543e-01 2.774550e-01 7.381615e-03
<GCONST> 7.376247e+01
<STATE> 15
<MEAN> 39
 -1.764649e+01 -7.086965e+00 -2.771499e+00 -4.614880e+00 3.937424e-01 -4.394960e+00 5.342657e-01 -5.678649e+00 2.142356e-02 -6.871867e+00 3.287693e-01 -5.849118e+00 5.652887e+01 -2.763455e-02 -5.260742e-02 -6.161340e-02 -8.244338e-02 -1.153705e-01 -1.595303e-01 -1.390325e-01 -1.259124e-01 -6.804305e-02 -1.080326e-02 1.392186e-02 3.892040e-02 -8.939085e-03 -4.603904e-03 -1.266527e-03 4.564514e-03 1.205130e-02 2.956177e-02 3.507102e-02 2.936337e-02 1.806582e-02 -1.983678e-03 -1.444582e-02 -1.649567e-02 -1.120412e-02 -9.401130e-04
<VARIANCE> 39
 1.211465e+00 2.519112e+00 4.402203e+00 6.461967e+00 8.399030e+00 1.020981e+01 1.234410e+01 1.353276e+01 1.416100e+01 1.275548e+01 1.197093e+01 1.216946e+01 3.351742e-01 1.182280e-01 2.492963e-01 4.369579e-01 6.245668e-01 8.368519e-01 1.065043e+00 1.317213e+00 1.499416e+00 1.592478e+00 1.396177e+00 1.253181e+00 1.292990e+00 3.201004e-02 2.203492e-02 4.571232e-02 8.784717e-02 1.286498e-01 1.635667e-01 2.122261e-01 2.624070e-01 2.914081e-01 3.177482e-01 2.848726e-01 2.496212e-01 2.574912e-01 6.396531e-03
<GCONST> 6.086445e+01
<STATE> 16
<MEAN> 39
 -1.839750e+01 -8.259036e+00 -3.962369e+00 -6.091784e+00 -1.033664e+00 -5.913334e+00 -9.669104e-01 -6.825565e+00 -6.046643e-01 -7.183660e+00 1.349391e-01 -5.677340e+00 5.616425e+01 1.511042e-01 2.301665e-01 2.244905e-01 2.675120e-01 3.088043e-01 2.863657e-01 2.261624e-01 1.321625e-01 5.099582e-02 -6.029302e-02 -2.705698e-02 -1.052235e-01 7.441659e-02 1.060239e-01 1.615104e-01 2.034492e-01 2.458210e-01 2.873604e-01 3.227249e-01 2.868860e-01 2.023749e-01 1.001811e-01 5.307928e-02 1.610927e-02 -1.163403e-02 3.896356e-02
<VARIANCE> 39
 1.818130e+00 3.284456e+00 6.542756e+00 9.146707e+00 1.426761e+01 1.649592e+01 1.952706e+01 1.837678e+01 1.914704e+01 1.686752e+01 1.710317e+01 1.683947e+01 4.810095e-01 1.469969e-01 3.255568e-01 5.750299e-01 8.233679e-01 1.113626e+00 1.364240e+00 1.656444e+00 1.710639e+00 1.715603e+00 1.730612e+00 1.438830e+00 1.345739e+00 3.562615e-02 2.637190e-02 6.287053e-02 9.733828e-02 1.383923e-01 2.044865e-01 2.420705e-01 2.848427e-01 3.287046e-01 3.585406e-01 3.444139e-01 2.941162e-01 3.041075e-01 6.632152e-03
<GCONST> 7.009034e+01
<STATE> 17
<MEAN> 39
 -1.688728e+01 -5.919895e+00 -9.630531e-01 -2.430805e+00 2.985553e+00 -1.650462e+00 2.834131e+00 -4.245827e+00 7.184012e-01 -6.549407e+00 3.928656e-01 -6.072923e+00 5.677080e+01 8.424985e-02 1.008758e-01 1.171004e-01 1.532384e-01 1.717738e-01 2.170478e-01 2.376588e-01 2.174181e-01 1.026905e-01 3.311884e-02 1.188287e-02 3.952138e-02 3.658673e-02 -8.475377e-02 -1.274249e-01 -1.716032e-01 -1.999308e-01 -2.248787e-01 -2.322738e-01 -1.984097e-01 -1.279366e-01 -3.628774e-02 -3.434125e-03 -1.460949e-02 1.971431e-02 -2.988291e-02
<VARIANCE> 39
 2.021332e+00 3.936677e+00 5.759235e+00 9.126510e+00 1.090501e+01 1.309838e+01 1.416009e+01 1.463537e+01 1.554783e+01 1.648087e+01 1.490122e+01 1.189133e+01 5.586961e-01 1.571176e-01 3.397723e-01 5.950563e-01 9.074787e-01 1.257199e+00 1.500135e+00 1.402978e+00 1.377449e+00 1.460802e+00 1.534284e+00 1.359370e+00 1.156219e+00 4.111193e-02 2.829180e-02 5.613974e-02 8.571723e-02 1.386699e-01 2.086162e-01 2.509089e-01 2.633851e-01 2.704714e-01 2.930336e-01 3.268455e-01 2.703994e-01 2.121970e-01 7.666841e-03
<GCONST> 6.742091e+01
<STATE> 18
<MEAN> 39
 -1.755992e+01 -7.002956e+00 -2.848793e+00 -4.622829e+00 3.880508e-01 -4.393041e+00 4.866318e-01 -5.727612e+00 3.406803e-01 -6.535180e+00 3.751536e-01 -5.849033e+00 5.657835e+01 -1.082898e-02 -1.714513e-02 -3.121107e-02 -3.736058e-02 -5.461843e-02 -6.190014e-02 -6.086711e-02 -3.278505e-02 -1.128364e-03 1.764415e-02 -6.770702e-03 -4.571335e-05 -2.170233e-03 5.601011e-03 6.332363e-03 1.115475e-02 1.514071e-02 1.012149e-02 7.886338e-03 4.691907e-03 3.740899e-03 3.244634e-03 -1.426398e-03 -4.894040e-03 -4.557975e-03 1.910519e-03
<VARIANCE> 39
 9.936509e-01 2.183030e+00 3.870527e+00 5.311950e+00 7.141252e+00 9.233274e+00 1.094375e+01 1.190800e+01 1.239155e+01 1.189976e+01 1.166216e+01 1.058274e+01 2.640736e-01 1.082646e-01 2.431497e-01 4.255419e-01 5.514668e-01 7.382826e-01 9.908321e-01 1.207459e+00 1.286333e+00 1.349517e+00 1.302538e+00 1.294438e+00 1.082721e+00 2.763351e-02 2.202397e-02 4.881110e-02 8.546172e-02 1.096474e-01 1.471265e-01 2.036247e-01 2.495386e-01 2.662140e-01 2.780660e-01 2.656371e-01 2.626789e-01 2.254593e-01 5.524714e-03
<GCONST> 5.700928e+01
<STATE> 19
<MEAN> 39
 -1.671814e+01 -6.074023e+00 -1.709469e+00 -3.831048e+00 5.686127e-01 -5.337697e+00 4.994097e-01 -6.004714e+00 -3.973570e-01 -7.835401e+00 -7.027480e-01 -6.075080e+00 5.699294e+01 4.158055e-02 2.868030e-02 7.553586e-03 1.794897e-02 -7.543544e-02 -1.413337e-01 -1.515101e-01 -6.520542e-02 1.793132e-02 -8.571631e-02 -1.230475e-01 -6.585304e-02 3.407388e-02 1.942539e-02 2.717016e-02 5.956806e-03 -6.226822e-03 -2.144062e-02 8.048380e-03 1.273090e-03 -4.250428e-02 -1.683328e-02 -3.193282e-03 1.787315e-02 -2.096745e-02 1.622784e-02
<VARIANCE> 39
 6.184036e+00 8.446679e+00 7.776502e+00 1.391865e+01 1.915224e+01 2.491482e+01 2.740573e+01 2.919891e+01 2.746775e+01 2.398817e+01 2.073671e+01 1.871425e+01 1.814829e+00 2.072732e-01 4.098546e-01 5.043421e-01 8.461237e-01 1.142112e+00 1.540332e+00 1.730458e+00 1.871074e+00 1.730588e+00 1.663482e+00 1.559108e+00 1.513648e+00 5.367186e-02 4.456162e-02 9.018031e-02 1.130382e-01 1.749845e-01 2.230384e-01 2.879038e-01 3.271768e-01 3.856254e-01 3.477007e-01 3.072166e-01 3.110763e-01 2.877819e-01 1.302572e-02
<GCONST> 8.038515e+01
<TRANSP> 20
 0.000000e+00 1.000000e+00 0.000000e+00 0.000000e+00 0.000000e+00 0.000000e+00 0.000000e+00 0.000000e+00 0.000000e+00 0.000000e+00 0.000000e+00 0.000000e+00 0.000000e+00 0.000000e+00 0.000000e+00 0.000000e+00 0.000000e+00 0.000000e+00 0.000000e+00 0.000000e+00
 0.000000e+00 2.422531e-01 7.577469e-01 0.000000e+00 0.000000e+00 0.000000e+00 0.000000e+00 0.000000e+00 0.000000e+00 0.000000e+00 0.000000e+00 0.000000e+00 0.000000e+00 0.000000e+00 0.000000e+00 0.000000e+00 0.000000e+00 0.000000e+00 0.000000e+00 0.000000e+00
 0.000000e+00 0.000000e+00 7.011003e-01 2.988996e-01 0.000000e+00 0.000000e+00 0.000000e+00 0.000000e+00 0.000000e+00 0.000000e+00 0.000000e+00 0.000000e+00 0.000000e+00 0.000000e+00 0.000000e+00 0.000000e+00 0.000000e+00 0.000000e+00 0.000000e+00 0.000000e+00
 0.000000e+00 0.000000e+00 0.000000e+00 6.732258e-01 3.267743e-01 0.000000e+00 0.000000e+00 0.000000e+00 0.000000e+00 0.000000e+00 0.000000e+00 0.000000e+00 0.000000e+00 0.000000e+00 0.000000e+00 0.000000e+00 0.000000e+00 0.000000e+00 0.000000e+00 0.000000e+00
 0.000000e+00 0.000000e+00 0.000000e+00 0.000000e+00 4.604213e-01 5.395787e-01 0.000000e+00 0.000000e+00 0.000000e+00 0.000000e+00 0.000000e+00 0.000000e+00 0.000000e+00 0.000000e+00 0.000000e+00 0.000000e+00 0.000000e+00 0.000000e+00 0.000000e+00 0.000000e+00
 0.000000e+00 0.000000e+00 0.000000e+00 0.000000e+00 0.000000e+00 5.821827e-01 4.178173e-01 0.000000e+00 0.000000e+00 0.000000e+00 0.000000e+00 0.000000e+00 0.000000e+00 0.000000e+00 0.000000e+00 0.000000e+00 0.000000e+00 0.000000e+00 0.000000e+00 0.000000e+00
 0.000000e+00 0.000000e+00 0.000000e+00 0.000000e+00 0.000000e+00 0.000000e+00 2.494032e-01 7.505968e-01 0.000000e+00 0.000000e+00 0.000000e+00 0.000000e+00 0.000000e+00 0.000000e+00 0.000000e+00 0.000000e+00 0.000000e+00 0.000000e+00 0.000000e+00 0.000000e+00
 0.000000e+00 0.000000e+00 0.000000e+00 0.000000e+00 0.000000e+00 0.000000e+00 0.000000e+00 5.753711e-01 4.246289e-01 0.000000e+00 0.000000e+00 0.000000e+00 0.000000e+00 0.000000e+00 0.000000e+00 0.000000e+00 0.000000e+00 0.000000e+00 0.000000e+00 0.000000e+00
 0.000000e+00 0.000000e+00 0.000000e+00 0.000000e+00 0.000000e+00 0.000000e+00 0.000000e+00 0.000000e+00 0.000000e+00 1.000000e+00 0.000000e+00 0.000000e+00 0.000000e+00 0.000000e+00 0.000000e+00 0.000000e+00 0.000000e+00 0.000000e+00 0.000000e+00 0.000000e+00
 0.000000e+00 0.000000e+00 0.000000e+00 0.000000e+00 0.000000e+00 0.000000e+00 0.000000e+00 0.000000e+00 0.000000e+00 0.000000e+00 1.000000e+00 0.000000e+00 0.000000e+00 0.000000e+00 0.000000e+00 0.000000e+00 0.000000e+00 0.000000e+00 0.000000e+00 0.000000e+00
 0.000000e+00 0.000000e+00 0.000000e+00 0.000000e+00 0.000000e+00 0.000000e+00 0.000000e+00 0.000000e+00 0.000000e+00 0.000000e+00 2.116703e-01 7.883298e-01 0.000000e+00 0.000000e+00 0.000000e+00 0.000000e+00 0.000000e+00 0.000000e+00 0.000000e+00 0.000000e+00
 0.000000e+00 0.000000e+00 0.000000e+00 0.000000e+00 0.000000e+00 0.000000e+00 0.000000e+00 0.000000e+00 0.000000e+00 0.000000e+00 0.000000e+00 2.812201e-01 7.187799e-01 0.000000e+00 0.000000e+00 0.000000e+00 0.000000e+00 0.000000e+00 0.000000e+00 0.000000e+00
 0.000000e+00 0.000000e+00 0.000000e+00 0.000000e+00 0.000000e+00 0.000000e+00 0.000000e+00 0.000000e+00 0.000000e+00 0.000000e+00 0.000000e+00 0.000000e+00 3.870439e-01 6.129561e-01 0.000000e+00 0.000000e+00 0.000000e+00 0.000000e+00 0.000000e+00 0.000000e+00
 0.000000e+00 0.000000e+00 0.000000e+00 0.000000e+00 0.000000e+00 0.000000e+00 0.000000e+00 0.000000e+00 0.000000e+00 0.000000e+00 0.000000e+00 0.000000e+00 0.000000e+00 5.724890e-01 4.275110e-01 0.000000e+00 0.000000e+00 0.000000e+00 0.000000e+00 0.000000e+00
 0.000000e+00 0.000000e+00 0.000000e+00 0.000000e+00 0.000000e+00 0.000000e+00 0.000000e+00 0.000000e+00 0.000000e+00 0.000000e+00 0.000000e+00 0.000000e+00 0.000000e+00 0.000000e+00 8.833278e-01 1.166722e-01 0.000000e+00 0.000000e+00 0.000000e+00 0.000000e+00
 0.000000e+00 0.000000e+00 0.000000e+00 0.000000e+00 0.000000e+00 0.000000e+00 0.000000e+00 0.000000e+00 0.000000e+00 0.000000e+00 0.000000e+00 0.000000e+00 0.000000e+00 0.000000e+00 0.000000e+00 5.770115e-01 4.229886e-01 0.000000e+00 0.000000e+00 0.000000e+00
 0.000000e+00 0.000000e+00 0.000000e+00 0.000000e+00 0.000000e+00 0.000000e+00 0.000000e+00 0.000000e+00 0.000000e+00 0.000000e+00 0.000000e+00 0.000000e+00 0.000000e+00 0.000000e+00 0.000000e+00 0.000000e+00 6.674013e-01 3.325987e-01 0.000000e+00 0.000000e+00
 0.000000e+00 0.000000e+00 0.000000e+00 0.000000e+00 0.000000e+00 0.000000e+00 0.000000e+00 0.000000e+00 0.000000e+00 0.000000e+00 0.000000e+00 0.000000e+00 0.000000e+00 0.000000e+00 0.000000e+00 0.000000e+00 0.000000e+00 9.209393e-01 7.906076e-02 0.000000e+00
 0.000000e+00 0.000000e+00 0.000000e+00 0.000000e+00 0.000000e+00 0.000000e+00 0.000000e+00 0.000000e+00 0.000000e+00 0.000000e+00 0.000000e+00 0.000000e+00 0.000000e+00 0.000000e+00 0.000000e+00 0.000000e+00 0.000000e+00 0.000000e+00 5.016871e-01 4.983129e-01
 0.000000e+00 0.000000e+00 0.000000e+00 0.000000e+00 0.000000e+00 0.000000e+00 0.000000e+00 0.000000e+00 0.000000e+00 0.000000e+00 0.000000e+00 0.000000e+00 0.000000e+00 0.000000e+00 0.000000e+00 0.000000e+00 0.000000e+00 0.000000e+00 0.000000e+00 0.000000e+00
<ENDHMM>
