~o
<STREAMINFO> 1 39
<VECSIZE> 39<NULLD><MFCC_D_A_0><DIAGC>
~h "dua"
<BEGINHMM>
<NUMSTATES> 20
<STATE> 2
<MEAN> 39
 -1.702725e+01 -6.431158e+00 -2.690914e+00 -4.391651e+00 2.629201e-01 -4.943655e+00 -7.007515e-01 -6.296624e+00 -1.417979e-01 -7.168819e+00 -4.775256e-01 -6.733452e+00 5.663263e+01 1.122765e+00 1.496570e+00 1.457311e+00 9.778608e-01 4.830436e-01 -1.085002e-01 -6.459660e-01 -9.375935e-01 -1.273984e+00 -1.546422e+00 -1.653639e+00 -1.364848e+00 4.478363e-01 4.526386e-01 5.438981e-01 5.848680e-01 4.432473e-01 1.746458e-02 -2.680103e-01 -2.306937e-01 -3.104949e-01 -3.627725e-01 -3.890212e-01 -1.857440e-01 -1.152332e-01 2.126829e-01
<VARIANCE> 39
 2.195398e+00 4.763490e+00 6.301604e+00 7.060545e+00 9.206562e+00 8.989232e+00 1.153782e+01 1.294374e+01 1.656474e+01 1.351130e+01 1.435474e+01 2.169566e+01 3.946533e-01 1.098703e+00 1.965994e+00 2.605501e+00 2.200028e+00 1.214185e+00 1.294989e+00 1.792793e+00 3.110680e+00 4.013771e+00 3.321770e+00 2.824484e+00 2.787022e+00 2.145607e-01 1.105495e-01 1.212699e-01 1.543309e-01 2.100821e-01 1.509067e-01 3.434791e-01 2.824905e-01 4.556538e-01 4.472202e-01 4.773251e-01 4.824601e-01 4.561335e-01 2.635271e-02
<GCONST> 8.582103e+01
<STATE> 3
<MEAN> 39
 -8.438558e+00 4.866021e+00 9.352167e+00 4.512650e+00 3.875826e+00 -5.880586e+00 -3.850631e+00 -1.184439e+01 -7.429181e+00 -1.554765e+01 -7.130970e+00 -1.145572e+01 6.034157e+01 1.897489e+00 1.636654e+00 1.710524e+00 1.354675e+00 -2.870668e-03 -1.088437e+00 -1.416370e+00 -9.714283e-01 -4.966486e-01 -1.619295e-01 3.637799e-01 3.785171e-01 1.074783e+00 -1.358385e-01 -6.862999e-01 -7.815354e-01 -6.490931e-01 -5.349923e-01 -3.852585e-01 -5.568584e-01 -6.228431e-02 5.309369e-01 1.062403e+00 9.622530e-01 7.405646e-01 1.212385e-01
<VARIANCE> 39
 6.653145e+00 8.871188e+00 1.066511e+01 9.678329e+00 1.211276e+01 2.555433e+01 2.724987e+01 2.078092e+01 2.218574e+01 2.296812e+01 3.018566e+01 2.428508e+01 1.467235e+00 1.188150e+00 2.875938e+00 3.381136e+00 2.308648e+00 2.124779e+00 4.630697e+00 3.362369e+00 2.631793e+00 4.693048e+00 5.277248e+00 3.937262e+00 3.648517e+00 3.468482e-01 1.083660e-01 2.948408e-01 3.484393e-01 1.850211e-01 4.938006e-01 7.148162e-01 5.883164e-01 7.295574e-01 1.132796e+00 9.368924e-01 4.056173e-01 5.215753e-01 5.310982e-02
<GCONST> 1.057446e+02
<STATE> 4
<MEAN> 39
 -3.502622e+00 3.719058e+00 9.928022e+00 4.642183e+00 -1.330870e+00 -1.477331e+01 -1.338158e+01 -1.502587e+01 -7.717487e+00 -9.564470e+00 2.821463e-01 -5.828558e+00 6.515727e+01 1.663172e+00 -5.036281e-01 -1.015168e+00 -1.172387e+00 -2.065354e+00 -2.135535e+00 -3.415203e+00 -2.158520e+00 -2.818037e-01 3.153817e+00 2.917537e+00 1.015724e+00 1.627042e+00 -1.568627e-01 -2.359018e-02 -7.367219e-01 -7.483745e-01 1.423667e-01 8.177450e-01 4.272040e-01 -1.900046e-01 -1.164664e-01 4.073611e-01 2.764162e-01 -1.829460e-01 -2.148979e-01
<VARIANCE> 39
 4.559722e+00 1.982437e+01 2.845147e+01 2.144712e+01 4.510943e+01 7.455350e+01 5.188233e+01 1.153233e+02 3.138109e+01 1.942004e+01 5.860587e+01 4.245921e+01 1.088533e+01 4.967926e-01 2.401652e+00 3.717522e+00 1.929276e+00 5.175578e+00 6.565882e+00 5.009068e+00 7.069662e+00 7.164819e+00 5.029726e+00 3.576252e+00 5.437252e+00 5.247771e-01 1.652588e-01 4.719809e-01 2.844318e-01 4.664382e-01 7.176006e-01 1.371277e+00 6.984164e-01 8.449105e-01 7.186086e-01 5.006126e-01 6.933457e-01 3.490753e-01 1.033001e-01
<GCONST> 1.213531e+02
<STATE> 5
<MEAN> 39
 5.223963e-01 4.299631e+00 3.948837e+00 -1.956802e+00 -3.719164e+00 -1.548097e+01 -2.046828e+01 -2.150213e+01 -7.802053e+00 -1.901379e-01 7.987456e+00 -6.169631e+00 6.798241e+01 1.070493e+00 8.508762e-01 -1.853722e+00 -2.416530e+00 8.464225e-02 1.454840e+00 -2.222809e-01 -1.667580e+00 -1.046022e+00 1.496018e+00 2.245107e+00 1.151745e+00 2.738037e-01 -3.566244e-01 1.697226e-01 1.888942e-01 1.018329e-01 5.760456e-01 8.465689e-01 1.489444e+00 8.203466e-01 -3.558672e-01 -1.446690e+00 -8.860101e-01 -2.455241e-02 -4.233241e-01
<VARIANCE> 39
 3.099571e+00 2.846450e+01 4.595406e+01 9.601302e+00 3.889848e+01 4.687790e+01 5.366787e+01 1.065935e+02 6.344897e+01 3.278516e+01 7.938414e+01 7.052683e+01 9.983303e+00 2.854936e-01 4.698005e-01 1.227918e+00 7.239206e-01 1.840303e+00 4.050068e+00 3.400705e+00 2.382117e+00 2.256968e+00 3.610940e+00 3.908484e+00 1.417281e+00 2.568348e-01 4.469173e-02 2.478946e-01 2.800773e-01 1.955156e-01 6.881996e-01 6.550430e-01 4.133257e-01 6.622629e-01 9.726284e-01 7.948822e-01 7.549736e-01 7.699013e-01 3.536453e-02
<GCONST> 1.077611e+02
<STATE> 6
<MEAN> 39
 1.718375e+00 6.658748e+00 -4.169649e-02 -7.014349e+00 -2.756715e+00 -7.810238e+00 -1.378754e+01 -2.402765e+01 -1.183210e+01 -3.490396e+00 9.395765e+00 -5.264835e-01 6.699411e+01 1.256179e-01 4.225549e-01 -5.819582e-01 -1.090783e+00 -1.831461e-01 8.595192e-01 1.932952e+00 9.550643e-01 -9.703300e-01 -2.333895e+00 -9.492494e-01 5.203386e-01 -2.115071e-01 -1.759708e-01 -8.692224e-02 3.020192e-01 3.076930e-01 -3.002348e-01 -3.965946e-01 1.550666e-01 4.906203e-01 2.051723e-01 -2.525303e-01 -4.944473e-01 -1.810302e-01 -3.163562e-02
<VARIANCE> 39
 1.074202e+00 8.375417e+00 3.552309e+01 1.301868e+01 2.395016e+01 2.819149e+01 4.992488e+01 4.411331e+01 1.553519e+01 3.831667e+01 3.798946e+01 3.172466e+01 2.358652e+00 1.450734e-01 1.930393e-01 6.899111e-01 7.405593e-01 1.901320e+00 2.593303e+00 1.961948e+00 2.706816e+00 1.817533e+00 2.762005e+00 3.207945e+00 3.770734e+00 5.161821e-02 5.535355e-02 3.351320e-02 2.023323e-01 1.156624e-01 1.684453e-01 2.759354e-01 3.292546e-01 3.475352e-01 2.329421e-01 8.812616e-01 7.710545e-01 4.240053e-01 1.456411e-02
<GCONST> 8.651327e+01
<STATE> 7
<MEAN> 39
 1.476455e+00 8.319716e+00 8.585182e-01 -8.843400e+00 -5.575543e+00 -7.830707e+00 -6.936919e+00 -1.661484e+01 -1.331940e+01 -9.182988e+00 6.772541e+00 1.009254e+00 6.639224e+01 1.700431e-01 1.011064e-01 -5.478238e-01 -7.481134e-01 -4.347195e-01 4.527933e-01 8.604445e-01 4.738743e-01 5.680973e-02 -3.313290e-01 -7.597124e-02 5.865151e-01 4.532942e-02 5.284295e-02 -9.060314e-02 -7.926696e-02 -6.867300e-02 1.007744e-01 7.249694e-02 -2.276444e-01 -2.465029e-01 1.009876e-01 3.529030e-01 2.964427e-01 2.264264e-02 6.904588e-02
<VARIANCE> 39
 4.230103e+00 8.275061e+00 1.545191e+01 1.399851e+01 3.986242e+01 2.863033e+01 2.333821e+01 2.983471e+01 3.438860e+01 2.387969e+01 3.566309e+01 3.291252e+01 5.105934e+00 1.500491e-01 2.728552e-01 6.871630e-01 6.779006e-01 7.029525e-01 1.329195e+00 1.321694e+00 2.185588e+00 1.765456e+00 9.412910e-01 1.089933e+00 1.621517e+00 6.749651e-02 1.693091e-02 4.022343e-02 1.081099e-01 7.697246e-02 1.181649e-01 2.531989e-01 1.806025e-01 3.126728e-01 2.969492e-01 2.544207e-01 2.522144e-01 3.536274e-01 4.324885e-03
<GCONST> 7.611176e+01
<STATE> 8
<MEAN> 39
 2.996035e+00 7.333664e+00 -5.264018e+00 -1.535414e+01 -7.364188e+00 -5.388095e+00 -5.602347e+00 -1.828855e+01 -1.127852e+01 -6.932460e+00 8.464425e+00 3.348004e+00 6.724222e+01 2.873463e-01 -8.412531e-01 -1.416039e+00 -9.618977e-01 6.950615e-01 1.265120e+00 -6.431385e-02 -1.011003e+00 4.566016e-01 2.359006e+00 1.210303e+00 -6.833072e-01 4.212531e-01 -9.373388e-02 -3.396872e-01 -1.363009e-01 3.028522e-01 2.294384e-01 -5.336970e-03 -3.413654e-01 -5.369190e-02 5.028991e-01 5.826290e-01 -2.496143e-01 -8.692550e-01 6.505469e-02
<VARIANCE> 39
 2.710675e+00 8.120672e+00 2.046204e+01 1.389249e+01 3.536802e+01 2.413882e+01 1.929831e+01 3.114325e+01 3.801393e+01 3.981165e+01 2.009697e+01 2.465845e+01 1.439309e+00 1.096830e-01 3.688816e-01 7.175999e-01 7.252631e-01 8.403474e-01 1.516636e+00 1.729936e+00 2.834355e+00 1.728649e+00 1.230498e+00 1.969947e+00 2.988685e+00 6.128594e-02 2.133063e-02 4.994574e-02 1.645609e-01 1.084978e-01 2.143697e-01 2.179889e-01 2.620326e-01 4.525545e-01 3.353747e-01 3.823280e-01 4.268964e-01 4.412732e-01 1.124123e-02
<GCONST> 8.088943e+01
<STATE> 9
<MEAN> 39
 3.872504e+00 2.526927e+00 -8.978813e+00 -1.519641e+01 -2.353952e+00 2.914908e-01 -8.377487e+00 -2.210734e+01 -9.128695e+00 2.513227e+00 1.078137e+01 -4.692039e+00 6.972540e+01 2.215454e-02 -2.058274e+00 -1.068048e+00 3.433006e-01 6.365739e-01 3.218738e-01 -1.561458e+00 3.792818e-01 3.386857e+00 2.819256e+00 -8.021226e-01 -3.717279e+00 7.464819e-01 -4.971637e-02 -2.565337e-01 3.617598e-01 2.896828e-01 -1.010698e-01 -3.228153e-01 -9.519017e-02 6.539674e-01 5.943416e-01 -7.160324e-01 -7.740365e-01 -1.767501e-01 6.043060e-02
<VARIANCE> 39
 2.846805e+00 1.375652e+01 5.874445e+01 1.799116e+01 2.872147e+01 3.934037e+01 1.510355e+01 2.814265e+01 4.483691e+01 3.146817e+01 1.812241e+01 2.025816e+01 3.698230e+00 1.612583e-01 8.021232e-01 1.545431e+00 3.181747e-01 1.966380e+00 2.798898e+00 1.698042e+00 4.900305e+00 3.067625e+00 2.902688e+00 2.158056e+00 2.026014e+00 1.682920e-01 2.758453e-02 1.705548e-01 1.324232e-01 9.407408e-02 1.265015e-01 1.891132e-01 2.897961e-01 5.485473e-01 5.580056e-01 5.486934e-01 5.204159e-01 5.587716e-01 3.434939e-02
<GCONST> 9.169803e+01
<STATE> 10
<MEAN> 39
 3.901999e+00 -4.907904e+00 -1.132223e+01 -1.349045e+01 4.093780e-01 -3.451274e+00 -1.311564e+01 -1.611121e+01 2.649463e+00 5.248424e+00 3.009685e+00 -1.398675e+01 7.158817e+01 -2.690228e-01 -2.069970e+00 1.819902e-01 3.684754e-01 -7.774601e-02 -1.143412e-01 -7.090601e-02 1.883208e+00 2.003769e+00 -7.566553e-02 -3.052590e+00 -1.802869e+00 6.478286e-01 -1.095220e-01 1.772746e-01 3.861651e-01 -1.820335e-01 -3.188331e-01 1.036030e-01 5.250137e-01 1.589449e-02 -7.518147e-01 -4.460955e-01 -2.075516e-01 5.255548e-01 -4.969605e-02
<VARIANCE> 39
 5.164027e+00 2.474394e+01 7.989658e+01 1.739960e+01 2.500792e+01 3.920832e+01 1.897867e+01 4.787033e+01 2.596438e+01 2.375176e+01 1.062992e+02 3.107402e+01 8.449379e+00 2.629915e-01 1.160925e+00 9.782968e-01 8.932521e-01 1.027747e+00 1.432972e+00 1.604792e+00 3.894093e+00 3.759847e+00 2.060227e+00 3.928052e+00 1.891094e+00 2.518451e-01 3.009037e-02 1.003181e-01 7.218577e-02 1.052470e-01 1.500094e-01 1.244362e-01 1.614975e-01 3.889084e-01 4.195714e-01 4.121585e-01 7.323343e-01 4.001744e-01 1.193667e-02
<GCONST> 9.285557e+01
<STATE> 11
<MEAN> 39
 2.451602e+00 -1.160149e+01 -8.763480e+00 -1.384146e+01 -1.229470e+00 -4.238731e+00 -9.829222e+00 -7.548748e+00 4.744345e+00 2.077369e+00 -8.060312e+00 -1.809066e+01 7.400703e+01 -2.869755e-01 -7.439160e-01 4.272002e-01 -1.009009e-02 -1.871994e-01 -1.588818e-01 4.794682e-01 1.057931e+00 -6.695150e-02 -9.793482e-01 -1.405814e+00 -1.389387e-01 2.807115e-01 -8.524382e-03 1.962696e-01 -1.429626e-01 4.372749e-02 1.632175e-01 -2.522224e-02 -7.559015e-02 -1.329993e-01 -2.413850e-01 -2.506637e-01 2.121641e-01 3.261080e-01 -1.206200e-01
<VARIANCE> 39
 1.981988e+00 3.046749e+01 1.343653e+02 1.754539e+01 1.825556e+01 3.056688e+01 2.557462e+01 1.010078e+02 3.059892e+01 3.320119e+01 1.127516e+02 3.199349e+01 1.474479e+01 1.321482e-01 4.467307e-01 8.290586e-01 4.316837e-01 8.581492e-01 7.662071e-01 7.696002e-01 2.059206e+00 1.052177e+00 1.634867e+00 1.417975e+00 1.699134e+00 1.752165e-01 3.341594e-02 1.019573e-01 1.474766e-01 5.991496e-02 7.571065e-02 9.745577e-02 1.120642e-01 3.936777e-01 1.636028e-01 2.279449e-01 3.628733e-01 3.005067e-01 2.024158e-02
<GCONST> 8.354780e+01
<STATE> 12
<MEAN> 39
 -7.986416e-02 -7.425478e+00 -9.315610e+00 -1.689724e+01 -1.102978e+01 1.171325e+01 -6.128354e+00 -1.913185e+01 7.958158e+00 4.005237e+00 -7.130088e+00 -1.022562e+01 7.256059e+01 -5.823686e-01 -9.907489e-01 -1.932003e-01 -4.705129e-01 -1.488856e-01 8.056601e-01 -3.989449e-01 3.462685e-01 7.279769e-01 -7.848094e-01 -1.258571e+00 4.877179e-01 -1.640385e-02 -6.847019e-02 2.363904e-01 4.508933e-02 1.015088e-01 2.435385e-01 -3.952368e-01 -3.301289e-02 7.961841e-02 -2.540439e-01 -3.774235e-02 2.871330e-01 -1.164577e-02 -2.042087e-01
<VARIANCE> 39
 3.425829e+00 4.397571e+01 5.591796e+01 2.450198e+01 5.947000e+01 1.822475e+02 2.179429e+01 1.474968e+02 4.039231e+01 3.204874e+01 4.412939e+01 3.587979e+01 1.162165e+01 3.188015e-01 1.654851e+00 1.127168e+00 8.497808e-01 1.980503e+00 5.236785e+00 1.683156e+00 2.472481e+00 4.146270e+00 1.533547e+00 2.384055e+00 1.620344e+00 4.994196e-01 5.144389e-02 3.116047e-01 2.833381e-01 2.069291e-01 3.404981e-01 7.453294e-01 5.124403e-01 5.594608e-01 4.639342e-01 1.920320e-01 2.576174e-01 2.806372e-01 7.907499e-02
<GCONST> 1.066837e+02
<STATE> 13
<MEAN> 39
 -8.234565e-01 -1.406273e+01 -5.678659e+00 -1.229867e+01 4.054364e-01 -5.942794e+00 -1.071615e+01 -1.865440e+00 -8.992878e-02 -6.995234e+00 -9.071887e+00 -1.492706e+01 7.353049e+01 -6.472689e-01 1.039401e+00 -2.491389e-02 6.204733e-01 3.454480e-01 -6.621848e-01 3.560004e-01 -3.459678e-01 -1.810093e-01 -6.954598e-01 -1.859624e-01 2.860543e-01 -1.127752e+00 -5.678948e-02 2.937887e-01 1.999753e-01 1.288590e-01 -1.319327e-01 7.085183e-02 2.081705e-01 -7.280423e-02 2.140260e-01 1.873972e-01 1.875100e-01 -1.929126e-03 -1.707421e-01
<VARIANCE> 39
 2.563005e+00 2.541972e+01 9.020146e+01 2.097394e+01 3.593460e+01 9.458309e+01 1.934909e+01 9.487903e+01 7.782066e+01 2.135259e+01 6.783347e+01 2.024648e+01 1.620173e+01 1.762069e-01 1.157447e+00 1.630730e+00 3.655169e-01 6.802186e-01 1.306839e+00 1.573712e+00 2.670375e+00 2.502045e+00 1.542193e+00 1.099862e+00 1.773294e+00 2.818075e-01 4.127254e-02 1.604161e-01 5.505031e-02 6.342075e-02 1.532746e-01 3.365103e-01 2.313630e-01 4.698321e-01 3.943472e-01 2.075234e-01 2.685743e-01 3.675376e-01 4.545033e-02
<GCONST> 9.266529e+01
<STATE> 14
<MEAN> 39
 -3.470995e+00 -6.673933e+00 -7.452974e+00 -1.175510e+01 -3.452242e+00 1.744224e-01 -5.933161e+00 -1.279954e+01 5.500026e+00 -6.367800e+00 -1.523113e+01 -1.299058e+01 6.750027e+01 -7.641321e-01 7.389278e-01 7.922494e-01 1.052246e+00 8.880264e-01 -1.194731e+00 2.578293e-01 6.001770e-01 -1.068140e+00 -1.539730e+00 4.250752e-01 2.153380e-01 -1.085070e+00 1.141978e-02 -1.139502e-01 -1.563991e-01 -1.041186e-01 -2.036182e-01 4.999352e-02 2.062134e-02 -1.598269e-02 -5.034855e-02 1.168943e-01 3.135644e-01 4.882481e-02 3.956040e-02
<VARIANCE> 39
 7.705273e+00 1.063041e+01 2.086710e+01 2.430062e+01 3.707064e+01 9.564262e+01 1.840872e+01 6.717674e+01 3.071256e+01 4.798500e+01 7.321571e+01 2.869012e+01 4.145701e+00 9.743199e-02 3.639793e-01 2.730374e-01 5.694243e-01 1.787820e+00 2.491029e+00 1.874412e+00 1.505196e+00 1.035695e+00 1.120380e+00 1.796454e+00 1.250801e+00 7.335498e-02 1.535248e-02 4.756124e-02 3.008920e-02 8.613431e-02 2.107558e-01 1.257052e-01 4.150210e-01 3.390197e-01 1.041360e-01 1.676227e-01 2.635588e-01 1.167703e-01 7.085659e-03
<GCONST> 7.840053e+01
<STATE> 15
<MEAN> 39
 -5.275084e+00 -6.019192e+00 -4.718864e+00 -8.473470e+00 -1.364181e-01 -7.557375e+00 -5.601518e+00 -3.698321e+00 3.564803e-01 -9.896725e+00 -7.966399e+00 -1.192093e+01 6.544266e+01 -6.901865e-01 7.666997e-01 2.119767e-02 1.413568e-01 -3.140480e-01 3.013249e-01 1.164158e+00 -2.234572e-01 3.533151e-01 -2.255814e-01 2.528277e-01 4.110611e-01 -9.684060e-01 1.473856e-02 -1.100363e-01 -4.998122e-02 -4.636002e-02 4.080051e-02 6.684458e-02 -3.061833e-02 2.734857e-02 9.710599e-02 1.373250e-02 -1.449368e-01 -4.501374e-02 9.035470e-02
<VARIANCE> 39
 2.403438e+00 6.507665e+00 3.823223e+01 2.104373e+01 7.506446e+00 3.602100e+01 2.371537e+01 3.807581e+01 2.474931e+01 1.993483e+01 3.156711e+01 1.221649e+01 3.569495e+00 1.081598e-01 3.407612e-01 4.460796e-01 4.570662e-01 8.413202e-01 1.054205e+00 9.587514e-01 1.367830e+00 1.627975e+00 4.383234e-01 1.725464e+00 8.669986e-01 6.323328e-02 1.494093e-02 4.912952e-02 6.010631e-02 7.388104e-02 9.934632e-02 1.419361e-01 1.406193e-01 1.286214e-01 2.823284e-01 1.220355e-01 1.860723e-01 1.318337e-01 5.907030e-03
<GCONST> 6.640054e+01
<STATE> 16
<MEAN> 39
 -9.568913e+00 -5.800710e+00 -7.543211e+00 -1.037570e+01 -2.161361e+00 -4.019571e+00 -1.665684e+00 -7.202895e+00 2.561802e+00 -9.363985e+00 -8.329320e+00 -1.097595e+01 6.157883e+01 -8.216094e-01 4.832610e-02 3.509470e-01 7.686588e-01 3.359561e-01 6.296112e-02 4.597520e-01 7.014706e-01 -2.955265e-01 -2.614808e-01 7.640039e-01 2.635990e-01 -6.305393e-01 1.040144e-02 -4.320142e-02 4.016579e-02 1.066249e-01 1.555224e-01 7.759258e-02 -1.477070e-01 -3.040102e-02 -1.394646e-02 2.468999e-01 1.438349e-01 1.440201e-01 4.992208e-02
<VARIANCE> 39
 7.911153e+00 6.887427e+00 1.541490e+01 8.385844e+00 7.612944e+00 1.999211e+01 8.196099e+00 2.223204e+01 1.404425e+01 1.417415e+01 2.798439e+01 1.986247e+01 2.644742e+00 1.201543e-01 4.205669e-01 6.828550e-01 2.945262e-01 9.020073e-01 1.236311e+00 5.173594e-01 1.285823e+00 7.212468e-01 1.140579e+00 1.572417e+00 1.170979e+00 2.724128e-02 1.366413e-02 7.061341e-02 9.173295e-02 5.657329e-02 1.307190e-01 1.240849e-01 1.089813e-01 1.145138e-01 1.377561e-01 8.383777e-02 1.192134e-01 1.627222e-01 2.342796e-03
<GCONST> 6.010886e+01
<STATE> 17
<MEAN> 39
 -1.015792e+01 -2.231327e+00 -2.548158e+00 -4.562151e+00 4.711274e-01 -5.371941e+00 -8.993819e-01 -4.624527e+00 1.463691e+00 -1.128308e+01 -6.850468e+00 -7.646672e+00 6.029377e+01 -6.840256e-01 2.287843e-01 3.312625e-01 1.696086e-01 -6.855865e-02 -1.130039e-01 3.900351e-01 2.325339e-01 -3.266043e-01 4.514468e-01 9.857169e-01 8.077600e-01 -5.711364e-01 -1.172440e-03 -1.005125e-01 -7.079701e-02 -1.746604e-01 -1.458450e-01 -5.386098e-02 2.396026e-02 -1.204691e-02 -4.118945e-02 2.595139e-02 1.181675e-03 -7.736814e-02 3.069003e-02
<VARIANCE> 39
 6.587228e+00 9.804008e+00 8.675954e+00 9.612826e+00 8.543677e+00 2.103995e+01 2.219787e+01 1.893927e+01 1.457011e+01 2.117838e+01 2.124031e+01 1.869567e+01 2.199456e+00 1.673014e-01 3.729301e-01 6.876035e-01 4.881539e-01 7.254296e-01 1.941355e+00 1.443252e+00 1.300639e+00 1.002088e+00 6.839092e-01 9.620928e-01 1.039805e+00 5.705842e-02 2.071385e-02 5.559391e-02 1.138522e-01 4.541424e-02 9.842950e-02 3.240608e-01 1.817822e-01 1.852675e-01 1.574462e-01 2.084794e-01 2.381762e-01 1.114767e-01 5.619796e-03
<GCONST> 6.677673e+01
<STATE> 18
<MEAN> 39
 -1.474841e+01 -5.937705e+00 -5.130652e+00 -7.491128e+00 -1.181249e+00 -5.248695e+00 -4.029687e-01 -5.284163e+00 1.540967e-01 -7.747822e+00 -1.844467e+00 -7.835769e+00 5.803103e+01 -6.241366e-01 -1.758706e-01 2.220273e-03 -2.276857e-01 -2.971329e-01 -4.464536e-02 3.363451e-01 -1.992166e-01 -3.667339e-01 -4.927942e-02 5.289998e-01 2.910335e-01 -3.350803e-01 4.084701e-02 1.715876e-02 1.208265e-02 -4.423152e-02 1.621427e-02 1.241997e-01 8.984202e-02 -5.783690e-02 -3.022037e-02 -1.299048e-01 -1.085463e-01 -5.705939e-02 1.937223e-02
<VARIANCE> 39
 3.141516e+00 7.666377e+00 1.221730e+01 1.015740e+01 1.012099e+01 1.867135e+01 1.150370e+01 1.927103e+01 1.911958e+01 1.918803e+01 1.900735e+01 2.665620e+01 7.636815e-01 8.324426e-02 2.134879e-01 5.743706e-01 5.142760e-01 6.783102e-01 1.580416e+00 9.391168e-01 2.192387e+00 1.163424e+00 1.848988e+00 1.870810e+00 9.963323e-01 3.148175e-02 1.266727e-02 2.274908e-02 8.457465e-02 1.470539e-01 1.160109e-01 1.628232e-01 1.876375e-01 4.394814e-01 2.056557e-01 3.505147e-01 2.937019e-01 1.969963e-01 7.726819e-03
<GCONST> 6.631202e+01
<STATE> 19
<MEAN> 39
 -1.525469e+01 -3.194561e+00 -1.981881e+00 -5.838320e+00 -1.035425e+00 -4.247072e+00 4.845941e+00 -3.655133e+00 -2.324654e+00 -1.016860e+01 -1.058290e+00 -3.736515e+00 5.691946e+01 -4.500868e-01 -1.640502e-01 3.160734e-01 2.656820e-01 3.271835e-01 9.956592e-01 1.510580e+00 6.296239e-01 -5.528869e-01 -3.088501e-01 2.120096e-01 4.289544e-01 -2.886359e-01 4.406701e-02 -1.998869e-02 1.603987e-02 1.377058e-01 1.203266e-01 2.332133e-01 1.120374e-01 2.943156e-01 2.503133e-01 6.669273e-02 4.479992e-02 7.009459e-02 5.558551e-02
<VARIANCE> 39
 4.230587e+00 1.952437e+01 2.549300e+01 1.196292e+01 1.911319e+01 2.784089e+01 3.650144e+01 3.665894e+01 2.134666e+01 1.159740e+01 1.015852e+01 4.160119e+01 9.526739e-01 2.788552e-01 4.310867e-01 7.423068e-01 1.352702e+00 1.714223e+00 1.231768e+00 1.028930e+00 1.607464e+00 1.315818e+00 1.969274e+00 1.458789e+00 1.567458e+00 8.326070e-02 3.412336e-02 7.914871e-02 1.740467e-01 2.198095e-01 2.656925e-01 2.745351e-01 2.740404e-01 2.788748e-01 2.421162e-01 4.977150e-01 2.495626e-01 5.010397e-01 6.372348e-03
<GCONST> 8.160840e+01
<TRANSP> 20
 0.000000e+00 1.000000e+00 0.000000e+00 0.000000e+00 0.000000e+00 0.000000e+00 0.000000e+00 0.000000e+00 0.000000e+00 0.000000e+00 0.000000e+00 0.000000e+00 0.000000e+00 0.000000e+00 0.000000e+00 0.000000e+00 0.000000e+00 0.000000e+00 0.000000e+00 0.000000e+00
 0.000000e+00 7.444493e-01 2.555507e-01 0.000000e+00 0.000000e+00 0.000000e+00 0.000000e+00 0.000000e+00 0.000000e+00 0.000000e+00 0.000000e+00 0.000000e+00 0.000000e+00 0.000000e+00 0.000000e+00 0.000000e+00 0.000000e+00 0.000000e+00 0.000000e+00 0.000000e+00
 0.000000e+00 0.000000e+00 7.390022e-01 2.609979e-01 0.000000e+00 0.000000e+00 0.000000e+00 0.000000e+00 0.000000e+00 0.000000e+00 0.000000e+00 0.000000e+00 0.000000e+00 0.000000e+00 0.000000e+00 0.000000e+00 0.000000e+00 0.000000e+00 0.000000e+00 0.000000e+00
 0.000000e+00 0.000000e+00 0.000000e+00 6.151750e-01 3.848250e-01 0.000000e+00 0.000000e+00 0.000000e+00 0.000000e+00 0.000000e+00 0.000000e+00 0.000000e+00 0.000000e+00 0.000000e+00 0.000000e+00 0.000000e+00 0.000000e+00 0.000000e+00 0.000000e+00 0.000000e+00
 0.000000e+00 0.000000e+00 0.000000e+00 0.000000e+00 5.971743e-01 4.028257e-01 0.000000e+00 0.000000e+00 0.000000e+00 0.000000e+00 0.000000e+00 0.000000e+00 0.000000e+00 0.000000e+00 0.000000e+00 0.000000e+00 0.000000e+00 0.000000e+00 0.000000e+00 0.000000e+00
 0.000000e+00 0.000000e+00 0.000000e+00 0.000000e+00 0.000000e+00 6.862012e-01 3.137988e-01 0.000000e+00 0.000000e+00 0.000000e+00 0.000000e+00 0.000000e+00 0.000000e+00 0.000000e+00 0.000000e+00 0.000000e+00 0.000000e+00 0.000000e+00 0.000000e+00 0.000000e+00
 0.000000e+00 0.000000e+00 0.000000e+00 0.000000e+00 0.000000e+00 0.000000e+00 8.397213e-01 1.602787e-01 0.000000e+00 0.000000e+00 0.000000e+00 0.000000e+00 0.000000e+00 0.000000e+00 0.000000e+00 0.000000e+00 0.000000e+00 0.000000e+00 0.000000e+00 0.000000e+00
 0.000000e+00 0.000000e+00 0.000000e+00 0.000000e+00 0.000000e+00 0.000000e+00 0.000000e+00 7.195739e-01 2.804261e-01 0.000000e+00 0.000000e+00 0.000000e+00 0.000000e+00 0.000000e+00 0.000000e+00 0.000000e+00 0.000000e+00 0.000000e+00 0.000000e+00 0.000000e+00
 0.000000e+00 0.000000e+00 0.000000e+00 0.000000e+00 0.000000e+00 0.000000e+00 0.000000e+00 0.000000e+00 5.975497e-01 4.024503e-01 0.000000e+00 0.000000e+00 0.000000e+00 0.000000e+00 0.000000e+00 0.000000e+00 0.000000e+00 0.000000e+00 0.000000e+00 0.000000e+00
 0.000000e+00 0.000000e+00 0.000000e+00 0.000000e+00 0.000000e+00 0.000000e+00 0.000000e+00 0.000000e+00 0.000000e+00 6.931503e-01 3.068498e-01 0.000000e+00 0.000000e+00 0.000000e+00 0.000000e+00 0.000000e+00 0.000000e+00 0.000000e+00 0.000000e+00 0.000000e+00
 0.000000e+00 0.000000e+00 0.000000e+00 0.000000e+00 0.000000e+00 0.000000e+00 0.000000e+00 0.000000e+00 0.000000e+00 0.000000e+00 7.853265e-01 2.146735e-01 0.000000e+00 0.000000e+00 0.000000e+00 0.000000e+00 0.000000e+00 0.000000e+00 0.000000e+00 0.000000e+00
 0.000000e+00 0.000000e+00 0.000000e+00 0.000000e+00 0.000000e+00 0.000000e+00 0.000000e+00 0.000000e+00 0.000000e+00 0.000000e+00 0.000000e+00 6.250653e-01 3.749347e-01 0.000000e+00 0.000000e+00 0.000000e+00 0.000000e+00 0.000000e+00 0.000000e+00 0.000000e+00
 0.000000e+00 0.000000e+00 0.000000e+00 0.000000e+00 0.000000e+00 0.000000e+00 0.000000e+00 0.000000e+00 0.000000e+00 0.000000e+00 0.000000e+00 0.000000e+00 7.097875e-01 2.902125e-01 0.000000e+00 0.000000e+00 0.000000e+00 0.000000e+00 0.000000e+00 0.000000e+00
 0.000000e+00 0.000000e+00 0.000000e+00 0.000000e+00 0.000000e+00 0.000000e+00 0.000000e+00 0.000000e+00 0.000000e+00 0.000000e+00 0.000000e+00 0.000000e+00 0.000000e+00 6.584065e-01 3.415935e-01 0.000000e+00 0.000000e+00 0.000000e+00 0.000000e+00 0.000000e+00
 0.000000e+00 0.000000e+00 0.000000e+00 0.000000e+00 0.000000e+00 0.000000e+00 0.000000e+00 0.000000e+00 0.000000e+00 0.000000e+00 0.000000e+00 0.000000e+00 0.000000e+00 0.000000e+00 6.984125e-01 3.015875e-01 0.000000e+00 0.000000e+00 0.000000e+00 0.000000e+00
 0.000000e+00 0.000000e+00 0.000000e+00 0.000000e+00 0.000000e+00 0.000000e+00 0.000000e+00 0.000000e+00 0.000000e+00 0.000000e+00 0.000000e+00 0.000000e+00 0.000000e+00 0.000000e+00 0.000000e+00 7.095237e-01 2.904762e-01 0.000000e+00 0.000000e+00 0.000000e+00
 0.000000e+00 0.000000e+00 0.000000e+00 0.000000e+00 0.000000e+00 0.000000e+00 0.000000e+00 0.000000e+00 0.000000e+00 0.000000e+00 0.000000e+00 0.000000e+00 0.000000e+00 0.000000e+00 0.000000e+00 0.000000e+00 7.640982e-01 2.359018e-01 0.000000e+00 0.000000e+00
 0.000000e+00 0.000000e+00 0.000000e+00 0.000000e+00 0.000000e+00 0.000000e+00 0.000000e+00 0.000000e+00 0.000000e+00 0.000000e+00 0.000000e+00 0.000000e+00 0.000000e+00 0.000000e+00 0.000000e+00 0.000000e+00 0.000000e+00 7.635834e-01 2.364167e-01 0.000000e+00
 0.000000e+00 0.000000e+00 0.000000e+00 0.000000e+00 0.000000e+00 0.000000e+00 0.000000e+00 0.000000e+00 0.000000e+00 0.000000e+00 0.000000e+00 0.000000e+00 0.000000e+00 0.000000e+00 0.000000e+00 0.000000e+00 0.000000e+00 0.000000e+00 6.267948e-01 3.732052e-01
 0.000000e+00 0.000000e+00 0.000000e+00 0.000000e+00 0.000000e+00 0.000000e+00 0.000000e+00 0.000000e+00 0.000000e+00 0.000000e+00 0.000000e+00 0.000000e+00 0.000000e+00 0.000000e+00 0.000000e+00 0.000000e+00 0.000000e+00 0.000000e+00 0.000000e+00 0.000000e+00
<ENDHMM>
