~o
<STREAMINFO> 1 39
<VECSIZE> 39<NULLD><MFCC_D_A_0><DIAGC>
~h "pasang"
<BEGINHMM>
<NUMSTATES> 20
<STATE> 2
<MEAN> 39
 -1.540942e+01 -5.796827e+00 -2.566422e+00 -5.060513e+00 -3.189978e-01 -5.358256e+00 -1.679003e-01 -6.816016e+00 -4.161989e-01 -7.315765e+00 -5.532421e-01 -7.059750e+00 5.824580e+01 2.117551e+00 3.859397e-01 -1.075885e+00 -1.288298e+00 -3.486492e-02 4.067060e-01 -3.361316e-01 -9.132256e-01 -1.352845e-01 5.781763e-01 4.617334e-01 -8.832169e-01 1.530341e+00 8.366706e-01 -4.494846e-02 -5.586147e-01 -3.704605e-01 2.305574e-01 3.213247e-01 -2.583699e-01 -5.106900e-01 -8.744238e-03 1.314765e-01 2.713815e-02 -2.885297e-01 5.747850e-01
<VARIANCE> 39
 6.380136e+00 6.211882e+00 8.612136e+00 1.875718e+01 1.565717e+01 1.308051e+01 1.939957e+01 2.363128e+01 1.773272e+01 1.581501e+01 1.493561e+01 8.514510e+00 3.887336e+00 3.897561e+00 1.001343e+00 3.527427e+00 3.677096e+00 2.950422e+00 2.459264e+00 3.384030e+00 4.129194e+00 1.263872e+00 2.357040e+00 2.236871e+00 1.699866e+00 1.899442e+00 2.891334e-01 2.125973e-01 4.372587e-01 4.039204e-01 3.628657e-01 4.406070e-01 5.177517e-01 4.914926e-01 3.138966e-01 4.171580e-01 4.702407e-01 2.136540e-01 1.379242e-01
<GCONST> 1.013064e+02
<STATE> 3
<MEAN> 39
 3.251975e-01 -6.250242e+00 -1.358274e+01 -1.369452e+01 2.131768e+00 1.904033e-01 -4.242927e+00 -1.553509e+01 -1.568752e+00 -3.881042e+00 -1.029323e+00 -1.362278e+01 6.918110e+01 2.574482e+00 -7.668195e-01 -1.558256e+00 2.583242e-02 1.252586e+00 1.654124e-01 -1.066038e+00 -8.377309e-01 7.904568e-01 -2.808860e-01 -1.578963e+00 -8.355112e-01 2.023594e+00 -1.042114e+00 -9.704318e-02 8.095768e-01 9.695635e-01 4.709535e-02 -6.815079e-01 2.284061e-01 8.419096e-01 4.118257e-01 -5.722236e-01 -4.403453e-01 5.511158e-01 -6.178687e-01
<VARIANCE> 39
 1.211984e+01 2.066240e+01 4.097616e+01 2.587486e+01 6.756117e+01 4.250584e+01 7.045829e+01 6.153720e+01 2.087385e+01 6.040886e+01 5.133945e+01 1.985489e+01 1.237494e+01 3.835347e+00 1.192464e+00 5.082003e+00 3.900203e+00 2.002924e+00 4.640506e+00 2.956049e+00 6.742071e+00 3.093309e+00 4.843576e+00 4.100321e+00 2.824120e+00 1.779415e+00 2.104184e-01 2.146149e-01 4.914286e-01 4.599373e-01 4.401326e-01 3.099091e-01 6.951259e-01 5.675619e-01 4.875616e-01 3.513942e-01 6.842541e-01 3.910177e-01 1.050653e-01
<GCONST> 1.197046e+02
<STATE> 4
<MEAN> 39
 2.035324e+00 -7.553952e+00 -9.280518e+00 -6.871960e+00 8.734212e+00 -5.166074e+00 -5.206776e+00 -6.018202e+00 3.789521e+00 -6.195645e+00 -3.756238e+00 -1.164974e+01 7.292910e+01 -4.187004e-01 3.883511e-01 8.058109e-01 6.881815e-01 5.675548e-01 -8.560798e-01 9.067722e-02 1.159596e+00 -5.029479e-02 -8.401965e-01 -3.659165e-01 4.077096e-01 -1.088766e-01 -3.734312e-01 3.185995e-01 1.148259e-01 1.625283e-02 -1.212682e-01 8.050759e-02 2.415870e-01 -7.483236e-02 -2.414488e-01 -8.916963e-02 2.382659e-01 9.866054e-02 -2.367123e-01
<VARIANCE> 39
 4.250700e+00 3.292250e+01 5.945240e+01 2.403676e+01 8.121066e+01 4.735011e+01 3.606295e+01 1.111793e+02 2.216460e+01 1.143569e+02 4.988069e+01 1.944074e+01 1.605201e+01 2.720488e-01 6.989064e-01 1.069846e+00 1.447960e+00 1.691716e+00 9.602673e-01 1.866472e+00 1.392062e+00 2.386588e+00 2.480016e+00 1.749077e+00 7.378887e-01 2.082953e-01 1.108485e-01 1.108010e-01 3.269297e-01 2.953927e-01 2.627242e-01 2.107735e-01 2.474887e-01 3.474848e-01 4.018021e-01 4.268686e-01 2.350220e-01 1.889784e-01 4.042613e-02
<GCONST> 9.843736e+01
<STATE> 5
<MEAN> 39
 -5.860869e+00 -2.141505e+00 -9.154432e+00 -2.793627e+00 8.792509e+00 -8.462633e+00 -2.780971e+00 -8.859056e+00 1.139607e+00 -1.451740e+01 -9.303349e+00 -8.563030e+00 6.965430e+01 -3.421387e+00 2.881658e+00 -8.720580e-01 2.002918e+00 3.081411e-02 -2.009278e-01 1.607158e+00 -5.156031e-01 5.362466e-02 -4.644864e-01 2.975180e-01 7.604431e-01 -1.251970e-01 -5.039316e-01 5.632145e-01 -6.679850e-01 9.936464e-02 -2.165816e-01 2.104345e-01 1.645988e-01 -3.358966e-01 -1.081108e-02 3.990273e-01 3.292990e-01 -1.943338e-01 1.772637e-01
<VARIANCE> 39
 3.263593e+01 3.291594e+01 3.551154e+01 3.581376e+01 3.763884e+01 4.211193e+01 2.639058e+01 7.602072e+01 3.517686e+01 1.315132e+02 1.051787e+02 3.026851e+01 9.017493e+00 1.570499e+00 2.934289e+00 4.125142e+00 1.818156e+00 1.528207e+00 3.255788e+00 1.455489e+00 2.812146e+00 2.465866e+00 6.916589e+00 2.472429e+00 2.640423e+00 2.769359e-01 3.325129e-01 3.301037e-01 3.425802e-01 3.491111e-01 2.457279e-01 3.992352e-01 1.944308e-01 4.833772e-01 5.388478e-01 8.031485e-01 3.885675e-01 3.613779e-01 2.736689e-02
<GCONST> 1.140483e+02
<STATE> 6
<MEAN> 39
 -2.161873e+01 1.333522e+01 -1.486215e+01 5.666376e+00 5.992224e+00 -7.202546e+00 4.968979e+00 -1.001336e+01 2.115188e+00 -1.254676e+01 -2.152793e+00 -8.941843e+00 6.971648e+01 -1.656358e+00 1.336411e+00 -1.215651e-01 5.567018e-01 1.332731e-03 -1.980911e-01 7.864875e-01 1.136696e-01 -2.657583e-01 1.557746e-01 5.695590e-01 3.335610e-02 -3.131061e-01 5.674446e-01 -6.320496e-01 4.233025e-01 -4.296590e-01 5.520809e-02 -1.178767e-01 -2.582196e-01 1.710743e-01 -6.812079e-02 1.452667e-01 -7.974611e-02 -2.942219e-02 -1.174976e-01
<VARIANCE> 39
 1.010664e+01 2.166177e+01 2.183082e+01 3.008134e+01 5.753513e+01 1.516184e+01 3.330960e+01 4.337968e+01 3.313774e+01 4.250492e+01 7.261604e+01 2.347600e+01 9.253385e+00 1.310066e+00 1.945281e+00 1.692877e+00 1.707249e+00 1.225135e+00 1.480246e+00 1.180759e+00 1.506743e+00 2.084746e+00 1.881040e+00 2.127796e+00 1.063566e+00 1.607409e-01 1.099310e-01 1.093640e-01 1.826469e-01 2.006817e-01 2.246885e-01 2.234933e-01 2.588596e-01 2.289095e-01 4.283429e-01 3.353316e-01 2.810290e-01 1.739275e-01 2.189896e-02
<GCONST> 9.571531e+01
<STATE> 7
<MEAN> 39
 -2.495165e+01 1.309327e+01 -1.204220e+01 4.162909e+00 7.701040e+00 -1.027075e+01 6.232815e+00 -8.228683e+00 -1.058428e+00 -1.080212e+01 -1.906257e+00 -8.078777e+00 6.721048e+01 1.906444e+00 -1.350638e+00 5.846879e-01 -1.635964e+00 -1.265657e+00 -1.154937e+00 -1.407317e+00 2.755044e-01 4.718462e-01 1.143658e+00 1.687602e-01 -2.448300e-01 -1.517129e-01 1.430474e+00 -5.201725e-01 -4.806515e-01 -6.121058e-01 -5.642354e-01 -1.588244e-01 -9.820648e-01 -1.548271e-01 6.024989e-01 1.629949e-01 -3.851717e-01 -1.629627e-01 5.900068e-01
<VARIANCE> 39
 6.599239e+00 1.735767e+01 2.415882e+01 1.774716e+01 5.972152e+01 1.928675e+01 2.394966e+01 4.651437e+01 2.277323e+01 2.246861e+01 8.557490e+01 1.964940e+01 8.243232e+00 3.436214e+00 1.093088e+00 1.048102e+00 9.936860e-01 1.340802e+00 2.556737e+00 3.037549e+00 1.830005e+00 2.221658e+00 2.280856e+00 1.902527e+00 1.506167e+00 5.370741e-01 9.586611e-02 1.260395e-01 3.238871e-01 1.348945e-01 1.721144e-01 6.834326e-01 3.576897e-01 4.934981e-01 3.270825e-01 4.868069e-01 7.263935e-01 3.047626e-01 1.134340e-01
<GCONST> 1.017408e+02
<STATE> 8
<MEAN> 39
 -1.131740e+01 7.869036e+00 -1.400102e+01 -4.564708e+00 -1.406671e-02 -1.507597e+01 -4.392201e+00 -9.028438e+00 5.092676e+00 -5.571854e+00 -3.905383e+00 -9.899533e+00 7.046545e+01 4.813148e+00 -3.034579e+00 -1.792494e+00 -2.424161e+00 -1.339414e+00 -4.977493e-01 -3.260817e+00 -1.264207e-01 1.354050e+00 4.913609e-01 -1.831686e+00 -6.444959e-01 2.235653e+00 -4.624970e-01 -5.684340e-01 -2.225647e-01 6.075683e-01 7.077977e-01 8.007425e-01 6.186120e-01 3.484712e-02 -5.494019e-01 -6.110491e-01 -1.149988e-01 1.390015e-01 1.812117e-01
<VARIANCE> 39
 3.128257e+01 1.758523e+01 2.299058e+01 2.458015e+01 4.139462e+01 4.499554e+01 5.814552e+01 3.495050e+01 1.708257e+01 1.669896e+01 1.181687e+02 2.346246e+01 1.449708e+01 1.029665e+00 2.132913e+00 2.590360e+00 1.702246e+00 3.119113e+00 8.460220e+00 4.512196e+00 3.396443e+00 3.137202e+00 4.410102e+00 4.233743e+00 2.794947e+00 4.798338e-01 6.001544e-01 1.803272e-01 3.737305e-01 2.914100e-01 4.250273e-01 7.152404e-01 7.505948e-01 7.450436e-01 4.068934e-01 3.690221e-01 5.872344e-01 4.017518e-01 2.396080e-01
<GCONST> 1.173807e+02
<STATE> 9
<MEAN> 39
 -3.573473e+00 -4.052970e+00 -1.767578e+01 -5.837552e+00 1.512788e+00 -1.029794e+01 -6.504211e+00 -8.597857e+00 4.253891e+00 -8.518717e+00 -7.666506e+00 -1.012597e+01 7.550205e+01 1.098816e+00 -3.137410e+00 -1.629470e-01 4.018758e-01 7.020608e-01 1.691528e+00 7.513356e-02 -2.588914e-01 -1.088140e+00 -5.819388e-01 1.154081e-01 1.264725e-01 6.135653e-01 -7.709524e-01 5.492649e-01 5.950739e-01 2.712560e-01 1.098244e-01 5.687602e-02 4.038128e-01 -1.304610e-01 -2.821085e-01 7.597966e-02 4.422206e-01 5.690103e-02 -5.400522e-01
<VARIANCE> 39
 5.533125e+00 1.631641e+01 3.631275e+01 2.144898e+01 3.211151e+01 6.825803e+01 8.377819e+01 8.653782e+01 3.467420e+01 6.756892e+01 1.525157e+02 2.753429e+01 1.451262e+01 5.733573e-01 1.656776e+00 1.491701e+00 6.708059e-01 3.927609e+00 2.147774e+00 1.381991e+00 4.995177e+00 2.360907e+00 2.579946e+00 1.516052e+00 1.885745e+00 5.362027e-01 1.870015e-01 2.088743e-01 1.950511e-01 3.267112e-01 5.545186e-01 5.940858e-01 5.286196e-01 5.527248e-01 5.105849e-01 3.839212e-01 3.969748e-01 3.857363e-01 4.369278e-02
<GCONST> 1.094707e+02
<STATE> 10
<MEAN> 39
 -9.624856e-01 -1.112333e+01 -1.414999e+01 -5.681425e+00 2.578388e+00 -9.992922e+00 -7.633469e+00 -5.486083e+00 1.113408e+00 -5.279269e+00 -2.259171e+00 -1.226587e+01 7.605878e+01 3.856544e-01 -4.316236e-01 1.061567e+00 -6.294754e-01 2.361068e-02 2.740118e-01 -9.288025e-01 -4.367978e-02 4.405922e-01 6.150696e-02 -4.129234e-01 -1.332788e-01 -4.009656e-01 -1.775450e-02 5.122290e-01 2.008132e-01 -1.729944e-01 -4.795446e-02 -7.219838e-02 -9.861803e-02 6.253397e-02 1.107295e-01 -9.180899e-02 -9.982837e-02 -1.925026e-02 -1.552503e-01
<VARIANCE> 39
 3.167362e+00 1.387202e+01 8.157048e+01 3.118711e+01 6.964478e+01 8.715341e+01 7.874850e+01 1.451317e+02 5.747729e+01 6.402124e+01 1.224932e+02 3.495510e+01 1.364809e+01 8.690479e-02 1.096479e+00 4.752031e-01 5.987459e-01 1.361043e+00 2.032719e+00 1.668386e+00 1.971124e+00 4.265654e+00 1.608845e+00 1.773072e+00 1.386740e+00 1.105089e-01 1.766311e-02 5.880911e-02 7.459549e-02 8.378460e-02 2.902896e-01 2.303654e-01 3.596744e-01 3.220424e-01 6.882328e-01 2.676605e-01 3.179459e-01 2.464125e-01 7.836021e-03
<GCONST> 9.387337e+01
<STATE> 11
<MEAN> 39
 4.633968e-03 -7.243701e+00 -9.027167e+00 -9.922667e+00 -2.443265e-01 -2.610821e+00 -1.008202e+01 -1.289260e+01 4.065191e+00 -1.094059e+01 -7.068736e+00 -8.436090e+00 7.035795e+01 1.429316e-01 1.004340e+00 1.720212e+00 -7.606651e-01 4.021500e-01 2.756797e-01 -2.199718e-01 -2.396442e-01 -1.334581e+00 -4.386405e-01 1.008332e+00 5.935372e-02 -8.908456e-01 -6.703673e-02 8.233682e-02 2.809276e-02 1.161328e-01 4.055443e-02 -2.776134e-01 1.054546e-01 -7.053502e-02 -2.960714e-01 1.399150e-02 -1.575710e-02 -5.546487e-02 -5.755194e-03
<VARIANCE> 39
 5.145340e+00 6.736276e+00 3.292086e+01 2.350291e+01 4.389718e+01 7.804253e+01 5.551951e+01 1.007670e+02 5.796950e+01 6.277389e+01 6.496473e+01 2.262005e+01 9.111417e+00 1.897093e-01 3.216087e-01 5.538323e-01 1.355038e+00 1.957633e+00 1.745116e+00 1.986960e+00 2.303685e+00 2.025831e+00 1.992536e+00 3.305021e+00 1.735135e+00 6.383374e-02 2.570615e-02 5.924147e-02 1.123336e-01 1.417644e-01 2.013777e-01 2.791546e-01 3.334245e-01 3.426157e-01 4.747000e-01 3.544512e-01 5.832840e-01 2.040956e-01 1.378883e-02
<GCONST> 9.253126e+01
<STATE> 12
<MEAN> 39
 3.252318e+00 -4.390480e+00 3.460710e+00 -1.663716e+01 6.464356e+00 -1.233748e+01 -1.254691e+01 -2.833153e+00 -1.005527e+01 -5.517323e+00 -3.998739e+00 -8.451736e+00 6.951225e+01 1.966842e-01 6.575564e-01 9.064779e-01 1.237812e-01 -1.344894e-01 -8.938774e-02 4.230749e-01 -7.566127e-01 -1.297181e+00 -6.604177e-01 -6.063765e-01 2.359973e-01 -8.961723e-01 -8.281897e-02 -6.198055e-02 -8.483928e-02 1.867752e-01 -3.275403e-02 7.603250e-02 9.805252e-02 -2.618702e-02 1.661989e-01 -7.486100e-02 -3.637625e-02 -6.890346e-02 4.606118e-05
<VARIANCE> 39
 7.510469e+00 7.910125e+00 4.276692e+01 1.591775e+01 1.743681e+01 4.033570e+01 3.434079e+01 6.492804e+01 4.096351e+01 6.838977e+01 3.591513e+01 3.001141e+01 1.832068e+01 2.194140e-01 2.109828e-01 9.446657e-01 1.109003e+00 2.097247e+00 1.823601e+00 7.876849e-01 1.348921e+00 3.341047e+00 6.710848e-01 1.250574e+00 1.529363e+00 9.155838e-02 3.004948e-02 3.815137e-02 9.422323e-02 6.173852e-02 1.418118e-01 2.031041e-01 1.594556e-01 2.142986e-01 4.389919e-01 1.075866e-01 1.765072e-01 1.698083e-01 8.223274e-03
<GCONST> 8.161719e+01
<STATE> 13
<MEAN> 39
 -3.775745e-01 -9.092777e-01 4.193860e-01 -1.026054e+01 2.035435e+00 -6.926458e+00 -1.163970e+01 -1.847082e+01 -1.172579e+01 -1.875625e+01 -9.415940e+00 -1.232764e+01 6.429547e+01 -5.120412e-01 4.160099e-01 1.188506e+00 5.381355e-01 -8.142534e-02 5.565767e-02 8.441454e-01 1.696204e-01 -4.393136e-01 -2.485318e-01 -2.590051e-02 -3.198846e-01 -7.568998e-01 -1.665754e-01 -2.255132e-01 -1.509020e-01 8.010577e-02 -5.922149e-02 8.452994e-02 1.696856e-01 3.317217e-01 4.291805e-01 4.299527e-01 1.098003e-01 1.951033e-01 -3.272308e-03
<VARIANCE> 39
 8.191467e+00 5.323921e+00 3.022505e+01 2.269564e+01 2.125835e+01 2.537208e+01 2.313822e+01 7.300430e+01 5.280884e+01 8.509952e+01 4.310483e+01 2.410219e+01 1.719395e+00 3.330378e-01 2.341798e-01 9.463761e-01 3.638267e-01 1.078259e+00 8.971481e-01 1.131746e+00 1.818623e+00 2.670520e+00 1.668999e+00 1.247407e+00 1.075565e+00 4.690312e-02 4.492654e-02 4.486521e-02 7.514808e-02 6.895378e-02 1.592029e-01 1.298679e-01 2.044639e-01 1.992762e-01 2.327918e-01 2.167669e-01 2.990144e-01 2.153062e-01 1.194006e-02
<GCONST> 7.869818e+01
<STATE> 14
<MEAN> 39
 -3.032821e+00 -3.326571e-01 8.524463e+00 -4.595798e+00 7.200824e+00 -2.375365e+00 2.127821e-01 -3.219499e+00 -5.065452e+00 -7.657685e+00 -6.774787e+00 -5.942396e+00 6.069346e+01 -9.460203e-01 1.996984e-02 6.106537e-01 7.851506e-01 -3.878436e-01 -1.008453e-01 5.305968e-01 3.302542e-01 -1.917651e-02 -1.512588e-01 -3.933520e-01 3.867685e-01 -6.793299e-01 -2.069946e-02 -4.127367e-03 1.205869e-04 8.017692e-03 -2.509234e-02 -9.845190e-02 -1.247113e-01 -1.214536e-01 -2.080795e-01 -1.501948e-01 1.836244e-02 -3.848550e-02 5.017498e-02
<VARIANCE> 39
 1.234535e+01 6.911347e+00 4.271463e+01 2.964241e+01 4.445188e+01 6.269910e+01 5.040965e+01 7.122617e+01 3.168170e+01 5.474833e+01 1.966503e+01 2.897293e+01 6.398314e+00 2.397715e-01 4.861370e-01 4.425614e-01 6.959153e-01 8.753709e-01 1.030013e+00 1.786709e+00 1.685847e+00 2.263013e+00 2.162750e+00 1.463892e+00 1.074829e+00 7.981250e-02 2.804440e-02 4.462644e-02 8.314120e-02 1.576390e-01 1.449275e-01 1.009661e-01 2.237042e-01 2.362940e-01 3.455605e-01 2.148326e-01 2.579784e-01 2.071037e-01 7.076207e-03
<GCONST> 8.356767e+01
<STATE> 15
<MEAN> 39
 -6.476410e+00 -5.488241e-01 7.173945e+00 -4.539121e+00 1.420863e+00 -9.678556e+00 -7.754186e+00 -1.760397e+01 -1.347628e+01 -1.787129e+01 -8.426206e+00 -1.275396e+01 5.964434e+01 -7.231031e-01 1.289770e-01 6.781796e-01 9.890344e-01 2.261797e-01 -3.243530e-01 1.272741e-01 -6.758557e-02 -5.473911e-01 -3.915982e-01 -2.260929e-01 -1.897316e-01 -3.503006e-01 -2.585975e-03 2.044743e-02 -1.067367e-01 -1.856607e-02 -3.546136e-02 8.195812e-02 -6.155238e-03 7.790480e-02 7.306885e-02 -7.259202e-02 -7.208295e-02 6.254063e-02 4.968708e-02
<VARIANCE> 39
 5.622777e+00 7.994934e+00 1.737615e+01 2.027382e+01 1.794517e+01 2.188124e+01 2.269522e+01 5.521378e+01 5.800787e+01 2.760661e+01 2.746323e+01 3.455505e+01 2.757228e+00 2.323040e-01 5.165881e-01 3.972176e-01 5.993183e-01 9.308588e-01 1.558396e+00 8.090323e-01 1.298549e+00 1.308672e+00 1.356347e+00 1.568096e+00 2.487557e+00 7.086387e-02 5.454440e-02 9.447952e-02 8.790162e-02 1.335384e-01 2.167632e-01 2.256202e-01 1.827596e-01 2.903935e-01 4.019625e-01 3.226851e-01 2.678596e-01 4.899655e-01 1.578312e-02
<GCONST> 8.196676e+01
<STATE> 16
<MEAN> 39
 -1.178114e+01 4.233851e-01 9.527715e+00 -1.553342e+00 -1.656558e-01 -8.647183e+00 -3.559342e+00 -1.259608e+01 -1.364780e+01 -2.022081e+01 -1.034397e+01 -1.119116e+01 5.745830e+01 -7.674626e-01 7.964095e-02 -1.583261e-01 7.474741e-02 -6.555232e-01 2.607974e-01 8.571987e-01 1.362721e+00 5.346023e-01 -5.743479e-02 -2.814739e-01 3.710227e-01 -2.643566e-01 8.967863e-02 -6.553857e-02 -1.458932e-01 -6.371488e-02 4.650488e-02 -1.394351e-02 -2.780394e-03 4.723949e-02 2.160810e-01 2.214245e-01 1.696728e-01 6.752254e-02 3.195774e-02
<VARIANCE> 39
 7.172374e+00 9.933908e+00 2.535358e+01 1.383228e+01 2.190836e+01 2.808514e+01 6.130004e+01 5.105243e+01 3.650783e+01 4.699333e+01 2.785611e+01 4.352853e+01 2.348462e+00 1.860700e-01 2.293448e-01 3.443302e-01 8.484639e-01 5.358684e-01 1.699800e+00 2.375927e+00 1.133155e+00 1.760660e+00 1.783505e+00 1.880214e+00 1.091605e+00 4.085929e-02 2.186898e-02 6.882881e-02 6.392357e-02 1.590037e-01 9.839546e-02 2.721162e-01 3.080122e-01 2.008456e-01 1.830092e-01 2.518039e-01 4.232456e-01 2.751750e-01 7.872887e-03
<GCONST> 7.929126e+01
<STATE> 17
<MEAN> 39
 -1.292702e+01 -3.498768e-01 8.406304e+00 7.771148e-01 8.145584e-01 -5.379982e+00 -6.708170e-01 -4.618277e+00 -9.805388e+00 -1.418940e+01 -8.387854e+00 -6.155479e+00 5.706952e+01 -4.932251e-01 -5.738220e-01 -7.273969e-01 7.349546e-02 2.754589e-01 -1.559789e-01 -6.897780e-01 -2.628868e-01 9.989113e-01 1.223652e+00 1.213248e+00 5.443128e-01 -7.264956e-02 8.377993e-03 -8.793782e-02 -5.174156e-02 -5.756459e-02 1.139833e-01 1.008974e-01 -1.298581e-01 -1.114490e-01 3.680097e-02 1.839488e-01 2.074645e-01 1.214626e-01 2.026734e-02
<VARIANCE> 39
 4.133182e+00 1.344676e+01 1.802476e+01 1.651338e+01 5.060785e+01 4.732234e+01 3.484954e+01 4.609325e+01 2.347189e+01 5.559394e+01 2.018793e+01 5.329908e+01 8.433437e-01 1.846516e-01 5.906987e-01 6.620448e-01 1.355241e+00 2.735879e+00 2.136439e+00 2.644610e+00 1.080496e+00 2.225863e+00 1.816189e+00 1.578193e+00 1.326591e+00 7.095216e-02 3.661265e-02 1.153060e-01 1.416173e-01 2.033294e-01 4.559766e-01 4.583603e-01 7.684346e-01 1.794812e-01 4.035600e-01 4.462183e-01 3.659656e-01 3.572596e-01 1.546047e-02
<GCONST> 9.003967e+01
<STATE> 18
<MEAN> 39
 -1.525201e+01 -3.674586e+00 3.375388e+00 -1.111377e+00 2.123254e+00 -3.674464e+00 2.303531e-01 -4.509990e+00 -2.230968e+00 -9.013031e+00 -3.759241e+00 -5.326678e+00 5.701883e+01 -2.907875e-01 -3.418158e-01 -5.810571e-01 -2.153612e-01 -1.105177e-01 3.897286e-01 6.678395e-01 3.291754e-01 3.135913e-01 5.854196e-02 2.347609e-01 3.061091e-01 -6.705453e-02 2.414198e-02 2.180326e-02 3.612167e-02 -8.618041e-04 -2.608757e-02 -4.698991e-02 1.515276e-01 -3.754540e-02 -2.339186e-01 -3.116606e-01 -2.626212e-01 -2.297542e-01 -2.145875e-03
<VARIANCE> 39
 1.866527e+00 3.267706e+00 1.242313e+01 1.088947e+01 2.859819e+01 2.806440e+01 3.325697e+01 4.249539e+01 2.929604e+01 3.086592e+01 2.777305e+01 3.271305e+01 6.760734e-01 1.074890e-01 3.462863e-01 7.828351e-01 1.287218e+00 1.558213e+00 1.994383e+00 1.719110e+00 1.769987e+00 2.583571e+00 2.018952e+00 2.304843e+00 2.082638e+00 2.989014e-02 1.636845e-02 6.536137e-02 1.393519e-01 2.164363e-01 2.977201e-01 3.109401e-01 4.235334e-01 2.852099e-01 5.906150e-01 4.152825e-01 3.392112e-01 2.617849e-01 6.881531e-03
<GCONST> 8.059486e+01
<STATE> 19
<MEAN> 39
 -1.727820e+01 -3.613811e+00 1.004786e+01 3.490856e+00 3.483617e+00 -6.771297e+00 7.389009e-01 -7.943746e+00 -9.639162e+00 -1.715061e+01 -7.502416e+00 -4.218984e-01 5.482206e+01 -5.526022e-01 -2.260821e-01 -7.930018e-02 4.130643e-01 5.928628e-02 1.576199e-02 3.028432e-02 -1.286645e-01 -3.838255e-01 -5.605658e-01 -2.820448e-01 -2.890171e-01 -1.762114e-01 -1.247436e-02 8.669742e-03 1.396968e-02 2.139227e-02 -9.177815e-03 -1.214133e-01 -1.771811e-01 9.394559e-03 2.008851e-01 6.559783e-02 1.715093e-02 -1.668044e-01 -1.717007e-03
<VARIANCE> 39
 6.110704e+00 6.203904e+00 4.565227e+01 2.924117e+01 1.014069e+02 3.242359e+01 2.376694e+01 3.962504e+01 4.756174e+01 5.781646e+01 1.180873e+02 7.766312e+01 2.178268e+00 1.718561e-01 2.887457e-01 6.608155e-01 5.625848e-01 1.054660e+00 1.340707e+00 2.287743e+00 1.349329e+00 2.072995e+00 2.095964e+00 1.977833e+00 2.554386e+00 5.055831e-02 1.463387e-02 5.636419e-02 1.279805e-01 1.294952e-01 1.942807e-01 2.530919e-01 3.716666e-01 2.325924e-01 3.793984e-01 4.060428e-01 5.294858e-01 3.362566e-01 7.342560e-03
<GCONST> 8.769019e+01
<TRANSP> 20
 0.000000e+00 1.000000e+00 0.000000e+00 0.000000e+00 0.000000e+00 0.000000e+00 0.000000e+00 0.000000e+00 0.000000e+00 0.000000e+00 0.000000e+00 0.000000e+00 0.000000e+00 0.000000e+00 0.000000e+00 0.000000e+00 0.000000e+00 0.000000e+00 0.000000e+00 0.000000e+00
 0.000000e+00 7.692686e-01 2.307314e-01 0.000000e+00 0.000000e+00 0.000000e+00 0.000000e+00 0.000000e+00 0.000000e+00 0.000000e+00 0.000000e+00 0.000000e+00 0.000000e+00 0.000000e+00 0.000000e+00 0.000000e+00 0.000000e+00 0.000000e+00 0.000000e+00 0.000000e+00
 0.000000e+00 0.000000e+00 7.331123e-01 2.668877e-01 0.000000e+00 0.000000e+00 0.000000e+00 0.000000e+00 0.000000e+00 0.000000e+00 0.000000e+00 0.000000e+00 0.000000e+00 0.000000e+00 0.000000e+00 0.000000e+00 0.000000e+00 0.000000e+00 0.000000e+00 0.000000e+00
 0.000000e+00 0.000000e+00 0.000000e+00 8.096281e-01 1.903719e-01 0.000000e+00 0.000000e+00 0.000000e+00 0.000000e+00 0.000000e+00 0.000000e+00 0.000000e+00 0.000000e+00 0.000000e+00 0.000000e+00 0.000000e+00 0.000000e+00 0.000000e+00 0.000000e+00 0.000000e+00
 0.000000e+00 0.000000e+00 0.000000e+00 0.000000e+00 7.598822e-01 2.401179e-01 0.000000e+00 0.000000e+00 0.000000e+00 0.000000e+00 0.000000e+00 0.000000e+00 0.000000e+00 0.000000e+00 0.000000e+00 0.000000e+00 0.000000e+00 0.000000e+00 0.000000e+00 0.000000e+00
 0.000000e+00 0.000000e+00 0.000000e+00 0.000000e+00 0.000000e+00 8.437361e-01 1.562639e-01 0.000000e+00 0.000000e+00 0.000000e+00 0.000000e+00 0.000000e+00 0.000000e+00 0.000000e+00 0.000000e+00 0.000000e+00 0.000000e+00 0.000000e+00 0.000000e+00 0.000000e+00
 0.000000e+00 0.000000e+00 0.000000e+00 0.000000e+00 0.000000e+00 0.000000e+00 6.689357e-01 3.310643e-01 0.000000e+00 0.000000e+00 0.000000e+00 0.000000e+00 0.000000e+00 0.000000e+00 0.000000e+00 0.000000e+00 0.000000e+00 0.000000e+00 0.000000e+00 0.000000e+00
 0.000000e+00 0.000000e+00 0.000000e+00 0.000000e+00 0.000000e+00 0.000000e+00 0.000000e+00 6.361245e-01 3.638756e-01 0.000000e+00 0.000000e+00 0.000000e+00 0.000000e+00 0.000000e+00 0.000000e+00 0.000000e+00 0.000000e+00 0.000000e+00 0.000000e+00 0.000000e+00
 0.000000e+00 0.000000e+00 0.000000e+00 0.000000e+00 0.000000e+00 0.000000e+00 0.000000e+00 0.000000e+00 6.840051e-01 3.159949e-01 0.000000e+00 0.000000e+00 0.000000e+00 0.000000e+00 0.000000e+00 0.000000e+00 0.000000e+00 0.000000e+00 0.000000e+00 0.000000e+00
 0.000000e+00 0.000000e+00 0.000000e+00 0.000000e+00 0.000000e+00 0.000000e+00 0.000000e+00 0.000000e+00 0.000000e+00 8.009549e-01 1.990451e-01 0.000000e+00 0.000000e+00 0.000000e+00 0.000000e+00 0.000000e+00 0.000000e+00 0.000000e+00 0.000000e+00 0.000000e+00
 0.000000e+00 0.000000e+00 0.000000e+00 0.000000e+00 0.000000e+00 0.000000e+00 0.000000e+00 0.000000e+00 0.000000e+00 0.000000e+00 7.915921e-01 2.084079e-01 0.000000e+00 0.000000e+00 0.000000e+00 0.000000e+00 0.000000e+00 0.000000e+00 0.000000e+00 0.000000e+00
 0.000000e+00 0.000000e+00 0.000000e+00 0.000000e+00 0.000000e+00 0.000000e+00 0.000000e+00 0.000000e+00 0.000000e+00 0.000000e+00 0.000000e+00 7.680207e-01 2.319794e-01 0.000000e+00 0.000000e+00 0.000000e+00 0.000000e+00 0.000000e+00 0.000000e+00 0.000000e+00
 0.000000e+00 0.000000e+00 0.000000e+00 0.000000e+00 0.000000e+00 0.000000e+00 0.000000e+00 0.000000e+00 0.000000e+00 0.000000e+00 0.000000e+00 0.000000e+00 6.997806e-01 3.002194e-01 0.000000e+00 0.000000e+00 0.000000e+00 0.000000e+00 0.000000e+00 0.000000e+00
 0.000000e+00 0.000000e+00 0.000000e+00 0.000000e+00 0.000000e+00 0.000000e+00 0.000000e+00 0.000000e+00 0.000000e+00 0.000000e+00 0.000000e+00 0.000000e+00 0.000000e+00 7.794353e-01 2.205647e-01 0.000000e+00 0.000000e+00 0.000000e+00 0.000000e+00 0.000000e+00
 0.000000e+00 0.000000e+00 0.000000e+00 0.000000e+00 0.000000e+00 0.000000e+00 0.000000e+00 0.000000e+00 0.000000e+00 0.000000e+00 0.000000e+00 0.000000e+00 0.000000e+00 0.000000e+00 8.235536e-01 1.764464e-01 0.000000e+00 0.000000e+00 0.000000e+00 0.000000e+00
 0.000000e+00 0.000000e+00 0.000000e+00 0.000000e+00 0.000000e+00 0.000000e+00 0.000000e+00 0.000000e+00 0.000000e+00 0.000000e+00 0.000000e+00 0.000000e+00 0.000000e+00 0.000000e+00 0.000000e+00 7.646652e-01 2.353348e-01 0.000000e+00 0.000000e+00 0.000000e+00
 0.000000e+00 0.000000e+00 0.000000e+00 0.000000e+00 0.000000e+00 0.000000e+00 0.000000e+00 0.000000e+00 0.000000e+00 0.000000e+00 0.000000e+00 0.000000e+00 0.000000e+00 0.000000e+00 0.000000e+00 0.000000e+00 7.491419e-01 2.508582e-01 0.000000e+00 0.000000e+00
 0.000000e+00 0.000000e+00 0.000000e+00 0.000000e+00 0.000000e+00 0.000000e+00 0.000000e+00 0.000000e+00 0.000000e+00 0.000000e+00 0.000000e+00 0.000000e+00 0.000000e+00 0.000000e+00 0.000000e+00 0.000000e+00 0.000000e+00 7.782258e-01 2.217741e-01 0.000000e+00
 0.000000e+00 0.000000e+00 0.000000e+00 0.000000e+00 0.000000e+00 0.000000e+00 0.000000e+00 0.000000e+00 0.000000e+00 0.000000e+00 0.000000e+00 0.000000e+00 0.000000e+00 0.000000e+00 0.000000e+00 0.000000e+00 0.000000e+00 0.000000e+00 7.149796e-01 2.850204e-01
 0.000000e+00 0.000000e+00 0.000000e+00 0.000000e+00 0.000000e+00 0.000000e+00 0.000000e+00 0.000000e+00 0.000000e+00 0.000000e+00 0.000000e+00 0.000000e+00 0.000000e+00 0.000000e+00 0.000000e+00 0.000000e+00 0.000000e+00 0.000000e+00 0.000000e+00 0.000000e+00
<ENDHMM>
