~o
<STREAMINFO> 1 39
<VECSIZE> 39<NULLD><MFCC_D_A_0><DIAGC>
~h "tiga"
<BEGINHMM>
<NUMSTATES> 5
<STATE> 2
<MEAN> 39
 -9.266237e+00 8.984748e-01 1.434418e+01 -3.085189e+00 -9.192162e+00 -1.176175e+01 -4.291713e+00 -1.346207e+01 -7.752856e+00 -6.538703e+00 1.761029e+00 -8.159832e+00 6.563298e+01 5.282531e-01 -1.067970e-01 4.481234e-01 1.989916e-01 -8.234112e-01 -7.432057e-01 -1.513146e-02 1.912840e-01 -1.404627e-01 -1.206164e-01 2.104812e-01 7.328974e-02 6.260624e-01 2.813851e-02 -7.132362e-02 -9.551544e-02 -1.944369e-02 6.288330e-02 5.526351e-02 -6.099489e-03 1.403089e-01 9.424194e-02 -3.623270e-02 -1.142613e-01 -1.402834e-02 8.463807e-03
<VARIANCE> 39
 2.356743e+01 4.378550e+01 1.368447e+02 7.082105e+01 1.553789e+02 9.728664e+01 7.696703e+01 1.111007e+02 4.311803e+01 5.213861e+01 7.944599e+01 5.149797e+01 2.801509e+01 1.979308e+00 3.403012e+00 8.246084e+00 3.397308e+00 9.226196e+00 5.989306e+00 5.793293e+00 7.588994e+00 4.841811e+00 3.403088e+00 5.636877e+00 3.235247e+00 1.748130e+00 3.349164e-01 4.298518e-01 1.151915e+00 5.234796e-01 1.610595e+00 1.092934e+00 9.651102e-01 1.028423e+00 8.189973e-01 6.380305e-01 1.057785e+00 5.030493e-01 2.071338e-01
<GCONST> 1.403991e+02
<STATE> 3
<MEAN> 39
 -1.437744e+00 -1.398753e+01 -2.470737e-01 -4.444330e+00 -1.033702e+01 -1.635636e+01 -2.341564e+00 3.200658e+00 -1.108832e-02 -1.026419e+01 -6.598942e+00 -8.560265e+00 7.470816e+01 -9.275316e-02 -7.626305e-02 -1.081455e+00 -5.358075e-01 1.250406e+00 1.061740e+00 -4.378639e-01 1.613687e-02 4.256147e-01 -2.512228e-01 -1.490541e+00 -4.987128e-01 -3.940383e-01 -1.206727e-01 2.393848e-01 2.142705e-01 5.670531e-02 -9.356267e-02 -1.002241e-01 4.626222e-03 -3.298590e-01 -1.938762e-01 2.332482e-02 2.368110e-01 5.675687e-02 -1.605370e-01
<VARIANCE> 39
 3.693891e+00 1.563887e+01 6.761755e+01 3.368412e+01 1.692462e+02 1.139591e+02 5.014587e+01 1.264296e+02 6.325426e+01 3.721211e+01 1.401425e+02 5.007926e+01 9.077697e+00 2.717084e-01 1.443336e+00 1.724377e+00 1.359297e+00 2.164984e+00 2.393284e+00 1.634972e+00 3.482654e+00 2.301029e+00 2.237880e+00 2.509714e+00 1.559811e+00 5.021044e-01 2.830782e-02 1.011705e-01 1.616604e-01 1.882144e-01 3.014725e-01 2.371718e-01 2.989274e-01 4.555226e-01 3.019125e-01 3.134376e-01 2.437210e-01 2.400932e-01 2.352887e-02
<GCONST> 1.036015e+02
<STATE> 4
<MEAN> 39
 -1.105498e+01 -4.610758e+00 -4.186913e+00 -5.950618e+00 5.270887e-01 -5.237881e+00 -1.435429e+00 -3.169589e+00 2.580045e+00 -1.156297e+01 -7.737516e+00 -9.044415e+00 6.054724e+01 -6.695486e-01 3.514854e-01 -1.153192e-01 -8.745795e-02 6.819311e-01 7.821095e-01 3.913320e-01 -1.317238e-01 2.416036e-01 2.584676e-01 3.245905e-01 4.559246e-03 -7.153561e-01 2.625110e-02 -6.992144e-02 -3.041125e-02 -2.674466e-02 4.143568e-04 1.985319e-02 6.267782e-03 7.710969e-02 4.591122e-02 5.567800e-02 -8.346706e-03 -1.046744e-02 6.263529e-02
<VARIANCE> 39
 2.068669e+01 1.419482e+01 1.538859e+01 2.110336e+01 5.832153e+01 5.420192e+01 2.210571e+01 4.239292e+01 3.170484e+01 4.108285e+01 3.944977e+01 3.432338e+01 1.974384e+01 1.341701e-01 4.555227e-01 5.663640e-01 9.705914e-01 1.095127e+00 1.414436e+00 1.306729e+00 1.720210e+00 1.650031e+00 1.383839e+00 1.507889e+00 1.922246e+00 1.570688e-01 1.708151e-02 4.517928e-02 8.045004e-02 1.257606e-01 1.612237e-01 1.674484e-01 2.707774e-01 2.764648e-01 2.364465e-01 2.063439e-01 1.991330e-01 2.868334e-01 6.358683e-03
<GCONST> 8.439758e+01
<TRANSP> 5
 0.000000e+00 1.000000e+00 0.000000e+00 0.000000e+00 0.000000e+00
 0.000000e+00 9.656448e-01 3.435515e-02 0.000000e+00 0.000000e+00
 0.000000e+00 0.000000e+00 9.244815e-01 7.551852e-02 0.000000e+00
 0.000000e+00 0.000000e+00 0.000000e+00 9.509809e-01 4.901913e-02
 0.000000e+00 0.000000e+00 0.000000e+00 0.000000e+00 0.000000e+00
<ENDHMM>
