~o
<STREAMINFO> 1 39
<VECSIZE> 39<NULLD><MFCC_D_A_0><DIAGC>
~h "satu"
<BEGINHMM>
<NUMSTATES> 20
<STATE> 2
<MEAN> 39
 -1.876054e+01 -5.103703e+00 -3.402742e+00 -3.913715e+00 1.427424e-01 -7.325945e+00 2.634987e+00 -7.122461e+00 1.999943e+00 -6.791177e+00 2.416888e+00 -3.615487e+00 5.729385e+01 -1.058368e+00 1.481167e+00 -9.810963e-01 6.907085e-01 6.418199e-01 -7.992153e-01 1.230873e+00 -7.360237e-01 1.224128e+00 -1.591026e-01 7.757460e-01 -3.578474e-02 5.886647e-01 -3.149461e-01 5.207096e-01 -3.693638e-01 2.617227e-01 4.552888e-02 -1.105533e-01 2.904384e-01 -2.198832e-01 2.670417e-01 7.327066e-02 -2.878485e-02 -2.207167e-01 1.745425e-01
<VARIANCE> 39
 3.490200e+00 1.365788e+01 1.473019e+01 1.193153e+01 1.459259e+01 1.797595e+01 1.983341e+01 2.189959e+01 1.876412e+01 1.292104e+01 2.448709e+01 1.704334e+01 1.380137e+00 1.001758e+00 2.226819e+00 1.677482e+00 1.315634e+00 1.547258e+00 1.562648e+00 1.849636e+00 3.218380e+00 2.199596e+00 2.453448e+00 2.256413e+00 2.179414e+00 2.807387e-01 1.187733e-01 1.953242e-01 2.172204e-01 1.604223e-01 2.428807e-01 2.339541e-01 3.631637e-01 4.733238e-01 3.280742e-01 4.108316e-01 2.821583e-01 3.333822e-01 1.845139e-02
<GCONST> 9.036021e+01
<STATE> 3
<MEAN> 39
 -2.711771e+01 7.129309e+00 -1.134825e+01 1.820699e+00 1.817589e+00 -1.139217e+01 1.019328e+01 -1.221176e+01 9.186113e+00 -5.881782e+00 4.946510e+00 -3.354730e+00 6.146517e+01 -1.259279e+00 1.622687e+00 -1.263192e+00 7.587892e-01 4.635385e-01 -3.667088e-01 9.871919e-01 -3.472680e-01 4.360110e-01 5.516762e-01 -7.411705e-03 -2.041765e-02 7.078745e-01 5.708638e-01 -6.290102e-01 4.248013e-01 -4.672911e-01 -3.715448e-02 1.754116e-01 -4.578426e-01 3.916196e-01 -5.571483e-01 -9.705813e-02 -2.961234e-01 -4.813533e-02 -1.359755e-01
<VARIANCE> 39
 1.069414e+01 2.600340e+01 2.890804e+01 2.064027e+01 1.891409e+01 3.099037e+01 3.071924e+01 2.515799e+01 2.177732e+01 2.376847e+01 3.922764e+01 2.834484e+01 3.600266e+00 1.166050e+00 1.874769e+00 1.661646e+00 1.771233e+00 1.090269e+00 1.539747e+00 2.769111e+00 1.904407e+00 2.209424e+00 2.401661e+00 1.812386e+00 1.285179e+00 1.752032e-01 1.389621e-01 1.758585e-01 1.690347e-01 2.695885e-01 3.104661e-01 2.193127e-01 4.924738e-01 2.914428e-01 2.787994e-01 4.700196e-01 4.724360e-01 2.295372e-01 2.674755e-02
<GCONST> 9.677577e+01
<STATE> 4
<MEAN> 39
 -2.471887e+01 6.018329e+00 -1.168652e+01 -1.317679e+00 3.484372e+00 -1.264671e+01 8.839987e+00 -1.164819e+01 6.301412e+00 -5.691815e+00 1.739044e+00 -4.469576e+00 6.291697e+01 3.527237e+00 -7.706107e-01 -2.235891e-01 -1.955501e+00 -7.101539e-01 -1.129026e-01 -2.478270e+00 1.143416e-01 -8.868625e-01 -2.947954e-01 -1.744884e+00 -1.050391e+00 1.177682e+00 1.211072e+00 -3.228319e-01 -2.663496e-01 -3.741578e-01 -2.658809e-01 1.243185e-01 -6.346069e-01 -2.328859e-02 1.188134e-01 1.960474e-02 -4.382852e-01 -2.686119e-01 5.683941e-01
<VARIANCE> 39
 3.375829e+01 2.550561e+01 3.131819e+01 2.691174e+01 2.079066e+01 3.525978e+01 3.522212e+01 2.377326e+01 2.421186e+01 3.694410e+01 3.548959e+01 2.867493e+01 6.660895e+00 4.780277e+00 1.461121e+00 2.277405e+00 1.616246e+00 2.981997e+00 2.981463e+00 5.409750e+00 1.628614e+00 1.717499e+00 2.808338e+00 7.095545e+00 2.218070e+00 1.427609e+00 3.933676e-01 2.687731e-01 4.352686e-01 3.470769e-01 5.569170e-01 7.517805e-01 9.195313e-01 5.142810e-01 4.884590e-01 4.882821e-01 5.938336e-01 4.139187e-01 1.357776e-01
<GCONST> 1.158209e+02
<STATE> 5
<MEAN> 39
 -5.470970e+00 1.148986e+00 -1.584101e+01 -9.139313e+00 1.417363e+00 -1.082558e+01 -1.881818e+00 -9.849599e+00 4.758421e+00 -5.313336e+00 -6.189291e+00 -9.968914e+00 7.296962e+01 3.389385e+00 -2.575803e+00 -6.268355e-01 -9.139552e-01 4.745953e-01 1.129834e+00 -1.256920e+00 4.297618e-01 -1.222480e-01 2.052004e-02 -1.247005e+00 -5.295566e-01 2.074200e+00 -1.104863e+00 -1.202169e-01 3.834690e-01 7.003453e-01 2.974815e-01 1.975430e-01 6.630301e-01 -1.795098e-02 -2.053734e-02 -6.537933e-02 5.675850e-01 3.570267e-01 -5.616181e-01
<VARIANCE> 39
 1.157742e+01 2.752295e+01 3.520719e+01 2.441592e+01 4.247711e+01 6.698464e+01 7.853410e+01 8.445405e+01 4.043508e+01 1.151106e+02 1.456259e+02 3.030986e+01 2.161670e+01 3.539751e+00 2.091825e+00 4.449597e+00 2.497036e+00 3.140942e+00 4.267040e+00 5.115200e+00 7.614141e+00 3.721240e+00 3.720392e+00 4.554240e+00 3.312818e+00 1.765012e+00 1.330111e-01 4.034182e-01 3.681333e-01 2.206994e-01 4.002240e-01 7.776168e-01 7.816147e-01 6.371915e-01 4.362099e-01 6.491542e-01 6.498765e-01 3.926097e-01 1.647567e-01
<GCONST> 1.257095e+02
<STATE> 6
<MEAN> 39
 -3.191001e-01 -8.187963e+00 -1.092403e+01 -7.922246e+00 4.874051e+00 -8.964916e+00 -3.228317e+00 -5.372419e+00 1.840475e+00 -5.459523e+00 -5.383703e+00 -1.075671e+01 7.569678e+01 3.918765e-01 -2.921403e-01 8.186413e-01 1.248604e-01 -2.231531e-01 -6.985042e-02 -6.635267e-01 7.542337e-02 -1.987442e-01 1.919875e-01 -1.221154e-01 -4.093457e-03 -4.511167e-01 -3.124520e-01 4.719655e-01 2.207008e-01 2.912801e-02 -1.145877e-01 -1.726473e-01 -5.715032e-02 -5.238735e-02 -4.466716e-02 6.444737e-02 1.797747e-01 1.423235e-02 -3.703788e-01
<VARIANCE> 39
 3.927073e+00 2.870903e+01 9.002651e+01 2.174040e+01 5.904516e+01 3.647573e+01 8.545496e+01 1.572782e+02 6.936053e+01 7.005550e+01 1.356822e+02 2.934707e+01 2.135329e+01 1.962353e-01 1.055189e+00 1.079676e+00 7.326667e-01 8.501910e-01 8.894620e-01 1.708292e+00 1.062281e+00 1.231733e+00 1.708662e+00 1.590360e+00 7.750647e-01 4.408840e-01 5.324162e-02 1.004650e-01 2.359899e-01 1.734611e-01 1.991415e-01 2.319977e-01 2.942612e-01 3.607677e-01 2.993705e-01 2.197692e-01 3.839650e-01 1.993159e-01 2.172035e-02
<GCONST> 9.677850e+01
<STATE> 7
<MEAN> 39
 -2.010215e+00 -4.971526e+00 -4.946030e+00 -6.584306e+00 2.882849e+00 -6.865137e+00 -6.158751e+00 -5.546812e+00 3.292203e-01 -4.618723e+00 -4.774871e+00 -1.052806e+01 6.836981e+01 -7.746221e-01 4.765010e-01 8.868709e-01 4.625703e-01 -1.082723e-01 5.141447e-01 2.121547e-01 1.396680e-01 -7.358851e-01 -5.650058e-01 3.374222e-01 -2.734983e-02 -1.488755e+00 -1.479616e-01 -1.726068e-01 -1.392795e-01 -8.842582e-02 -5.435029e-03 5.437032e-02 2.170776e-01 1.319615e-01 -1.085059e-02 -2.584851e-02 1.582902e-02 -3.956878e-02 2.966287e-02
<VARIANCE> 39
 4.577504e+00 1.726131e+01 6.715342e+01 1.687352e+01 2.878518e+01 3.230024e+01 5.393689e+01 9.304351e+01 4.020627e+01 6.221146e+01 7.397266e+01 3.890173e+01 9.472060e+00 3.746201e-01 4.737058e-01 1.335239e+00 8.049721e-01 7.739318e-01 1.472415e+00 1.533591e+00 1.788448e+00 2.130342e+00 1.098876e+00 2.710864e+00 1.114491e+00 2.215323e-01 8.084716e-02 4.633572e-02 7.203554e-02 1.510639e-01 7.369305e-02 1.873804e-01 2.040319e-01 2.217022e-01 3.132692e-01 2.921451e-01 2.348342e-01 1.548759e-01 3.718610e-02
<GCONST> 8.992174e+01
<STATE> 8
<MEAN> 39
 -7.372726e+00 -4.386572e+00 -5.245792e+00 -7.359649e+00 6.541893e-01 -6.285834e+00 -3.895177e+00 -9.455088e+00 -1.757908e+00 -8.878417e+00 -5.048126e+00 -9.895923e+00 6.185499e+01 -7.475502e-01 -1.571393e-01 1.056708e+00 -1.911498e-01 1.196620e-01 1.318161e-01 4.325783e-01 4.435935e-01 -3.767448e-01 -2.516728e-01 1.901814e-01 -1.482333e-01 -7.977892e-01 6.220676e-02 5.158291e-02 -3.369942e-02 -2.284419e-03 2.965941e-02 -1.341537e-01 7.030235e-02 -7.435396e-02 2.056776e-01 6.144359e-02 -5.866696e-02 8.273078e-02 1.481551e-01
<VARIANCE> 39
 5.064091e+00 4.975678e+00 1.353632e+01 1.116340e+01 1.284609e+01 1.057460e+01 2.468133e+01 1.770730e+01 2.311946e+01 2.340382e+01 3.672694e+01 2.197383e+01 4.334176e+00 2.328465e-01 3.476732e-01 4.890120e-01 6.041161e-01 9.575523e-01 7.421675e-01 1.525057e+00 9.793714e-01 1.335836e+00 1.701439e+00 2.038009e+00 1.566506e+00 1.001137e-01 2.971475e-02 3.468870e-02 6.685894e-02 1.545426e-01 1.654312e-01 2.170876e-01 3.015864e-01 1.914072e-01 2.009849e-01 2.468404e-01 3.759355e-01 3.018350e-01 1.621901e-02
<GCONST> 7.444380e+01
<STATE> 9
<MEAN> 39
 -9.736022e+00 -4.244448e+00 9.224124e-02 -7.089443e+00 1.772717e+00 -5.935271e+00 -9.270668e-01 -5.075947e+00 -1.219422e+00 -8.183290e+00 -3.984224e+00 -1.077178e+01 5.948692e+01 -7.412254e-01 1.091423e-01 -2.138138e-01 -1.507947e-01 1.933654e-01 -2.040825e+00 2.608359e-01 -5.764408e-01 9.432788e-01 1.081630e+00 9.434255e-01 1.200508e+00 4.970565e-01 4.544734e-01 1.671704e-01 -3.771168e-01 -3.217891e-01 4.534751e-02 -1.082897e+00 -8.735145e-01 -7.703089e-01 -1.101173e-01 5.842434e-01 2.564179e-01 4.994760e-01 7.510027e-01
<VARIANCE> 39
 7.443084e+00 8.409510e+00 1.131242e+01 1.567248e+01 2.479566e+01 1.036902e+01 3.072294e+01 3.128164e+01 2.571711e+01 2.265318e+01 1.688964e+01 4.268050e+01 2.352381e+00 4.233966e-01 6.969001e-01 2.074244e+00 2.249363e+00 6.707616e+00 5.542413e+00 3.498441e+00 5.472188e+00 2.452967e+00 4.359872e+00 2.774227e+00 4.043450e+00 9.875376e-01 2.635958e-01 2.458874e-01 6.865200e-01 3.039278e-01 1.040520e+00 5.040016e-01 8.573605e-01 8.393002e-01 6.466915e-01 7.159596e-01 7.473183e-01 1.202727e+00 7.209817e-02
<GCONST> 1.100903e+02
<STATE> 10
<MEAN> 39
 -8.535200e+00 -2.763565e+00 -1.910890e+00 -1.024147e+01 3.362620e+00 -1.958526e+01 -6.919859e+00 -1.154034e+01 2.897961e-01 -1.472745e+00 -3.481693e-01 -3.884389e+00 6.604035e+01 2.427801e+00 1.104916e+00 -4.205023e-01 -1.773595e+00 1.550896e-01 -2.790544e+00 -3.706422e+00 -2.921662e+00 -1.331476e+00 2.867935e+00 1.323071e+00 1.248608e+00 2.678533e+00 6.624779e-01 1.713927e-01 5.156260e-02 -1.866618e-01 -1.263452e-01 1.455881e+00 -1.885041e-01 -3.550213e-02 -9.615626e-01 -2.034432e-01 3.053556e-02 -2.604785e-01 -7.201226e-02
<VARIANCE> 39
 2.696204e+01 1.822584e+01 3.704199e+01 2.610747e+01 5.726745e+01 6.906259e+01 1.041056e+02 1.132249e+02 6.617264e+01 5.824498e+01 7.125685e+01 3.594014e+01 2.215742e+01 1.937235e+00 3.406089e+00 7.133135e+00 2.307509e+00 6.131104e+00 8.384630e+00 6.466881e+00 9.570046e+00 6.396576e+00 6.112689e+00 5.713068e+00 7.425319e+00 6.127982e-01 5.217395e-01 3.647002e-01 8.146271e-01 6.199340e-01 1.030043e+00 1.141064e+00 1.328318e+00 1.393614e+00 6.662714e-01 1.335570e+00 6.059344e-01 5.971150e-01 3.671630e-01
<GCONST> 1.375861e+02
<STATE> 11
<MEAN> 39
 -8.826444e-02 7.307243e-01 -1.773620e+00 -1.519483e+01 2.422152e+00 -1.621963e+01 -1.648248e+01 -1.939161e+01 -7.631225e+00 4.631495e+00 2.784062e+00 -3.165666e+00 7.150077e+01 1.551078e+00 8.011157e-01 -6.510589e-01 -9.580237e-01 -2.399414e-01 2.575082e+00 -6.841990e-01 -1.024809e+00 -2.620161e+00 2.481428e-01 1.166859e+00 9.806817e-01 4.830523e-01 -5.615023e-01 -1.396612e-01 -1.613833e-01 1.625002e-01 -7.272668e-02 4.958790e-01 9.453717e-01 8.343078e-01 2.763865e-01 -8.448180e-01 -3.137885e-01 -6.972660e-02 -5.755421e-01
<VARIANCE> 39
 4.938345e+00 3.239481e+01 8.741486e+01 1.673617e+01 7.900216e+01 6.326369e+01 1.444121e+02 2.470419e+02 7.313394e+01 4.647463e+01 1.098365e+02 4.824398e+01 1.095724e+01 2.184296e+00 1.507204e+00 1.557766e+00 1.504403e+00 1.397759e+00 1.608534e+00 2.694689e+00 4.356847e+00 1.641737e+00 4.693233e+00 1.721386e+00 1.673686e+00 4.470080e-01 2.174076e-01 2.582406e-01 5.377482e-01 3.019835e-01 4.560156e-01 9.356734e-01 5.259817e-01 1.356878e+00 4.732355e-01 6.784983e-01 8.133558e-01 3.789235e-01 1.046070e-01
<GCONST> 1.192940e+02
<STATE> 12
<MEAN> 39
 1.523460e+00 2.238616e+00 -4.388850e+00 -1.922419e+01 3.944554e+00 -9.364091e+00 -1.789148e+01 -1.710592e+01 -1.485546e+01 3.441480e+00 6.443651e+00 -3.628039e+00 7.112310e+01 9.510545e-02 5.149328e-01 -3.701844e-01 -2.333930e-01 -8.918972e-01 5.315422e-01 9.932537e-01 9.438302e-02 -1.619858e-01 -1.017146e+00 5.015892e-01 4.057724e-01 -6.112872e-01 -1.818598e-01 -2.562381e-02 2.011962e-01 1.923584e-01 -8.982848e-02 -2.619997e-01 8.665693e-02 8.589187e-02 2.470179e-01 -6.795819e-02 -1.836698e-01 -1.308533e-01 -8.222803e-02
<VARIANCE> 39
 3.090382e+00 2.795934e+01 6.182043e+01 1.348757e+01 4.650292e+01 4.254719e+01 9.057809e+01 1.022633e+02 3.763437e+01 3.659011e+01 5.697345e+01 5.499948e+01 8.557924e+00 3.381976e-01 4.025598e-01 7.022325e-01 9.695515e-01 8.984601e-01 1.670374e+00 1.280611e+00 2.802850e+00 1.610814e+00 2.207794e+00 2.133724e+00 2.311578e+00 1.436726e-01 7.217327e-02 8.298336e-02 9.297204e-02 1.100211e-01 8.174521e-02 1.947852e-01 2.212140e-01 3.045455e-01 1.782675e-01 4.634631e-01 2.889598e-01 4.937850e-01 2.211216e-02
<GCONST> 9.245026e+01
<STATE> 13
<MEAN> 39
 2.234039e+00 6.493028e+00 -6.190142e+00 -1.787444e+01 -8.396567e+00 -9.138641e+00 -4.457889e+00 -1.612598e+01 -1.304108e+01 -8.909166e+00 4.486114e+00 1.660916e+00 6.680845e+01 -3.481226e-01 9.480786e-02 2.581860e-01 1.300085e-01 -7.028064e-01 4.075187e-01 4.801424e-01 6.504110e-01 -6.187335e-02 -8.069864e-01 -7.158855e-01 -1.550668e-01 -3.641302e-01 -1.835077e-01 -1.472063e-01 9.067457e-02 2.228566e-01 1.704984e-01 -1.254505e-01 -8.484650e-02 -3.916427e-02 1.710418e-01 1.691920e-01 8.664495e-02 1.050692e-02 -5.627113e-02
<VARIANCE> 39
 2.012010e+00 5.109336e+00 1.286654e+01 1.105258e+01 2.372711e+01 2.516076e+01 2.225479e+01 3.976725e+01 1.783425e+01 4.037905e+01 2.115043e+01 3.128909e+01 7.849606e-01 2.571838e-01 3.809026e-01 6.171759e-01 9.063216e-01 1.009038e+00 1.057311e+00 9.364612e-01 1.621403e+00 1.804905e+00 1.458531e+00 1.612087e+00 1.729673e+00 9.369928e-02 4.144660e-02 3.670504e-02 1.090845e-01 1.715939e-01 1.667105e-01 2.170044e-01 1.853770e-01 2.555319e-01 3.363320e-01 3.566509e-01 2.383704e-01 3.902172e-01 1.084256e-02
<GCONST> 7.632295e+01
<STATE> 14
<MEAN> 39
 -2.251930e+00 5.109014e+00 -2.305229e+00 -1.326742e+01 -6.687845e+00 -7.839903e+00 -6.131328e+00 -1.425982e+01 -1.131075e+01 -7.559594e+00 4.679665e+00 2.228994e+00 6.414623e+01 -8.265414e-01 -1.085264e-01 1.247024e+00 1.583566e+00 4.909672e-01 -2.463339e-01 1.578433e-01 8.040966e-04 3.309764e-01 -6.192018e-01 -1.237366e-01 -3.376834e-01 -6.373287e-01 3.421274e-02 2.000557e-02 1.268074e-01 6.199459e-02 1.299880e-01 1.750368e-02 -3.200299e-02 -8.615075e-02 -5.369150e-02 4.739201e-02 2.885057e-02 -2.185403e-01 4.266627e-02
<VARIANCE> 39
 5.215025e+00 9.005124e+00 2.359597e+01 2.479016e+01 2.897240e+01 1.839511e+01 3.255179e+01 3.185037e+01 1.633468e+01 2.738464e+01 1.604859e+01 4.351315e+01 1.798315e+00 3.363101e-01 4.381919e-01 3.417656e-01 5.740790e-01 1.702432e+00 1.686540e+00 2.150582e+00 2.273664e+00 9.863275e-01 1.644168e+00 1.315104e+00 9.862952e-01 1.042256e-01 3.175263e-02 4.283287e-02 6.199052e-02 1.384902e-01 2.056976e-01 3.291381e-01 2.880558e-01 3.550494e-01 2.070727e-01 1.965352e-01 2.288289e-01 2.094817e-01 1.269352e-02
<GCONST> 7.900318e+01
<STATE> 15
<MEAN> 39
 -4.603426e+00 5.901153e+00 4.766231e+00 -4.791787e+00 -2.045033e+00 -8.153850e+00 -4.936947e+00 -1.503594e+01 -9.047176e+00 -8.431803e+00 3.031503e+00 -8.641622e-01 6.216156e+01 -8.867723e-01 -4.367037e-01 3.553881e-01 8.298490e-01 -1.334559e-01 -3.133861e-01 2.529780e-01 4.047155e-02 6.073444e-01 -7.240630e-02 -2.289770e-02 -3.494178e-01 -4.830454e-01 -5.748194e-02 -1.788839e-01 -3.183001e-01 -2.678261e-01 -1.993032e-01 -6.315108e-02 -4.356133e-02 2.590066e-03 -6.036840e-02 -5.049555e-02 -2.912872e-02 1.407853e-01 1.365265e-02
<VARIANCE> 39
 3.607555e+00 7.339791e+00 1.785663e+01 2.605354e+01 2.124309e+01 8.514162e+00 3.176189e+01 2.739733e+01 2.472965e+01 1.441985e+01 2.619284e+01 5.470339e+01 8.729922e-01 2.393107e-01 4.383705e-01 8.574198e-01 8.791938e-01 9.786628e-01 7.483778e-01 1.351273e+00 1.322525e+00 1.964705e+00 1.508554e+00 1.246089e+00 2.294149e+00 4.608739e-02 2.605744e-02 5.847428e-02 7.333385e-02 8.115129e-02 1.296522e-01 2.052845e-01 2.341225e-01 2.988442e-01 3.696392e-01 2.353712e-01 3.187660e-01 2.375439e-01 7.048022e-03
<GCONST> 7.498798e+01
<STATE> 16
<MEAN> 39
 -8.810280e+00 9.957915e-01 -3.674585e-01 -8.366033e+00 -6.194535e+00 -9.623554e+00 -5.211243e+00 -1.493265e+01 -8.171762e+00 -1.062546e+01 3.196346e+00 -2.447649e+00 6.041062e+01 -8.149597e-01 -4.805875e-01 2.482954e-01 6.776292e-01 3.892183e-01 3.148918e-01 1.232797e-01 6.181161e-03 3.513461e-01 -1.490989e-01 -2.674906e-01 -1.688539e-02 -4.746528e-01 1.055436e-01 1.337810e-01 7.365722e-02 6.020474e-02 1.141160e-01 1.252574e-01 3.663286e-02 4.740858e-02 1.748478e-02 7.397722e-02 -1.006832e-01 4.268267e-02 4.861925e-02
<VARIANCE> 39
 2.320319e+00 5.384549e+00 1.379778e+01 2.132338e+01 1.324720e+01 1.391016e+01 1.536942e+01 1.639993e+01 1.480933e+01 1.200320e+01 1.217810e+01 2.747717e+01 9.787006e-01 6.116771e-02 2.761454e-01 6.313334e-01 7.570649e-01 7.460119e-01 8.264813e-01 7.904114e-01 7.565172e-01 1.887963e+00 1.532812e+00 9.203922e-01 1.365634e+00 2.263456e-02 1.869628e-02 1.966140e-02 8.985973e-02 1.299990e-01 1.526046e-01 1.603788e-01 1.598441e-01 1.710277e-01 2.634736e-01 2.827475e-01 1.548597e-01 3.291746e-01 5.628923e-03
<GCONST> 6.286959e+01
<STATE> 17
<MEAN> 39
 -1.144006e+01 1.766694e+00 4.737225e+00 -2.629140e+00 -3.790995e+00 -9.137213e+00 -4.566631e+00 -1.686341e+01 -1.028435e+01 -1.261873e+01 1.353456e+00 -3.314579e-01 5.845924e+01 -6.486524e-01 -3.798371e-01 -1.113124e-02 1.913470e-01 2.919474e-02 3.725264e-03 1.601113e-01 7.190498e-01 1.811724e-01 -4.117663e-01 -5.580575e-01 -4.790777e-01 -2.756622e-01 1.361325e-02 -5.971856e-02 -1.014690e-01 -1.396124e-01 2.118017e-02 5.888211e-02 1.177623e-01 1.863013e-01 1.710959e-01 9.574859e-02 2.324665e-02 -8.377436e-02 3.150665e-02
<VARIANCE> 39
 3.650893e+00 6.470995e+00 9.086988e+00 1.179679e+01 4.123987e+01 1.307478e+01 2.363118e+01 2.893461e+01 3.271991e+01 2.069700e+01 1.748773e+01 4.261489e+01 1.213534e+00 9.979163e-02 2.935233e-01 5.506876e-01 1.096658e+00 9.493537e-01 8.722869e-01 1.507467e+00 2.208915e+00 6.232316e-01 1.631725e+00 2.025049e+00 2.036327e+00 3.804498e-02 1.597952e-02 5.193523e-02 7.614639e-02 1.552148e-01 1.449832e-01 1.597959e-01 3.041230e-01 2.119274e-01 1.725498e-01 3.191813e-01 2.671058e-01 3.132161e-01 6.382170e-03
<GCONST> 7.232783e+01
<STATE> 18
<MEAN> 39
 -1.410930e+01 -1.711109e+00 2.032020e+00 -2.746423e+00 -1.026250e+00 -7.503248e+00 -2.298952e+00 -8.269654e+00 -9.745695e-01 -8.557408e+00 -2.386888e-02 -5.185502e+00 5.783482e+01 -3.927360e-01 -3.663095e-01 -6.581379e-02 5.471654e-02 3.918665e-01 3.623916e-01 5.550593e-01 5.289497e-01 5.452054e-01 2.610961e-01 -8.529278e-03 4.558225e-02 -1.529417e-01 4.296625e-03 -1.795199e-02 -3.514350e-02 6.664025e-03 -1.196621e-02 5.039265e-02 2.139057e-02 -8.606645e-02 -1.845796e-01 -9.754755e-02 3.063182e-02 5.314687e-02 -3.794957e-03
<VARIANCE> 39
 2.347854e+00 5.511585e+00 7.434977e+00 9.694423e+00 1.363496e+01 1.476958e+01 2.442656e+01 2.684824e+01 3.457998e+01 2.012696e+01 1.572310e+01 1.613346e+01 4.419332e-01 1.902794e-01 3.506837e-01 5.450939e-01 6.488620e-01 8.745636e-01 1.354189e+00 1.840003e+00 9.798988e-01 1.993710e+00 1.157771e+00 1.571942e+00 1.342588e+00 3.072680e-02 3.048975e-02 4.947183e-02 9.330481e-02 1.246639e-01 1.403538e-01 2.564430e-01 3.376232e-01 2.055509e-01 3.816850e-01 2.337327e-01 3.431901e-01 2.728671e-01 4.590941e-03
<GCONST> 6.957241e+01
<STATE> 19
<MEAN> 39
 -1.671684e+01 -3.890432e+00 1.664874e+00 -2.705844e+00 -6.221611e-01 -4.989922e+00 1.032584e+00 -7.843407e+00 -4.820093e+00 -1.236012e+01 -1.370067e+00 -3.056534e+00 5.658031e+01 -4.129745e-01 -4.228403e-01 -2.813217e-01 1.748875e-01 4.195829e-01 5.506805e-01 5.707473e-01 5.108896e-01 -1.387619e-01 -8.538648e-02 -1.362332e-01 8.798749e-02 -1.619167e-01 7.462046e-02 6.397167e-02 -1.843253e-02 5.452984e-02 -1.363050e-02 -1.901383e-01 -3.555316e-01 -1.465524e-01 1.667925e-01 1.850413e-01 7.322451e-02 -5.905360e-02 3.555327e-02
<VARIANCE> 39
 3.356989e+00 5.185155e+00 8.741016e+00 1.882518e+01 2.230264e+01 1.415773e+01 3.193380e+01 2.827733e+01 2.968611e+01 4.053945e+01 2.962581e+01 3.874505e+01 1.102846e+00 1.064769e-01 2.258293e-01 5.030795e-01 7.543766e-01 1.167185e+00 7.808416e-01 1.676970e+00 1.362924e+00 2.098240e+00 2.304474e+00 1.524460e+00 2.083778e+00 4.994369e-02 1.545420e-02 3.762693e-02 1.043915e-01 1.765899e-01 2.136018e-01 1.440271e-01 2.904575e-01 2.416246e-01 4.459379e-01 5.031766e-01 5.630419e-01 6.220422e-01 8.550132e-03
<GCONST> 7.731970e+01
<TRANSP> 20
 0.000000e+00 1.000000e+00 0.000000e+00 0.000000e+00 0.000000e+00 0.000000e+00 0.000000e+00 0.000000e+00 0.000000e+00 0.000000e+00 0.000000e+00 0.000000e+00 0.000000e+00 0.000000e+00 0.000000e+00 0.000000e+00 0.000000e+00 0.000000e+00 0.000000e+00 0.000000e+00
 0.000000e+00 7.640107e-01 2.359893e-01 0.000000e+00 0.000000e+00 0.000000e+00 0.000000e+00 0.000000e+00 0.000000e+00 0.000000e+00 0.000000e+00 0.000000e+00 0.000000e+00 0.000000e+00 0.000000e+00 0.000000e+00 0.000000e+00 0.000000e+00 0.000000e+00 0.000000e+00
 0.000000e+00 0.000000e+00 7.793781e-01 2.206219e-01 0.000000e+00 0.000000e+00 0.000000e+00 0.000000e+00 0.000000e+00 0.000000e+00 0.000000e+00 0.000000e+00 0.000000e+00 0.000000e+00 0.000000e+00 0.000000e+00 0.000000e+00 0.000000e+00 0.000000e+00 0.000000e+00
 0.000000e+00 0.000000e+00 0.000000e+00 7.433515e-01 2.566485e-01 0.000000e+00 0.000000e+00 0.000000e+00 0.000000e+00 0.000000e+00 0.000000e+00 0.000000e+00 0.000000e+00 0.000000e+00 0.000000e+00 0.000000e+00 0.000000e+00 0.000000e+00 0.000000e+00 0.000000e+00
 0.000000e+00 0.000000e+00 0.000000e+00 0.000000e+00 7.205275e-01 2.794725e-01 0.000000e+00 0.000000e+00 0.000000e+00 0.000000e+00 0.000000e+00 0.000000e+00 0.000000e+00 0.000000e+00 0.000000e+00 0.000000e+00 0.000000e+00 0.000000e+00 0.000000e+00 0.000000e+00
 0.000000e+00 0.000000e+00 0.000000e+00 0.000000e+00 0.000000e+00 8.141785e-01 1.858215e-01 0.000000e+00 0.000000e+00 0.000000e+00 0.000000e+00 0.000000e+00 0.000000e+00 0.000000e+00 0.000000e+00 0.000000e+00 0.000000e+00 0.000000e+00 0.000000e+00 0.000000e+00
 0.000000e+00 0.000000e+00 0.000000e+00 0.000000e+00 0.000000e+00 0.000000e+00 7.930663e-01 2.069337e-01 0.000000e+00 0.000000e+00 0.000000e+00 0.000000e+00 0.000000e+00 0.000000e+00 0.000000e+00 0.000000e+00 0.000000e+00 0.000000e+00 0.000000e+00 0.000000e+00
 0.000000e+00 0.000000e+00 0.000000e+00 0.000000e+00 0.000000e+00 0.000000e+00 0.000000e+00 8.393713e-01 1.606287e-01 0.000000e+00 0.000000e+00 0.000000e+00 0.000000e+00 0.000000e+00 0.000000e+00 0.000000e+00 0.000000e+00 0.000000e+00 0.000000e+00 0.000000e+00
 0.000000e+00 0.000000e+00 0.000000e+00 0.000000e+00 0.000000e+00 0.000000e+00 0.000000e+00 0.000000e+00 6.649135e-01 3.350864e-01 0.000000e+00 0.000000e+00 0.000000e+00 0.000000e+00 0.000000e+00 0.000000e+00 0.000000e+00 0.000000e+00 0.000000e+00 0.000000e+00
 0.000000e+00 0.000000e+00 0.000000e+00 0.000000e+00 0.000000e+00 0.000000e+00 0.000000e+00 0.000000e+00 0.000000e+00 6.663993e-01 3.336007e-01 0.000000e+00 0.000000e+00 0.000000e+00 0.000000e+00 0.000000e+00 0.000000e+00 0.000000e+00 0.000000e+00 0.000000e+00
 0.000000e+00 0.000000e+00 0.000000e+00 0.000000e+00 0.000000e+00 0.000000e+00 0.000000e+00 0.000000e+00 0.000000e+00 0.000000e+00 6.623852e-01 3.376149e-01 0.000000e+00 0.000000e+00 0.000000e+00 0.000000e+00 0.000000e+00 0.000000e+00 0.000000e+00 0.000000e+00
 0.000000e+00 0.000000e+00 0.000000e+00 0.000000e+00 0.000000e+00 0.000000e+00 0.000000e+00 0.000000e+00 0.000000e+00 0.000000e+00 0.000000e+00 8.228315e-01 1.771685e-01 0.000000e+00 0.000000e+00 0.000000e+00 0.000000e+00 0.000000e+00 0.000000e+00 0.000000e+00
 0.000000e+00 0.000000e+00 0.000000e+00 0.000000e+00 0.000000e+00 0.000000e+00 0.000000e+00 0.000000e+00 0.000000e+00 0.000000e+00 0.000000e+00 0.000000e+00 8.058026e-01 1.941974e-01 0.000000e+00 0.000000e+00 0.000000e+00 0.000000e+00 0.000000e+00 0.000000e+00
 0.000000e+00 0.000000e+00 0.000000e+00 0.000000e+00 0.000000e+00 0.000000e+00 0.000000e+00 0.000000e+00 0.000000e+00 0.000000e+00 0.000000e+00 0.000000e+00 0.000000e+00 7.538688e-01 2.461312e-01 0.000000e+00 0.000000e+00 0.000000e+00 0.000000e+00 0.000000e+00
 0.000000e+00 0.000000e+00 0.000000e+00 0.000000e+00 0.000000e+00 0.000000e+00 0.000000e+00 0.000000e+00 0.000000e+00 0.000000e+00 0.000000e+00 0.000000e+00 0.000000e+00 0.000000e+00 7.283167e-01 2.716833e-01 0.000000e+00 0.000000e+00 0.000000e+00 0.000000e+00
 0.000000e+00 0.000000e+00 0.000000e+00 0.000000e+00 0.000000e+00 0.000000e+00 0.000000e+00 0.000000e+00 0.000000e+00 0.000000e+00 0.000000e+00 0.000000e+00 0.000000e+00 0.000000e+00 0.000000e+00 7.452269e-01 2.547731e-01 0.000000e+00 0.000000e+00 0.000000e+00
 0.000000e+00 0.000000e+00 0.000000e+00 0.000000e+00 0.000000e+00 0.000000e+00 0.000000e+00 0.000000e+00 0.000000e+00 0.000000e+00 0.000000e+00 0.000000e+00 0.000000e+00 0.000000e+00 0.000000e+00 0.000000e+00 7.919275e-01 2.080725e-01 0.000000e+00 0.000000e+00
 0.000000e+00 0.000000e+00 0.000000e+00 0.000000e+00 0.000000e+00 0.000000e+00 0.000000e+00 0.000000e+00 0.000000e+00 0.000000e+00 0.000000e+00 0.000000e+00 0.000000e+00 0.000000e+00 0.000000e+00 0.000000e+00 0.000000e+00 8.196380e-01 1.803620e-01 0.000000e+00
 0.000000e+00 0.000000e+00 0.000000e+00 0.000000e+00 0.000000e+00 0.000000e+00 0.000000e+00 0.000000e+00 0.000000e+00 0.000000e+00 0.000000e+00 0.000000e+00 0.000000e+00 0.000000e+00 0.000000e+00 0.000000e+00 0.000000e+00 0.000000e+00 6.899776e-01 3.100224e-01
 0.000000e+00 0.000000e+00 0.000000e+00 0.000000e+00 0.000000e+00 0.000000e+00 0.000000e+00 0.000000e+00 0.000000e+00 0.000000e+00 0.000000e+00 0.000000e+00 0.000000e+00 0.000000e+00 0.000000e+00 0.000000e+00 0.000000e+00 0.000000e+00 0.000000e+00 0.000000e+00
<ENDHMM>
