~o
<STREAMINFO> 1 39
<VECSIZE> 39<NULLD><MFCC_D_A_0><DIAGC>
~h "setengah"
<BEGINHMM>
<NUMSTATES> 20
<STATE> 2
<MEAN> 39
 -1.964495e+01 -6.900188e+00 -4.270538e+00 -3.738709e+00 2.704646e+00 -3.686788e+00 3.947701e+00 -5.045729e+00 2.791420e+00 -7.412982e+00 1.244349e+00 -6.461066e+00 5.673220e+01 -9.311475e-01 1.588062e+00 -9.310670e-01 9.305511e-01 -1.515742e-01 -7.817364e-01 8.294368e-01 -1.030840e+00 1.038359e+00 -6.536998e-01 1.160745e+00 -1.333278e-01 5.745797e-01 -3.418531e-01 5.912080e-01 -3.825248e-01 3.139631e-01 -2.099743e-01 -3.134470e-02 1.501356e-01 -1.863415e-01 1.747029e-01 -5.928617e-02 1.723906e-01 1.336799e-02 2.145541e-01
<VARIANCE> 39
 6.823781e+00 8.201143e+00 5.772758e+00 9.130554e+00 1.686670e+01 1.443701e+01 3.589932e+01 2.190825e+01 2.613998e+01 2.072216e+01 1.782609e+01 1.874757e+01 1.507325e+00 6.736138e-01 2.011916e+00 8.962212e-01 2.062370e+00 1.884567e+00 2.641551e+00 1.964285e+00 4.455699e+00 2.729256e+00 1.803887e+00 2.331285e+00 2.571153e+00 2.383845e-01 7.893579e-02 1.436899e-01 1.355718e-01 2.766981e-01 3.375115e-01 3.443588e-01 2.465048e-01 5.397226e-01 3.910698e-01 3.647030e-01 4.730822e-01 3.480807e-01 1.303530e-02
<GCONST> 9.096659e+01
<STATE> 3
<MEAN> 39
 -2.741407e+01 6.269118e+00 -1.186609e+01 3.249592e+00 9.470417e-01 -7.140425e+00 8.001002e+00 -8.197098e+00 6.789568e+00 -8.990324e+00 5.595998e+00 -5.164182e+00 6.211788e+01 -6.294916e-01 1.406899e+00 -7.778378e-01 2.982804e-01 -9.787711e-02 -9.759451e-01 2.601980e-01 -3.219433e-01 6.890997e-02 1.592096e-01 -3.771367e-02 3.268696e-01 8.411371e-01 9.551670e-01 -5.891625e-01 4.447230e-01 -5.946195e-01 -1.148202e-01 -2.973436e-01 -6.693062e-01 1.153156e-01 -2.995930e-01 2.670811e-01 -4.046172e-01 -1.504508e-01 -1.442207e-02
<VARIANCE> 39
 9.334888e+00 2.410365e+01 1.497692e+01 1.543811e+01 3.458359e+01 2.870770e+01 3.654568e+01 4.357416e+01 3.775889e+01 2.580891e+01 2.221164e+01 2.259848e+01 6.518977e+00 2.803728e+00 2.606117e+00 2.027852e+00 2.416802e+00 1.919613e+00 1.634111e+00 1.641517e+00 2.043854e+00 2.778621e+00 2.626275e+00 1.859689e+00 1.250814e+00 2.621635e-01 4.621979e-01 1.615652e-01 1.835076e-01 3.007417e-01 6.107529e-01 4.666231e-01 5.649312e-01 5.221655e-01 4.811050e-01 4.952742e-01 4.471644e-01 4.178109e-01 6.125046e-02
<GCONST> 1.053379e+02
<STATE> 4
<MEAN> 39
 -1.677885e+01 5.480257e+00 -9.753245e+00 -2.381314e+00 -1.386007e+00 -1.770246e+01 -9.977310e-01 -1.041083e+01 6.147155e+00 -7.445811e+00 1.686872e+00 -7.302749e+00 6.606746e+01 5.359088e+00 -5.243031e-01 -4.358937e-02 -2.158800e+00 -1.040313e+00 -2.764444e+00 -4.869730e+00 -9.953496e-02 7.893781e-02 1.238883e+00 -1.700173e+00 -1.813421e+00 2.253988e+00 1.245783e-01 -2.256268e-01 -2.112781e-01 3.357069e-03 4.801827e-01 5.213499e-01 -1.017705e-01 2.271410e-01 7.242902e-02 2.290049e-01 6.862309e-02 -1.067029e-01 1.981458e-01
<VARIANCE> 39
 7.413946e+01 1.809995e+01 1.793719e+01 2.801307e+01 4.577020e+01 8.831843e+01 1.114937e+02 6.732303e+01 4.506554e+01 4.625209e+01 4.107735e+01 3.812005e+01 2.363658e+01 1.541654e+00 1.924927e+00 1.930113e+00 2.526189e+00 5.340400e+00 6.294032e+00 6.107280e+00 5.829683e+00 1.853440e+00 5.919820e+00 5.592114e+00 3.901869e+00 1.155220e+00 1.628717e+00 1.058391e-01 2.047650e-01 4.843083e-01 6.149520e-01 1.263554e+00 2.287992e+00 4.534616e-01 3.602467e-01 6.767610e-01 5.539702e-01 8.613313e-01 4.191433e-01
<GCONST> 1.285644e+02
<STATE> 5
<MEAN> 39
 -3.636877e+00 1.473238e+00 -1.165192e+01 -7.301271e+00 5.856318e-01 -1.925309e+01 -1.213863e+01 -8.904366e+00 5.117815e+00 -5.603505e-01 -2.989564e+00 -1.124427e+01 7.345659e+01 9.067826e-01 -5.519229e-01 6.151118e-01 -1.635401e-01 9.537799e-01 1.749070e+00 -4.308198e-01 -1.985740e-01 -5.505759e-01 5.249300e-01 1.260594e-01 -1.047323e-01 -3.723559e-01 -1.225163e+00 2.254391e-01 4.267825e-01 5.953659e-01 -2.758210e-02 6.159884e-01 1.053278e+00 -6.292992e-02 -2.162798e-01 -7.569804e-01 3.000368e-01 2.993478e-01 -9.588700e-01
<VARIANCE> 39
 3.776107e+00 2.445522e+01 2.259957e+01 4.424755e+01 1.027632e+02 1.105828e+02 4.998663e+01 1.095289e+02 8.530209e+01 8.566354e+01 9.528128e+01 3.483290e+01 1.643792e+01 1.820884e+00 9.292102e-01 1.053735e+00 1.441419e+00 1.803229e+00 1.628424e+00 2.338475e+00 2.376325e+00 2.452560e+00 3.413624e+00 2.792642e+00 1.517267e+00 1.786448e+00 2.486265e-01 1.915478e-01 1.542879e-01 3.671163e-01 7.161945e-01 8.172886e-01 5.291654e-01 8.654666e-01 4.514653e-01 8.134519e-01 7.733585e-01 5.013753e-01 1.277425e-01
<GCONST> 1.175066e+02
<STATE> 6
<MEAN> 39
 -6.251018e+00 1.049024e+00 -6.814970e+00 -5.855188e+00 6.461352e-01 -1.115156e+01 -8.210710e+00 -9.855891e+00 2.101448e+00 -5.060867e+00 -8.653988e-01 -1.045076e+01 6.592430e+01 -7.745463e-01 -6.189163e-01 9.414140e-01 2.770323e-02 -1.803896e-01 6.941870e-01 5.454533e-01 8.185623e-02 -7.875344e-01 -7.920671e-01 -1.199030e-01 1.851494e-01 -1.263311e+00 -6.944964e-02 -1.350418e-01 -1.397308e-01 -1.056774e-01 -8.729186e-02 -3.475898e-01 2.136017e-02 6.478003e-02 1.189853e-01 2.174292e-01 5.769000e-03 2.701561e-02 2.283575e-01
<VARIANCE> 39
 2.440135e+00 1.130533e+01 1.539160e+01 1.230524e+01 5.373917e+01 7.102924e+01 3.798939e+01 4.521040e+01 4.112895e+01 4.371637e+01 4.387511e+01 1.591402e+01 7.258664e+00 1.657408e-01 4.013288e-01 2.986664e-01 7.307755e-01 1.164349e+00 1.412277e+00 1.286720e+00 1.800281e+00 1.130458e+00 2.416921e+00 1.157858e+00 1.481406e+00 1.964559e-01 7.969458e-02 4.825162e-02 9.939140e-02 1.040417e-01 2.162906e-01 1.792642e-01 2.516676e-01 2.263505e-01 2.039543e-01 3.114711e-01 2.444962e-01 2.770092e-01 6.489211e-02
<GCONST> 8.455031e+01
<STATE> 7
<MEAN> 39
 -9.818199e+00 -3.044011e+00 -4.667292e+00 -6.830058e+00 1.553095e-01 -1.273084e+01 -6.019910e+00 -9.677740e+00 1.470883e+00 -6.265206e+00 -1.485345e+00 -1.039483e+01 6.386458e+01 6.972306e-01 -1.764697e+00 -1.110554e+00 -7.167544e-01 2.784122e-01 -1.018598e-01 5.166478e-01 4.538980e-01 8.503529e-01 6.032267e-01 -8.814294e-01 -1.039720e+00 1.495830e+00 9.036607e-01 -1.501073e-01 -4.263510e-01 -2.090008e-01 1.494796e-01 2.792789e-01 -2.912335e-01 -1.686677e-02 2.420473e-01 2.679917e-01 -4.702636e-01 -4.827254e-01 6.904754e-01
<VARIANCE> 39
 7.426436e+00 9.921158e+00 1.694068e+01 9.952415e+00 2.270664e+01 5.299902e+01 2.702653e+01 4.923223e+01 3.171006e+01 2.724208e+01 4.039445e+01 1.314590e+01 7.563954e+00 3.044247e+00 1.686529e+00 3.168867e+00 2.264673e+00 2.986081e+00 2.746111e+00 3.825029e+00 2.777756e+00 1.907758e+00 4.884082e+00 3.148909e+00 3.508064e+00 1.666747e+00 1.252166e-01 2.069138e-01 4.611211e-01 4.323851e-01 6.185268e-01 3.525127e-01 5.023415e-01 4.757584e-01 5.375180e-01 7.601519e-01 2.806357e-01 5.375555e-01 2.780456e-01
<GCONST> 1.113828e+02
<STATE> 8
<MEAN> 39
 -2.580043e-01 -9.309760e+00 -7.868180e+00 -1.081304e+01 2.691506e+00 -9.393236e+00 -7.308185e+00 -5.626704e+00 3.385914e+00 7.281835e-02 -6.288786e+00 -1.672123e+01 7.289819e+01 1.608508e+00 1.375918e-01 3.035542e-01 5.865107e-02 3.862468e-01 5.094885e-01 -7.828676e-02 4.917597e-02 -4.171139e-01 5.727787e-01 -5.184639e-01 3.423419e-01 7.822779e-01 -4.897885e-01 7.186257e-01 6.032294e-01 2.913988e-01 -2.248097e-01 -1.588824e-01 1.197343e-01 -1.797860e-01 -4.772441e-01 -5.181841e-01 6.890717e-01 8.690822e-01 -7.528151e-01
<VARIANCE> 39
 1.047100e+01 2.780617e+01 6.568217e+01 3.282069e+01 1.204564e+02 7.486961e+01 9.524177e+01 1.706485e+02 3.481232e+01 1.137373e+02 9.092323e+01 3.828348e+01 1.282575e+01 1.684572e+00 2.868328e+00 2.102328e+00 2.462905e+00 4.101466e+00 2.581128e+00 3.464900e+00 4.074161e+00 3.015715e+00 3.931240e+00 3.046810e+00 6.182262e+00 2.825180e+00 1.525526e-01 2.664331e-01 4.245627e-01 4.411342e-01 7.159442e-01 4.955027e-01 7.683678e-01 5.234669e-01 3.473583e-01 6.201009e-01 5.814427e-01 6.286318e-01 1.682945e-01
<GCONST> 1.263453e+02
<STATE> 9
<MEAN> 39
 9.324698e-01 -2.455512e+00 -1.379537e+00 -6.977441e+00 1.470998e+00 -1.077657e+01 -5.495179e+00 -7.128321e+00 -1.762900e+00 -4.333625e+00 -3.416089e+00 -9.590563e+00 6.959601e+01 2.002129e-01 1.132780e+00 7.807039e-01 2.542302e-01 -5.702882e-01 4.124304e-01 1.359081e-01 -7.383854e-01 -9.753839e-01 -9.952669e-01 6.896048e-01 8.434801e-01 -7.399483e-01 -6.499892e-02 -1.576663e-01 -1.681686e-01 -1.740099e-01 -2.498721e-02 8.553083e-02 1.671192e-02 3.783508e-02 1.096902e-01 8.279923e-02 -1.189844e-01 -1.312248e-01 8.249258e-02
<VARIANCE> 39
 7.732607e+00 3.614154e+01 6.329448e+01 1.857904e+01 6.031264e+01 3.407265e+01 5.622081e+01 1.140076e+02 6.107253e+01 8.907915e+01 5.230208e+01 2.297864e+01 4.908795e+00 6.520537e-02 3.491175e-01 8.313941e-01 1.635394e+00 1.630098e+00 1.919380e+00 1.298478e+00 1.258759e+00 1.381880e+00 1.124263e+00 1.541722e+00 2.094005e+00 1.089672e-01 3.364067e-02 4.408147e-02 9.974671e-02 8.116628e-02 1.581636e-01 1.764704e-01 2.120894e-01 1.906646e-01 1.808268e-01 1.534918e-01 2.010311e-01 3.545167e-01 1.430260e-02
<GCONST> 8.702045e+01
<STATE> 10
<MEAN> 39
 2.758041e+00 -1.552574e+00 -4.303703e+00 -1.491639e+01 -2.681015e+00 -1.994254e+00 -4.995116e+00 -1.409452e+01 -2.335078e+00 -7.357367e+00 7.754518e-01 -1.266239e+00 6.780744e+01 -3.181617e-02 2.390903e-01 1.834769e-01 -4.107553e-01 -2.201122e-01 3.711901e-01 3.729855e-01 -2.568032e-01 -2.879955e-01 3.195564e-02 5.189447e-01 6.992976e-01 -1.483153e-01 -5.525821e-02 -2.173923e-01 -2.115202e-01 2.267499e-01 1.326413e-01 -1.231973e-01 3.638780e-02 4.764750e-02 3.214894e-01 1.104606e-01 -2.441886e-01 -3.226019e-01 1.187942e-01
<VARIANCE> 39
 4.594532e+00 2.427421e+01 1.672120e+01 2.880674e+01 1.795042e+01 2.985803e+01 6.572995e+01 6.541119e+01 2.144878e+01 4.773237e+01 2.647224e+01 2.894087e+01 1.370924e+00 4.878370e-02 2.648687e-01 5.407029e-01 1.089300e+00 1.027121e+00 1.211649e+00 4.650405e-01 9.895639e-01 9.607677e-01 1.142549e+00 1.123083e+00 1.714502e+00 4.165722e-02 1.506208e-02 8.344162e-02 6.328554e-02 1.753629e-01 1.500565e-01 1.754549e-01 9.746980e-02 2.087076e-01 2.003479e-01 1.765936e-01 2.531992e-01 2.557323e-01 1.778187e-02
<GCONST> 7.442105e+01
<STATE> 11
<MEAN> 39
 1.149380e+00 -1.207461e+00 -3.701346e+00 -9.006289e+00 2.712726e-01 -6.186715e+00 -3.817684e+00 -1.183718e+01 -8.828011e-01 -7.901246e+00 -3.387723e+00 -6.163943e+00 6.821271e+01 -2.452113e-02 -1.875453e+00 -1.293618e+00 1.768059e-01 9.377391e-01 -1.228665e-01 -4.463232e-01 1.350256e+00 2.050700e+00 -5.483654e-01 -1.586695e+00 -7.369787e-01 8.497753e-01 2.452292e-02 -5.223511e-01 -1.626983e-01 2.456185e-02 7.128354e-02 -4.506770e-02 -3.897484e-01 5.863839e-01 2.577972e-01 -1.660674e-01 -3.321369e-01 -1.350722e-01 2.188669e-01
<VARIANCE> 39
 7.465460e+00 4.467329e+01 3.696737e+01 3.473908e+01 5.067191e+01 2.916017e+01 6.587992e+01 8.821107e+01 5.066801e+01 5.174090e+01 6.685692e+01 6.865829e+01 4.758496e+00 2.265986e-01 1.018470e+00 9.293467e-01 2.186740e+00 3.078777e+00 2.769529e+00 2.167561e+00 3.547396e+00 1.661599e+00 9.396973e-01 2.241790e+00 2.069238e+00 2.744232e-01 2.672891e-02 1.500646e-01 2.188799e-01 2.630604e-01 6.018879e-01 2.444913e-01 3.410115e-01 2.957818e-01 4.687642e-01 1.911432e-01 3.700552e-01 3.831852e-01 4.132307e-02
<GCONST> 1.024510e+02
<STATE> 12
<MEAN> 39
 1.140196e+00 -1.166493e+01 -5.952781e+00 -8.457188e+00 5.171475e+00 -6.610010e+00 -1.156948e+01 -2.092155e+00 7.014636e+00 -1.249109e+01 -6.879313e+00 -1.044688e+01 7.343251e+01 -7.969277e-02 -1.412014e+00 -2.703872e-01 2.273505e-01 4.987402e-02 -8.582734e-02 -3.873268e-01 9.244828e-01 -6.310453e-02 -1.037860e+00 -5.705280e-01 -2.327428e-01 5.814571e-01 -9.782872e-02 4.779091e-01 3.165452e-01 1.804790e-01 -1.189088e-01 2.392998e-02 2.123759e-01 -4.635598e-01 -4.539331e-01 -6.454480e-02 1.791952e-01 2.019460e-01 -2.111378e-01
<VARIANCE> 39
 3.714259e+00 2.458682e+01 9.840349e+01 1.482198e+01 4.020171e+01 4.424753e+01 3.552533e+01 1.182101e+02 4.399239e+01 4.733833e+01 9.983420e+01 4.248611e+01 1.401772e+01 2.070158e-01 2.178845e+00 1.270445e+00 1.242440e+00 1.428858e+00 3.244553e+00 1.773321e+00 2.923014e+00 3.408140e+00 2.073945e+00 1.229472e+00 1.494131e+00 3.017915e-01 5.378627e-02 1.460256e-01 2.814608e-01 1.604211e-01 2.728671e-01 3.903486e-01 2.039141e-01 5.080946e-01 4.107481e-01 2.727082e-01 2.229850e-01 2.846442e-01 2.593889e-02
<GCONST> 1.010935e+02
<STATE> 13
<MEAN> 39
 7.661967e-01 -1.553783e+01 -7.816784e+00 -3.840015e+00 -3.646270e+00 -6.594846e+00 -3.456614e+00 -5.019113e+00 2.874027e+00 -8.903963e+00 -1.129118e+01 -4.571746e+00 7.386039e+01 -3.071469e-01 3.287615e-01 8.523685e-01 1.209098e+00 5.613301e-01 1.094947e-01 -1.497788e-01 -5.903825e-02 -8.892128e-02 -7.620974e-01 -7.127634e-01 3.514681e-01 -2.308239e-01 -8.033506e-02 2.939405e-01 1.727403e-01 3.850168e-02 3.219436e-01 -1.414534e-01 1.389717e-01 -1.285103e-01 -7.371409e-02 -9.785469e-02 1.569363e-01 1.031643e-01 -2.091071e-01
<VARIANCE> 39
 2.546006e+00 1.136135e+01 2.310465e+01 1.662544e+01 6.545407e+01 1.236414e+02 5.543297e+01 3.086810e+01 6.847916e+01 5.784615e+01 3.171862e+01 5.588950e+01 4.730736e+00 1.147032e-01 9.285889e-01 7.534458e-01 9.187654e-01 2.169787e+00 1.307645e+00 1.764671e+00 1.435997e+00 1.760693e+00 1.182845e+00 1.102689e+00 1.456326e+00 3.446843e-01 4.058824e-02 6.717401e-02 7.639606e-02 1.883923e-01 1.950318e-01 2.381715e-01 2.685831e-01 2.126344e-01 3.099455e-01 2.003223e-01 1.505399e-01 2.756861e-01 2.237214e-02
<GCONST> 8.842369e+01
<STATE> 14
<MEAN> 39
 -2.701605e+00 -9.872064e+00 -3.010777e+00 1.168227e+00 8.154869e+00 -8.331112e+00 -7.428138e+00 -6.396322e+00 9.906107e-01 -2.211710e+01 -1.282793e+01 -7.121758e+00 6.999570e+01 -1.113824e+00 4.852256e-01 3.555011e-01 1.149621e+00 9.719917e-01 -6.435276e-01 7.575499e-01 -2.141487e-01 1.428986e-02 -8.833790e-01 8.193691e-01 5.875349e-01 -8.521240e-01 -9.604018e-02 -3.268797e-01 -3.271082e-01 -2.792144e-01 -1.798497e-01 4.929017e-02 4.108753e-02 2.379724e-01 2.277662e-01 2.676235e-01 3.047181e-01 -4.025254e-02 2.685655e-02
<VARIANCE> 39
 5.451365e+00 7.681744e+00 2.829963e+01 1.832926e+01 3.462789e+01 4.966594e+01 3.231636e+01 5.799975e+01 1.027143e+02 1.070077e+02 6.756525e+01 4.233153e+01 8.961985e+00 2.016496e-01 6.731929e-01 1.661597e+00 1.212566e+00 1.311174e+00 1.375106e+00 2.063655e+00 2.704322e+00 3.127466e+00 1.420783e+00 2.473202e+00 1.731107e+00 1.859342e-01 4.069188e-02 6.462135e-02 1.133794e-01 1.166559e-01 2.866657e-01 2.054009e-01 2.357648e-01 3.568000e-01 4.215245e-01 2.744966e-01 2.936444e-01 2.466915e-01 1.714831e-02
<GCONST> 9.395965e+01
<STATE> 15
<MEAN> 39
 -9.067933e+00 -1.280337e+01 -1.940339e+00 4.259062e+00 1.205958e+01 -9.966882e+00 -2.194375e+00 -4.226236e+00 4.109545e+00 -2.482238e+01 -7.371017e+00 -4.337668e+00 6.820287e+01 -8.552649e-01 -4.034439e-01 5.536483e-02 3.313046e-01 -1.284852e-01 2.401129e-01 1.061979e+00 4.711112e-01 5.724790e-02 3.709848e-01 3.834315e-01 3.575963e-01 -5.460829e-01 9.623809e-02 1.292624e-01 7.899451e-02 -1.193425e-01 -1.564647e-01 1.587858e-01 5.071829e-02 3.150222e-02 -1.153057e-01 6.319971e-02 -1.720314e-01 -1.071317e-01 -3.328137e-02
<VARIANCE> 39
 1.199238e+01 1.791244e+01 2.563073e+01 1.154219e+01 2.625922e+01 2.797899e+01 6.963448e+01 4.287250e+01 1.185188e+02 5.508971e+01 6.358797e+01 6.687157e+01 1.310043e+01 2.520719e-01 5.181911e-01 5.906646e-01 1.071028e+00 7.309939e-01 1.410643e+00 2.097220e+00 2.388962e+00 1.495560e+00 2.240975e+00 2.617127e+00 2.993118e+00 1.748343e-01 4.335798e-02 5.243724e-02 1.281693e-01 1.446645e-01 1.208168e-01 1.671724e-01 4.127253e-01 3.797762e-01 2.714020e-01 2.834112e-01 6.168278e-01 4.699326e-01 1.326953e-02
<GCONST> 9.376721e+01
<STATE> 16
<MEAN> 39
 -1.234810e+01 -1.301645e+01 -1.332870e-01 7.633048e+00 9.831434e+00 -7.214767e+00 5.848832e+00 1.397132e+00 4.939501e+00 -2.105414e+01 -6.115913e+00 -3.645985e+00 6.438148e+01 -3.303897e-01 7.703718e-01 3.684456e-03 -9.608325e-02 -2.945621e-02 9.332509e-01 1.162547e-01 1.898883e-01 -5.493647e-01 3.912283e-01 -5.621331e-01 -6.421549e-01 -1.001617e+00 1.859865e-02 7.842615e-02 1.671419e-02 -1.153454e-01 4.021918e-02 3.121643e-02 -1.293475e-01 -3.592920e-02 1.982274e-02 1.297038e-01 -1.101658e-01 -2.121044e-01 1.419066e-02
<VARIANCE> 39
 1.573940e+01 2.385566e+01 1.732109e+01 3.134625e+01 5.208720e+01 5.204521e+01 5.130115e+01 4.354230e+01 7.861947e+01 2.077371e+01 1.824126e+01 2.290154e+01 7.912139e+00 1.203036e-01 2.737714e-01 6.756204e-01 7.128346e-01 8.163049e-01 1.164498e+00 1.488283e+00 9.841065e-01 1.324740e+00 9.352956e-01 1.537143e+00 1.245993e+00 3.700120e-02 2.568566e-02 5.614481e-02 1.093295e-01 8.022317e-02 1.310386e-01 2.279102e-01 2.917950e-01 2.562598e-01 3.144594e-01 1.356214e-01 3.313299e-01 2.399449e-01 7.898237e-03
<GCONST> 8.086476e+01
<STATE> 17
<MEAN> 39
 -1.160538e+01 -7.093995e+00 -3.118940e+00 4.279283e-01 6.463243e+00 -3.336759e+00 5.594755e-02 -2.760414e+00 1.086501e+00 -1.430186e+01 -8.853140e+00 -7.605159e+00 6.039331e+01 -8.504605e-01 3.952410e-01 2.696432e-01 -2.306106e-01 6.697574e-03 7.468709e-01 6.111085e-01 1.546895e-01 -1.949652e-01 6.660872e-01 4.732451e-01 -6.518251e-01 -6.800106e-01 -5.559182e-03 -4.179060e-02 7.973543e-02 1.630995e-01 5.258484e-02 2.674640e-02 1.061033e-01 -7.319155e-02 -2.840119e-03 5.544292e-02 1.292480e-01 9.400881e-02 5.718154e-02
<VARIANCE> 39
 6.677301e+00 4.532996e+00 8.954457e+00 1.425574e+01 1.857428e+01 2.068768e+01 2.617160e+01 2.681192e+01 5.314108e+01 4.917793e+01 1.534537e+01 1.571844e+01 2.614743e+00 8.586963e-02 2.897328e-01 4.349556e-01 1.062226e+00 1.092090e+00 1.055260e+00 1.124388e+00 1.148466e+00 8.084284e-01 9.985373e-01 1.429119e+00 1.309710e+00 4.854199e-02 1.630603e-02 3.863380e-02 6.544222e-02 1.347696e-01 1.454226e-01 1.476087e-01 1.238153e-01 1.031257e-01 1.473286e-01 1.850605e-01 2.672982e-01 2.204253e-01 4.556078e-03
<GCONST> 6.794802e+01
<STATE> 18
<MEAN> 39
 -1.645034e+01 -5.296870e+00 5.865841e-01 3.183616e+00 8.654672e+00 2.062299e+00 6.427016e+00 -1.814089e+00 -8.771911e-01 -1.243024e+01 -5.524876e+00 -9.694940e+00 5.709876e+01 -6.728836e-01 -4.035775e-02 3.319981e-01 1.685566e-02 1.852828e-01 7.980819e-01 9.160999e-01 -2.879671e-01 -7.693979e-01 -1.300660e-01 7.257609e-02 -2.749576e-01 -4.381953e-01 3.290608e-02 -1.509755e-01 -1.465779e-01 -1.067009e-01 -1.584353e-02 -2.528130e-02 -1.865562e-01 -1.491511e-01 -4.798689e-02 -3.592309e-02 -8.354178e-03 1.199095e-01 4.832514e-02
<VARIANCE> 39
 3.648793e+00 3.359548e+00 5.696187e+00 1.837482e+01 3.037499e+01 1.982696e+01 3.292527e+01 3.364154e+01 5.059749e+01 3.909394e+01 1.926711e+01 1.744726e+01 1.572668e+00 1.221628e-01 2.924806e-01 4.364512e-01 5.596892e-01 8.486194e-01 7.579073e-01 9.376827e-01 7.028746e-01 1.181240e+00 2.108817e+00 1.485962e+00 1.384701e+00 6.442220e-02 1.677604e-02 3.455676e-02 6.413333e-02 7.995027e-02 1.427808e-01 1.495976e-01 2.129253e-01 2.055428e-01 2.638669e-01 2.881972e-01 3.781172e-01 3.400762e-01 9.403986e-03
<GCONST> 7.040213e+01
<STATE> 19
<MEAN> 39
 -1.802182e+01 -7.387167e+00 -3.893810e-01 1.840935e+00 9.615214e+00 4.025227e+00 6.710600e+00 -4.666048e+00 -3.377793e+00 -1.180859e+01 -3.353626e+00 -8.899312e+00 5.638662e+01 -1.833385e-01 -4.147708e-03 -3.304897e-01 -9.268720e-01 -5.804471e-01 2.062680e-01 -2.170823e-01 -5.299800e-01 9.051337e-02 1.207824e+00 9.329803e-01 4.414886e-01 -1.618452e-01 3.954093e-02 5.232598e-02 -2.469500e-02 -9.288467e-02 -1.897976e-01 -1.004985e-01 -9.242131e-02 -6.144154e-03 3.105840e-02 1.029497e-02 3.289670e-02 6.818206e-02 2.869127e-02
<VARIANCE> 39
 3.164335e+00 5.172277e+00 9.240862e+00 2.438789e+01 3.064348e+01 2.914119e+01 3.597097e+01 5.067722e+01 5.930121e+01 6.377134e+01 6.099490e+01 4.279699e+01 1.165512e+00 1.139540e-01 5.779941e-01 6.297894e-01 9.513531e-01 1.380070e+00 2.332150e+00 2.759023e+00 2.722394e+00 2.063292e+00 2.327427e+00 2.504878e+00 3.412815e+00 3.751339e-02 2.062978e-02 5.360520e-02 7.629058e-02 1.777177e-01 2.692905e-01 3.036692e-01 6.054989e-01 4.483509e-01 2.759154e-01 4.383490e-01 3.381649e-01 5.923736e-01 1.004961e-02
<GCONST> 8.759998e+01
<TRANSP> 20
 0.000000e+00 1.000000e+00 0.000000e+00 0.000000e+00 0.000000e+00 0.000000e+00 0.000000e+00 0.000000e+00 0.000000e+00 0.000000e+00 0.000000e+00 0.000000e+00 0.000000e+00 0.000000e+00 0.000000e+00 0.000000e+00 0.000000e+00 0.000000e+00 0.000000e+00 0.000000e+00
 0.000000e+00 7.647054e-01 2.352946e-01 0.000000e+00 0.000000e+00 0.000000e+00 0.000000e+00 0.000000e+00 0.000000e+00 0.000000e+00 0.000000e+00 0.000000e+00 0.000000e+00 0.000000e+00 0.000000e+00 0.000000e+00 0.000000e+00 0.000000e+00 0.000000e+00 0.000000e+00
 0.000000e+00 0.000000e+00 8.093569e-01 1.906431e-01 0.000000e+00 0.000000e+00 0.000000e+00 0.000000e+00 0.000000e+00 0.000000e+00 0.000000e+00 0.000000e+00 0.000000e+00 0.000000e+00 0.000000e+00 0.000000e+00 0.000000e+00 0.000000e+00 0.000000e+00 0.000000e+00
 0.000000e+00 0.000000e+00 0.000000e+00 7.145756e-01 2.854244e-01 0.000000e+00 0.000000e+00 0.000000e+00 0.000000e+00 0.000000e+00 0.000000e+00 0.000000e+00 0.000000e+00 0.000000e+00 0.000000e+00 0.000000e+00 0.000000e+00 0.000000e+00 0.000000e+00 0.000000e+00
 0.000000e+00 0.000000e+00 0.000000e+00 0.000000e+00 6.917521e-01 3.082480e-01 0.000000e+00 0.000000e+00 0.000000e+00 0.000000e+00 0.000000e+00 0.000000e+00 0.000000e+00 0.000000e+00 0.000000e+00 0.000000e+00 0.000000e+00 0.000000e+00 0.000000e+00 0.000000e+00
 0.000000e+00 0.000000e+00 0.000000e+00 0.000000e+00 0.000000e+00 8.155277e-01 1.844723e-01 0.000000e+00 0.000000e+00 0.000000e+00 0.000000e+00 0.000000e+00 0.000000e+00 0.000000e+00 0.000000e+00 0.000000e+00 0.000000e+00 0.000000e+00 0.000000e+00 0.000000e+00
 0.000000e+00 0.000000e+00 0.000000e+00 0.000000e+00 0.000000e+00 0.000000e+00 7.211077e-01 2.788923e-01 0.000000e+00 0.000000e+00 0.000000e+00 0.000000e+00 0.000000e+00 0.000000e+00 0.000000e+00 0.000000e+00 0.000000e+00 0.000000e+00 0.000000e+00 0.000000e+00
 0.000000e+00 0.000000e+00 0.000000e+00 0.000000e+00 0.000000e+00 0.000000e+00 0.000000e+00 7.499608e-01 2.500392e-01 0.000000e+00 0.000000e+00 0.000000e+00 0.000000e+00 0.000000e+00 0.000000e+00 0.000000e+00 0.000000e+00 0.000000e+00 0.000000e+00 0.000000e+00
 0.000000e+00 0.000000e+00 0.000000e+00 0.000000e+00 0.000000e+00 0.000000e+00 0.000000e+00 0.000000e+00 7.992162e-01 2.007838e-01 0.000000e+00 0.000000e+00 0.000000e+00 0.000000e+00 0.000000e+00 0.000000e+00 0.000000e+00 0.000000e+00 0.000000e+00 0.000000e+00
 0.000000e+00 0.000000e+00 0.000000e+00 0.000000e+00 0.000000e+00 0.000000e+00 0.000000e+00 0.000000e+00 0.000000e+00 7.706581e-01 2.293419e-01 0.000000e+00 0.000000e+00 0.000000e+00 0.000000e+00 0.000000e+00 0.000000e+00 0.000000e+00 0.000000e+00 0.000000e+00
 0.000000e+00 0.000000e+00 0.000000e+00 0.000000e+00 0.000000e+00 0.000000e+00 0.000000e+00 0.000000e+00 0.000000e+00 0.000000e+00 7.360032e-01 2.639968e-01 0.000000e+00 0.000000e+00 0.000000e+00 0.000000e+00 0.000000e+00 0.000000e+00 0.000000e+00 0.000000e+00
 0.000000e+00 0.000000e+00 0.000000e+00 0.000000e+00 0.000000e+00 0.000000e+00 0.000000e+00 0.000000e+00 0.000000e+00 0.000000e+00 0.000000e+00 7.869197e-01 2.130803e-01 0.000000e+00 0.000000e+00 0.000000e+00 0.000000e+00 0.000000e+00 0.000000e+00 0.000000e+00
 0.000000e+00 0.000000e+00 0.000000e+00 0.000000e+00 0.000000e+00 0.000000e+00 0.000000e+00 0.000000e+00 0.000000e+00 0.000000e+00 0.000000e+00 0.000000e+00 7.699305e-01 2.300695e-01 0.000000e+00 0.000000e+00 0.000000e+00 0.000000e+00 0.000000e+00 0.000000e+00
 0.000000e+00 0.000000e+00 0.000000e+00 0.000000e+00 0.000000e+00 0.000000e+00 0.000000e+00 0.000000e+00 0.000000e+00 0.000000e+00 0.000000e+00 0.000000e+00 0.000000e+00 7.671762e-01 2.328239e-01 0.000000e+00 0.000000e+00 0.000000e+00 0.000000e+00 0.000000e+00
 0.000000e+00 0.000000e+00 0.000000e+00 0.000000e+00 0.000000e+00 0.000000e+00 0.000000e+00 0.000000e+00 0.000000e+00 0.000000e+00 0.000000e+00 0.000000e+00 0.000000e+00 0.000000e+00 7.876951e-01 2.123049e-01 0.000000e+00 0.000000e+00 0.000000e+00 0.000000e+00
 0.000000e+00 0.000000e+00 0.000000e+00 0.000000e+00 0.000000e+00 0.000000e+00 0.000000e+00 0.000000e+00 0.000000e+00 0.000000e+00 0.000000e+00 0.000000e+00 0.000000e+00 0.000000e+00 0.000000e+00 7.422816e-01 2.577184e-01 0.000000e+00 0.000000e+00 0.000000e+00
 0.000000e+00 0.000000e+00 0.000000e+00 0.000000e+00 0.000000e+00 0.000000e+00 0.000000e+00 0.000000e+00 0.000000e+00 0.000000e+00 0.000000e+00 0.000000e+00 0.000000e+00 0.000000e+00 0.000000e+00 0.000000e+00 8.124813e-01 1.875187e-01 0.000000e+00 0.000000e+00
 0.000000e+00 0.000000e+00 0.000000e+00 0.000000e+00 0.000000e+00 0.000000e+00 0.000000e+00 0.000000e+00 0.000000e+00 0.000000e+00 0.000000e+00 0.000000e+00 0.000000e+00 0.000000e+00 0.000000e+00 0.000000e+00 0.000000e+00 7.610046e-01 2.389954e-01 0.000000e+00
 0.000000e+00 0.000000e+00 0.000000e+00 0.000000e+00 0.000000e+00 0.000000e+00 0.000000e+00 0.000000e+00 0.000000e+00 0.000000e+00 0.000000e+00 0.000000e+00 0.000000e+00 0.000000e+00 0.000000e+00 0.000000e+00 0.000000e+00 0.000000e+00 7.400355e-01 2.599646e-01
 0.000000e+00 0.000000e+00 0.000000e+00 0.000000e+00 0.000000e+00 0.000000e+00 0.000000e+00 0.000000e+00 0.000000e+00 0.000000e+00 0.000000e+00 0.000000e+00 0.000000e+00 0.000000e+00 0.000000e+00 0.000000e+00 0.000000e+00 0.000000e+00 0.000000e+00 0.000000e+00
<ENDHMM>
