~o
<STREAMINFO> 1 39
<VECSIZE> 39<NULLD><MFCC_D_A_0><DIAGC>
~h "satu"
<BEGINHMM>
<NUMSTATES> 20
<STATE> 2
<MEAN> 39
 -1.876049e+01 -5.103716e+00 -3.402709e+00 -3.913730e+00 1.426387e-01 -7.325938e+00 2.634914e+00 -7.122354e+00 1.999800e+00 -6.791193e+00 2.416795e+00 -3.615558e+00 5.729383e+01 -1.058374e+00 1.481184e+00 -9.810962e-01 6.907359e-01 6.418117e-01 -7.991949e-01 1.230870e+00 -7.359978e-01 1.224099e+00 -1.591067e-01 7.757325e-01 -3.577657e-02 5.886689e-01 -3.149574e-01 5.207123e-01 -3.693745e-01 2.617261e-01 4.553033e-02 -1.105526e-01 2.904287e-01 -2.198912e-01 2.670490e-01 7.328422e-02 -2.877896e-02 -2.207147e-01 1.745429e-01
<VARIANCE> 39
 3.490098e+00 1.365791e+01 1.472981e+01 1.193109e+01 1.459295e+01 1.797597e+01 1.983197e+01 2.189864e+01 1.876430e+01 1.292115e+01 2.448702e+01 1.704330e+01 1.380087e+00 1.001800e+00 2.226862e+00 1.677494e+00 1.315618e+00 1.547253e+00 1.562631e+00 1.849618e+00 3.218325e+00 2.199723e+00 2.453439e+00 2.256532e+00 2.179365e+00 2.807499e-01 1.187749e-01 1.953223e-01 2.172213e-01 1.604179e-01 2.428809e-01 2.339492e-01 3.631546e-01 4.732888e-01 3.280768e-01 4.108417e-01 2.821692e-01 3.333741e-01 1.845189e-02
<GCONST> 9.036009e+01
<STATE> 3
<MEAN> 39
 -2.711777e+01 7.129444e+00 -1.134830e+01 1.820923e+00 1.817357e+00 -1.139218e+01 1.019293e+01 -1.221182e+01 9.186111e+00 -5.881752e+00 4.946528e+00 -3.354836e+00 6.146517e+01 -1.259276e+00 1.622704e+00 -1.263214e+00 7.588320e-01 4.635493e-01 -3.666684e-01 9.872299e-01 -3.473238e-01 4.360389e-01 5.516683e-01 -7.404747e-03 -2.040279e-02 7.078734e-01 5.708718e-01 -6.290130e-01 4.248167e-01 -4.673078e-01 -3.714534e-02 1.754108e-01 -4.578177e-01 3.916239e-01 -5.571599e-01 -9.706478e-02 -2.961239e-01 -4.813222e-02 -1.359733e-01
<VARIANCE> 39
 1.069421e+01 2.600392e+01 2.890863e+01 2.063869e+01 1.891384e+01 3.099148e+01 3.071949e+01 2.515827e+01 2.177862e+01 2.376808e+01 3.922812e+01 2.834391e+01 3.600253e+00 1.166088e+00 1.874798e+00 1.661733e+00 1.771280e+00 1.090272e+00 1.539750e+00 2.769038e+00 1.904348e+00 2.209547e+00 2.401624e+00 1.812443e+00 1.285143e+00 1.752019e-01 1.389610e-01 1.758577e-01 1.690419e-01 2.695902e-01 3.104652e-01 2.193117e-01 4.924867e-01 2.914224e-01 2.788134e-01 4.700137e-01 4.724446e-01 2.295290e-01 2.674785e-02
<GCONST> 9.677592e+01
<STATE> 4
<MEAN> 39
 -2.471892e+01 6.018479e+00 -1.168650e+01 -1.317455e+00 3.484188e+00 -1.264668e+01 8.840008e+00 -1.164819e+01 6.301383e+00 -5.691932e+00 1.739065e+00 -4.469625e+00 6.291698e+01 3.527247e+00 -7.706366e-01 -2.235783e-01 -1.955567e+00 -7.101515e-01 -1.128961e-01 -2.478179e+00 1.143917e-01 -8.869045e-01 -2.948080e-01 -1.744833e+00 -1.050364e+00 1.177695e+00 1.211077e+00 -3.228502e-01 -2.663602e-01 -3.741738e-01 -2.658786e-01 1.243216e-01 -6.346055e-01 -2.330379e-02 1.187945e-01 1.962882e-02 -4.382680e-01 -2.686090e-01 5.683960e-01
<VARIANCE> 39
 3.375837e+01 2.550684e+01 3.131816e+01 2.691155e+01 2.078980e+01 3.525970e+01 3.522133e+01 2.377368e+01 2.421201e+01 3.694382e+01 3.548972e+01 2.867489e+01 6.660865e+00 4.780273e+00 1.461158e+00 2.277384e+00 1.616348e+00 2.982095e+00 2.981390e+00 5.409728e+00 1.628719e+00 1.717503e+00 2.808259e+00 7.095671e+00 2.218039e+00 1.427605e+00 3.933644e-01 2.687897e-01 4.352529e-01 3.471058e-01 5.569434e-01 7.517825e-01 9.195622e-01 5.142853e-01 4.884611e-01 4.882738e-01 5.938432e-01 4.139328e-01 1.357745e-01
<GCONST> 1.158213e+02
<STATE> 5
<MEAN> 39
 -5.471016e+00 1.149006e+00 -1.584109e+01 -9.139226e+00 1.417182e+00 -1.082528e+01 -1.881313e+00 -9.849720e+00 4.757952e+00 -5.313139e+00 -6.188861e+00 -9.968843e+00 7.296965e+01 3.389411e+00 -2.575834e+00 -6.268835e-01 -9.139845e-01 4.745916e-01 1.129885e+00 -1.256856e+00 4.296203e-01 -1.222884e-01 2.063620e-02 -1.247041e+00 -5.295935e-01 2.074209e+00 -1.104867e+00 -1.202022e-01 3.834648e-01 7.003580e-01 2.974718e-01 1.975466e-01 6.630123e-01 -1.797288e-02 -2.048858e-02 -6.538532e-02 5.675354e-01 3.570072e-01 -5.616189e-01
<VARIANCE> 39
 1.157757e+01 2.752397e+01 3.520654e+01 2.441489e+01 4.247663e+01 6.698716e+01 7.853167e+01 8.445618e+01 4.043374e+01 1.151099e+02 1.456286e+02 3.031059e+01 2.161723e+01 3.539768e+00 2.091922e+00 4.449456e+00 2.497128e+00 3.141070e+00 4.267083e+00 5.115117e+00 7.614062e+00 3.721203e+00 3.720179e+00 4.554069e+00 3.312890e+00 1.765028e+00 1.330103e-01 4.034199e-01 3.681320e-01 2.207034e-01 4.002433e-01 7.776058e-01 7.816180e-01 6.371723e-01 4.361695e-01 6.491205e-01 6.498940e-01 3.926071e-01 1.647561e-01
<GCONST> 1.257094e+02
<STATE> 6
<MEAN> 39
 -3.191571e-01 -8.187943e+00 -1.092432e+01 -7.922324e+00 4.873677e+00 -8.964674e+00 -3.227690e+00 -5.373072e+00 1.840367e+00 -5.459278e+00 -5.383910e+00 -1.075673e+01 7.569682e+01 3.918705e-01 -2.921370e-01 8.186420e-01 1.248212e-01 -2.231791e-01 -6.986506e-02 -6.635220e-01 7.541911e-02 -1.987193e-01 1.920044e-01 -1.221406e-01 -4.077036e-03 -4.511200e-01 -3.124569e-01 4.719690e-01 2.207123e-01 2.913695e-02 -1.145819e-01 -1.726639e-01 -5.716274e-02 -5.235745e-02 -4.467490e-02 6.443767e-02 1.797982e-01 1.423980e-02 -3.703860e-01
<VARIANCE> 39
 3.927188e+00 2.871089e+01 9.002486e+01 2.174157e+01 5.904339e+01 3.647776e+01 8.544747e+01 1.572735e+02 6.936303e+01 7.005666e+01 1.356833e+02 2.934928e+01 2.135447e+01 1.962418e-01 1.055193e+00 1.079695e+00 7.326574e-01 8.502117e-01 8.895103e-01 1.708277e+00 1.062234e+00 1.231754e+00 1.708688e+00 1.590310e+00 7.750439e-01 4.409103e-01 5.324081e-02 1.004699e-01 2.359865e-01 1.734664e-01 1.991517e-01 2.320079e-01 2.942609e-01 3.607448e-01 2.993607e-01 2.197643e-01 3.839527e-01 1.993196e-01 2.172060e-02
<GCONST> 9.677885e+01
<STATE> 7
<MEAN> 39
 -2.010225e+00 -4.971502e+00 -4.946149e+00 -6.584527e+00 2.882732e+00 -6.864794e+00 -6.157870e+00 -5.547142e+00 3.292782e-01 -4.618128e+00 -4.774706e+00 -1.052802e+01 6.836990e+01 -7.745944e-01 4.764987e-01 8.869037e-01 4.625567e-01 -1.082024e-01 5.141398e-01 2.121662e-01 1.397402e-01 -7.358121e-01 -5.650320e-01 3.374462e-01 -2.732096e-02 -1.488760e+00 -1.479630e-01 -1.726067e-01 -1.392826e-01 -8.842764e-02 -5.435142e-03 5.436985e-02 2.170775e-01 1.319580e-01 -1.085858e-02 -2.585488e-02 1.583351e-02 -3.956959e-02 2.966205e-02
<VARIANCE> 39
 4.577404e+00 1.726288e+01 6.715493e+01 1.687442e+01 2.878586e+01 3.230238e+01 5.393504e+01 9.304385e+01 4.020670e+01 6.220790e+01 7.397378e+01 3.890215e+01 9.472050e+00 3.746501e-01 4.737159e-01 1.335177e+00 8.049850e-01 7.738692e-01 1.472423e+00 1.533594e+00 1.788261e+00 2.130234e+00 1.098791e+00 2.710848e+00 1.114495e+00 2.215387e-01 8.084702e-02 4.633437e-02 7.203285e-02 1.510588e-01 7.369535e-02 1.873808e-01 2.040250e-01 2.216695e-01 3.132362e-01 2.921212e-01 2.348433e-01 1.548777e-01 3.718702e-02
<GCONST> 8.992134e+01
<STATE> 8
<MEAN> 39
 -7.372715e+00 -4.386538e+00 -5.245799e+00 -7.359777e+00 6.541833e-01 -6.285775e+00 -3.895006e+00 -9.455229e+00 -1.757904e+00 -8.878350e+00 -5.048024e+00 -9.895799e+00 6.185498e+01 -7.475389e-01 -1.571397e-01 1.056725e+00 -1.911331e-01 1.197025e-01 1.317928e-01 4.325521e-01 4.435933e-01 -3.767559e-01 -2.516975e-01 1.901501e-01 -1.482587e-01 -7.977881e-01 6.220751e-02 5.158500e-02 -3.369480e-02 -2.282532e-03 2.966243e-02 -1.341503e-01 7.030077e-02 -7.435689e-02 2.056719e-01 6.144037e-02 -5.867484e-02 8.272514e-02 1.481545e-01
<VARIANCE> 39
 5.064113e+00 4.975711e+00 1.353674e+01 1.116350e+01 1.284607e+01 1.057518e+01 2.468133e+01 1.770702e+01 2.311964e+01 2.340365e+01 3.672716e+01 2.197361e+01 4.334222e+00 2.328509e-01 3.476870e-01 4.890277e-01 6.041119e-01 9.575633e-01 7.421836e-01 1.525072e+00 9.793536e-01 1.335873e+00 1.701431e+00 2.038043e+00 1.566511e+00 1.001156e-01 2.971530e-02 3.468813e-02 6.686039e-02 1.545376e-01 1.654288e-01 2.170877e-01 3.015852e-01 1.914092e-01 2.009826e-01 2.468302e-01 3.759276e-01 3.018308e-01 1.621899e-02
<GCONST> 7.444401e+01
<STATE> 9
<MEAN> 39
 -9.735976e+00 -4.244407e+00 9.241194e-02 -7.089579e+00 1.773063e+00 -5.935231e+00 -9.266268e-01 -5.076083e+00 -1.219378e+00 -8.183328e+00 -3.984303e+00 -1.077178e+01 5.948689e+01 -7.412237e-01 1.091541e-01 -2.137939e-01 -1.507691e-01 1.932872e-01 -2.040843e+00 2.607803e-01 -5.764295e-01 9.432541e-01 1.081557e+00 9.434382e-01 1.200517e+00 4.970435e-01 4.544711e-01 1.671598e-01 -3.771317e-01 -3.217897e-01 4.527584e-02 -1.082897e+00 -8.735241e-01 -7.703022e-01 -1.101160e-01 5.842493e-01 2.564328e-01 4.994913e-01 7.509989e-01
<VARIANCE> 39
 7.443295e+00 8.409760e+00 1.131313e+01 1.567269e+01 2.479618e+01 1.036901e+01 3.072190e+01 3.128253e+01 2.571742e+01 2.265432e+01 1.689034e+01 4.267923e+01 2.352412e+00 4.234084e-01 6.969460e-01 2.074287e+00 2.249304e+00 6.707614e+00 5.542381e+00 3.498571e+00 5.472223e+00 2.452931e+00 4.359813e+00 2.774220e+00 4.043462e+00 9.875463e-01 2.636012e-01 2.458962e-01 6.865702e-01 3.039223e-01 1.040487e+00 5.040097e-01 8.573594e-01 8.393092e-01 6.466989e-01 7.160146e-01 7.473098e-01 1.202728e+00 7.210085e-02
<GCONST> 1.100909e+02
<STATE> 10
<MEAN> 39
 -8.535134e+00 -2.763584e+00 -1.910725e+00 -1.024153e+01 3.362322e+00 -1.958532e+01 -6.919613e+00 -1.154035e+01 2.898346e-01 -1.472862e+00 -3.481097e-01 -3.884347e+00 6.604028e+01 2.427809e+00 1.104871e+00 -4.205518e-01 -1.773582e+00 1.549353e-01 -2.790589e+00 -3.706453e+00 -2.921645e+00 -1.331490e+00 2.867926e+00 1.323074e+00 1.248650e+00 2.678532e+00 6.624770e-01 1.713853e-01 5.155845e-02 -1.866619e-01 -1.263115e-01 1.455866e+00 -1.884908e-01 -3.551046e-02 -9.615569e-01 -2.034216e-01 3.051255e-02 -2.604778e-01 -7.200895e-02
<VARIANCE> 39
 2.696232e+01 1.822679e+01 3.704322e+01 2.610839e+01 5.726577e+01 6.906337e+01 1.041048e+02 1.132270e+02 6.617040e+01 5.824568e+01 7.125654e+01 3.593933e+01 2.215777e+01 1.937232e+00 3.406236e+00 7.133356e+00 2.307487e+00 6.130546e+00 8.384768e+00 6.467154e+00 9.570282e+00 6.396574e+00 6.113098e+00 5.712929e+00 7.425194e+00 6.128090e-01 5.217451e-01 3.647160e-01 8.146166e-01 6.199333e-01 1.030068e+00 1.141056e+00 1.328293e+00 1.393662e+00 6.662619e-01 1.335567e+00 6.058971e-01 5.970993e-01 3.671697e-01
<GCONST> 1.375863e+02
<STATE> 11
<MEAN> 39
 -8.820402e-02 7.306313e-01 -1.773209e+00 -1.519496e+01 2.421682e+00 -1.621999e+01 -1.648278e+01 -1.939110e+01 -7.631444e+00 4.631385e+00 2.784073e+00 -3.165604e+00 7.150076e+01 1.551034e+00 8.010739e-01 -6.510665e-01 -9.580056e-01 -2.399675e-01 2.574982e+00 -6.841831e-01 -1.024837e+00 -2.620096e+00 2.482655e-01 1.166801e+00 9.806591e-01 4.830435e-01 -5.614920e-01 -1.396433e-01 -1.613738e-01 1.624893e-01 -7.269160e-02 4.958809e-01 9.453502e-01 8.342885e-01 2.763977e-01 -8.447934e-01 -3.137736e-01 -6.973246e-02 -5.755289e-01
<VARIANCE> 39
 4.938157e+00 3.239471e+01 8.742050e+01 1.673636e+01 7.899212e+01 6.326341e+01 1.444189e+02 2.470527e+02 7.313171e+01 4.647741e+01 1.098314e+02 4.824371e+01 1.095707e+01 2.184334e+00 1.507213e+00 1.557751e+00 1.504454e+00 1.397760e+00 1.608505e+00 2.694710e+00 4.356976e+00 1.641749e+00 4.693284e+00 1.721244e+00 1.673726e+00 4.470000e-01 2.174129e-01 2.582471e-01 5.377434e-01 3.019805e-01 4.559935e-01 9.356329e-01 5.259883e-01 1.356957e+00 4.732200e-01 6.785379e-01 8.133262e-01 3.789108e-01 1.046118e-01
<GCONST> 1.192940e+02
<STATE> 12
<MEAN> 39
 1.523400e+00 2.238179e+00 -4.389027e+00 -1.922447e+01 3.944007e+00 -9.364779e+00 -1.789145e+01 -1.710616e+01 -1.485528e+01 3.441799e+00 6.443165e+00 -3.628272e+00 7.112305e+01 9.509844e-02 5.149620e-01 -3.702047e-01 -2.333786e-01 -8.918546e-01 5.315545e-01 9.932312e-01 9.439967e-02 -1.619798e-01 -1.017194e+00 5.016055e-01 4.057554e-01 -6.113012e-01 -1.818604e-01 -2.561706e-02 2.012020e-01 1.923614e-01 -8.983725e-02 -2.619883e-01 8.665675e-02 8.589482e-02 2.470052e-01 -6.796972e-02 -1.836629e-01 -1.308482e-01 -8.222715e-02
<VARIANCE> 39
 3.090537e+00 2.795726e+01 6.182102e+01 1.348823e+01 4.650042e+01 4.254159e+01 9.058355e+01 1.022661e+02 3.763543e+01 3.659067e+01 5.697079e+01 5.500006e+01 8.558101e+00 3.381850e-01 4.025559e-01 7.022393e-01 9.695657e-01 8.984700e-01 1.670293e+00 1.280670e+00 2.802960e+00 1.610789e+00 2.207643e+00 2.133717e+00 2.311683e+00 1.436839e-01 7.217479e-02 8.298316e-02 9.297131e-02 1.100196e-01 8.174914e-02 1.947827e-01 2.212104e-01 3.045441e-01 1.782726e-01 4.634295e-01 2.889684e-01 4.938212e-01 2.211376e-02
<GCONST> 9.245043e+01
<STATE> 13
<MEAN> 39
 2.234028e+00 6.493015e+00 -6.190104e+00 -1.787433e+01 -8.396509e+00 -9.138618e+00 -4.458007e+00 -1.612600e+01 -1.304105e+01 -8.909019e+00 4.485996e+00 1.660937e+00 6.680844e+01 -3.481263e-01 9.481021e-02 2.582035e-01 1.300057e-01 -7.028028e-01 4.075389e-01 4.801429e-01 6.504225e-01 -6.189774e-02 -8.069925e-01 -7.158794e-01 -1.550598e-01 -3.641326e-01 -1.835056e-01 -1.472092e-01 9.068067e-02 2.228551e-01 1.705001e-01 -1.254542e-01 -8.484112e-02 -3.917134e-02 1.710472e-01 1.691976e-01 8.664586e-02 1.050378e-02 -5.627052e-02
<VARIANCE> 39
 2.012038e+00 5.109280e+00 1.286612e+01 1.105311e+01 2.372690e+01 2.516084e+01 2.225524e+01 3.976730e+01 1.783452e+01 4.037978e+01 2.115131e+01 3.129114e+01 7.849706e-01 2.571816e-01 3.809113e-01 6.171702e-01 9.063161e-01 1.009057e+00 1.057244e+00 9.364395e-01 1.621428e+00 1.804877e+00 1.458502e+00 1.612077e+00 1.729684e+00 9.370008e-02 4.144565e-02 3.670615e-02 1.090826e-01 1.715911e-01 1.667141e-01 2.169967e-01 1.853810e-01 2.555344e-01 3.363300e-01 3.566422e-01 2.383714e-01 3.902128e-01 1.084269e-02
<GCONST> 7.632304e+01
<STATE> 14
<MEAN> 39
 -2.251929e+00 5.108995e+00 -2.305251e+00 -1.326748e+01 -6.687986e+00 -7.839979e+00 -6.131418e+00 -1.425987e+01 -1.131080e+01 -7.559443e+00 4.679739e+00 2.229100e+00 6.414621e+01 -8.265379e-01 -1.085049e-01 1.247043e+00 1.583567e+00 4.910039e-01 -2.463484e-01 1.577856e-01 7.534194e-04 3.309853e-01 -6.191923e-01 -1.236655e-01 -3.376852e-01 -6.373201e-01 3.420579e-02 1.999758e-02 1.268058e-01 6.199472e-02 1.299893e-01 1.749138e-02 -3.200100e-02 -8.614573e-02 -5.368816e-02 4.738446e-02 2.885205e-02 -2.185545e-01 4.266255e-02
<VARIANCE> 39
 5.215107e+00 9.005074e+00 2.359510e+01 2.479051e+01 2.897240e+01 1.839578e+01 3.255381e+01 3.185090e+01 1.633453e+01 2.738519e+01 1.604896e+01 4.351320e+01 1.798289e+00 3.363004e-01 4.382065e-01 3.417569e-01 5.740841e-01 1.702563e+00 1.686437e+00 2.150494e+00 2.273780e+00 9.863495e-01 1.644201e+00 1.315032e+00 9.863013e-01 1.042195e-01 3.175013e-02 4.283151e-02 6.199055e-02 1.384946e-01 2.057119e-01 3.291139e-01 2.880574e-01 3.550717e-01 2.070690e-01 1.965366e-01 2.288404e-01 2.094911e-01 1.269306e-02
<GCONST> 7.900326e+01
<STATE> 15
<MEAN> 39
 -4.603401e+00 5.901048e+00 4.766119e+00 -4.792146e+00 -2.045130e+00 -8.153886e+00 -4.937232e+00 -1.503623e+01 -9.047297e+00 -8.431647e+00 3.031887e+00 -8.641951e-01 6.216158e+01 -8.868071e-01 -4.367084e-01 3.554282e-01 8.298746e-01 -1.334869e-01 -3.133952e-01 2.530285e-01 4.046046e-02 6.073417e-01 -7.243058e-02 -2.286717e-02 -3.494038e-01 -4.830685e-01 -5.748155e-02 -1.788807e-01 -3.183067e-01 -2.678195e-01 -1.993210e-01 -6.316717e-02 -4.355361e-02 2.600079e-03 -6.035021e-02 -5.049221e-02 -2.915189e-02 1.408035e-01 1.365260e-02
<VARIANCE> 39
 3.607618e+00 7.339868e+00 1.785681e+01 2.605319e+01 2.124475e+01 8.514242e+00 3.176238e+01 2.739787e+01 2.472965e+01 1.442011e+01 2.619496e+01 5.470564e+01 8.730157e-01 2.392992e-01 4.383453e-01 8.573492e-01 8.791406e-01 9.786947e-01 7.483752e-01 1.351430e+00 1.322509e+00 1.964685e+00 1.508563e+00 1.246047e+00 2.294323e+00 4.608459e-02 2.605577e-02 5.847376e-02 7.333381e-02 8.115342e-02 1.296611e-01 2.052783e-01 2.341374e-01 2.988459e-01 3.696217e-01 2.353592e-01 3.187439e-01 2.375564e-01 7.047949e-03
<GCONST> 7.498811e+01
<STATE> 16
<MEAN> 39
 -8.810279e+00 9.958291e-01 -3.673888e-01 -8.366097e+00 -6.194686e+00 -9.623707e+00 -5.211284e+00 -1.493266e+01 -8.171724e+00 -1.062546e+01 3.196439e+00 -2.447536e+00 6.041061e+01 -8.149636e-01 -4.805830e-01 2.482979e-01 6.776503e-01 3.892103e-01 3.148645e-01 1.232862e-01 6.193679e-03 3.513939e-01 -1.490823e-01 -2.675137e-01 -1.686527e-02 -4.746549e-01 1.055468e-01 1.337854e-01 7.365493e-02 6.020467e-02 1.141179e-01 1.252695e-01 3.663306e-02 4.740128e-02 1.747128e-02 7.397775e-02 -1.006887e-01 4.266446e-02 4.862028e-02
<VARIANCE> 39
 2.320334e+00 5.384821e+00 1.379789e+01 2.132274e+01 1.324763e+01 1.391008e+01 1.536914e+01 1.640039e+01 1.480959e+01 1.200323e+01 1.217840e+01 2.747826e+01 9.787225e-01 6.116769e-02 2.761484e-01 6.313440e-01 7.570226e-01 7.460217e-01 8.264624e-01 7.904410e-01 7.565202e-01 1.887812e+00 1.532736e+00 9.204308e-01 1.365653e+00 2.263460e-02 1.869622e-02 1.966171e-02 8.985636e-02 1.299998e-01 1.526047e-01 1.603719e-01 1.598462e-01 1.710315e-01 2.634697e-01 2.827419e-01 1.548628e-01 3.291812e-01 5.628756e-03
<GCONST> 6.286963e+01
<STATE> 17
<MEAN> 39
 -1.144005e+01 1.766867e+00 4.737424e+00 -2.629112e+00 -3.791573e+00 -9.137560e+00 -4.566374e+00 -1.686347e+01 -1.028440e+01 -1.261869e+01 1.353680e+00 -3.310269e-01 5.845918e+01 -6.486762e-01 -3.798397e-01 -1.110506e-02 1.913688e-01 2.920141e-02 3.773439e-03 1.602080e-01 7.191493e-01 1.811772e-01 -4.118702e-01 -5.581731e-01 -4.791176e-01 -2.756718e-01 1.361158e-02 -5.972060e-02 -1.014690e-01 -1.396217e-01 2.118889e-02 5.888972e-02 1.177655e-01 1.863104e-01 1.710979e-01 9.573527e-02 2.323363e-02 -8.378685e-02 3.150824e-02
<VARIANCE> 39
 3.651114e+00 6.471694e+00 9.086939e+00 1.179670e+01 4.124550e+01 1.307509e+01 2.363215e+01 2.893573e+01 3.272116e+01 2.069746e+01 1.748935e+01 4.261976e+01 1.213639e+00 9.978456e-02 2.935225e-01 5.506468e-01 1.096703e+00 9.494240e-01 8.723080e-01 1.507401e+00 2.208970e+00 6.232158e-01 1.631619e+00 2.025146e+00 2.036474e+00 3.804809e-02 1.597918e-02 5.193462e-02 7.614157e-02 1.552194e-01 1.449901e-01 1.598015e-01 3.041166e-01 2.119264e-01 1.725456e-01 3.191738e-01 2.671372e-01 3.132473e-01 6.382467e-03
<GCONST> 7.232886e+01
<STATE> 18
<MEAN> 39
 -1.410929e+01 -1.711020e+00 2.032072e+00 -2.746591e+00 -1.026560e+00 -7.503344e+00 -2.298920e+00 -8.269591e+00 -9.744701e-01 -8.557565e+00 -2.414255e-02 -5.185684e+00 5.783481e+01 -3.927340e-01 -3.663052e-01 -6.585743e-02 5.466936e-02 3.918171e-01 3.623260e-01 5.550496e-01 5.289531e-01 5.452053e-01 2.611334e-01 -8.513057e-03 4.558094e-02 -1.529379e-01 4.299856e-03 -1.795219e-02 -3.513595e-02 6.683669e-03 -1.194754e-02 5.038806e-02 2.138831e-02 -8.606932e-02 -1.845740e-01 -9.752362e-02 3.067094e-02 5.317821e-02 -3.794469e-03
<VARIANCE> 39
 2.347868e+00 5.511717e+00 7.435254e+00 9.694069e+00 1.363513e+01 1.476988e+01 2.442701e+01 2.684899e+01 3.457975e+01 2.012833e+01 1.572308e+01 1.613277e+01 4.419417e-01 1.902841e-01 3.506824e-01 5.450642e-01 6.487964e-01 8.745154e-01 1.354157e+00 1.840095e+00 9.799308e-01 1.993723e+00 1.157809e+00 1.572019e+00 1.342610e+00 3.072750e-02 3.049160e-02 4.947153e-02 9.330186e-02 1.246520e-01 1.403504e-01 2.564426e-01 3.376303e-01 2.055604e-01 3.816785e-01 2.337369e-01 3.431824e-01 2.728732e-01 4.591286e-03
<GCONST> 6.957259e+01
<STATE> 19
<MEAN> 39
 -1.671686e+01 -3.890336e+00 1.665082e+00 -2.705583e+00 -6.221377e-01 -4.990086e+00 1.032872e+00 -7.843240e+00 -4.820133e+00 -1.236011e+01 -1.369796e+00 -3.055978e+00 5.658029e+01 -4.129621e-01 -4.228520e-01 -2.812854e-01 1.749510e-01 4.196661e-01 5.507262e-01 5.706784e-01 5.108464e-01 -1.386881e-01 -8.535571e-02 -1.361775e-01 8.804926e-02 -1.619178e-01 7.461699e-02 6.395767e-02 -1.845662e-02 5.448296e-02 -1.366640e-02 -1.901314e-01 -3.555398e-01 -1.465581e-01 1.667713e-01 1.850096e-01 7.318337e-02 -5.908244e-02 3.555314e-02
<VARIANCE> 39
 3.356890e+00 5.185322e+00 8.740296e+00 1.882502e+01 2.230429e+01 1.415742e+01 3.193435e+01 2.827390e+01 2.968661e+01 4.054168e+01 2.962683e+01 3.874861e+01 1.102842e+00 1.064751e-01 2.258244e-01 5.031448e-01 7.544256e-01 1.167246e+00 7.809263e-01 1.676958e+00 1.362836e+00 2.098170e+00 2.304360e+00 1.524493e+00 2.083782e+00 4.994509e-02 1.545430e-02 3.762615e-02 1.043893e-01 1.765997e-01 2.135983e-01 1.440258e-01 2.904392e-01 2.416153e-01 4.459311e-01 5.031536e-01 5.630720e-01 6.220589e-01 8.550460e-03
<GCONST> 7.731990e+01
<TRANSP> 20
 0.000000e+00 1.000000e+00 0.000000e+00 0.000000e+00 0.000000e+00 0.000000e+00 0.000000e+00 0.000000e+00 0.000000e+00 0.000000e+00 0.000000e+00 0.000000e+00 0.000000e+00 0.000000e+00 0.000000e+00 0.000000e+00 0.000000e+00 0.000000e+00 0.000000e+00 0.000000e+00
 0.000000e+00 7.640149e-01 2.359851e-01 0.000000e+00 0.000000e+00 0.000000e+00 0.000000e+00 0.000000e+00 0.000000e+00 0.000000e+00 0.000000e+00 0.000000e+00 0.000000e+00 0.000000e+00 0.000000e+00 0.000000e+00 0.000000e+00 0.000000e+00 0.000000e+00 0.000000e+00
 0.000000e+00 0.000000e+00 7.793797e-01 2.206204e-01 0.000000e+00 0.000000e+00 0.000000e+00 0.000000e+00 0.000000e+00 0.000000e+00 0.000000e+00 0.000000e+00 0.000000e+00 0.000000e+00 0.000000e+00 0.000000e+00 0.000000e+00 0.000000e+00 0.000000e+00 0.000000e+00
 0.000000e+00 0.000000e+00 0.000000e+00 7.433496e-01 2.566504e-01 0.000000e+00 0.000000e+00 0.000000e+00 0.000000e+00 0.000000e+00 0.000000e+00 0.000000e+00 0.000000e+00 0.000000e+00 0.000000e+00 0.000000e+00 0.000000e+00 0.000000e+00 0.000000e+00 0.000000e+00
 0.000000e+00 0.000000e+00 0.000000e+00 0.000000e+00 7.205266e-01 2.794733e-01 0.000000e+00 0.000000e+00 0.000000e+00 0.000000e+00 0.000000e+00 0.000000e+00 0.000000e+00 0.000000e+00 0.000000e+00 0.000000e+00 0.000000e+00 0.000000e+00 0.000000e+00 0.000000e+00
 0.000000e+00 0.000000e+00 0.000000e+00 0.000000e+00 0.000000e+00 8.141764e-01 1.858236e-01 0.000000e+00 0.000000e+00 0.000000e+00 0.000000e+00 0.000000e+00 0.000000e+00 0.000000e+00 0.000000e+00 0.000000e+00 0.000000e+00 0.000000e+00 0.000000e+00 0.000000e+00
 0.000000e+00 0.000000e+00 0.000000e+00 0.000000e+00 0.000000e+00 0.000000e+00 7.930652e-01 2.069348e-01 0.000000e+00 0.000000e+00 0.000000e+00 0.000000e+00 0.000000e+00 0.000000e+00 0.000000e+00 0.000000e+00 0.000000e+00 0.000000e+00 0.000000e+00 0.000000e+00
 0.000000e+00 0.000000e+00 0.000000e+00 0.000000e+00 0.000000e+00 0.000000e+00 0.000000e+00 8.393741e-01 1.606259e-01 0.000000e+00 0.000000e+00 0.000000e+00 0.000000e+00 0.000000e+00 0.000000e+00 0.000000e+00 0.000000e+00 0.000000e+00 0.000000e+00 0.000000e+00
 0.000000e+00 0.000000e+00 0.000000e+00 0.000000e+00 0.000000e+00 0.000000e+00 0.000000e+00 0.000000e+00 6.649139e-01 3.350861e-01 0.000000e+00 0.000000e+00 0.000000e+00 0.000000e+00 0.000000e+00 0.000000e+00 0.000000e+00 0.000000e+00 0.000000e+00 0.000000e+00
 0.000000e+00 0.000000e+00 0.000000e+00 0.000000e+00 0.000000e+00 0.000000e+00 0.000000e+00 0.000000e+00 0.000000e+00 6.663991e-01 3.336009e-01 0.000000e+00 0.000000e+00 0.000000e+00 0.000000e+00 0.000000e+00 0.000000e+00 0.000000e+00 0.000000e+00 0.000000e+00
 0.000000e+00 0.000000e+00 0.000000e+00 0.000000e+00 0.000000e+00 0.000000e+00 0.000000e+00 0.000000e+00 0.000000e+00 0.000000e+00 6.623940e-01 3.376060e-01 0.000000e+00 0.000000e+00 0.000000e+00 0.000000e+00 0.000000e+00 0.000000e+00 0.000000e+00 0.000000e+00
 0.000000e+00 0.000000e+00 0.000000e+00 0.000000e+00 0.000000e+00 0.000000e+00 0.000000e+00 0.000000e+00 0.000000e+00 0.000000e+00 0.000000e+00 8.228256e-01 1.771744e-01 0.000000e+00 0.000000e+00 0.000000e+00 0.000000e+00 0.000000e+00 0.000000e+00 0.000000e+00
 0.000000e+00 0.000000e+00 0.000000e+00 0.000000e+00 0.000000e+00 0.000000e+00 0.000000e+00 0.000000e+00 0.000000e+00 0.000000e+00 0.000000e+00 0.000000e+00 8.058064e-01 1.941936e-01 0.000000e+00 0.000000e+00 0.000000e+00 0.000000e+00 0.000000e+00 0.000000e+00
 0.000000e+00 0.000000e+00 0.000000e+00 0.000000e+00 0.000000e+00 0.000000e+00 0.000000e+00 0.000000e+00 0.000000e+00 0.000000e+00 0.000000e+00 0.000000e+00 0.000000e+00 7.538635e-01 2.461366e-01 0.000000e+00 0.000000e+00 0.000000e+00 0.000000e+00 0.000000e+00
 0.000000e+00 0.000000e+00 0.000000e+00 0.000000e+00 0.000000e+00 0.000000e+00 0.000000e+00 0.000000e+00 0.000000e+00 0.000000e+00 0.000000e+00 0.000000e+00 0.000000e+00 0.000000e+00 7.283090e-01 2.716910e-01 0.000000e+00 0.000000e+00 0.000000e+00 0.000000e+00
 0.000000e+00 0.000000e+00 0.000000e+00 0.000000e+00 0.000000e+00 0.000000e+00 0.000000e+00 0.000000e+00 0.000000e+00 0.000000e+00 0.000000e+00 0.000000e+00 0.000000e+00 0.000000e+00 0.000000e+00 7.452236e-01 2.547764e-01 0.000000e+00 0.000000e+00 0.000000e+00
 0.000000e+00 0.000000e+00 0.000000e+00 0.000000e+00 0.000000e+00 0.000000e+00 0.000000e+00 0.000000e+00 0.000000e+00 0.000000e+00 0.000000e+00 0.000000e+00 0.000000e+00 0.000000e+00 0.000000e+00 0.000000e+00 7.919255e-01 2.080745e-01 0.000000e+00 0.000000e+00
 0.000000e+00 0.000000e+00 0.000000e+00 0.000000e+00 0.000000e+00 0.000000e+00 0.000000e+00 0.000000e+00 0.000000e+00 0.000000e+00 0.000000e+00 0.000000e+00 0.000000e+00 0.000000e+00 0.000000e+00 0.000000e+00 0.000000e+00 8.196386e-01 1.803615e-01 0.000000e+00
 0.000000e+00 0.000000e+00 0.000000e+00 0.000000e+00 0.000000e+00 0.000000e+00 0.000000e+00 0.000000e+00 0.000000e+00 0.000000e+00 0.000000e+00 0.000000e+00 0.000000e+00 0.000000e+00 0.000000e+00 0.000000e+00 0.000000e+00 0.000000e+00 6.899981e-01 3.100018e-01
 0.000000e+00 0.000000e+00 0.000000e+00 0.000000e+00 0.000000e+00 0.000000e+00 0.000000e+00 0.000000e+00 0.000000e+00 0.000000e+00 0.000000e+00 0.000000e+00 0.000000e+00 0.000000e+00 0.000000e+00 0.000000e+00 0.000000e+00 0.000000e+00 0.000000e+00 0.000000e+00
<ENDHMM>
