~o
<STREAMINFO> 1 39
<VECSIZE> 39<NULLD><MFCC_D_A_0><DIAGC>
~h "sepuluh"
<BEGINHMM>
<NUMSTATES> 20
<STATE> 2
<MEAN> 39
 -1.825130e+01 -6.576230e+00 -3.260903e+00 -3.607925e+00 1.443999e+00 -2.844219e+00 3.990009e+00 -4.662566e+00 1.348065e+00 -6.383503e+00 8.655118e-01 -6.925225e+00 5.680688e+01 -7.311949e-01 1.271814e+00 -9.792761e-01 2.335284e-01 -1.321422e-01 -1.118628e+00 7.894381e-01 -9.614140e-01 9.308198e-01 -6.035473e-01 7.742444e-01 6.038014e-03 5.063005e-01 -4.151212e-01 6.134297e-01 -3.773217e-01 2.880641e-01 1.442354e-01 -2.761510e-01 3.933987e-01 -3.463908e-01 3.011583e-01 -2.623720e-01 9.723524e-03 8.200544e-02 2.253375e-01
<VARIANCE> 39
 2.909476e+00 4.842505e+00 4.908524e+00 8.109863e+00 1.413317e+01 2.516306e+01 2.559026e+01 1.752020e+01 1.737130e+01 1.632359e+01 1.533668e+01 1.230813e+01 8.052501e-01 9.965027e-01 2.039327e+00 1.181047e+00 1.540302e+00 1.536300e+00 2.191266e+00 2.304830e+00 2.129120e+00 2.350007e+00 2.801706e+00 2.225168e+00 1.697872e+00 2.756400e-01 1.482182e-01 1.927056e-01 1.599982e-01 2.502675e-01 2.483245e-01 4.102353e-01 3.618830e-01 2.441850e-01 4.421674e-01 6.168998e-01 3.927349e-01 3.020996e-01 2.415683e-02
<GCONST> 8.805701e+01
<STATE> 3
<MEAN> 39
 -2.722278e+01 6.250522e+00 -1.156309e+01 4.115613e-01 3.909451e+00 -1.059108e+01 1.211892e+01 -1.185987e+01 8.103427e+00 -9.620190e+00 2.811389e+00 -3.800766e+00 6.186963e+01 -1.410408e+00 2.235901e+00 -8.133478e-01 4.097725e-01 9.833283e-01 -1.602063e+00 1.104765e+00 -1.661995e-01 -1.452055e-01 6.265175e-01 -7.511938e-01 8.577721e-01 1.008485e+00 6.719129e-01 -6.030363e-01 5.952861e-01 -4.051500e-01 -4.243522e-02 3.335823e-02 -7.233468e-01 4.259238e-01 -5.887275e-01 3.423935e-01 -3.075812e-01 -1.463016e-01 -1.522517e-01
<VARIANCE> 39
 8.792489e+00 2.392572e+01 9.074025e+00 1.682611e+01 1.208704e+01 1.810481e+01 2.121669e+01 1.377928e+01 2.615802e+01 4.303574e+01 2.980539e+01 2.978439e+01 4.602015e+00 1.614313e+00 2.521145e+00 2.438941e+00 2.357535e+00 1.365590e+00 1.372655e+00 2.671316e+00 3.104316e+00 3.592021e+00 4.316728e+00 2.345291e+00 2.472842e+00 3.507965e-01 4.112600e-01 3.258234e-01 2.087396e-01 3.256187e-01 3.741747e-01 3.168652e-01 7.042148e-01 6.452368e-01 3.971996e-01 6.876298e-01 6.105144e-01 6.778058e-01 5.416760e-02
<GCONST> 1.050944e+02
<STATE> 4
<MEAN> 39
 -1.919688e+01 8.324800e+00 -9.315353e+00 -3.947696e+00 4.118422e+00 -1.765777e+01 3.401680e+00 -9.794776e+00 3.173606e+00 -2.139701e+00 -6.361241e-01 -4.839406e+00 6.692216e+01 4.187177e+00 -8.101424e-01 6.149836e-01 -1.578150e+00 -7.146816e-01 -2.710705e-01 -3.612449e+00 -8.294689e-01 -4.743158e-01 9.674413e-01 5.039817e-01 -1.510572e+00 1.470983e+00 2.557845e-01 -2.490475e-01 -6.243942e-02 3.014899e-03 6.268472e-02 6.820621e-01 -1.430087e-02 -2.244672e-01 2.028435e-02 -1.359245e-01 3.597021e-01 -1.135541e-01 1.543425e-02
<VARIANCE> 39
 9.754983e+01 1.438750e+01 1.962842e+01 4.827150e+01 6.541773e+01 3.577958e+01 1.051070e+02 7.002737e+01 3.082226e+01 1.027946e+02 3.568632e+01 2.882400e+01 2.069525e+01 4.050407e+00 9.196839e-01 2.229880e+00 1.768367e+00 6.518884e+00 4.883916e+00 7.375144e+00 9.767378e+00 3.228008e+00 3.539598e+00 3.727532e+00 1.873906e+00 1.987713e+00 1.940504e+00 2.130791e-01 3.390720e-01 3.605568e-01 1.153202e+00 5.662455e-01 2.265635e+00 1.020351e+00 6.069345e-01 6.575539e-01 4.562323e-01 6.015611e-01 4.614993e-01
<GCONST> 1.304004e+02
<STATE> 5
<MEAN> 39
 -4.021169e+00 3.740794e+00 -7.797812e+00 -9.620125e+00 8.161194e+00 -1.154736e+01 -5.831489e+00 -1.135022e+01 6.469570e-01 5.419709e-01 5.026302e+00 -8.584566e+00 7.237553e+01 4.423547e-01 -1.432110e-01 7.277433e-01 4.374126e-01 6.281192e-01 1.935080e+00 4.028124e-01 -3.796492e-01 -1.052789e+00 -9.341570e-01 2.050376e-02 7.037658e-02 -1.084826e+00 -8.741172e-01 1.235070e-01 2.167723e-01 4.208082e-01 -2.532799e-01 -2.309848e-01 4.447902e-01 4.770441e-01 2.249175e-01 -4.235942e-01 -4.207602e-01 1.080187e-01 -6.509882e-01
<VARIANCE> 39
 4.884888e+01 1.853934e+01 3.645720e+01 5.375235e+01 1.874512e+02 7.097838e+01 7.607484e+01 2.164220e+02 1.667665e+01 1.224991e+02 4.791774e+01 1.903429e+01 2.710345e+01 1.068429e+00 6.276237e-01 8.150848e-01 1.283919e+00 1.898033e+00 1.530825e+00 1.699299e+00 2.767953e+00 1.007609e+00 2.779907e+00 2.134359e+00 1.456863e+00 7.773982e-01 2.593667e-01 2.060677e-01 3.218074e-01 3.904398e-01 6.863151e-01 5.385613e-01 7.601480e-01 1.233766e+00 2.175458e-01 5.759184e-01 4.189120e-01 2.751503e-01 2.468072e-01
<GCONST> 1.154825e+02
<STATE> 6
<MEAN> 39
 -9.949450e+00 1.241091e+00 -3.780965e+00 -5.652223e+00 2.902121e+00 -7.458408e+00 -2.455080e+00 -1.103763e+01 -4.998192e-01 -5.569575e+00 1.902877e+00 -8.332440e+00 6.282551e+01 -4.204607e-01 -9.037582e-01 7.729314e-01 1.739163e-01 -6.015428e-01 4.343213e-01 -3.895387e-02 5.367134e-01 -2.361511e-01 -3.724738e-01 -3.294629e-01 5.375813e-02 -8.992818e-01 4.313518e-02 -4.266980e-02 -8.669504e-02 5.987649e-03 2.081729e-02 -6.257025e-02 -4.495872e-03 -2.615669e-02 2.908271e-02 6.282929e-02 -1.035511e-02 8.998165e-02 1.598686e-01
<VARIANCE> 39
 4.122478e+01 1.474465e+01 1.280360e+01 1.802585e+01 4.772386e+01 2.641380e+01 3.082252e+01 6.169840e+01 2.709462e+01 4.448808e+01 2.136223e+01 1.326006e+01 1.377534e+01 4.375519e-01 3.417006e-01 6.926748e-01 1.035629e+00 1.579880e+00 1.116896e+00 1.564366e+00 1.818955e+00 9.235590e-01 2.232770e+00 1.642089e+00 1.096409e+00 2.481378e-01 3.336598e-02 8.266842e-02 9.682738e-02 1.828467e-01 2.232373e-01 2.162634e-01 2.812822e-01 1.879370e-01 2.216830e-01 3.106871e-01 3.355412e-01 2.126307e-01 1.303057e-02
<GCONST> 8.732732e+01
<STATE> 7
<MEAN> 39
 -9.942211e+00 -2.580752e+00 -4.617305e-01 -4.318124e+00 1.469524e-01 -6.715763e+00 -4.691620e+00 -1.041048e+01 -3.179066e+00 -8.860755e+00 -7.746829e-01 -6.985345e+00 6.104134e+01 2.150075e+00 8.291993e-01 -2.178132e-01 -1.410481e+00 -1.476849e+00 -4.440090e-01 -1.341488e+00 -1.399221e-01 -1.120285e+00 -9.705949e-01 6.802732e-02 1.149592e+00 8.755745e-01 8.065467e-01 7.633173e-01 -2.438671e-01 -9.264919e-01 -6.141856e-01 -1.775242e-01 -1.510830e-01 -8.872006e-02 -3.809742e-01 -1.371067e-01 2.162744e-01 2.940991e-01 3.916187e-01
<VARIANCE> 39
 2.296801e+01 1.599700e+01 1.800441e+01 1.865182e+01 2.300167e+01 3.672720e+01 2.599142e+01 3.511002e+01 1.559888e+01 3.329160e+01 2.473993e+01 1.523217e+01 4.824252e+00 3.437648e+00 4.797155e+00 2.386549e+00 5.584321e+00 3.949322e+00 3.952457e+00 2.637611e+00 2.352735e+00 4.878173e+00 4.085308e+00 2.411741e+00 2.346647e+00 7.869834e-01 2.126691e-01 3.492138e-01 1.948110e-01 6.272568e-01 4.214070e-01 5.770638e-01 5.921153e-01 3.855960e-01 7.380661e-01 6.188166e-01 3.835249e-01 3.736574e-01 8.206873e-02
<GCONST> 1.123457e+02
<STATE> 8
<MEAN> 39
 2.952178e+00 6.408806e+00 -2.011554e+00 -1.644286e+01 -1.140617e+01 -1.006713e+01 -8.233827e+00 -9.485696e+00 -8.428117e+00 -1.395805e+01 -5.300281e-01 -1.884409e+00 6.615096e+01 2.309715e+00 1.502252e+00 -5.999517e-01 -2.701040e+00 -1.617825e+00 8.580718e-01 4.176619e-01 1.597769e-01 -1.508469e+00 -8.046875e-01 6.767845e-01 1.315485e+00 1.090355e+00 -8.680019e-01 -7.888024e-01 1.954472e-02 7.801874e-01 1.010570e+00 7.779392e-01 4.301817e-01 -3.455448e-01 9.076220e-02 6.662372e-01 4.995408e-01 -1.072501e-01 -2.937006e-01
<VARIANCE> 39
 5.546437e+00 1.063363e+01 4.200741e+01 1.576672e+01 2.997161e+01 3.321531e+01 2.150397e+01 5.825651e+01 5.606597e+01 2.112261e+01 3.381168e+01 3.419442e+01 2.210415e+00 1.763206e+00 1.965015e+00 8.084748e-01 4.428052e+00 3.422603e+00 3.361439e+00 2.242792e+00 1.966042e+00 5.264066e+00 2.372816e+00 3.595076e+00 2.773895e+00 3.983113e-01 9.538431e-02 2.405947e-01 3.461257e-01 4.413992e-01 2.081145e-01 6.227745e-01 4.876998e-01 9.539577e-01 4.827147e-01 6.001112e-01 5.537698e-01 5.661842e-01 3.745602e-02
<GCONST> 1.074131e+02
<STATE> 9
<MEAN> 39
 4.974590e+00 6.391118e+00 -3.615698e+00 -1.784659e+01 -1.015901e+01 -3.953441e+00 -6.767997e+00 -1.367856e+01 -1.209403e+01 -1.106033e+01 4.791249e+00 1.288046e+00 6.748046e+01 1.294278e-01 -7.603031e-01 -4.372919e-01 3.771180e-01 9.756106e-01 1.809723e+00 -3.798920e-01 -2.380998e+00 -1.444803e+00 2.129080e+00 2.236675e+00 4.626140e-01 3.453168e-01 -2.765833e-01 -3.238927e-01 1.073618e-01 6.725542e-01 2.889443e-01 -3.123275e-01 -3.131999e-01 -4.165063e-01 1.228592e-01 6.012906e-01 -1.245157e-01 -7.149831e-01 -8.239403e-02
<VARIANCE> 39
 2.407606e+00 1.129245e+01 2.686540e+01 9.628922e+00 4.805236e+01 5.341025e+01 1.487269e+01 4.862163e+01 6.064036e+01 3.314551e+01 5.754992e+01 3.891502e+01 1.898995e+00 1.868714e-01 1.205624e+00 1.038965e+00 1.585764e+00 9.617416e-01 2.715540e+00 2.421748e+00 4.998846e+00 3.022058e+00 4.575234e+00 2.491803e+00 3.405400e+00 1.479208e-01 1.065270e-01 1.164689e-01 1.988911e-01 3.094086e-01 2.424549e-01 6.219745e-01 3.193359e-01 5.652576e-01 7.493235e-01 4.692141e-01 5.220425e-01 7.780378e-01 3.505192e-02
<GCONST> 1.001687e+02
<STATE> 10
<MEAN> 39
 3.655205e+00 3.790061e+00 -1.114423e+00 -1.522679e+01 7.981793e-02 1.099331e+00 -1.173546e+01 -2.090900e+01 -2.012771e+01 -2.204320e+00 1.583435e+01 -1.308910e+00 6.926984e+01 -1.888354e-01 -5.207221e-01 3.599185e-01 1.630615e+00 6.050429e-01 -6.670718e-01 -7.662312e-01 -1.419128e+00 1.240250e-01 1.508712e+00 -1.634105e-01 -1.907395e+00 -5.898974e-02 -2.937185e-02 1.339402e-01 1.344209e-01 2.985945e-02 -1.162727e-01 -3.656869e-01 -3.704118e-02 5.104948e-01 3.686394e-01 -4.265838e-01 -3.883098e-01 -9.299121e-02 -6.087120e-02
<VARIANCE> 39
 3.207502e+00 1.957392e+01 5.404578e+01 5.395406e+01 6.451958e+01 1.818405e+01 4.004776e+01 8.531190e+01 5.859440e+01 8.286179e+01 4.432376e+01 3.278640e+01 2.712950e+00 1.448576e-01 7.385752e-01 9.346856e-01 1.145198e+00 1.874184e+00 1.135372e+00 2.119314e+00 2.630252e+00 3.754742e+00 3.051977e+00 1.921224e+00 3.200564e+00 8.905373e-02 2.329218e-02 1.577415e-01 1.864497e-01 3.237408e-01 2.521689e-01 2.999904e-01 4.953202e-01 4.585566e-01 6.185817e-01 8.399858e-01 2.679546e-01 6.134182e-01 3.124849e-02
<GCONST> 9.950518e+01
<STATE> 11
<MEAN> 39
 3.199115e+00 1.239815e+00 -2.134034e+00 -6.114158e+00 1.964438e-01 -7.002959e+00 -1.817501e+01 -2.360446e+01 -1.259247e+01 -6.938839e-01 6.935636e+00 -7.687364e+00 6.801813e+01 -1.664803e-01 -3.365570e-02 2.655997e-01 5.977825e-02 2.300344e-01 -7.595710e-01 -6.153374e-01 6.317981e-01 5.664943e-01 2.287718e-02 6.443604e-01 -2.809342e-01 1.407418e-01 6.211240e-02 1.467577e-01 -1.419280e-01 -5.365186e-01 -2.051393e-01 3.265181e-01 2.161627e-01 1.650037e-01 -1.463632e-01 -2.202078e-01 1.983245e-01 4.625555e-01 4.723855e-02
<VARIANCE> 39
 5.880471e+00 1.974432e+01 7.412657e+01 3.120365e+01 4.788316e+01 3.312551e+01 5.291023e+01 3.189503e+01 5.311427e+01 3.485015e+01 6.486868e+01 1.180793e+01 4.200688e+00 1.744108e-01 6.330953e-01 6.834133e-01 2.494428e+00 1.265359e+00 1.818840e+00 2.742476e+00 1.617751e+00 3.109213e+00 2.499890e+00 2.875595e+00 2.454171e+00 2.565753e-01 3.004228e-02 7.540970e-02 1.762616e-01 1.758984e-01 2.842423e-01 3.231607e-01 3.835517e-01 3.090940e-01 5.452601e-01 5.277244e-01 4.814431e-01 4.713076e-01 2.237158e-02
<GCONST> 9.726334e+01
<STATE> 12
<MEAN> 39
 3.124410e+00 1.812554e+00 -1.759661e+00 -1.360352e+01 -2.324003e+00 -4.396889e+00 -1.568522e+01 -2.098538e+01 -1.315015e+01 3.546408e+00 1.420982e+01 -8.018330e+00 7.019572e+01 1.193419e-01 4.484532e-01 -8.902776e-01 -1.052868e+00 -1.250209e-01 6.871093e-01 5.787255e-01 9.759264e-03 -2.822131e-02 -6.828410e-01 -2.001083e-01 8.121950e-01 -9.132653e-02 -6.235486e-02 4.260026e-02 -5.971232e-02 1.686619e-01 3.309077e-02 -3.221047e-02 1.535476e-01 -4.708946e-02 -4.172792e-02 -3.060879e-01 -2.436675e-01 1.637650e-01 -1.165734e-01
<VARIANCE> 39
 2.196286e+00 1.098391e+01 4.765199e+01 4.514778e+01 6.676089e+01 3.532939e+01 1.187729e+02 8.545605e+01 6.726601e+01 5.881723e+01 2.199272e+01 4.792868e+01 5.269556e+00 1.420943e-01 5.010719e-01 8.103852e-01 2.091282e+00 1.127963e+00 1.183853e+00 1.582842e+00 2.093762e+00 1.415192e+00 1.756175e+00 9.427947e-01 1.791961e+00 1.956342e-01 2.549082e-02 8.532559e-02 2.224155e-01 2.734263e-01 2.294581e-01 2.047310e-01 3.046050e-01 3.145913e-01 2.714447e-01 2.907294e-01 1.284411e-01 3.055359e-01 2.426699e-02
<GCONST> 9.177682e+01
<STATE> 13
<MEAN> 39
 3.229666e+00 4.331525e+00 -8.398622e+00 -1.488520e+01 -5.742512e+00 -2.415155e+00 -8.607861e+00 -2.222637e+01 -1.454369e+01 -4.983793e+00 1.015287e+01 2.172167e-01 6.775616e+01 -4.119269e-01 4.180982e-01 4.114595e-01 2.160822e-01 6.923564e-02 -2.920004e-02 5.319629e-01 6.975088e-01 9.685147e-02 -1.110906e+00 -6.773807e-01 3.093573e-01 -3.285425e-01 -1.200054e-01 -6.828177e-02 2.923706e-01 3.384841e-01 1.851243e-01 -7.101575e-02 -2.413128e-02 -1.894520e-02 4.776932e-02 1.542613e-01 -3.028220e-02 -2.122702e-01 -6.510765e-02
<VARIANCE> 39
 2.787749e+00 6.202785e+00 1.678938e+01 7.109593e+00 4.502077e+01 2.569053e+01 3.351365e+01 3.200000e+01 1.963005e+01 2.254086e+01 2.531035e+01 3.434236e+01 1.472318e+00 1.840786e-01 2.486604e-01 7.177348e-01 1.069939e+00 8.199760e-01 5.194147e-01 1.127357e+00 1.518180e+00 1.898792e+00 1.562289e+00 8.108769e-01 6.180017e-01 7.868581e-02 2.537019e-02 3.389814e-02 5.967280e-02 8.605772e-02 1.269665e-01 1.281126e-01 2.404283e-01 2.012489e-01 2.087382e-01 2.096355e-01 1.458976e-01 1.139072e-01 3.809388e-03
<GCONST> 6.850333e+01
<STATE> 14
<MEAN> 39
 -1.111721e+00 5.038678e+00 -1.227846e+00 -9.803454e+00 -2.096345e+00 -5.088480e+00 -8.313902e+00 -1.786714e+01 -1.102469e+01 -8.263444e+00 7.120393e+00 -1.551054e+00 6.505659e+01 -1.000326e+00 -4.110978e-01 6.222679e-01 1.195641e+00 7.099338e-01 -3.546333e-01 3.797456e-01 3.870577e-01 4.085425e-01 -1.556584e-01 -4.125431e-01 -6.439392e-03 -6.331039e-01 -6.639370e-02 -1.555823e-01 -1.723378e-01 -1.051421e-01 -1.216305e-01 -4.182218e-02 -5.962925e-02 6.254069e-02 1.038898e-01 9.384824e-02 5.857368e-02 -9.090726e-03 -5.305454e-03
<VARIANCE> 39
 2.899337e+00 6.432287e+00 1.392512e+01 1.162943e+01 4.534560e+01 4.996844e+01 3.695762e+01 3.727538e+01 2.407226e+01 1.192679e+01 1.736521e+01 4.752168e+01 1.264588e+00 2.362103e-01 3.186342e-01 9.140228e-01 7.828285e-01 1.096905e+00 1.513321e+00 1.005851e+00 1.457744e+00 1.790957e+00 1.065475e+00 1.339306e+00 1.652268e+00 1.046686e-01 2.302555e-02 4.512110e-02 7.666329e-02 1.122736e-01 1.367233e-01 2.708193e-01 1.784822e-01 2.604164e-01 3.672670e-01 2.329746e-01 2.669858e-01 2.611853e-01 5.227474e-03
<GCONST> 7.604094e+01
<STATE> 15
<MEAN> 39
 -5.970681e+00 2.364419e+00 7.005856e-01 -4.030516e+00 1.163831e+00 -5.625015e+00 -7.304102e+00 -1.791284e+01 -1.113241e+01 -1.053342e+01 3.081868e+00 -4.254146e+00 6.205025e+01 -9.328496e-01 -3.913157e-01 4.241501e-01 7.588713e-01 8.068603e-02 -1.967732e-01 2.402053e-01 1.496200e-01 3.217137e-01 -4.840725e-01 -1.034727e+00 -3.161840e-01 -5.598456e-01 1.404557e-02 2.761527e-04 -5.714003e-02 -1.330123e-01 -5.838601e-02 8.114373e-04 -3.934745e-02 -2.767722e-02 1.176106e-02 5.263930e-02 5.106214e-03 5.240861e-02 2.932367e-02
<VARIANCE> 39
 2.486534e+00 6.393510e+00 1.639263e+01 1.348436e+01 2.260066e+01 2.576872e+01 3.214746e+01 4.672532e+01 2.315181e+01 1.606142e+01 2.850677e+01 4.283070e+01 9.681741e-01 1.665226e-01 3.351579e-01 3.504325e-01 6.282973e-01 6.306871e-01 9.920046e-01 1.219363e+00 1.108388e+00 1.105341e+00 1.338829e+00 1.284867e+00 9.902353e-01 2.875989e-02 2.949462e-02 7.056049e-02 8.567117e-02 1.047772e-01 1.275796e-01 1.789041e-01 1.421153e-01 1.962872e-01 2.163496e-01 2.386451e-01 2.004189e-01 2.074165e-01 5.673140e-03
<GCONST> 6.947101e+01
<STATE> 16
<MEAN> 39
 -1.069823e+01 -5.664751e-01 1.038786e+00 -1.706836e+00 2.601717e+00 -5.802750e+00 -5.556044e+00 -1.490416e+01 -7.889646e+00 -1.115516e+01 4.106529e-02 -3.672348e+00 5.977533e+01 -7.818786e-01 -6.713147e-01 -1.305737e-01 4.872263e-01 5.542011e-01 2.838120e-01 4.417987e-01 6.215196e-01 2.921520e-01 -3.669103e-02 -2.714434e-01 -1.261882e-01 -3.462862e-01 9.155035e-02 1.625460e-02 -8.532424e-03 2.268509e-02 1.051923e-01 1.570911e-01 1.191743e-01 1.083898e-01 3.465254e-02 6.716621e-03 -1.367462e-02 -1.030330e-01 4.220822e-02
<VARIANCE> 39
 2.726695e+00 6.048793e+00 1.166328e+01 1.576482e+01 3.349135e+01 2.138954e+01 1.728917e+01 2.441967e+01 2.292620e+01 1.713786e+01 2.811386e+01 3.352916e+01 1.233926e+00 1.415047e-01 2.773004e-01 3.319522e-01 7.001938e-01 1.127288e+00 7.714312e-01 1.136379e+00 9.041971e-01 8.769342e-01 7.446061e-01 1.010324e+00 1.684995e+00 4.111835e-02 2.055478e-02 6.063557e-02 5.547145e-02 9.727671e-02 1.769567e-01 1.091362e-01 2.311058e-01 1.646004e-01 1.845868e-01 1.427156e-01 2.510112e-01 3.585335e-01 6.730610e-03
<GCONST> 6.727985e+01
<STATE> 17
<MEAN> 39
 -1.379549e+01 -3.588045e+00 1.341960e-01 -4.655480e-01 5.349040e+00 -1.689256e+00 -8.160182e-01 -9.099467e+00 -3.449256e+00 -7.880323e+00 9.730306e-02 -5.577972e+00 5.829668e+01 -5.510870e-01 -3.836095e-01 1.044256e-02 1.453377e-02 5.152107e-02 3.921975e-01 9.078312e-01 1.128929e+00 7.541233e-01 1.409460e-01 -6.020612e-01 -6.519514e-01 -2.980726e-01 6.353274e-03 5.324431e-02 3.751185e-02 -5.778403e-03 -1.430881e-02 -4.191118e-03 2.570670e-03 -1.280478e-01 -1.418634e-01 -1.323763e-01 1.118795e-03 4.808913e-03 1.268780e-02
<VARIANCE> 39
 2.614354e+00 3.070417e+00 1.122459e+01 1.626283e+01 3.016502e+01 3.250823e+01 2.166739e+01 2.045634e+01 2.301715e+01 2.037556e+01 2.569592e+01 2.943617e+01 1.165789e+00 4.149173e-02 1.897014e-01 4.912415e-01 6.961166e-01 1.340912e+00 1.247002e+00 1.077477e+00 1.790571e+00 1.782322e+00 1.231056e+00 1.063517e+00 1.344339e+00 1.574045e-02 1.080090e-02 3.367641e-02 9.102449e-02 1.755685e-01 2.585852e-01 3.015171e-01 2.029168e-01 3.907172e-01 2.919836e-01 2.072562e-01 1.811507e-01 2.629157e-01 3.620966e-03
<GCONST> 6.851536e+01
<STATE> 18
<MEAN> 39
 -1.663782e+01 -4.990839e+00 1.026180e+00 1.203249e+00 6.549319e+00 -2.110577e-01 1.430820e+00 -9.504814e+00 -6.974013e+00 -1.410543e+01 -5.297727e+00 -8.883830e+00 5.690543e+01 -6.008089e-01 -3.934065e-01 -1.312624e-02 2.550340e-01 5.185508e-01 9.401183e-01 5.953265e-01 2.317724e-01 -7.962480e-02 -5.668771e-01 -3.184215e-01 -2.197467e-01 -2.713164e-01 -8.383982e-03 -3.354022e-02 -9.041533e-02 -1.141788e-01 -7.873160e-02 -3.475456e-02 -1.472676e-01 2.745077e-02 1.384311e-01 1.289181e-01 8.238896e-02 1.167760e-01 -2.649884e-02
<VARIANCE> 39
 1.699362e+00 1.781940e+00 5.009056e+00 1.002715e+01 1.603247e+01 1.906955e+01 2.424575e+01 2.683176e+01 2.632197e+01 3.864080e+01 3.439017e+01 3.480602e+01 4.822078e-01 9.020054e-02 2.247806e-01 5.931062e-01 7.196344e-01 8.827003e-01 1.394068e+00 1.186760e+00 2.173115e+00 1.046546e+00 9.408458e-01 1.163188e+00 1.767860e+00 5.278688e-02 1.601559e-02 2.904403e-02 8.597275e-02 1.198166e-01 1.415876e-01 1.878725e-01 2.384003e-01 4.042502e-01 1.375234e-01 1.432662e-01 2.072167e-01 3.117324e-01 9.260301e-03
<GCONST> 6.679055e+01
<STATE> 19
<MEAN> 39
 -1.940429e+01 -7.766354e+00 -1.035967e+00 3.870427e-01 7.809309e+00 3.137495e+00 4.186046e+00 -6.272924e+00 -4.317568e+00 -1.511412e+01 -7.547891e+00 -1.057952e+01 5.548132e+01 -3.529036e-01 -3.808786e-01 -2.964212e-01 -1.192591e-01 -4.539369e-02 1.070485e-01 2.224417e-01 2.402580e-01 4.646476e-01 1.542771e-01 -4.605876e-01 -5.516075e-01 -1.809990e-01 1.110062e-01 6.760108e-02 2.153836e-02 -3.246106e-02 -4.686655e-02 -7.237408e-02 7.523793e-02 2.446474e-02 -7.887646e-02 -1.445659e-02 -5.462800e-02 -1.105395e-01 7.091270e-02
<VARIANCE> 39
 1.928552e+00 2.788456e+00 1.303794e+01 2.231618e+01 2.994820e+01 1.976348e+01 2.615720e+01 3.186325e+01 3.957744e+01 6.039825e+01 4.228426e+01 3.409235e+01 5.018652e-01 2.781144e-01 2.296800e-01 6.727350e-01 1.028274e+00 1.139117e+00 1.273454e+00 1.475427e+00 1.779915e+00 1.927150e+00 2.628666e+00 1.591409e+00 1.668460e+00 6.883807e-02 3.282636e-02 3.827827e-02 1.510029e-01 2.123892e-01 1.933599e-01 2.328018e-01 2.498415e-01 3.655855e-01 3.180641e-01 4.839302e-01 2.125747e-01 3.581494e-01 7.801128e-03
<GCONST> 7.973284e+01
<TRANSP> 20
 0.000000e+00 1.000000e+00 0.000000e+00 0.000000e+00 0.000000e+00 0.000000e+00 0.000000e+00 0.000000e+00 0.000000e+00 0.000000e+00 0.000000e+00 0.000000e+00 0.000000e+00 0.000000e+00 0.000000e+00 0.000000e+00 0.000000e+00 0.000000e+00 0.000000e+00 0.000000e+00
 0.000000e+00 7.857141e-01 2.142859e-01 0.000000e+00 0.000000e+00 0.000000e+00 0.000000e+00 0.000000e+00 0.000000e+00 0.000000e+00 0.000000e+00 0.000000e+00 0.000000e+00 0.000000e+00 0.000000e+00 0.000000e+00 0.000000e+00 0.000000e+00 0.000000e+00 0.000000e+00
 0.000000e+00 0.000000e+00 7.939397e-01 2.060603e-01 0.000000e+00 0.000000e+00 0.000000e+00 0.000000e+00 0.000000e+00 0.000000e+00 0.000000e+00 0.000000e+00 0.000000e+00 0.000000e+00 0.000000e+00 0.000000e+00 0.000000e+00 0.000000e+00 0.000000e+00 0.000000e+00
 0.000000e+00 0.000000e+00 0.000000e+00 7.769564e-01 2.230436e-01 0.000000e+00 0.000000e+00 0.000000e+00 0.000000e+00 0.000000e+00 0.000000e+00 0.000000e+00 0.000000e+00 0.000000e+00 0.000000e+00 0.000000e+00 0.000000e+00 0.000000e+00 0.000000e+00 0.000000e+00
 0.000000e+00 0.000000e+00 0.000000e+00 0.000000e+00 6.581771e-01 3.418229e-01 0.000000e+00 0.000000e+00 0.000000e+00 0.000000e+00 0.000000e+00 0.000000e+00 0.000000e+00 0.000000e+00 0.000000e+00 0.000000e+00 0.000000e+00 0.000000e+00 0.000000e+00 0.000000e+00
 0.000000e+00 0.000000e+00 0.000000e+00 0.000000e+00 0.000000e+00 8.648146e-01 1.351853e-01 0.000000e+00 0.000000e+00 0.000000e+00 0.000000e+00 0.000000e+00 0.000000e+00 0.000000e+00 0.000000e+00 0.000000e+00 0.000000e+00 0.000000e+00 0.000000e+00 0.000000e+00
 0.000000e+00 0.000000e+00 0.000000e+00 0.000000e+00 0.000000e+00 0.000000e+00 7.695985e-01 2.304015e-01 0.000000e+00 0.000000e+00 0.000000e+00 0.000000e+00 0.000000e+00 0.000000e+00 0.000000e+00 0.000000e+00 0.000000e+00 0.000000e+00 0.000000e+00 0.000000e+00
 0.000000e+00 0.000000e+00 0.000000e+00 0.000000e+00 0.000000e+00 0.000000e+00 0.000000e+00 6.500698e-01 3.499303e-01 0.000000e+00 0.000000e+00 0.000000e+00 0.000000e+00 0.000000e+00 0.000000e+00 0.000000e+00 0.000000e+00 0.000000e+00 0.000000e+00 0.000000e+00
 0.000000e+00 0.000000e+00 0.000000e+00 0.000000e+00 0.000000e+00 0.000000e+00 0.000000e+00 0.000000e+00 7.471579e-01 2.528422e-01 0.000000e+00 0.000000e+00 0.000000e+00 0.000000e+00 0.000000e+00 0.000000e+00 0.000000e+00 0.000000e+00 0.000000e+00 0.000000e+00
 0.000000e+00 0.000000e+00 0.000000e+00 0.000000e+00 0.000000e+00 0.000000e+00 0.000000e+00 0.000000e+00 0.000000e+00 7.907440e-01 2.092560e-01 0.000000e+00 0.000000e+00 0.000000e+00 0.000000e+00 0.000000e+00 0.000000e+00 0.000000e+00 0.000000e+00 0.000000e+00
 0.000000e+00 0.000000e+00 0.000000e+00 0.000000e+00 0.000000e+00 0.000000e+00 0.000000e+00 0.000000e+00 0.000000e+00 0.000000e+00 7.986845e-01 2.013155e-01 0.000000e+00 0.000000e+00 0.000000e+00 0.000000e+00 0.000000e+00 0.000000e+00 0.000000e+00 0.000000e+00
 0.000000e+00 0.000000e+00 0.000000e+00 0.000000e+00 0.000000e+00 0.000000e+00 0.000000e+00 0.000000e+00 0.000000e+00 0.000000e+00 0.000000e+00 7.979516e-01 2.020484e-01 0.000000e+00 0.000000e+00 0.000000e+00 0.000000e+00 0.000000e+00 0.000000e+00 0.000000e+00
 0.000000e+00 0.000000e+00 0.000000e+00 0.000000e+00 0.000000e+00 0.000000e+00 0.000000e+00 0.000000e+00 0.000000e+00 0.000000e+00 0.000000e+00 0.000000e+00 8.183032e-01 1.816967e-01 0.000000e+00 0.000000e+00 0.000000e+00 0.000000e+00 0.000000e+00 0.000000e+00
 0.000000e+00 0.000000e+00 0.000000e+00 0.000000e+00 0.000000e+00 0.000000e+00 0.000000e+00 0.000000e+00 0.000000e+00 0.000000e+00 0.000000e+00 0.000000e+00 0.000000e+00 8.025772e-01 1.974228e-01 0.000000e+00 0.000000e+00 0.000000e+00 0.000000e+00 0.000000e+00
 0.000000e+00 0.000000e+00 0.000000e+00 0.000000e+00 0.000000e+00 0.000000e+00 0.000000e+00 0.000000e+00 0.000000e+00 0.000000e+00 0.000000e+00 0.000000e+00 0.000000e+00 0.000000e+00 8.011426e-01 1.988574e-01 0.000000e+00 0.000000e+00 0.000000e+00 0.000000e+00
 0.000000e+00 0.000000e+00 0.000000e+00 0.000000e+00 0.000000e+00 0.000000e+00 0.000000e+00 0.000000e+00 0.000000e+00 0.000000e+00 0.000000e+00 0.000000e+00 0.000000e+00 0.000000e+00 0.000000e+00 8.158751e-01 1.841249e-01 0.000000e+00 0.000000e+00 0.000000e+00
 0.000000e+00 0.000000e+00 0.000000e+00 0.000000e+00 0.000000e+00 0.000000e+00 0.000000e+00 0.000000e+00 0.000000e+00 0.000000e+00 0.000000e+00 0.000000e+00 0.000000e+00 0.000000e+00 0.000000e+00 0.000000e+00 7.922539e-01 2.077461e-01 0.000000e+00 0.000000e+00
 0.000000e+00 0.000000e+00 0.000000e+00 0.000000e+00 0.000000e+00 0.000000e+00 0.000000e+00 0.000000e+00 0.000000e+00 0.000000e+00 0.000000e+00 0.000000e+00 0.000000e+00 0.000000e+00 0.000000e+00 0.000000e+00 0.000000e+00 7.663093e-01 2.336907e-01 0.000000e+00
 0.000000e+00 0.000000e+00 0.000000e+00 0.000000e+00 0.000000e+00 0.000000e+00 0.000000e+00 0.000000e+00 0.000000e+00 0.000000e+00 0.000000e+00 0.000000e+00 0.000000e+00 0.000000e+00 0.000000e+00 0.000000e+00 0.000000e+00 0.000000e+00 7.573197e-01 2.426803e-01
 0.000000e+00 0.000000e+00 0.000000e+00 0.000000e+00 0.000000e+00 0.000000e+00 0.000000e+00 0.000000e+00 0.000000e+00 0.000000e+00 0.000000e+00 0.000000e+00 0.000000e+00 0.000000e+00 0.000000e+00 0.000000e+00 0.000000e+00 0.000000e+00 0.000000e+00 0.000000e+00
<ENDHMM>
