~o
<STREAMINFO> 1 39
<VECSIZE> 39<NULLD><MFCC_D_A_0><DIAGC>
~h "enam"
<BEGINHMM>
<NUMSTATES> 5
<STATE> 2
<MEAN> 39
 -5.162181e+00 -2.962673e+00 4.857662e-01 -3.203787e+00 -9.543839e-01 -9.691702e+00 -5.696329e+00 -6.042337e+00 -4.069473e-01 -9.622148e+00 -3.467292e+00 -5.491516e+00 6.516477e+01 7.830201e-01 -2.075952e-01 -1.968699e-01 -8.195277e-02 1.753370e-01 -1.667118e-01 -4.361144e-01 1.358708e-01 6.610734e-02 -1.429884e-01 -2.423070e-01 -6.152540e-02 7.017024e-01 2.734667e-03 -8.784460e-03 -1.634505e-02 -6.961826e-03 2.906891e-02 6.598162e-03 1.045517e-02 -7.978757e-03 -2.204039e-02 -2.482889e-02 2.828197e-03 2.420946e-02 8.363090e-03
<VARIANCE> 39
 7.454798e+01 6.182531e+01 5.688496e+01 2.579645e+01 5.251447e+01 6.317739e+01 6.307869e+01 7.409926e+01 4.122971e+01 9.277649e+01 1.015298e+02 4.912325e+01 4.536007e+01 1.660961e+00 4.175725e+00 3.151166e+00 2.368340e+00 3.698528e+00 3.323702e+00 3.318567e+00 4.438762e+00 3.397088e+00 4.296147e+00 3.815521e+00 3.352644e+00 1.355749e+00 2.395759e-01 5.716379e-01 4.154792e-01 3.892155e-01 5.012926e-01 4.915210e-01 5.699946e-01 6.904293e-01 6.386826e-01 7.073116e-01 5.618662e-01 4.884377e-01 2.281556e-01
<GCONST> 1.295103e+02
<STATE> 3
<MEAN> 39
 1.548448e+00 -3.813038e+00 -3.999534e+00 -5.738870e+00 1.989351e+00 -5.634210e+00 -8.490942e+00 -1.180061e+01 -1.986042e+00 -1.203784e+01 -3.621854e+00 -7.156855e+00 7.033713e+01 -2.287088e-01 6.060659e-01 3.873968e-01 1.570090e-01 -5.068593e-02 2.170794e-01 2.166752e-01 -5.519508e-01 -4.088785e-01 -5.538549e-02 1.209998e-01 2.412846e-02 -4.102424e-01 -4.315639e-02 7.712729e-03 2.353498e-02 2.614161e-02 -1.760925e-02 -1.799941e-03 1.480912e-02 3.882195e-02 3.516795e-02 3.479716e-02 2.033379e-03 -1.436580e-02 -3.623874e-02
<VARIANCE> 39
 5.042791e+00 5.535083e+01 5.610329e+01 2.423501e+01 4.738563e+01 4.004816e+01 5.044232e+01 1.020838e+02 8.991678e+01 5.827923e+01 7.954036e+01 5.122781e+01 1.899463e+01 2.259947e-01 1.288493e+00 1.428133e+00 1.103622e+00 1.362521e+00 1.118141e+00 1.838165e+00 2.759775e+00 2.324854e+00 1.513821e+00 1.517975e+00 1.465572e+00 2.694858e-01 2.260986e-02 1.441623e-01 2.076519e-01 1.562323e-01 1.958698e-01 1.955191e-01 3.558200e-01 3.903187e-01 3.526360e-01 2.988373e-01 3.003422e-01 2.146147e-01 2.422430e-02
<GCONST> 9.934916e+01
<STATE> 4
<MEAN> 39
 -1.229111e+01 -5.798486e-01 2.024326e+00 -1.235150e+00 3.453643e+00 -1.136490e+00 1.308411e+00 -9.445217e+00 -4.190042e+00 -9.576018e+00 -1.491851e+00 -7.367957e+00 5.878312e+01 -4.501605e-01 -3.598042e-01 -1.904983e-01 -7.170923e-02 -5.894126e-02 6.147542e-03 1.872829e-01 3.556273e-01 2.653817e-01 1.600693e-01 1.210249e-01 5.858287e-02 -2.302797e-01 3.093385e-02 -1.004844e-02 -1.849584e-02 -2.154558e-02 -4.000522e-03 -3.161111e-03 -2.674690e-02 -3.412468e-02 -1.094547e-02 1.491705e-02 1.732746e-02 3.886918e-03 2.270418e-02
<VARIANCE> 39
 1.590076e+01 1.896787e+01 1.878218e+01 2.551667e+01 2.682434e+01 2.977686e+01 3.146168e+01 4.453300e+01 4.269696e+01 3.348580e+01 3.071700e+01 2.614841e+01 3.884364e+00 2.208119e-01 4.320651e-01 6.899256e-01 1.136562e+00 1.239138e+00 1.411907e+00 1.643417e+00 2.321947e+00 1.697923e+00 1.939761e+00 1.869011e+00 1.737739e+00 1.023888e-01 2.681612e-02 9.644470e-02 1.349848e-01 1.960554e-01 2.016153e-01 2.433601e-01 2.985372e-01 4.601294e-01 3.299833e-01 3.740515e-01 3.472582e-01 3.339081e-01 1.197893e-02
<GCONST> 8.893370e+01
<TRANSP> 5
 0.000000e+00 1.000000e+00 0.000000e+00 0.000000e+00 0.000000e+00
 0.000000e+00 9.604076e-01 3.959247e-02 0.000000e+00 0.000000e+00
 0.000000e+00 0.000000e+00 9.624420e-01 3.755803e-02 0.000000e+00
 0.000000e+00 0.000000e+00 0.000000e+00 9.660447e-01 3.395526e-02
 0.000000e+00 0.000000e+00 0.000000e+00 0.000000e+00 0.000000e+00
<ENDHMM>
