~o
<STREAMINFO> 1 39
<VECSIZE> 39<NULLD><MFCC_D_A_0><DIAGC>
~h "sebelas"
<BEGINHMM>
<NUMSTATES> 5
<STATE> 2
<MEAN> 39
 -1.554916e+01 3.979777e+00 -6.353670e+00 -3.128928e+00 2.050480e+00 -1.041926e+01 1.061214e+00 -1.193366e+01 2.528991e+00 -5.676632e+00 6.294290e-01 -6.843502e+00 6.385891e+01 7.991543e-01 3.370320e-01 -3.658696e-02 -2.414241e-01 -2.262864e-01 -5.979135e-01 -8.059165e-01 -6.587434e-01 7.819071e-03 3.437418e-01 2.203539e-01 -1.159588e-01 6.837215e-01 5.885317e-02 -9.269556e-02 2.841191e-02 -3.884969e-02 -2.318558e-02 7.563686e-02 -4.233104e-02 4.369725e-02 4.850242e-02 4.332905e-02 -3.373771e-02 -5.362147e-02 1.801040e-02
<VARIANCE> 39
 1.193763e+02 4.643521e+01 3.480809e+01 2.342067e+01 6.653096e+01 7.046642e+01 1.155298e+02 7.279337e+01 3.284552e+01 6.621326e+01 3.312811e+01 2.565866e+01 3.041242e+01 6.165040e+00 3.371464e+00 2.830777e+00 2.700968e+00 4.534442e+00 4.953062e+00 8.070343e+00 5.095863e+00 3.519095e+00 4.616288e+00 2.925478e+00 2.326256e+00 1.357530e+00 8.250726e-01 3.560816e-01 4.284759e-01 4.509810e-01 8.274570e-01 8.669210e-01 1.323329e+00 9.424700e-01 6.186407e-01 7.489832e-01 6.178324e-01 3.818033e-01 2.448755e-01
<GCONST> 1.326430e+02
<STATE> 3
<MEAN> 39
 -6.183320e-01 -3.665905e+00 -4.229433e+00 -9.748375e+00 1.201806e+00 -9.564787e+00 -8.976239e+00 -9.388197e+00 -7.310003e-02 -3.116148e+00 -5.541239e+00 -1.040135e+01 7.117716e+01 -5.553515e-01 3.250546e-01 -2.629353e-01 3.191615e-01 8.622172e-02 1.030938e-02 6.566321e-01 1.896868e-01 -1.903898e-02 -3.845033e-01 -2.970302e-01 4.253169e-02 -4.030643e-02 -1.032265e-01 1.042222e-01 -4.828677e-02 6.275053e-02 2.029694e-02 -3.212465e-02 5.736521e-02 -1.149150e-04 -5.429614e-02 -1.671985e-02 2.032299e-02 2.106761e-02 -1.954167e-02
<VARIANCE> 39
 3.389715e+01 5.622870e+01 4.019759e+01 3.569817e+01 8.729523e+01 1.388302e+02 8.847772e+01 1.856932e+02 5.866001e+01 1.092642e+02 1.333117e+02 6.214198e+01 1.278056e+01 1.842101e+00 3.391316e+00 2.039700e+00 1.993693e+00 1.828384e+00 2.475095e+00 2.637813e+00 4.402593e+00 3.428480e+00 2.344515e+00 3.019703e+00 2.280797e+00 5.488436e-01 1.347236e-01 2.923347e-01 3.086112e-01 2.720928e-01 3.044099e-01 3.242542e-01 4.045393e-01 6.172988e-01 6.011860e-01 4.068107e-01 4.365291e-01 3.907312e-01 8.010438e-02
<GCONST> 1.214386e+02
<STATE> 4
<MEAN> 39
 -2.464598e+01 4.986621e+00 -8.928503e+00 3.929444e+00 6.493962e+00 -2.427158e+00 1.131050e+01 -7.688155e+00 -1.022846e+00 -1.188043e+01 -3.500918e+00 -8.275352e+00 6.165025e+01 1.928354e-02 -6.961532e-01 4.255130e-01 -1.027783e-01 2.648400e-01 6.587849e-01 5.482796e-03 2.565512e-01 -2.070827e-01 6.223088e-02 1.433697e-01 2.984359e-02 -4.921417e-01 9.147681e-02 -7.997390e-02 6.297257e-02 -6.106611e-02 -1.259605e-02 -7.651075e-03 -4.702182e-02 9.320434e-03 -7.002118e-03 -1.933612e-02 -2.575379e-02 8.189989e-03 -3.718125e-03
<VARIANCE> 39
 1.903777e+01 1.146248e+02 4.571538e+01 1.925792e+01 4.084669e+01 8.707429e+01 3.181902e+01 3.123515e+01 3.470582e+01 4.019255e+01 3.897924e+01 3.272191e+01 3.219797e+01 5.863217e-01 1.089989e+00 6.423872e-01 1.102971e+00 1.270681e+00 1.837009e+00 1.948012e+00 1.920487e+00 1.884016e+00 1.770242e+00 1.928832e+00 1.521488e+00 1.317421e-01 5.499684e-02 1.147998e-01 1.037494e-01 1.847160e-01 2.251139e-01 3.224865e-01 3.393834e-01 3.328674e-01 3.595148e-01 3.141855e-01 3.286603e-01 2.921112e-01 1.793164e-02
<GCONST> 9.834787e+01
<TRANSP> 5
 0.000000e+00 1.000000e+00 0.000000e+00 0.000000e+00 0.000000e+00
 0.000000e+00 9.554134e-01 4.458662e-02 0.000000e+00 0.000000e+00
 0.000000e+00 0.000000e+00 9.711733e-01 2.882673e-02 0.000000e+00
 0.000000e+00 0.000000e+00 0.000000e+00 9.687970e-01 3.120297e-02
 0.000000e+00 0.000000e+00 0.000000e+00 0.000000e+00 0.000000e+00
<ENDHMM>
