~o
<STREAMINFO> 1 39
<VECSIZE> 39<NULLD><MFCC_D_A_0><DIAGC>
~h "sembilan"
<BEGINHMM>
<NUMSTATES> 20
<STATE> 2
<MEAN> 39
 -1.760095e+01 -6.493831e+00 -2.389801e+00 -4.639190e+00 1.765653e-02 -5.606361e+00 5.914628e-01 -6.236283e+00 4.958580e-01 -6.082150e+00 5.551491e-01 -5.301699e+00 5.654911e+01 -4.363980e-01 5.358765e-01 -5.274909e-01 2.759259e-01 2.048412e-01 -5.772257e-01 5.732935e-01 -5.484136e-01 3.984014e-01 -5.689923e-01 -4.770739e-02 -1.108091e-02 2.958064e-01 -3.337924e-01 4.505329e-01 -3.581857e-01 2.632870e-01 7.702125e-02 -6.304523e-02 3.617119e-01 -1.804796e-01 3.237094e-01 -2.348862e-01 1.108811e-01 -6.073181e-02 1.760167e-01
<VARIANCE> 39
 8.448384e-01 1.706838e+00 5.350125e+00 8.412734e+00 7.181448e+00 8.004789e+00 9.474621e+00 1.705571e+01 1.247828e+01 8.254831e+00 1.123253e+01 1.499769e+01 3.205854e-01 5.463246e-01 1.176268e+00 9.182224e-01 8.897634e-01 8.103601e-01 1.168291e+00 2.360245e+00 1.805190e+00 2.756751e+00 1.351077e+00 1.488857e+00 1.740659e+00 1.301533e-01 9.702243e-02 2.736639e-01 1.739044e-01 1.452539e-01 1.734990e-01 2.664303e-01 4.464456e-01 4.094200e-01 4.909599e-01 2.265912e-01 2.987898e-01 4.013863e-01 2.008137e-02
<GCONST> 7.428355e+01
<STATE> 3
<MEAN> 39
 -2.376401e+01 1.975571e+00 -9.195286e+00 3.740658e-01 4.458445e-01 -7.469207e+00 7.714568e+00 -1.159928e+01 7.599724e+00 -1.236345e+01 2.860100e+00 -7.284797e+00 5.985985e+01 -2.096771e+00 3.121267e+00 -2.112732e+00 1.910562e+00 3.889812e-02 -7.615542e-01 1.909438e+00 -1.214171e+00 1.526978e+00 -6.025456e-01 8.715009e-01 5.132673e-01 1.167881e+00 6.888188e-02 -1.348480e-01 1.496219e-01 -3.908281e-02 7.711644e-02 -8.363505e-02 -2.638712e-01 3.425836e-01 -5.473829e-01 6.385813e-01 -1.252814e-01 4.304988e-01 7.203690e-03
<VARIANCE> 39
 6.778324e+00 1.664647e+01 1.220117e+01 1.411916e+01 1.909094e+01 1.527482e+01 2.203762e+01 2.820564e+01 2.338883e+01 3.071606e+01 3.849784e+01 2.605718e+01 2.376786e+00 6.016744e-01 1.351677e+00 1.289757e+00 6.455518e-01 2.012927e+00 1.320225e+00 3.004929e+00 3.013317e+00 2.517606e+00 2.726708e+00 3.191042e+00 2.760675e+00 2.308603e-01 1.341290e-01 3.768365e-01 2.081391e-01 2.758617e-01 3.086698e-01 2.382796e-01 6.248206e-01 6.479104e-01 5.486507e-01 3.429620e-01 5.830848e-01 3.701385e-01 4.992304e-02
<GCONST> 9.788324e+01
<STATE> 4
<MEAN> 39
 -2.867950e+01 9.229585e+00 -1.349256e+01 3.298468e+00 3.296859e+00 -1.201215e+01 1.134448e+01 -1.141473e+01 5.678397e+00 -7.930429e+00 2.301808e+00 -9.077657e-01 6.342390e+01 1.153549e+00 3.727691e-01 4.085744e-01 -3.720990e-01 2.212329e-03 -7.711937e-01 -9.860266e-01 -4.584321e-02 -6.062066e-01 5.129277e-01 -4.553079e-01 6.298285e-03 4.621585e-01 1.227672e+00 -3.530210e-01 6.125821e-01 -5.025043e-01 -3.096015e-01 1.407773e-02 -1.023982e+00 -1.916052e-01 -1.779126e-01 -9.801938e-02 -1.573338e-01 -5.814431e-01 3.899444e-02
<VARIANCE> 39
 8.268703e+00 1.419452e+01 9.477063e+00 1.867824e+01 2.226360e+01 1.163182e+01 1.279125e+01 1.794585e+01 2.890347e+01 4.134137e+01 3.340479e+01 2.827893e+01 2.788728e+00 6.158528e+00 1.734050e+00 2.223056e+00 1.219366e+00 1.779889e+00 1.534418e+00 4.774012e+00 3.075784e+00 2.927521e+00 2.583581e+00 3.561875e+00 2.859517e+00 5.636935e-01 2.151426e-01 5.475768e-01 2.500734e-01 1.335202e-01 3.496351e-01 3.246871e-01 5.848371e-01 6.398638e-01 7.736588e-01 4.334152e-01 7.943014e-01 3.979015e-01 2.080529e-01
<GCONST> 1.058904e+02
<STATE> 5
<MEAN> 39
 -9.501081e+00 1.000645e+01 -5.796793e+00 -1.902185e+00 -1.169076e+00 -1.491073e+01 -5.199158e+00 -1.593715e+01 2.497849e+00 -8.513790e+00 7.856706e-01 -8.411778e+00 6.792149e+01 3.891857e+00 4.428045e-01 1.326925e+00 -1.002963e+00 -6.227857e-01 1.221037e-02 -2.968975e+00 -1.363359e+00 -1.279117e+00 2.869645e-01 5.096476e-01 -7.726235e-01 1.195363e+00 -7.034124e-01 -1.060599e-01 -9.762045e-02 3.214954e-01 2.353782e-01 3.434219e-01 8.102056e-01 1.455914e-01 -1.335315e-01 -1.763003e-02 3.196770e-01 4.154296e-01 -2.869328e-01
<VARIANCE> 39
 3.963116e+01 1.999622e+01 4.334721e+01 2.711085e+01 5.473845e+01 3.459308e+01 6.903218e+01 6.008921e+01 4.182204e+01 1.540717e+02 4.080630e+01 3.823142e+01 2.349286e+01 3.118779e+00 2.350050e+00 2.427019e+00 2.412260e+00 4.225026e+00 4.763966e+00 7.890935e+00 4.909924e+00 4.000830e+00 5.279695e+00 5.699793e+00 4.900558e+00 1.369370e+00 4.783221e-01 4.020893e-01 4.066865e-01 3.641543e-01 5.658106e-01 7.662638e-01 1.023914e+00 9.115437e-01 8.230463e-01 8.486047e-01 5.352316e-01 6.277354e-01 2.901700e-01
<GCONST> 1.305408e+02
<STATE> 6
<MEAN> 39
 -1.075156e+00 9.255752e+00 1.724426e+00 -2.760928e+00 -3.426549e+00 -1.308557e+01 -6.935315e+00 -1.590585e+01 -4.585615e+00 -5.900136e+00 4.015955e+00 -7.815318e+00 6.748368e+01 3.868440e-01 -2.807277e-01 1.184433e+00 4.589830e-03 -4.411720e-01 -3.263955e-02 1.698714e-01 7.300206e-01 -7.990678e-01 3.635815e-02 -1.077390e-01 -2.440674e-01 -4.541911e-01 -1.922607e-01 -9.884596e-02 5.202492e-02 2.949491e-02 -1.502213e-01 -1.702420e-01 2.199839e-02 1.593644e-01 5.181153e-02 2.533315e-02 -9.524000e-02 -1.690860e-02 9.876176e-04
<VARIANCE> 39
 9.311281e+00 1.083335e+01 3.222236e+01 2.128695e+01 4.786371e+01 2.556045e+01 4.328759e+01 5.087658e+01 2.109239e+01 6.358986e+01 7.892739e+01 4.164068e+01 7.768890e+00 2.354107e-01 4.318983e-01 7.794879e-01 1.165227e+00 1.486060e+00 1.001562e+00 2.001065e+00 1.715538e+00 2.013164e+00 2.228389e+00 2.032767e+00 1.121931e+00 1.457755e-01 4.996452e-02 8.559898e-02 9.200010e-02 1.438166e-01 3.947707e-01 2.142556e-01 2.809998e-01 4.248924e-01 3.701326e-01 3.741558e-01 4.265205e-01 3.089522e-01 3.309190e-02
<GCONST> 9.283906e+01
<STATE> 7
<MEAN> 39
 -6.885933e-01 4.958805e+00 1.093966e+01 -1.766704e+00 -1.106828e+01 -1.527003e+01 -6.218453e+00 -1.234407e+01 -1.046776e+01 -4.350525e+00 2.778381e+00 -9.940208e+00 6.633897e+01 -5.228157e-01 -1.840329e+00 3.205139e+00 -1.147045e-01 -3.745236e+00 -6.776141e-01 -3.258649e-02 1.857691e-02 -2.112788e+00 1.703555e+00 1.082929e+00 3.381225e-01 9.013959e-01 -2.319376e-01 -1.589966e-01 3.237163e-01 -2.832098e-01 -4.144421e-01 1.829786e-01 -4.882207e-02 -2.360589e-01 -5.068299e-02 2.028144e-01 2.731774e-01 3.352705e-01 3.684695e-01
<VARIANCE> 39
 5.523972e+00 1.632080e+01 3.944553e+01 4.238552e+01 7.860809e+01 3.505156e+01 2.491351e+01 4.117428e+01 6.831551e+01 4.160689e+01 6.602669e+01 2.510293e+01 5.473372e+00 4.587703e-01 1.474431e+00 3.119861e+00 1.309691e+00 5.487263e+00 3.391180e+00 1.504273e+00 4.532009e+00 1.122957e+01 8.023026e+00 3.810725e+00 3.722917e+00 6.025832e-01 6.885062e-02 3.174835e-01 5.961937e-01 3.900049e-01 1.364286e+00 6.837839e-01 2.321319e-01 4.706467e-01 1.435330e+00 7.344303e-01 7.984530e-01 2.820370e-01 8.345959e-02
<GCONST> 1.165397e+02
<STATE> 8
<MEAN> 39
 -4.560757e+00 -9.053933e-01 2.472902e+01 -5.587540e+00 -2.106087e+01 -1.446111e+01 -7.130618e+00 -9.323896e+00 -1.998398e+01 -2.746711e-01 8.284179e+00 -4.906313e+00 7.190138e+01 -3.330540e-01 -6.963636e-01 1.623707e-01 1.205370e-01 -6.490220e-01 -3.267654e-01 2.289590e-02 5.311450e-01 2.585320e-01 -6.857551e-01 -8.796299e-02 1.414465e+00 4.551585e-01 2.369108e-01 1.738577e-01 -7.382200e-01 2.806009e-01 7.355024e-01 -8.017679e-02 -3.639034e-02 1.791870e-01 4.267419e-01 -4.519591e-01 -3.375992e-01 -6.898464e-02 -2.841110e-01
<VARIANCE> 39
 7.037436e+00 1.570002e+01 1.295743e+02 5.311699e+01 1.043638e+02 8.919067e+01 4.326699e+01 1.350906e+02 2.869925e+02 1.081724e+02 9.351424e+01 4.776277e+01 7.711437e+00 8.676404e-01 8.208897e-01 4.721700e+00 4.027363e+00 2.680644e+00 4.561253e+00 2.704700e+00 3.331180e+00 4.433642e+00 3.347288e+00 2.747994e+00 2.206437e+00 6.408687e-01 9.584782e-02 2.463794e-01 3.998460e-01 4.451514e-01 6.389476e-01 8.080209e-01 5.514901e-01 7.194626e-01 1.149190e+00 7.171746e-01 6.285523e-01 5.028335e-01 7.764470e-02
<GCONST> 1.242255e+02
<STATE> 9
<MEAN> 39
 -2.855853e+00 -3.565846e+00 1.568327e+01 -1.563483e+00 -1.754734e+01 -1.642426e+01 -8.833913e+00 -9.075813e+00 -8.417542e+00 -6.357316e+00 3.088994e+00 -1.001806e+00 7.001420e+01 6.561641e-01 -2.248421e-01 -2.310819e+00 -2.303526e-01 2.709882e+00 4.483805e-01 -1.344242e+00 -4.040552e-01 1.773449e+00 6.318614e-01 -1.034163e+00 -8.309851e-01 -3.174390e-01 6.276216e-02 -2.403736e-02 -2.954407e-01 -3.675596e-01 1.608485e-01 2.526972e-01 -6.979530e-02 -3.679599e-01 7.871670e-02 6.095848e-01 9.150863e-03 -3.867338e-01 1.164190e-01
<VARIANCE> 39
 4.789781e+00 7.225581e+00 9.175019e+01 2.735879e+01 1.231364e+02 4.395688e+01 3.001810e+01 1.149602e+02 1.316233e+02 7.945688e+01 7.888528e+01 3.233387e+01 4.515099e+00 2.679627e-01 1.027431e+00 1.498959e+00 2.102512e+00 1.089409e+00 2.590316e+00 1.854179e+00 2.929255e+00 4.674973e+00 5.264164e+00 2.928849e+00 2.954236e+00 2.063837e-01 2.633161e-02 1.719609e-01 1.362412e-01 2.271497e-01 2.788794e-01 5.714843e-01 4.189911e-01 5.360358e-01 2.938474e-01 6.006505e-01 5.403833e-01 4.729231e-01 3.977231e-02
<GCONST> 1.062434e+02
<STATE> 10
<MEAN> 39
 5.581171e-01 -4.028246e+00 1.377312e+00 -7.469911e+00 -3.359763e+00 -1.654726e+01 -1.449169e+01 -1.066927e+01 -2.964954e+00 2.692417e+00 -1.496442e+00 -7.201805e+00 7.082794e+01 3.565757e-01 -1.122628e+00 -2.134278e+00 -1.421338e+00 1.291700e+00 1.023520e+00 6.667050e-01 1.273906e+00 1.275428e+00 7.587424e-02 -1.911457e+00 -1.487190e+00 6.154979e-01 -1.698581e-01 -3.584610e-01 3.396156e-01 -1.399070e-02 -4.748004e-01 2.216248e-01 6.073738e-01 7.501533e-01 -2.687817e-01 -6.339599e-01 -3.108333e-01 1.172106e-01 1.891495e-01
<VARIANCE> 39
 4.294765e+00 3.085909e+01 6.133660e+01 4.446462e+01 7.766987e+01 7.145303e+01 2.416665e+01 6.976923e+01 4.957494e+01 9.587844e+01 1.480923e+02 3.687127e+01 7.510221e+00 3.160948e-01 2.176334e+00 1.593137e+00 1.853688e+00 2.237010e+00 3.585799e+00 2.812202e+00 5.411873e+00 2.194437e+00 4.594655e+00 3.870987e+00 2.445864e+00 4.197234e-01 3.966459e-02 1.995920e-01 1.430466e-01 3.587147e-01 3.144931e-01 2.002821e-01 3.783239e-01 3.526836e-01 3.300823e-01 6.409515e-01 6.377974e-01 5.592442e-01 2.742830e-02
<GCONST> 1.100510e+02
<STATE> 11
<MEAN> 39
 8.584843e-02 -1.438299e+01 -3.408741e+00 -1.201133e+01 -6.364133e+00 -2.118834e+00 -6.483778e+00 -2.109682e+00 3.744359e+00 -2.132820e+00 -1.024316e+01 -9.809011e+00 7.530995e+01 -2.295433e-01 -1.143751e+00 -2.462225e-01 1.109592e-02 -5.471439e-02 5.559550e-01 1.187668e+00 1.509606e+00 -8.617429e-02 -1.195781e+00 -9.030269e-01 1.092569e+00 5.194228e-01 -2.338778e-02 4.797110e-01 3.626721e-01 3.173625e-01 -1.135682e-02 -5.813855e-01 -2.249323e-01 -4.674771e-01 -1.817942e-01 1.995987e-01 6.228977e-01 3.616602e-01 -2.487231e-01
<VARIANCE> 39
 4.845835e+00 1.435048e+01 6.591702e+01 1.032549e+01 1.530865e+02 1.332020e+02 3.518575e+01 1.400570e+02 7.998984e+01 7.111633e+01 9.103716e+01 8.076568e+01 6.876526e+00 2.159403e-01 1.720195e+00 1.289125e+00 1.285989e+00 8.536764e-01 3.795604e+00 2.451254e+00 1.910915e+00 1.502394e+00 2.420727e+00 2.343669e+00 2.163613e+00 3.634367e-01 4.483028e-02 1.729595e-01 2.116139e-01 2.710385e-01 1.374787e-01 3.076612e-01 3.279017e-01 3.486615e-01 2.297629e-01 3.589802e-01 3.209444e-01 4.335117e-01 3.503389e-02
<GCONST> 1.036135e+02
<STATE> 12
<MEAN> 39
 -1.091029e+00 -1.431082e+01 -4.719491e+00 -8.951881e+00 -2.626704e+00 -1.593316e+01 -4.706714e-01 4.562504e+00 -4.211366e+00 -9.622936e+00 -1.066900e+01 -2.926626e+00 7.516415e+01 -8.387361e-02 7.625911e-01 7.734311e-01 7.232015e-01 -4.167620e-01 -3.156585e-01 1.673853e-01 -5.838505e-01 -2.663511e-01 -3.086978e-01 7.339919e-01 4.418370e-01 -5.605564e-01 1.069736e-02 4.555074e-01 1.856246e-01 1.341263e-01 3.561703e-02 1.307201e-01 -3.868221e-01 -4.687991e-01 -5.044928e-02 1.717581e-02 3.565132e-02 -2.113784e-01 -2.314811e-01
<VARIANCE> 39
 4.379537e+00 1.757362e+01 3.559973e+01 5.806308e+00 5.116569e+01 1.203864e+02 3.063065e+01 1.080608e+02 8.260752e+01 6.361145e+01 4.944513e+01 5.353469e+01 9.825160e+00 1.099590e-01 1.653541e+00 8.135827e-01 6.398972e-01 1.428915e+00 1.396436e+00 2.037373e+00 2.819690e+00 1.259616e+00 9.267035e-01 1.380515e+00 1.312671e+00 5.228404e-01 2.491898e-02 1.065002e-01 9.655806e-02 7.721037e-02 2.091084e-01 2.103099e-01 3.243939e-01 2.937491e-01 2.591836e-01 2.452136e-01 2.965544e-01 2.246395e-01 4.280727e-02
<GCONST> 9.217658e+01
<STATE> 13
<MEAN> 39
 -1.037752e+00 -5.474677e+00 3.298539e+00 -4.541009e+00 -4.915330e+00 -9.842448e+00 -6.360771e+00 -6.386738e+00 -1.560810e+00 -9.428425e+00 -7.414498e+00 -4.285500e+00 6.985963e+01 -5.489527e-02 2.355993e+00 1.133196e+00 7.551378e-01 2.082273e-01 -2.564803e-01 -1.036422e+00 -1.613819e+00 -4.864049e-01 -7.832996e-01 3.215852e-01 -4.017709e-01 -1.092513e+00 1.428366e-03 -2.008833e-01 -2.254718e-01 -2.239340e-01 4.283701e-02 1.120024e-01 2.557205e-01 3.704205e-01 1.314115e-01 -6.942267e-02 -1.462776e-01 -1.470955e-01 1.481250e-01
<VARIANCE> 39
 2.709242e+00 1.277610e+01 2.764047e+01 7.820976e+00 2.744882e+01 5.659415e+01 2.490794e+01 4.659522e+01 5.565971e+01 3.301158e+01 7.025384e+01 5.579775e+01 4.640259e+00 1.977868e-01 3.854869e-01 6.198326e-01 1.125047e+00 2.986057e+00 2.895525e+00 1.863285e+00 2.228601e+00 2.292330e+00 1.696523e+00 1.215237e+00 1.060223e+00 1.412904e-01 2.886370e-02 5.689666e-02 3.441291e-02 1.165656e-01 2.742663e-01 2.725078e-01 2.288268e-01 2.621364e-01 1.503657e-01 1.360716e-01 1.932790e-01 1.487256e-01 1.133555e-02
<GCONST> 8.337227e+01
<STATE> 14
<MEAN> 39
 -1.388291e+00 3.040423e+00 3.934950e+00 -4.413024e+00 -4.971442e+00 -1.250822e+01 -8.330461e+00 -1.001714e+01 -6.582596e+00 -1.645886e+01 -1.049881e+01 -9.716219e+00 6.575954e+01 -4.843575e-01 8.834618e-01 2.445151e-01 4.998843e-01 6.704020e-01 7.080277e-01 2.002072e-01 -7.070673e-01 -4.386550e-01 -5.893638e-01 2.192321e-01 -2.786623e-01 -6.871181e-01 -1.382134e-01 -2.583803e-01 -9.300879e-02 7.903814e-02 1.832149e-01 9.478245e-02 1.690770e-01 8.118706e-02 -2.417733e-02 1.190554e-01 9.515470e-02 7.975069e-02 -7.197909e-03
<VARIANCE> 39
 4.510811e+00 1.366528e+01 8.149044e+00 6.018030e+00 1.031615e+01 2.139124e+01 8.918008e+00 3.146591e+01 3.363600e+01 4.171542e+01 4.460154e+01 4.199380e+01 5.602118e+00 1.379865e-01 5.311264e-01 4.379511e-01 5.387979e-01 7.332881e-01 1.227525e+00 9.374233e-01 6.912365e-01 1.585714e+00 2.241459e+00 1.495182e+00 1.158105e+00 6.471634e-02 1.276571e-02 2.956487e-02 2.359523e-02 8.097516e-02 1.139955e-01 2.620173e-01 2.236348e-01 1.482142e-01 2.105134e-01 3.853423e-01 2.943023e-01 1.898737e-01 7.656704e-03
<GCONST> 7.038390e+01
<STATE> 15
<MEAN> 39
 -5.102145e+00 3.492036e+00 6.495857e+00 1.930471e+00 4.007468e+00 -3.794605e+00 -2.238345e+00 -5.749223e+00 6.032732e-01 -1.162870e+01 -3.717625e+00 -3.954726e+00 6.300873e+01 -7.766716e-01 2.890561e-01 -2.442214e-01 2.387923e-01 5.512959e-01 2.483209e-01 5.026613e-01 2.591270e-01 4.512980e-02 9.547347e-02 3.168859e-01 -7.765614e-02 -8.247205e-01 -6.262946e-02 -1.775523e-01 -9.454282e-02 -1.793589e-01 -2.705820e-01 -8.293246e-02 -1.394356e-02 -1.507238e-02 2.411847e-02 1.460630e-01 3.459812e-02 -3.599505e-03 3.103320e-02
<VARIANCE> 39
 6.154421e+00 5.906209e+00 9.088930e+00 8.597660e+00 2.016493e+01 2.304601e+01 2.313744e+01 5.414600e+01 3.205024e+01 2.974792e+01 1.960585e+01 1.657048e+01 5.415222e+00 1.764320e-01 7.223494e-01 4.599265e-01 7.375014e-01 1.180256e+00 5.169765e-01 1.029387e+00 1.930596e+00 8.485519e-01 1.643808e+00 1.369940e+00 1.752229e+00 4.349878e-02 1.443328e-02 5.126861e-02 7.579137e-02 1.137765e-01 7.242533e-02 1.111895e-01 1.691799e-01 3.168954e-01 1.576609e-01 2.672708e-01 1.774891e-01 3.426270e-01 5.634783e-03
<GCONST> 7.150574e+01
<STATE> 16
<MEAN> 39
 -9.765825e+00 3.583287e+00 3.964944e+00 -2.123746e+00 -3.846390e-01 -6.463958e+00 -3.144656e+00 -1.269106e+01 -8.557751e+00 -1.529350e+01 -4.578704e+00 -9.469464e+00 5.917772e+01 -8.257872e-01 -4.314557e-01 -1.022200e-01 -7.292435e-02 2.732827e-01 6.145691e-01 7.207937e-01 -2.112496e-01 -4.819384e-01 -6.286334e-02 2.460894e-01 -1.463926e-01 -4.157706e-01 7.186879e-02 -7.543582e-02 -1.607628e-02 9.656317e-02 1.726845e-01 9.913490e-02 4.550677e-02 1.172154e-01 4.528260e-02 -1.071392e-01 -1.565703e-01 1.221794e-01 8.008816e-02
<VARIANCE> 39
 3.907761e+00 9.940559e+00 1.567077e+01 1.225615e+01 1.057247e+01 1.741044e+01 1.538390e+01 1.963121e+01 7.706647e+01 3.485982e+01 2.649191e+01 3.037416e+01 1.166404e+00 1.135245e-01 4.198545e-01 8.126136e-01 5.681559e-01 9.245700e-01 9.270058e-01 1.577838e+00 1.405824e+00 2.090302e+00 1.728891e+00 1.419604e+00 2.641361e+00 4.325013e-02 2.169766e-02 8.719205e-02 1.530036e-01 8.486211e-02 1.321983e-01 2.111490e-01 2.990582e-01 2.200954e-01 4.088573e-01 3.166629e-01 2.500834e-01 4.740830e-01 8.202258e-03
<GCONST> 7.665880e+01
<STATE> 17
<MEAN> 39
 -1.411070e+01 -9.292127e-01 4.201827e+00 4.131967e+00 9.754097e+00 3.266771e+00 4.841059e+00 -8.312186e+00 -7.191130e+00 -1.524757e+01 -4.785685e+00 -6.652693e+00 5.750037e+01 -4.573558e-01 -7.440905e-01 -3.740877e-01 8.419966e-02 6.017228e-01 7.643675e-01 5.486962e-01 3.063172e-01 -8.952122e-02 -2.107436e-01 -3.726277e-01 -2.057420e-01 -1.396630e-01 8.428950e-03 1.264932e-03 -4.856975e-02 -7.457014e-02 -1.133604e-01 -1.206793e-01 -5.525529e-02 6.900186e-02 7.405617e-02 8.683514e-02 3.439358e-03 -8.942161e-02 2.547876e-03
<VARIANCE> 39
 4.564368e+00 5.426094e+00 5.788596e+00 1.710993e+01 2.079968e+01 2.109495e+01 2.601698e+01 2.397439e+01 4.465152e+01 3.166899e+01 3.481606e+01 2.440068e+01 7.193663e-01 2.167513e-01 4.392206e-01 5.608895e-01 8.534800e-01 1.243982e+00 1.183840e+00 1.168082e+00 1.542432e+00 2.650714e+00 1.671969e+00 1.306848e+00 1.459136e+00 3.716448e-02 3.249670e-02 6.307037e-02 7.262796e-02 1.258246e-01 1.972303e-01 1.752126e-01 2.410928e-01 2.898682e-01 4.969037e-01 3.344662e-01 2.700243e-01 2.694625e-01 5.268078e-03
<GCONST> 7.582809e+01
<STATE> 18
<MEAN> 39
 -1.608623e+01 -4.614182e+00 -1.092999e+00 -2.897005e+00 2.942807e+00 -1.827084e+00 2.516883e+00 -6.464763e+00 -3.610535e+00 -1.039742e+01 -2.681463e+00 -7.865121e+00 5.688930e+01 -5.066325e-01 -5.427911e-01 -3.329065e-01 -1.895084e-01 -4.369964e-01 -1.171638e-01 2.929747e-01 6.363670e-01 9.655526e-01 1.053441e+00 6.268107e-01 1.760194e-01 -1.807138e-01 4.778400e-02 1.007213e-01 1.260834e-01 5.891526e-03 -2.723249e-02 4.159304e-02 -1.300498e-02 2.153944e-02 9.573366e-02 8.391562e-02 1.367101e-01 8.743350e-03 1.773553e-02
<VARIANCE> 39
 2.356187e+00 2.937073e+00 7.475759e+00 1.772328e+01 3.630199e+01 4.999863e+01 3.358131e+01 3.120211e+01 3.315408e+01 3.148441e+01 1.236188e+01 7.572459e+00 5.972288e-01 1.117908e-01 2.410451e-01 3.862056e-01 5.258207e-01 8.965078e-01 2.357082e+00 1.377369e+00 1.556423e+00 2.467100e+00 1.952864e+00 1.568324e+00 8.870074e-01 3.885215e-02 1.221921e-02 4.032115e-02 7.816495e-02 9.078417e-02 1.940580e-01 4.686552e-01 2.174681e-01 2.725889e-01 4.620838e-01 3.427828e-01 2.988837e-01 1.805700e-01 6.709679e-03
<GCONST> 7.133498e+01
<STATE> 19
<MEAN> 39
 -1.885679e+01 -6.936455e+00 -8.720316e-01 -1.223094e+00 5.825205e+00 2.172127e+00 6.344627e+00 -3.919591e+00 1.537867e-01 -9.023726e+00 -2.243931e+00 -9.010823e+00 5.598092e+01 -2.996520e-01 -2.365596e-01 -2.871128e-02 1.198363e-01 5.760874e-01 4.863998e-01 4.518510e-02 -1.891246e-01 7.535422e-02 -5.719442e-02 -1.247939e-01 -2.778489e-01 -1.312118e-01 3.406626e-02 -3.382837e-02 -1.091443e-01 -1.360048e-02 1.049183e-01 2.081102e-01 6.250195e-02 -1.431676e-01 -2.894150e-01 -1.260926e-01 -1.306816e-01 -7.738306e-02 -1.421179e-02
<VARIANCE> 39
 4.979545e+00 5.640270e+00 1.239452e+01 2.917545e+01 4.370374e+01 3.551826e+01 4.192389e+01 4.276555e+01 5.211580e+01 6.978115e+01 5.326093e+01 2.022309e+01 8.229086e-01 2.386880e-01 3.892145e-01 6.669182e-01 9.891878e-01 1.475561e+00 2.726613e+00 2.831719e+00 4.074382e+00 2.723305e+00 1.888395e+00 1.695514e+00 1.288710e+00 7.082736e-02 4.564910e-02 9.569574e-02 2.154392e-01 2.821544e-01 2.794850e-01 2.322050e-01 3.109801e-01 8.119611e-01 5.423337e-01 4.825328e-01 4.050350e-01 2.263715e-01 1.199106e-02
<GCONST> 9.104676e+01
<TRANSP> 20
 0.000000e+00 1.000000e+00 0.000000e+00 0.000000e+00 0.000000e+00 0.000000e+00 0.000000e+00 0.000000e+00 0.000000e+00 0.000000e+00 0.000000e+00 0.000000e+00 0.000000e+00 0.000000e+00 0.000000e+00 0.000000e+00 0.000000e+00 0.000000e+00 0.000000e+00 0.000000e+00
 0.000000e+00 8.181672e-01 1.818328e-01 0.000000e+00 0.000000e+00 0.000000e+00 0.000000e+00 0.000000e+00 0.000000e+00 0.000000e+00 0.000000e+00 0.000000e+00 0.000000e+00 0.000000e+00 0.000000e+00 0.000000e+00 0.000000e+00 0.000000e+00 0.000000e+00 0.000000e+00
 0.000000e+00 0.000000e+00 6.933512e-01 3.066488e-01 0.000000e+00 0.000000e+00 0.000000e+00 0.000000e+00 0.000000e+00 0.000000e+00 0.000000e+00 0.000000e+00 0.000000e+00 0.000000e+00 0.000000e+00 0.000000e+00 0.000000e+00 0.000000e+00 0.000000e+00 0.000000e+00
 0.000000e+00 0.000000e+00 0.000000e+00 8.057199e-01 1.942801e-01 0.000000e+00 0.000000e+00 0.000000e+00 0.000000e+00 0.000000e+00 0.000000e+00 0.000000e+00 0.000000e+00 0.000000e+00 0.000000e+00 0.000000e+00 0.000000e+00 0.000000e+00 0.000000e+00 0.000000e+00
 0.000000e+00 0.000000e+00 0.000000e+00 0.000000e+00 7.747980e-01 2.252020e-01 0.000000e+00 0.000000e+00 0.000000e+00 0.000000e+00 0.000000e+00 0.000000e+00 0.000000e+00 0.000000e+00 0.000000e+00 0.000000e+00 0.000000e+00 0.000000e+00 0.000000e+00 0.000000e+00
 0.000000e+00 0.000000e+00 0.000000e+00 0.000000e+00 0.000000e+00 8.837842e-01 1.162158e-01 0.000000e+00 0.000000e+00 0.000000e+00 0.000000e+00 0.000000e+00 0.000000e+00 0.000000e+00 0.000000e+00 0.000000e+00 0.000000e+00 0.000000e+00 0.000000e+00 0.000000e+00
 0.000000e+00 0.000000e+00 0.000000e+00 0.000000e+00 0.000000e+00 0.000000e+00 7.291995e-01 2.708005e-01 0.000000e+00 0.000000e+00 0.000000e+00 0.000000e+00 0.000000e+00 0.000000e+00 0.000000e+00 0.000000e+00 0.000000e+00 0.000000e+00 0.000000e+00 0.000000e+00
 0.000000e+00 0.000000e+00 0.000000e+00 0.000000e+00 0.000000e+00 0.000000e+00 0.000000e+00 8.319978e-01 1.680022e-01 0.000000e+00 0.000000e+00 0.000000e+00 0.000000e+00 0.000000e+00 0.000000e+00 0.000000e+00 0.000000e+00 0.000000e+00 0.000000e+00 0.000000e+00
 0.000000e+00 0.000000e+00 0.000000e+00 0.000000e+00 0.000000e+00 0.000000e+00 0.000000e+00 0.000000e+00 8.005263e-01 1.994737e-01 0.000000e+00 0.000000e+00 0.000000e+00 0.000000e+00 0.000000e+00 0.000000e+00 0.000000e+00 0.000000e+00 0.000000e+00 0.000000e+00
 0.000000e+00 0.000000e+00 0.000000e+00 0.000000e+00 0.000000e+00 0.000000e+00 0.000000e+00 0.000000e+00 0.000000e+00 7.954532e-01 2.045468e-01 0.000000e+00 0.000000e+00 0.000000e+00 0.000000e+00 0.000000e+00 0.000000e+00 0.000000e+00 0.000000e+00 0.000000e+00
 0.000000e+00 0.000000e+00 0.000000e+00 0.000000e+00 0.000000e+00 0.000000e+00 0.000000e+00 0.000000e+00 0.000000e+00 0.000000e+00 7.886767e-01 2.113233e-01 0.000000e+00 0.000000e+00 0.000000e+00 0.000000e+00 0.000000e+00 0.000000e+00 0.000000e+00 0.000000e+00
 0.000000e+00 0.000000e+00 0.000000e+00 0.000000e+00 0.000000e+00 0.000000e+00 0.000000e+00 0.000000e+00 0.000000e+00 0.000000e+00 0.000000e+00 8.215851e-01 1.784150e-01 0.000000e+00 0.000000e+00 0.000000e+00 0.000000e+00 0.000000e+00 0.000000e+00 0.000000e+00
 0.000000e+00 0.000000e+00 0.000000e+00 0.000000e+00 0.000000e+00 0.000000e+00 0.000000e+00 0.000000e+00 0.000000e+00 0.000000e+00 0.000000e+00 0.000000e+00 7.324119e-01 2.675881e-01 0.000000e+00 0.000000e+00 0.000000e+00 0.000000e+00 0.000000e+00 0.000000e+00
 0.000000e+00 0.000000e+00 0.000000e+00 0.000000e+00 0.000000e+00 0.000000e+00 0.000000e+00 0.000000e+00 0.000000e+00 0.000000e+00 0.000000e+00 0.000000e+00 0.000000e+00 7.857488e-01 2.142512e-01 0.000000e+00 0.000000e+00 0.000000e+00 0.000000e+00 0.000000e+00
 0.000000e+00 0.000000e+00 0.000000e+00 0.000000e+00 0.000000e+00 0.000000e+00 0.000000e+00 0.000000e+00 0.000000e+00 0.000000e+00 0.000000e+00 0.000000e+00 0.000000e+00 0.000000e+00 8.201861e-01 1.798140e-01 0.000000e+00 0.000000e+00 0.000000e+00 0.000000e+00
 0.000000e+00 0.000000e+00 0.000000e+00 0.000000e+00 0.000000e+00 0.000000e+00 0.000000e+00 0.000000e+00 0.000000e+00 0.000000e+00 0.000000e+00 0.000000e+00 0.000000e+00 0.000000e+00 0.000000e+00 8.250969e-01 1.749031e-01 0.000000e+00 0.000000e+00 0.000000e+00
 0.000000e+00 0.000000e+00 0.000000e+00 0.000000e+00 0.000000e+00 0.000000e+00 0.000000e+00 0.000000e+00 0.000000e+00 0.000000e+00 0.000000e+00 0.000000e+00 0.000000e+00 0.000000e+00 0.000000e+00 0.000000e+00 8.481179e-01 1.518820e-01 0.000000e+00 0.000000e+00
 0.000000e+00 0.000000e+00 0.000000e+00 0.000000e+00 0.000000e+00 0.000000e+00 0.000000e+00 0.000000e+00 0.000000e+00 0.000000e+00 0.000000e+00 0.000000e+00 0.000000e+00 0.000000e+00 0.000000e+00 0.000000e+00 0.000000e+00 8.062457e-01 1.937543e-01 0.000000e+00
 0.000000e+00 0.000000e+00 0.000000e+00 0.000000e+00 0.000000e+00 0.000000e+00 0.000000e+00 0.000000e+00 0.000000e+00 0.000000e+00 0.000000e+00 0.000000e+00 0.000000e+00 0.000000e+00 0.000000e+00 0.000000e+00 0.000000e+00 0.000000e+00 7.541612e-01 2.458388e-01
 0.000000e+00 0.000000e+00 0.000000e+00 0.000000e+00 0.000000e+00 0.000000e+00 0.000000e+00 0.000000e+00 0.000000e+00 0.000000e+00 0.000000e+00 0.000000e+00 0.000000e+00 0.000000e+00 0.000000e+00 0.000000e+00 0.000000e+00 0.000000e+00 0.000000e+00 0.000000e+00
<ENDHMM>
