~o
<STREAMINFO> 1 39
<VECSIZE> 39<NULLD><MFCC_D_A_0><DIAGC>
~h "enam"
<BEGINHMM>
<NUMSTATES> 5
<STATE> 2
<MEAN> 39
 -5.158514e+00 -2.968070e+00 4.806854e-01 -3.205900e+00 -9.475800e-01 -9.691658e+00 -5.699140e+00 -6.037981e+00 -4.083633e-01 -9.625077e+00 -3.469887e+00 -5.495218e+00 6.516988e+01 7.825748e-01 -2.075109e-01 -1.966982e-01 -8.217465e-02 1.758371e-01 -1.665772e-01 -4.350030e-01 1.354223e-01 6.567304e-02 -1.429601e-01 -2.420691e-01 -6.136350e-02 7.015201e-01 2.736977e-03 -8.301166e-03 -1.610675e-02 -6.938247e-03 2.870179e-02 6.451319e-03 1.022895e-02 -8.463624e-03 -2.185149e-02 -2.462936e-02 2.810883e-03 2.421899e-02 8.168320e-03
<VARIANCE> 39
 7.454282e+01 6.186383e+01 5.696300e+01 2.580047e+01 5.261153e+01 6.315381e+01 6.309767e+01 7.419924e+01 4.123984e+01 9.284932e+01 1.015936e+02 4.914108e+01 4.539789e+01 1.660677e+00 4.174182e+00 3.150272e+00 2.367524e+00 3.698446e+00 3.323603e+00 3.321116e+00 4.437374e+00 3.396701e+00 4.294713e+00 3.814497e+00 3.351779e+00 1.355229e+00 2.394871e-01 5.719720e-01 4.155169e-01 3.891015e-01 5.014452e-01 4.914637e-01 5.700983e-01 6.906887e-01 6.385329e-01 7.071905e-01 5.618367e-01 4.884079e-01 2.281324e-01
<GCONST> 1.295163e+02
<STATE> 3
<MEAN> 39
 1.546885e+00 -3.806871e+00 -3.995249e+00 -5.737494e+00 1.983892e+00 -5.632195e+00 -8.489223e+00 -1.180832e+01 -1.987068e+00 -1.203701e+01 -3.619567e+00 -7.154627e+00 7.033332e+01 -2.288930e-01 6.062685e-01 3.874923e-01 1.573714e-01 -5.117973e-02 2.171078e-01 2.159251e-01 -5.515898e-01 -4.085246e-01 -5.533850e-02 1.209533e-01 2.398253e-02 -4.106055e-01 -4.319384e-02 7.196273e-03 2.323546e-02 2.606604e-02 -1.731090e-02 -1.662544e-03 1.507343e-02 3.933950e-02 3.508489e-02 3.466311e-02 2.082294e-03 -1.435928e-02 -3.606945e-02
<VARIANCE> 39
 5.048544e+00 5.532274e+01 5.606287e+01 2.423709e+01 4.732075e+01 4.005384e+01 5.042954e+01 1.019286e+02 8.994250e+01 5.820959e+01 7.946758e+01 5.122179e+01 1.899078e+01 2.261582e-01 1.288466e+00 1.428028e+00 1.103598e+00 1.361319e+00 1.117262e+00 1.836402e+00 2.760759e+00 2.325017e+00 1.513869e+00 1.518002e+00 1.465543e+00 2.692959e-01 2.259781e-02 1.436853e-01 2.075499e-01 1.562690e-01 1.956051e-01 1.954679e-01 3.556658e-01 3.898677e-01 3.526555e-01 2.987998e-01 3.002594e-01 2.145211e-01 2.416590e-02
<GCONST> 9.933124e+01
<STATE> 4
<MEAN> 39
 -1.229248e+01 -5.806595e-01 2.024129e+00 -1.234926e+00 3.453944e+00 -1.136140e+00 1.309407e+00 -9.443888e+00 -4.188536e+00 -9.574837e+00 -1.491197e+00 -7.367379e+00 5.878236e+01 -4.500475e-01 -3.598819e-01 -1.905830e-01 -7.178238e-02 -5.902037e-02 6.113352e-03 1.872530e-01 3.555572e-01 2.653733e-01 1.600826e-01 1.210095e-01 5.861585e-02 -2.302101e-01 3.095911e-02 -9.991867e-03 -1.842001e-02 -2.149365e-02 -3.975704e-03 -3.167211e-03 -2.679668e-02 -3.416697e-02 -1.101419e-02 1.488783e-02 1.729858e-02 3.859973e-03 2.270973e-02
<VARIANCE> 39
 1.589140e+01 1.896637e+01 1.878410e+01 2.551883e+01 2.682600e+01 2.977590e+01 3.145402e+01 4.452625e+01 4.268621e+01 3.347738e+01 3.070940e+01 2.614364e+01 3.881298e+00 2.207556e-01 4.320229e-01 6.899239e-01 1.136639e+00 1.239095e+00 1.412035e+00 1.643481e+00 2.322090e+00 1.698025e+00 1.939948e+00 1.869233e+00 1.737847e+00 1.023689e-01 2.681423e-02 9.643420e-02 1.349641e-01 1.960385e-01 2.016188e-01 2.433537e-01 2.985347e-01 4.601553e-01 3.300035e-01 3.740676e-01 3.472851e-01 3.339345e-01 1.197953e-02
<GCONST> 8.893106e+01
<TRANSP> 5
 0.000000e+00 1.000000e+00 0.000000e+00 0.000000e+00 0.000000e+00
 0.000000e+00 9.604260e-01 3.957395e-02 0.000000e+00 0.000000e+00
 0.000000e+00 0.000000e+00 9.624319e-01 3.756811e-02 0.000000e+00
 0.000000e+00 0.000000e+00 0.000000e+00 9.660395e-01 3.396047e-02
 0.000000e+00 0.000000e+00 0.000000e+00 0.000000e+00 0.000000e+00
<ENDHMM>
