~o
<STREAMINFO> 1 39
<VECSIZE> 39<NULLD><MFCC_D_A_0><DIAGC>
~h "jam"
<BEGINHMM>
<NUMSTATES> 20
<STATE> 2
<MEAN> 39
 -1.681593e+01 -5.729586e+00 -8.607601e-01 -2.003758e+00 3.949822e+00 -3.403281e-01 2.884804e+00 -4.919969e+00 4.625922e-01 -7.994421e+00 -2.270042e+00 -8.106825e+00 5.685474e+01 1.488566e+00 1.913354e+00 1.726482e+00 1.337092e+00 5.835981e-01 -1.746496e-01 -9.202578e-01 -1.463648e+00 -1.831671e+00 -1.286269e+00 -9.738730e-01 -6.458284e-01 5.973300e-01 3.480208e-01 5.754071e-01 4.959550e-01 2.510225e-01 -1.931460e-02 -3.365431e-01 -2.987646e-01 -4.078807e-01 -4.724325e-01 -2.641276e-01 -2.073505e-01 -2.297883e-01 1.852708e-01
<VARIANCE> 39
 4.692434e+00 8.904820e+00 8.752555e+00 1.332621e+01 1.563515e+01 1.305044e+01 2.320438e+01 2.379262e+01 2.047761e+01 1.651311e+01 1.967744e+01 1.682843e+01 8.436035e-01 1.393575e+00 2.925003e+00 2.610424e+00 1.295310e+00 8.508857e-01 1.737013e+00 3.175611e+00 3.347924e+00 4.054902e+00 3.364010e+00 3.285982e+00 2.086151e+00 2.279483e-01 1.544070e-01 2.143059e-01 2.291681e-01 1.715110e-01 1.923807e-01 2.712357e-01 4.494494e-01 4.852573e-01 6.250019e-01 5.303676e-01 3.410846e-01 2.960182e-01 1.732316e-02
<GCONST> 9.312059e+01
<STATE> 3
<MEAN> 39
 -7.411260e+00 6.312054e+00 9.435940e+00 3.799484e+00 4.114392e+00 -4.967590e+00 -3.068173e+00 -1.175742e+01 -7.371925e+00 -1.453439e+01 -6.966660e+00 -1.133931e+01 6.096133e+01 1.897554e-01 1.083375e+00 5.185896e-01 1.509179e-01 4.747106e-01 -8.595578e-01 2.539557e-01 -6.623861e-01 -1.136702e-01 1.289464e-03 -4.285510e-02 1.895263e-02 6.444746e-01 -8.049788e-01 -3.718351e-01 -5.762720e-01 -6.014642e-01 8.368769e-02 -4.299337e-01 4.381359e-01 1.699474e-01 5.088340e-01 4.611577e-01 4.609955e-01 3.402915e-01 1.094754e-01
<VARIANCE> 39
 7.530482e+00 1.013889e+01 8.523351e+00 1.959511e+01 3.348353e+01 4.915075e+01 4.617820e+01 3.136048e+01 5.351995e+01 7.029716e+01 6.705022e+01 4.705125e+01 1.628868e+00 3.865042e+00 2.785028e+00 2.665028e+00 2.043227e+00 1.564522e+00 2.587863e+00 3.004785e+00 2.971583e+00 3.265701e+00 4.699749e+00 2.348495e+00 2.998610e+00 3.685394e-01 1.946149e-01 4.773517e-01 3.536376e-01 4.946523e-01 4.284084e-01 1.074841e+00 4.438410e-01 8.539564e-01 5.727287e-01 7.817520e-01 5.252318e-01 5.266790e-01 1.710782e-01
<GCONST> 1.142158e+02
<STATE> 4
<MEAN> 39
 -1.649228e+01 7.969876e+00 5.481421e+00 -1.405185e+00 1.138737e+01 -1.202463e+01 2.818344e+00 -1.413544e+01 -2.831520e+00 -9.985763e+00 -3.515413e+00 -8.082443e+00 6.526978e+01 -1.421569e+00 1.234887e+00 -1.111180e-01 -2.766291e+00 -1.378352e+00 -5.829204e+00 -7.093123e-01 -3.762116e-01 2.029700e-01 1.296061e+00 3.094159e+00 1.963722e+00 2.517599e+00 1.079932e+00 -6.549788e-01 5.572940e-01 4.944301e-02 -1.976750e+00 -7.781082e-01 -6.422616e-01 1.153216e+00 -5.630053e-01 -1.224145e-01 8.376513e-01 3.228259e-01 3.335897e-01
<VARIANCE> 39
 2.043252e+01 3.492307e+01 3.819219e+01 5.728555e+01 4.373860e+01 7.187860e+01 3.943157e+01 6.495486e+01 6.357768e+01 5.742490e+01 1.016738e+02 5.936501e+01 1.538734e+01 4.066831e+00 1.283474e+00 5.235633e+00 3.781202e+00 1.130502e+01 3.121249e+00 4.385495e+00 8.597196e+00 5.388548e+00 6.583387e+00 8.654201e+00 5.019899e+00 4.055180e-01 5.847025e-01 6.775202e-01 5.947163e-01 1.202796e+00 9.317259e-01 9.350429e-01 4.483185e-01 1.286185e+00 1.511062e+00 8.193200e-01 8.396987e-01 7.926458e-01 1.592580e-01
<GCONST> 1.357700e+02
<STATE> 5
<MEAN> 39
 -1.214448e+01 6.853711e+00 1.180059e+01 -5.518126e+00 -6.891457e+00 -3.102924e+01 -2.150737e+00 -6.773800e+00 -8.151669e+00 -7.605191e+00 1.162322e+01 -7.429106e-01 7.331872e+01 2.864520e+00 -3.373578e+00 1.271697e+00 -5.503635e-02 -5.899131e+00 -3.474878e+00 -4.325335e-01 4.407865e+00 -1.059353e+00 1.237436e-01 2.576267e+00 1.308002e+00 2.397340e+00 3.915941e-01 -1.141935e+00 -7.800871e-01 5.357266e-01 1.026688e+00 1.911061e+00 5.350402e-01 5.495870e-01 5.687435e-01 -2.257236e-01 -1.469426e+00 -8.755155e-01 -3.920427e-01
<VARIANCE> 39
 2.656824e+01 2.726348e+01 7.892941e+01 4.891158e+01 1.297840e+02 2.847774e+01 2.787269e+01 1.353260e+02 2.829327e+01 6.300841e+01 1.824303e+02 5.382557e+01 1.214166e+01 1.198276e+00 2.602080e+00 4.262349e+00 2.513103e+00 7.618818e+00 6.595511e+00 3.706116e+00 5.089653e+00 1.359011e+01 2.615570e+00 6.118149e+00 3.595231e+00 6.698195e-01 7.395533e-01 3.504331e-01 1.049592e+00 7.278665e-01 2.658338e+00 4.263634e-01 3.232352e-01 1.733658e+00 9.681746e-01 8.687429e-01 8.552878e-01 6.013718e-01 6.179637e-02
<GCONST> 1.330744e+02
<STATE> 6
<MEAN> 39
 -5.850684e+00 -4.908560e+00 9.895749e+00 -4.688830e+00 -1.338732e+01 -3.210930e+01 1.661357e-01 5.573801e+00 -6.273627e+00 -8.675402e+00 1.031005e+01 -2.233558e+00 7.737512e+01 1.362924e+00 -3.614529e+00 -2.167189e+00 8.854578e-02 1.219404e+00 1.908251e+00 6.948762e-02 1.852289e+00 1.158076e+00 2.281746e-02 -2.211330e+00 -1.584517e+00 7.548143e-01 -4.133186e-01 4.226932e-01 -6.528752e-01 -1.332676e-01 1.727652e+00 1.193003e+00 -3.020213e-01 -1.386278e+00 9.328380e-02 -3.492519e-03 -9.774722e-01 -6.589506e-01 -4.436245e-01
<VARIANCE> 39
 6.185068e+00 2.013382e+01 9.210564e+01 2.225558e+01 7.068772e+01 5.350474e+01 3.656459e+01 1.018611e+02 7.696065e+01 2.813969e+01 1.867218e+02 4.349834e+01 1.301486e+01 4.366066e-01 9.589232e-01 3.814531e+00 1.906301e+00 4.015449e+00 3.142665e+00 1.584729e+00 5.164322e+00 3.042826e+00 3.597946e+00 1.561866e+00 2.916920e+00 2.143525e-01 5.438176e-02 1.639532e-01 4.882407e-01 2.541658e-01 7.189460e-01 4.229673e-01 3.383744e-01 7.012935e-01 1.014014e+00 2.534530e-01 3.216763e-01 4.246252e-01 4.584527e-02
<GCONST> 1.120897e+02
<STATE> 7
<MEAN> 39
 -2.387970e+00 -1.364554e+01 1.379427e-01 -6.301671e+00 -2.695282e+00 -2.234630e+01 -2.785700e+00 3.554440e+00 -4.188720e+00 -8.134304e+00 -7.232363e-01 -9.721256e+00 7.806246e+01 8.817092e-01 -1.447893e+00 -1.999443e+00 -5.296821e-01 1.979923e+00 3.255680e+00 -5.588463e-01 -8.873272e-01 4.431728e-01 6.026273e-01 -2.297819e+00 -2.475903e+00 -2.797791e-02 -1.143593e-01 6.507519e-01 3.651871e-01 -8.453669e-02 -4.088397e-01 7.825556e-02 -5.205324e-02 -4.542253e-01 -1.032324e-01 3.105925e-01 4.656105e-01 1.091623e-01 -1.840919e-01
<VARIANCE> 39
 3.883592e+00 9.777645e+00 8.200126e+01 7.257664e+00 5.637571e+01 6.588406e+01 4.376562e+01 1.035045e+02 8.363427e+01 3.522637e+01 2.090481e+02 5.579044e+01 9.780620e+00 1.220147e-01 9.148240e-01 9.973052e-01 7.609054e-01 1.483470e+00 2.215988e+00 1.390716e+00 4.300867e+00 1.944192e+00 2.141613e+00 1.623229e+00 1.173753e+00 1.187337e-01 1.844119e-02 6.971341e-02 1.354880e-01 1.546628e-01 1.974826e-01 2.276440e-01 1.674754e-01 4.559214e-01 3.544197e-01 5.157393e-01 2.169951e-01 4.602455e-01 1.668626e-02
<GCONST> 9.413155e+01
<STATE> 8
<MEAN> 39
 7.276256e-02 -1.529117e+01 -4.218407e+00 -8.905732e+00 -1.501285e+00 -7.500137e+00 -4.828575e+00 -2.074398e+00 -3.373708e+00 -1.262554e+00 -2.482754e+00 -1.688625e+01 7.677466e+01 3.698145e-01 4.236163e-01 -6.041596e-01 -4.021067e-01 2.584690e-01 1.554522e+00 -7.027633e-01 -1.335689e+00 6.943766e-01 7.148240e-01 -1.618110e-01 -2.808248e-01 -5.520299e-01 -8.042824e-02 3.167957e-01 2.083158e-01 3.288213e-02 -2.064335e-01 -4.510008e-01 2.411904e-02 8.084390e-02 -5.067382e-02 -1.903739e-01 3.305384e-01 3.181049e-01 -1.074740e-01
<VARIANCE> 39
 2.735924e+00 1.005688e+01 4.711620e+01 7.589215e+00 6.310089e+01 1.336329e+02 3.383752e+01 8.247576e+01 6.911798e+01 1.870028e+01 8.498912e+01 1.938797e+01 8.366969e+00 1.206998e-01 4.713483e-01 3.739532e-01 6.013397e-01 8.289057e-01 1.435129e+00 1.127619e+00 1.167910e+00 1.033097e+00 1.183049e+00 1.221478e+00 1.613334e+00 9.393662e-02 2.078047e-02 4.425503e-02 7.444544e-02 9.045973e-02 1.706385e-01 2.042126e-01 2.026678e-01 3.219635e-01 2.809105e-01 1.464888e-01 1.726937e-01 1.649970e-01 8.639798e-03
<GCONST> 7.956665e+01
<STATE> 9
<MEAN> 39
 1.361464e+00 -1.112443e+01 -6.418184e+00 -1.077875e+01 -5.881129e-02 -5.088362e+00 -7.990702e+00 -7.771996e+00 9.387208e-01 -1.030093e+00 -2.748434e+00 -1.575287e+01 7.376530e+01 5.473743e-02 2.124510e+00 7.688215e-01 2.711000e-01 -4.565718e-01 -1.587265e-01 -4.211530e-01 -1.023679e+00 -5.307549e-01 -3.381837e-01 9.328318e-01 8.471745e-01 -1.222145e+00 -1.288993e-01 2.927336e-01 5.467919e-01 5.285034e-01 9.003098e-02 -3.223189e-01 6.940253e-02 9.984209e-02 -5.612305e-01 -5.287936e-01 -2.566366e-01 2.469134e-01 -7.521846e-02
<VARIANCE> 39
 2.188710e+00 8.256244e+00 5.515053e+01 8.452949e+00 1.953263e+01 9.144555e+01 4.243998e+01 6.766651e+01 4.039850e+01 1.886755e+01 1.189881e+02 1.437550e+01 5.011836e+00 1.033288e-01 3.356299e-01 1.055229e+00 1.077245e+00 2.599847e+00 9.682618e-01 9.871569e-01 3.516697e+00 1.331001e+00 2.029821e+00 1.418547e+00 1.640229e+00 6.961254e-02 2.320728e-02 9.907318e-02 6.542937e-02 8.900014e-02 8.620381e-02 1.372377e-01 1.783905e-01 3.457065e-01 1.951229e-01 5.978773e-01 3.971873e-01 2.825033e-01 1.248076e-02
<GCONST> 8.280350e+01
<STATE> 10
<MEAN> 39
 8.084760e-01 -4.075279e+00 -2.001751e-01 -6.894467e+00 2.997080e-02 -5.167634e+00 -8.098247e+00 -8.941693e+00 -3.600183e+00 -3.736604e+00 -1.048494e+00 -1.315522e+01 7.020023e+01 -1.515777e-01 1.773239e+00 1.173807e+00 8.389497e-01 3.773634e-01 -2.359663e-01 -4.863614e-01 -6.361544e-01 -1.993721e+00 -1.875493e+00 -6.144877e-01 2.386886e-01 -8.545861e-01 -2.620133e-02 -2.329340e-01 -2.127710e-01 -1.187293e-01 1.979754e-01 1.427271e-01 -5.099934e-02 -7.661969e-04 -1.269105e-01 -2.160607e-01 -2.006600e-01 -9.067529e-02 1.376781e-01
<VARIANCE> 39
 2.338989e+00 5.040889e+00 3.712501e+01 1.351378e+01 1.190089e+01 6.196011e+01 4.509104e+01 3.328325e+01 3.283344e+01 3.249799e+01 1.055598e+02 2.408860e+01 2.341718e+00 9.224038e-02 4.403771e-01 1.037593e+00 8.050022e-01 1.595003e+00 1.046118e+00 1.443587e+00 2.874124e+00 1.218960e+00 1.964046e+00 1.377596e+00 2.283506e+00 1.033034e-01 1.274446e-02 4.477692e-02 7.348309e-02 1.590583e-01 1.358221e-01 1.325211e-01 1.645789e-01 1.553496e-01 1.536259e-01 2.416425e-01 2.779058e-01 3.341474e-01 6.928563e-03
<GCONST> 7.800015e+01
<STATE> 11
<MEAN> 39
 3.569506e-01 4.265607e-01 -4.010227e-02 -4.988076e+00 1.893542e+00 -6.207637e+00 -1.029762e+01 -1.357005e+01 -1.073078e+01 -1.272546e+01 -5.956789e+00 -1.351507e+01 6.771844e+01 -2.341997e-01 1.014229e+00 4.213963e-01 5.743551e-01 5.506014e-01 1.167945e-02 -3.214327e-01 -1.078930e+00 -8.514424e-01 -8.033053e-01 1.899412e-01 3.587834e-01 -6.192937e-01 -3.966969e-02 -1.046835e-01 -5.954173e-02 4.143182e-02 8.481080e-03 2.550258e-02 1.332525e-01 1.017669e-02 4.819411e-01 3.960346e-01 1.267173e-01 -4.735472e-02 7.255679e-03
<VARIANCE> 39
 2.988686e+00 4.472687e+00 2.398494e+01 8.419908e+00 2.115769e+01 3.090504e+01 3.238795e+01 5.086699e+01 2.039657e+01 7.012787e+01 1.501544e+02 5.134520e+01 1.492671e+00 1.705925e-01 5.065718e-01 8.642022e-01 7.747309e-01 9.843421e-01 9.453319e-01 8.237442e-01 2.214182e+00 1.499536e+00 1.660648e+00 1.402081e+00 1.855820e+00 4.567898e-02 3.020183e-02 1.107531e-01 1.108389e-01 8.937441e-02 1.207459e-01 2.296817e-01 2.010297e-01 2.462992e-01 2.576423e-01 1.953194e-01 2.429850e-01 3.048308e-01 1.219469e-02
<GCONST> 7.964186e+01
<STATE> 12
<MEAN> 39
 -6.918892e-01 3.768476e+00 1.248954e+00 -2.731254e+00 2.044699e+00 -7.478872e+00 -1.369341e+01 -1.966987e+01 -1.003062e+01 -1.364740e+01 -6.739391e+00 -1.366137e+01 6.528738e+01 -5.554955e-01 6.235508e-01 3.808567e-01 4.359552e-01 5.607573e-01 8.186235e-01 6.377705e-01 -3.189585e-01 2.592856e-01 -4.731006e-01 -7.967746e-02 9.731517e-02 -6.597900e-01 -1.577324e-01 -2.003674e-01 -9.050001e-02 -1.279324e-01 4.035434e-02 1.154973e-01 3.118246e-01 3.618459e-01 1.040392e-01 6.619282e-02 1.279710e-02 6.317762e-02 -3.970727e-02
<VARIANCE> 39
 2.004622e+00 7.103251e+00 2.181560e+01 1.086124e+01 1.322464e+01 1.826476e+01 2.042151e+01 3.018504e+01 2.034945e+01 5.321426e+01 6.460623e+01 4.628922e+01 1.028555e+00 1.145534e-01 2.197831e-01 2.850412e-01 1.028688e+00 5.752179e-01 1.091411e+00 1.651435e+00 9.095642e-01 1.294480e+00 1.177699e+00 1.242783e+00 1.073387e+00 4.613860e-02 1.230455e-02 2.231674e-02 6.952869e-02 1.800714e-01 1.356862e-01 2.066693e-01 2.233069e-01 1.370771e-01 1.653237e-01 3.045295e-01 1.168264e-01 1.410081e-01 3.545136e-03
<GCONST> 6.701907e+01
<STATE> 13
<MEAN> 39
 -3.346315e+00 6.939279e+00 3.268433e+00 -1.191836e+00 1.020772e+01 9.663856e-01 -5.952051e+00 -1.384689e+01 -6.497746e+00 -9.636991e+00 -9.991938e-01 -7.157894e+00 6.258166e+01 -8.087167e-01 3.601669e-01 -2.851079e-01 -3.763698e-02 5.656589e-01 6.119105e-01 3.495766e-01 1.074948e-02 7.682087e-01 9.708712e-02 -4.840031e-01 4.463711e-01 -7.982492e-01 -6.768298e-02 -1.386965e-01 -1.044508e-02 -1.281640e-01 -2.538256e-01 -8.407860e-02 -1.074588e-01 -1.044439e-01 -7.993299e-03 1.694909e-01 -2.555625e-03 -3.277813e-02 1.889699e-02
<VARIANCE> 39
 3.854368e+00 1.287334e+01 2.039429e+01 2.247435e+01 3.451421e+01 3.461314e+01 2.148815e+01 7.722455e+01 2.187930e+01 3.099191e+01 3.943778e+01 3.825727e+01 2.308554e+00 1.738605e-01 4.498179e-01 3.434359e-01 6.478234e-01 1.286572e+00 1.436592e+00 1.213784e+00 9.749658e-01 1.128942e+00 1.204447e+00 1.389417e+00 7.758124e-01 3.577157e-02 9.414804e-03 2.254091e-02 1.001301e-01 1.449179e-01 1.374605e-01 2.601370e-01 2.283853e-01 1.738693e-01 1.562757e-01 2.808552e-01 1.935178e-01 1.942774e-01 4.216157e-03
<GCONST> 7.354340e+01
<STATE> 14
<MEAN> 39
 -6.968368e+00 3.772302e+00 1.818438e+00 -3.154691e+00 2.440299e+00 -4.253813e+00 -7.892786e+00 -1.859951e+01 -9.930539e+00 -1.573665e+01 -9.010758e+00 -1.329393e+01 6.066063e+01 -8.896871e-01 -8.049867e-02 4.618854e-01 3.198271e-01 -1.302546e-01 5.123393e-01 4.750761e-01 -2.666624e-01 1.498051e-01 2.541017e-01 1.275332e-01 9.435499e-02 -5.584791e-01 5.065862e-02 -1.094106e-02 4.153169e-02 1.452313e-01 6.174250e-02 3.636779e-03 4.426036e-02 1.655409e-02 -6.762605e-03 -7.465217e-02 -2.212500e-02 -4.364463e-02 7.022049e-02
<VARIANCE> 39
 2.552933e+00 1.142057e+01 1.158419e+01 1.078576e+01 3.502062e+01 2.624956e+01 2.023456e+01 3.112795e+01 3.282791e+01 6.142646e+01 4.380556e+01 6.077564e+01 1.239843e+00 1.738701e-01 2.731298e-01 4.361198e-01 8.118653e-01 7.676752e-01 1.136163e+00 1.427866e+00 1.533280e+00 1.296386e+00 1.610550e+00 1.259408e+00 1.091379e+00 6.071791e-02 3.049988e-02 6.212842e-02 1.005553e-01 1.686957e-01 1.341881e-01 1.370239e-01 2.920543e-01 3.128207e-01 2.632951e-01 3.839239e-01 2.388790e-01 2.732498e-01 7.839845e-03
<GCONST> 7.706808e+01
<STATE> 15
<MEAN> 39
 -1.091945e+01 2.327943e+00 3.768097e+00 2.742168e-01 4.841193e+00 -1.485947e+00 -4.353940e+00 -1.696287e+01 -8.599248e+00 -1.373754e+01 -6.668975e+00 -1.070727e+01 5.875217e+01 -5.962160e-01 -2.518375e-01 1.325917e-01 1.584495e-01 3.561814e-01 4.469670e-01 7.932619e-01 5.749101e-01 -1.634313e-01 -1.278546e-01 -1.037649e-01 -3.122659e-01 -2.449032e-01 7.535101e-02 3.261571e-02 -4.318536e-02 -1.013191e-01 8.117416e-02 1.698658e-01 4.343729e-02 7.479039e-02 2.957385e-02 2.676997e-02 -1.189863e-01 -1.932576e-01 3.454117e-02
<VARIANCE> 39
 5.639037e+00 2.081505e+01 1.613356e+01 2.264874e+01 3.011308e+01 2.565413e+01 2.148701e+01 3.124181e+01 3.764159e+01 3.914240e+01 1.741601e+01 2.581067e+01 7.629825e-01 1.709703e-01 4.578392e-01 4.781618e-01 8.502916e-01 1.082763e+00 1.203741e+00 1.043453e+00 6.614695e-01 1.862581e+00 2.383405e+00 1.553303e+00 1.697831e+00 4.453966e-02 3.535448e-02 1.106216e-01 1.169475e-01 1.570828e-01 2.010714e-01 2.938390e-01 2.531243e-01 8.279760e-02 4.866793e-01 3.566408e-01 2.466267e-01 1.670225e-01 1.141731e-02
<GCONST> 7.878265e+01
<STATE> 16
<MEAN> 39
 -1.232340e+01 6.704463e+00 4.936551e+00 -1.765383e+00 1.169570e+01 9.310954e+00 -6.951205e-01 -1.737678e+01 -4.599681e+00 -7.574411e+00 -4.604430e+00 -1.135941e+01 5.678725e+01 -6.560509e-01 -6.064867e-01 -1.804772e-01 -4.068359e-01 -1.149146e-01 8.402381e-01 9.610302e-01 3.242487e-01 -3.716893e-03 5.031587e-01 2.465970e-01 -4.887938e-01 -2.457807e-01 3.974668e-02 -1.599442e-01 -1.345550e-01 4.459009e-02 -2.498089e-02 -1.482647e-01 -1.961557e-02 6.423212e-02 3.481654e-02 2.546965e-02 7.209604e-02 2.981704e-01 5.018552e-02
<VARIANCE> 39
 5.582289e+00 1.463491e+01 8.676147e+00 1.794338e+01 4.216647e+01 4.040648e+01 3.056708e+01 6.323707e+01 4.282464e+01 8.000007e+01 3.727564e+01 2.660066e+01 1.233306e+00 1.868975e-01 4.900201e-01 6.874497e-01 1.028047e+00 3.263228e+00 2.601165e+00 1.784013e+00 2.042003e+00 2.791118e+00 1.539385e+00 1.890027e+00 2.106333e+00 5.483539e-02 2.412212e-02 6.587246e-02 8.616739e-02 1.266066e-01 4.509531e-01 2.617999e-01 2.393476e-01 2.876296e-01 4.565985e-01 3.250270e-01 3.023066e-01 2.881367e-01 4.614756e-03
<GCONST> 8.651115e+01
<STATE> 17
<MEAN> 39
 -1.435827e+01 -2.434996e-01 2.750779e+00 -3.760551e-01 8.082106e+00 5.392455e+00 3.906860e+00 -1.115740e+01 -5.988088e+00 -1.293171e+01 -9.113039e+00 -1.461427e+01 5.737632e+01 -3.009816e-01 -4.939701e-01 -5.826509e-01 -9.212150e-02 2.208792e-01 5.407786e-01 8.704768e-01 1.083466e+00 1.346056e+00 9.018249e-01 7.583083e-02 2.169974e-01 -1.353765e-01 -2.021359e-02 -6.216867e-02 -1.061430e-01 -9.572107e-02 -2.277716e-01 -3.575442e-01 -2.849869e-01 1.669981e-01 2.816665e-02 1.508816e-03 2.702590e-01 7.209060e-02 -1.787142e-02
<VARIANCE> 39
 1.270923e+00 6.353169e+00 8.516558e+00 2.472374e+01 1.725021e+01 1.983695e+01 3.356181e+01 3.506089e+01 3.907749e+01 6.442252e+01 7.739135e+01 2.306363e+01 6.463535e-01 1.265243e-01 7.202235e-01 1.133857e+00 9.070684e-01 1.569757e+00 1.216710e+00 1.925496e+00 1.505797e+00 1.172324e+00 2.805220e+00 2.694533e+00 1.135604e+00 4.139372e-02 1.546318e-02 8.563616e-02 1.465115e-01 1.474090e-01 3.867036e-01 1.689942e-01 3.023607e-01 4.589684e-01 3.660571e-01 7.354186e-01 3.761374e-01 1.837954e-01 6.090913e-03
<GCONST> 8.112166e+01
<STATE> 18
<MEAN> 39
 -1.505274e+01 -1.467707e+00 -4.287234e-01 -1.903911e+00 8.734524e+00 6.428997e+00 4.691268e+00 -6.517801e+00 -9.456910e-01 -6.967599e+00 -2.148405e+00 -1.016986e+01 5.690616e+01 -3.137904e-01 -8.201135e-01 -3.473695e-01 -4.361553e-02 -5.975127e-01 -9.910921e-01 -4.230783e-01 7.784280e-01 3.228681e-01 -4.070855e-01 3.783678e-01 7.889399e-01 -6.200609e-02 -5.644620e-02 1.913536e-02 3.227759e-01 1.428641e-01 4.661875e-03 -1.624115e-01 -8.868995e-02 -3.269534e-01 -3.533315e-01 -3.805953e-01 -2.384458e-01 -9.253813e-02 -2.113766e-02
<VARIANCE> 39
 1.258657e+00 5.435543e+00 8.314453e+00 3.016950e+01 1.906725e+01 2.045151e+01 1.798925e+01 3.089400e+01 1.934119e+01 2.013799e+01 4.770926e+01 4.638503e+01 6.352915e-01 1.832499e-01 4.296216e-01 7.556182e-01 9.856943e-01 1.618196e+00 1.224208e+00 8.181288e-01 2.036469e+00 1.466727e+00 1.896507e+00 2.075555e+00 1.580346e+00 5.295194e-02 3.590503e-02 3.544927e-02 1.242579e-01 1.394703e-01 2.766753e-01 2.783762e-01 1.814892e-01 1.849068e-01 2.893896e-01 1.778430e-01 5.007760e-01 4.779924e-01 9.257625e-03
<GCONST> 7.649606e+01
<STATE> 19
<MEAN> 39
 -1.811387e+01 -3.953561e+00 1.684293e+00 5.974965e-01 9.477755e+00 5.142560e+00 4.070872e+00 -7.335650e+00 -3.710285e+00 -1.167448e+01 -6.412782e+00 -1.163184e+01 5.551986e+01 -5.025736e-01 -6.276665e-01 6.189330e-02 2.899125e-01 8.408013e-02 4.905781e-02 4.491039e-01 3.026833e-01 7.225309e-02 1.049188e-01 -2.203523e-01 -3.109463e-01 -1.630089e-01 7.863490e-02 1.003610e-01 -2.377460e-02 -4.452430e-02 1.663753e-02 1.049148e-01 1.649115e-02 -1.211096e-01 3.507442e-02 1.125002e-01 4.608495e-02 1.323430e-02 3.206281e-02
<VARIANCE> 39
 4.033320e+00 1.258656e+01 1.105189e+01 2.859796e+01 3.363277e+01 3.249856e+01 2.545134e+01 2.381325e+01 3.183608e+01 2.641331e+01 2.500805e+01 3.694139e+01 7.935327e-01 2.330963e-01 3.351830e-01 8.173662e-01 6.239521e-01 7.661512e-01 1.741863e+00 1.547396e+00 2.276313e+00 1.765682e+00 2.816410e+00 2.805985e+00 3.280395e+00 5.660367e-02 4.281897e-02 5.789008e-02 1.357627e-01 1.025693e-01 2.275941e-01 4.104398e-01 3.907141e-01 3.192797e-01 3.468849e-01 4.811005e-01 4.559051e-01 6.331762e-01 1.084158e-02
<GCONST> 8.508930e+01
<TRANSP> 20
 0.000000e+00 1.000000e+00 0.000000e+00 0.000000e+00 0.000000e+00 0.000000e+00 0.000000e+00 0.000000e+00 0.000000e+00 0.000000e+00 0.000000e+00 0.000000e+00 0.000000e+00 0.000000e+00 0.000000e+00 0.000000e+00 0.000000e+00 0.000000e+00 0.000000e+00 0.000000e+00
 0.000000e+00 7.330642e-01 2.669357e-01 0.000000e+00 0.000000e+00 0.000000e+00 0.000000e+00 0.000000e+00 0.000000e+00 0.000000e+00 0.000000e+00 0.000000e+00 0.000000e+00 0.000000e+00 0.000000e+00 0.000000e+00 0.000000e+00 0.000000e+00 0.000000e+00 0.000000e+00
 0.000000e+00 0.000000e+00 8.065827e-01 1.934173e-01 0.000000e+00 0.000000e+00 0.000000e+00 0.000000e+00 0.000000e+00 0.000000e+00 0.000000e+00 0.000000e+00 0.000000e+00 0.000000e+00 0.000000e+00 0.000000e+00 0.000000e+00 0.000000e+00 0.000000e+00 0.000000e+00
 0.000000e+00 0.000000e+00 0.000000e+00 6.672394e-01 3.327607e-01 0.000000e+00 0.000000e+00 0.000000e+00 0.000000e+00 0.000000e+00 0.000000e+00 0.000000e+00 0.000000e+00 0.000000e+00 0.000000e+00 0.000000e+00 0.000000e+00 0.000000e+00 0.000000e+00 0.000000e+00
 0.000000e+00 0.000000e+00 0.000000e+00 0.000000e+00 6.358622e-01 3.641379e-01 0.000000e+00 0.000000e+00 0.000000e+00 0.000000e+00 0.000000e+00 0.000000e+00 0.000000e+00 0.000000e+00 0.000000e+00 0.000000e+00 0.000000e+00 0.000000e+00 0.000000e+00 0.000000e+00
 0.000000e+00 0.000000e+00 0.000000e+00 0.000000e+00 0.000000e+00 6.249496e-01 3.750504e-01 0.000000e+00 0.000000e+00 0.000000e+00 0.000000e+00 0.000000e+00 0.000000e+00 0.000000e+00 0.000000e+00 0.000000e+00 0.000000e+00 0.000000e+00 0.000000e+00 0.000000e+00
 0.000000e+00 0.000000e+00 0.000000e+00 0.000000e+00 0.000000e+00 0.000000e+00 7.481972e-01 2.518028e-01 0.000000e+00 0.000000e+00 0.000000e+00 0.000000e+00 0.000000e+00 0.000000e+00 0.000000e+00 0.000000e+00 0.000000e+00 0.000000e+00 0.000000e+00 0.000000e+00
 0.000000e+00 0.000000e+00 0.000000e+00 0.000000e+00 0.000000e+00 0.000000e+00 0.000000e+00 8.184461e-01 1.815539e-01 0.000000e+00 0.000000e+00 0.000000e+00 0.000000e+00 0.000000e+00 0.000000e+00 0.000000e+00 0.000000e+00 0.000000e+00 0.000000e+00 0.000000e+00
 0.000000e+00 0.000000e+00 0.000000e+00 0.000000e+00 0.000000e+00 0.000000e+00 0.000000e+00 0.000000e+00 6.033742e-01 3.966258e-01 0.000000e+00 0.000000e+00 0.000000e+00 0.000000e+00 0.000000e+00 0.000000e+00 0.000000e+00 0.000000e+00 0.000000e+00 0.000000e+00
 0.000000e+00 0.000000e+00 0.000000e+00 0.000000e+00 0.000000e+00 0.000000e+00 0.000000e+00 0.000000e+00 0.000000e+00 7.028645e-01 2.971355e-01 0.000000e+00 0.000000e+00 0.000000e+00 0.000000e+00 0.000000e+00 0.000000e+00 0.000000e+00 0.000000e+00 0.000000e+00
 0.000000e+00 0.000000e+00 0.000000e+00 0.000000e+00 0.000000e+00 0.000000e+00 0.000000e+00 0.000000e+00 0.000000e+00 0.000000e+00 7.432368e-01 2.567632e-01 0.000000e+00 0.000000e+00 0.000000e+00 0.000000e+00 0.000000e+00 0.000000e+00 0.000000e+00 0.000000e+00
 0.000000e+00 0.000000e+00 0.000000e+00 0.000000e+00 0.000000e+00 0.000000e+00 0.000000e+00 0.000000e+00 0.000000e+00 0.000000e+00 0.000000e+00 7.061729e-01 2.938271e-01 0.000000e+00 0.000000e+00 0.000000e+00 0.000000e+00 0.000000e+00 0.000000e+00 0.000000e+00
 0.000000e+00 0.000000e+00 0.000000e+00 0.000000e+00 0.000000e+00 0.000000e+00 0.000000e+00 0.000000e+00 0.000000e+00 0.000000e+00 0.000000e+00 0.000000e+00 7.207649e-01 2.792352e-01 0.000000e+00 0.000000e+00 0.000000e+00 0.000000e+00 0.000000e+00 0.000000e+00
 0.000000e+00 0.000000e+00 0.000000e+00 0.000000e+00 0.000000e+00 0.000000e+00 0.000000e+00 0.000000e+00 0.000000e+00 0.000000e+00 0.000000e+00 0.000000e+00 0.000000e+00 7.277693e-01 2.722307e-01 0.000000e+00 0.000000e+00 0.000000e+00 0.000000e+00 0.000000e+00
 0.000000e+00 0.000000e+00 0.000000e+00 0.000000e+00 0.000000e+00 0.000000e+00 0.000000e+00 0.000000e+00 0.000000e+00 0.000000e+00 0.000000e+00 0.000000e+00 0.000000e+00 0.000000e+00 8.142123e-01 1.857877e-01 0.000000e+00 0.000000e+00 0.000000e+00 0.000000e+00
 0.000000e+00 0.000000e+00 0.000000e+00 0.000000e+00 0.000000e+00 0.000000e+00 0.000000e+00 0.000000e+00 0.000000e+00 0.000000e+00 0.000000e+00 0.000000e+00 0.000000e+00 0.000000e+00 0.000000e+00 7.424001e-01 2.575999e-01 0.000000e+00 0.000000e+00 0.000000e+00
 0.000000e+00 0.000000e+00 0.000000e+00 0.000000e+00 0.000000e+00 0.000000e+00 0.000000e+00 0.000000e+00 0.000000e+00 0.000000e+00 0.000000e+00 0.000000e+00 0.000000e+00 0.000000e+00 0.000000e+00 0.000000e+00 6.823870e-01 3.176130e-01 0.000000e+00 0.000000e+00
 0.000000e+00 0.000000e+00 0.000000e+00 0.000000e+00 0.000000e+00 0.000000e+00 0.000000e+00 0.000000e+00 0.000000e+00 0.000000e+00 0.000000e+00 0.000000e+00 0.000000e+00 0.000000e+00 0.000000e+00 0.000000e+00 0.000000e+00 6.270490e-01 3.729510e-01 0.000000e+00
 0.000000e+00 0.000000e+00 0.000000e+00 0.000000e+00 0.000000e+00 0.000000e+00 0.000000e+00 0.000000e+00 0.000000e+00 0.000000e+00 0.000000e+00 0.000000e+00 0.000000e+00 0.000000e+00 0.000000e+00 0.000000e+00 0.000000e+00 0.000000e+00 7.811827e-01 2.188174e-01
 0.000000e+00 0.000000e+00 0.000000e+00 0.000000e+00 0.000000e+00 0.000000e+00 0.000000e+00 0.000000e+00 0.000000e+00 0.000000e+00 0.000000e+00 0.000000e+00 0.000000e+00 0.000000e+00 0.000000e+00 0.000000e+00 0.000000e+00 0.000000e+00 0.000000e+00 0.000000e+00
<ENDHMM>
