~o
<STREAMINFO> 1 39
<VECSIZE> 39<NULLD><MFCC_D_A_0><DIAGC>
~h "nol"
<BEGINHMM>
<NUMSTATES> 20
<STATE> 2
<MEAN> 39
 -1.770830e+01 -4.559862e+00 -1.851428e+00 -3.753495e+00 2.328652e+00 -5.168490e+00 2.991452e+00 -6.946903e+00 3.719191e-01 -6.939177e+00 -2.347990e-01 -5.612759e+00 5.744028e+01 1.011664e+00 1.355434e+00 1.420310e+00 1.003820e+00 2.088799e-01 -5.316830e-01 -7.469808e-01 -7.403638e-01 -4.149154e-01 -2.273648e-01 -5.662690e-02 -1.408803e-01 4.513277e-01 5.182890e-01 5.256237e-01 4.099106e-01 2.022920e-01 -1.429996e-01 -4.330024e-01 -4.850872e-01 -4.189888e-01 -2.204584e-01 -9.629734e-02 -2.657893e-02 -2.136993e-02 2.208348e-01
<VARIANCE> 39
 8.205402e+00 8.987710e+00 1.046590e+01 8.337530e+00 1.449143e+01 2.488114e+01 2.662815e+01 2.143314e+01 2.070201e+01 1.080677e+01 1.572779e+01 1.359064e+01 1.008529e+00 2.238590e+00 2.373893e+00 2.359873e+00 2.026876e+00 1.389344e+00 2.702472e+00 3.467453e+00 3.710950e+00 2.509497e+00 1.640330e+00 3.154839e+00 2.131200e+00 3.484272e-01 3.016373e-01 3.280634e-01 2.397876e-01 2.271425e-01 2.663722e-01 4.685566e-01 4.840123e-01 6.717656e-01 4.502445e-01 2.134972e-01 4.553671e-01 2.962452e-01 6.036167e-02
<GCONST> 9.726407e+01
<STATE> 3
<MEAN> 39
 -6.942809e+00 5.949478e+00 9.441664e+00 2.983387e+00 1.014796e+00 -1.063340e+01 -7.904039e+00 -1.452739e+01 -6.085190e+00 -9.990062e+00 -6.118520e-01 -6.890658e+00 6.116084e+01 3.297971e+00 3.300259e+00 2.432933e+00 3.943211e-01 -1.608476e+00 -2.687759e+00 -3.086009e+00 -2.204545e+00 -1.185272e+00 -7.909302e-02 5.135753e-01 2.649744e-01 1.497864e+00 -2.806965e-01 -7.514589e-01 -1.046488e+00 -9.878424e-01 -3.095868e-01 3.604671e-01 3.840837e-01 5.789050e-01 7.729572e-01 5.166396e-01 2.068128e-01 1.227226e-01 1.192603e-02
<VARIANCE> 39
 8.134289e+00 9.925111e+00 1.206273e+01 1.796872e+01 2.252928e+01 2.046872e+01 2.093399e+01 1.629779e+01 2.521915e+01 3.102246e+01 4.940643e+01 4.403588e+01 1.946131e+00 6.935271e-01 1.286180e+00 1.873823e+00 2.168248e+00 9.366398e-01 1.736381e+00 1.944425e+00 2.661234e+00 2.909485e+00 2.297639e+00 4.097514e+00 2.137243e+00 1.175108e-01 1.973064e-01 2.641553e-01 3.281949e-01 2.749366e-01 3.892223e-01 5.796334e-01 2.406705e-01 3.941369e-01 5.719698e-01 2.612730e-01 6.199723e-01 4.645327e-01 4.829055e-02
<GCONST> 9.839259e+01
<STATE> 4
<MEAN> 39
 -1.085895e+00 9.089642e+00 8.941788e+00 -7.152401e-01 -2.992497e+00 -1.396074e+01 -1.228458e+01 -1.583418e+01 -3.536763e+00 -5.770109e+00 1.538121e+00 -5.865576e+00 6.469401e+01 1.310807e+00 -1.126761e+00 -2.459947e+00 -1.938583e+00 5.227692e-01 6.419709e-01 -7.392125e-01 8.065418e-01 1.380905e+00 1.150637e+00 1.763917e-01 -8.663393e-01 1.385127e+00 -3.166122e-01 -1.215097e+00 -1.189172e+00 -5.754350e-01 8.478931e-01 1.089001e+00 5.462958e-01 7.727938e-01 2.478257e-01 -5.084335e-02 -8.521517e-02 -4.094600e-01 1.416820e-01
<VARIANCE> 39
 2.705936e+00 6.306504e+00 2.126808e+01 2.036719e+01 1.430873e+01 1.688931e+01 2.687037e+01 2.359780e+01 3.955971e+01 5.361378e+01 8.870001e+01 4.547762e+01 1.720648e+00 5.333564e-01 3.633808e+00 4.137273e+00 2.322780e+00 4.438262e+00 3.292922e+00 3.296806e+00 3.014673e+00 3.877218e+00 2.325809e+00 4.265548e+00 4.177199e+00 4.690441e-01 1.098259e-01 2.942606e-01 3.501512e-01 3.015620e-01 4.197023e-01 4.880838e-01 6.192482e-01 4.943774e-01 6.448251e-01 3.294018e-01 5.006794e-01 5.194621e-01 7.196715e-02
<GCONST> 1.072782e+02
<STATE> 5
<MEAN> 39
 2.699863e+00 -3.004053e+00 -5.689649e+00 -1.203148e+01 5.732554e+00 -4.259789e+00 -1.406556e+01 -6.969128e+00 8.516771e-01 -3.746295e+00 2.861100e+00 -1.293750e+01 7.201119e+01 7.640526e-01 -3.021111e+00 -3.318900e+00 -3.091743e+00 1.481718e+00 3.789335e+00 9.693177e-01 1.329165e+00 2.523935e-01 -4.636885e-01 4.065632e-01 -4.451194e-01 1.521684e+00 -2.664747e-01 6.394072e-01 8.512042e-01 4.166033e-01 -5.864664e-01 -4.319170e-03 5.939800e-01 -8.325505e-01 -5.199004e-01 -3.600821e-01 -1.969957e-03 6.937085e-01 -4.425240e-01
<VARIANCE> 39
 1.832577e+00 3.737722e+01 6.165349e+01 3.362939e+01 6.957506e+01 4.250458e+01 6.485591e+01 1.120675e+02 7.682079e+01 1.467654e+02 2.060555e+02 4.887955e+01 7.444364e+00 3.294216e-01 2.190342e+00 4.269201e+00 2.650873e+00 5.818079e+00 1.095323e+00 3.793967e+00 5.471391e+00 4.091312e+00 3.458960e+00 3.610816e+00 4.452326e+00 5.947126e-01 3.781699e-02 4.046096e-01 2.941052e-01 5.120138e-01 6.680266e-01 4.654349e-01 4.427226e-01 5.004554e-01 6.775442e-01 9.309424e-01 8.618650e-01 7.098885e-01 4.132010e-02
<GCONST> 1.199850e+02
<STATE> 6
<MEAN> 39
 3.593066e+00 -5.473560e+00 -1.083203e+01 -1.715049e+01 4.753764e+00 3.064536e+00 -8.725585e+00 -1.080270e+01 -8.435620e-02 -6.524624e+00 2.014428e+00 -9.778940e+00 7.268655e+01 2.027289e-01 -1.178286e-01 -4.405484e-01 -1.099307e+00 -1.274041e-01 2.256498e+00 1.183343e+00 -1.408055e+00 -4.775795e-01 -8.086806e-01 -1.979895e-01 7.811626e-01 1.828458e-01 -1.117600e-01 4.774549e-01 5.690717e-01 4.041908e-01 -1.407870e-01 -4.694216e-01 -4.840797e-01 -1.154712e-01 -1.104683e-01 -1.489694e-01 -1.363986e-01 -1.480516e-02 -1.884367e-01
<VARIANCE> 39
 9.136096e-01 3.354987e+01 8.174651e+01 1.662256e+01 7.021536e+01 4.271504e+01 4.886967e+01 1.097146e+02 5.871301e+01 5.459038e+01 1.580707e+02 3.262230e+01 8.310340e+00 1.121723e-01 5.516662e-01 1.557186e+00 5.771535e-01 2.132012e+00 1.108325e+00 1.258316e+00 1.244029e+00 1.469773e+00 3.916587e+00 1.364020e+00 2.090415e+00 4.110583e-02 1.300646e-02 1.649845e-01 2.870715e-01 1.341669e-01 2.614974e-01 2.406479e-01 1.568971e-01 3.948935e-01 1.851088e-01 2.834632e-01 2.526685e-01 2.510780e-01 1.980202e-02
<GCONST> 9.109566e+01
<STATE> 7
<MEAN> 39
 4.282412e+00 -1.804201e-01 -1.268530e+01 -2.011374e+01 -3.184335e+00 6.355582e+00 -1.564943e+00 -1.757706e+01 -7.851855e+00 -8.333128e+00 4.223089e+00 -4.173138e+00 7.044693e+01 -3.819678e-02 1.209753e-01 -3.508294e-01 -4.216135e-01 -1.854962e-01 3.838690e-01 1.310930e-01 8.313033e-02 -3.106460e-01 1.217447e-03 -4.433712e-02 7.162996e-02 -1.943414e-02 -3.115953e-02 -3.826350e-02 2.774623e-02 3.988705e-02 3.825494e-02 -1.364262e-01 -1.401586e-01 6.914243e-02 1.366519e-01 2.199291e-01 -1.031000e-02 -6.972189e-02 4.588590e-03
<VARIANCE> 39
 8.973193e-01 1.529929e+01 2.493587e+01 7.429898e+00 2.779737e+01 4.010388e+01 3.195245e+01 3.595057e+01 4.205772e+01 1.608064e+01 5.143385e+01 1.993283e+01 4.507888e+00 7.686637e-02 2.171587e-01 3.975638e-01 1.829707e-01 4.423442e-01 9.269015e-01 4.769314e-01 1.043715e+00 7.120097e-01 1.448743e+00 1.086653e+00 6.780611e-01 3.323347e-02 1.670023e-02 4.348547e-02 8.233405e-02 3.591200e-02 1.297233e-01 1.888853e-01 7.732000e-02 1.754715e-01 1.266619e-01 2.094973e-01 1.490821e-01 1.300679e-01 6.752315e-03
<GCONST> 6.292461e+01
<STATE> 8
<MEAN> 39
 1.936072e+00 -7.222700e+00 -1.208775e+00 -2.537827e+01 9.759074e+00 7.040492e+00 -1.661083e+01 -1.473573e+00 -6.477809e+00 -5.590075e+00 9.953321e+00 -1.025614e+01 7.653479e+01 -4.506132e-03 3.276998e-01 -1.987830e-01 -2.677309e-01 9.594875e-02 -7.965653e-01 -3.498678e-01 -3.385547e-01 -3.781327e-01 4.931343e-01 5.389279e-02 -2.482655e-02 -1.002471e-01 3.478852e-02 9.239689e-02 5.668208e-02 1.354550e-01 -7.133295e-02 -1.078870e-01 1.442916e-01 1.583631e-02 1.005675e-01 1.741712e-01 -4.088286e-02 -8.025779e-02 -6.037834e-02
<VARIANCE> 39
 1.629612e+00 2.140198e+01 9.076903e+01 1.373526e+01 4.992674e+01 4.462422e+01 6.271072e+01 8.829960e+01 5.543673e+01 2.661927e+01 7.168220e+01 1.728521e+01 1.243068e+01 8.450618e-02 8.302556e-01 3.850867e-01 7.024782e-01 1.165500e+00 1.708904e+00 1.155428e+00 1.030706e+00 1.816623e+00 9.802153e-01 7.426132e-01 6.610587e-01 1.575184e-01 1.232342e-02 1.140988e-01 9.045316e-02 1.158123e-01 1.755726e-01 2.169452e-01 1.234213e-01 2.118153e-01 3.314130e-01 1.859265e-01 1.655030e-01 2.111544e-01 9.409863e-03
<GCONST> 8.169680e+01
<STATE> 9
<MEAN> 39
 3.266378e+00 -9.184256e+00 -1.472780e+01 -1.902654e+01 5.227609e+00 1.021713e+01 -1.114785e+01 -2.200368e+01 4.055252e+00 -1.284682e+01 -1.378519e+01 -1.176240e+01 7.299349e+01 -2.007502e-01 3.001783e-01 7.828169e-01 -1.149863e-01 -9.356968e-01 3.369945e-02 -3.417898e-01 -3.966213e-01 -7.333037e-05 1.220723e-01 -5.570880e-02 -6.889496e-02 -3.251324e-01 -4.927714e-02 7.768803e-02 6.020982e-02 6.430262e-02 -9.882297e-02 -1.604378e-01 2.068375e-02 9.846020e-02 -7.392389e-02 -1.083486e-01 -1.253659e-03 -1.108157e-02 -7.229173e-02
<VARIANCE> 39
 8.941561e-01 2.954531e+01 3.587574e+01 1.254167e+01 4.019800e+01 4.197982e+01 4.815075e+01 6.854128e+01 5.565388e+01 5.097986e+01 1.581775e+02 1.800226e+01 5.310605e+00 1.110101e-01 7.484965e-01 1.309877e+00 8.230801e-01 9.173382e-01 1.735802e+00 2.349344e+00 2.403560e+00 1.512957e+00 2.265938e+00 1.602371e+00 7.931426e-01 1.250422e-01 1.095172e-02 8.683130e-02 2.534919e-01 1.265469e-01 1.152553e-01 1.964698e-01 3.917231e-01 3.730004e-01 2.848598e-01 1.698275e-01 3.106601e-01 1.636361e-01 4.837032e-03
<GCONST> 8.589584e+01
<STATE> 10
<MEAN> 39
 2.069477e+00 -2.230364e+00 -8.313110e+00 -2.292768e+01 -1.057985e+01 1.580468e+01 -2.748076e+00 -2.068140e+01 2.168498e+00 2.119771e+00 1.210135e+00 -3.524406e-01 7.120205e+01 -1.724664e-01 4.196657e-01 1.020293e+00 3.267077e-01 -4.632111e-01 -1.561646e-01 -1.426835e-01 -1.280915e-01 5.376565e-01 -6.801957e-02 -6.339155e-01 3.197816e-01 -2.650379e-01 -4.602933e-02 8.595512e-02 2.530261e-02 3.499576e-01 3.178012e-01 -1.844924e-01 9.782147e-02 1.670697e-01 -3.285326e-01 -4.136030e-01 5.595912e-02 -9.301123e-02 -8.876589e-02
<VARIANCE> 39
 2.362781e+00 7.439364e+00 2.280025e+01 1.409343e+01 8.689235e+01 7.283448e+01 4.915551e+01 6.230108e+01 5.051648e+01 5.757545e+01 4.942231e+01 4.746992e+01 2.019038e+00 1.481147e-01 5.841563e-01 6.293387e-01 9.580709e-01 2.766957e+00 1.891511e+00 9.075294e-01 2.056059e+00 3.127249e+00 1.986817e+00 9.180516e-01 1.962107e+00 1.284117e-01 3.275231e-02 5.878886e-02 6.393696e-02 1.051609e-01 3.975835e-01 1.784787e-01 1.632576e-01 3.009782e-01 3.015547e-01 2.220901e-01 1.710401e-01 1.841887e-01 9.477506e-03
<GCONST> 8.548950e+01
<STATE> 11
<MEAN> 39
 2.672130e+00 1.029783e+00 -7.756953e+00 -1.931216e+01 1.364425e+00 3.395609e-01 -8.260490e+00 -1.152398e+01 -8.060040e+00 -7.263116e+00 1.975064e+00 -1.093830e+01 6.954790e+01 -4.752149e-01 5.210061e-01 5.555666e-01 1.385677e+00 3.806511e-02 -4.581662e-01 6.820104e-01 -3.919113e-01 -3.067755e-01 -9.622837e-01 -6.081244e-01 -2.027712e-01 -7.379308e-01 -1.451007e-01 -5.605858e-02 8.623192e-02 1.252522e-01 1.278712e-01 1.126573e-01 6.739870e-02 -8.349631e-02 -1.791181e-02 -1.250288e-02 4.249073e-02 1.693683e-01 -5.103445e-02
<VARIANCE> 39
 3.320702e+00 6.355795e+00 3.558223e+01 8.402312e+00 5.899705e+01 4.172724e+01 4.264667e+01 7.437302e+01 3.424320e+01 3.677860e+01 9.043190e+01 3.253685e+01 4.519057e+00 1.696733e-01 2.293262e-01 7.163660e-01 6.736904e-01 1.479157e+00 1.181096e+00 5.569329e-01 1.516274e+00 1.579600e+00 8.492564e-01 8.659762e-01 8.324193e-01 5.789753e-02 1.975403e-02 3.933532e-02 4.238508e-02 1.257981e-01 2.968972e-01 2.025931e-01 8.985502e-02 2.336746e-01 1.983199e-01 2.843202e-01 1.044256e-01 1.278166e-01 9.222121e-03
<GCONST> 7.551617e+01
<STATE> 12
<MEAN> 39
 9.167825e-02 2.317763e+00 -4.202506e+00 -1.401998e+01 8.803042e-01 9.894302e-01 -7.610894e+00 -1.618773e+01 -7.141156e+00 -1.053838e+01 -3.423701e+00 -9.818755e+00 6.689883e+01 -8.905230e-01 9.325384e-02 5.412450e-01 1.451522e+00 3.645391e-01 -3.005138e-01 1.077407e+00 2.715694e-01 -1.663993e-01 2.523834e-01 8.351853e-02 2.938767e-01 -7.973695e-01 -1.412437e-01 -3.007769e-01 -1.520050e-01 -4.962229e-02 -1.012967e-01 -1.233633e-01 1.987705e-01 3.088165e-01 3.371800e-01 2.139104e-01 1.868249e-01 -7.778374e-02 -2.108714e-02
<VARIANCE> 39
 1.253114e+00 1.381611e+01 1.000557e+01 1.227106e+01 4.046264e+01 5.161515e+01 2.888526e+01 4.731667e+01 3.871876e+01 7.599368e+01 1.275872e+02 3.323444e+01 2.067455e+00 7.269142e-02 3.447234e-01 5.399831e-01 8.414737e-01 2.314059e+00 6.829373e-01 8.674640e-01 2.018725e+00 1.192107e+00 1.783116e+00 1.682348e+00 1.208141e+00 5.414081e-02 1.035694e-02 3.163390e-02 4.017931e-02 6.470361e-02 9.490232e-02 1.175724e-01 8.542828e-02 2.104548e-01 1.936926e-01 3.557369e-01 2.472174e-01 1.887493e-01 5.366418e-03
<GCONST> 7.290130e+01
<STATE> 13
<MEAN> 39
 -3.055899e+00 1.671538e+00 -1.385354e+00 -9.725358e+00 6.293910e-01 5.615627e+00 6.974321e-01 -1.203492e+01 -2.106408e+00 -6.406514e+00 2.113000e+00 -3.396086e+00 6.508094e+01 -1.005708e+00 -1.489675e-01 2.851020e-01 1.263321e+00 5.283942e-01 -1.284219e+00 1.017340e+00 1.500672e+00 1.485067e-01 -3.579769e-01 -2.277577e-01 -5.699527e-01 -8.132769e-01 1.571358e-02 -3.054493e-02 -5.284630e-02 -2.612386e-01 -2.788147e-01 -9.502207e-02 -2.323251e-01 -4.409161e-02 7.908656e-02 1.309089e-02 -1.970040e-01 -1.387559e-01 4.230066e-02
<VARIANCE> 39
 2.448268e+00 6.189032e+00 1.219383e+01 1.428554e+01 2.198811e+01 4.814713e+01 3.633665e+01 4.727381e+01 2.501085e+01 2.884526e+01 5.097087e+01 3.107540e+01 1.679094e+00 1.008678e-01 4.660349e-01 3.706806e-01 6.438666e-01 2.433613e+00 9.483480e-01 1.372944e+00 1.526116e+00 1.313263e+00 1.149311e+00 1.613868e+00 1.343747e+00 5.153265e-02 8.858188e-03 6.897216e-02 6.437697e-02 1.520680e-01 2.766436e-01 1.678391e-01 1.851926e-01 3.100199e-01 1.439772e-01 2.629861e-01 1.926396e-01 1.470598e-01 5.892753e-03
<GCONST> 7.381662e+01
<STATE> 14
<MEAN> 39
 -5.331964e+00 2.149533e-02 -3.583906e+00 -9.801606e+00 -1.218625e-01 -1.546513e+00 -2.822489e+00 -1.362018e+01 -5.275030e+00 -1.285966e+01 -6.839585e+00 -1.260858e+01 6.312579e+01 -8.559023e-01 9.813628e-02 4.758489e-01 7.743391e-01 -1.746125e-02 -6.567642e-01 7.207680e-01 5.734094e-01 -4.381492e-01 -2.271052e-01 -1.381462e-01 -3.724584e-02 -6.569704e-01 3.225241e-02 4.025561e-02 1.676441e-02 -3.996937e-02 2.697446e-02 4.673883e-02 -1.105623e-01 -1.100680e-01 -1.620461e-01 -7.128862e-02 -5.266005e-02 4.233465e-02 4.584219e-02
<VARIANCE> 39
 3.183493e+00 1.123385e+01 1.251929e+01 1.541257e+01 9.358868e+00 1.482841e+01 1.956458e+01 2.085544e+01 1.590189e+01 3.286283e+01 4.737481e+01 2.552112e+01 1.104306e+00 2.502111e-01 4.102619e-01 4.447944e-01 7.848050e-01 4.990182e-01 1.470052e+00 1.045082e+00 1.544616e+00 2.303694e+00 1.590535e+00 2.196728e+00 1.497465e+00 3.719103e-02 4.958660e-02 6.346821e-02 9.000099e-02 1.104572e-01 1.143569e-01 1.852695e-01 9.755274e-02 2.608555e-01 3.877102e-01 1.892653e-01 2.490345e-01 3.803199e-01 8.542516e-03
<GCONST> 7.332466e+01
<STATE> 15
<MEAN> 39
 -7.739352e+00 1.548756e+00 -1.594055e-01 -4.716862e+00 8.210145e-02 -4.051776e+00 4.566870e-01 -9.818296e+00 -5.597545e+00 -1.143454e+01 -4.497466e+00 -9.772991e+00 6.105200e+01 -7.543013e-01 -1.057070e-01 4.772223e-01 9.209515e-01 -3.407642e-01 -6.464720e-01 -8.053786e-02 -2.138389e-01 -7.416885e-02 -5.056857e-01 -8.512111e-01 -5.072692e-01 -5.177251e-01 4.832047e-02 -4.506567e-02 7.205124e-03 4.015794e-02 7.255200e-02 2.023467e-01 5.682436e-02 -4.191181e-02 1.372085e-01 1.383830e-01 9.960050e-02 5.559911e-02 3.521530e-02
<VARIANCE> 39
 4.187897e+00 5.247139e+00 1.223410e+01 2.961162e+01 1.444749e+01 2.576281e+01 2.060059e+01 2.734811e+01 2.080581e+01 1.985199e+01 2.964750e+01 1.683789e+01 1.118812e+00 1.171082e-01 2.731001e-01 2.704653e-01 6.575490e-01 7.303606e-01 1.206952e+00 9.017985e-01 1.440076e+00 9.024130e-01 6.040057e-01 8.539433e-01 1.128247e+00 2.344690e-02 2.799480e-02 5.857316e-02 7.695558e-02 1.315066e-01 1.705765e-01 1.968030e-01 2.580267e-01 2.826308e-01 2.049679e-01 1.490111e-01 1.602106e-01 2.459710e-01 6.886216e-03
<GCONST> 6.711086e+01
<STATE> 16
<MEAN> 39
 -1.050225e+01 1.831613e-02 8.977662e-01 -2.191927e+00 1.777802e+00 -3.242055e+00 6.512353e-01 -1.024944e+01 -5.880729e+00 -1.276726e+01 -5.585923e+00 -1.112965e+01 5.967527e+01 -6.076484e-01 -3.193937e-01 2.104530e-01 4.955052e-01 1.578425e-01 -1.102502e-01 2.751270e-01 4.500591e-01 5.171435e-01 2.992876e-01 3.047818e-01 3.779543e-01 -3.291396e-01 1.021502e-02 -9.691140e-02 -1.311615e-01 -2.214596e-01 -1.322379e-01 -6.641676e-02 2.349774e-02 2.131378e-02 1.028237e-01 5.442211e-02 6.112441e-02 1.960405e-01 2.238375e-02
<VARIANCE> 39
 1.844358e+00 2.769713e+00 5.434568e+00 1.941443e+01 1.405406e+01 1.697087e+01 2.426179e+01 2.891706e+01 2.121456e+01 1.835302e+01 2.521762e+01 2.420317e+01 4.934095e-01 1.359494e-01 3.374096e-01 7.194857e-01 8.922052e-01 1.018382e+00 7.437533e-01 1.706724e+00 1.388794e+00 1.050154e+00 1.086394e+00 1.543175e+00 1.448185e+00 6.194500e-02 1.619718e-02 3.394410e-02 7.866755e-02 1.254664e-01 1.297078e-01 1.024763e-01 2.828263e-01 2.065257e-01 2.000055e-01 1.407507e-01 2.906549e-01 2.574070e-01 6.231693e-03
<GCONST> 6.635511e+01
<STATE> 17
<MEAN> 39
 -1.296268e+01 -2.175151e+00 1.143085e-01 -1.476506e+00 -4.205679e-01 -5.607398e+00 1.924335e+00 -9.495720e+00 -2.885410e+00 -1.127607e+01 -6.562932e+00 -9.260427e+00 5.808121e+01 -5.297758e-01 -2.803135e-01 1.478081e-01 3.111124e-01 7.774722e-02 6.650599e-03 3.106926e-01 4.564966e-01 1.619387e-01 -8.882207e-02 -4.166477e-01 1.693605e-01 -2.745875e-01 4.498921e-02 9.209038e-02 5.040604e-02 2.185278e-02 1.957479e-01 1.915125e-01 -8.937974e-02 -3.183811e-02 -1.620982e-01 -1.126635e-01 4.010762e-02 -2.461883e-02 3.540006e-02
<VARIANCE> 39
 2.570641e+00 4.742203e+00 4.074495e+00 2.156490e+01 1.879395e+01 2.257827e+01 1.750493e+01 3.712479e+01 1.997302e+01 2.560275e+01 2.076868e+01 3.992833e+01 4.372379e-01 1.439166e-01 3.454933e-01 6.901454e-01 1.079855e+00 9.210955e-01 9.915835e-01 1.446356e+00 1.387237e+00 1.486472e+00 9.533428e-01 1.679743e+00 3.323889e+00 3.779010e-02 1.860830e-02 8.243044e-02 1.118436e-01 1.966113e-01 1.798687e-01 1.470722e-01 2.807152e-01 3.025850e-01 2.094563e-01 1.786606e-01 3.902347e-01 5.520414e-01 7.360875e-03
<GCONST> 7.328687e+01
<STATE> 18
<MEAN> 39
 -1.457183e+01 -2.505006e+00 8.720371e-01 -2.839606e-01 3.537240e+00 -8.568836e-01 4.306689e+00 -6.606032e+00 -2.451933e+00 -1.029602e+01 -4.563509e+00 -6.652209e+00 5.742002e+01 -3.943885e-01 -4.863117e-01 -4.621855e-01 -3.923341e-01 1.651074e-01 2.986392e-01 -5.420733e-02 4.362959e-02 1.667315e-01 4.014526e-01 8.020472e-01 1.588757e-01 -9.446353e-02 5.952793e-02 -9.245051e-02 -1.878614e-01 -2.236467e-01 -2.410851e-01 -1.842067e-01 -6.018144e-02 6.101400e-02 1.506319e-01 1.948128e-01 1.709922e-01 -1.175142e-01 4.121106e-02
<VARIANCE> 39
 2.332599e+00 4.678134e+00 7.694984e+00 2.567495e+01 1.926418e+01 3.472861e+01 1.936643e+01 2.471986e+01 1.519631e+01 1.312028e+01 3.441046e+01 1.482625e+01 4.291507e-01 7.055119e-02 3.780952e-01 5.437571e-01 8.180278e-01 1.142264e+00 1.518450e+00 1.910042e+00 1.318315e+00 1.855418e+00 9.124050e-01 1.977733e+00 1.432094e+00 3.649465e-02 2.005126e-02 6.534483e-02 1.156624e-01 1.097514e-01 1.447540e-01 2.702084e-01 3.764863e-01 4.065506e-01 3.897018e-01 1.418758e-01 3.567921e-01 2.245145e-01 7.066714e-03
<GCONST> 7.151681e+01
<STATE> 19
<MEAN> 39
 -1.604717e+01 -5.491723e+00 -2.248815e+00 -4.979023e+00 -8.885232e-01 -4.872756e+00 2.928981e-01 -6.447018e+00 -1.150348e-01 -7.811376e+00 -9.812155e-01 -7.724589e+00 5.727290e+01 -3.179923e-01 -4.501485e-01 -3.460873e-01 -3.986154e-01 -3.674185e-01 -1.421719e-01 1.123660e-01 5.327173e-01 6.085070e-01 8.363284e-01 5.645066e-01 1.985352e-02 -1.309429e-01 3.878589e-02 8.215279e-02 1.038293e-01 1.574450e-01 1.618086e-01 1.152556e-01 1.428659e-01 9.726359e-02 -2.306287e-02 -7.918688e-02 -2.149508e-01 -8.835358e-02 6.632858e-03
<VARIANCE> 39
 2.251931e+00 6.297476e+00 1.346460e+01 1.408165e+01 2.097191e+01 2.335002e+01 2.659166e+01 1.237637e+01 1.869550e+01 2.379513e+01 2.124924e+01 1.312766e+01 5.942696e-01 1.085071e-01 2.733302e-01 5.731687e-01 7.464062e-01 7.089963e-01 1.090809e+00 1.308231e+00 1.528431e+00 6.632339e-01 1.530653e+00 1.591971e+00 1.851707e+00 3.118204e-02 2.033453e-02 4.125667e-02 7.737194e-02 1.481003e-01 1.164169e-01 1.551722e-01 2.334735e-01 2.083895e-01 1.355882e-01 4.157802e-01 3.051836e-01 2.970323e-01 6.067599e-03
<GCONST> 6.749926e+01
<TRANSP> 20
 0.000000e+00 1.000000e+00 0.000000e+00 0.000000e+00 0.000000e+00 0.000000e+00 0.000000e+00 0.000000e+00 0.000000e+00 0.000000e+00 0.000000e+00 0.000000e+00 0.000000e+00 0.000000e+00 0.000000e+00 0.000000e+00 0.000000e+00 0.000000e+00 0.000000e+00 0.000000e+00
 0.000000e+00 8.030977e-01 1.969023e-01 0.000000e+00 0.000000e+00 0.000000e+00 0.000000e+00 0.000000e+00 0.000000e+00 0.000000e+00 0.000000e+00 0.000000e+00 0.000000e+00 0.000000e+00 0.000000e+00 0.000000e+00 0.000000e+00 0.000000e+00 0.000000e+00 0.000000e+00
 0.000000e+00 0.000000e+00 5.847272e-01 4.152728e-01 0.000000e+00 0.000000e+00 0.000000e+00 0.000000e+00 0.000000e+00 0.000000e+00 0.000000e+00 0.000000e+00 0.000000e+00 0.000000e+00 0.000000e+00 0.000000e+00 0.000000e+00 0.000000e+00 0.000000e+00 0.000000e+00
 0.000000e+00 0.000000e+00 0.000000e+00 7.399994e-01 2.600007e-01 0.000000e+00 0.000000e+00 0.000000e+00 0.000000e+00 0.000000e+00 0.000000e+00 0.000000e+00 0.000000e+00 0.000000e+00 0.000000e+00 0.000000e+00 0.000000e+00 0.000000e+00 0.000000e+00 0.000000e+00
 0.000000e+00 0.000000e+00 0.000000e+00 0.000000e+00 6.570377e-01 3.429623e-01 0.000000e+00 0.000000e+00 0.000000e+00 0.000000e+00 0.000000e+00 0.000000e+00 0.000000e+00 0.000000e+00 0.000000e+00 0.000000e+00 0.000000e+00 0.000000e+00 0.000000e+00 0.000000e+00
 0.000000e+00 0.000000e+00 0.000000e+00 0.000000e+00 0.000000e+00 6.448799e-01 3.551201e-01 0.000000e+00 0.000000e+00 0.000000e+00 0.000000e+00 0.000000e+00 0.000000e+00 0.000000e+00 0.000000e+00 0.000000e+00 0.000000e+00 0.000000e+00 0.000000e+00 0.000000e+00
 0.000000e+00 0.000000e+00 0.000000e+00 0.000000e+00 0.000000e+00 0.000000e+00 8.404195e-01 1.595805e-01 0.000000e+00 0.000000e+00 0.000000e+00 0.000000e+00 0.000000e+00 0.000000e+00 0.000000e+00 0.000000e+00 0.000000e+00 0.000000e+00 0.000000e+00 0.000000e+00
 0.000000e+00 0.000000e+00 0.000000e+00 0.000000e+00 0.000000e+00 0.000000e+00 0.000000e+00 7.339284e-01 2.660715e-01 0.000000e+00 0.000000e+00 0.000000e+00 0.000000e+00 0.000000e+00 0.000000e+00 0.000000e+00 0.000000e+00 0.000000e+00 0.000000e+00 0.000000e+00
 0.000000e+00 0.000000e+00 0.000000e+00 0.000000e+00 0.000000e+00 0.000000e+00 0.000000e+00 0.000000e+00 7.275537e-01 2.724463e-01 0.000000e+00 0.000000e+00 0.000000e+00 0.000000e+00 0.000000e+00 0.000000e+00 0.000000e+00 0.000000e+00 0.000000e+00 0.000000e+00
 0.000000e+00 0.000000e+00 0.000000e+00 0.000000e+00 0.000000e+00 0.000000e+00 0.000000e+00 0.000000e+00 0.000000e+00 6.571106e-01 3.428894e-01 0.000000e+00 0.000000e+00 0.000000e+00 0.000000e+00 0.000000e+00 0.000000e+00 0.000000e+00 0.000000e+00 0.000000e+00
 0.000000e+00 0.000000e+00 0.000000e+00 0.000000e+00 0.000000e+00 0.000000e+00 0.000000e+00 0.000000e+00 0.000000e+00 0.000000e+00 7.067698e-01 2.932303e-01 0.000000e+00 0.000000e+00 0.000000e+00 0.000000e+00 0.000000e+00 0.000000e+00 0.000000e+00 0.000000e+00
 0.000000e+00 0.000000e+00 0.000000e+00 0.000000e+00 0.000000e+00 0.000000e+00 0.000000e+00 0.000000e+00 0.000000e+00 0.000000e+00 0.000000e+00 5.542406e-01 4.457594e-01 0.000000e+00 0.000000e+00 0.000000e+00 0.000000e+00 0.000000e+00 0.000000e+00 0.000000e+00
 0.000000e+00 0.000000e+00 0.000000e+00 0.000000e+00 0.000000e+00 0.000000e+00 0.000000e+00 0.000000e+00 0.000000e+00 0.000000e+00 0.000000e+00 0.000000e+00 6.371034e-01 3.628966e-01 0.000000e+00 0.000000e+00 0.000000e+00 0.000000e+00 0.000000e+00 0.000000e+00
 0.000000e+00 0.000000e+00 0.000000e+00 0.000000e+00 0.000000e+00 0.000000e+00 0.000000e+00 0.000000e+00 0.000000e+00 0.000000e+00 0.000000e+00 0.000000e+00 0.000000e+00 6.785887e-01 3.214113e-01 0.000000e+00 0.000000e+00 0.000000e+00 0.000000e+00 0.000000e+00
 0.000000e+00 0.000000e+00 0.000000e+00 0.000000e+00 0.000000e+00 0.000000e+00 0.000000e+00 0.000000e+00 0.000000e+00 0.000000e+00 0.000000e+00 0.000000e+00 0.000000e+00 0.000000e+00 7.123572e-01 2.876427e-01 0.000000e+00 0.000000e+00 0.000000e+00 0.000000e+00
 0.000000e+00 0.000000e+00 0.000000e+00 0.000000e+00 0.000000e+00 0.000000e+00 0.000000e+00 0.000000e+00 0.000000e+00 0.000000e+00 0.000000e+00 0.000000e+00 0.000000e+00 0.000000e+00 0.000000e+00 7.485111e-01 2.514889e-01 0.000000e+00 0.000000e+00 0.000000e+00
 0.000000e+00 0.000000e+00 0.000000e+00 0.000000e+00 0.000000e+00 0.000000e+00 0.000000e+00 0.000000e+00 0.000000e+00 0.000000e+00 0.000000e+00 0.000000e+00 0.000000e+00 0.000000e+00 0.000000e+00 0.000000e+00 7.472886e-01 2.527113e-01 0.000000e+00 0.000000e+00
 0.000000e+00 0.000000e+00 0.000000e+00 0.000000e+00 0.000000e+00 0.000000e+00 0.000000e+00 0.000000e+00 0.000000e+00 0.000000e+00 0.000000e+00 0.000000e+00 0.000000e+00 0.000000e+00 0.000000e+00 0.000000e+00 0.000000e+00 7.286524e-01 2.713476e-01 0.000000e+00
 0.000000e+00 0.000000e+00 0.000000e+00 0.000000e+00 0.000000e+00 0.000000e+00 0.000000e+00 0.000000e+00 0.000000e+00 0.000000e+00 0.000000e+00 0.000000e+00 0.000000e+00 0.000000e+00 0.000000e+00 0.000000e+00 0.000000e+00 0.000000e+00 7.176026e-01 2.823974e-01
 0.000000e+00 0.000000e+00 0.000000e+00 0.000000e+00 0.000000e+00 0.000000e+00 0.000000e+00 0.000000e+00 0.000000e+00 0.000000e+00 0.000000e+00 0.000000e+00 0.000000e+00 0.000000e+00 0.000000e+00 0.000000e+00 0.000000e+00 0.000000e+00 0.000000e+00 0.000000e+00
<ENDHMM>
