~o
<STREAMINFO> 1 39
<VECSIZE> 39<NULLD><MFCC_D_A_0><DIAGC>
~h "seperempat"
<BEGINHMM>
<NUMSTATES> 20
<STATE> 2
<MEAN> 39
 -1.896215e+01 -4.618891e+00 -4.322368e+00 -3.514719e+00 1.467357e-01 -4.753321e+00 1.817729e+00 -7.510922e+00 1.152538e+00 -8.063462e+00 2.279346e+00 -6.690240e+00 5.708862e+01 -8.873051e-01 1.541263e+00 -1.165948e+00 1.163519e+00 -3.978871e-01 -2.683095e-01 2.456992e-01 -6.342548e-01 6.638560e-01 -6.075044e-01 5.427620e-01 -3.927738e-01 5.904409e-01 -2.987378e-01 4.348353e-01 -3.276423e-01 3.297440e-01 -4.950969e-03 1.168757e-01 1.762526e-01 1.337512e-02 1.655751e-01 -3.455072e-02 -7.637627e-02 -7.373222e-02 2.044650e-01
<VARIANCE> 39
 2.948901e+00 7.330883e+00 7.743850e+00 1.163371e+01 1.425878e+01 1.414505e+01 1.686288e+01 2.600539e+01 2.062443e+01 2.511110e+01 2.283938e+01 2.398274e+01 1.040952e+00 1.325037e+00 1.440622e+00 1.648324e+00 1.764667e+00 1.440652e+00 1.724153e+00 3.676661e+00 2.222099e+00 2.084189e+00 1.479417e+00 3.160474e+00 1.979061e+00 2.208250e-01 1.290720e-01 1.447242e-01 2.310733e-01 2.515464e-01 2.804240e-01 2.171342e-01 3.088935e-01 4.193227e-01 2.891304e-01 2.343498e-01 6.460481e-01 4.614448e-01 3.850588e-02
<GCONST> 9.058390e+01
<STATE> 3
<MEAN> 39
 -2.568781e+01 6.785218e+00 -1.166001e+01 2.922366e+00 -1.094762e+00 -8.098892e+00 4.947268e+00 -9.765355e+00 4.727021e+00 -7.572859e+00 2.569191e+00 -5.283379e+00 6.208773e+01 1.070064e+00 1.193915e+00 -3.124008e-01 -4.025585e-01 -5.815436e-01 -1.978764e+00 -1.109763e+00 -2.159195e-01 5.821977e-01 9.656118e-01 -5.809031e-01 1.449776e-02 1.194167e+00 1.150554e+00 -5.473118e-01 3.687894e-01 -6.921839e-01 -7.902721e-02 -2.930288e-01 -8.739578e-01 -1.317336e-01 -8.984265e-02 2.956509e-01 -1.376465e-01 -2.210859e-01 1.684823e-01
<VARIANCE> 39
 1.638124e+01 1.391581e+01 1.115678e+01 1.545373e+01 3.013284e+01 4.782893e+01 3.373801e+01 2.103251e+01 2.425206e+01 3.488647e+01 1.905135e+01 2.569816e+01 2.950122e+00 9.788725e+00 2.495036e+00 2.634260e+00 3.759751e+00 3.319901e+00 4.565583e+00 9.502632e+00 1.940854e+00 1.880056e+00 2.706029e+00 2.001850e+00 3.023951e+00 5.959520e-01 5.226609e-01 2.365786e-01 4.435178e-01 3.167452e-01 6.170455e-01 1.005371e+00 1.086554e+00 6.186880e-01 3.406326e-01 4.123463e-01 4.581719e-01 5.723493e-01 1.299632e-01
<GCONST> 1.138723e+02
<STATE> 4
<MEAN> 39
 -5.851851e+00 4.853933e+00 -1.042243e+01 -6.566830e+00 -3.794796e+00 -1.723320e+01 -1.184195e+01 -1.290943e+01 5.958642e+00 3.622665e-01 -3.787960e-01 -1.081092e+01 7.051323e+01 2.694871e+00 -7.065749e-01 2.383963e-01 -9.457758e-01 8.496937e-01 8.754036e-01 -1.898288e+00 -6.239613e-01 -6.153493e-01 5.656188e-01 -3.057917e-01 -1.393475e+00 7.843059e-01 -1.243576e+00 6.880875e-02 2.299047e-01 6.894310e-01 4.958311e-01 8.825926e-01 1.302311e+00 2.143194e-01 -4.138546e-01 -6.403660e-01 1.105678e-01 3.027236e-01 -8.140607e-01
<VARIANCE> 39
 1.675771e+01 2.893512e+01 3.156468e+01 1.909243e+01 1.162823e+02 8.331213e+01 8.286887e+01 8.382001e+01 6.236050e+01 9.672971e+01 8.849520e+01 2.982688e+01 1.128561e+01 5.578175e+00 1.981647e+00 1.776871e+00 3.045625e+00 4.795075e+00 6.817281e+00 1.040655e+01 5.822437e+00 3.056671e+00 5.405683e+00 4.626241e+00 2.472749e+00 3.223436e+00 2.456560e-01 3.509892e-01 3.041298e-01 2.317775e-01 9.004327e-01 9.055868e-01 1.107878e+00 9.743585e-01 4.473983e-01 7.567951e-01 7.850488e-01 5.758091e-01 2.066344e-01
<GCONST> 1.307042e+02
<STATE> 5
<MEAN> 39
 -6.269933e+00 2.919271e+00 -5.269540e+00 -4.231918e+00 1.504761e+00 -9.829245e+00 -9.099697e+00 -1.258937e+01 1.326902e+00 -3.142858e+00 -4.281218e-01 -1.174873e+01 6.537347e+01 -7.055604e-01 -6.480249e-01 9.587095e-01 3.292929e-01 7.506106e-02 5.596763e-01 7.540767e-01 3.925557e-01 -5.646219e-01 -8.293628e-01 3.363118e-02 4.439448e-01 -1.174126e+00 -7.806900e-02 -1.756432e-01 -1.597505e-01 -1.908696e-01 -2.624190e-01 -2.552948e-01 -5.980602e-02 5.980118e-02 1.356005e-01 1.501483e-01 1.365353e-01 1.784461e-01 1.389289e-01
<VARIANCE> 39
 3.261253e+00 1.430290e+01 2.644253e+01 1.197677e+01 5.186846e+01 7.322301e+01 3.102299e+01 3.412040e+01 4.786813e+01 5.672132e+01 5.607413e+01 1.575095e+01 5.123452e+00 1.582605e-01 4.894733e-01 4.824378e-01 8.370476e-01 1.831129e+00 1.516522e+00 1.694247e+00 1.596630e+00 1.466722e+00 1.455611e+00 1.965548e+00 1.125227e+00 1.518326e-01 5.720066e-02 4.455504e-02 1.162478e-01 1.392799e-01 1.845127e-01 2.605567e-01 2.143808e-01 1.992548e-01 2.255355e-01 1.867251e-01 2.539499e-01 2.326002e-01 3.369304e-02
<GCONST> 8.535698e+01
<STATE> 6
<MEAN> 39
 -9.035121e+00 -2.196000e+00 -3.505431e+00 -5.475324e+00 -5.195214e-01 -8.823731e+00 -6.642307e+00 -1.157911e+01 -6.882387e-01 -5.472493e+00 8.213677e-01 -8.799317e+00 6.252864e+01 1.340355e+00 -1.262666e+00 -1.437778e+00 -1.586278e+00 -3.711987e-01 5.249897e-01 -5.624073e-02 -7.611237e-01 -1.070852e-01 1.565131e+00 1.021347e+00 -4.447811e-01 1.066423e+00 1.001260e+00 -7.537112e-02 -7.117835e-01 -3.531862e-01 9.122213e-02 -3.017711e-02 -3.009541e-01 -2.559220e-01 3.251395e-01 7.977400e-01 2.474791e-02 -6.410337e-01 7.339128e-01
<VARIANCE> 39
 4.321639e+00 7.953698e+00 1.371399e+01 1.879028e+01 2.452856e+01 2.780917e+01 2.275633e+01 2.263327e+01 2.043343e+01 3.054956e+01 3.153021e+01 1.878852e+01 3.387655e+00 3.539624e+00 6.434994e-01 2.749817e+00 1.806556e+00 1.947249e+00 1.679313e+00 3.531370e+00 2.889943e+00 1.924796e+00 5.216486e+00 1.463360e+00 3.164251e+00 1.670699e+00 1.505675e-01 4.961443e-02 2.362042e-01 3.723155e-01 4.071727e-01 3.570033e-01 4.782632e-01 7.385166e-01 2.681888e-01 7.374279e-01 5.646431e-01 3.714852e-01 1.036474e-01
<GCONST> 1.021166e+02
<STATE> 7
<MEAN> 39
 3.124418e+00 -6.923983e+00 -1.307058e+01 -1.219582e+01 1.456210e-01 -7.778763e+00 -1.003627e+01 -1.458745e+01 1.939627e+00 4.790427e+00 3.063322e+00 -1.534667e+01 7.100879e+01 1.904675e+00 -1.198217e+00 -6.316279e-01 5.319081e-01 3.507309e-01 -6.545969e-01 -1.028105e-01 7.883346e-01 9.806162e-02 8.175345e-01 -1.542176e-01 -1.175959e+00 1.378560e+00 -1.006502e+00 3.104514e-01 1.109303e+00 1.117304e+00 -1.310547e-01 -4.410999e-01 5.840974e-01 5.668017e-01 -5.731966e-01 -1.142060e+00 -1.559003e-01 4.827455e-01 -7.206132e-01
<VARIANCE> 39
 4.535577e+00 1.833204e+01 2.156847e+01 1.447216e+01 7.092654e+01 3.971566e+01 9.212701e+01 7.289782e+01 2.489657e+01 7.091814e+01 7.460779e+01 1.668654e+01 7.910371e+00 3.289323e+00 1.179858e+00 4.119072e+00 4.486576e+00 3.158252e+00 1.638902e+00 3.752811e+00 5.908296e+00 2.617961e+00 7.709764e+00 4.055389e+00 3.105712e+00 1.974886e+00 1.961084e-01 2.091547e-01 2.000022e-01 3.281817e-01 5.602030e-01 2.258008e-01 4.285223e-01 6.113496e-01 3.562783e-01 9.599904e-01 6.285211e-01 4.003969e-01 1.642013e-01
<GCONST> 1.169189e+02
<STATE> 8
<MEAN> 39
 2.244307e+00 -9.276147e+00 -7.259390e+00 -3.351175e+00 -2.094137e+00 -1.331102e+01 -4.526539e+00 -8.023335e+00 -2.802193e+00 2.657001e+00 3.818139e+00 -1.730249e+01 7.076913e+01 -1.672919e-02 -4.680443e-01 2.934245e-01 6.709592e-01 -9.162235e-01 -4.500065e-01 6.908052e-01 2.754714e-01 -5.296730e-01 1.537945e-01 1.826972e-02 -4.721750e-01 3.704625e-02 9.594411e-02 9.322084e-02 -3.198593e-01 -6.203797e-01 8.622898e-02 5.062019e-01 -2.166926e-01 -3.291512e-01 1.453163e-01 2.310032e-01 1.339146e-01 1.038530e-01 6.065768e-02
<VARIANCE> 39
 6.243144e+00 1.694400e+01 2.524552e+01 2.169846e+01 8.028962e+01 3.748465e+01 1.107080e+02 8.644051e+01 3.190521e+01 8.198578e+01 8.851104e+01 4.673719e+01 8.765318e+00 1.036160e+00 7.213073e-01 2.289297e+00 2.742141e+00 1.399404e+00 2.185881e+00 3.114217e+00 2.388083e+00 2.346863e+00 4.037019e+00 2.782116e+00 1.907040e+00 6.371533e-01 2.111944e-01 2.205326e-01 3.409053e-01 2.455511e-01 3.980467e-01 3.094681e-01 4.935073e-01 4.340795e-01 3.455952e-01 8.525356e-01 6.928257e-01 4.565991e-01 1.411458e-01
<GCONST> 1.128123e+02
<STATE> 9
<MEAN> 39
 2.754905e+00 -9.140599e+00 -8.171774e+00 -8.460663e+00 -4.619367e+00 -6.805001e+00 -1.846505e-01 -1.188749e+01 -4.826641e+00 4.074867e+00 5.536973e+00 -1.545922e+01 7.066862e+01 -2.594592e-01 1.467220e+00 7.284155e-01 -5.816106e-01 8.038089e-01 1.449723e+00 4.524585e-01 -5.674250e-01 -1.147425e+00 -1.393852e+00 2.762341e-01 1.430181e+00 -6.092569e-01 -1.696919e-01 4.554466e-01 4.477949e-01 4.602213e-01 1.262123e-01 -1.910653e-01 4.794145e-02 -5.167980e-02 -2.311022e-01 -4.673446e-01 -3.394903e-01 1.685968e-01 -2.241793e-01
<VARIANCE> 39
 7.280062e+00 2.489449e+01 2.096597e+01 1.449055e+01 4.060047e+01 3.089124e+01 8.736182e+01 5.452407e+01 2.806553e+01 6.083064e+01 4.378159e+01 6.129214e+01 9.575172e+00 3.802294e-01 8.453540e-01 8.340076e-01 2.452321e+00 1.298310e+00 1.508862e+00 1.373525e+00 2.139535e+00 2.490066e+00 3.041641e+00 2.782975e+00 3.673605e+00 3.183774e-01 8.496320e-02 1.571301e-01 1.438434e-01 2.116521e-01 1.869010e-01 2.529696e-01 3.344173e-01 3.783084e-01 4.903744e-01 6.250514e-01 4.575866e-01 9.593958e-01 5.607393e-02
<GCONST> 1.025149e+02
<STATE> 10
<MEAN> 39
 1.441615e+00 1.683099e-01 -3.193548e+00 -6.665193e+00 -1.045832e+00 -4.489379e+00 -1.840601e+00 -1.529882e+01 -1.032651e+01 -7.327760e+00 1.511421e+00 -8.136524e+00 6.730729e+01 -4.481871e-01 1.242992e+00 8.549156e-01 1.871457e-01 2.367880e-01 2.297504e-01 2.820826e-02 -1.792433e-01 -1.108353e-01 -1.137438e+00 -7.583140e-01 5.380442e-01 -6.061734e-01 -8.975105e-02 -2.098193e-01 -1.012037e-01 -2.453848e-02 -6.370173e-02 -1.455804e-01 -5.138065e-02 2.160428e-01 2.597939e-01 1.757224e-01 1.708921e-02 -2.277924e-01 1.152623e-02
<VARIANCE> 39
 3.199392e+00 1.772500e+01 1.792827e+01 1.963034e+01 1.396442e+01 1.912228e+01 4.109586e+01 2.775408e+01 2.138738e+01 4.524197e+01 3.003825e+01 3.063636e+01 3.130659e+00 1.762422e-01 4.397184e-01 5.190818e-01 9.063939e-01 1.016365e+00 1.193868e+00 1.791594e+00 1.595251e+00 1.487279e+00 1.566129e+00 8.797197e-01 2.796024e+00 6.778013e-02 3.609800e-02 3.218637e-02 7.013606e-02 1.062049e-01 1.279896e-01 1.721396e-01 2.123720e-01 1.674141e-01 2.287956e-01 2.928523e-01 1.868721e-01 2.029570e-01 1.024952e-02
<GCONST> 7.666716e+01
<STATE> 11
<MEAN> 39
 -5.131427e+00 3.308580e+00 1.306324e+00 -4.598154e+00 9.230106e-01 -4.563778e+00 -1.915896e+00 -1.157655e+01 -6.184305e+00 -1.002867e+01 -2.164254e+00 -8.992537e+00 6.252201e+01 -1.227208e+00 -2.967992e-01 3.413510e-01 2.512681e-01 1.274931e-01 -1.799954e-02 -1.505098e-01 2.832347e-01 3.437975e-01 -2.425749e-01 -2.213903e-01 1.164191e-01 -7.065438e-01 5.502136e-02 -2.089450e-01 -1.755166e-01 -4.043945e-02 -6.743336e-02 2.979780e-02 9.457186e-04 -8.479178e-02 5.238014e-02 1.571813e-01 9.904359e-02 9.909509e-02 7.369035e-02
<VARIANCE> 39
 8.566236e+00 7.002890e+00 8.295013e+00 1.522938e+01 1.665057e+01 1.773374e+01 1.850087e+01 1.642792e+01 1.848776e+01 2.676756e+01 2.581397e+01 3.853912e+01 2.521057e+00 9.167190e-02 4.841911e-01 5.648597e-01 5.186400e-01 6.393924e-01 1.196890e+00 1.654084e+00 1.357236e+00 1.197536e+00 7.485474e-01 1.215663e+00 5.799512e-01 3.041537e-02 5.217700e-02 6.727984e-02 1.327826e-01 1.028843e-01 1.446396e-01 1.954532e-01 2.766658e-01 2.754681e-01 2.801509e-01 1.733021e-01 2.960691e-01 1.545515e-01 2.159892e-02
<GCONST> 7.226346e+01
<STATE> 12
<MEAN> 39
 -8.595169e+00 -3.132704e-01 -7.610475e-01 -4.997558e+00 -2.319172e-01 -5.146080e+00 -2.726850e+00 -1.124488e+01 -3.675118e+00 -9.020039e+00 -1.996521e+00 -8.076453e+00 6.127704e+01 1.249101e+00 -1.939162e+00 -2.916368e+00 -1.818339e+00 -4.040021e-01 7.898328e-01 -2.543721e-01 -4.939782e-01 1.475708e+00 1.929373e+00 4.436589e-01 -8.139191e-01 1.478378e+00 8.643462e-01 -6.259493e-01 -8.956309e-01 -6.026250e-01 1.114147e-01 5.364652e-01 -2.164551e-01 -3.720605e-01 2.793856e-01 5.080168e-01 -1.353183e-01 -5.094571e-01 7.866292e-01
<VARIANCE> 39
 5.431133e+00 8.709633e+00 2.415880e+01 1.721950e+01 2.030198e+01 2.915638e+01 1.881290e+01 2.637198e+01 2.934243e+01 2.310449e+01 2.764650e+01 3.295049e+01 4.453321e+00 2.635510e+00 1.759574e+00 5.507749e+00 3.622926e+00 4.201508e+00 3.830611e+00 4.467088e+00 3.853129e+00 3.649349e+00 3.585386e+00 2.355674e+00 3.260599e+00 2.174753e+00 1.082641e-01 1.400091e-01 9.826087e-01 5.090516e-01 7.357990e-01 5.627289e-01 7.285051e-01 5.632914e-01 5.792303e-01 7.261031e-01 5.740768e-01 4.334950e-01 1.186213e-01
<GCONST> 1.134774e+02
<STATE> 13
<MEAN> 39
 1.497012e+00 -1.104774e+01 -1.616839e+01 -1.413787e+01 -2.956103e-01 2.902544e+00 -5.139982e+00 -1.754461e+01 2.058387e+00 1.064977e+00 -3.273178e+00 -1.542123e+01 7.117033e+01 1.726198e+00 -2.715421e+00 -1.466561e+00 1.012446e-01 3.910747e-01 1.256897e+00 -5.200751e-01 3.503184e-02 1.554372e+00 8.636388e-01 -1.797969e+00 -1.022684e+00 2.240910e+00 -7.416015e-01 3.934458e-01 1.373757e+00 1.166659e+00 -1.333676e-01 -7.964659e-01 2.809507e-01 9.528108e-01 -2.653436e-01 -1.095033e+00 -4.005001e-01 8.660582e-01 -4.891747e-01
<VARIANCE> 39
 3.303906e+00 1.349501e+01 4.279049e+01 1.608532e+01 6.133700e+01 6.331190e+01 1.053411e+02 6.832035e+01 6.181501e+01 6.544440e+01 2.528360e+01 1.809195e+01 9.824355e+00 1.634108e+00 1.328001e+00 8.894929e+00 4.479218e+00 4.752464e+00 5.049067e+00 4.468294e+00 6.178108e+00 1.872380e+00 6.585989e+00 2.058497e+00 3.956005e+00 1.372041e+00 1.102300e-01 1.357548e-01 3.770173e-01 4.274786e-01 6.948116e-01 4.405325e-01 7.488303e-01 5.807422e-01 8.408360e-01 3.366323e-01 5.042036e-01 6.047799e-01 9.655929e-02
<GCONST> 1.189204e+02
<STATE> 14
<MEAN> 39
 1.583318e+00 -1.702203e+01 -1.170361e+01 -6.909080e+00 -2.519830e+00 -4.661362e-01 -4.356310e+00 -9.185566e+00 5.182172e+00 -4.330877e+00 -9.015779e+00 -9.929656e+00 7.492249e+01 -2.184080e-01 1.595826e-01 9.288948e-01 8.076069e-01 -4.843916e-01 -1.328920e+00 -2.361868e-01 1.331640e+00 2.368583e-02 -1.364616e+00 -5.897312e-01 9.244381e-01 -1.280630e-01 -1.826981e-01 6.880877e-01 9.470562e-02 -2.115401e-01 6.861829e-02 -7.761707e-02 -2.720908e-02 -4.348557e-01 -3.310403e-01 7.624546e-02 3.697591e-01 -2.484709e-01 -4.796534e-01
<VARIANCE> 39
 2.673063e+00 1.650480e+01 8.412701e+01 2.845403e+01 9.739990e+01 1.154335e+02 7.922580e+01 9.829803e+01 4.389982e+01 1.087986e+02 3.157470e+01 3.124006e+01 1.247844e+01 1.265171e-01 2.024949e+00 4.353215e-01 2.108883e+00 1.537553e+00 9.726524e-01 1.535746e+00 2.569119e+00 2.173107e+00 1.754585e+00 1.448675e+00 1.911261e+00 6.173207e-01 5.130699e-02 1.263608e-01 2.166895e-01 3.118356e-01 3.820043e-01 3.346289e-01 3.111519e-01 3.831858e-01 3.120208e-01 3.821517e-01 1.525780e-01 3.735494e-01 5.028461e-02
<GCONST> 1.017258e+02
<STATE> 15
<MEAN> 39
 -9.714592e-01 -1.085205e+01 -6.194459e+00 -5.424699e+00 -1.630339e+00 -5.255533e+00 -6.791963e+00 -7.301512e+00 3.275835e+00 -9.199850e+00 -8.258085e+00 -1.141809e+01 7.042464e+01 -1.190048e+00 1.404060e+00 5.958447e-01 2.585694e-01 3.650316e-01 -4.203319e-02 5.932541e-01 -5.038626e-01 -8.882136e-01 -5.714349e-01 1.560186e-01 -5.791233e-01 -1.594356e+00 -1.485517e-01 -2.388784e-01 -2.283410e-01 -1.992011e-01 8.789834e-02 3.705788e-01 3.078572e-01 2.284123e-01 1.013985e-01 1.131242e-01 -4.377469e-02 1.632816e-02 2.573469e-03
<VARIANCE> 39
 5.489763e+00 7.580867e+00 5.875296e+01 1.597281e+01 2.992372e+01 5.775652e+01 3.596505e+01 6.240097e+01 2.503196e+01 4.034076e+01 5.035242e+01 1.710193e+01 9.701622e+00 2.703093e-01 5.362293e-01 1.479513e+00 7.747915e-01 2.278677e+00 1.586801e+00 1.912939e+00 1.267853e+00 2.327104e+00 1.880101e+00 8.713163e-01 9.037741e-01 1.142209e-01 5.752277e-02 6.937901e-02 7.546568e-02 1.477282e-01 2.115070e-01 1.804512e-01 2.900760e-01 3.393498e-01 2.896444e-01 2.348727e-01 1.454848e-01 2.285623e-01 4.207279e-02
<GCONST> 8.794876e+01
<STATE> 16
<MEAN> 39
 -6.053453e+00 -6.704000e+00 -7.095418e+00 -6.823421e+00 5.705789e-02 -3.712407e+00 -1.017377e+00 -6.588840e+00 7.351609e-01 -1.118752e+01 -9.702152e+00 -1.250192e+01 6.431206e+01 -8.823432e-01 6.137252e-01 1.234564e-01 -4.166544e-01 1.700914e-01 5.307922e-01 1.087690e+00 6.758871e-01 -3.132324e-01 -2.871722e-01 -8.684149e-02 -1.930061e-01 -8.959193e-01 7.902994e-02 -7.211056e-02 3.849367e-02 4.589988e-02 -9.071597e-02 5.727517e-04 -8.679672e-02 6.755283e-02 9.204952e-02 7.834506e-02 6.851333e-02 -2.823123e-02 1.096470e-01
<VARIANCE> 39
 2.998671e+00 4.177431e+00 1.429036e+01 9.689518e+00 1.241719e+01 2.912940e+01 2.317974e+01 3.855813e+01 3.294007e+01 4.174076e+01 4.713683e+01 2.908653e+01 2.628526e+00 1.624289e-01 2.527477e-01 4.754370e-01 8.490399e-01 8.086842e-01 1.089757e+00 2.021334e+00 1.669241e+00 1.480056e+00 1.325835e+00 1.286722e+00 9.607207e-01 8.189499e-02 2.662516e-02 4.631053e-02 6.841634e-02 8.735927e-02 1.509312e-01 1.077111e-01 2.472020e-01 2.013666e-01 3.045844e-01 2.022968e-01 2.009569e-01 2.117758e-01 1.118327e-02
<GCONST> 7.323678e+01
<STATE> 17
<MEAN> 39
 -1.034099e+01 -4.423713e+00 -5.675476e+00 -7.943212e+00 -4.163019e-01 -1.692084e+00 2.822946e+00 -3.513829e+00 8.677954e-01 -1.195210e+01 -9.286186e+00 -1.365940e+01 6.052322e+01 -8.106427e-01 1.931883e-01 4.344049e-01 1.946633e-01 1.056983e-01 1.439014e-01 3.410417e-01 5.773325e-02 -9.201479e-02 7.733931e-02 5.732502e-01 1.488698e-01 -6.042225e-01 -6.877848e-03 -9.366518e-02 -5.601089e-03 8.550335e-02 8.233878e-02 -6.004839e-02 -8.502759e-02 -2.059624e-01 -2.024862e-01 3.497053e-04 7.701389e-02 2.096487e-01 3.327863e-02
<VARIANCE> 39
 2.603240e+00 4.664136e+00 9.503952e+00 1.507167e+01 2.461101e+01 1.295639e+01 2.368546e+01 2.866828e+01 1.431323e+01 2.215753e+01 2.008620e+01 1.305261e+01 1.315522e+00 6.303994e-02 2.366800e-01 4.756374e-01 6.042741e-01 1.486206e+00 1.109610e+00 1.293336e+00 9.217377e-01 1.279361e+00 7.661461e-01 7.909639e-01 1.150636e+00 3.019004e-02 1.040851e-02 3.678917e-02 6.363099e-02 1.067331e-01 1.994852e-01 1.473904e-01 1.687418e-01 1.868897e-01 1.362768e-01 1.375327e-01 1.672402e-01 1.591135e-01 3.402508e-03
<GCONST> 6.150634e+01
<STATE> 18
<MEAN> 39
 -1.402992e+01 -4.425555e+00 -3.814840e+00 -6.097811e+00 1.375852e+00 -1.923744e+00 2.246766e+00 -5.677170e+00 -3.249044e+00 -1.210602e+01 -4.538632e+00 -9.734284e+00 5.814792e+01 -6.540539e-01 5.728062e-03 5.322964e-01 6.868404e-01 6.736687e-01 4.154877e-01 5.117441e-01 3.852347e-01 -3.173373e-01 2.713991e-01 9.593214e-01 7.058692e-01 -4.033409e-01 6.063196e-02 -1.976514e-02 -1.371089e-03 9.989254e-05 4.642841e-02 2.633741e-01 2.894142e-01 3.150555e-01 3.309498e-01 7.097951e-03 -8.768823e-02 -8.559661e-02 5.604856e-02
<VARIANCE> 39
 2.811339e+00 6.417832e+00 9.167510e+00 1.653156e+01 3.498794e+01 2.061274e+01 1.814705e+01 1.942940e+01 1.393478e+01 2.193074e+01 1.754011e+01 2.286089e+01 7.636512e-01 9.110644e-02 3.011555e-01 3.090097e-01 7.232261e-01 7.804025e-01 1.888684e+00 2.256860e+00 1.596908e+00 1.467557e+00 1.607541e+00 1.899001e+00 1.095794e+00 3.082072e-02 1.590889e-02 6.320795e-02 6.357344e-02 1.542825e-01 1.567522e-01 2.415878e-01 3.756227e-01 9.250766e-02 1.779154e-01 2.453376e-01 4.030455e-01 2.871065e-01 2.783749e-03
<GCONST> 6.883876e+01
<STATE> 19
<MEAN> 39
 -1.672206e+01 -4.542526e+00 -1.537471e+00 -3.020111e+00 5.019249e+00 2.915795e+00 8.034649e+00 -1.505580e+00 -1.439823e+00 -1.124151e+01 -3.823809e+00 -1.026883e+01 5.658392e+01 -7.082322e-01 -3.055597e-01 2.097382e-01 3.516704e-01 3.181244e-01 5.602946e-01 7.835330e-01 3.149941e-01 -5.484283e-02 -2.880790e-01 9.208053e-02 1.133295e-01 -3.699105e-01 1.845956e-02 -5.967960e-02 -4.596654e-02 -3.214536e-02 -9.989874e-02 -1.925402e-01 -1.946048e-01 -1.279666e-01 -6.626163e-02 -4.617643e-02 -1.605585e-02 6.053867e-02 1.036441e-02
<VARIANCE> 39
 4.873274e+00 6.539593e+00 7.052278e+00 1.179808e+01 2.165698e+01 1.154152e+01 1.206760e+01 1.580276e+01 1.197694e+01 3.756160e+01 1.848519e+01 1.061344e+01 1.129804e+00 2.119338e-01 3.453845e-01 6.302558e-01 7.553143e-01 9.199581e-01 8.421273e-01 1.056143e+00 1.406604e+00 1.004283e+00 1.682449e+00 1.241786e+00 1.219368e+00 5.005569e-02 2.877587e-02 5.157022e-02 1.089273e-01 1.184041e-01 1.336600e-01 1.376548e-01 2.084434e-01 2.525910e-01 1.504516e-01 2.079354e-01 1.586518e-01 2.205566e-01 8.025333e-03
<GCONST> 6.712502e+01
<TRANSP> 20
 0.000000e+00 1.000000e+00 0.000000e+00 0.000000e+00 0.000000e+00 0.000000e+00 0.000000e+00 0.000000e+00 0.000000e+00 0.000000e+00 0.000000e+00 0.000000e+00 0.000000e+00 0.000000e+00 0.000000e+00 0.000000e+00 0.000000e+00 0.000000e+00 0.000000e+00 0.000000e+00
 0.000000e+00 7.600434e-01 2.399566e-01 0.000000e+00 0.000000e+00 0.000000e+00 0.000000e+00 0.000000e+00 0.000000e+00 0.000000e+00 0.000000e+00 0.000000e+00 0.000000e+00 0.000000e+00 0.000000e+00 0.000000e+00 0.000000e+00 0.000000e+00 0.000000e+00 0.000000e+00
 0.000000e+00 0.000000e+00 8.234943e-01 1.765058e-01 0.000000e+00 0.000000e+00 0.000000e+00 0.000000e+00 0.000000e+00 0.000000e+00 0.000000e+00 0.000000e+00 0.000000e+00 0.000000e+00 0.000000e+00 0.000000e+00 0.000000e+00 0.000000e+00 0.000000e+00 0.000000e+00
 0.000000e+00 0.000000e+00 0.000000e+00 7.647056e-01 2.352944e-01 0.000000e+00 0.000000e+00 0.000000e+00 0.000000e+00 0.000000e+00 0.000000e+00 0.000000e+00 0.000000e+00 0.000000e+00 0.000000e+00 0.000000e+00 0.000000e+00 0.000000e+00 0.000000e+00 0.000000e+00
 0.000000e+00 0.000000e+00 0.000000e+00 0.000000e+00 8.213573e-01 1.786427e-01 0.000000e+00 0.000000e+00 0.000000e+00 0.000000e+00 0.000000e+00 0.000000e+00 0.000000e+00 0.000000e+00 0.000000e+00 0.000000e+00 0.000000e+00 0.000000e+00 0.000000e+00 0.000000e+00
 0.000000e+00 0.000000e+00 0.000000e+00 0.000000e+00 0.000000e+00 7.379266e-01 2.620734e-01 0.000000e+00 0.000000e+00 0.000000e+00 0.000000e+00 0.000000e+00 0.000000e+00 0.000000e+00 0.000000e+00 0.000000e+00 0.000000e+00 0.000000e+00 0.000000e+00 0.000000e+00
 0.000000e+00 0.000000e+00 0.000000e+00 0.000000e+00 0.000000e+00 0.000000e+00 7.087099e-01 2.912901e-01 0.000000e+00 0.000000e+00 0.000000e+00 0.000000e+00 0.000000e+00 0.000000e+00 0.000000e+00 0.000000e+00 0.000000e+00 0.000000e+00 0.000000e+00 0.000000e+00
 0.000000e+00 0.000000e+00 0.000000e+00 0.000000e+00 0.000000e+00 0.000000e+00 0.000000e+00 8.224416e-01 1.775584e-01 0.000000e+00 0.000000e+00 0.000000e+00 0.000000e+00 0.000000e+00 0.000000e+00 0.000000e+00 0.000000e+00 0.000000e+00 0.000000e+00 0.000000e+00
 0.000000e+00 0.000000e+00 0.000000e+00 0.000000e+00 0.000000e+00 0.000000e+00 0.000000e+00 0.000000e+00 7.556903e-01 2.443097e-01 0.000000e+00 0.000000e+00 0.000000e+00 0.000000e+00 0.000000e+00 0.000000e+00 0.000000e+00 0.000000e+00 0.000000e+00 0.000000e+00
 0.000000e+00 0.000000e+00 0.000000e+00 0.000000e+00 0.000000e+00 0.000000e+00 0.000000e+00 0.000000e+00 0.000000e+00 8.554717e-01 1.445283e-01 0.000000e+00 0.000000e+00 0.000000e+00 0.000000e+00 0.000000e+00 0.000000e+00 0.000000e+00 0.000000e+00 0.000000e+00
 0.000000e+00 0.000000e+00 0.000000e+00 0.000000e+00 0.000000e+00 0.000000e+00 0.000000e+00 0.000000e+00 0.000000e+00 0.000000e+00 8.334987e-01 1.665014e-01 0.000000e+00 0.000000e+00 0.000000e+00 0.000000e+00 0.000000e+00 0.000000e+00 0.000000e+00 0.000000e+00
 0.000000e+00 0.000000e+00 0.000000e+00 0.000000e+00 0.000000e+00 0.000000e+00 0.000000e+00 0.000000e+00 0.000000e+00 0.000000e+00 0.000000e+00 7.449228e-01 2.550773e-01 0.000000e+00 0.000000e+00 0.000000e+00 0.000000e+00 0.000000e+00 0.000000e+00 0.000000e+00
 0.000000e+00 0.000000e+00 0.000000e+00 0.000000e+00 0.000000e+00 0.000000e+00 0.000000e+00 0.000000e+00 0.000000e+00 0.000000e+00 0.000000e+00 0.000000e+00 6.923695e-01 3.076304e-01 0.000000e+00 0.000000e+00 0.000000e+00 0.000000e+00 0.000000e+00 0.000000e+00
 0.000000e+00 0.000000e+00 0.000000e+00 0.000000e+00 0.000000e+00 0.000000e+00 0.000000e+00 0.000000e+00 0.000000e+00 0.000000e+00 0.000000e+00 0.000000e+00 0.000000e+00 8.120873e-01 1.879128e-01 0.000000e+00 0.000000e+00 0.000000e+00 0.000000e+00 0.000000e+00
 0.000000e+00 0.000000e+00 0.000000e+00 0.000000e+00 0.000000e+00 0.000000e+00 0.000000e+00 0.000000e+00 0.000000e+00 0.000000e+00 0.000000e+00 0.000000e+00 0.000000e+00 0.000000e+00 7.380875e-01 2.619125e-01 0.000000e+00 0.000000e+00 0.000000e+00 0.000000e+00
 0.000000e+00 0.000000e+00 0.000000e+00 0.000000e+00 0.000000e+00 0.000000e+00 0.000000e+00 0.000000e+00 0.000000e+00 0.000000e+00 0.000000e+00 0.000000e+00 0.000000e+00 0.000000e+00 0.000000e+00 8.108326e-01 1.891674e-01 0.000000e+00 0.000000e+00 0.000000e+00
 0.000000e+00 0.000000e+00 0.000000e+00 0.000000e+00 0.000000e+00 0.000000e+00 0.000000e+00 0.000000e+00 0.000000e+00 0.000000e+00 0.000000e+00 0.000000e+00 0.000000e+00 0.000000e+00 0.000000e+00 0.000000e+00 8.088874e-01 1.911127e-01 0.000000e+00 0.000000e+00
 0.000000e+00 0.000000e+00 0.000000e+00 0.000000e+00 0.000000e+00 0.000000e+00 0.000000e+00 0.000000e+00 0.000000e+00 0.000000e+00 0.000000e+00 0.000000e+00 0.000000e+00 0.000000e+00 0.000000e+00 0.000000e+00 0.000000e+00 7.201235e-01 2.798766e-01 0.000000e+00
 0.000000e+00 0.000000e+00 0.000000e+00 0.000000e+00 0.000000e+00 0.000000e+00 0.000000e+00 0.000000e+00 0.000000e+00 0.000000e+00 0.000000e+00 0.000000e+00 0.000000e+00 0.000000e+00 0.000000e+00 0.000000e+00 0.000000e+00 0.000000e+00 8.187667e-01 1.812333e-01
 0.000000e+00 0.000000e+00 0.000000e+00 0.000000e+00 0.000000e+00 0.000000e+00 0.000000e+00 0.000000e+00 0.000000e+00 0.000000e+00 0.000000e+00 0.000000e+00 0.000000e+00 0.000000e+00 0.000000e+00 0.000000e+00 0.000000e+00 0.000000e+00 0.000000e+00 0.000000e+00
<ENDHMM>
