~o
<STREAMINFO> 1 39
<VECSIZE> 39<NULLD><MFCC_D_A_0><DIAGC>
~h "sepuluh"
<BEGINHMM>
<NUMSTATES> 5
<STATE> 2
<MEAN> 39
 -1.292378e+01 2.084468e+00 -5.445711e+00 -5.684503e+00 1.417656e+00 -8.977438e+00 3.350801e-01 -9.948475e+00 4.669436e-01 -6.451013e+00 1.374862e+00 -6.001557e+00 6.345249e+01 7.043026e-01 3.929098e-01 -2.871971e-03 -4.603821e-01 -3.862935e-01 -8.152116e-02 -3.232680e-01 -3.129135e-01 -4.229991e-01 -1.250164e-01 1.577145e-01 2.025110e-01 3.514766e-01 2.300763e-02 -1.200956e-02 6.609694e-03 -8.559637e-03 2.597811e-02 5.550860e-02 -2.653193e-03 -4.168884e-02 -7.546836e-02 3.028294e-02 4.046252e-02 7.040815e-03 9.625517e-03
<VARIANCE> 39
 1.147944e+02 3.882860e+01 3.135496e+01 4.613131e+01 7.552538e+01 5.242010e+01 8.074833e+01 6.696245e+01 4.640976e+01 6.886031e+01 3.234098e+01 2.705906e+01 2.798623e+01 5.229028e+00 3.287305e+00 2.007739e+00 3.455067e+00 3.430890e+00 3.737390e+00 5.126090e+00 4.283360e+00 3.365159e+00 4.148050e+00 3.018810e+00 2.743463e+00 1.512764e+00 7.569060e-01 4.820403e-01 3.025221e-01 5.823874e-01 6.017666e-01 5.725785e-01 8.720360e-01 7.051774e-01 5.328734e-01 6.946998e-01 5.261612e-01 4.722993e-01 2.007486e-01
<GCONST> 1.297089e+02
<STATE> 3
<MEAN> 39
 2.744063e+00 3.626938e+00 -3.220651e+00 -1.267967e+01 -2.862649e+00 -3.693827e+00 -1.208429e+01 -2.054976e+01 -1.442046e+01 -3.613925e+00 1.016054e+01 -3.139987e+00 6.799612e+01 -2.674758e-01 -5.469734e-02 7.051339e-02 3.940789e-01 3.797275e-01 -2.283697e-04 -3.552655e-02 -1.371738e-01 3.355068e-02 8.857558e-02 6.799129e-02 -9.510504e-02 -1.343904e-01 -5.956476e-02 -1.531564e-02 2.471369e-02 5.337343e-02 -1.012601e-02 -6.852113e-02 9.994319e-03 8.644201e-02 1.060244e-01 -5.540140e-02 -9.998526e-02 -2.427997e-02 -4.110342e-02
<VARIANCE> 39
 6.396514e+00 1.535032e+01 4.681168e+01 4.102345e+01 6.225430e+01 4.199737e+01 6.582854e+01 5.911470e+01 5.277338e+01 6.015088e+01 5.299200e+01 4.867665e+01 5.386643e+00 2.943708e-01 6.507156e-01 1.139725e+00 2.318318e+00 1.351911e+00 1.908062e+00 2.131358e+00 2.763031e+00 2.757262e+00 3.124680e+00 2.211290e+00 2.741822e+00 2.230013e-01 3.553628e-02 9.328670e-02 1.819204e-01 3.242606e-01 2.337208e-01 3.361378e-01 3.461193e-01 3.559718e-01 4.489745e-01 4.722286e-01 3.111109e-01 4.816239e-01 2.081621e-02
<GCONST> 1.015581e+02
<STATE> 4
<MEAN> 39
 -1.270270e+01 -2.419275e+00 5.408867e-01 -1.163246e+00 4.346628e+00 -2.440873e+00 -1.980442e+00 -1.177394e+01 -6.760473e+00 -1.151317e+01 -1.471247e+00 -6.151615e+00 5.880058e+01 -6.743466e-01 -4.634732e-01 2.854157e-03 3.058340e-01 2.552243e-01 2.641700e-01 4.764512e-01 4.964342e-01 3.658933e-01 -1.717482e-01 -5.509576e-01 -3.623994e-01 -3.482551e-01 3.969407e-02 1.475445e-02 -2.956480e-02 -5.094273e-02 -1.497136e-02 2.598506e-02 1.438481e-03 -6.044270e-03 -1.913915e-02 5.751959e-03 1.446969e-02 -1.748458e-03 2.601283e-02
<VARIANCE> 39
 2.544336e+01 1.747937e+01 1.142700e+01 1.912694e+01 3.287787e+01 3.527320e+01 4.087607e+01 4.466246e+01 3.203954e+01 3.513684e+01 4.554865e+01 4.252416e+01 6.457267e+00 1.907368e-01 2.745395e-01 5.333602e-01 8.344683e-01 1.078571e+00 1.250782e+00 1.257743e+00 1.636497e+00 1.381431e+00 1.391749e+00 1.282749e+00 1.508108e+00 6.005994e-02 2.400018e-02 4.769871e-02 9.027931e-02 1.448221e-01 1.825145e-01 2.004831e-01 2.213531e-01 2.952110e-01 2.353151e-01 2.418284e-01 2.108220e-01 3.118185e-01 7.361853e-03
<GCONST> 8.230550e+01
<TRANSP> 5
 0.000000e+00 1.000000e+00 0.000000e+00 0.000000e+00 0.000000e+00
 0.000000e+00 9.691088e-01 3.089121e-02 0.000000e+00 0.000000e+00
 0.000000e+00 0.000000e+00 9.641604e-01 3.583958e-02 0.000000e+00
 0.000000e+00 0.000000e+00 0.000000e+00 9.585789e-01 4.142104e-02
 0.000000e+00 0.000000e+00 0.000000e+00 0.000000e+00 0.000000e+00
<ENDHMM>
