~o
<STREAMINFO> 1 39
<VECSIZE> 39<NULLD><MFCC_D_A_0><DIAGC>
~h "sil"
<BEGINHMM>
<NUMSTATES> 5
<STATE> 2
<MEAN> 39
 -1.735229e+01 -7.535926e+00 -6.566045e-01 -3.556005e+00 4.262671e+00 7.970946e-01 4.527569e+00 -3.063137e+00 -3.481037e-01 -8.318562e+00 -1.705548e+00 -7.322234e+00 5.572479e+01 -1.939008e-01 -1.986598e-01 -3.954334e-02 -5.013256e-02 -4.066038e-02 -8.300620e-02 2.739423e-03 1.736872e-01 1.609701e-01 1.065870e-01 5.044566e-02 -1.678025e-03 -3.052118e-02 1.980020e-02 2.812927e-02 -1.463289e-02 1.518344e-02 -1.397687e-02 -2.648832e-02 -3.995445e-02 -3.402015e-02 -1.395631e-02 1.451121e-02 8.460751e-03 9.628834e-03 -4.617813e-02
<VARIANCE> 39
 3.248518e+01 3.575547e+01 3.577607e+01 4.739867e+01 5.757708e+01 8.432458e+01 8.260687e+01 6.461209e+01 6.671217e+01 5.634960e+01 4.757405e+01 3.677704e+01 1.078730e+01 4.607286e-01 5.952080e-01 8.799678e-01 1.408614e+00 1.846945e+00 2.202691e+00 2.287408e+00 2.504531e+00 2.479476e+00 2.531890e+00 2.172261e+00 1.851538e+00 7.760629e-01 4.632889e-02 8.788229e-02 1.460673e-01 2.331466e-01 3.139838e-01 3.697023e-01 4.010992e-01 4.320877e-01 4.485658e-01 4.459304e-01 3.885246e-01 3.415823e-01 1.892490e-01
<GCONST> 1.082801e+02
<STATE> 3
<MEAN> 39
 -1.860639e+01 -7.672689e+00 -2.036027e+00 -2.840482e+00 3.610438e+00 -1.305790e-02 4.483294e+00 -3.088791e+00 2.157257e-01 -7.722896e+00 -1.195049e+00 -7.055577e+00 5.586312e+01 7.350676e-03 -2.390166e-02 -5.138157e-02 -4.420841e-02 -1.249202e-01 -1.611410e-01 -1.441107e-01 -5.166455e-02 6.544670e-02 1.132221e-01 1.243087e-01 9.455927e-02 1.514137e-02 1.199693e-02 1.461500e-02 2.446604e-03 -9.742679e-03 -1.516195e-02 -2.312481e-02 -2.843153e-02 -2.904053e-02 -9.402064e-03 -4.660327e-03 -7.957781e-04 -5.193630e-04 6.501386e-03
<VARIANCE> 39
 4.034323e+00 8.242298e+00 1.286721e+01 1.799289e+01 2.378520e+01 3.006284e+01 3.144607e+01 3.236696e+01 3.393258e+01 3.429005e+01 3.412330e+01 2.967751e+01 9.263287e-01 2.169020e-01 4.415607e-01 7.356222e-01 1.111350e+00 1.627543e+00 1.882313e+00 2.082979e+00 2.281075e+00 2.352831e+00 2.377708e+00 2.087496e+00 1.825076e+00 5.376966e-02 3.655989e-02 7.721795e-02 1.379881e-01 2.086530e-01 2.950896e-01 3.342888e-01 3.740009e-01 4.220850e-01 4.365640e-01 4.549469e-01 3.892201e-01 3.446817e-01 9.241733e-03
<GCONST> 8.640489e+01
<STATE> 4
<MEAN> 39
 -1.750687e+01 -6.902736e+00 -2.698697e+00 -4.497156e+00 4.573686e-01 -4.295371e+00 6.036354e-01 -5.635189e+00 1.757106e-01 -6.788485e+00 2.708985e-01 -5.893775e+00 5.660051e+01 -3.715104e-03 -8.515821e-03 -1.189129e-02 -1.251386e-02 -2.218611e-02 -4.068857e-02 -3.265148e-02 -1.648333e-02 4.835158e-03 7.119863e-03 -4.533178e-03 4.336609e-03 9.784277e-04 8.263767e-04 1.495578e-03 3.361085e-03 7.074833e-03 8.628702e-03 1.039238e-02 8.738851e-03 3.472360e-03 2.389793e-03 -3.944186e-04 -2.730048e-03 -2.476965e-03 9.554154e-04
<VARIANCE> 39
 1.422142e+00 2.787843e+00 4.884730e+00 6.969603e+00 8.951515e+00 1.107257e+01 1.311214e+01 1.423949e+01 1.470524e+01 1.384626e+01 1.282242e+01 1.174707e+01 3.741996e-01 1.295626e-01 2.747246e-01 4.739310e-01 6.634399e-01 8.830322e-01 1.122449e+00 1.317390e+00 1.418998e+00 1.479622e+00 1.413554e+00 1.311138e+00 1.193843e+00 3.278561e-02 2.592653e-02 5.600469e-02 9.602383e-02 1.336703e-01 1.776926e-01 2.251345e-01 2.663712e-01 2.880222e-01 3.005060e-01 2.854578e-01 2.652199e-01 2.382439e-01 6.725751e-03
<GCONST> 6.275243e+01
<TRANSP> 5
 0.000000e+00 1.000000e+00 0.000000e+00 0.000000e+00 0.000000e+00
 0.000000e+00 8.464578e-01 1.535423e-01 0.000000e+00 0.000000e+00
 0.000000e+00 0.000000e+00 9.258988e-01 7.410120e-02 0.000000e+00
 0.000000e+00 0.000000e+00 0.000000e+00 9.638141e-01 3.618585e-02
 0.000000e+00 0.000000e+00 0.000000e+00 0.000000e+00 0.000000e+00
<ENDHMM>
