~o
<STREAMINFO> 1 39
<VECSIZE> 39<NULLD><MFCC_D_A_0><DIAGC>
~h "delapan"
<BEGINHMM>
<NUMSTATES> 5
<STATE> 2
<MEAN> 39
 -9.822872e+00 -2.533048e-01 5.207291e+00 -6.390532e-01 -1.385924e+00 -8.096939e+00 -4.556085e+00 -9.782632e+00 -6.168445e-01 -7.615055e+00 -2.162697e+00 -7.009645e+00 6.146470e+01 1.538218e+00 3.398109e-01 6.984075e-01 -2.861959e-01 -9.154742e-01 -1.028246e+00 -1.668269e+00 -6.020871e-01 5.788252e-01 4.897900e-01 -1.005096e-01 7.210523e-02 1.305320e+00 9.016916e-02 -2.531860e-01 -2.138224e-01 -1.773936e-01 9.430543e-02 7.079216e-02 -7.530615e-02 6.920723e-02 1.053762e-01 1.869081e-01 8.431886e-03 5.593990e-02 1.475478e-01
<VARIANCE> 39
 4.368699e+01 3.451889e+01 4.346741e+01 2.266488e+01 8.264463e+01 5.516216e+01 7.168718e+01 5.025132e+01 4.231443e+01 5.628309e+01 2.179216e+01 2.216831e+01 2.579047e+01 1.771033e+00 4.658286e+00 4.068583e+00 3.522023e+00 7.578448e+00 6.332576e+00 5.488277e+00 5.698283e+00 6.473123e+00 5.949934e+00 2.782142e+00 2.871163e+00 1.167871e+00 3.708249e-01 6.427847e-01 7.669775e-01 4.897652e-01 1.385070e+00 1.242506e+00 1.129022e+00 1.079053e+00 1.004009e+00 9.164842e-01 5.159949e-01 4.920441e-01 1.543552e-01
<GCONST> 1.326837e+02
<STATE> 3
<MEAN> 39
 -8.490808e-01 -9.061809e+00 -5.962819e+00 -1.208561e+01 9.607796e-01 -2.982836e+00 -8.555046e+00 -9.158692e+00 8.257976e-01 -3.432915e+00 -6.727084e+00 -1.029056e+01 7.166432e+01 1.383555e-02 -1.008407e-02 -1.170224e-01 2.911282e-02 1.151414e-01 1.579897e-01 1.951369e-01 8.562380e-02 -1.261538e-01 -2.031142e-01 -1.035429e-01 1.096345e-02 -2.572298e-02 -2.923467e-02 8.808531e-02 5.495765e-02 4.546110e-02 -1.760425e-02 -9.283667e-03 2.439738e-02 -2.375377e-02 -2.124643e-02 -4.212890e-02 5.875892e-03 -1.791970e-02 -5.595009e-02
<VARIANCE> 39
 1.503561e+01 3.341907e+01 6.124447e+01 2.908978e+01 8.723261e+01 1.205707e+02 5.921902e+01 1.081378e+02 8.730787e+01 7.219794e+01 8.817274e+01 5.717976e+01 3.011983e+01 1.114328e+00 2.529846e+00 2.566533e+00 2.157022e+00 2.258248e+00 3.693451e+00 2.138001e+00 3.567420e+00 2.727869e+00 4.443377e+00 2.840823e+00 2.399724e+00 1.649817e+00 1.812559e-01 2.778455e-01 3.511207e-01 3.382049e-01 2.951441e-01 5.276764e-01 3.769902e-01 6.149288e-01 3.935372e-01 7.615027e-01 4.796986e-01 4.488073e-01 1.757700e-01
<GCONST> 1.229826e+02
<STATE> 4
<MEAN> 39
 -9.852536e+00 -3.904821e-01 1.374190e+00 -1.774811e+00 3.307516e+00 -2.024359e+00 -1.915401e-01 -8.247334e+00 -4.688179e+00 -1.342224e+01 -5.356519e+00 -1.007085e+01 6.039020e+01 -5.776514e-01 -1.069576e-01 -4.123745e-02 9.222062e-02 2.500627e-01 2.832395e-01 3.979408e-01 6.456502e-02 -1.602399e-01 -3.508503e-02 9.689967e-02 -1.564103e-01 -4.274502e-01 -1.553583e-03 -6.241425e-02 -1.883436e-02 -7.166340e-03 -2.100955e-02 -2.609990e-02 -5.694274e-03 1.274984e-02 2.661497e-03 2.406414e-02 7.409032e-03 2.887133e-02 2.568227e-02
<VARIANCE> 39
 3.865800e+01 2.003443e+01 1.681548e+01 2.206872e+01 3.672509e+01 3.976633e+01 4.553043e+01 4.126680e+01 5.244189e+01 5.290880e+01 4.385857e+01 3.278584e+01 1.652890e+01 2.256228e-01 7.227393e-01 7.717398e-01 8.178543e-01 1.342271e+00 1.648884e+00 1.446259e+00 1.669874e+00 1.568512e+00 1.868771e+00 1.358290e+00 1.274438e+00 1.315111e-01 3.173225e-02 6.434505e-02 1.139185e-01 1.292400e-01 1.973961e-01 2.601203e-01 2.468554e-01 2.787579e-01 2.543198e-01 3.173558e-01 2.543315e-01 2.235068e-01 8.639501e-03
<GCONST> 8.987951e+01
<TRANSP> 5
 0.000000e+00 1.000000e+00 0.000000e+00 0.000000e+00 0.000000e+00
 0.000000e+00 9.074900e-01 9.251004e-02 0.000000e+00 0.000000e+00
 0.000000e+00 0.000000e+00 9.781159e-01 2.188413e-02 0.000000e+00
 0.000000e+00 0.000000e+00 0.000000e+00 9.684162e-01 3.158377e-02
 0.000000e+00 0.000000e+00 0.000000e+00 0.000000e+00 0.000000e+00
<ENDHMM>
