~o
<STREAMINFO> 1 39
<VECSIZE> 39<NULLD><MFCC_D_A_0><DIAGC>
~h "empat"
<BEGINHMM>
<NUMSTATES> 5
<STATE> 2
<MEAN> 39
 -5.324675e+00 2.089027e-01 6.462637e-02 -5.064623e+00 1.483075e+00 -1.945667e+00 -4.533455e+00 -1.600034e+01 -6.551051e+00 -7.141256e+00 1.582873e+00 -5.459011e+00 6.374792e+01 6.651185e-01 1.754479e-02 -3.528657e-01 -3.407720e-01 -3.518748e-02 2.364932e-01 -1.498305e-01 -3.728804e-01 -2.991172e-02 9.817302e-02 -7.651915e-02 -1.955100e-01 4.766397e-01 7.848183e-02 -1.130872e-01 -1.127296e-01 -1.090996e-01 -2.559079e-02 9.190177e-02 -5.852062e-03 4.769530e-04 1.090661e-01 9.015115e-02 -4.104992e-02 -8.071165e-02 9.026152e-02
<VARIANCE> 39
 4.280453e+01 2.958807e+01 3.134636e+01 4.468545e+01 4.363581e+01 4.150216e+01 4.632420e+01 7.274774e+01 5.190760e+01 5.238924e+01 3.085815e+01 4.055476e+01 2.296925e+01 3.805348e+00 2.034249e+00 3.481031e+00 3.827428e+00 2.299476e+00 3.666311e+00 3.280487e+00 4.599342e+00 3.339237e+00 3.924392e+00 2.227234e+00 3.070100e+00 2.289978e+00 4.518039e-01 2.228212e-01 3.987161e-01 4.985448e-01 3.946852e-01 5.278199e-01 4.875633e-01 6.263137e-01 4.202710e-01 4.932946e-01 4.156154e-01 5.012276e-01 2.717002e-01
<GCONST> 1.235588e+02
<STATE> 3
<MEAN> 39
 1.450603e+00 -1.482563e+01 -1.260262e+01 -1.158566e+01 -1.585030e+00 8.954716e-03 -5.620341e+00 -1.140792e+01 4.699207e+00 -5.434271e+00 -8.939553e+00 -1.157024e+01 7.460703e+01 -1.284223e-01 -4.073786e-01 3.847117e-01 5.815315e-01 -2.758819e-01 -8.434060e-01 -1.826541e-01 7.536961e-01 3.394190e-01 -6.809613e-01 -7.556186e-01 2.591171e-01 1.023920e-01 -3.168710e-01 3.458018e-01 3.247112e-01 2.588987e-01 5.857891e-02 -1.818564e-01 1.285980e-01 5.205603e-02 -2.834702e-01 -2.027713e-01 1.325583e-01 1.522866e-01 -3.787245e-01
<VARIANCE> 39
 5.031287e+00 2.328420e+01 9.858683e+01 4.481658e+01 7.345364e+01 9.084566e+01 6.011438e+01 1.127291e+02 4.302159e+01 1.021414e+02 5.256092e+01 6.363526e+01 1.150753e+01 1.009484e+00 3.718337e+00 2.361209e+00 2.827186e+00 2.006056e+00 3.292152e+00 1.889497e+00 3.261504e+00 3.608960e+00 4.034850e+00 2.277893e+00 2.974621e+00 2.187797e+00 2.213968e-01 2.442821e-01 5.603445e-01 7.760245e-01 3.301778e-01 7.372174e-01 4.609497e-01 6.385046e-01 5.335814e-01 8.234118e-01 4.152195e-01 5.163088e-01 7.803777e-02
<GCONST> 1.224104e+02
<STATE> 4
<MEAN> 39
 -1.062515e+01 -5.759472e+00 -4.449677e+00 -5.630759e+00 -1.774379e-01 -4.895021e+00 -4.004986e-01 -5.638123e+00 -8.322716e-01 -1.143090e+01 -6.257592e+00 -9.303028e+00 6.105238e+01 -8.042242e-01 3.079462e-01 3.944584e-01 2.640949e-01 2.104818e-01 1.724493e-01 5.141807e-01 2.790937e-01 -2.416059e-01 -8.560193e-03 4.042915e-01 1.532140e-01 -7.182143e-01 2.557722e-02 -7.420140e-02 -1.635369e-02 2.084815e-02 2.294948e-03 1.718522e-02 1.129495e-02 3.407269e-02 5.282250e-02 2.580962e-02 -6.765486e-03 5.950085e-02 6.729400e-02
<VARIANCE> 39
 2.447404e+01 8.673116e+00 2.054674e+01 2.143574e+01 1.857845e+01 2.793957e+01 4.978736e+01 3.570578e+01 2.192041e+01 2.068808e+01 3.680969e+01 3.758398e+01 1.739904e+01 1.684878e-01 4.845871e-01 6.423644e-01 8.440905e-01 9.244713e-01 1.247388e+00 1.613817e+00 1.406101e+00 1.556264e+00 1.358101e+00 1.364845e+00 1.023351e+00 1.816808e-01 2.060669e-02 5.472080e-02 7.170592e-02 1.352377e-01 1.557626e-01 2.023536e-01 2.324700e-01 2.156520e-01 2.838874e-01 2.433331e-01 2.200071e-01 1.571231e-01 1.097988e-02
<GCONST> 8.186234e+01
<TRANSP> 5
 0.000000e+00 1.000000e+00 0.000000e+00 0.000000e+00 0.000000e+00
 0.000000e+00 9.632779e-01 3.672210e-02 0.000000e+00 0.000000e+00
 0.000000e+00 0.000000e+00 9.169388e-01 8.306110e-02 0.000000e+00
 0.000000e+00 0.000000e+00 0.000000e+00 9.503616e-01 4.963840e-02
 0.000000e+00 0.000000e+00 0.000000e+00 0.000000e+00 0.000000e+00
<ENDHMM>
