~o
<STREAMINFO> 1 39
<VECSIZE> 39<NULLD><MFCC_D_A_0><DIAGC>
~h "nyalakan"
<BEGINHMM>
<NUMSTATES> 5
<STATE> 2
<MEAN> 39
 -6.931253e+00 -3.245396e+00 5.233809e+00 -4.913342e+00 -7.637730e+00 -1.169010e+01 -2.808810e+00 -2.038195e-01 -6.432491e+00 -1.035400e+01 2.896082e+00 -7.171366e+00 6.410137e+01 1.423255e+00 -3.617851e-01 3.009599e-01 -1.752684e-01 -8.631643e-01 -1.245856e+00 -3.892808e-03 1.058444e+00 -5.908592e-01 -1.000301e+00 -4.984549e-01 -3.405577e-02 1.640350e+00 -2.638593e-02 -3.232911e-01 -3.159470e-01 -5.300124e-02 2.079515e-01 2.229234e-01 -1.580938e-01 -1.163417e-01 2.260269e-01 4.597589e-02 -1.817251e-01 -5.529547e-02 3.779991e-02
<VARIANCE> 39
 3.981754e+01 4.600820e+01 6.588333e+01 2.745217e+01 5.864938e+01 7.681604e+01 4.761071e+01 1.615464e+02 5.670868e+01 6.402722e+01 8.095016e+01 2.409010e+01 4.373439e+01 1.775298e+00 8.200072e+00 4.411386e+00 3.132257e+00 6.242007e+00 6.020149e+00 6.258655e+00 1.007600e+01 5.809927e+00 4.998971e+00 6.511576e+00 3.728564e+00 8.608748e-01 3.550032e-01 1.093949e+00 4.285510e-01 6.873851e-01 1.325074e+00 1.310958e+00 1.379664e+00 2.092184e+00 1.056530e+00 1.064201e+00 1.061644e+00 5.462545e-01 1.851061e-01
<GCONST> 1.404154e+02
<STATE> 3
<MEAN> 39
 -1.315216e+00 -1.111734e+01 -6.283301e+00 -7.094070e+00 4.999093e-01 -6.421241e+00 -7.122734e+00 -4.597780e+00 -1.860973e-01 -8.036511e+00 -7.156592e+00 -1.196876e+01 7.121143e+01 1.374367e-02 2.108523e-01 -4.226535e-02 4.632164e-02 1.634080e-01 3.870571e-02 -1.482289e-01 -3.517695e-01 1.375451e-02 7.159156e-02 -1.345087e-01 -3.626145e-02 -1.014408e-01 -1.600118e-02 8.304205e-02 6.745165e-02 1.340157e-04 -5.555259e-02 -4.929926e-02 3.041622e-02 9.940800e-03 -4.651454e-02 -6.148843e-03 4.729988e-02 1.909074e-02 -3.773801e-02
<VARIANCE> 39
 1.779804e+01 2.788367e+01 5.531948e+01 3.121024e+01 7.924899e+01 1.112953e+02 3.917578e+01 1.415191e+02 5.125060e+01 9.060627e+01 8.288783e+01 5.762587e+01 2.552633e+01 9.959357e-01 2.109086e+00 1.682727e+00 1.846282e+00 3.217456e+00 3.973042e+00 2.435715e+00 3.870373e+00 3.246795e+00 3.507403e+00 2.120331e+00 2.586750e+00 1.288164e+00 1.350271e-01 2.396857e-01 1.847049e-01 3.105447e-01 4.367890e-01 5.641425e-01 4.313101e-01 5.026961e-01 5.829118e-01 5.539089e-01 3.965732e-01 4.625244e-01 1.315631e-01
<GCONST> 1.201799e+02
<STATE> 4
<MEAN> 39
 -9.515800e+00 7.010735e-01 2.452676e+00 -1.278871e+00 2.802673e+00 -4.194129e+00 -2.558976e+00 -1.051544e+01 -5.711521e+00 -1.283175e+01 -6.202923e+00 -1.035587e+01 6.038208e+01 -5.156483e-01 -4.721404e-02 9.047446e-03 7.081095e-02 2.305779e-01 4.407619e-01 3.658615e-01 3.129190e-02 5.500500e-02 1.432260e-01 2.179191e-01 9.958105e-03 -3.747870e-01 -1.159633e-03 -6.597036e-02 -3.661146e-02 -1.902068e-02 -9.928290e-03 1.010352e-03 2.755455e-02 5.482725e-02 3.235249e-02 1.833545e-02 8.684031e-03 -7.488141e-04 2.156866e-02
<VARIANCE> 39
 3.261541e+01 1.627477e+01 1.264708e+01 1.799979e+01 4.461567e+01 6.274465e+01 4.340681e+01 4.196670e+01 4.108825e+01 3.790997e+01 3.628456e+01 2.953772e+01 1.354235e+01 2.016270e-01 6.597648e-01 8.239672e-01 9.226627e-01 1.295733e+00 1.449046e+00 1.607157e+00 1.785710e+00 1.723758e+00 1.787729e+00 1.760832e+00 1.654259e+00 1.036306e-01 3.313936e-02 6.781244e-02 1.378586e-01 1.780908e-01 2.051322e-01 2.376692e-01 2.910320e-01 3.317177e-01 3.371089e-01 2.879451e-01 2.939770e-01 2.779512e-01 8.619753e-03
<GCONST> 9.032410e+01
<TRANSP> 5
 0.000000e+00 1.000000e+00 0.000000e+00 0.000000e+00 0.000000e+00
 0.000000e+00 9.022391e-01 9.776095e-02 0.000000e+00 0.000000e+00
 0.000000e+00 0.000000e+00 9.771777e-01 2.282233e-02 0.000000e+00
 0.000000e+00 0.000000e+00 0.000000e+00 9.691080e-01 3.089201e-02
 0.000000e+00 0.000000e+00 0.000000e+00 0.000000e+00 0.000000e+00
<ENDHMM>
