~o
<STREAMINFO> 1 39
<VECSIZE> 39<NULLD><MFCC_D_A_0><DIAGC>
~h "pukul"
<BEGINHMM>
<NUMSTATES> 20
<STATE> 2
<MEAN> 39
 -1.664957e+01 -6.498510e+00 -2.712150e+00 -4.699037e+00 9.163134e-01 -4.208635e+00 7.259721e-01 -6.127333e+00 -9.757307e-01 -7.193300e+00 1.643350e+00 -5.085981e+00 5.749519e+01 1.607368e+00 7.014695e-01 -3.962594e-01 -8.000863e-01 -7.594287e-01 -6.152329e-01 -8.061876e-01 -1.576174e+00 -1.148239e+00 -2.838177e-01 6.390616e-01 7.320660e-01 9.892350e-01 8.409695e-01 5.722233e-01 -9.197599e-02 -6.315750e-01 -5.658441e-01 -1.718107e-01 -2.975377e-01 -2.842985e-01 -3.456358e-01 -1.772334e-02 2.040001e-01 1.673836e-01 4.132389e-01
<VARIANCE> 39
 2.662851e+00 2.538719e+00 8.324359e+00 9.089070e+00 9.763869e+00 2.016906e+01 1.927830e+01 1.841046e+01 1.509573e+01 1.157317e+01 1.688691e+01 1.335988e+01 2.005102e+00 2.988105e+00 1.924829e+00 1.677581e+00 2.857253e+00 3.183768e+00 2.442380e+00 2.990182e+00 3.163188e+00 2.135187e+00 1.773304e+00 2.631108e+00 2.095544e+00 8.579534e-01 2.582507e-01 2.826757e-01 2.353930e-01 4.555501e-01 4.800496e-01 4.817719e-01 5.550150e-01 4.431766e-01 3.553965e-01 2.779552e-01 6.403943e-01 4.136459e-01 6.985182e-02
<GCONST> 9.682557e+01
<STATE> 3
<MEAN> 39
 -7.043937e-01 4.011467e+00 -4.305719e+00 -1.577020e+01 -8.602318e+00 -7.602784e+00 -5.068572e+00 -1.393495e+01 -8.141459e+00 -9.028296e+00 5.527777e+00 -9.500441e-01 6.579910e+01 3.881960e+00 2.970917e+00 -7.173672e-02 -3.706182e+00 -2.484585e+00 1.002956e-01 -3.650026e-01 3.949007e-01 -1.382766e+00 -6.812811e-01 5.700791e-01 2.720932e-01 1.938334e+00 -8.558487e-01 -4.956311e-01 1.558795e-01 4.076016e-01 5.605903e-01 4.693864e-01 6.084484e-01 9.569860e-01 4.171220e-01 -1.395766e-01 -2.642673e-01 -3.060526e-01 -4.260419e-01
<VARIANCE> 39
 2.250399e+01 2.330623e+01 2.874978e+01 4.174960e+01 3.253286e+01 2.654317e+01 1.765824e+01 3.096798e+01 2.552068e+01 2.163405e+01 4.193073e+01 2.507729e+01 6.440579e+00 2.306879e+00 2.098872e+00 1.842119e+00 2.886451e+00 2.708946e+00 4.496908e+00 3.526459e+00 5.149106e+00 2.573135e+00 1.879322e+00 5.378407e+00 1.966415e+00 6.669595e-01 5.122544e-01 5.646706e-01 3.871312e-01 1.012152e+00 5.599754e-01 2.927934e-01 4.344494e-01 4.271981e-01 3.770757e-01 4.014066e-01 5.803363e-01 4.710911e-01 1.100403e-01
<GCONST> 1.143448e+02
<STATE> 4
<MEAN> 39
 4.230329e+00 8.140945e+00 -2.953145e+00 -2.260597e+01 -9.972293e+00 -3.461678e+00 -3.435504e+00 -8.141018e+00 -9.925787e+00 -1.249682e+01 6.950241e+00 -1.712453e-01 6.891694e+01 -4.741758e-01 5.629560e-02 4.102612e-01 7.436041e-01 5.377786e-01 -2.811859e-02 5.456808e-01 5.103719e-01 1.751304e-01 -5.982082e-01 -8.412219e-01 -3.832602e-01 -3.798448e-01 -7.053293e-01 -4.608543e-01 1.504541e-01 9.045876e-01 4.339671e-01 -2.425750e-01 -1.123214e-01 -3.077403e-01 2.969954e-01 2.058577e-01 -2.989109e-01 -1.994932e-01 -4.341878e-01
<VARIANCE> 39
 3.030572e+00 5.783712e+00 2.302653e+01 2.683934e+01 3.655510e+01 8.018200e+01 1.901314e+01 8.367042e+01 2.886996e+01 9.153633e+00 6.061353e+01 2.287143e+01 6.041958e+00 5.828156e-01 3.179365e-01 7.886940e-01 2.234106e+00 1.139301e+00 1.684168e+00 9.277544e-01 2.819207e+00 1.647555e+00 1.287100e+00 9.003131e-01 1.456904e+00 3.983968e-01 1.403791e-01 1.293209e-01 1.532616e-01 4.050466e-01 2.329617e-01 3.819769e-01 3.012708e-01 6.094198e-01 2.773708e-01 2.480467e-01 2.790229e-01 2.137237e-01 4.031943e-02
<GCONST> 9.191976e+01
<STATE> 5
<MEAN> 39
 -2.045157e+00 5.407801e+00 -1.285506e+00 -1.416972e+01 -6.612856e+00 -6.604268e+00 -1.965217e+00 -8.081143e+00 -7.033773e+00 -1.246653e+01 2.230678e-01 -4.660141e+00 6.436800e+01 -1.429388e+00 -9.098812e-01 3.567973e-01 1.417859e+00 4.786910e-01 -4.507563e-01 -1.579925e-01 -1.197391e-01 5.355216e-01 1.341234e-01 -7.756909e-01 -3.625550e-01 -8.379610e-01 3.258001e-02 -6.109094e-02 -1.118086e-01 -1.526166e-01 -1.017014e-01 1.812806e-02 -5.447211e-02 -1.252317e-01 -1.060532e-01 7.035211e-02 2.495788e-01 1.659056e-01 6.022444e-02
<VARIANCE> 39
 5.372037e+00 5.609910e+00 1.085743e+01 1.242316e+01 3.709413e+01 4.106539e+01 1.784752e+01 4.779936e+01 3.465785e+01 1.446117e+01 5.092562e+01 3.665553e+01 2.270666e+00 9.787107e-02 2.982849e-01 5.670437e-01 6.271109e-01 1.176936e+00 1.222526e+00 1.309348e+00 2.025512e+00 9.556254e-01 1.474249e+00 1.493470e+00 1.318349e+00 4.627343e-02 3.282685e-02 4.591725e-02 6.261639e-02 8.145317e-02 1.814638e-01 2.180604e-01 2.317356e-01 3.096617e-01 2.374059e-01 3.552610e-01 2.439242e-01 2.037477e-01 9.247021e-03
<GCONST> 7.555423e+01
<STATE> 6
<MEAN> 39
 -7.802001e+00 1.434058e+00 -2.879384e-01 -8.172182e+00 -4.452166e+00 -7.597323e+00 -2.230150e+00 -9.744805e+00 -4.834039e+00 -1.123189e+01 -1.678877e+00 -6.005722e+00 6.116325e+01 -7.027713e-01 -4.767462e-01 3.593589e-02 8.859679e-01 1.082519e+00 5.938787e-01 2.999444e-01 6.133847e-02 2.795140e-01 1.917052e-01 -2.130352e-01 -6.141843e-01 -3.521914e-01 1.815453e-01 6.092609e-02 -2.498116e-01 -2.555424e-01 5.749039e-02 2.604949e-01 2.631698e-01 2.595740e-01 -1.110617e-02 2.049140e-02 1.051823e-02 -1.024522e-02 1.236009e-01
<VARIANCE> 39
 3.724571e+00 4.317717e+00 8.195137e+00 1.270226e+01 2.245052e+01 2.035631e+01 1.084441e+01 1.901410e+01 2.284694e+01 1.526815e+01 3.024472e+01 2.645957e+01 1.045442e+00 1.239442e-01 3.031509e-01 5.645057e-01 8.683711e-01 6.111913e-01 7.038884e-01 1.114960e+00 9.262030e-01 1.542584e+00 1.606717e+00 1.788036e+00 1.153411e+00 3.831831e-02 2.956006e-02 1.103112e-01 2.482076e-01 2.306362e-01 3.277284e-01 2.457495e-01 3.238457e-01 3.005633e-01 4.129115e-01 3.265113e-01 4.514031e-01 3.110319e-01 1.164304e-02
<GCONST> 7.484676e+01
<STATE> 7
<MEAN> 39
 -8.986868e+00 -7.507762e-01 -4.358716e+00 -9.204994e+00 -1.124711e+00 -2.775970e+00 2.622052e+00 -5.672520e+00 -3.026173e+00 -1.005798e+01 -2.808241e+00 -8.479111e+00 6.108616e+01 3.768463e-01 -5.353810e-01 -2.317587e+00 -1.972358e+00 -2.646007e-01 1.686552e+00 2.327509e+00 1.303151e+00 5.063654e-02 4.167210e-01 1.927580e-01 3.426381e-01 4.753399e-01 4.531489e-01 4.033053e-01 7.373833e-02 -4.099257e-01 -5.863959e-01 -4.209788e-01 -4.879070e-01 -5.674829e-01 -4.332851e-01 -1.458664e-01 3.991328e-01 4.629570e-01 2.096328e-01
<VARIANCE> 39
 4.365534e+00 6.173051e+00 3.104599e+01 4.521210e+01 4.709913e+01 3.494672e+01 3.364156e+01 3.679372e+01 4.243180e+01 4.999970e+01 4.248666e+01 2.584403e+01 1.932809e+00 4.576513e-01 1.207696e+00 3.035547e+00 3.047212e+00 4.182851e+00 3.083265e+00 3.977800e+00 3.492682e+00 3.356087e+00 2.642577e+00 3.766724e+00 1.428259e+00 2.157142e-01 1.017244e-01 1.863838e-01 7.896543e-01 8.306268e-01 4.652238e-01 7.412168e-01 1.471777e+00 6.179308e-01 4.540960e-01 5.791677e-01 4.815521e-01 2.269670e-01 4.653313e-02
<GCONST> 1.090531e+02
<STATE> 8
<MEAN> 39
 -6.677440e+00 1.541425e-01 -7.652081e+00 -1.335727e+01 -3.311304e+00 -9.338391e-01 5.224688e+00 -6.214359e+00 -6.345647e+00 -1.118425e+01 -4.343595e-01 -4.669757e+00 6.258844e+01 2.098871e+00 1.901051e+00 6.671550e-01 -8.362602e-01 -1.377935e+00 -1.509299e+00 -2.606052e+00 -2.529546e+00 -2.041209e+00 -6.919991e-01 1.679881e+00 1.751592e+00 1.011554e+00 5.215414e-01 4.661008e-01 5.320576e-01 -1.883294e-02 -2.121548e-01 -4.822003e-01 -1.156760e+00 -6.510515e-01 -1.392872e-01 6.041534e-02 3.371916e-01 -7.376881e-02 2.851130e-01
<VARIANCE> 39
 9.080851e+00 1.605305e+01 4.455692e+01 5.798890e+01 9.369901e+01 5.064914e+01 3.496521e+01 6.533500e+01 5.716050e+01 3.293758e+01 5.464975e+01 3.819990e+01 3.004063e+00 1.069579e+00 9.976994e-01 2.783577e+00 4.428008e+00 2.891080e+00 2.404186e+00 3.461219e+00 2.147397e+00 1.529876e+00 1.514413e+00 1.681692e+00 1.646818e+00 3.867261e-01 1.672654e-01 2.766035e-01 1.112882e+00 1.298306e+00 8.279474e-01 8.796307e-01 7.845708e-01 7.066772e-01 5.084423e-01 3.136889e-01 3.582121e-01 5.179965e-01 9.866150e-02
<GCONST> 1.149812e+02
<STATE> 9
<MEAN> 39
 1.625548e+00 6.982433e+00 -4.796041e+00 -1.821314e+01 -8.323164e+00 -6.643949e+00 -7.900252e+00 -1.492001e+01 -1.138319e+01 -1.138204e+01 6.556594e+00 -1.916905e+00 6.733708e+01 1.908317e+00 9.270943e-01 -1.342500e-02 -1.866445e+00 -7.162122e-01 8.595637e-02 -2.256293e+00 -7.720337e-01 -7.863028e-01 6.080857e-01 1.666777e+00 -2.764194e-01 1.363214e+00 -5.600380e-01 -6.333466e-01 -3.158353e-01 2.276113e-01 6.605738e-01 8.158907e-01 8.632185e-01 7.166595e-01 4.364277e-01 3.568141e-01 -3.805965e-01 -5.219480e-01 -2.109785e-01
<VARIANCE> 39
 3.883985e+00 1.675511e+01 4.112173e+01 3.488796e+01 3.136302e+01 3.355896e+01 6.719714e+01 6.389528e+01 5.782006e+01 2.602838e+01 1.066220e+02 2.925068e+01 4.248109e+00 1.010993e+00 1.320580e+00 2.127384e+00 4.478925e+00 2.988270e+00 3.999783e+00 4.844242e+00 4.548345e+00 3.435854e+00 3.000432e+00 2.692443e+00 2.768757e+00 5.201061e-01 8.033140e-02 7.475984e-02 2.555257e-01 4.761923e-01 2.606609e-01 3.494320e-01 3.495306e-01 4.224700e-01 4.754643e-01 1.766236e-01 3.095233e-01 3.209193e-01 5.719284e-02
<GCONST> 1.078803e+02
<STATE> 10
<MEAN> 39
 4.291870e+00 7.679816e+00 -8.292562e+00 -1.992709e+01 -9.010762e+00 -3.422267e+00 -2.619617e+00 -1.490563e+01 -1.146689e+01 -1.066935e+01 7.314193e+00 -1.073912e+00 6.889529e+01 1.059758e-01 -5.732784e-01 -5.882785e-01 -1.232029e-01 7.933096e-01 1.055735e+00 -4.929797e-01 -1.606552e+00 -3.430161e-01 1.655129e+00 1.307496e+00 -4.482618e-01 3.726368e-01 -2.384568e-01 -2.188813e-01 1.914688e-01 2.383154e-01 -8.619581e-04 -4.141921e-02 -5.742618e-02 -2.770547e-01 2.227301e-01 3.852581e-01 -2.343319e-01 -2.437331e-01 -9.598085e-02
<VARIANCE> 39
 2.964906e+00 1.560981e+01 2.990224e+01 2.871235e+01 2.670585e+01 2.613971e+01 3.889235e+01 4.769323e+01 2.759961e+01 3.942596e+01 4.877072e+01 2.590597e+01 1.513552e+00 1.938836e-01 5.599855e-01 7.970115e-01 6.545791e-01 8.551264e-01 1.179897e+00 1.418172e+00 4.102957e+00 1.395177e+00 3.351983e+00 2.262910e+00 3.463816e+00 5.519375e-02 4.831610e-02 6.828610e-02 1.645365e-01 1.369060e-01 1.832147e-01 1.484924e-01 2.216235e-01 3.482982e-01 1.954163e-01 3.714477e-01 6.355556e-01 3.889078e-01 1.896537e-02
<GCONST> 8.683443e+01
<STATE> 11
<MEAN> 39
 1.808972e+00 3.770530e+00 -1.593186e+00 -2.474751e+01 1.043387e+00 -2.968434e-01 -2.384326e+01 -1.185244e+01 -1.627764e+01 2.355607e+00 1.596781e+01 -9.061250e+00 7.347160e+01 2.014777e-02 -2.566682e-01 -1.751334e-01 2.827396e-01 3.210411e-01 -3.607288e-01 -2.658140e-01 -3.764692e-01 6.502730e-01 5.905482e-01 -8.271557e-01 -8.566601e-01 -3.192834e-02 -6.272609e-03 2.989303e-02 3.102854e-02 1.342792e-01 -7.777642e-02 -6.218307e-02 1.741943e-01 -2.079572e-02 2.113607e-02 -1.942035e-01 -2.093961e-01 9.779323e-02 -8.092170e-02
<VARIANCE> 39
 3.619788e+00 8.234468e+00 5.105197e+01 3.391963e+01 2.513037e+01 7.787796e+01 8.961833e+01 6.817552e+01 1.963676e+01 4.152516e+01 4.766697e+01 3.560045e+01 1.039983e+01 1.349271e-01 6.816460e-01 9.551870e-01 1.254735e+00 9.852276e-01 1.727254e+00 3.167500e+00 3.035165e+00 1.399436e+00 3.011827e+00 2.328794e+00 1.250453e+00 2.971705e-01 2.137506e-02 5.489035e-02 1.490631e-01 1.525616e-01 1.708428e-01 2.777379e-01 3.253997e-01 3.811691e-01 3.432336e-01 3.027346e-01 2.821481e-01 2.407861e-01 1.424435e-02
<GCONST> 9.231979e+01
<STATE> 12
<MEAN> 39
 2.304946e+00 -2.043036e-02 -7.219686e+00 -1.654029e+01 -6.031153e+00 2.360584e+00 -8.589716e+00 -2.844205e+01 -4.104557e+00 5.301285e+00 5.255532e+00 -7.729599e+00 6.978167e+01 -4.516022e-01 -3.012684e-01 6.553249e-01 4.150177e-01 -3.149924e-02 -2.418241e-01 -4.382924e-01 2.492262e-02 8.556051e-01 2.839897e-01 -8.936682e-01 -3.069860e-01 -2.315161e-01 -4.258968e-02 1.608167e-01 -1.219188e-02 4.780895e-02 3.813600e-02 -2.252228e-01 4.407746e-02 3.304409e-01 -3.101725e-01 -6.970973e-01 1.545185e-02 1.184402e-01 -1.105500e-01
<VARIANCE> 39
 4.927121e+00 9.134473e+00 7.032919e+01 2.448794e+01 4.684890e+01 7.570867e+01 5.837701e+01 5.967125e+01 6.078629e+01 1.553873e+01 6.072678e+01 7.563907e+01 7.669358e-01 8.829143e-02 4.380902e-01 4.469214e-01 5.181167e-01 1.333225e+00 1.458861e+00 1.029396e+00 1.785960e+00 2.867998e+00 4.533085e+00 1.434580e+00 2.110067e+00 1.103197e-01 1.504065e-02 4.539127e-02 7.279424e-02 1.091683e-01 1.945285e-01 2.162483e-01 2.046097e-01 3.606724e-01 4.833128e-01 4.655335e-01 2.893816e-01 5.460840e-01 4.710770e-03
<GCONST> 8.571581e+01
<STATE> 13
<MEAN> 39
 1.176340e+00 1.434456e+00 -7.763574e+00 -1.719673e+01 -3.633260e+00 -6.647136e+00 -1.447542e+01 -2.223858e+01 -7.320001e+00 -2.558635e+00 3.323251e-01 -1.331787e+01 6.776799e+01 -6.225328e-01 3.280543e-02 5.595642e-01 1.073888e+00 1.607291e-01 -3.066668e-01 3.420513e-01 -1.299051e-01 -2.665382e-01 -1.093998e+00 -6.820468e-01 9.971664e-02 -5.736024e-01 -1.122370e-01 -1.458775e-02 7.603092e-02 1.221223e-01 1.058672e-01 5.365466e-02 8.566952e-02 1.049473e-01 1.382602e-01 1.521560e-01 1.364465e-01 4.709045e-02 -4.446970e-02
<VARIANCE> 39
 4.411804e+00 1.157133e+01 2.444772e+01 1.812837e+01 6.049501e+01 2.668497e+01 2.030820e+01 3.225998e+01 4.971974e+01 1.802770e+01 9.094534e+01 3.118541e+01 1.631113e+00 1.728175e-01 4.284642e-01 7.766187e-01 1.020450e+00 1.230056e+00 1.390611e+00 1.448063e+00 2.236692e+00 1.881612e+00 2.110066e+00 1.173391e+00 1.441528e+00 6.158509e-02 3.305871e-02 8.018229e-02 9.006438e-02 1.225231e-01 2.118615e-01 2.404744e-01 2.263289e-01 3.624378e-01 2.278259e-01 2.214246e-01 2.580457e-01 2.384158e-01 1.007087e-02
<GCONST> 8.251630e+01
<STATE> 14
<MEAN> 39
 -3.803300e+00 1.900360e+00 -1.047643e+00 -7.149292e+00 9.081407e-01 -3.499720e+00 -9.398257e+00 -2.116412e+01 -6.355769e+00 -4.571373e+00 2.022089e+00 -9.755836e+00 6.422806e+01 -9.786011e-01 -1.240469e-01 4.616525e-01 1.189349e+00 5.976937e-01 -2.855441e-01 5.891144e-01 8.461699e-01 2.656872e-01 -5.118350e-01 -3.475433e-01 8.732265e-02 -7.563300e-01 -1.768001e-02 -4.113074e-02 -6.672072e-02 -1.172506e-01 -3.102702e-02 -3.983575e-02 -4.842446e-02 4.202442e-02 -1.604826e-02 1.823855e-02 2.701081e-02 1.135351e-01 1.395294e-02
<VARIANCE> 39
 4.043387e+00 5.969548e+00 1.801127e+01 1.897408e+01 2.320311e+01 3.942470e+01 2.764491e+01 2.819072e+01 3.409633e+01 2.491837e+01 5.057872e+01 4.544350e+01 1.966510e+00 1.906702e-01 3.361422e-01 5.145424e-01 5.651426e-01 1.540192e+00 9.596241e-01 1.489082e+00 3.059759e+00 1.233629e+00 1.735752e+00 1.796415e+00 1.134505e+00 2.711285e-02 3.676559e-02 8.110078e-02 5.998916e-02 8.879767e-02 1.392379e-01 2.087586e-01 3.519653e-01 2.930965e-01 3.122059e-01 4.857406e-01 2.776164e-01 1.626413e-01 5.480996e-03
<GCONST> 7.807323e+01
<STATE> 15
<MEAN> 39
 -8.711388e+00 2.911226e-01 -2.510648e-04 -4.216471e+00 1.979783e-02 -8.693334e+00 -9.563524e+00 -1.897818e+01 -7.999328e+00 -1.083955e+01 -4.965432e+00 -1.269072e+01 6.081549e+01 -6.380072e-01 -1.097539e-01 6.087229e-01 9.771896e-01 2.533322e-01 -3.395829e-02 4.655290e-01 6.794227e-01 -1.233690e-01 -6.938885e-01 -5.174496e-01 -1.174560e-01 -4.293368e-01 6.225212e-02 -1.655629e-02 -7.050914e-02 -8.661718e-02 -1.732502e-02 1.248083e-01 7.748511e-02 1.041458e-01 7.030513e-02 1.435033e-01 5.046883e-02 -1.118888e-01 5.128225e-02
<VARIANCE> 39
 3.421905e+00 5.718344e+00 9.271477e+00 1.559955e+01 2.306448e+01 1.957299e+01 1.403404e+01 9.380711e+00 1.619111e+01 1.143027e+01 1.735649e+01 1.793974e+01 1.001266e+00 1.358178e-01 3.615907e-01 4.672127e-01 4.552626e-01 5.087879e-01 1.062652e+00 7.460098e-01 1.015822e+00 1.688196e+00 1.159682e+00 1.487657e+00 1.359046e+00 4.736042e-02 2.801209e-02 6.121681e-02 9.914921e-02 9.190880e-02 8.760007e-02 1.798622e-01 1.283496e-01 1.211073e-01 3.427072e-01 2.431532e-01 2.359494e-01 2.373042e-01 1.042677e-02
<GCONST> 6.514085e+01
<STATE> 16
<MEAN> 39
 -1.059754e+01 4.285660e-01 2.528433e+00 6.773425e-01 5.525378e+00 -2.057307e+00 -1.497005e+00 -1.037626e+01 -2.594746e+00 -6.430624e+00 4.215769e-02 -8.521108e+00 5.959272e+01 -6.080630e-01 -4.748946e-01 -2.822332e-01 -6.168917e-02 -3.981170e-02 3.256685e-01 8.714060e-01 1.003190e+00 3.625661e-01 6.604878e-02 -1.485296e-01 -8.278970e-02 -3.473840e-01 -1.839598e-02 -1.117076e-01 -9.238246e-02 -1.106331e-01 -5.173583e-02 3.985667e-02 -5.839659e-02 -1.604771e-01 -2.328948e-02 2.152396e-02 -2.926845e-02 1.232122e-01 7.973616e-03
<VARIANCE> 39
 1.693715e+00 3.527580e+00 5.346565e+00 8.210513e+00 1.802555e+01 2.448781e+01 3.260022e+01 4.481076e+01 3.578465e+01 3.105804e+01 5.841042e+01 4.618959e+01 5.020030e-01 9.226014e-02 3.514649e-01 5.282696e-01 3.865976e-01 5.400081e-01 1.020073e+00 7.404848e-01 1.505554e+00 1.458323e+00 1.065138e+00 1.144719e+00 2.234875e+00 3.544782e-02 2.003620e-02 4.635648e-02 7.831927e-02 1.005335e-01 1.786800e-01 1.192809e-01 1.150351e-01 2.449969e-01 3.331624e-01 2.117906e-01 2.014330e-01 4.290537e-01 6.025759e-03
<GCONST> 6.792823e+01
<STATE> 17
<MEAN> 39
 -1.321727e+01 -2.451141e+00 1.351118e+00 -4.272081e-01 2.810037e+00 -4.235596e+00 -2.561749e+00 -1.158745e+01 -5.036642e+00 -9.599004e+00 -4.379960e+00 -1.150731e+01 5.818021e+01 -5.148907e-01 -4.644352e-01 4.365076e-02 3.370552e-01 4.416560e-01 4.006594e-01 3.641507e-01 4.528583e-01 2.906410e-01 -1.946380e-01 -5.066478e-01 -2.862708e-01 -2.256387e-01 -1.189609e-02 -1.697095e-02 -3.378744e-02 -1.087842e-02 5.412234e-02 -2.954368e-02 -1.022539e-01 -1.707261e-02 1.040124e-01 5.141738e-02 4.553303e-02 -1.253720e-01 2.962264e-02
<VARIANCE> 39
 7.846519e-01 1.930314e+00 6.339205e+00 1.063772e+01 2.531074e+01 4.535919e+01 2.863016e+01 1.530590e+01 1.708820e+01 2.365448e+01 3.972408e+01 2.947579e+01 1.561187e-01 1.827844e-01 5.003061e-01 6.559552e-01 8.308445e-01 1.109959e+00 8.062071e-01 1.347382e+00 1.812272e+00 1.575300e+00 1.630356e+00 2.362716e+00 1.785060e+00 4.189749e-02 2.027519e-02 7.011544e-02 1.911719e-01 2.293217e-01 2.804779e-01 2.286491e-01 1.547474e-01 3.752804e-01 1.977247e-01 2.986184e-01 4.545282e-01 3.107128e-01 5.638107e-03
<GCONST> 7.239398e+01
<STATE> 18
<MEAN> 39
 -1.578854e+01 -4.716757e+00 1.806166e-01 -7.205186e-01 3.641176e+00 -3.409353e+00 -1.018083e+00 -8.259366e+00 -2.114750e+00 -9.173851e+00 -4.036952e+00 -1.143512e+01 5.721869e+01 -6.182616e-01 -5.866007e-01 -4.066806e-01 -1.729884e-01 1.176524e-01 3.349867e-01 5.213488e-01 4.429204e-01 3.209158e-01 2.124615e-01 2.120130e-01 1.213541e-01 -2.622148e-01 1.745728e-02 1.415879e-02 2.352401e-03 8.798829e-03 2.174472e-02 1.010814e-01 6.358513e-02 -9.089700e-02 -1.857579e-01 -6.616071e-02 -2.785758e-02 1.372535e-02 1.088294e-02
<VARIANCE> 39
 1.380500e+00 2.622013e+00 5.338328e+00 9.880791e+00 2.119351e+01 3.591254e+01 4.350671e+01 5.066122e+01 2.243333e+01 1.463387e+01 2.465737e+01 2.552516e+01 3.535426e-01 1.007699e-01 2.273425e-01 4.411780e-01 5.192999e-01 1.013442e+00 1.419519e+00 1.258104e+00 2.217024e+00 1.340270e+00 1.088865e+00 1.587481e+00 1.869438e+00 1.598844e-02 1.484809e-02 4.221246e-02 8.252999e-02 1.257060e-01 1.274196e-01 2.437051e-01 2.812397e-01 3.721584e-01 2.540886e-01 1.830586e-01 2.771924e-01 3.081294e-01 3.088581e-03
<GCONST> 6.694969e+01
<STATE> 19
<MEAN> 39
 -1.864771e+01 -7.875076e+00 -1.708762e+00 8.939829e-01 8.335810e+00 2.977142e+00 3.358621e+00 -8.255129e+00 -5.307179e+00 -1.205043e+01 -6.012960e+00 -1.234252e+01 5.611240e+01 -4.510215e-01 -4.706708e-01 -2.803861e-01 2.021474e-02 3.952653e-01 8.095059e-01 1.167288e+00 9.487644e-01 1.844043e-02 -3.478521e-01 -3.317073e-01 -3.415321e-01 -1.679360e-01 1.302631e-01 1.323650e-01 1.097299e-01 1.131073e-02 -9.641710e-02 -5.623558e-02 1.736128e-01 3.685701e-01 3.215416e-01 8.017395e-02 -4.473113e-02 -6.148361e-02 4.067136e-02
<VARIANCE> 39
 1.973110e+00 3.042509e+00 5.602919e+00 1.761626e+01 4.390308e+01 6.314581e+01 5.536996e+01 3.669445e+01 2.317308e+01 2.396978e+01 2.586021e+01 2.467688e+01 2.965299e-01 2.230651e-01 2.045593e-01 6.225010e-01 1.379371e+00 1.459222e+00 1.432816e+00 1.859990e+00 1.961716e+00 1.625780e+00 1.445316e+00 1.527866e+00 1.524374e+00 3.392396e-02 1.688642e-02 3.979555e-02 1.427253e-01 2.705083e-01 2.832493e-01 2.486393e-01 4.005942e-01 3.493829e-01 2.856769e-01 2.708154e-01 3.053763e-01 2.980355e-01 5.058691e-03
<GCONST> 7.685526e+01
<TRANSP> 20
 0.000000e+00 1.000000e+00 0.000000e+00 0.000000e+00 0.000000e+00 0.000000e+00 0.000000e+00 0.000000e+00 0.000000e+00 0.000000e+00 0.000000e+00 0.000000e+00 0.000000e+00 0.000000e+00 0.000000e+00 0.000000e+00 0.000000e+00 0.000000e+00 0.000000e+00 0.000000e+00
 0.000000e+00 7.894305e-01 2.105695e-01 0.000000e+00 0.000000e+00 0.000000e+00 0.000000e+00 0.000000e+00 0.000000e+00 0.000000e+00 0.000000e+00 0.000000e+00 0.000000e+00 0.000000e+00 0.000000e+00 0.000000e+00 0.000000e+00 0.000000e+00 0.000000e+00 0.000000e+00
 0.000000e+00 0.000000e+00 7.081199e-01 2.918801e-01 0.000000e+00 0.000000e+00 0.000000e+00 0.000000e+00 0.000000e+00 0.000000e+00 0.000000e+00 0.000000e+00 0.000000e+00 0.000000e+00 0.000000e+00 0.000000e+00 0.000000e+00 0.000000e+00 0.000000e+00 0.000000e+00
 0.000000e+00 0.000000e+00 0.000000e+00 7.379528e-01 2.620472e-01 0.000000e+00 0.000000e+00 0.000000e+00 0.000000e+00 0.000000e+00 0.000000e+00 0.000000e+00 0.000000e+00 0.000000e+00 0.000000e+00 0.000000e+00 0.000000e+00 0.000000e+00 0.000000e+00 0.000000e+00
 0.000000e+00 0.000000e+00 0.000000e+00 0.000000e+00 7.963031e-01 2.036969e-01 0.000000e+00 0.000000e+00 0.000000e+00 0.000000e+00 0.000000e+00 0.000000e+00 0.000000e+00 0.000000e+00 0.000000e+00 0.000000e+00 0.000000e+00 0.000000e+00 0.000000e+00 0.000000e+00
 0.000000e+00 0.000000e+00 0.000000e+00 0.000000e+00 0.000000e+00 8.156629e-01 1.843371e-01 0.000000e+00 0.000000e+00 0.000000e+00 0.000000e+00 0.000000e+00 0.000000e+00 0.000000e+00 0.000000e+00 0.000000e+00 0.000000e+00 0.000000e+00 0.000000e+00 0.000000e+00
 0.000000e+00 0.000000e+00 0.000000e+00 0.000000e+00 0.000000e+00 0.000000e+00 6.586336e-01 3.413664e-01 0.000000e+00 0.000000e+00 0.000000e+00 0.000000e+00 0.000000e+00 0.000000e+00 0.000000e+00 0.000000e+00 0.000000e+00 0.000000e+00 0.000000e+00 0.000000e+00
 0.000000e+00 0.000000e+00 0.000000e+00 0.000000e+00 0.000000e+00 0.000000e+00 0.000000e+00 6.243312e-01 3.756687e-01 0.000000e+00 0.000000e+00 0.000000e+00 0.000000e+00 0.000000e+00 0.000000e+00 0.000000e+00 0.000000e+00 0.000000e+00 0.000000e+00 0.000000e+00
 0.000000e+00 0.000000e+00 0.000000e+00 0.000000e+00 0.000000e+00 0.000000e+00 0.000000e+00 0.000000e+00 6.572401e-01 3.427600e-01 0.000000e+00 0.000000e+00 0.000000e+00 0.000000e+00 0.000000e+00 0.000000e+00 0.000000e+00 0.000000e+00 0.000000e+00 0.000000e+00
 0.000000e+00 0.000000e+00 0.000000e+00 0.000000e+00 0.000000e+00 0.000000e+00 0.000000e+00 0.000000e+00 0.000000e+00 7.688138e-01 2.311862e-01 0.000000e+00 0.000000e+00 0.000000e+00 0.000000e+00 0.000000e+00 0.000000e+00 0.000000e+00 0.000000e+00 0.000000e+00
 0.000000e+00 0.000000e+00 0.000000e+00 0.000000e+00 0.000000e+00 0.000000e+00 0.000000e+00 0.000000e+00 0.000000e+00 0.000000e+00 8.096024e-01 1.903976e-01 0.000000e+00 0.000000e+00 0.000000e+00 0.000000e+00 0.000000e+00 0.000000e+00 0.000000e+00 0.000000e+00
 0.000000e+00 0.000000e+00 0.000000e+00 0.000000e+00 0.000000e+00 0.000000e+00 0.000000e+00 0.000000e+00 0.000000e+00 0.000000e+00 0.000000e+00 7.975242e-01 2.024758e-01 0.000000e+00 0.000000e+00 0.000000e+00 0.000000e+00 0.000000e+00 0.000000e+00 0.000000e+00
 0.000000e+00 0.000000e+00 0.000000e+00 0.000000e+00 0.000000e+00 0.000000e+00 0.000000e+00 0.000000e+00 0.000000e+00 0.000000e+00 0.000000e+00 0.000000e+00 7.920210e-01 2.079790e-01 0.000000e+00 0.000000e+00 0.000000e+00 0.000000e+00 0.000000e+00 0.000000e+00
 0.000000e+00 0.000000e+00 0.000000e+00 0.000000e+00 0.000000e+00 0.000000e+00 0.000000e+00 0.000000e+00 0.000000e+00 0.000000e+00 0.000000e+00 0.000000e+00 0.000000e+00 8.076761e-01 1.923239e-01 0.000000e+00 0.000000e+00 0.000000e+00 0.000000e+00 0.000000e+00
 0.000000e+00 0.000000e+00 0.000000e+00 0.000000e+00 0.000000e+00 0.000000e+00 0.000000e+00 0.000000e+00 0.000000e+00 0.000000e+00 0.000000e+00 0.000000e+00 0.000000e+00 0.000000e+00 8.113033e-01 1.886967e-01 0.000000e+00 0.000000e+00 0.000000e+00 0.000000e+00
 0.000000e+00 0.000000e+00 0.000000e+00 0.000000e+00 0.000000e+00 0.000000e+00 0.000000e+00 0.000000e+00 0.000000e+00 0.000000e+00 0.000000e+00 0.000000e+00 0.000000e+00 0.000000e+00 0.000000e+00 7.329176e-01 2.670824e-01 0.000000e+00 0.000000e+00 0.000000e+00
 0.000000e+00 0.000000e+00 0.000000e+00 0.000000e+00 0.000000e+00 0.000000e+00 0.000000e+00 0.000000e+00 0.000000e+00 0.000000e+00 0.000000e+00 0.000000e+00 0.000000e+00 0.000000e+00 0.000000e+00 0.000000e+00 7.097359e-01 2.902641e-01 0.000000e+00 0.000000e+00
 0.000000e+00 0.000000e+00 0.000000e+00 0.000000e+00 0.000000e+00 0.000000e+00 0.000000e+00 0.000000e+00 0.000000e+00 0.000000e+00 0.000000e+00 0.000000e+00 0.000000e+00 0.000000e+00 0.000000e+00 0.000000e+00 0.000000e+00 7.923726e-01 2.076275e-01 0.000000e+00
 0.000000e+00 0.000000e+00 0.000000e+00 0.000000e+00 0.000000e+00 0.000000e+00 0.000000e+00 0.000000e+00 0.000000e+00 0.000000e+00 0.000000e+00 0.000000e+00 0.000000e+00 0.000000e+00 0.000000e+00 0.000000e+00 0.000000e+00 0.000000e+00 7.002792e-01 2.997208e-01
 0.000000e+00 0.000000e+00 0.000000e+00 0.000000e+00 0.000000e+00 0.000000e+00 0.000000e+00 0.000000e+00 0.000000e+00 0.000000e+00 0.000000e+00 0.000000e+00 0.000000e+00 0.000000e+00 0.000000e+00 0.000000e+00 0.000000e+00 0.000000e+00 0.000000e+00 0.000000e+00
<ENDHMM>
