~o
<STREAMINFO> 1 39
<VECSIZE> 39<NULLD><MFCC_D_A_0><DIAGC>
~h "enam"
<BEGINHMM>
<NUMSTATES> 5
<STATE> 2
<MEAN> 39
 -5.158511e+00 -2.967841e+00 4.804164e-01 -3.205860e+00 -9.478184e-01 -9.691888e+00 -5.699240e+00 -6.038113e+00 -4.080211e-01 -9.625497e+00 -3.470285e+00 -5.495338e+00 6.516967e+01 7.825855e-01 -2.075038e-01 -1.967112e-01 -8.217527e-02 1.758460e-01 -1.665961e-01 -4.350373e-01 1.354099e-01 6.567385e-02 -1.429863e-01 -2.420911e-01 -6.137536e-02 7.015209e-01 2.735924e-03 -8.308563e-03 -1.611348e-02 -6.944755e-03 2.870736e-02 6.453889e-03 1.023615e-02 -8.455791e-03 -2.186019e-02 -2.462715e-02 2.815361e-03 2.421724e-02 8.170969e-03
<VARIANCE> 39
 7.454348e+01 6.186253e+01 5.696014e+01 2.579988e+01 5.261048e+01 6.315473e+01 6.310040e+01 7.419485e+01 4.123879e+01 9.284861e+01 1.015937e+02 4.914170e+01 4.539553e+01 1.660666e+00 4.174181e+00 3.150238e+00 2.367418e+00 3.698580e+00 3.323658e+00 3.321268e+00 4.437148e+00 3.396776e+00 4.294789e+00 3.814496e+00 3.351797e+00 1.355132e+00 2.394874e-01 5.719656e-01 4.155121e-01 3.890808e-01 5.014570e-01 4.914785e-01 5.701290e-01 6.906490e-01 6.385448e-01 7.072001e-01 5.618337e-01 4.884078e-01 2.281201e-01
<GCONST> 1.295160e+02
<STATE> 3
<MEAN> 39
 1.546821e+00 -3.806725e+00 -3.995379e+00 -5.737639e+00 1.983977e+00 -5.632701e+00 -8.489419e+00 -1.180803e+01 -1.987268e+00 -1.203712e+01 -3.619865e+00 -7.154981e+00 7.033318e+01 -2.288978e-01 6.062493e-01 3.874875e-01 1.573514e-01 -5.119851e-02 2.171073e-01 2.159329e-01 -5.515885e-01 -4.085397e-01 -5.533522e-02 1.209437e-01 2.397294e-02 -4.105963e-01 -4.319149e-02 7.200662e-03 2.323885e-02 2.606788e-02 -1.731821e-02 -1.662448e-03 1.506507e-02 3.932887e-02 3.508948e-02 3.466224e-02 2.079379e-03 -1.435711e-02 -3.607040e-02
<VARIANCE> 39
 5.048810e+00 5.532332e+01 5.606243e+01 2.423666e+01 4.732227e+01 4.005529e+01 5.042966e+01 1.019321e+02 8.994693e+01 5.821247e+01 7.946852e+01 5.122234e+01 1.899107e+01 2.261617e-01 1.288458e+00 1.428044e+00 1.103607e+00 1.361393e+00 1.117264e+00 1.836408e+00 2.760753e+00 2.325052e+00 1.513868e+00 1.517993e+00 1.465502e+00 2.692942e-01 2.259837e-02 1.436912e-01 2.075558e-01 1.562690e-01 1.956178e-01 1.954694e-01 3.556689e-01 3.898862e-01 3.526629e-01 2.988055e-01 3.002527e-01 2.145208e-01 2.416634e-02
<GCONST> 9.933184e+01
<STATE> 4
<MEAN> 39
 -1.229248e+01 -5.807289e-01 2.023907e+00 -1.235273e+00 3.453563e+00 -1.136552e+00 1.309034e+00 -9.444033e+00 -4.188612e+00 -9.574875e+00 -1.491341e+00 -7.367558e+00 5.878237e+01 -4.500493e-01 -3.598932e-01 -1.905873e-01 -7.177597e-02 -5.902067e-02 6.112488e-03 1.872551e-01 3.555662e-01 2.653832e-01 1.600933e-01 1.210298e-01 5.862923e-02 -2.302090e-01 3.095876e-02 -9.990762e-03 -1.842104e-02 -2.149430e-02 -3.974816e-03 -3.168636e-03 -2.679498e-02 -3.416475e-02 -1.101261e-02 1.488959e-02 1.729640e-02 3.858994e-03 2.270949e-02
<VARIANCE> 39
 1.589097e+01 1.896643e+01 1.878325e+01 2.551701e+01 2.682532e+01 2.977474e+01 3.145358e+01 4.452676e+01 4.268697e+01 3.347698e+01 3.071132e+01 2.614358e+01 3.881156e+00 2.207556e-01 4.320336e-01 6.899230e-01 1.136603e+00 1.239101e+00 1.412006e+00 1.643467e+00 2.322103e+00 1.698020e+00 1.939949e+00 1.869205e+00 1.737818e+00 1.023665e-01 2.681485e-02 9.643573e-02 1.349641e-01 1.960327e-01 2.016232e-01 2.433462e-01 2.985286e-01 4.601531e-01 3.300059e-01 3.740678e-01 3.472778e-01 3.339326e-01 1.197946e-02
<GCONST> 8.893075e+01
<TRANSP> 5
 0.000000e+00 1.000000e+00 0.000000e+00 0.000000e+00 0.000000e+00
 0.000000e+00 9.604256e-01 3.957441e-02 0.000000e+00 0.000000e+00
 0.000000e+00 0.000000e+00 9.624326e-01 3.756738e-02 0.000000e+00
 0.000000e+00 0.000000e+00 0.000000e+00 9.660388e-01 3.396124e-02
 0.000000e+00 0.000000e+00 0.000000e+00 0.000000e+00 0.000000e+00
<ENDHMM>
