~o
<STREAMINFO> 1 39
<VECSIZE> 39<NULLD><MFCC_D_A_0><DIAGC>
~h "nyalakan"
<BEGINHMM>
<NUMSTATES> 20
<STATE> 2
<MEAN> 39
 -1.458155e+01 -5.600219e+00 5.325486e-01 -2.814974e+00 -6.212534e-01 -2.649054e+00 -1.659514e+00 -4.658399e+00 -1.237709e+00 -7.500778e+00 1.128893e+00 -7.223840e+00 5.704930e+01 1.708235e+00 2.134869e+00 1.545362e+00 2.493421e-01 -6.072007e-01 -1.441750e+00 -9.369619e-01 -9.470627e-01 -1.205705e+00 -8.136131e-01 -3.132395e-01 -1.412302e-01 1.062196e+00 5.689545e-01 2.724518e-01 2.639312e-01 -3.482839e-01 -7.795008e-01 -8.958341e-01 -4.044109e-01 8.329208e-02 -3.642098e-01 -2.040116e-02 2.037900e-01 1.209794e-02 4.505900e-01
<VARIANCE> 39
 9.232180e+00 1.337764e+01 1.577134e+01 6.924456e+00 1.312951e+01 2.193596e+01 2.173692e+01 2.162849e+01 2.131744e+01 2.755032e+01 2.469936e+01 1.503590e+01 2.301842e+00 2.002141e+00 2.135622e+00 2.048109e+00 1.046746e+00 2.163630e+00 4.163339e+00 4.146389e+00 3.105006e+00 2.972917e+00 3.863264e+00 3.245108e+00 2.115320e+00 6.892858e-01 1.822294e-01 3.855933e-01 2.266449e-01 1.803154e-01 3.627090e-01 3.461354e-01 4.748683e-01 6.656110e-01 5.784038e-01 8.152648e-01 6.587026e-01 2.920559e-01 6.313385e-02
<GCONST> 1.028512e+02
<STATE> 3
<MEAN> 39
 -3.608496e+00 2.524622e+00 7.647865e+00 -7.312184e+00 -1.026107e+01 -1.453871e+01 -5.942408e+00 -4.375753e+00 -8.742585e+00 -1.053933e+01 3.661788e+00 -7.152894e+00 6.514941e+01 1.615098e+00 -1.101524e+00 5.016707e-01 -9.339585e-01 -2.373712e+00 -2.164910e+00 1.117921e+00 2.971009e+00 -1.282083e+00 -1.074057e+00 5.991240e-01 4.026083e-01 2.295846e+00 -4.925981e-01 -1.300657e+00 -6.795880e-01 3.392181e-01 5.158786e-01 6.229176e-01 5.291024e-01 6.285086e-01 4.877773e-01 -3.622414e-01 -5.163291e-01 3.330177e-02 -3.278917e-02
<VARIANCE> 39
 7.145528e+00 2.203257e+01 5.992666e+01 4.433733e+01 3.830695e+01 3.784935e+01 4.206317e+01 1.385873e+02 4.364528e+01 6.767126e+01 1.161388e+02 2.869841e+01 1.174467e+01 1.900586e+00 7.897508e+00 3.775103e+00 4.481590e+00 5.406597e+00 5.882699e+00 6.764008e+00 1.004784e+01 6.200025e+00 7.022157e+00 7.456883e+00 4.426927e+00 5.179850e-01 1.412552e-01 4.322082e-01 2.540420e-01 1.051037e+00 1.092782e+00 8.981336e-01 1.423653e+00 1.824356e+00 9.907406e-01 9.271101e-01 1.218894e+00 8.545332e-01 8.770254e-02
<GCONST> 1.333064e+02
<STATE> 4
<MEAN> 39
 -1.422953e+00 -1.073469e+01 5.103303e+00 -4.341357e+00 -1.209702e+01 -1.773313e+01 -1.482501e-01 1.007182e+01 -8.686414e+00 -1.710267e+01 5.677888e-01 -6.254738e+00 7.289263e+01 5.219981e-01 -2.595670e+00 -1.973557e+00 7.046108e-01 2.019296e+00 1.233027e+00 -1.210340e+00 -1.528426e-01 1.640040e+00 -8.322255e-01 -2.633326e+00 -6.858738e-01 1.169165e+00 -1.809081e-02 6.792183e-01 -3.539653e-01 -3.535160e-01 8.460206e-01 8.526509e-01 -8.989530e-01 -1.537299e+00 5.001110e-01 8.959355e-01 -7.898016e-03 -4.785311e-01 -4.598948e-01
<VARIANCE> 39
 5.282665e+00 1.180199e+01 1.042279e+02 1.537118e+01 4.524416e+01 5.949908e+01 7.162807e+01 2.109228e+02 7.220700e+01 9.656708e+01 1.256596e+02 3.867398e+01 6.074883e+00 2.766538e-01 1.120667e+00 1.124781e+00 2.214865e+00 2.757488e+00 2.913682e+00 4.081044e+00 7.317406e+00 2.770830e+00 3.397924e+00 1.660513e+00 3.630241e+00 3.072383e-01 6.362434e-02 1.087004e-01 3.078000e-01 2.644356e-01 7.822716e-01 6.894703e-01 8.830966e-01 9.469554e-01 1.005446e+00 4.966372e-01 7.778155e-01 3.923642e-01 1.865706e-02
<GCONST> 1.137919e+02
<STATE> 5
<MEAN> 39
 5.889159e-01 -1.545321e+01 -1.076779e+00 -5.601593e+00 -2.861953e+00 -1.048944e+01 -6.229554e+00 5.422274e+00 -2.245079e+00 -1.029900e+01 -2.522673e+00 -1.190073e+01 7.482762e+01 4.291274e-01 -7.700141e-02 -1.740074e+00 -1.015322e+00 1.982919e+00 2.411757e+00 -1.537657e+00 -2.933117e+00 1.426405e+00 1.712367e+00 -3.607968e-01 -9.872776e-01 -2.277669e-02 -2.533913e-02 5.870852e-01 3.116891e-01 -1.884575e-01 -4.420924e-01 -1.981215e-01 3.387286e-01 1.540717e-02 -4.325491e-01 1.890453e-01 6.190619e-01 2.592712e-01 -2.041590e-01
<VARIANCE> 39
 3.878183e+00 9.504984e+00 6.103798e+01 2.082171e+01 6.469354e+01 5.174167e+01 2.217710e+01 1.866919e+02 3.120326e+01 9.201772e+01 6.414637e+01 8.124959e+01 5.706566e+00 2.253941e-01 7.191764e-01 8.305281e-01 7.194635e-01 1.527799e+00 1.283741e+00 1.552500e+00 2.510596e+00 2.680547e+00 1.144237e+00 2.235142e+00 1.787017e+00 7.327097e-02 2.795528e-02 4.932215e-02 6.761967e-02 1.781031e-01 2.152296e-01 2.346262e-01 1.322658e-01 4.789336e-01 2.421387e-01 2.437903e-01 3.893907e-01 3.743663e-01 1.256930e-02
<GCONST> 9.084807e+01
<STATE> 6
<MEAN> 39
 1.699953e+00 -1.223802e+01 -1.179629e+01 -9.918308e+00 -1.170070e+00 -5.657619e-01 -8.637578e+00 -1.462244e+01 1.603602e+00 -1.050547e+01 -1.090546e+01 -1.144197e+01 7.233795e+01 6.365889e-02 2.047734e-01 -6.211002e-01 -6.814172e-02 4.627619e-01 1.460531e-01 1.741656e-01 -5.339963e-01 2.155054e-01 8.949513e-01 -1.577993e-01 -3.643030e-01 -1.832944e-01 -1.176156e-01 5.896816e-02 1.849184e-01 1.075798e-01 -1.129214e-01 -2.539991e-01 1.001762e-01 2.308226e-01 -9.554297e-02 -8.098848e-02 2.765640e-02 -2.225925e-02 -7.197894e-02
<VARIANCE> 39
 2.646979e+00 6.298389e+00 2.575466e+01 1.764206e+01 5.325914e+01 7.708528e+01 3.951273e+01 8.399414e+01 2.323125e+01 9.696110e+01 8.228118e+01 6.913834e+01 4.876233e+00 2.054448e-01 6.227030e-01 9.177994e-01 1.234532e+00 1.316094e+00 2.175743e+00 1.054353e+00 2.406023e+00 1.481874e+00 2.495777e+00 1.525934e+00 2.030371e+00 1.503591e-01 3.334335e-02 1.400313e-01 1.344613e-01 1.927716e-01 1.912812e-01 2.846852e-01 1.878868e-01 2.783808e-01 3.634686e-01 4.352996e-01 2.190554e-01 2.556098e-01 3.576335e-02
<GCONST> 9.264557e+01
<STATE> 7
<MEAN> 39
 2.000387e+00 -1.072137e+01 -1.514783e+00 -1.011327e+01 9.210423e+00 -3.714179e+00 -1.199632e+01 3.426607e+00 -1.375873e+00 1.958296e+00 2.161372e+00 -1.680420e+01 7.487096e+01 -3.384607e-01 5.746219e-01 2.922692e-01 1.440640e-01 -4.256528e-02 1.236540e-01 6.925914e-02 -3.841180e-01 -9.978925e-02 -3.392582e-01 -1.044198e-01 -1.656862e-01 -4.669797e-01 -1.301708e-01 -7.275060e-03 5.186591e-02 1.011599e-01 6.218922e-04 7.710046e-02 9.132943e-02 2.688345e-03 -2.868232e-02 -2.586876e-01 -4.640264e-02 7.827111e-02 -1.088993e-01
<VARIANCE> 39
 4.122953e+00 1.299239e+01 4.756831e+01 4.034261e+01 2.908096e+01 5.170386e+01 1.628047e+01 9.652422e+01 5.365993e+01 5.335209e+01 6.967134e+01 4.007821e+01 6.684660e+00 4.142588e-01 1.230757e+00 8.410592e-01 1.219044e+00 9.359401e-01 2.061247e+00 8.545233e-01 1.369862e+00 1.331238e+00 1.686913e+00 1.729913e+00 1.293155e+00 7.638550e-01 5.713329e-02 1.406685e-01 1.155415e-01 1.500238e-01 1.737437e-01 3.487949e-01 1.507739e-01 2.146917e-01 2.578601e-01 2.680110e-01 3.428639e-01 2.997020e-01 6.386930e-02
<GCONST> 9.438672e+01
<STATE> 8
<MEAN> 39
 -5.283337e+00 -6.118602e+00 -6.520044e+00 -6.772253e+00 2.741412e+00 -1.660171e+00 -4.378887e+00 -1.043527e+01 -6.927268e-01 -8.099341e+00 -6.843440e+00 -1.489241e+01 6.502337e+01 -1.059015e+00 5.760738e-01 2.726180e-01 1.778826e-01 2.552865e-01 1.643766e-01 6.851280e-01 5.510369e-01 -3.018417e-01 -8.870369e-01 -2.618133e-01 1.100411e-01 -9.816091e-01 7.588179e-02 -2.150315e-01 -1.457959e-01 3.535648e-02 5.764333e-02 -2.625807e-01 -9.851503e-02 2.212836e-01 2.376091e-01 8.138693e-02 -1.512120e-01 1.208682e-01 1.936282e-01
<VARIANCE> 39
 8.874491e+00 7.735405e+00 2.590106e+01 2.540966e+01 2.957410e+01 2.990133e+01 2.326277e+01 6.313136e+01 2.132600e+01 4.760380e+01 4.760432e+01 2.485948e+01 6.356016e+00 2.285813e-01 3.449067e-01 8.073421e-01 7.240006e-01 1.178902e+00 1.503099e+00 1.471001e+00 1.867051e+00 1.503051e+00 1.452498e+00 1.538862e+00 1.156083e+00 1.872381e-01 4.097847e-02 7.009315e-02 9.711760e-02 2.374737e-01 2.504064e-01 5.099174e-01 4.394200e-01 2.851538e-01 3.188583e-01 3.340538e-01 3.343404e-01 2.079745e-01 2.596901e-02
<GCONST> 8.819387e+01
<STATE> 9
<MEAN> 39
 -8.840128e+00 -7.558488e+00 -8.711228e+00 -3.354841e+00 5.937763e+00 -8.511514e+00 -5.331635e+00 -3.424998e+00 3.616627e+00 -1.185883e+01 -9.064508e+00 -1.159002e+01 6.391961e+01 3.290864e-01 -1.045122e+00 -5.091740e-01 6.145535e-01 -1.341763e-01 -2.240127e+00 -8.638664e-01 1.292071e+00 1.491679e+00 9.748275e-01 -1.136563e-01 9.009469e-01 8.404756e-01 6.095493e-01 -2.622434e-01 -9.330685e-03 -3.987781e-01 -5.088647e-01 2.067417e-01 -1.204546e-01 -3.207824e-01 -1.623495e-01 5.580165e-01 1.948766e-01 -9.902689e-02 5.112967e-01
<VARIANCE> 39
 6.849724e+00 1.431690e+01 2.732857e+01 3.999703e+01 3.034270e+01 7.271523e+01 3.697984e+01 7.840018e+01 3.789783e+01 2.593089e+01 5.120140e+01 3.542169e+01 6.664935e+00 2.062320e+00 1.148567e+00 1.564626e+00 4.002243e+00 5.728373e+00 5.907180e+00 6.038406e+00 4.418710e+00 4.533737e+00 4.909786e+00 4.560538e+00 4.211781e+00 1.122344e+00 1.745998e-01 2.406800e-01 3.767269e-01 7.431398e-01 1.205184e+00 1.489160e+00 1.234671e+00 9.562239e-01 1.356197e+00 7.454767e-01 7.883928e-01 1.225216e+00 1.253836e-01
<GCONST> 1.251053e+02
<STATE> 10
<MEAN> 39
 -1.701128e+00 -1.294377e+01 -8.321302e+00 -6.977057e+00 -1.170552e-01 -1.514096e+01 -8.622895e+00 5.712677e-01 3.805277e+00 -4.280457e+00 -8.103637e+00 -1.138541e+01 7.204788e+01 2.073041e+00 -1.840734e+00 -9.609986e-02 -1.441116e+00 -1.950654e+00 4.767081e-01 4.068529e-01 -4.058643e-01 -2.165627e+00 6.044065e-01 -2.475918e-01 -3.617972e-02 2.604418e+00 -4.313472e-01 1.010837e-01 5.486615e-02 2.219575e-01 3.440124e-01 5.827460e-01 6.156688e-01 -2.134541e-01 -6.924805e-01 -8.638556e-01 -2.941187e-01 2.419441e-01 -2.966019e-01
<VARIANCE> 39
 7.494740e+00 1.739693e+01 8.453913e+01 1.963898e+01 8.000816e+01 1.021931e+02 4.100451e+01 1.454323e+02 6.120687e+01 4.117555e+01 9.160284e+01 5.031672e+01 1.691759e+01 1.180252e+00 1.857439e+00 2.309681e+00 2.948673e+00 9.761722e+00 9.468916e+00 3.379019e+00 4.294151e+00 5.652049e+00 7.874863e+00 3.901850e+00 8.693429e+00 7.268526e-01 1.964790e-01 2.620058e-01 3.350319e-01 3.899965e-01 9.356389e-01 8.038739e-01 6.079131e-01 4.515769e-01 1.081699e+00 6.759799e-01 5.639724e-01 8.254166e-01 2.112414e-01
<GCONST> 1.284547e+02
<STATE> 11
<MEAN> 39
 3.304955e-02 -1.754292e+01 -1.101156e+01 -5.628162e+00 -8.007391e+00 -5.868805e+00 -3.119021e+00 -6.841690e+00 3.768991e-01 -6.457923e+00 -1.281038e+01 -5.809037e+00 7.563293e+01 -7.834007e-02 -6.353022e-01 7.192957e-01 8.357514e-02 -6.122695e-01 1.262199e-01 3.042969e-01 3.384079e-01 -9.136333e-01 -1.138789e+00 -3.613839e-02 4.755182e-01 2.994628e-01 -2.640679e-01 5.205358e-01 3.844361e-01 1.281862e-01 2.145744e-01 -3.182589e-01 -3.501313e-01 3.857517e-01 2.956710e-01 -1.575823e-01 1.801158e-01 -2.955321e-01 -4.592793e-01
<VARIANCE> 39
 4.199803e+00 2.059482e+01 3.445179e+01 2.810196e+01 1.433596e+02 2.576837e+02 3.719914e+01 8.717011e+01 9.911248e+01 9.269740e+01 3.841529e+01 3.025616e+01 9.826571e+00 1.860933e-01 7.971579e-01 8.114250e-01 7.048994e-01 1.487695e+00 2.795865e+00 1.472970e+00 1.946752e+00 2.001525e+00 2.570071e+00 1.641223e+00 1.407517e+00 2.477199e-01 1.141479e-01 1.351163e-01 1.442939e-01 2.330019e-01 4.774664e-01 4.470443e-01 2.031720e-01 2.606150e-01 5.271834e-01 6.394278e-01 2.311749e-01 3.924415e-01 6.070194e-02
<GCONST> 1.028380e+02
<STATE> 12
<MEAN> 39
 -1.458011e-01 -1.673296e+01 -2.289532e+00 -8.215034e+00 -2.777787e+00 -1.231254e+01 -7.419992e+00 4.125325e+00 -3.436784e+00 -7.295282e+00 -7.396224e+00 -1.208038e+01 7.620918e+01 1.311990e-01 1.931108e+00 1.015546e+00 6.289843e-01 2.998842e-01 -5.445013e-01 -4.460457e-01 -1.796179e-01 2.641658e-01 -4.799200e-01 3.621305e-01 -2.328290e-01 -9.199851e-01 1.298093e-02 5.717496e-01 -2.205057e-02 2.825648e-01 6.678239e-02 7.785258e-02 -6.044103e-02 -6.951106e-01 9.827783e-02 6.161537e-02 1.605152e-01 3.518666e-02 -2.782776e-01
<VARIANCE> 39
 5.909788e+00 1.389487e+01 3.835028e+01 2.094047e+01 7.598210e+01 1.337843e+02 3.558274e+01 7.966375e+01 6.583984e+01 4.772322e+01 4.546771e+01 7.631194e+01 7.016630e+00 1.500376e-01 9.037729e-01 1.716229e+00 1.294716e+00 2.137061e+00 1.764877e+00 9.769053e-01 3.956746e+00 1.870543e+00 1.628989e+00 7.835854e-01 1.457206e+00 2.270622e-01 2.602240e-02 1.498135e-01 1.304689e-01 1.792454e-01 1.898061e-01 2.762731e-01 2.355177e-01 5.440564e-01 4.373825e-01 3.173538e-01 1.145731e-01 2.962382e-01 2.533625e-02
<GCONST> 9.600829e+01
<STATE> 13
<MEAN> 39
 -5.286868e-01 -5.532419e+00 1.181136e+00 -2.379373e+00 -1.939747e+00 -1.154874e+01 -7.280580e+00 -4.652998e+00 -2.146972e+00 -9.476990e+00 -5.712780e+00 -8.282848e+00 6.995901e+01 -1.096836e-01 2.159460e+00 7.497454e-01 6.302223e-01 3.659334e-01 -9.821284e-02 -4.187001e-01 -1.655922e+00 -6.265849e-01 -7.069439e-01 2.570335e-01 2.433049e-01 -1.064584e+00 -5.066856e-02 -2.474350e-01 -1.708522e-01 -2.021164e-01 1.500419e-02 1.414713e-01 8.270502e-02 1.920009e-01 -3.915251e-02 -8.730082e-02 -1.943865e-01 -7.956056e-03 1.060496e-01
<VARIANCE> 39
 5.509050e+00 1.360431e+01 2.307269e+01 1.103236e+01 2.435166e+01 7.660856e+01 2.927760e+01 4.199147e+01 5.272149e+01 4.491914e+01 4.165149e+01 3.611030e+01 4.260097e+00 1.007259e-01 7.638389e-01 6.385674e-01 7.084981e-01 1.996789e+00 1.593494e+00 1.449694e+00 2.989969e+00 2.032564e+00 1.732545e+00 1.022174e+00 1.562647e+00 1.153721e-01 1.681179e-02 7.981981e-02 6.239577e-02 1.334886e-01 1.143939e-01 1.683465e-01 1.996110e-01 3.645461e-01 3.317311e-01 1.785309e-01 1.394351e-01 1.614584e-01 1.615228e-02
<GCONST> 8.283022e+01
<STATE> 14
<MEAN> 39
 -6.326665e-01 2.101833e+00 3.347130e-01 -4.693082e+00 -3.841488e+00 -1.496769e+01 -9.654534e+00 -1.134709e+01 -8.056872e+00 -1.872132e+01 -1.063655e+01 -9.633746e+00 6.624885e+01 -5.153111e-01 9.295458e-01 5.302145e-01 -9.615708e-02 -4.764313e-02 4.738081e-01 1.551780e-02 -5.889828e-01 8.901784e-02 3.277163e-01 3.297272e-01 1.296776e-01 -6.871507e-01 -9.909339e-02 -2.337484e-01 -9.517631e-02 -4.121328e-02 3.094062e-03 1.925185e-02 1.206271e-01 6.521624e-02 4.213433e-02 3.104479e-01 1.238145e-01 5.345276e-02 2.333953e-02
<VARIANCE> 39
 2.365356e+00 5.672437e+00 1.131686e+01 8.370781e+00 1.558632e+01 1.904883e+01 2.244908e+01 1.325807e+01 1.585124e+01 3.425759e+01 3.557167e+01 1.587352e+01 2.417495e+00 1.134609e-01 3.137495e-01 6.221544e-01 8.523052e-01 1.088388e+00 1.381281e+00 7.744558e-01 8.173322e-01 1.038346e+00 2.645101e+00 2.077978e+00 1.487255e+00 5.010106e-02 1.748524e-02 3.596601e-02 6.082173e-02 1.140206e-01 1.439148e-01 2.013701e-01 1.034363e-01 1.441742e-01 2.486296e-01 4.734983e-01 2.988244e-01 2.387597e-01 8.039741e-03
<GCONST> 6.916326e+01
<STATE> 15
<MEAN> 39
 -3.609727e+00 3.916821e+00 3.059663e+00 -1.998087e+00 -3.053680e-01 -8.698128e+00 -5.534873e+00 -1.010416e+01 -3.659788e+00 -1.216280e+01 -6.257492e+00 -7.156001e+00 6.360362e+01 -6.112850e-01 4.325705e-01 1.244462e-01 2.838880e-01 6.793077e-01 1.242228e+00 1.078336e+00 2.200855e-01 -7.251839e-02 -5.139225e-01 -4.268278e-01 -3.494563e-01 -6.272187e-01 -7.765578e-02 -1.406902e-01 1.348691e-02 7.594448e-02 1.565685e-01 1.123105e-01 1.725789e-01 2.424449e-01 1.131695e-01 -7.175799e-02 -1.236059e-01 -2.080415e-01 9.328671e-03
<VARIANCE> 39
 1.404380e+00 6.455053e+00 9.130118e+00 2.927559e+01 5.613063e+01 4.438139e+01 2.308104e+01 2.718790e+01 4.056025e+01 4.314304e+01 2.934766e+01 2.172165e+01 1.500659e+00 2.107696e-01 3.274841e-01 5.389953e-01 8.857982e-01 1.299348e+00 1.470218e+00 1.267232e+00 1.081919e+00 9.842836e-01 1.700789e+00 1.614989e+00 1.043519e+00 7.790640e-02 4.706906e-02 5.859241e-02 1.164131e-01 1.909714e-01 2.266056e-01 3.999383e-01 2.267968e-01 1.527678e-01 1.961434e-01 3.817333e-01 4.573846e-01 1.963619e-01 1.435791e-02
<GCONST> 7.938969e+01
<STATE> 16
<MEAN> 39
 -8.659982e+00 3.029481e+00 3.577821e+00 -2.521429e+00 -1.172001e+00 -8.487275e+00 -5.358021e+00 -1.391144e+01 -8.906018e+00 -1.745173e+01 -1.051755e+01 -1.266533e+01 6.029509e+01 -7.397885e-01 -3.838823e-01 2.731650e-02 2.309877e-01 6.663848e-01 5.602399e-01 3.995978e-02 -5.159646e-02 3.275498e-01 6.259239e-01 4.355851e-01 -5.376041e-02 -4.122830e-01 3.217841e-02 -6.922261e-02 -7.899696e-02 -4.355055e-02 -2.924727e-02 -5.133274e-02 -1.027620e-01 -2.751757e-02 5.494520e-02 9.494372e-02 1.068214e-01 1.062212e-01 3.402087e-02
<VARIANCE> 39
 4.777192e+00 4.779345e+00 4.510984e+00 1.544935e+01 2.209416e+01 1.702425e+01 1.677697e+01 2.195651e+01 3.126474e+01 2.142233e+01 1.902155e+01 1.946087e+01 1.722056e+00 1.638623e-01 2.760997e-01 5.143250e-01 7.877824e-01 5.134817e-01 8.081770e-01 1.213362e+00 7.141501e-01 1.237880e+00 1.633078e+00 1.385069e+00 1.319380e+00 6.741368e-02 1.960091e-02 6.311518e-02 7.590023e-02 1.350971e-01 8.965483e-02 1.702243e-01 2.989091e-01 1.581284e-01 2.013144e-01 2.516937e-01 2.071360e-01 2.579811e-01 4.456894e-03
<GCONST> 6.760637e+01
<STATE> 17
<MEAN> 39
 -1.120242e+01 2.038431e+00 2.930451e+00 2.595353e-01 8.145074e+00 1.308042e+00 1.042105e+00 -6.687716e+00 -1.232963e+00 -8.814701e+00 -1.607543e+00 -7.902325e+00 5.867694e+01 -6.175356e-01 -3.688748e-01 -1.221446e-01 5.036906e-02 8.169045e-02 3.682186e-01 3.806483e-01 -3.252954e-01 -5.661867e-01 2.116802e-01 1.724842e-01 -5.276252e-01 -3.141347e-01 4.429314e-02 -2.348439e-02 6.588046e-02 4.975434e-02 -6.432891e-02 -4.982049e-02 1.959115e-03 -9.830173e-02 -1.586823e-01 -1.286867e-01 -6.603052e-02 -5.339449e-02 4.417365e-02
<VARIANCE> 39
 4.984442e+00 1.054950e+01 7.456280e+00 1.400514e+01 3.687259e+01 2.640427e+01 3.625508e+01 5.123027e+01 2.919034e+01 1.630434e+01 2.307302e+01 1.862051e+01 1.549814e+00 2.799172e-01 4.783520e-01 9.331862e-01 1.432737e+00 2.359999e+00 1.439166e+00 1.660497e+00 1.383435e+00 2.264365e+00 1.381441e+00 1.543621e+00 1.621221e+00 7.836304e-02 4.951192e-02 5.092974e-02 1.493205e-01 2.771056e-01 4.014585e-01 2.031869e-01 2.313779e-01 3.454943e-01 4.719908e-01 2.606583e-01 2.385534e-01 2.847379e-01 1.133688e-02
<GCONST> 8.374282e+01
<STATE> 18
<MEAN> 39
 -1.471750e+01 -1.096626e+00 3.608491e+00 8.217575e-01 6.741735e+00 1.861966e+00 1.844725e+00 -1.153836e+01 -9.428015e+00 -1.465664e+01 -8.974132e+00 -1.611794e+01 5.727988e+01 -5.013925e-01 -5.853221e-01 -2.397277e-01 7.513578e-02 2.019614e-01 3.556181e-01 4.071289e-01 2.756623e-01 4.930506e-02 -1.105651e-01 1.244404e-01 2.089244e-01 -1.939057e-01 4.063116e-02 -1.456232e-02 -1.105657e-01 -6.920712e-02 -2.075909e-02 -5.856631e-02 -9.965896e-02 6.473011e-02 1.199304e-01 1.034176e-01 1.643261e-01 2.557760e-01 2.563722e-02
<VARIANCE> 39
 6.459386e+00 1.585493e+01 1.893423e+01 7.777525e+00 1.278442e+01 1.958737e+01 3.424539e+01 5.219797e+01 2.262854e+01 2.106912e+01 2.304999e+01 1.477808e+01 2.193319e+00 8.996730e-02 3.089472e-01 1.145502e+00 8.400289e-01 7.442306e-01 1.118688e+00 1.984487e+00 2.990463e+00 1.925125e+00 1.808907e+00 2.115377e+00 2.004331e+00 2.837270e-02 2.366437e-02 5.626525e-02 2.029975e-01 1.825629e-01 1.758635e-01 2.547822e-01 4.533384e-01 6.040522e-01 2.802924e-01 2.710964e-01 3.482733e-01 3.090181e-01 6.735430e-03
<GCONST> 8.007550e+01
<STATE> 19
<MEAN> 39
 -1.567880e+01 -4.063216e+00 -2.814997e-01 -1.199298e+00 4.842956e+00 1.157926e-01 3.198980e-01 -1.050982e+01 -4.279983e+00 -8.348517e+00 -1.468721e+00 -8.324471e+00 5.723808e+01 -1.722705e-01 -1.272260e-01 -1.060723e-01 -2.687275e-01 -3.028256e-01 -5.101510e-02 3.753481e-01 6.788832e-01 5.235748e-01 3.418346e-01 4.804976e-01 4.214298e-01 -8.405260e-02 2.094824e-02 3.508355e-02 2.638348e-02 -8.118956e-02 -8.156803e-02 5.970014e-03 1.237230e-01 1.103940e-01 7.347689e-02 -4.942573e-02 -1.288372e-01 -1.409554e-01 -5.318360e-03
<VARIANCE> 39
 2.478242e+00 6.193453e+00 1.323991e+01 1.873776e+01 2.386975e+01 2.998964e+01 2.502322e+01 4.366933e+01 3.670296e+01 2.254824e+01 2.148186e+01 1.650263e+01 9.825513e-01 1.375690e-01 4.003445e-01 8.474064e-01 5.656494e-01 9.791811e-01 1.669913e+00 2.291803e+00 2.080188e+00 2.011647e+00 1.204077e+00 1.611601e+00 1.808040e+00 4.177055e-02 2.465651e-02 1.059198e-01 1.713944e-01 1.619200e-01 1.765739e-01 2.657480e-01 3.223573e-01 4.134397e-01 5.461475e-01 2.263168e-01 2.528818e-01 2.649169e-01 7.002418e-03
<GCONST> 7.889913e+01
<TRANSP> 20
 0.000000e+00 1.000000e+00 0.000000e+00 0.000000e+00 0.000000e+00 0.000000e+00 0.000000e+00 0.000000e+00 0.000000e+00 0.000000e+00 0.000000e+00 0.000000e+00 0.000000e+00 0.000000e+00 0.000000e+00 0.000000e+00 0.000000e+00 0.000000e+00 0.000000e+00 0.000000e+00
 0.000000e+00 7.206176e-01 2.793824e-01 0.000000e+00 0.000000e+00 0.000000e+00 0.000000e+00 0.000000e+00 0.000000e+00 0.000000e+00 0.000000e+00 0.000000e+00 0.000000e+00 0.000000e+00 0.000000e+00 0.000000e+00 0.000000e+00 0.000000e+00 0.000000e+00 0.000000e+00
 0.000000e+00 0.000000e+00 7.735440e-01 2.264560e-01 0.000000e+00 0.000000e+00 0.000000e+00 0.000000e+00 0.000000e+00 0.000000e+00 0.000000e+00 0.000000e+00 0.000000e+00 0.000000e+00 0.000000e+00 0.000000e+00 0.000000e+00 0.000000e+00 0.000000e+00 0.000000e+00
 0.000000e+00 0.000000e+00 0.000000e+00 6.815236e-01 3.184764e-01 0.000000e+00 0.000000e+00 0.000000e+00 0.000000e+00 0.000000e+00 0.000000e+00 0.000000e+00 0.000000e+00 0.000000e+00 0.000000e+00 0.000000e+00 0.000000e+00 0.000000e+00 0.000000e+00 0.000000e+00
 0.000000e+00 0.000000e+00 0.000000e+00 0.000000e+00 6.938678e-01 3.061322e-01 0.000000e+00 0.000000e+00 0.000000e+00 0.000000e+00 0.000000e+00 0.000000e+00 0.000000e+00 0.000000e+00 0.000000e+00 0.000000e+00 0.000000e+00 0.000000e+00 0.000000e+00 0.000000e+00
 0.000000e+00 0.000000e+00 0.000000e+00 0.000000e+00 0.000000e+00 8.795314e-01 1.204686e-01 0.000000e+00 0.000000e+00 0.000000e+00 0.000000e+00 0.000000e+00 0.000000e+00 0.000000e+00 0.000000e+00 0.000000e+00 0.000000e+00 0.000000e+00 0.000000e+00 0.000000e+00
 0.000000e+00 0.000000e+00 0.000000e+00 0.000000e+00 0.000000e+00 0.000000e+00 8.288212e-01 1.711788e-01 0.000000e+00 0.000000e+00 0.000000e+00 0.000000e+00 0.000000e+00 0.000000e+00 0.000000e+00 0.000000e+00 0.000000e+00 0.000000e+00 0.000000e+00 0.000000e+00
 0.000000e+00 0.000000e+00 0.000000e+00 0.000000e+00 0.000000e+00 0.000000e+00 0.000000e+00 8.489166e-01 1.510834e-01 0.000000e+00 0.000000e+00 0.000000e+00 0.000000e+00 0.000000e+00 0.000000e+00 0.000000e+00 0.000000e+00 0.000000e+00 0.000000e+00 0.000000e+00
 0.000000e+00 0.000000e+00 0.000000e+00 0.000000e+00 0.000000e+00 0.000000e+00 0.000000e+00 0.000000e+00 7.932754e-01 2.067246e-01 0.000000e+00 0.000000e+00 0.000000e+00 0.000000e+00 0.000000e+00 0.000000e+00 0.000000e+00 0.000000e+00 0.000000e+00 0.000000e+00
 0.000000e+00 0.000000e+00 0.000000e+00 0.000000e+00 0.000000e+00 0.000000e+00 0.000000e+00 0.000000e+00 0.000000e+00 6.568103e-01 3.431897e-01 0.000000e+00 0.000000e+00 0.000000e+00 0.000000e+00 0.000000e+00 0.000000e+00 0.000000e+00 0.000000e+00 0.000000e+00
 0.000000e+00 0.000000e+00 0.000000e+00 0.000000e+00 0.000000e+00 0.000000e+00 0.000000e+00 0.000000e+00 0.000000e+00 0.000000e+00 7.464655e-01 2.535345e-01 0.000000e+00 0.000000e+00 0.000000e+00 0.000000e+00 0.000000e+00 0.000000e+00 0.000000e+00 0.000000e+00
 0.000000e+00 0.000000e+00 0.000000e+00 0.000000e+00 0.000000e+00 0.000000e+00 0.000000e+00 0.000000e+00 0.000000e+00 0.000000e+00 0.000000e+00 7.115801e-01 2.884199e-01 0.000000e+00 0.000000e+00 0.000000e+00 0.000000e+00 0.000000e+00 0.000000e+00 0.000000e+00
 0.000000e+00 0.000000e+00 0.000000e+00 0.000000e+00 0.000000e+00 0.000000e+00 0.000000e+00 0.000000e+00 0.000000e+00 0.000000e+00 0.000000e+00 0.000000e+00 7.743389e-01 2.256611e-01 0.000000e+00 0.000000e+00 0.000000e+00 0.000000e+00 0.000000e+00 0.000000e+00
 0.000000e+00 0.000000e+00 0.000000e+00 0.000000e+00 0.000000e+00 0.000000e+00 0.000000e+00 0.000000e+00 0.000000e+00 0.000000e+00 0.000000e+00 0.000000e+00 0.000000e+00 7.818171e-01 2.181829e-01 0.000000e+00 0.000000e+00 0.000000e+00 0.000000e+00 0.000000e+00
 0.000000e+00 0.000000e+00 0.000000e+00 0.000000e+00 0.000000e+00 0.000000e+00 0.000000e+00 0.000000e+00 0.000000e+00 0.000000e+00 0.000000e+00 0.000000e+00 0.000000e+00 0.000000e+00 7.526006e-01 2.473995e-01 0.000000e+00 0.000000e+00 0.000000e+00 0.000000e+00
 0.000000e+00 0.000000e+00 0.000000e+00 0.000000e+00 0.000000e+00 0.000000e+00 0.000000e+00 0.000000e+00 0.000000e+00 0.000000e+00 0.000000e+00 0.000000e+00 0.000000e+00 0.000000e+00 0.000000e+00 8.270643e-01 1.729358e-01 0.000000e+00 0.000000e+00 0.000000e+00
 0.000000e+00 0.000000e+00 0.000000e+00 0.000000e+00 0.000000e+00 0.000000e+00 0.000000e+00 0.000000e+00 0.000000e+00 0.000000e+00 0.000000e+00 0.000000e+00 0.000000e+00 0.000000e+00 0.000000e+00 0.000000e+00 8.274571e-01 1.725429e-01 0.000000e+00 0.000000e+00
 0.000000e+00 0.000000e+00 0.000000e+00 0.000000e+00 0.000000e+00 0.000000e+00 0.000000e+00 0.000000e+00 0.000000e+00 0.000000e+00 0.000000e+00 0.000000e+00 0.000000e+00 0.000000e+00 0.000000e+00 0.000000e+00 0.000000e+00 8.345674e-01 1.654326e-01 0.000000e+00
 0.000000e+00 0.000000e+00 0.000000e+00 0.000000e+00 0.000000e+00 0.000000e+00 0.000000e+00 0.000000e+00 0.000000e+00 0.000000e+00 0.000000e+00 0.000000e+00 0.000000e+00 0.000000e+00 0.000000e+00 0.000000e+00 0.000000e+00 0.000000e+00 8.151718e-01 1.848282e-01
 0.000000e+00 0.000000e+00 0.000000e+00 0.000000e+00 0.000000e+00 0.000000e+00 0.000000e+00 0.000000e+00 0.000000e+00 0.000000e+00 0.000000e+00 0.000000e+00 0.000000e+00 0.000000e+00 0.000000e+00 0.000000e+00 0.000000e+00 0.000000e+00 0.000000e+00 0.000000e+00
<ENDHMM>
