~o
<STREAMINFO> 1 39
<VECSIZE> 39<NULLD><MFCC_D_A_0><DIAGC>
~h "puluh"
<BEGINHMM>
<NUMSTATES> 20
<STATE> 2
<MEAN> 39
 -1.731290e+01 -9.648664e+00 -2.701901e+00 -5.598525e+00 1.252820e+00 -3.664055e+00 2.247261e-01 -4.551542e+00 -3.497543e-01 -4.462118e+00 8.484680e-01 -4.684870e+00 5.617167e+01 1.032467e+00 6.042106e-01 -1.645738e-01 3.934249e-02 -7.800815e-01 -8.378517e-01 -1.129448e+00 -1.583948e+00 -8.032228e-01 -1.882489e-01 4.245521e-01 5.089778e-01 8.364183e-01 7.874961e-01 5.928289e-01 1.048276e-01 -3.282958e-01 -3.663813e-01 -2.288508e-01 -3.071164e-01 -2.950451e-01 -2.928619e-01 -3.042864e-01 -7.851626e-02 -2.686409e-02 4.128391e-01
<VARIANCE> 39
 2.029115e+00 2.369345e+01 6.301136e+00 1.960149e+01 1.161168e+01 1.727781e+01 1.491168e+01 5.955268e+01 1.884613e+01 3.953203e+01 1.824331e+01 1.754067e+01 2.909370e+00 1.954944e+00 2.003929e+00 1.131128e+00 1.964019e+00 2.580758e+00 3.229297e+00 3.112838e+00 4.413099e+00 2.125267e+00 2.168958e+00 2.927425e+00 1.751104e+00 6.849333e-01 3.055129e-01 4.841742e-01 3.102964e-01 6.314424e-01 4.128297e-01 4.817959e-01 3.755526e-01 6.524481e-01 4.954137e-01 6.383294e-01 5.463855e-01 3.134490e-01 7.471296e-02
<GCONST> 1.035224e+02
<STATE> 3
<MEAN> 39
 -6.363227e+00 -2.265097e+00 -1.327469e+00 -7.765774e+00 -5.152088e+00 -1.009133e+01 -7.342223e+00 -1.233368e+01 -6.219101e+00 -6.130221e+00 1.248802e+00 -3.517319e+00 6.261209e+01 4.944295e+00 4.373535e+00 2.496197e-01 -3.596634e+00 -2.959324e+00 -1.195474e+00 -1.546393e+00 -1.091212e+00 -2.125648e+00 -1.817039e+00 3.818457e-01 7.420111e-01 2.411310e+00 -2.403620e-02 5.158472e-02 -2.158655e-01 -8.810474e-01 1.689498e-01 9.317185e-01 5.548405e-01 6.013067e-01 -1.482701e-01 -1.656034e-01 3.353610e-01 1.846748e-01 -8.840727e-02
<VARIANCE> 39
 2.903164e+01 4.917360e+01 2.599742e+01 3.699022e+01 4.358365e+01 4.094541e+01 3.456866e+01 7.257966e+01 3.653923e+01 3.325390e+01 3.028948e+01 1.741172e+01 5.857822e+00 8.492393e-01 2.615793e+00 3.719404e+00 4.532089e+00 2.804098e+00 3.793967e+00 3.278150e+00 5.705165e+00 8.068842e+00 5.554955e+00 3.558270e+00 1.629663e+00 7.186556e-01 5.468072e-01 9.834083e-01 2.523733e-01 7.648459e-01 6.403899e-01 6.231246e-01 7.220182e-01 8.220368e-01 6.693061e-01 6.065603e-01 6.632648e-01 3.672302e-01 1.220511e-01
<GCONST> 1.222857e+02
<STATE> 4
<MEAN> 39
 3.319132e+00 7.730856e+00 -1.443696e+00 -1.878420e+01 -1.169018e+01 -9.050982e+00 -7.297926e+00 -1.035128e+01 -9.953550e+00 -1.191988e+01 4.098490e+00 -7.984685e-01 6.704604e+01 1.931137e+00 9.499635e-01 -8.504466e-01 -2.760828e+00 -1.254906e-01 2.233763e+00 2.579216e-01 -4.880409e-01 -2.204053e+00 -6.762286e-01 1.760725e+00 1.347656e+00 1.261985e+00 -1.018210e+00 -1.250288e+00 -2.115056e-01 9.331669e-01 1.103704e+00 6.354996e-01 1.229576e-01 -4.846065e-01 2.865897e-02 1.070242e+00 5.304934e-01 -1.044117e-01 -3.546010e-01
<VARIANCE> 39
 4.656345e+00 1.313009e+01 2.680075e+01 2.574952e+01 3.994787e+01 5.883545e+01 3.611079e+01 5.219225e+01 9.731313e+01 1.445797e+01 4.037773e+01 1.197340e+01 3.846835e+00 1.523390e+00 2.004726e+00 8.600161e-01 4.199019e+00 3.095072e+00 2.550320e+00 2.723866e+00 2.368188e+00 3.184388e+00 2.113035e+00 4.359768e+00 1.374337e+00 8.325605e-01 2.079766e-01 2.783127e-01 1.628899e-01 2.529182e-01 3.149710e-01 5.474113e-01 2.776464e-01 6.797380e-01 8.563225e-01 6.981988e-01 4.857765e-01 4.435523e-01 6.192977e-02
<GCONST> 1.079576e+02
<STATE> 5
<MEAN> 39
 5.040174e+00 4.091263e+00 -6.489391e+00 -2.152391e+01 -8.964035e+00 -2.359855e-01 -4.310775e+00 -1.831478e+01 -1.597389e+01 -7.373060e+00 1.023106e+01 3.425390e+00 6.920312e+01 2.905807e-01 -1.413698e+00 -7.378498e-01 4.593165e-01 1.599345e+00 1.744705e+00 -8.372437e-01 -3.062953e+00 -1.372594e+00 3.529973e+00 2.669128e+00 -7.192128e-01 6.884497e-01 -4.569621e-01 -4.489741e-01 3.660694e-01 1.201342e+00 2.916650e-01 -8.910367e-01 -6.155719e-01 7.079720e-03 8.361657e-01 6.292086e-01 -5.234793e-01 -1.065265e+00 -2.100329e-01
<VARIANCE> 39
 2.570480e+00 1.027355e+01 4.311713e+01 2.100844e+01 7.053786e+01 3.841363e+01 6.958102e+01 7.563631e+01 6.368816e+01 4.120689e+01 7.262482e+01 1.466632e+01 3.935451e+00 3.649989e-01 8.506765e-01 9.640544e-01 2.379223e+00 2.585300e+00 1.616625e+00 4.314974e+00 3.163072e+00 3.915989e+00 2.948263e+00 4.178793e+00 3.702831e+00 1.330165e-01 1.017745e-01 2.325330e-01 1.568409e-01 2.778435e-01 5.049062e-01 3.233695e-01 2.314231e-01 7.145931e-01 8.997419e-01 9.425961e-01 8.964096e-01 3.988653e-01 6.006102e-02
<GCONST> 1.068242e+02
<STATE> 6
<MEAN> 39
 3.406542e+00 3.975115e+00 1.140211e+00 -2.296638e+01 7.435348e+00 3.295615e+00 -2.195061e+01 -1.160977e+01 -1.700572e+01 -2.986109e+00 2.122105e+01 -5.276879e+00 7.155030e+01 -2.322595e-01 -3.379297e-01 5.605488e-02 1.629783e+00 5.931187e-01 -9.954780e-01 -5.885272e-01 -9.429156e-01 1.275260e+00 1.098778e+00 -2.230464e-01 -1.353024e+00 -9.046423e-02 -3.842131e-02 -4.249167e-02 9.759475e-02 2.612796e-01 -2.566066e-01 -2.858375e-01 9.578260e-02 1.439537e-01 2.412953e-01 -3.095835e-01 -4.128259e-01 6.746920e-02 -5.599353e-02
<VARIANCE> 39
 3.284574e+00 1.094175e+01 5.638178e+01 5.725350e+01 7.126920e+01 3.940194e+01 9.628362e+01 1.282027e+02 1.169733e+02 3.947411e+01 5.115781e+01 1.555349e+01 3.888993e+00 1.301067e-01 1.202598e+00 8.017643e-01 1.561402e+00 2.502109e+00 1.264796e+00 4.866124e+00 2.119631e+00 3.237497e+00 3.982342e+00 4.052170e+00 1.695171e+00 2.609867e-01 3.147027e-02 1.509652e-01 2.258325e-01 2.570232e-01 2.928346e-01 6.224151e-01 8.660903e-01 6.139461e-01 5.265895e-01 9.071541e-01 8.500568e-01 1.527543e-01 6.585176e-02
<GCONST> 1.061401e+02
<STATE> 7
<MEAN> 39
 3.943543e+00 -3.049621e+00 -6.180815e+00 -7.978073e+00 -2.329934e+00 -5.966357e+00 -1.305790e+01 -2.625914e+01 -1.098131e+01 2.785856e+00 9.288460e+00 -7.112338e+00 7.017167e+01 -3.588174e-01 -1.027428e+00 7.949938e-01 2.459123e+00 5.971853e-01 -1.994881e+00 -1.469321e+00 3.564658e-01 9.317624e-01 -4.153726e-01 -8.212540e-01 -3.353331e-02 3.578976e-02 -3.061843e-02 3.916034e-01 -9.322139e-02 -6.439165e-01 -1.547725e-01 1.260621e-01 3.157030e-01 4.949736e-01 -3.274569e-01 -7.962636e-01 1.429972e-01 7.777256e-01 -1.160739e-01
<VARIANCE> 39
 3.627111e+00 1.830277e+01 6.206406e+01 2.182780e+01 8.495139e+01 2.388546e+01 1.524659e+02 5.357840e+01 5.839184e+01 5.012099e+01 8.022717e+01 1.866128e+01 2.244316e+00 1.292427e-01 8.379413e-01 1.428164e+00 1.332947e+00 2.158112e+00 1.471549e+00 2.700611e+00 3.269892e+00 2.848943e+00 4.226572e+00 2.320332e+00 2.774062e+00 1.065595e-01 3.534451e-02 1.294047e-01 2.768921e-01 2.077997e-01 1.899260e-01 3.853062e-01 4.532509e-01 3.094011e-01 5.123446e-01 6.888390e-01 6.242550e-01 3.666393e-01 9.453442e-03
<GCONST> 9.967536e+01
<STATE> 8
<MEAN> 39
 2.332958e+00 -1.924700e+00 -3.891097e+00 -6.015265e+00 -2.628121e+00 -9.529138e+00 -1.288874e+01 -2.224125e+01 -1.013414e+01 -1.307302e+00 1.080722e+01 -4.228065e+00 6.932318e+01 -1.045256e-01 2.276520e-01 -5.178973e-01 -1.056161e+00 -2.004972e-01 5.229103e-01 -4.485011e-02 3.577155e-01 2.969435e-01 -2.979560e-01 1.415775e-01 5.789939e-01 -9.563322e-02 5.741753e-02 2.450562e-01 -6.559965e-02 -6.030744e-01 -1.237514e-01 5.154324e-01 1.788040e-01 -9.719172e-03 5.480525e-02 3.254328e-01 3.644294e-02 1.277331e-02 3.538544e-03
<VARIANCE> 39
 2.520816e+00 2.196330e+01 4.818059e+01 2.664442e+01 8.028818e+01 2.582998e+01 1.198660e+02 8.179447e+01 1.066415e+02 6.094786e+01 3.886592e+01 2.511897e+01 2.733193e+00 1.093055e-01 3.744394e-01 6.048415e-01 1.328525e+00 1.266446e+00 1.170811e+00 1.449568e+00 1.676247e+00 1.297913e+00 2.645384e+00 7.588204e-01 1.208277e+00 8.083923e-02 1.745499e-02 6.901550e-02 1.403119e-01 2.577190e-01 3.171672e-01 2.517687e-01 5.159320e-01 4.889886e-01 2.822690e-01 4.878245e-01 1.357121e-01 2.154253e-01 1.514045e-02
<GCONST> 8.919218e+01
<STATE> 9
<MEAN> 39
 2.166264e+00 1.017241e+00 2.917389e+00 -1.612814e+01 6.298608e+00 -2.567488e+00 -2.187253e+01 -1.633132e+01 -8.651863e+00 7.009107e+00 1.312833e+01 -8.040671e+00 7.240951e+01 -1.178114e-01 3.223275e-01 2.259590e-02 -2.174326e-01 1.903502e-02 7.967820e-01 1.098049e+00 2.573104e-01 3.662505e-01 5.011783e-01 -8.958961e-02 7.747087e-01 -1.916985e-01 -4.020284e-02 1.512790e-01 -2.954962e-02 2.510872e-01 1.531086e-01 2.618246e-03 3.900199e-01 7.578782e-02 -9.526306e-02 -2.190375e-01 -8.260161e-03 4.026875e-02 -1.290693e-01
<VARIANCE> 39
 1.892629e+00 1.107665e+01 7.436614e+01 2.883658e+01 9.101602e+01 3.335260e+01 1.133613e+02 5.650797e+01 4.979403e+01 4.650389e+01 4.754054e+01 4.249504e+01 9.919089e+00 8.821984e-02 7.333711e-01 8.786293e-01 2.365646e+00 1.897955e+00 1.299500e+00 4.070940e+00 2.883220e+00 1.265494e+00 2.053150e+00 1.039201e+00 8.948935e-01 5.601659e-01 1.082421e-02 3.167358e-02 1.716273e-01 1.280075e-01 2.477682e-01 1.758820e-01 3.916515e-01 5.030130e-01 1.025012e-01 1.772533e-01 2.115587e-01 2.165630e-01 3.509320e-02
<GCONST> 9.149354e+01
<STATE> 10
<MEAN> 39
 2.899517e+00 2.935050e+00 -6.555232e+00 -1.346681e+01 -5.405396e+00 -3.701977e+00 -6.604372e+00 -2.090096e+01 -1.139916e+01 -5.010775e-01 1.143227e+01 5.933905e-01 6.823183e+01 -3.693924e-01 8.197050e-01 5.673459e-01 1.540992e-01 6.596544e-01 3.738437e-01 5.498489e-01 1.086873e+00 2.510401e-01 -1.066083e+00 -6.701038e-01 5.255193e-01 -4.877956e-01 -1.794744e-01 -1.293976e-01 2.927500e-01 4.920240e-01 1.786489e-01 -1.764838e-01 -2.808764e-02 4.865427e-02 4.732575e-02 -2.371621e-01 -1.762857e-01 -1.616262e-01 -1.017898e-01
<VARIANCE> 39
 2.273050e+00 1.545183e+01 3.057043e+01 9.843245e+00 5.488165e+01 3.044539e+01 7.576815e+01 3.602483e+01 3.937315e+01 3.024599e+01 2.270130e+01 2.189168e+01 1.690855e+00 1.715294e-01 2.533855e-01 9.577576e-01 1.261699e+00 1.166773e+00 1.299009e+00 1.857473e+00 1.141007e+00 1.280375e+00 1.022776e+00 1.555976e+00 1.303549e+00 7.004598e-02 1.108780e-02 4.408985e-02 9.630673e-02 9.771170e-02 2.345435e-01 2.261890e-01 2.108928e-01 1.746263e-01 2.105882e-01 3.120203e-01 1.967162e-01 2.458864e-01 7.454376e-03
<GCONST> 7.745301e+01
<STATE> 11
<MEAN> 39
 -1.793589e+00 8.268688e-01 -2.674354e+00 -9.096017e+00 5.703834e+00 -2.208461e+00 -1.411284e+01 -1.836009e+01 -5.703343e+00 -3.054359e+00 8.142142e+00 -3.167772e+00 6.651288e+01 -1.042640e+00 1.852486e-01 1.114926e-01 7.591132e-01 4.659029e-01 -1.118179e-01 9.125875e-01 -2.281892e-01 -9.497487e-03 -8.078284e-01 -1.737550e-01 -4.505725e-01 -5.551995e-01 -7.510830e-02 -1.962665e-01 -1.462435e-01 6.846996e-03 8.483360e-03 -9.003052e-02 -1.018792e-01 -1.262227e-01 3.727432e-02 1.797268e-01 9.599867e-02 -1.217073e-01 3.469282e-02
<VARIANCE> 39
 1.163176e+01 1.746104e+01 3.458212e+01 8.446335e+00 5.372663e+01 4.435619e+01 6.262168e+01 2.998180e+01 8.904128e+01 4.106062e+01 8.330506e+01 3.163099e+01 5.507130e+00 3.229858e-01 4.171261e-01 2.694193e+00 1.564983e+00 2.159067e+00 2.718915e+00 2.500402e+00 1.262547e+00 2.117640e+00 3.141407e+00 2.481946e+00 1.002782e+00 1.957076e-01 6.987107e-02 7.239561e-02 1.754713e-01 2.082339e-01 2.750559e-01 4.949339e-01 5.740905e-01 2.324748e-01 1.962502e-01 5.204694e-01 4.284319e-01 2.278478e-01 2.059590e-02
<GCONST> 9.820341e+01
<STATE> 12
<MEAN> 39
 -3.782224e+00 3.917208e+00 -5.648484e-02 -5.541131e+00 2.033314e+00 -3.154547e+00 -4.198093e+00 -1.500086e+01 -7.938690e+00 -6.947696e+00 8.188108e+00 1.223913e+00 6.360379e+01 -1.054355e+00 -5.409984e-01 2.350352e-01 6.733993e-01 4.230963e-01 5.694379e-02 1.764268e-01 2.404175e-02 2.529338e-01 -2.642415e-01 -4.569196e-01 -2.122214e-01 -6.185664e-01 1.537629e-02 -8.242100e-02 -1.405330e-01 -2.140359e-01 -1.996942e-01 -9.188673e-03 -1.451612e-01 -1.632305e-01 -6.775876e-05 1.903183e-01 -2.183737e-02 1.590090e-02 2.465893e-02
<VARIANCE> 39
 6.372638e+00 7.660225e+00 7.615557e+00 7.156678e+00 2.186523e+01 1.981811e+01 3.720539e+01 2.250019e+01 2.788928e+01 1.919578e+01 1.988299e+01 2.711990e+01 2.671547e+00 1.170311e-01 2.760347e-01 5.196790e-01 5.994372e-01 1.290255e+00 1.173008e+00 1.131165e+00 1.041667e+00 1.091442e+00 1.176165e+00 1.013042e+00 8.809823e-01 4.330266e-02 2.272397e-02 5.736166e-02 5.908539e-02 8.708832e-02 1.606855e-01 2.458501e-01 2.241993e-01 1.824347e-01 2.084443e-01 2.285283e-01 1.940330e-01 1.556314e-01 8.483566e-03
<GCONST> 6.924275e+01
<STATE> 13
<MEAN> 39
 -8.129490e+00 -2.468169e-01 -2.035776e+00 -5.264671e+00 2.378403e+00 -3.146927e+00 -6.341848e+00 -1.934002e+01 -8.965410e+00 -6.401863e+00 4.539714e+00 -1.605190e+00 6.131998e+01 -8.886247e-01 -5.131032e-01 1.008856e-01 4.346197e-01 3.749597e-01 3.551595e-02 3.919798e-01 4.085628e-01 2.862774e-01 -2.745133e-01 -4.241770e-01 -2.854021e-01 -4.513234e-01 5.429950e-02 4.877160e-02 1.293467e-01 1.629996e-01 2.002798e-01 5.154353e-02 1.484337e-01 4.056812e-01 1.334383e-01 -2.216184e-01 -3.040476e-02 -1.131204e-01 4.280723e-02
<VARIANCE> 39
 3.806465e+00 6.290963e+00 1.717670e+01 1.663393e+01 2.706369e+01 2.234704e+01 2.131380e+01 2.257094e+01 4.938363e+01 2.480730e+01 1.669264e+01 1.961794e+01 2.723915e+00 6.236441e-02 1.118119e-01 4.565775e-01 6.370165e-01 8.716319e-01 1.376947e+00 1.496901e+00 2.226380e+00 1.120628e+00 1.214435e+00 9.691817e-01 1.523158e+00 3.132786e-02 1.204950e-02 4.003305e-02 7.989229e-02 1.081851e-01 1.493327e-01 2.979440e-01 1.999350e-01 3.544155e-01 2.220906e-01 2.061136e-01 1.423537e-01 2.415006e-01 5.925806e-03
<GCONST> 6.968317e+01
<STATE> 14
<MEAN> 39
 -1.106444e+01 -3.362553e+00 -3.492575e+00 -3.648149e+00 1.480282e+01 -1.428690e+00 -9.077578e+00 -1.508060e+01 4.094301e+00 -3.791457e+00 5.714602e+00 -1.097737e+01 6.307113e+01 -4.617055e-01 -3.744110e-01 3.176827e-01 7.674744e-01 1.414119e-01 4.550220e-01 7.944704e-01 9.613975e-01 1.618081e-01 -2.628281e-01 -4.589670e-01 -2.802933e-01 -5.109401e-01 6.720731e-03 3.132072e-02 4.811679e-03 2.570440e-02 -1.194452e-01 6.210118e-02 9.099127e-02 -2.822826e-02 -1.195506e-01 -6.940362e-03 4.829079e-02 1.233405e-01 -1.857064e-02
<VARIANCE> 39
 2.761143e+00 7.111773e+00 1.194201e+01 9.142389e+00 6.117358e+01 1.663138e+01 3.278900e+01 2.218212e+01 7.433158e+01 2.303240e+01 5.001792e+01 4.425414e+01 8.477810e+00 2.648843e-01 1.523127e-01 3.481709e-01 5.514898e-01 1.151533e+00 6.306076e-01 8.621061e-01 1.823634e+00 2.164048e+00 1.144070e+00 1.084193e+00 1.370027e+00 8.877796e-02 3.741950e-02 1.274562e-02 4.379120e-02 8.036100e-02 1.387912e-01 1.060628e-01 2.136125e-01 3.004049e-01 2.838575e-01 2.066089e-01 1.783272e-01 1.228927e-01 1.208402e-02
<GCONST> 7.296476e+01
<STATE> 15
<MEAN> 39
 -1.218897e+01 -8.019643e-01 2.872044e+00 2.787741e+00 8.306992e+00 7.004991e-01 1.136670e+00 -8.161951e+00 -2.559431e+00 -8.611919e+00 3.317154e-01 -4.119584e+00 5.877892e+01 -4.828763e-01 -2.877013e-01 1.058737e-01 5.935408e-01 5.779096e-01 6.507376e-01 8.791229e-01 7.301776e-01 3.507397e-02 -3.805947e-01 -8.379496e-01 -6.655057e-01 -2.373627e-01 -1.815849e-02 -5.799549e-02 -1.090531e-01 -2.040906e-01 -2.097700e-01 -9.282608e-02 -7.393333e-02 -1.725969e-01 -1.137991e-01 4.698763e-02 -1.229680e-03 -3.283115e-02 4.109729e-03
<VARIANCE> 39
 1.919878e+00 4.929883e+00 1.145164e+01 1.756622e+01 1.542073e+01 1.626434e+01 2.839002e+01 2.427100e+01 3.446931e+01 3.219335e+01 1.693240e+01 1.757939e+01 5.343633e-01 1.484636e-01 2.132845e-01 3.813970e-01 4.646244e-01 6.927018e-01 7.211642e-01 1.076918e+00 9.628057e-01 1.644171e+00 9.230899e-01 1.197291e+00 1.127064e+00 4.592197e-02 2.533021e-02 3.237556e-02 8.720426e-02 8.043858e-02 1.578028e-01 1.549456e-01 2.035920e-01 1.153118e-01 3.309355e-01 2.122332e-01 2.334171e-01 2.734874e-01 7.872095e-03
<GCONST> 6.538477e+01
<STATE> 16
<MEAN> 39
 -1.492664e+01 -4.080988e+00 -2.634362e-01 -3.484999e-01 4.796487e+00 -1.754300e+00 -1.614442e+00 -1.298459e+01 -8.347837e+00 -1.262178e+01 -9.313191e-01 -5.318150e+00 5.773684e+01 -8.094625e-01 -6.267126e-01 -1.835736e-01 -4.967342e-02 -4.220210e-01 -6.874643e-02 3.958212e-01 7.451722e-01 2.403086e-01 -2.757086e-01 -2.291601e-01 -4.454489e-01 -3.799900e-01 7.908983e-02 -7.535968e-04 -1.113317e-01 -1.893429e-01 -5.139439e-02 9.784961e-02 1.703821e-01 2.133659e-01 1.292434e-01 3.213373e-02 -7.266118e-02 -3.225634e-02 4.580357e-02
<VARIANCE> 39
 3.875722e+00 5.051630e+00 1.063663e+01 1.794340e+01 2.799898e+01 1.485876e+01 2.373799e+01 2.927341e+01 3.168770e+01 2.474193e+01 2.505829e+01 2.106031e+01 1.340371e+00 9.846228e-02 1.640340e-01 4.541357e-01 6.531690e-01 9.425375e-01 8.748457e-01 6.787481e-01 1.562818e+00 1.530073e+00 1.449224e+00 7.751082e-01 7.092709e-01 3.364545e-02 8.715912e-03 4.490979e-02 5.865561e-02 1.082747e-01 1.112207e-01 1.431974e-01 9.351521e-02 1.737208e-01 2.682367e-01 3.733484e-01 1.516051e-01 1.344666e-01 4.238861e-03
<GCONST> 6.421283e+01
<STATE> 17
<MEAN> 39
 -1.629428e+01 -6.264008e+00 -2.370602e+00 -1.554078e+00 5.896900e+00 1.830194e+00 3.879170e+00 -5.362735e+00 -1.006627e+00 -9.147808e+00 -2.353272e+00 -9.678224e+00 5.741720e+01 -4.724586e-01 -4.182345e-01 -4.368106e-01 -4.984947e-01 -3.073734e-01 3.502479e-01 1.367410e+00 1.136136e+00 2.013961e-01 -2.192809e-01 -6.414387e-01 -7.976478e-02 -2.525449e-01 5.426556e-03 2.741669e-06 9.758008e-02 1.690705e-01 1.997691e-01 8.771432e-03 -4.728052e-02 -5.710921e-02 3.084728e-03 5.807111e-02 -3.779339e-02 6.151162e-02 -1.863791e-02
<VARIANCE> 39
 2.798519e+00 3.972059e+00 1.694481e+01 2.099397e+01 3.647048e+01 1.887370e+01 2.762034e+01 3.796569e+01 2.757876e+01 2.148444e+01 2.612711e+01 2.195064e+01 1.375097e+00 1.070768e-01 3.637989e-01 4.389393e-01 7.024269e-01 7.329956e-01 1.223377e+00 8.413283e-01 1.267362e+00 1.799867e+00 1.766733e+00 1.732126e+00 1.771816e+00 4.370444e-02 1.843660e-02 5.384286e-02 5.643036e-02 1.154891e-01 1.098624e-01 2.061770e-01 2.062198e-01 2.911249e-01 1.255198e-01 1.640914e-01 2.191529e-01 2.847575e-01 2.294832e-03
<GCONST> 6.990244e+01
<STATE> 18
<MEAN> 39
 -1.856559e+01 -7.205736e+00 -1.084912e+00 1.940511e+00 9.982790e+00 5.329101e+00 7.741624e+00 -3.708086e+00 -3.863583e+00 -1.308635e+01 -7.055662e+00 -1.143970e+01 5.607890e+01 -5.726121e-01 -5.115798e-01 -3.705249e-02 4.866701e-01 8.164874e-01 8.342682e-01 3.826622e-01 6.165043e-01 8.049542e-01 3.084615e-01 -4.447637e-01 -4.122525e-01 -3.442404e-01 7.831257e-02 5.795211e-02 3.500089e-02 3.029838e-02 2.684072e-02 -7.713265e-02 -1.587659e-01 -8.985346e-02 1.703478e-01 1.942358e-01 2.646385e-01 9.490949e-02 3.910588e-02
<VARIANCE> 39
 3.156771e+00 5.439458e+00 1.575819e+01 2.088027e+01 3.307043e+01 2.674588e+01 2.606365e+01 2.510579e+01 1.565910e+01 1.698914e+01 2.815218e+01 4.264669e+01 8.222398e-01 8.890378e-02 2.301989e-01 4.191555e-01 8.178907e-01 8.659027e-01 6.455966e-01 1.746851e+00 1.410127e+00 3.484502e-01 1.012448e+00 1.397928e+00 1.317303e+00 2.194703e-02 1.364793e-02 3.543274e-02 3.975292e-02 1.884539e-01 2.253963e-01 2.038262e-01 3.009591e-01 2.089850e-01 1.872510e-01 2.157769e-01 1.877766e-01 2.780352e-01 5.026902e-03
<GCONST> 6.734449e+01
<STATE> 19
<MEAN> 39
 -1.906927e+01 -8.408356e+00 -2.562847e+00 -6.202256e-02 7.289011e+00 2.656141e+00 6.641070e+00 -2.076449e+00 1.108736e+00 -7.807640e+00 -3.201138e+00 -9.225164e+00 5.567756e+01 -1.597065e-01 -7.419330e-02 -6.590772e-02 -3.176086e-01 -4.043919e-01 -2.797404e-01 4.980922e-01 8.064061e-01 9.860757e-01 6.569949e-01 3.999809e-01 1.268015e-01 -8.172095e-02 2.881933e-02 6.302609e-02 4.177514e-02 -3.567417e-02 -4.656190e-02 7.505145e-02 1.392228e-01 1.498475e-01 4.997573e-02 6.362843e-02 2.706524e-01 1.053097e-01 3.986232e-02
<VARIANCE> 39
 4.507429e+00 6.879658e+00 1.000657e+01 2.429245e+01 3.321714e+01 3.662235e+01 3.648841e+01 3.501428e+01 4.139264e+01 2.623980e+01 2.037519e+01 3.357616e+01 9.659138e-01 1.955441e-01 2.126736e-01 4.184515e-01 9.185551e-01 1.208203e+00 1.450484e+00 1.952718e+00 1.934578e+00 1.748629e+00 1.027673e+00 1.242280e+00 8.322303e-01 4.282291e-02 3.997123e-02 7.640998e-02 7.145754e-02 1.955732e-01 3.092147e-01 3.732015e-01 3.815859e-01 2.663694e-01 3.818253e-01 1.356592e-01 2.182472e-01 2.004660e-01 8.171552e-03
<GCONST> 7.816393e+01
<TRANSP> 20
 0.000000e+00 1.000000e+00 0.000000e+00 0.000000e+00 0.000000e+00 0.000000e+00 0.000000e+00 0.000000e+00 0.000000e+00 0.000000e+00 0.000000e+00 0.000000e+00 0.000000e+00 0.000000e+00 0.000000e+00 0.000000e+00 0.000000e+00 0.000000e+00 0.000000e+00 0.000000e+00
 0.000000e+00 7.777544e-01 2.222456e-01 0.000000e+00 0.000000e+00 0.000000e+00 0.000000e+00 0.000000e+00 0.000000e+00 0.000000e+00 0.000000e+00 0.000000e+00 0.000000e+00 0.000000e+00 0.000000e+00 0.000000e+00 0.000000e+00 0.000000e+00 0.000000e+00 0.000000e+00
 0.000000e+00 0.000000e+00 5.863802e-01 4.136198e-01 0.000000e+00 0.000000e+00 0.000000e+00 0.000000e+00 0.000000e+00 0.000000e+00 0.000000e+00 0.000000e+00 0.000000e+00 0.000000e+00 0.000000e+00 0.000000e+00 0.000000e+00 0.000000e+00 0.000000e+00 0.000000e+00
 0.000000e+00 0.000000e+00 0.000000e+00 6.000628e-01 3.999372e-01 0.000000e+00 0.000000e+00 0.000000e+00 0.000000e+00 0.000000e+00 0.000000e+00 0.000000e+00 0.000000e+00 0.000000e+00 0.000000e+00 0.000000e+00 0.000000e+00 0.000000e+00 0.000000e+00 0.000000e+00
 0.000000e+00 0.000000e+00 0.000000e+00 0.000000e+00 6.127396e-01 3.872603e-01 0.000000e+00 0.000000e+00 0.000000e+00 0.000000e+00 0.000000e+00 0.000000e+00 0.000000e+00 0.000000e+00 0.000000e+00 0.000000e+00 0.000000e+00 0.000000e+00 0.000000e+00 0.000000e+00
 0.000000e+00 0.000000e+00 0.000000e+00 0.000000e+00 0.000000e+00 7.444663e-01 2.555337e-01 0.000000e+00 0.000000e+00 0.000000e+00 0.000000e+00 0.000000e+00 0.000000e+00 0.000000e+00 0.000000e+00 0.000000e+00 0.000000e+00 0.000000e+00 0.000000e+00 0.000000e+00
 0.000000e+00 0.000000e+00 0.000000e+00 0.000000e+00 0.000000e+00 0.000000e+00 6.473118e-01 3.526883e-01 0.000000e+00 0.000000e+00 0.000000e+00 0.000000e+00 0.000000e+00 0.000000e+00 0.000000e+00 0.000000e+00 0.000000e+00 0.000000e+00 0.000000e+00 0.000000e+00
 0.000000e+00 0.000000e+00 0.000000e+00 0.000000e+00 0.000000e+00 0.000000e+00 0.000000e+00 7.207403e-01 2.792597e-01 0.000000e+00 0.000000e+00 0.000000e+00 0.000000e+00 0.000000e+00 0.000000e+00 0.000000e+00 0.000000e+00 0.000000e+00 0.000000e+00 0.000000e+00
 0.000000e+00 0.000000e+00 0.000000e+00 0.000000e+00 0.000000e+00 0.000000e+00 0.000000e+00 0.000000e+00 6.261849e-01 3.738151e-01 0.000000e+00 0.000000e+00 0.000000e+00 0.000000e+00 0.000000e+00 0.000000e+00 0.000000e+00 0.000000e+00 0.000000e+00 0.000000e+00
 0.000000e+00 0.000000e+00 0.000000e+00 0.000000e+00 0.000000e+00 0.000000e+00 0.000000e+00 0.000000e+00 0.000000e+00 7.327060e-01 2.672940e-01 0.000000e+00 0.000000e+00 0.000000e+00 0.000000e+00 0.000000e+00 0.000000e+00 0.000000e+00 0.000000e+00 0.000000e+00
 0.000000e+00 0.000000e+00 0.000000e+00 0.000000e+00 0.000000e+00 0.000000e+00 0.000000e+00 0.000000e+00 0.000000e+00 0.000000e+00 6.736584e-01 3.263416e-01 0.000000e+00 0.000000e+00 0.000000e+00 0.000000e+00 0.000000e+00 0.000000e+00 0.000000e+00 0.000000e+00
 0.000000e+00 0.000000e+00 0.000000e+00 0.000000e+00 0.000000e+00 0.000000e+00 0.000000e+00 0.000000e+00 0.000000e+00 0.000000e+00 0.000000e+00 7.665189e-01 2.334812e-01 0.000000e+00 0.000000e+00 0.000000e+00 0.000000e+00 0.000000e+00 0.000000e+00 0.000000e+00
 0.000000e+00 0.000000e+00 0.000000e+00 0.000000e+00 0.000000e+00 0.000000e+00 0.000000e+00 0.000000e+00 0.000000e+00 0.000000e+00 0.000000e+00 0.000000e+00 7.324395e-01 2.675605e-01 0.000000e+00 0.000000e+00 0.000000e+00 0.000000e+00 0.000000e+00 0.000000e+00
 0.000000e+00 0.000000e+00 0.000000e+00 0.000000e+00 0.000000e+00 0.000000e+00 0.000000e+00 0.000000e+00 0.000000e+00 0.000000e+00 0.000000e+00 0.000000e+00 0.000000e+00 6.364833e-01 3.635168e-01 0.000000e+00 0.000000e+00 0.000000e+00 0.000000e+00 0.000000e+00
 0.000000e+00 0.000000e+00 0.000000e+00 0.000000e+00 0.000000e+00 0.000000e+00 0.000000e+00 0.000000e+00 0.000000e+00 0.000000e+00 0.000000e+00 0.000000e+00 0.000000e+00 0.000000e+00 7.407754e-01 2.592246e-01 0.000000e+00 0.000000e+00 0.000000e+00 0.000000e+00
 0.000000e+00 0.000000e+00 0.000000e+00 0.000000e+00 0.000000e+00 0.000000e+00 0.000000e+00 0.000000e+00 0.000000e+00 0.000000e+00 0.000000e+00 0.000000e+00 0.000000e+00 0.000000e+00 0.000000e+00 7.067395e-01 2.932605e-01 0.000000e+00 0.000000e+00 0.000000e+00
 0.000000e+00 0.000000e+00 0.000000e+00 0.000000e+00 0.000000e+00 0.000000e+00 0.000000e+00 0.000000e+00 0.000000e+00 0.000000e+00 0.000000e+00 0.000000e+00 0.000000e+00 0.000000e+00 0.000000e+00 0.000000e+00 6.763109e-01 3.236891e-01 0.000000e+00 0.000000e+00
 0.000000e+00 0.000000e+00 0.000000e+00 0.000000e+00 0.000000e+00 0.000000e+00 0.000000e+00 0.000000e+00 0.000000e+00 0.000000e+00 0.000000e+00 0.000000e+00 0.000000e+00 0.000000e+00 0.000000e+00 0.000000e+00 0.000000e+00 5.996890e-01 4.003110e-01 0.000000e+00
 0.000000e+00 0.000000e+00 0.000000e+00 0.000000e+00 0.000000e+00 0.000000e+00 0.000000e+00 0.000000e+00 0.000000e+00 0.000000e+00 0.000000e+00 0.000000e+00 0.000000e+00 0.000000e+00 0.000000e+00 0.000000e+00 0.000000e+00 0.000000e+00 6.221737e-01 3.778263e-01
 0.000000e+00 0.000000e+00 0.000000e+00 0.000000e+00 0.000000e+00 0.000000e+00 0.000000e+00 0.000000e+00 0.000000e+00 0.000000e+00 0.000000e+00 0.000000e+00 0.000000e+00 0.000000e+00 0.000000e+00 0.000000e+00 0.000000e+00 0.000000e+00 0.000000e+00 0.000000e+00
<ENDHMM>
