~o
<STREAMINFO> 1 39
<VECSIZE> 39<NULLD><MFCC_D_A_0><DIAGC>
~h "enam"
<BEGINHMM>
<NUMSTATES> 20
<STATE> 2
<MEAN> 39
 -1.702514e+01 -5.895222e+00 -1.492857e+00 -3.312156e+00 9.266661e-01 -3.540320e+00 1.047805e+00 -5.723093e+00 5.717544e-02 -7.054425e+00 -9.682999e-01 -6.838535e+00 5.680899e+01 9.623069e-02 -1.666773e-02 2.744480e-02 7.763434e-02 2.096915e-01 1.128411e-01 -1.550490e-02 9.236582e-02 9.564877e-02 -1.023728e-01 -2.539973e-01 2.951335e-02 6.107297e-02 2.019863e-01 -6.652371e-02 -6.325945e-02 -3.589636e-02 -6.634781e-02 -1.930780e-01 -1.736092e-01 7.691152e-02 7.365191e-02 -2.227429e-02 -6.014130e-03 1.844200e-01 1.495268e-01
<VARIANCE> 39
 1.245078e+00 3.156187e+00 6.414410e+00 6.989666e+00 8.929098e+00 9.091232e+00 1.455093e+01 1.322597e+01 1.234664e+01 1.184310e+01 1.149027e+01 1.072232e+01 3.082892e-01 1.900229e-01 5.529217e-01 1.223734e+00 9.361871e-01 1.165265e+00 1.095039e+00 1.451640e+00 1.603601e+00 1.175304e+00 1.452212e+00 1.339394e+00 1.553064e+00 5.978372e-02 1.075256e-01 2.050675e-01 2.761509e-01 2.603262e-01 3.463880e-01 3.335063e-01 3.427338e-01 3.518848e-01 3.977423e-01 3.666698e-01 3.280936e-01 2.787453e-01 6.453799e-02
<GCONST> 7.477074e+01
<STATE> 3
<MEAN> 39
 -1.383609e+01 -7.666406e+00 -3.674491e+00 -4.852155e+00 -6.882858e-01 -7.274415e+00 -2.699103e+00 -4.079543e+00 2.553821e+00 -7.866858e+00 -3.008739e+00 -5.486006e+00 5.933698e+01 2.462992e+00 1.416487e-01 3.752965e-01 2.873416e-01 -6.009294e-01 -1.514076e+00 -1.907691e+00 -1.861797e-01 2.889487e-01 -1.193144e+00 -1.219555e+00 8.029782e-01 1.948636e+00 6.460773e-01 3.501756e-01 3.522754e-01 1.581307e-01 -1.359930e-01 -2.154170e-01 -3.418609e-01 -3.479318e-01 -1.997922e-01 -3.216713e-01 -2.340320e-01 -6.994721e-02 4.728280e-01
<VARIANCE> 39
 1.023898e+01 3.016066e+01 3.396403e+01 3.648877e+01 5.131631e+01 4.674582e+01 3.774174e+01 3.305037e+01 4.518312e+01 3.588638e+01 4.289260e+01 2.816593e+01 6.196126e+00 1.599237e+00 5.162432e+00 3.743351e+00 3.027919e+00 5.606276e+00 5.556918e+00 6.039215e+00 5.441406e+00 5.664888e+00 9.013112e+00 6.009892e+00 2.968728e+00 1.354295e+00 1.629776e-01 4.162450e-01 2.321677e-01 5.159788e-01 8.256985e-01 7.755433e-01 8.211957e-01 8.873063e-01 1.112483e+00 1.052351e+00 7.659240e-01 6.409991e-01 1.871541e-01
<GCONST> 1.265389e+02
<STATE> 4
<MEAN> 39
 -1.224813e+00 -7.130195e+00 4.332095e-01 -3.381001e+00 -2.172280e+00 -1.206135e+01 -1.088776e+01 -5.882380e+00 2.163822e+00 -1.269888e+01 -8.856688e+00 -3.639336e+00 7.039290e+01 2.210015e+00 1.224433e+00 1.011898e+00 2.296619e-01 -6.730455e-01 -9.112901e-01 -9.076079e-01 -1.075881e+00 -2.736305e-01 -2.477589e-01 9.741654e-02 3.185668e-01 1.322456e+00 -6.871183e-01 2.702892e-01 1.453980e-02 -5.883795e-02 1.108678e-01 4.305465e-01 6.570663e-01 -5.061830e-02 -2.156769e-01 4.391269e-01 5.730383e-01 -9.610096e-02 -7.057825e-01
<VARIANCE> 39
 1.048883e+01 6.449538e+01 6.930565e+01 2.993798e+01 8.276772e+01 8.470477e+01 9.015726e+01 9.057146e+01 3.929380e+01 1.575481e+02 6.225932e+01 3.387198e+01 2.452499e+01 2.150198e+00 4.160323e+00 2.195169e+00 3.892719e+00 4.414071e+00 3.992119e+00 4.062731e+00 5.331248e+00 3.725544e+00 5.427897e+00 5.049686e+00 3.673303e+00 2.792827e+00 1.517899e-01 8.744939e-01 4.104432e-01 5.908173e-01 6.311975e-01 6.615161e-01 7.105042e-01 6.428173e-01 5.056636e-01 1.182225e+00 4.831825e-01 4.550285e-01 1.939257e-01
<GCONST> 1.317517e+02
<STATE> 5
<MEAN> 39
 5.154192e-01 4.195242e+00 8.491738e+00 6.442004e-01 -2.904200e+00 -1.183836e+01 -5.252199e+00 -1.001493e+01 -3.944109e+00 -5.533733e+00 2.506937e+00 -6.247597e-01 6.755119e+01 2.537433e-01 8.105533e-01 4.537555e-01 4.030671e-01 -3.396798e-01 -5.099372e-01 -1.025989e-01 -2.539581e-01 -4.987527e-01 -1.768899e-01 6.284473e-01 1.161750e-01 -1.599859e-01 -1.894677e-01 -1.933278e-01 -1.344652e-01 -1.253939e-01 3.878093e-03 4.466617e-02 3.127943e-02 1.543447e-01 1.235663e-01 -4.555757e-02 -8.516149e-02 -6.634480e-02 -5.166220e-02
<VARIANCE> 39
 3.470121e+00 3.247769e+01 2.562136e+01 1.159311e+01 3.999145e+01 4.043850e+01 3.020633e+01 5.291404e+01 4.415294e+01 6.459875e+01 8.089247e+01 2.511044e+01 9.717730e+00 2.517596e-01 9.859763e-01 7.778296e-01 1.053369e+00 1.279925e+00 8.629410e-01 1.209563e+00 1.841376e+00 1.777018e+00 1.938013e+00 1.391194e+00 2.055259e+00 3.597653e-01 6.625471e-02 1.294653e-01 1.365396e-01 1.387545e-01 1.654323e-01 1.825906e-01 1.822539e-01 2.516519e-01 1.659698e-01 2.709948e-01 2.945755e-01 2.294532e-01 2.677231e-02
<GCONST> 9.055671e+01
<STATE> 6
<MEAN> 39
 2.159001e+00 2.293434e+00 2.366915e+00 -3.988151e+00 -6.136491e+00 -1.309626e+01 -1.035493e+01 -9.792826e+00 1.013108e+00 -1.785931e+01 -8.550794e+00 -3.307041e+00 6.855400e+01 3.477854e-02 5.264282e-01 4.067707e-02 -4.077245e-01 -2.436831e-01 3.015158e-01 2.405036e-01 -2.651603e-01 3.579948e-02 4.529176e-01 8.824413e-02 -3.850762e-01 -1.088803e-01 -1.490441e-02 -3.129983e-01 -2.704009e-01 9.580784e-02 2.495688e-01 -4.116308e-02 -2.429393e-01 7.964424e-02 1.999216e-01 2.154929e-01 -5.922006e-02 -1.296521e-01 7.598560e-02
<VARIANCE> 39
 3.159604e+00 1.864296e+01 1.858940e+01 1.791426e+01 2.204101e+01 6.505948e+01 5.705669e+01 7.901341e+01 3.156317e+01 5.478773e+01 9.243440e+01 8.733575e+01 4.186403e+00 8.697701e-02 5.868656e-01 5.853117e-01 9.697363e-01 8.584368e-01 1.190222e+00 1.718892e+00 1.567210e+00 1.950998e+00 1.889211e+00 1.003096e+00 1.781395e+00 5.327649e-02 2.480901e-02 7.712126e-02 1.970972e-01 2.358833e-01 1.635809e-01 2.026517e-01 2.653035e-01 3.731745e-01 4.102354e-01 2.482432e-01 2.049694e-01 2.002360e-01 1.829465e-02
<GCONST> 8.702514e+01
<STATE> 7
<MEAN> 39
 1.750151e+00 3.546831e+00 3.259174e+00 -2.009933e+00 -3.951495e+00 -1.404920e+01 -1.053662e+01 -1.057285e+01 -4.394728e-01 -8.504110e+00 -1.331893e+00 -5.975006e+00 6.798567e+01 3.026095e-01 -2.462424e+00 -2.421923e+00 -9.126016e-01 2.103840e+00 3.684273e-01 -1.058566e+00 1.740754e+00 1.267086e+00 1.243954e+00 -3.809905e-02 -1.094772e+00 1.049404e+00 7.227225e-02 -9.952661e-01 -6.904173e-01 -3.372253e-01 5.681193e-01 4.016403e-01 2.562072e-01 8.014004e-01 6.482361e-03 -4.020978e-01 -4.161980e-01 6.171449e-03 4.158939e-01
<VARIANCE> 39
 3.833875e+00 1.918022e+01 3.792248e+01 2.978131e+01 2.242354e+01 4.061858e+01 4.799776e+01 4.844192e+01 5.344381e+01 7.231811e+01 1.513393e+02 7.604424e+01 5.171281e+00 2.798441e-01 2.505853e+00 2.809952e+00 3.108798e+00 2.619111e+00 3.225057e+00 1.787807e+00 5.675627e+00 4.708467e+00 3.996112e+00 4.154893e+00 5.332654e+00 6.106641e-01 4.870728e-02 1.588410e-01 3.034911e-01 4.066735e-01 3.932438e-01 2.937241e-01 4.444675e-01 6.488321e-01 1.057368e+00 7.797163e-01 7.218332e-01 7.413294e-01 5.007605e-02
<GCONST> 1.144587e+02
<STATE> 8
<MEAN> 39
 2.685807e+00 -1.034535e+01 -7.763148e+00 -5.873086e+00 4.837200e+00 -9.593503e+00 -1.124361e+01 -5.880880e-01 3.947000e+00 -9.759430e+00 -5.702690e+00 -8.289451e+00 7.363886e+01 4.371339e-02 -2.997021e+00 -2.165756e+00 -4.388092e-01 1.721690e+00 1.368477e+00 1.185196e+00 2.055974e+00 -2.185684e-01 -1.041569e+00 -1.195099e+00 -4.687534e-01 1.215889e+00 -1.086358e-01 8.027005e-01 7.435844e-01 2.161707e-01 -6.244007e-01 -9.335028e-02 3.234682e-01 -7.217197e-01 -3.964624e-01 -1.833719e-01 1.673998e-01 2.399840e-01 -3.218574e-01
<VARIANCE> 39
 4.272954e+00 2.540612e+01 5.505067e+01 2.183528e+01 7.234065e+01 4.788871e+01 5.876863e+01 1.366976e+02 8.735268e+01 1.343973e+02 1.205836e+02 3.987010e+01 9.904171e+00 2.779635e-01 2.680868e+00 3.211904e+00 3.230294e+00 4.050603e+00 3.389996e+00 3.100351e+00 4.605047e+00 5.173782e+00 2.858474e+00 6.171034e+00 4.659030e+00 3.890153e-01 5.654795e-02 3.053812e-01 4.029454e-01 3.692811e-01 2.841837e-01 5.590461e-01 7.070806e-01 8.180701e-01 8.761051e-01 7.364632e-01 7.085580e-01 8.115055e-01 4.622188e-02
<GCONST> 1.207548e+02
<STATE> 9
<MEAN> 39
 2.650440e+00 -1.189857e+01 -6.163729e+00 -8.487265e+00 1.211639e+01 -6.130058e+00 -1.153630e+01 3.874881e-01 -2.594378e+00 -1.039848e+01 -3.100800e+00 -1.269204e+01 7.564550e+01 2.846911e-02 9.448603e-01 3.565741e-01 -4.793134e-02 -4.681565e-01 3.759629e-01 -1.002403e-01 -1.821899e+00 -6.022089e-01 -1.597824e-01 2.498176e-01 6.368728e-02 -3.887078e-01 7.513677e-03 4.188455e-01 2.048269e-01 8.888999e-02 -3.725800e-01 -1.844738e-01 -1.615143e-01 -1.746670e-01 -6.720893e-02 6.564984e-02 1.671977e-01 5.875722e-02 -2.137849e-01
<VARIANCE> 39
 2.347175e+00 1.914779e+01 1.057200e+02 2.140026e+01 4.445832e+01 3.013021e+01 5.472824e+01 1.582118e+02 4.903231e+01 1.186474e+02 1.727994e+02 2.010614e+01 8.734581e+00 1.092995e-01 1.841203e+00 1.356578e+00 1.310842e+00 1.715132e+00 1.589029e+00 1.820491e+00 1.861788e+00 2.655232e+00 2.189241e+00 1.756253e+00 1.155782e+00 3.791058e-01 2.083044e-02 2.053255e-01 2.534137e-01 1.830386e-01 3.003523e-01 2.392650e-01 5.141523e-01 5.626999e-01 3.567894e-01 3.414689e-01 4.928072e-01 2.148997e-01 2.521976e-02
<GCONST> 1.007270e+02
<STATE> 10
<MEAN> 39
 2.608824e+00 -9.891294e+00 -9.457685e+00 -5.639007e+00 -7.622640e-01 -4.298530e+00 -5.593459e+00 -1.034427e+01 4.137734e+00 -1.050050e+01 -2.851967e+00 -5.750882e+00 7.325262e+01 3.055805e-02 7.918312e-01 2.873539e-01 -1.625011e-01 -6.740247e-02 2.271351e-01 6.404950e-03 -1.001630e+00 -5.580071e-01 6.464048e-02 6.038972e-01 2.091920e-01 -3.467564e-01 -1.318353e-02 1.352792e-01 1.581534e-01 5.756928e-02 7.811490e-02 -1.865032e-02 1.121986e-02 -5.574263e-02 -7.938853e-02 -2.944887e-02 -5.960273e-02 2.751683e-02 -3.773373e-02
<VARIANCE> 39
 1.324250e+00 2.798107e+01 2.676714e+01 3.252036e+01 2.362454e+01 5.271722e+01 2.932392e+01 8.931863e+01 5.940003e+01 4.190166e+01 5.483852e+01 3.132375e+01 9.543936e+00 1.117075e-01 8.184183e-01 1.123321e+00 8.556175e-01 1.057869e+00 7.083415e-01 1.404480e+00 2.195101e+00 2.462510e+00 1.094152e+00 1.172666e+00 1.645581e+00 2.192408e-01 2.288320e-02 7.005978e-02 1.355612e-01 1.725278e-01 7.358506e-02 1.432249e-01 1.542329e-01 2.825718e-01 2.558099e-01 2.326204e-01 3.176489e-01 1.979661e-01 1.685780e-02
<GCONST> 8.556902e+01
<STATE> 11
<MEAN> 39
 9.974961e-01 8.195050e-01 -6.300152e+00 -9.697785e+00 1.983467e+00 -6.824677e+00 -1.063848e+01 -1.723388e+01 -1.112223e+01 -1.854292e+01 -1.031916e+01 -1.439143e+01 6.752164e+01 -4.060876e-01 7.172238e-01 9.677656e-01 3.295099e-01 -4.669448e-01 1.845608e-01 9.954069e-02 -4.712229e-01 -6.885068e-01 -4.746884e-02 1.200160e-01 1.860944e-01 -5.223004e-01 -2.787168e-02 -1.830547e-01 -5.862756e-02 9.059042e-02 1.764810e-01 7.277534e-02 3.678927e-02 5.687298e-02 1.944478e-01 2.707518e-02 -6.877025e-02 -8.548622e-04 5.333771e-02
<VARIANCE> 39
 4.908749e+00 4.738065e+00 1.288714e+01 1.047966e+01 1.159139e+01 1.961776e+01 2.948077e+01 2.787389e+01 3.322477e+01 4.371630e+01 7.346103e+01 5.229417e+01 4.368523e+00 1.360471e-01 6.481789e-01 8.496871e-01 1.237355e+00 1.619306e+00 1.508844e+00 1.850251e+00 2.365121e+00 1.390532e+00 1.750041e+00 1.408108e+00 1.303220e+00 5.019501e-02 1.084595e-02 7.780369e-02 1.746229e-01 1.345436e-01 2.307449e-01 2.332056e-01 4.399266e-01 4.742868e-01 2.447477e-01 3.366736e-01 1.993233e-01 2.337950e-01 7.824184e-03
<GCONST> 8.164182e+01
<STATE> 12
<MEAN> 39
 1.325833e+00 2.369162e+00 8.190668e-01 -3.593177e+00 2.967320e+00 -2.364995e+00 -6.078421e+00 -1.692031e+01 -6.866305e+00 -1.022381e+01 5.331690e-01 -3.656356e+00 6.757943e+01 -6.108229e-01 6.674367e-01 6.799834e-01 6.778917e-01 3.355177e-01 1.078250e-01 5.426961e-01 7.410710e-02 -2.403455e-01 -1.750199e-01 -3.316776e-01 -1.620430e-01 -6.872644e-01 -1.496700e-01 -1.425325e-01 -9.333099e-02 -3.696812e-02 1.045565e-02 1.983728e-02 4.493491e-02 2.084875e-01 2.117362e-01 1.217344e-01 5.005958e-02 -8.855832e-02 -4.420751e-02
<VARIANCE> 39
 3.792297e+00 1.334199e+01 1.419697e+01 9.911124e+00 1.063910e+01 2.705383e+01 5.136659e+01 3.018779e+01 4.680160e+01 2.003435e+01 4.677183e+01 1.748830e+01 4.091107e+00 2.038199e-01 3.746511e-01 4.287681e-01 5.911568e-01 6.159890e-01 5.672312e-01 1.691440e+00 1.881129e+00 1.888704e+00 1.280663e+00 1.340470e+00 1.391097e+00 7.836766e-02 1.161177e-02 6.961111e-02 7.696125e-02 1.004354e-01 8.419061e-02 1.507815e-01 3.185079e-01 1.856826e-01 3.276637e-01 2.381442e-01 2.141343e-01 2.328971e-01 8.917831e-03
<GCONST> 7.419043e+01
<STATE> 13
<MEAN> 39
 -4.192902e+00 5.694000e+00 4.678147e+00 1.013417e+00 5.173857e+00 -1.055300e+00 -2.009727e+00 -1.527921e+01 -6.438869e+00 -1.054909e+01 -1.413471e+00 -4.827360e+00 6.266192e+01 -7.945745e-01 8.297097e-02 5.175397e-01 6.215554e-01 4.685923e-01 4.964093e-01 3.910319e-01 6.738152e-02 2.642202e-01 -2.041229e-01 -4.276142e-01 -2.244521e-01 -5.428426e-01 4.867678e-03 -1.127138e-01 -9.945600e-02 -1.922975e-01 -4.524616e-02 -1.376806e-01 -1.397113e-01 1.564024e-02 -5.937855e-02 3.159695e-02 4.394034e-02 -1.103790e-01 3.374309e-02
<VARIANCE> 39
 2.413336e+00 8.360468e+00 1.161480e+01 2.643349e+01 1.848101e+01 2.612653e+01 3.750089e+01 2.440214e+01 3.136234e+01 2.980970e+01 4.992460e+01 4.318228e+01 1.485763e+00 1.988826e-01 4.591107e-01 8.418633e-01 9.760529e-01 8.829712e-01 9.832125e-01 1.921366e+00 1.215529e+00 2.081667e+00 1.096980e+00 1.221557e+00 2.268336e+00 6.026420e-02 2.374477e-02 9.857397e-02 1.775387e-01 2.133496e-01 1.381339e-01 1.121025e-01 2.685814e-01 2.690010e-01 3.867230e-01 2.641246e-01 3.056005e-01 3.905090e-01 6.559358e-03
<GCONST> 7.991224e+01
<STATE> 14
<MEAN> 39
 -7.728395e+00 3.038750e+00 2.772951e+00 -2.733960e+00 1.890452e+00 -4.717444e+00 -5.379372e+00 -1.642804e+01 -9.245646e+00 -1.304678e+01 -5.747145e+00 -1.197887e+01 6.094233e+01 -9.874529e-01 -4.723827e-01 -1.064030e-01 -1.134669e-01 -3.718633e-01 -7.966237e-02 8.134580e-01 1.049574e+00 5.839108e-01 7.994788e-01 4.274707e-01 -2.091791e-02 -5.496179e-01 6.289230e-02 -3.577281e-02 -7.643335e-02 3.657516e-02 -1.178844e-02 8.485603e-02 1.436313e-02 1.978939e-02 3.912855e-02 -4.632678e-02 -7.268076e-02 1.234456e-01 4.831779e-02
<VARIANCE> 39
 3.615755e+00 9.172480e+00 1.225110e+01 1.488999e+01 1.750653e+01 2.673475e+01 2.726129e+01 3.574689e+01 6.014287e+01 3.721428e+01 3.893616e+01 3.103264e+01 1.458385e+00 1.340731e-01 4.342427e-01 5.922201e-01 7.981966e-01 8.137406e-01 1.202775e+00 1.499495e+00 1.619950e+00 1.256935e+00 1.011544e+00 1.571056e+00 9.405712e-01 8.183093e-02 2.291716e-02 7.405201e-02 1.177943e-01 1.001697e-01 1.602544e-01 2.176203e-01 2.818921e-01 3.679994e-01 1.989759e-01 2.212591e-01 2.375846e-01 1.818285e-01 5.883979e-03
<GCONST> 7.616308e+01
<STATE> 15
<MEAN> 39
 -1.100120e+01 1.727651e+00 5.341181e+00 2.958204e+00 7.499158e+00 1.390633e+00 2.384232e+00 -8.817650e+00 -3.847758e+00 -9.552745e+00 -1.331448e+00 -6.765211e+00 5.919446e+01 -5.307188e-01 -4.648092e-01 -1.523435e-01 6.481315e-02 -6.687407e-02 -1.588899e-01 2.733229e-01 7.207334e-01 3.540577e-01 1.314259e-02 -3.146722e-01 -2.633387e-01 -2.490390e-01 8.060374e-02 3.930293e-02 -1.589181e-02 -6.325150e-02 -1.086259e-01 -6.485476e-02 -2.583340e-02 -3.915925e-02 -3.100635e-02 1.114911e-02 3.005752e-02 1.160325e-03 3.814225e-02
<VARIANCE> 39
 3.101766e+00 7.021296e+00 1.124334e+01 1.839911e+01 3.006159e+01 2.741779e+01 1.607110e+01 3.194166e+01 3.757527e+01 2.625081e+01 2.070822e+01 1.260443e+01 8.341811e-01 1.896992e-01 3.902398e-01 6.222426e-01 6.931282e-01 1.034134e+00 9.458380e-01 6.751816e-01 1.506659e+00 1.361080e+00 1.313892e+00 1.544481e+00 9.777787e-01 6.907554e-02 2.455769e-02 7.222378e-02 1.263744e-01 1.744837e-01 2.146852e-01 1.990727e-01 1.589421e-01 2.428369e-01 2.340908e-01 2.496029e-01 2.586362e-01 1.303122e-01 8.978182e-03
<GCONST> 7.269512e+01
<STATE> 16
<MEAN> 39
 -1.297531e+01 -6.402736e-01 2.265014e+00 -5.942748e-01 3.296598e+00 -2.255023e+00 1.887073e+00 -9.498288e+00 -5.182297e+00 -1.146065e+01 -3.940181e+00 -8.251962e+00 5.874079e+01 -3.177591e-01 -2.244000e-01 -5.582448e-01 -9.060762e-01 -7.298274e-01 1.301878e-01 2.492533e-01 -1.205721e-01 -2.995368e-01 -3.594398e-01 4.922059e-01 8.760397e-01 -1.326909e-01 2.482618e-02 2.770808e-02 -4.890050e-02 -2.007628e-01 -1.421636e-01 6.917220e-02 1.078041e-01 -6.778101e-03 -6.921348e-03 4.938855e-02 1.924598e-01 2.589719e-02 2.261395e-03
<VARIANCE> 39
 3.784650e+00 5.469073e+00 1.365120e+01 1.615675e+01 1.911614e+01 3.056403e+01 3.036323e+01 6.346248e+01 5.538603e+01 4.018643e+01 3.148834e+01 3.400960e+01 1.529907e+00 1.986946e-01 2.722096e-01 3.490811e-01 6.341753e-01 1.600446e+00 1.915922e+00 1.709642e+00 3.966264e+00 2.234590e+00 1.818828e+00 1.069714e+00 2.255485e+00 2.113675e-01 3.738507e-02 8.580036e-02 6.135701e-02 9.114274e-02 1.634567e-01 3.507550e-01 1.812175e-01 7.747636e-01 4.354347e-01 3.814167e-01 3.254196e-01 7.739241e-01 3.981210e-02
<GCONST> 8.633669e+01
<STATE> 17
<MEAN> 39
 -1.368167e+01 -1.375708e+00 7.057456e-01 -4.933558e+00 -9.079093e-01 -3.183029e+00 1.382661e+00 -9.394979e+00 -4.779001e+00 -1.076057e+01 -1.209873e+00 -7.412456e+00 5.795136e+01 -2.288323e-01 -3.858153e-01 -1.754172e-01 -2.183634e-01 -5.997483e-03 2.920658e-02 4.367662e-01 4.285156e-01 4.539790e-01 9.040876e-01 7.425062e-01 1.313373e-02 -1.057011e-01 -2.963687e-02 -9.049619e-02 5.711029e-02 3.157793e-01 3.703656e-01 8.900023e-02 -8.251938e-02 -6.687196e-02 -3.032531e-02 6.861788e-02 -4.537806e-02 -4.010813e-02 1.108034e-02
<VARIANCE> 39
 1.420983e+00 6.374078e+00 1.049036e+01 1.143258e+01 1.721569e+01 2.980681e+01 4.248195e+01 4.087242e+01 4.150333e+01 3.667547e+01 3.358819e+01 2.851826e+01 5.722513e-01 1.200864e-01 6.327715e-01 7.564995e-01 1.566246e+00 1.590475e+00 2.136459e+00 1.832341e+00 1.933037e+00 2.150142e+00 2.542968e+00 1.826317e+00 2.085803e+00 4.700882e-02 2.765021e-02 1.583913e-01 1.592862e-01 2.135341e-01 2.491694e-01 3.526059e-01 3.886719e-01 3.629665e-01 6.093072e-01 6.701588e-01 4.071262e-01 4.219247e-01 1.022287e-02
<GCONST> 8.561878e+01
<STATE> 18
<MEAN> 39
 -1.513963e+01 -3.098548e+00 1.128475e+00 -1.551496e+00 4.447194e+00 1.439049e+00 4.867675e+00 -5.938922e+00 -1.413505e+00 -6.190898e+00 2.221759e-01 -7.340557e+00 5.746033e+01 -3.761558e-01 -4.617184e-01 -3.585005e-01 4.563355e-02 1.385231e-01 1.008316e-01 -4.014218e-01 -7.814395e-02 -1.102199e-01 -3.807897e-01 -4.960433e-01 -2.622597e-01 -1.622554e-01 2.536695e-02 -2.876001e-02 -1.205164e-01 -9.674097e-02 -1.065788e-01 -1.144583e-01 -9.328096e-02 1.280572e-01 1.066333e-01 -2.119385e-01 -6.177603e-02 8.111478e-02 1.464618e-02
<VARIANCE> 39
 1.388247e+00 3.007209e+00 1.306535e+01 2.152012e+01 1.631817e+01 2.448895e+01 2.349815e+01 2.721867e+01 1.727887e+01 2.538940e+01 1.296656e+01 1.366566e+01 4.453363e-01 1.319278e-01 3.578812e-01 6.600652e-01 9.948195e-01 8.138993e-01 1.023191e+00 1.365213e+00 2.482491e+00 9.976749e-01 1.769101e+00 1.735558e+00 9.903116e-01 4.207196e-02 1.931482e-02 6.688792e-02 1.320444e-01 1.884453e-01 9.572332e-02 2.765331e-01 4.074301e-01 6.461945e-01 1.395471e-01 2.673517e-01 2.235484e-01 1.783816e-01 5.510950e-03
<GCONST> 7.013100e+01
<STATE> 19
<MEAN> 39
 -1.701142e+01 -6.315187e+00 -2.528978e+00 -4.465487e+00 1.081003e+00 -2.746048e+00 1.058811e+00 -6.025639e+00 -1.438539e+00 -8.086088e+00 -3.032896e-01 -7.303601e+00 5.667921e+01 -1.599990e-01 -3.295150e-01 -2.365931e-01 -3.347173e-02 -5.790889e-02 -2.888180e-01 -2.613251e-01 1.939707e-01 3.543642e-01 2.663384e-01 3.066376e-01 3.468724e-01 -6.743503e-02 2.536003e-02 8.159097e-02 8.065779e-02 -9.523600e-03 -3.179228e-03 8.727764e-02 6.232204e-02 -1.718063e-01 -5.994353e-02 1.770639e-01 5.464757e-02 -2.499422e-02 1.099939e-02
<VARIANCE> 39
 2.094923e+00 4.693648e+00 8.931521e+00 1.018941e+01 7.887366e+00 1.642792e+01 2.041089e+01 2.014279e+01 3.788515e+01 2.885059e+01 2.024333e+01 1.292877e+01 6.643947e-01 9.245156e-02 3.431143e-01 7.740856e-01 1.023377e+00 1.075337e+00 1.412431e+00 1.845601e+00 2.609978e+00 1.585993e+00 2.112468e+00 2.204884e+00 1.708795e+00 3.025447e-02 2.572719e-02 8.861157e-02 1.647974e-01 1.652873e-01 1.481125e-01 1.491788e-01 3.799767e-01 5.589777e-01 3.132020e-01 4.368512e-01 5.049658e-01 2.815040e-01 8.183637e-03
<GCONST> 7.506186e+01
<TRANSP> 20
 0.000000e+00 1.000000e+00 0.000000e+00 0.000000e+00 0.000000e+00 0.000000e+00 0.000000e+00 0.000000e+00 0.000000e+00 0.000000e+00 0.000000e+00 0.000000e+00 0.000000e+00 0.000000e+00 0.000000e+00 0.000000e+00 0.000000e+00 0.000000e+00 0.000000e+00 0.000000e+00
 0.000000e+00 8.281572e-01 1.718427e-01 0.000000e+00 0.000000e+00 0.000000e+00 0.000000e+00 0.000000e+00 0.000000e+00 0.000000e+00 0.000000e+00 0.000000e+00 0.000000e+00 0.000000e+00 0.000000e+00 0.000000e+00 0.000000e+00 0.000000e+00 0.000000e+00 0.000000e+00
 0.000000e+00 0.000000e+00 7.213048e-01 2.786952e-01 0.000000e+00 0.000000e+00 0.000000e+00 0.000000e+00 0.000000e+00 0.000000e+00 0.000000e+00 0.000000e+00 0.000000e+00 0.000000e+00 0.000000e+00 0.000000e+00 0.000000e+00 0.000000e+00 0.000000e+00 0.000000e+00
 0.000000e+00 0.000000e+00 0.000000e+00 7.192155e-01 2.807845e-01 0.000000e+00 0.000000e+00 0.000000e+00 0.000000e+00 0.000000e+00 0.000000e+00 0.000000e+00 0.000000e+00 0.000000e+00 0.000000e+00 0.000000e+00 0.000000e+00 0.000000e+00 0.000000e+00 0.000000e+00
 0.000000e+00 0.000000e+00 0.000000e+00 0.000000e+00 7.866685e-01 2.133314e-01 0.000000e+00 0.000000e+00 0.000000e+00 0.000000e+00 0.000000e+00 0.000000e+00 0.000000e+00 0.000000e+00 0.000000e+00 0.000000e+00 0.000000e+00 0.000000e+00 0.000000e+00 0.000000e+00
 0.000000e+00 0.000000e+00 0.000000e+00 0.000000e+00 0.000000e+00 8.003050e-01 1.996950e-01 0.000000e+00 0.000000e+00 0.000000e+00 0.000000e+00 0.000000e+00 0.000000e+00 0.000000e+00 0.000000e+00 0.000000e+00 0.000000e+00 0.000000e+00 0.000000e+00 0.000000e+00
 0.000000e+00 0.000000e+00 0.000000e+00 0.000000e+00 0.000000e+00 0.000000e+00 6.814024e-01 3.185976e-01 0.000000e+00 0.000000e+00 0.000000e+00 0.000000e+00 0.000000e+00 0.000000e+00 0.000000e+00 0.000000e+00 0.000000e+00 0.000000e+00 0.000000e+00 0.000000e+00
 0.000000e+00 0.000000e+00 0.000000e+00 0.000000e+00 0.000000e+00 0.000000e+00 0.000000e+00 6.860130e-01 3.139870e-01 0.000000e+00 0.000000e+00 0.000000e+00 0.000000e+00 0.000000e+00 0.000000e+00 0.000000e+00 0.000000e+00 0.000000e+00 0.000000e+00 0.000000e+00
 0.000000e+00 0.000000e+00 0.000000e+00 0.000000e+00 0.000000e+00 0.000000e+00 0.000000e+00 0.000000e+00 7.756630e-01 2.243370e-01 0.000000e+00 0.000000e+00 0.000000e+00 0.000000e+00 0.000000e+00 0.000000e+00 0.000000e+00 0.000000e+00 0.000000e+00 0.000000e+00
 0.000000e+00 0.000000e+00 0.000000e+00 0.000000e+00 0.000000e+00 0.000000e+00 0.000000e+00 0.000000e+00 0.000000e+00 8.613855e-01 1.386145e-01 0.000000e+00 0.000000e+00 0.000000e+00 0.000000e+00 0.000000e+00 0.000000e+00 0.000000e+00 0.000000e+00 0.000000e+00
 0.000000e+00 0.000000e+00 0.000000e+00 0.000000e+00 0.000000e+00 0.000000e+00 0.000000e+00 0.000000e+00 0.000000e+00 0.000000e+00 7.445719e-01 2.554282e-01 0.000000e+00 0.000000e+00 0.000000e+00 0.000000e+00 0.000000e+00 0.000000e+00 0.000000e+00 0.000000e+00
 0.000000e+00 0.000000e+00 0.000000e+00 0.000000e+00 0.000000e+00 0.000000e+00 0.000000e+00 0.000000e+00 0.000000e+00 0.000000e+00 0.000000e+00 8.252535e-01 1.747466e-01 0.000000e+00 0.000000e+00 0.000000e+00 0.000000e+00 0.000000e+00 0.000000e+00 0.000000e+00
 0.000000e+00 0.000000e+00 0.000000e+00 0.000000e+00 0.000000e+00 0.000000e+00 0.000000e+00 0.000000e+00 0.000000e+00 0.000000e+00 0.000000e+00 0.000000e+00 7.651917e-01 2.348084e-01 0.000000e+00 0.000000e+00 0.000000e+00 0.000000e+00 0.000000e+00 0.000000e+00
 0.000000e+00 0.000000e+00 0.000000e+00 0.000000e+00 0.000000e+00 0.000000e+00 0.000000e+00 0.000000e+00 0.000000e+00 0.000000e+00 0.000000e+00 0.000000e+00 0.000000e+00 7.206508e-01 2.793492e-01 0.000000e+00 0.000000e+00 0.000000e+00 0.000000e+00 0.000000e+00
 0.000000e+00 0.000000e+00 0.000000e+00 0.000000e+00 0.000000e+00 0.000000e+00 0.000000e+00 0.000000e+00 0.000000e+00 0.000000e+00 0.000000e+00 0.000000e+00 0.000000e+00 0.000000e+00 8.272548e-01 1.727452e-01 0.000000e+00 0.000000e+00 0.000000e+00 0.000000e+00
 0.000000e+00 0.000000e+00 0.000000e+00 0.000000e+00 0.000000e+00 0.000000e+00 0.000000e+00 0.000000e+00 0.000000e+00 0.000000e+00 0.000000e+00 0.000000e+00 0.000000e+00 0.000000e+00 0.000000e+00 7.237644e-01 2.762356e-01 0.000000e+00 0.000000e+00 0.000000e+00
 0.000000e+00 0.000000e+00 0.000000e+00 0.000000e+00 0.000000e+00 0.000000e+00 0.000000e+00 0.000000e+00 0.000000e+00 0.000000e+00 0.000000e+00 0.000000e+00 0.000000e+00 0.000000e+00 0.000000e+00 0.000000e+00 7.871388e-01 2.128613e-01 0.000000e+00 0.000000e+00
 0.000000e+00 0.000000e+00 0.000000e+00 0.000000e+00 0.000000e+00 0.000000e+00 0.000000e+00 0.000000e+00 0.000000e+00 0.000000e+00 0.000000e+00 0.000000e+00 0.000000e+00 0.000000e+00 0.000000e+00 0.000000e+00 0.000000e+00 7.549842e-01 2.450158e-01 0.000000e+00
 0.000000e+00 0.000000e+00 0.000000e+00 0.000000e+00 0.000000e+00 0.000000e+00 0.000000e+00 0.000000e+00 0.000000e+00 0.000000e+00 0.000000e+00 0.000000e+00 0.000000e+00 0.000000e+00 0.000000e+00 0.000000e+00 0.000000e+00 0.000000e+00 8.003574e-01 1.996426e-01
 0.000000e+00 0.000000e+00 0.000000e+00 0.000000e+00 0.000000e+00 0.000000e+00 0.000000e+00 0.000000e+00 0.000000e+00 0.000000e+00 0.000000e+00 0.000000e+00 0.000000e+00 0.000000e+00 0.000000e+00 0.000000e+00 0.000000e+00 0.000000e+00 0.000000e+00 0.000000e+00
<ENDHMM>
