~o
<STREAMINFO> 1 39
<VECSIZE> 39<NULLD><MFCC_D_A_0><DIAGC>
~h "satu"
<BEGINHMM>
<NUMSTATES> 20
<STATE> 2
<MEAN> 39
 -1.876049e+01 -5.103765e+00 -3.402864e+00 -3.913694e+00 1.427168e-01 -7.325887e+00 2.634809e+00 -7.122651e+00 1.999785e+00 -6.791008e+00 2.416945e+00 -3.615669e+00 5.729388e+01 -1.058336e+00 1.481152e+00 -9.811322e-01 6.906803e-01 6.417502e-01 -7.991279e-01 1.230817e+00 -7.359154e-01 1.224080e+00 -1.590496e-01 7.757307e-01 -3.583772e-02 5.886689e-01 -3.149412e-01 5.207118e-01 -3.693616e-01 2.617220e-01 4.552901e-02 -1.105320e-01 2.904238e-01 -2.198786e-01 2.670324e-01 7.326109e-02 -2.880207e-02 -2.207035e-01 1.745431e-01
<VARIANCE> 39
 3.490207e+00 1.365751e+01 1.473038e+01 1.193213e+01 1.459249e+01 1.797486e+01 1.983271e+01 2.189951e+01 1.876401e+01 1.292068e+01 2.448781e+01 1.704280e+01 1.380176e+00 1.001773e+00 2.226916e+00 1.677541e+00 1.315676e+00 1.547235e+00 1.562634e+00 1.849626e+00 3.218208e+00 2.199629e+00 2.453517e+00 2.256588e+00 2.179397e+00 2.807500e-01 1.187744e-01 1.953272e-01 2.172191e-01 1.604153e-01 2.428790e-01 2.339582e-01 3.631404e-01 4.733208e-01 3.280566e-01 4.108522e-01 2.821656e-01 3.333945e-01 1.845188e-02
<GCONST> 9.036034e+01
<STATE> 3
<MEAN> 39
 -2.711763e+01 7.129435e+00 -1.134876e+01 1.820768e+00 1.817436e+00 -1.139157e+01 1.019299e+01 -1.221153e+01 9.185811e+00 -5.881703e+00 4.946474e+00 -3.355199e+00 6.146537e+01 -1.259287e+00 1.622729e+00 -1.263176e+00 7.588416e-01 4.635302e-01 -3.666606e-01 9.872318e-01 -3.472290e-01 4.360311e-01 5.516050e-01 -7.447384e-03 -2.038127e-02 7.078866e-01 5.708811e-01 -6.290389e-01 4.248359e-01 -4.673042e-01 -3.715488e-02 1.753827e-01 -4.578489e-01 3.915968e-01 -5.571504e-01 -9.706890e-02 -2.961090e-01 -4.811648e-02 -1.359884e-01
<VARIANCE> 39
 1.069411e+01 2.600327e+01 2.890796e+01 2.064114e+01 1.891517e+01 3.099006e+01 3.071729e+01 2.515881e+01 2.177739e+01 2.376962e+01 3.923145e+01 2.834490e+01 3.600261e+00 1.166070e+00 1.874891e+00 1.661693e+00 1.771300e+00 1.090234e+00 1.539742e+00 2.769062e+00 1.904283e+00 2.209249e+00 2.401816e+00 1.812484e+00 1.285220e+00 1.752069e-01 1.389738e-01 1.758662e-01 1.690245e-01 2.696027e-01 3.104737e-01 2.193204e-01 4.924717e-01 2.914465e-01 2.787678e-01 4.700347e-01 4.724600e-01 2.295457e-01 2.674729e-02
<GCONST> 9.677628e+01
<STATE> 4
<MEAN> 39
 -2.471877e+01 6.018371e+00 -1.168654e+01 -1.317490e+00 3.484153e+00 -1.264620e+01 8.839977e+00 -1.164808e+01 6.301352e+00 -5.691954e+00 1.739194e+00 -4.469518e+00 6.291697e+01 3.527242e+00 -7.705773e-01 -2.234927e-01 -1.955522e+00 -7.101073e-01 -1.129090e-01 -2.478212e+00 1.143774e-01 -8.868537e-01 -2.946939e-01 -1.744698e+00 -1.050336e+00 1.177660e+00 1.211078e+00 -3.228327e-01 -2.663523e-01 -3.741722e-01 -2.658460e-01 1.243027e-01 -6.346171e-01 -2.325851e-02 1.187925e-01 1.965481e-02 -4.382601e-01 -2.686682e-01 5.684058e-01
<VARIANCE> 39
 3.375781e+01 2.550613e+01 3.131846e+01 2.691305e+01 2.078971e+01 3.526242e+01 3.522218e+01 2.377337e+01 2.421215e+01 3.694353e+01 3.548771e+01 2.867453e+01 6.660915e+00 4.780290e+00 1.461045e+00 2.277292e+00 1.616326e+00 2.981842e+00 2.981710e+00 5.409869e+00 1.628688e+00 1.717497e+00 2.808143e+00 7.095071e+00 2.218092e+00 1.427654e+00 3.933650e-01 2.687866e-01 4.352733e-01 3.471079e-01 5.568757e-01 7.518535e-01 9.195471e-01 5.142975e-01 4.884367e-01 4.882169e-01 5.937926e-01 4.138964e-01 1.357851e-01
<GCONST> 1.158209e+02
<STATE> 5
<MEAN> 39
 -5.470849e+00 1.149078e+00 -1.584078e+01 -9.139248e+00 1.417514e+00 -1.082533e+01 -1.881724e+00 -9.849042e+00 4.758188e+00 -5.312758e+00 -6.188328e+00 -9.969251e+00 7.296968e+01 3.389378e+00 -2.575876e+00 -6.268198e-01 -9.139382e-01 4.746469e-01 1.129724e+00 -1.256899e+00 4.299058e-01 -1.223542e-01 2.063572e-02 -1.246905e+00 -5.296788e-01 2.074221e+00 -1.104869e+00 -1.202203e-01 3.834670e-01 7.003679e-01 2.974580e-01 1.975495e-01 6.630318e-01 -1.795807e-02 -2.055766e-02 -6.542752e-02 5.675506e-01 3.570477e-01 -5.616184e-01
<VARIANCE> 39
 1.157709e+01 2.752467e+01 3.520567e+01 2.441360e+01 4.247852e+01 6.698709e+01 7.853532e+01 8.446041e+01 4.043532e+01 1.151070e+02 1.456101e+02 3.031175e+01 2.161782e+01 3.539829e+00 2.091889e+00 4.449720e+00 2.497093e+00 3.140980e+00 4.267427e+00 5.115496e+00 7.614564e+00 3.721082e+00 3.720074e+00 4.553848e+00 3.312874e+00 1.765101e+00 1.330135e-01 4.034403e-01 3.681283e-01 2.206794e-01 4.002152e-01 7.776558e-01 7.816774e-01 6.372322e-01 4.362119e-01 6.491075e-01 6.499030e-01 3.925992e-01 1.647652e-01
<GCONST> 1.257098e+02
<STATE> 6
<MEAN> 39
 -3.190504e-01 -8.188233e+00 -1.092341e+01 -7.921991e+00 4.874369e+00 -8.964849e+00 -3.227984e+00 -5.371399e+00 1.839723e+00 -5.458822e+00 -5.382899e+00 -1.075711e+01 7.569701e+01 3.918630e-01 -2.921230e-01 8.186754e-01 1.248460e-01 -2.231686e-01 -6.986864e-02 -6.635019e-01 7.540374e-02 -1.987864e-01 1.919827e-01 -1.220932e-01 -4.057055e-03 -4.511280e-01 -3.124388e-01 4.719659e-01 2.206768e-01 2.911496e-02 -1.145844e-01 -1.726386e-01 -5.715948e-02 -5.240547e-02 -4.464012e-02 6.444500e-02 1.797444e-01 1.424071e-02 -3.703720e-01
<VARIANCE> 39
 3.927117e+00 2.871098e+01 9.002913e+01 2.173878e+01 5.904534e+01 3.647871e+01 8.545454e+01 1.572777e+02 6.935756e+01 7.005257e+01 1.356578e+02 2.934753e+01 2.135443e+01 1.962262e-01 1.055213e+00 1.079670e+00 7.326492e-01 8.501856e-01 8.894734e-01 1.708478e+00 1.062255e+00 1.231771e+00 1.708686e+00 1.590296e+00 7.750654e-01 4.408897e-01 5.324216e-02 1.004694e-01 2.360014e-01 1.734564e-01 1.991454e-01 2.319957e-01 2.942747e-01 3.607710e-01 2.993529e-01 2.197695e-01 3.839317e-01 1.993152e-01 2.172053e-02
<GCONST> 9.677846e+01
<STATE> 7
<MEAN> 39
 -2.010157e+00 -4.971597e+00 -4.945461e+00 -6.584163e+00 2.883159e+00 -6.865003e+00 -6.158468e+00 -5.546102e+00 3.287418e-01 -4.618028e+00 -4.774238e+00 -1.052819e+01 6.836975e+01 -7.745884e-01 4.765164e-01 8.867986e-01 4.625378e-01 -1.082629e-01 5.141974e-01 2.121584e-01 1.396510e-01 -7.357658e-01 -5.650194e-01 3.372717e-01 -2.733343e-02 -1.488735e+00 -1.479586e-01 -1.726098e-01 -1.392750e-01 -8.842482e-02 -5.446955e-03 5.437526e-02 2.170766e-01 1.319555e-01 -1.083190e-02 -2.585307e-02 1.582481e-02 -3.956097e-02 2.966623e-02
<VARIANCE> 39
 4.577404e+00 1.726249e+01 6.715465e+01 1.687309e+01 2.878553e+01 3.230111e+01 5.393632e+01 9.304076e+01 4.020414e+01 6.221035e+01 7.396274e+01 3.890290e+01 9.472297e+00 3.746225e-01 4.737276e-01 1.335179e+00 8.050126e-01 7.739413e-01 1.472460e+00 1.533551e+00 1.788418e+00 2.130153e+00 1.098878e+00 2.710530e+00 1.114516e+00 2.215331e-01 8.084641e-02 4.633686e-02 7.203145e-02 1.510672e-01 7.369329e-02 1.873818e-01 2.040335e-01 2.216950e-01 3.132460e-01 2.921420e-01 2.348428e-01 1.548800e-01 3.718545e-02
<GCONST> 8.992144e+01
<STATE> 8
<MEAN> 39
 -7.372830e+00 -4.386625e+00 -5.245676e+00 -7.359597e+00 6.542742e-01 -6.285617e+00 -3.895125e+00 -9.454924e+00 -1.757866e+00 -8.878235e+00 -5.047731e+00 -9.895906e+00 6.185484e+01 -7.475701e-01 -1.571942e-01 1.056712e+00 -1.911562e-01 1.196915e-01 1.317922e-01 4.325708e-01 4.435417e-01 -3.767042e-01 -2.517165e-01 1.901541e-01 -1.482011e-01 -7.977871e-01 6.220879e-02 5.158669e-02 -3.369599e-02 -2.282452e-03 2.966572e-02 -1.341651e-01 7.030419e-02 -7.435777e-02 2.056583e-01 6.143603e-02 -5.865705e-02 8.273577e-02 1.481508e-01
<VARIANCE> 39
 5.064461e+00 4.975594e+00 1.353713e+01 1.116403e+01 1.284653e+01 1.057470e+01 2.468206e+01 1.770830e+01 2.311920e+01 2.340326e+01 3.672672e+01 2.197438e+01 4.334169e+00 2.328537e-01 3.476666e-01 4.890330e-01 6.040681e-01 9.575570e-01 7.421540e-01 1.525066e+00 9.793205e-01 1.335747e+00 1.701422e+00 2.038003e+00 1.566520e+00 1.001089e-01 2.971291e-02 3.468697e-02 6.685165e-02 1.545384e-01 1.654325e-01 2.170860e-01 3.015881e-01 1.914061e-01 2.009849e-01 2.468430e-01 3.759179e-01 3.018507e-01 1.621870e-02
<GCONST> 7.444366e+01
<STATE> 9
<MEAN> 39
 -9.735997e+00 -4.244668e+00 9.245128e-02 -7.089414e+00 1.773058e+00 -5.935140e+00 -9.267979e-01 -5.075721e+00 -1.219392e+00 -8.183189e+00 -3.984010e+00 -1.077147e+01 5.948682e+01 -7.412008e-01 1.091826e-01 -2.137707e-01 -1.508163e-01 1.933486e-01 -2.040862e+00 2.607751e-01 -5.765111e-01 9.432034e-01 1.081520e+00 9.434037e-01 1.200621e+00 4.970311e-01 4.544883e-01 1.672191e-01 -3.770893e-01 -3.218068e-01 4.533497e-02 -1.082878e+00 -8.735908e-01 -7.702863e-01 -1.101522e-01 5.842384e-01 2.564391e-01 4.994689e-01 7.510073e-01
<VARIANCE> 39
 7.443646e+00 8.409051e+00 1.131296e+01 1.567370e+01 2.479644e+01 1.036955e+01 3.072312e+01 3.128437e+01 2.571776e+01 2.265354e+01 1.688940e+01 4.268140e+01 2.352480e+00 4.234031e-01 6.968989e-01 2.074284e+00 2.249426e+00 6.707916e+00 5.542301e+00 3.498580e+00 5.471745e+00 2.452602e+00 4.360205e+00 2.774052e+00 4.043311e+00 9.875104e-01 2.635961e-01 2.458590e-01 6.865736e-01 3.039335e-01 1.040550e+00 5.039774e-01 8.573422e-01 8.392237e-01 6.466092e-01 7.159862e-01 7.472762e-01 1.202724e+00 7.210067e-02
<GCONST> 1.100903e+02
<STATE> 10
<MEAN> 39
 -8.535007e+00 -2.763341e+00 -1.910413e+00 -1.024165e+01 3.362876e+00 -1.958508e+01 -6.920343e+00 -1.154005e+01 2.893236e-01 -1.472956e+00 -3.479271e-01 -3.884068e+00 6.604024e+01 2.427821e+00 1.105047e+00 -4.204599e-01 -1.773692e+00 1.551589e-01 -2.790492e+00 -3.706660e+00 -2.921473e+00 -1.331574e+00 2.867878e+00 1.323162e+00 1.248593e+00 2.678582e+00 6.624617e-01 1.713552e-01 5.154438e-02 -1.866554e-01 -1.262990e-01 1.455863e+00 -1.884853e-01 -3.544854e-02 -9.615241e-01 -2.034238e-01 3.055425e-02 -2.604780e-01 -7.198981e-02
<VARIANCE> 39
 2.696277e+01 1.822587e+01 3.704105e+01 2.610929e+01 5.726883e+01 6.905893e+01 1.041148e+02 1.132131e+02 6.616521e+01 5.824450e+01 7.124624e+01 3.593794e+01 2.215830e+01 1.937245e+00 3.405691e+00 7.133651e+00 2.307758e+00 6.131275e+00 8.384379e+00 6.467033e+00 9.569508e+00 6.395933e+00 6.112694e+00 5.712464e+00 7.425406e+00 6.128010e-01 5.217562e-01 3.647082e-01 8.146719e-01 6.200008e-01 1.030052e+00 1.141009e+00 1.328413e+00 1.393537e+00 6.662396e-01 1.335655e+00 6.058750e-01 5.971028e-01 3.671763e-01
<GCONST> 1.375858e+02
<STATE> 11
<MEAN> 39
 -8.811732e-02 7.311878e-01 -1.772725e+00 -1.519518e+01 2.422716e+00 -1.621968e+01 -1.648365e+01 -1.938996e+01 -7.632082e+00 4.631006e+00 2.785081e+00 -3.165084e+00 7.150082e+01 1.551047e+00 8.010748e-01 -6.510816e-01 -9.580085e-01 -2.398864e-01 2.575026e+00 -6.841941e-01 -1.024794e+00 -2.620116e+00 2.481588e-01 1.166838e+00 9.807426e-01 4.830994e-01 -5.615067e-01 -1.396850e-01 -1.613810e-01 1.625276e-01 -7.276083e-02 4.958848e-01 9.454288e-01 8.342171e-01 2.763934e-01 -8.447815e-01 -3.138214e-01 -6.973528e-02 -5.755559e-01
<VARIANCE> 39
 4.938358e+00 3.239172e+01 8.741865e+01 1.673713e+01 7.900587e+01 6.326346e+01 1.444197e+02 2.470335e+02 7.312389e+01 4.647343e+01 1.098198e+02 4.824171e+01 1.095825e+01 2.184443e+00 1.507296e+00 1.557876e+00 1.504510e+00 1.397726e+00 1.608590e+00 2.694893e+00 4.356721e+00 1.641837e+00 4.693389e+00 1.721322e+00 1.673721e+00 4.470094e-01 2.174224e-01 2.582250e-01 5.378028e-01 3.020073e-01 4.560361e-01 9.356018e-01 5.259518e-01 1.356960e+00 4.732296e-01 6.785461e-01 8.132843e-01 3.789109e-01 1.046124e-01
<GCONST> 1.192944e+02
<STATE> 12
<MEAN> 39
 1.523465e+00 2.238799e+00 -4.388193e+00 -1.922436e+01 3.945210e+00 -9.364356e+00 -1.789268e+01 -1.710518e+01 -1.485597e+01 3.441365e+00 6.444185e+00 -3.627870e+00 7.112327e+01 9.510680e-02 5.149285e-01 -3.701969e-01 -2.333104e-01 -8.919473e-01 5.315385e-01 9.932863e-01 9.425087e-02 -1.619119e-01 -1.017099e+00 5.015723e-01 4.057161e-01 -6.113053e-01 -1.818540e-01 -2.561633e-02 2.011906e-01 1.923515e-01 -8.984058e-02 -2.620042e-01 8.666713e-02 8.591349e-02 2.470071e-01 -6.796576e-02 -1.836701e-01 -1.308633e-01 -8.223008e-02
<VARIANCE> 39
 3.090511e+00 2.795662e+01 6.181807e+01 1.348726e+01 4.650161e+01 4.254609e+01 9.057308e+01 1.022613e+02 3.763014e+01 3.658926e+01 5.696496e+01 5.500071e+01 8.558471e+00 3.381930e-01 4.025254e-01 7.022029e-01 9.695036e-01 8.985065e-01 1.670312e+00 1.280552e+00 2.802750e+00 1.610856e+00 2.207781e+00 2.133531e+00 2.311560e+00 1.436825e-01 7.217345e-02 8.298507e-02 9.296887e-02 1.100174e-01 8.174651e-02 1.947820e-01 2.211901e-01 3.045385e-01 1.782732e-01 4.634779e-01 2.889344e-01 4.937875e-01 2.211364e-02
<GCONST> 9.244942e+01
<STATE> 13
<MEAN> 39
 2.234034e+00 6.492994e+00 -6.190186e+00 -1.787431e+01 -8.396310e+00 -9.138284e+00 -4.458077e+00 -1.612628e+01 -1.304117e+01 -8.909026e+00 4.486331e+00 1.661155e+00 6.680843e+01 -3.481343e-01 9.478346e-02 2.581914e-01 1.300197e-01 -7.028189e-01 4.074997e-01 4.801763e-01 6.504770e-01 -6.192110e-02 -8.069683e-01 -7.158710e-01 -1.551022e-01 -3.641251e-01 -1.835041e-01 -1.472023e-01 9.066928e-02 2.228533e-01 1.705032e-01 -1.254450e-01 -8.484633e-02 -3.917485e-02 1.710495e-01 1.691886e-01 8.664966e-02 1.052559e-02 -5.626855e-02
<VARIANCE> 39
 2.011945e+00 5.108839e+00 1.286533e+01 1.105284e+01 2.372696e+01 2.516001e+01 2.225515e+01 3.976363e+01 1.783410e+01 4.037967e+01 2.115059e+01 3.128889e+01 7.849522e-01 2.571732e-01 3.808886e-01 6.171600e-01 9.063425e-01 1.009101e+00 1.057351e+00 9.364522e-01 1.621441e+00 1.804891e+00 1.458465e+00 1.612135e+00 1.729760e+00 9.369797e-02 4.144573e-02 3.670454e-02 1.090837e-01 1.715964e-01 1.667204e-01 2.170137e-01 1.853764e-01 2.555488e-01 3.363353e-01 3.566426e-01 2.383848e-01 3.902195e-01 1.084234e-02
<GCONST> 7.632286e+01
<STATE> 14
<MEAN> 39
 -2.251870e+00 5.109191e+00 -2.304919e+00 -1.326719e+01 -6.687818e+00 -7.840019e+00 -6.131490e+00 -1.425960e+01 -1.131094e+01 -7.559656e+00 4.679869e+00 2.229146e+00 6.414625e+01 -8.265230e-01 -1.085023e-01 1.247017e+00 1.583562e+00 4.909726e-01 -2.463167e-01 1.579146e-01 7.579440e-04 3.309639e-01 -6.192195e-01 -1.237447e-01 -3.376208e-01 -6.373166e-01 3.421139e-02 2.000911e-02 1.268119e-01 6.198984e-02 1.300018e-01 1.752926e-02 -3.199565e-02 -8.614998e-02 -5.367756e-02 4.739730e-02 2.884250e-02 -2.185441e-01 4.266407e-02
<VARIANCE> 39
 5.214768e+00 9.004061e+00 2.359402e+01 2.478826e+01 2.897285e+01 1.839569e+01 3.255463e+01 3.184957e+01 1.633358e+01 2.738292e+01 1.604782e+01 4.351213e+01 1.798292e+00 3.363099e-01 4.382017e-01 3.417718e-01 5.740941e-01 1.702552e+00 1.686490e+00 2.150515e+00 2.273746e+00 9.863036e-01 1.644141e+00 1.315071e+00 9.862756e-01 1.042216e-01 3.175245e-02 4.283288e-02 6.198895e-02 1.384876e-01 2.057074e-01 3.291271e-01 2.880584e-01 3.550602e-01 2.070693e-01 1.965212e-01 2.288235e-01 2.094845e-01 1.269368e-02
<GCONST> 7.900263e+01
<STATE> 15
<MEAN> 39
 -4.603417e+00 5.901277e+00 4.766423e+00 -4.791654e+00 -2.044877e+00 -8.153726e+00 -4.936977e+00 -1.503595e+01 -9.047101e+00 -8.431778e+00 3.031586e+00 -8.642534e-01 6.216156e+01 -8.867660e-01 -4.366906e-01 3.553784e-01 8.298767e-01 -1.334562e-01 -3.133765e-01 2.529656e-01 4.040070e-02 6.073779e-01 -7.239062e-02 -2.294751e-02 -3.493892e-01 -4.830479e-01 -5.748471e-02 -1.788885e-01 -3.183042e-01 -2.678283e-01 -1.993067e-01 -6.317375e-02 -4.358868e-02 2.585121e-03 -6.037133e-02 -5.048737e-02 -2.912583e-02 1.407907e-01 1.365158e-02
<VARIANCE> 39
 3.607469e+00 7.339455e+00 1.785480e+01 2.605104e+01 2.124270e+01 8.514028e+00 3.176310e+01 2.739821e+01 2.473002e+01 1.441939e+01 2.619339e+01 5.470259e+01 8.730057e-01 2.393069e-01 4.383737e-01 8.574008e-01 8.791739e-01 9.786798e-01 7.484203e-01 1.351247e+00 1.322504e+00 1.964657e+00 1.508536e+00 1.246004e+00 2.294250e+00 4.608877e-02 2.605732e-02 5.847441e-02 7.333164e-02 8.115013e-02 1.296542e-01 2.052822e-01 2.341114e-01 2.988513e-01 3.696400e-01 2.353738e-01 3.187507e-01 2.375536e-01 7.048176e-03
<GCONST> 7.498769e+01
<STATE> 16
<MEAN> 39
 -8.810201e+00 9.959615e-01 -3.672540e-01 -8.365747e+00 -6.194304e+00 -9.623577e+00 -5.211236e+00 -1.493286e+01 -8.171801e+00 -1.062538e+01 3.196530e+00 -2.447227e+00 6.041064e+01 -8.149453e-01 -4.806089e-01 2.482587e-01 6.776145e-01 3.892208e-01 3.148391e-01 1.232857e-01 6.157432e-03 3.513677e-01 -1.490795e-01 -2.674962e-01 -1.689843e-02 -4.746469e-01 1.055516e-01 1.337861e-01 7.367031e-02 6.020952e-02 1.141002e-01 1.252466e-01 3.663402e-02 4.742791e-02 1.747614e-02 7.395460e-02 -1.007019e-01 4.266499e-02 4.862187e-02
<VARIANCE> 39
 2.320102e+00 5.384533e+00 1.379800e+01 2.132443e+01 1.324796e+01 1.391139e+01 1.537062e+01 1.640144e+01 1.481000e+01 1.200335e+01 1.217879e+01 2.747526e+01 9.786707e-01 6.117303e-02 2.761490e-01 6.313515e-01 7.571008e-01 7.460194e-01 8.264928e-01 7.904356e-01 7.565270e-01 1.887948e+00 1.532956e+00 9.203989e-01 1.365531e+00 2.263533e-02 1.869693e-02 1.966124e-02 8.985866e-02 1.300031e-01 1.526133e-01 1.603893e-01 1.598324e-01 1.710352e-01 2.634483e-01 2.827702e-01 1.548634e-01 3.291495e-01 5.628938e-03
<GCONST> 6.287026e+01
<STATE> 17
<MEAN> 39
 -1.143999e+01 1.766833e+00 4.737216e+00 -2.629260e+00 -3.791463e+00 -9.137409e+00 -4.566370e+00 -1.686359e+01 -1.028450e+01 -1.261877e+01 1.353573e+00 -3.309598e-01 5.845924e+01 -6.486818e-01 -3.798362e-01 -1.107759e-02 1.913457e-01 2.914732e-02 3.751641e-03 1.602079e-01 7.191338e-01 1.811227e-01 -4.119172e-01 -5.581672e-01 -4.790791e-01 -2.756657e-01 1.360767e-02 -5.972044e-02 -1.014657e-01 -1.396199e-01 2.117976e-02 5.888212e-02 1.177305e-01 1.862784e-01 1.710838e-01 9.573821e-02 2.325024e-02 -8.378729e-02 3.150332e-02
<VARIANCE> 39
 3.650909e+00 6.471216e+00 9.086717e+00 1.179648e+01 4.124266e+01 1.307545e+01 2.363143e+01 2.893604e+01 3.272155e+01 2.069860e+01 1.748934e+01 4.261712e+01 1.213603e+00 9.977055e-02 2.935350e-01 5.506471e-01 1.096681e+00 9.493760e-01 8.722775e-01 1.507350e+00 2.209061e+00 6.231967e-01 1.631548e+00 2.025182e+00 2.036441e+00 3.804629e-02 1.597935e-02 5.193799e-02 7.614930e-02 1.552228e-01 1.449826e-01 1.598067e-01 3.041019e-01 2.119394e-01 1.725512e-01 3.192014e-01 2.671314e-01 3.132385e-01 6.382581e-03
<GCONST> 7.232855e+01
<STATE> 18
<MEAN> 39
 -1.410908e+01 -1.710867e+00 2.031885e+00 -2.746994e+00 -1.026998e+00 -7.503641e+00 -2.299469e+00 -8.269686e+00 -9.740719e-01 -8.557692e+00 -2.466858e-02 -5.186288e+00 5.783488e+01 -3.927520e-01 -3.663480e-01 -6.598753e-02 5.450068e-02 3.916684e-01 3.621468e-01 5.549931e-01 5.289311e-01 5.452146e-01 2.611946e-01 -8.580299e-03 4.548130e-02 -1.529408e-01 4.300516e-03 -1.794889e-02 -3.511269e-02 6.746039e-03 -1.188427e-02 5.040380e-02 2.144955e-02 -8.604100e-02 -1.845710e-01 -9.748423e-02 3.073953e-02 5.323020e-02 -3.789156e-03
<VARIANCE> 39
 2.348154e+00 5.511669e+00 7.435981e+00 9.693288e+00 1.363349e+01 1.477072e+01 2.442847e+01 2.685396e+01 3.457933e+01 2.012966e+01 1.572096e+01 1.612985e+01 4.419724e-01 1.902966e-01 3.507132e-01 5.450442e-01 6.485718e-01 8.743493e-01 1.354029e+00 1.840185e+00 9.799828e-01 1.993982e+00 1.157972e+00 1.572052e+00 1.342519e+00 3.072886e-02 3.049346e-02 4.947342e-02 9.330460e-02 1.246104e-01 1.403497e-01 2.564460e-01 3.376445e-01 2.055947e-01 3.817312e-01 2.337466e-01 3.431191e-01 2.728353e-01 4.591041e-03
<GCONST> 6.957239e+01
<STATE> 19
<MEAN> 39
 -1.671669e+01 -3.890310e+00 1.665401e+00 -2.704669e+00 -6.212593e-01 -4.990269e+00 1.032749e+00 -7.843379e+00 -4.819970e+00 -1.235962e+01 -1.369135e+00 -3.055454e+00 5.658041e+01 -4.129280e-01 -4.228241e-01 -2.811332e-01 1.751861e-01 4.198499e-01 5.509480e-01 5.706429e-01 5.108190e-01 -1.385776e-01 -8.537138e-02 -1.360910e-01 8.800329e-02 -1.619210e-01 7.461271e-02 6.395803e-02 -1.849414e-02 5.439626e-02 -1.375259e-02 -1.901070e-01 -3.555523e-01 -1.465641e-01 1.667417e-01 1.849175e-01 7.302798e-02 -5.919902e-02 3.554549e-02
<VARIANCE> 39
 3.356421e+00 5.184774e+00 8.737740e+00 1.882316e+01 2.230340e+01 1.415478e+01 3.193257e+01 2.827534e+01 2.968699e+01 4.053899e+01 2.962894e+01 3.874590e+01 1.102777e+00 1.064771e-01 2.257852e-01 5.033574e-01 7.546751e-01 1.167459e+00 7.811091e-01 1.676794e+00 1.362778e+00 2.098026e+00 2.304175e+00 1.524407e+00 2.083786e+00 4.993905e-02 1.545432e-02 3.762203e-02 1.043885e-01 1.766514e-01 2.135989e-01 1.440108e-01 2.904139e-01 2.415822e-01 4.458911e-01 5.031906e-01 5.631722e-01 6.220223e-01 8.550498e-03
<GCONST> 7.731944e+01
<TRANSP> 20
 0.000000e+00 1.000000e+00 0.000000e+00 0.000000e+00 0.000000e+00 0.000000e+00 0.000000e+00 0.000000e+00 0.000000e+00 0.000000e+00 0.000000e+00 0.000000e+00 0.000000e+00 0.000000e+00 0.000000e+00 0.000000e+00 0.000000e+00 0.000000e+00 0.000000e+00 0.000000e+00
 0.000000e+00 7.640190e-01 2.359810e-01 0.000000e+00 0.000000e+00 0.000000e+00 0.000000e+00 0.000000e+00 0.000000e+00 0.000000e+00 0.000000e+00 0.000000e+00 0.000000e+00 0.000000e+00 0.000000e+00 0.000000e+00 0.000000e+00 0.000000e+00 0.000000e+00 0.000000e+00
 0.000000e+00 0.000000e+00 7.793732e-01 2.206268e-01 0.000000e+00 0.000000e+00 0.000000e+00 0.000000e+00 0.000000e+00 0.000000e+00 0.000000e+00 0.000000e+00 0.000000e+00 0.000000e+00 0.000000e+00 0.000000e+00 0.000000e+00 0.000000e+00 0.000000e+00 0.000000e+00
 0.000000e+00 0.000000e+00 0.000000e+00 7.433498e-01 2.566502e-01 0.000000e+00 0.000000e+00 0.000000e+00 0.000000e+00 0.000000e+00 0.000000e+00 0.000000e+00 0.000000e+00 0.000000e+00 0.000000e+00 0.000000e+00 0.000000e+00 0.000000e+00 0.000000e+00 0.000000e+00
 0.000000e+00 0.000000e+00 0.000000e+00 0.000000e+00 7.205293e-01 2.794707e-01 0.000000e+00 0.000000e+00 0.000000e+00 0.000000e+00 0.000000e+00 0.000000e+00 0.000000e+00 0.000000e+00 0.000000e+00 0.000000e+00 0.000000e+00 0.000000e+00 0.000000e+00 0.000000e+00
 0.000000e+00 0.000000e+00 0.000000e+00 0.000000e+00 0.000000e+00 8.141815e-01 1.858185e-01 0.000000e+00 0.000000e+00 0.000000e+00 0.000000e+00 0.000000e+00 0.000000e+00 0.000000e+00 0.000000e+00 0.000000e+00 0.000000e+00 0.000000e+00 0.000000e+00 0.000000e+00
 0.000000e+00 0.000000e+00 0.000000e+00 0.000000e+00 0.000000e+00 0.000000e+00 7.930740e-01 2.069261e-01 0.000000e+00 0.000000e+00 0.000000e+00 0.000000e+00 0.000000e+00 0.000000e+00 0.000000e+00 0.000000e+00 0.000000e+00 0.000000e+00 0.000000e+00 0.000000e+00
 0.000000e+00 0.000000e+00 0.000000e+00 0.000000e+00 0.000000e+00 0.000000e+00 0.000000e+00 8.393695e-01 1.606305e-01 0.000000e+00 0.000000e+00 0.000000e+00 0.000000e+00 0.000000e+00 0.000000e+00 0.000000e+00 0.000000e+00 0.000000e+00 0.000000e+00 0.000000e+00
 0.000000e+00 0.000000e+00 0.000000e+00 0.000000e+00 0.000000e+00 0.000000e+00 0.000000e+00 0.000000e+00 6.649120e-01 3.350880e-01 0.000000e+00 0.000000e+00 0.000000e+00 0.000000e+00 0.000000e+00 0.000000e+00 0.000000e+00 0.000000e+00 0.000000e+00 0.000000e+00
 0.000000e+00 0.000000e+00 0.000000e+00 0.000000e+00 0.000000e+00 0.000000e+00 0.000000e+00 0.000000e+00 0.000000e+00 6.664000e-01 3.336001e-01 0.000000e+00 0.000000e+00 0.000000e+00 0.000000e+00 0.000000e+00 0.000000e+00 0.000000e+00 0.000000e+00 0.000000e+00
 0.000000e+00 0.000000e+00 0.000000e+00 0.000000e+00 0.000000e+00 0.000000e+00 0.000000e+00 0.000000e+00 0.000000e+00 0.000000e+00 6.623842e-01 3.376158e-01 0.000000e+00 0.000000e+00 0.000000e+00 0.000000e+00 0.000000e+00 0.000000e+00 0.000000e+00 0.000000e+00
 0.000000e+00 0.000000e+00 0.000000e+00 0.000000e+00 0.000000e+00 0.000000e+00 0.000000e+00 0.000000e+00 0.000000e+00 0.000000e+00 0.000000e+00 8.228340e-01 1.771661e-01 0.000000e+00 0.000000e+00 0.000000e+00 0.000000e+00 0.000000e+00 0.000000e+00 0.000000e+00
 0.000000e+00 0.000000e+00 0.000000e+00 0.000000e+00 0.000000e+00 0.000000e+00 0.000000e+00 0.000000e+00 0.000000e+00 0.000000e+00 0.000000e+00 0.000000e+00 8.058062e-01 1.941939e-01 0.000000e+00 0.000000e+00 0.000000e+00 0.000000e+00 0.000000e+00 0.000000e+00
 0.000000e+00 0.000000e+00 0.000000e+00 0.000000e+00 0.000000e+00 0.000000e+00 0.000000e+00 0.000000e+00 0.000000e+00 0.000000e+00 0.000000e+00 0.000000e+00 0.000000e+00 7.538681e-01 2.461319e-01 0.000000e+00 0.000000e+00 0.000000e+00 0.000000e+00 0.000000e+00
 0.000000e+00 0.000000e+00 0.000000e+00 0.000000e+00 0.000000e+00 0.000000e+00 0.000000e+00 0.000000e+00 0.000000e+00 0.000000e+00 0.000000e+00 0.000000e+00 0.000000e+00 0.000000e+00 7.283249e-01 2.716751e-01 0.000000e+00 0.000000e+00 0.000000e+00 0.000000e+00
 0.000000e+00 0.000000e+00 0.000000e+00 0.000000e+00 0.000000e+00 0.000000e+00 0.000000e+00 0.000000e+00 0.000000e+00 0.000000e+00 0.000000e+00 0.000000e+00 0.000000e+00 0.000000e+00 0.000000e+00 7.452167e-01 2.547833e-01 0.000000e+00 0.000000e+00 0.000000e+00
 0.000000e+00 0.000000e+00 0.000000e+00 0.000000e+00 0.000000e+00 0.000000e+00 0.000000e+00 0.000000e+00 0.000000e+00 0.000000e+00 0.000000e+00 0.000000e+00 0.000000e+00 0.000000e+00 0.000000e+00 0.000000e+00 7.919263e-01 2.080738e-01 0.000000e+00 0.000000e+00
 0.000000e+00 0.000000e+00 0.000000e+00 0.000000e+00 0.000000e+00 0.000000e+00 0.000000e+00 0.000000e+00 0.000000e+00 0.000000e+00 0.000000e+00 0.000000e+00 0.000000e+00 0.000000e+00 0.000000e+00 0.000000e+00 0.000000e+00 8.196349e-01 1.803651e-01 0.000000e+00
 0.000000e+00 0.000000e+00 0.000000e+00 0.000000e+00 0.000000e+00 0.000000e+00 0.000000e+00 0.000000e+00 0.000000e+00 0.000000e+00 0.000000e+00 0.000000e+00 0.000000e+00 0.000000e+00 0.000000e+00 0.000000e+00 0.000000e+00 0.000000e+00 6.900214e-01 3.099786e-01
 0.000000e+00 0.000000e+00 0.000000e+00 0.000000e+00 0.000000e+00 0.000000e+00 0.000000e+00 0.000000e+00 0.000000e+00 0.000000e+00 0.000000e+00 0.000000e+00 0.000000e+00 0.000000e+00 0.000000e+00 0.000000e+00 0.000000e+00 0.000000e+00 0.000000e+00 0.000000e+00
<ENDHMM>
