~o
<STREAMINFO> 1 39
<VECSIZE> 39<NULLD><MFCC_D_A_0><DIAGC>
~h "matikan"
<BEGINHMM>
<NUMSTATES> 5
<STATE> 2
<MEAN> 39
 -4.425998e+00 -5.332462e+00 -6.332316e+00 -6.794503e+00 1.358796e+00 -7.559681e+00 -5.888603e+00 -5.604130e+00 -5.861848e-01 -1.059046e+01 -3.701052e+00 -1.025084e+01 6.576626e+01 4.519678e-01 2.471873e-01 1.904216e-01 8.520936e-02 -2.892074e-01 -4.826049e-01 -3.162082e-01 -1.142714e-01 -2.037155e-01 -2.943355e-01 4.068521e-02 -7.770094e-02 3.851035e-01 -5.339204e-02 -1.136818e-03 1.812486e-01 -1.082076e-03 -1.794632e-01 -1.216538e-01 -4.339659e-02 -3.030849e-02 -4.068006e-02 4.219607e-02 1.645140e-01 6.361303e-02 1.818969e-02
<VARIANCE> 39
 4.273135e+01 2.330191e+01 2.795244e+01 2.417137e+01 3.329665e+01 4.666419e+01 3.795258e+01 9.058795e+01 3.315182e+01 5.718053e+01 6.116928e+01 3.318919e+01 3.142350e+01 4.323574e+00 2.690507e+00 3.933775e+00 2.407733e+00 3.165047e+00 3.454889e+00 3.719620e+00 6.287626e+00 3.978807e+00 3.125638e+00 4.670356e+00 3.057927e+00 2.564565e+00 4.707399e-01 5.154801e-01 7.814025e-01 4.446993e-01 6.157851e-01 5.996811e-01 5.667550e-01 1.080585e+00 7.169127e-01 5.051867e-01 5.808812e-01 5.585318e-01 3.001295e-01
<GCONST> 1.282613e+02
<STATE> 3
<MEAN> 39
 -7.326262e+00 -5.182414e+00 7.489964e+00 -4.579251e+00 -1.069389e+01 -1.702894e+01 -4.781523e+00 -7.415604e+00 -6.564846e+00 -1.058371e+01 1.470662e+00 -6.405757e+00 6.754224e+01 2.848754e-01 -3.818213e-01 -5.441670e-02 7.707565e-02 -1.030262e-02 -2.360875e-02 2.582112e-01 4.167470e-01 1.952302e-02 -4.257055e-02 -3.216676e-01 -1.340621e-01 2.941995e-01 -2.217725e-02 3.920761e-02 -1.244953e-01 3.557876e-02 2.045188e-01 1.409215e-01 4.163460e-02 3.785622e-02 5.949930e-02 -9.995115e-03 -1.108873e-01 -3.915397e-02 -8.591004e-02
<VARIANCE> 39
 2.136697e+01 7.289806e+01 1.245133e+02 5.493481e+01 9.077856e+01 8.999886e+01 7.056821e+01 1.634391e+02 6.826175e+01 6.097430e+01 8.616702e+01 3.778739e+01 3.106468e+01 1.680272e+00 3.076675e+00 6.639106e+00 4.722493e+00 6.253485e+00 8.032889e+00 4.312298e+00 6.554877e+00 4.595926e+00 4.795173e+00 4.047843e+00 3.741033e+00 2.039136e+00 2.688321e-01 4.579828e-01 6.835343e-01 8.387540e-01 8.775771e-01 1.266339e+00 6.915154e-01 8.946301e-01 8.059304e-01 9.157789e-01 7.483473e-01 6.813467e-01 2.673986e-01
<GCONST> 1.396255e+02
<STATE> 4
<MEAN> 39
 -9.110268e+00 -6.600901e-01 3.344324e+00 -4.955686e-01 2.943611e+00 -3.598689e+00 8.366007e-01 -4.266926e+00 -1.725656e+00 -9.925661e+00 -3.603557e+00 -8.876965e+00 6.147609e+01 -5.555912e-01 2.818139e-01 9.426335e-02 2.348247e-02 3.647158e-01 4.816647e-01 4.168130e-02 -3.388050e-01 5.108040e-02 2.360853e-01 1.408228e-01 2.649493e-02 -5.274199e-01 -3.578749e-03 -7.821582e-02 -3.256053e-02 -2.181940e-02 -5.785115e-02 -4.107478e-02 2.879242e-02 2.497199e-02 -3.309933e-03 -1.087918e-02 6.014679e-03 1.080655e-03 2.962836e-02
<VARIANCE> 39
 3.245271e+01 2.643483e+01 1.497488e+01 1.311773e+01 2.936870e+01 5.196995e+01 2.648548e+01 5.376111e+01 2.741288e+01 3.973582e+01 4.687867e+01 3.080343e+01 2.655146e+01 1.760043e-01 9.827902e-01 6.937969e-01 8.506705e-01 1.266188e+00 1.556451e+00 1.385525e+00 1.596302e+00 1.506162e+00 1.426285e+00 1.592324e+00 1.415310e+00 1.644207e-01 2.650675e-02 5.171478e-02 9.917050e-02 1.484939e-01 1.822555e-01 1.957721e-01 2.439227e-01 2.355395e-01 2.659062e-01 2.598068e-01 2.831550e-01 2.189046e-01 1.185907e-02
<GCONST> 8.792502e+01
<TRANSP> 5
 0.000000e+00 1.000000e+00 0.000000e+00 0.000000e+00 0.000000e+00
 0.000000e+00 9.492273e-01 5.077272e-02 0.000000e+00 0.000000e+00
 0.000000e+00 0.000000e+00 9.596279e-01 4.037216e-02 0.000000e+00
 0.000000e+00 0.000000e+00 0.000000e+00 9.665195e-01 3.348054e-02
 0.000000e+00 0.000000e+00 0.000000e+00 0.000000e+00 0.000000e+00
<ENDHMM>
