~o
<STREAMINFO> 1 39
<VECSIZE> 39<NULLD><MFCC_D_A_0><DIAGC>
~h "setengah"
<BEGINHMM>
<NUMSTATES> 5
<STATE> 2
<MEAN> 39
 -1.293452e+01 -3.062603e-01 -8.293702e+00 -4.238307e+00 7.555270e-01 -1.093498e+01 -2.494297e+00 -8.598127e+00 4.093112e+00 -5.600510e+00 -4.814479e-02 -9.289750e+00 6.520608e+01 6.667875e-01 -4.435524e-03 -1.611192e-01 -1.856888e-01 7.963134e-03 -2.376643e-01 -3.569806e-01 -1.546947e-01 3.447394e-02 1.561196e-01 -2.407725e-01 -3.148320e-01 5.606078e-01 3.621686e-02 2.454088e-02 4.933282e-02 -7.728822e-03 -4.966333e-03 1.459839e-02 -1.617505e-02 1.769357e-02 -5.806023e-02 -5.524364e-04 1.368117e-02 5.298951e-02 -1.651003e-02
<VARIANCE> 39
 9.925097e+01 4.728785e+01 2.826439e+01 3.705956e+01 5.216360e+01 8.455724e+01 1.000713e+02 6.483786e+01 4.486467e+01 5.754680e+01 6.067014e+01 3.647749e+01 3.656836e+01 5.578138e+00 2.972243e+00 2.172854e+00 2.710245e+00 2.896926e+00 4.192377e+00 5.749590e+00 3.422766e+00 2.664313e+00 3.937638e+00 3.316328e+00 3.107355e+00 2.214550e+00 8.685313e-01 3.564015e-01 3.885131e-01 4.561477e-01 5.592764e-01 6.461895e-01 9.163845e-01 5.062807e-01 4.584086e-01 6.917189e-01 5.947295e-01 6.355007e-01 4.060838e-01
<GCONST> 1.312368e+02
<STATE> 3
<MEAN> 39
 1.037654e+00 -7.011956e+00 -4.304827e+00 -7.865017e+00 1.229868e+00 -6.887281e+00 -6.365096e+00 -7.172542e+00 1.029874e+00 -9.042590e+00 -5.644102e+00 -6.919273e+00 7.082894e+01 -1.335773e-01 -7.885902e-02 1.800447e-01 4.333782e-01 1.979809e-01 3.273838e-02 4.746335e-02 9.390064e-02 2.551703e-03 -7.160815e-01 -2.117252e-01 3.635252e-01 -9.647027e-02 -7.048729e-02 -2.887757e-02 -3.215960e-02 3.564053e-02 2.959747e-02 -2.565579e-02 2.953983e-02 1.475640e-03 5.572020e-02 -1.425687e-02 1.275032e-02 -4.175297e-02 -2.051330e-02
<VARIANCE> 39
 6.231222e+00 5.762789e+01 5.309599e+01 4.082026e+01 6.414256e+01 6.020680e+01 6.206754e+01 1.073515e+02 6.723501e+01 8.745712e+01 7.702168e+01 5.536222e+01 1.254104e+01 2.495573e-01 2.250491e+00 1.500519e+00 1.716372e+00 2.154165e+00 2.149094e+00 1.751464e+00 2.642152e+00 2.913154e+00 1.474138e+00 2.104158e+00 2.258224e+00 6.035579e-01 3.949486e-02 2.198817e-01 1.928332e-01 2.037756e-01 3.120591e-01 2.568127e-01 2.588375e-01 3.961454e-01 3.954960e-01 2.262190e-01 3.127953e-01 3.414118e-01 5.941599e-02
<GCONST> 1.075578e+02
<STATE> 4
<MEAN> 39
 -1.257800e+01 -9.075749e+00 -1.324493e+00 3.276429e+00 9.201189e+00 -3.550436e+00 2.283432e+00 -2.888589e+00 1.177490e+00 -1.748535e+01 -6.913114e+00 -6.856697e+00 6.196416e+01 -6.539208e-01 1.257039e-01 7.311425e-02 -1.107778e-01 -4.001040e-02 5.189782e-01 5.482532e-01 5.235489e-02 -2.281636e-01 4.250316e-01 3.805975e-01 -1.474063e-01 -5.872198e-01 3.282721e-02 -1.404777e-02 -2.112193e-02 -6.740059e-02 -6.974157e-02 3.361040e-02 -3.554717e-02 -2.906250e-02 -2.302998e-02 6.803157e-02 -1.391607e-02 -4.323847e-03 2.548840e-02
<VARIANCE> 39
 2.302752e+01 1.951428e+01 1.579159e+01 2.419892e+01 3.458388e+01 5.827093e+01 6.104744e+01 4.511681e+01 8.114171e+01 8.123845e+01 4.254778e+01 3.915035e+01 2.692289e+01 2.415196e-01 5.326499e-01 6.371128e-01 1.080166e+00 1.054958e+00 1.460440e+00 1.867469e+00 1.733896e+00 1.491695e+00 1.887509e+00 2.269580e+00 2.205211e+00 1.467361e-01 2.599795e-02 6.461672e-02 1.059440e-01 1.413051e-01 1.829068e-01 2.041209e-01 3.258105e-01 2.948519e-01 2.581892e-01 2.732012e-01 3.869750e-01 3.709069e-01 1.033856e-02
<GCONST> 9.328818e+01
<TRANSP> 5
 0.000000e+00 1.000000e+00 0.000000e+00 0.000000e+00 0.000000e+00
 0.000000e+00 9.649166e-01 3.508341e-02 0.000000e+00 0.000000e+00
 0.000000e+00 0.000000e+00 9.607029e-01 3.929710e-02 0.000000e+00
 0.000000e+00 0.000000e+00 0.000000e+00 9.578329e-01 4.216713e-02
 0.000000e+00 0.000000e+00 0.000000e+00 0.000000e+00 0.000000e+00
<ENDHMM>
