~o
<STREAMINFO> 1 39
<VECSIZE> 39<NULLD><MFCC_D_A_0><DIAGC>
~h "enam"
<BEGINHMM>
<NUMSTATES> 5
<STATE> 2
<MEAN> 39
 -5.160330e+00 -2.965037e+00 4.833182e-01 -3.204760e+00 -9.510187e-01 -9.691907e+00 -5.697851e+00 -6.040400e+00 -4.076982e-01 -9.623409e+00 -3.468484e+00 -5.493487e+00 6.516718e+01 7.828158e-01 -2.075433e-01 -1.967964e-01 -8.207355e-02 1.755777e-01 -1.666518e-01 -4.356086e-01 1.356157e-01 6.591469e-02 -1.429887e-01 -2.422082e-01 -6.145241e-02 7.016128e-01 2.736317e-03 -8.550027e-03 -1.623004e-02 -6.956684e-03 2.889142e-02 6.529838e-03 1.034697e-02 -8.215545e-03 -2.195163e-02 -2.473164e-02 2.825991e-03 2.421194e-02 8.269214e-03
<VARIANCE> 39
 7.454447e+01 6.184285e+01 5.692427e+01 2.579810e+01 5.256090e+01 6.316473e+01 6.308913e+01 7.414435e+01 4.123449e+01 9.281573e+01 1.015671e+02 4.913179e+01 4.537672e+01 1.660834e+00 4.175027e+00 3.150705e+00 2.367892e+00 3.698435e+00 3.323735e+00 3.319952e+00 4.437875e+00 3.396866e+00 4.295509e+00 3.815195e+00 3.352199e+00 1.355471e+00 2.395377e-01 5.718114e-01 4.154997e-01 3.891532e-01 5.013513e-01 4.915029e-01 5.700731e-01 6.905254e-01 6.385918e-01 7.072551e-01 5.618635e-01 4.884245e-01 2.281419e-01
<GCONST> 1.295132e+02
<STATE> 3
<MEAN> 39
 1.547711e+00 -3.809998e+00 -3.997532e+00 -5.738303e+00 1.986724e+00 -5.633583e+00 -8.490417e+00 -1.180404e+01 -1.986255e+00 -1.203749e+01 -3.620789e+00 -7.155782e+00 7.033518e+01 -2.287930e-01 6.061516e-01 3.874428e-01 1.571919e-01 -5.093298e-02 2.170770e-01 2.163248e-01 -5.517559e-01 -4.087425e-01 -5.536449e-02 1.209862e-01 2.405995e-02 -4.104060e-01 -4.317374e-02 7.463096e-03 2.338975e-02 2.611196e-02 -1.746506e-02 -1.733435e-03 1.493449e-02 3.906913e-02 3.512532e-02 3.473131e-02 2.053502e-03 -1.435892e-02 -3.615674e-02
<VARIANCE> 39
 5.045336e+00 5.533684e+01 5.608217e+01 2.423650e+01 4.735575e+01 4.005255e+01 5.043702e+01 1.020101e+02 8.993362e+01 5.824583e+01 7.950595e+01 5.122453e+01 1.899170e+01 2.260696e-01 1.288496e+00 1.428084e+00 1.103617e+00 1.361989e+00 1.117684e+00 1.837295e+00 2.760277e+00 2.324946e+00 1.513889e+00 1.517991e+00 1.465488e+00 2.693965e-01 2.260367e-02 1.439283e-01 2.075985e-01 1.562460e-01 1.957490e-01 1.954898e-01 3.557411e-01 3.901141e-01 3.526525e-01 2.988302e-01 3.003037e-01 2.145663e-01 2.419554e-02
<GCONST> 9.934052e+01
<STATE> 4
<MEAN> 39
 -1.229173e+01 -5.802595e-01 2.024176e+00 -1.235086e+00 3.453710e+00 -1.136391e+00 1.308839e+00 -9.444566e+00 -4.189400e+00 -9.575503e+00 -1.491504e+00 -7.367683e+00 5.878277e+01 -4.501089e-01 -3.598439e-01 -1.905382e-01 -7.174342e-02 -5.898131e-02 6.138136e-03 1.872676e-01 3.555933e-01 2.653785e-01 1.600714e-01 1.210087e-01 5.859140e-02 -2.302460e-01 3.094505e-02 -1.002136e-02 -1.846090e-02 -2.152394e-02 -3.989959e-03 -3.165853e-03 -2.676671e-02 -3.413773e-02 -1.097397e-02 1.490254e-02 1.731163e-02 3.871299e-03 2.270649e-02
<VARIANCE> 39
 1.589637e+01 1.896708e+01 1.878285e+01 2.551686e+01 2.682475e+01 2.977608e+01 3.145887e+01 4.453111e+01 4.269300e+01 3.348135e+01 3.071305e+01 2.614576e+01 3.882889e+00 2.207861e-01 4.320390e-01 6.899182e-01 1.136594e+00 1.239094e+00 1.411954e+00 1.643450e+00 2.321980e+00 1.697894e+00 1.939764e+00 1.869082e+00 1.737797e+00 1.023747e-01 2.681564e-02 9.643860e-02 1.349755e-01 1.960491e-01 2.016115e-01 2.433519e-01 2.985321e-01 4.601343e-01 3.299804e-01 3.740410e-01 3.472631e-01 3.339222e-01 1.197862e-02
<GCONST> 8.893201e+01
<TRANSP> 5
 0.000000e+00 1.000000e+00 0.000000e+00 0.000000e+00 0.000000e+00
 0.000000e+00 9.604158e-01 3.958420e-02 0.000000e+00 0.000000e+00
 0.000000e+00 0.000000e+00 9.624370e-01 3.756302e-02 0.000000e+00
 0.000000e+00 0.000000e+00 0.000000e+00 9.660423e-01 3.395769e-02
 0.000000e+00 0.000000e+00 0.000000e+00 0.000000e+00 0.000000e+00
<ENDHMM>
