~o
<STREAMINFO> 1 39
<VECSIZE> 39<NULLD><MFCC_D_A_0><DIAGC>
~h "hapus"
<BEGINHMM>
<NUMSTATES> 20
<STATE> 2
<MEAN> 39
 -1.745739e+01 -1.119576e+01 -5.626354e+00 -1.285237e+00 5.696184e+00 -4.240300e+00 3.144960e-01 -3.890491e+00 1.687154e+00 -9.125053e+00 1.332981e-01 -2.171090e+00 5.820677e+01 6.329117e-01 -7.932634e-01 -1.068802e+00 3.352907e-01 1.405684e+00 -8.665795e-02 -7.557037e-01 -8.778956e-01 -2.073468e-01 -5.716124e-01 -4.931594e-01 7.360598e-02 7.629304e-01 5.162737e-01 1.489400e-01 -1.779971e-01 -1.492607e-01 1.199926e-01 2.224042e-01 -2.354624e-01 -4.622823e-01 -1.279940e-01 1.172329e-01 -1.452222e-01 -3.006510e-01 2.919644e-01
<VARIANCE> 39
 1.633526e+00 1.353702e+01 1.049650e+01 9.810695e+00 2.336472e+01 1.350260e+01 2.306532e+01 1.546568e+01 1.878009e+01 2.769675e+01 1.993286e+01 3.480348e+01 1.639647e+00 8.949378e-01 1.657013e+00 1.720552e+00 1.027770e+00 1.644841e+00 1.882143e+00 2.074974e+00 2.675295e+00 1.888248e+00 3.445234e+00 2.290638e+00 3.307630e+00 3.359614e-01 1.955042e-01 1.968035e-01 3.345094e-01 2.626956e-01 3.672329e-01 2.113822e-01 2.518053e-01 2.603859e-01 2.990419e-01 4.371758e-01 1.682590e-01 3.773171e-01 8.687571e-02
<GCONST> 9.273981e+01
<STATE> 3
<MEAN> 39
 -1.041641e+01 -1.246514e+01 -1.087037e+01 -1.849118e+00 1.280299e+01 -4.276011e+00 -1.565635e+00 -1.011714e+01 -6.816415e-01 -1.121907e+01 -3.079668e+00 -2.591216e+00 6.440378e+01 2.988607e+00 5.547886e-01 -1.063408e+00 -1.446569e+00 4.744543e-01 6.282800e-01 -6.689810e-01 -1.730992e+00 -8.915993e-01 9.335050e-02 -7.997013e-01 -1.282542e+00 2.160717e+00 1.931101e-01 1.406084e-02 9.815501e-02 -5.315683e-01 -5.284779e-01 1.103682e-01 3.776756e-02 9.854337e-02 3.818994e-02 2.704028e-01 -1.082536e-02 -2.442703e-01 1.852701e-01
<VARIANCE> 39
 2.616963e+01 4.312527e+01 2.651446e+01 2.338450e+01 4.142892e+01 5.685001e+01 6.621593e+01 4.706210e+01 3.565126e+01 7.184754e+01 3.486162e+01 9.275300e+01 1.735861e+01 1.946674e+00 2.456634e+00 5.052547e+00 2.230934e+00 2.227848e+00 3.191078e+00 2.805680e+00 4.637270e+00 3.915784e+00 3.635737e+00 2.082040e+00 3.792117e+00 9.693435e-01 4.041897e-01 6.479737e-01 6.632152e-01 3.111814e-01 3.072267e-01 2.886831e-01 3.775063e-01 8.022219e-01 5.739992e-01 6.123964e-01 4.378143e-01 5.871050e-01 1.625777e-01
<GCONST> 1.221780e+02
<STATE> 4
<MEAN> 39
 6.368315e-01 -9.521030e+00 -1.531278e+01 -1.140581e+01 5.606006e+00 1.646459e+00 -6.345434e+00 -1.859381e+01 -1.281562e+00 -6.252670e+00 -7.036819e+00 -1.115153e+01 7.054359e+01 1.232147e+00 2.746087e-01 -8.742598e-02 -1.587437e+00 -1.316333e+00 3.972552e-01 -1.040728e-01 -5.404732e-01 -1.059772e-01 7.859122e-01 -4.711584e-01 -9.702908e-01 7.929100e-01 -8.654905e-01 2.179152e-01 7.335067e-01 5.926470e-01 -3.026053e-02 -3.268226e-01 3.118376e-01 6.492841e-01 -4.549529e-02 -1.923846e-01 3.156987e-01 3.220602e-01 -6.833355e-01
<VARIANCE> 39
 3.724006e+00 1.544792e+01 2.993736e+01 2.210289e+01 7.328162e+01 9.958518e+01 7.339121e+01 7.374938e+01 5.682110e+01 7.465767e+01 4.253314e+01 1.442661e+01 8.885166e+00 1.369653e+00 1.332983e+00 3.230348e+00 1.971275e+00 1.814202e+00 2.126817e+00 2.074948e+00 5.516206e+00 2.474852e+00 2.696091e+00 2.187044e+00 2.563309e+00 1.281094e+00 8.271807e-02 1.509539e-01 3.103982e-01 3.719950e-01 4.262340e-01 5.027851e-01 3.702947e-01 6.831136e-01 7.063200e-01 4.863093e-01 1.957500e-01 1.874398e-01 3.670141e-02
<GCONST> 1.096478e+02
<STATE> 5
<MEAN> 39
 1.030910e+00 -1.191014e+01 -2.644600e+00 -1.131424e+01 8.148726e+00 -6.204867e-01 -4.618792e+00 -5.652607e+00 -1.209988e+00 -4.368922e+00 1.282386e-01 -1.353038e+01 7.573509e+01 -4.068703e-01 9.754834e-01 9.838918e-01 6.450470e-01 -4.744137e-01 3.909081e-01 -1.080876e-01 4.493149e-03 -9.648831e-02 1.690822e-01 7.057307e-01 1.192314e-02 -8.280441e-01 -3.035442e-01 6.340514e-02 -1.023946e-01 3.635486e-01 2.135893e-01 -5.767800e-02 8.238568e-02 -8.777216e-02 -2.690801e-02 -2.952347e-01 -8.973750e-02 1.671279e-01 -3.264890e-01
<VARIANCE> 39
 1.610263e+00 3.625487e+01 7.742493e+01 9.389453e+00 4.977247e+01 3.442001e+01 2.183737e+01 1.141033e+02 2.590088e+01 3.532219e+01 7.290004e+01 1.196539e+01 2.568633e+01 6.430920e-01 1.069386e+00 1.438585e+00 1.134318e+00 9.166426e-01 1.776661e+00 1.885307e+00 1.666382e+00 1.276667e+00 1.615040e+00 1.052614e+00 1.000949e+00 7.613750e-01 1.030598e-01 1.544215e-01 1.916447e-01 1.205766e-01 1.167419e-01 9.071147e-02 1.567760e-01 2.539670e-01 1.946147e-01 2.269738e-01 3.149511e-01 2.378756e-01 3.691636e-02
<GCONST> 9.199720e+01
<STATE> 6
<MEAN> 39
 -4.773841e+00 -3.552496e+00 -5.002522e+00 -6.802478e+00 4.145432e+00 1.273805e+00 -3.184960e+00 -1.183798e+01 -3.222678e+00 -8.334077e+00 -4.004446e+00 -1.215734e+01 6.466950e+01 -1.141086e+00 4.721691e-01 5.648037e-01 5.402675e-01 -1.070806e-01 -1.927409e-01 6.503681e-01 6.496863e-01 -6.961484e-02 -5.698676e-01 -4.615925e-02 1.740604e-01 -1.024583e+00 6.648863e-02 -1.148341e-01 -8.785579e-02 -7.302690e-02 1.953472e-03 4.610868e-03 8.436279e-03 -2.288165e-02 1.030415e-01 1.136728e-01 1.508260e-02 1.520198e-02 1.093355e-01
<VARIANCE> 39
 4.747808e+00 6.496647e+00 3.870399e+01 2.751353e+01 3.975297e+01 2.357370e+01 2.782608e+01 4.426342e+01 2.511635e+01 5.670950e+01 4.837286e+01 1.706542e+01 5.937372e+00 2.433312e-01 2.912022e-01 1.037816e+00 6.576840e-01 7.112184e-01 1.368501e+00 1.190024e+00 1.501980e+00 1.388637e+00 1.556397e+00 1.462715e+00 1.031040e+00 1.084634e-01 2.241340e-02 3.804535e-02 1.103602e-01 1.329474e-01 1.059962e-01 1.449933e-01 1.774563e-01 1.739731e-01 2.417330e-01 2.783516e-01 1.829695e-01 1.978556e-01 7.195171e-03
<GCONST> 7.838544e+01
<STATE> 7
<MEAN> 39
 -1.088370e+01 -2.738099e+00 -3.379926e+00 -6.176954e+00 7.124893e-01 -2.997383e+00 -9.645056e-01 -1.102311e+01 -4.205213e+00 -1.006339e+01 -2.938633e+00 -9.437092e+00 5.983102e+01 -6.623602e-01 -1.106580e-01 8.474983e-01 8.674691e-01 -1.566183e-01 -7.022973e-01 2.116143e-01 3.285671e-01 -1.015134e-01 -3.439539e-01 4.465726e-02 1.680969e-01 -2.792880e-01 2.369731e-01 2.943609e-02 -1.200942e-01 -9.402256e-02 -1.533145e-01 -1.949866e-01 -2.656578e-01 -6.797045e-02 -2.240409e-02 1.610575e-01 1.778119e-01 2.440499e-01 2.249740e-01
<VARIANCE> 39
 4.846753e+00 3.463269e+00 1.234857e+01 1.609250e+01 1.485507e+01 1.967018e+01 1.512753e+01 1.435684e+01 1.198454e+01 1.731296e+01 1.994562e+01 1.245744e+01 1.517406e+00 1.763806e-01 3.840529e-01 5.678864e-01 6.050889e-01 1.032805e+00 1.202947e+00 1.342631e+00 1.158305e+00 1.263047e+00 1.161980e+00 1.434190e+00 8.101562e-01 1.606518e-01 6.652784e-02 1.210942e-01 1.361214e-01 1.797817e-01 2.212057e-01 2.524443e-01 2.971627e-01 2.134446e-01 2.939012e-01 2.508550e-01 3.262729e-01 2.448026e-01 3.150680e-02
<GCONST> 7.495189e+01
<STATE> 8
<MEAN> 39
 -1.067480e+01 -1.851496e+00 -1.251635e+00 -2.841569e+00 1.437095e-01 -5.953108e+00 -1.950570e+00 -9.075416e+00 -4.174144e+00 -9.530452e+00 -1.146632e+00 -6.398548e+00 6.141170e+01 2.023174e+00 1.548044e+00 -6.533083e-01 -1.879689e+00 -2.366142e+00 -1.994455e+00 -1.875570e+00 -5.799389e-01 -5.789908e-01 9.512987e-01 1.949426e+00 2.545408e+00 1.178914e+00 9.433838e-01 5.230523e-01 -4.021071e-01 -1.119856e+00 -5.657191e-01 -7.736927e-02 -3.129727e-01 -4.488320e-01 -4.248298e-01 -1.788034e-02 1.584477e-01 2.274321e-01 3.404479e-01
<VARIANCE> 39
 9.523311e+00 1.882721e+01 1.606708e+01 2.461568e+01 4.169127e+01 4.638707e+01 4.167926e+01 1.467549e+01 2.487524e+01 2.334381e+01 3.615561e+01 3.384803e+01 4.861387e+00 2.729371e+00 2.648324e+00 1.500402e+00 4.178120e+00 2.943335e+00 2.717986e+00 1.942987e+00 2.522903e+00 4.310684e+00 3.183952e+00 2.000652e+00 3.348242e+00 4.973716e-01 1.618276e-01 3.296002e-01 1.910258e-01 4.277235e-01 5.662782e-01 5.250871e-01 7.040586e-01 4.254265e-01 7.315186e-01 3.942197e-01 5.986375e-01 8.988751e-01 8.106582e-02
<GCONST> 1.109607e+02
<STATE> 9
<MEAN> 39
 1.500421e+00 6.492826e+00 -4.648983e+00 -1.514437e+01 -1.109609e+01 -1.030711e+01 -6.001281e+00 -1.319664e+01 -9.809388e+00 -9.488193e+00 5.315401e+00 1.526008e+00 6.659032e+01 1.894087e+00 4.936861e-01 -1.366743e+00 -2.199920e+00 -4.318849e-01 5.573007e-01 -1.003254e+00 -1.758265e+00 -1.304579e+00 8.748323e-01 1.296529e+00 8.065670e-01 1.123295e+00 -7.311140e-01 -7.019597e-01 7.391631e-02 7.440225e-01 1.105340e+00 4.755489e-01 -8.801363e-02 -3.586971e-02 5.362930e-01 4.222084e-01 -3.496750e-01 -8.419125e-01 -2.377797e-01
<VARIANCE> 39
 4.241413e+00 1.616244e+01 3.296992e+01 3.579178e+01 3.696563e+01 3.140591e+01 2.258420e+01 2.560723e+01 3.746405e+01 3.812226e+01 5.540049e+01 2.529477e+01 2.390222e+00 2.632888e+00 2.431446e+00 1.332632e+00 5.755904e+00 5.875859e+00 3.795357e+00 3.945602e+00 2.450561e+00 3.644909e+00 4.162425e+00 4.954049e+00 4.155869e+00 3.634194e-01 1.587859e-01 2.697693e-01 1.992655e-01 4.668384e-01 4.342407e-01 7.313058e-01 5.779546e-01 6.317840e-01 9.114969e-01 4.567229e-01 9.877244e-01 6.521424e-01 3.558139e-02
<GCONST> 1.134435e+02
<STATE> 10
<MEAN> 39
 2.194079e+00 2.733178e+00 -7.700984e+00 -1.797384e+01 -3.296889e+00 -9.167543e+00 -1.485125e+01 -1.701109e+01 -7.756795e+00 -2.089663e+00 4.796542e+00 -2.562939e+00 6.947497e+01 -2.927302e-01 -3.937927e-01 5.233576e-01 9.369187e-01 1.222113e+00 -1.307397e+00 -1.426325e+00 4.559210e-01 1.596912e+00 3.281823e-01 -1.708922e+00 -1.426356e+00 1.199220e-01 -4.603942e-01 2.405303e-01 5.198337e-01 6.742516e-01 -4.704842e-02 -5.220159e-01 6.066803e-01 4.054624e-01 8.262683e-02 -7.741449e-01 -4.421864e-01 2.001765e-01 -2.490195e-01
<VARIANCE> 39
 1.412048e+00 8.325508e+00 5.901501e+01 5.845905e+01 2.620737e+01 6.771558e+01 4.337421e+01 2.546056e+01 5.894206e+01 8.136441e+01 1.358079e+02 6.407848e+01 4.009085e+00 3.004284e-01 8.911762e-01 1.634848e+00 2.604762e+00 2.272512e+00 3.161140e+00 2.645753e+00 3.387500e+00 2.606346e+00 4.233638e+00 4.174466e+00 3.420805e+00 2.701484e-01 1.310688e-01 1.265023e-01 3.565554e-01 2.612444e-01 3.917004e-01 4.209430e-01 5.756320e-01 7.101083e-01 7.126862e-01 5.563402e-01 9.203003e-01 9.148076e-01 1.498510e-02
<GCONST> 1.092904e+02
<STATE> 11
<MEAN> 39
 -2.343381e+00 4.104224e+00 -3.877236e+00 -9.254325e+00 6.237053e-01 -1.643558e+01 -1.200821e+01 -1.604410e+01 -3.783462e+00 -6.218688e+00 -1.505753e+00 -4.229438e+00 6.775022e+01 -3.131322e+00 1.902853e+00 1.984241e-01 1.703371e+00 2.024463e+00 -2.790466e+00 2.687259e+00 -9.699911e-02 4.779772e-01 -7.042510e-01 -5.926401e-01 4.710510e-01 8.107420e-02 -8.686883e-01 7.076953e-01 -6.033004e-01 -2.719200e-01 1.687694e-01 -3.964913e-01 6.710649e-01 -3.267084e-02 -1.615274e-01 2.954521e-01 3.441846e-01 3.548114e-01 3.224848e-01
<VARIANCE> 39
 1.284464e+01 1.256511e+01 2.144534e+01 4.886609e+01 2.879855e+01 1.014286e+02 4.699562e+01 4.952877e+01 3.801533e+01 6.921353e+01 1.296393e+02 2.853183e+01 4.184338e+00 2.134831e+00 2.103594e+00 2.306932e+00 2.176836e+00 3.115928e+00 2.669700e+00 3.279654e+00 3.136174e+00 1.662975e+00 4.417187e+00 4.844085e+00 2.351657e+00 4.977252e-01 1.303300e-01 1.557529e-01 1.268986e-01 2.108169e-01 5.207428e-01 5.507907e-01 7.345291e-01 6.882176e-01 2.668151e-01 5.317694e-01 8.470848e-01 3.891990e-01 5.404895e-02
<GCONST> 1.128350e+02
<STATE> 12
<MEAN> 39
 -1.863732e+01 1.448267e+01 -7.967409e+00 -4.205791e+00 6.540575e+00 -2.851734e+01 -1.225621e+00 -1.571991e+01 -1.711491e+00 -5.910415e+00 -2.221873e+00 1.235909e-01 7.065349e+01 -3.271903e+00 1.817557e+00 -8.167636e-01 9.145594e-01 5.792449e-01 -1.654505e+00 1.538662e+00 9.243124e-01 1.205605e-01 2.202720e-02 3.833429e-02 8.432245e-01 5.883341e-01 7.447979e-01 -5.298246e-01 2.907090e-01 -3.309814e-02 -3.825525e-01 9.180269e-01 -5.768033e-01 1.980658e-01 -1.231124e-01 -1.321224e-01 5.435417e-02 -4.140915e-01 -1.702582e-01
<VARIANCE> 39
 1.780530e+01 2.738800e+01 9.865100e+00 8.964509e+01 3.083260e+01 5.873621e+01 5.673693e+01 3.353453e+01 5.441981e+01 5.223369e+01 4.546035e+01 4.613387e+01 2.663492e+00 1.922784e+00 1.592536e+00 1.472006e+00 1.270073e+00 3.275854e+00 4.668807e+00 2.987150e+00 2.599599e+00 1.232777e+00 1.647131e+00 2.710069e+00 2.989284e+00 4.383571e-01 1.236330e-01 1.511518e-01 2.395918e-01 2.757608e-01 4.374455e-01 4.375829e-01 3.920448e-01 4.978182e-01 3.015527e-01 4.427200e-01 4.817736e-01 5.243745e-01 3.068622e-02
<GCONST> 1.079248e+02
<STATE> 13
<MEAN> 39
 -2.685428e+01 1.957640e+01 -7.345668e+00 -5.237770e+00 1.101426e+01 -2.565143e+01 3.471306e+00 -1.106187e+01 -4.691316e+00 -5.411299e+00 9.887984e-02 -2.208724e+00 7.185371e+01 -5.316316e-01 1.231551e-01 1.075718e-01 6.892982e-01 1.932150e-01 6.757427e-01 2.579470e-01 5.438111e-01 4.785418e-02 -1.686216e-01 -8.494795e-02 -4.526817e-01 -2.446458e-01 2.074536e-01 -1.327133e-01 1.210929e-02 -5.354636e-02 -4.882435e-02 1.867193e-01 -7.759925e-03 -3.410240e-02 2.791069e-02 3.841901e-02 5.038337e-02 1.128356e-02 -1.116053e-01
<VARIANCE> 39
 6.751513e+00 1.116513e+01 1.860239e+01 2.805695e+01 2.477143e+01 3.133681e+01 6.760529e+01 3.558188e+01 3.880910e+01 9.243454e+01 2.180174e+01 3.145308e+01 3.941841e+00 2.984951e-01 4.914362e-01 5.684810e-01 6.628979e-01 9.473000e-01 2.175926e+00 1.734987e+00 1.445417e+00 2.571749e+00 1.839264e+00 6.444534e-01 1.359634e+00 2.253559e-01 1.014255e-01 8.424852e-02 8.373784e-02 1.067690e-01 1.451559e-01 4.050329e-01 2.919349e-01 3.219103e-01 3.773665e-01 3.768149e-01 1.117443e-01 2.590755e-01 2.962832e-02
<GCONST> 8.777395e+01
<STATE> 14
<MEAN> 39
 -2.345544e+01 1.536292e+01 -7.712482e+00 7.742977e+00 2.471436e+00 -2.385145e+01 1.169773e+00 -1.183724e+01 6.239626e-01 -1.502690e+01 -5.518351e+00 -1.943105e+00 6.785915e+01 -3.001055e-01 -2.055152e-01 1.839051e-01 1.848104e-01 -1.943030e-02 1.470060e+00 5.719713e-01 1.795519e-01 -2.401365e-01 -2.745514e-01 3.184458e-01 -2.319249e-01 -4.945370e-01 3.585936e-02 -1.959768e-01 -8.792455e-02 -1.535924e-01 -2.111644e-02 -1.024102e-01 -6.660962e-02 -1.173579e-01 8.731690e-02 2.306230e-01 1.294842e-01 8.845151e-02 -3.826812e-02
<VARIANCE> 39
 1.013572e+01 2.048388e+01 1.281270e+01 4.388718e+01 5.638329e+01 6.215727e+01 4.674206e+01 1.817389e+01 1.978979e+01 5.130224e+01 2.745370e+01 2.297417e+01 6.111561e+00 1.002953e-01 3.792380e-01 5.905257e-01 6.698602e-01 6.228799e-01 6.782952e-01 1.142100e+00 1.115433e+00 1.056725e+00 2.038545e+00 1.783936e+00 1.904004e+00 6.363811e-02 1.512197e-02 4.774056e-02 1.024846e-01 1.016378e-01 1.005801e-01 1.789020e-01 1.900577e-01 1.795472e-01 3.006808e-01 2.315092e-01 2.726640e-01 2.454176e-01 8.807400e-03
<GCONST> 7.855618e+01
<STATE> 15
<MEAN> 39
 -2.838662e+01 1.439774e+01 -6.496182e+00 -2.317615e+00 9.908004e+00 -1.972683e+01 3.080810e+00 -6.485942e+00 -5.043061e+00 -2.778890e+00 6.498707e-01 -3.054801e+00 6.674397e+01 -4.190345e-02 -8.813449e-01 -7.790641e-03 4.489859e-02 -1.279729e-01 3.592671e-01 4.003790e-01 1.212791e-01 4.617061e-01 1.668210e-01 4.118433e-01 -2.302159e-01 -6.539588e-01 1.210965e-01 -1.110187e-01 4.923148e-02 -1.067654e-01 -2.599763e-02 -7.953573e-02 3.513273e-03 1.894482e-02 1.043560e-01 -3.943557e-02 -1.055670e-01 -1.026289e-01 -2.581293e-02
<VARIANCE> 39
 1.007163e+01 1.892941e+01 1.512735e+01 4.771858e+01 5.170048e+01 3.640567e+01 3.280721e+01 3.490398e+01 3.106775e+01 5.708000e+01 1.393830e+01 1.987396e+01 6.434877e+00 1.854080e-01 2.136392e-01 1.684225e-01 5.763878e-01 3.643930e-01 1.406333e+00 1.146499e+00 1.833798e+00 1.282963e+00 1.553375e+00 5.594779e-01 1.080091e+00 5.758864e-02 2.137460e-02 4.669317e-02 4.155401e-02 1.034765e-01 1.075841e-01 2.894642e-01 1.720356e-01 2.421363e-01 1.817656e-01 1.815335e-01 1.635087e-01 2.155110e-01 9.970047e-03
<GCONST> 7.453290e+01
<STATE> 16
<MEAN> 39
 -2.731775e+01 1.203842e+01 -6.562680e+00 -6.659639e-01 8.756799e+00 -1.742852e+01 7.292065e+00 -8.493958e+00 1.785064e+00 -6.892329e+00 2.274228e+00 -6.675738e+00 6.403598e+01 5.464658e-01 -1.411845e+00 5.298093e-01 -2.606232e-01 -4.737520e-01 4.833215e-01 -3.590707e-01 4.461343e-01 4.622280e-01 2.824902e-03 -2.476070e-01 -2.680932e-01 -8.408009e-01 1.080471e-01 -1.404674e-01 4.935580e-02 7.926054e-02 -3.403903e-02 2.513105e-01 -1.201493e-01 -5.369904e-02 -1.608651e-01 -1.078916e-01 -1.861358e-01 1.140376e-01 -1.358752e-02
<VARIANCE> 39
 5.574730e+00 1.642208e+01 1.699816e+01 2.182163e+01 2.778550e+01 4.947229e+01 2.903995e+01 4.189453e+01 1.875344e+01 4.223422e+01 3.910851e+01 3.421943e+01 4.328523e+00 2.199253e-01 2.862771e-01 7.220479e-01 1.189617e+00 1.069439e+00 1.396901e+00 1.961707e+00 1.203761e+00 7.565735e-01 2.433960e+00 1.041388e+00 1.712487e+00 8.844929e-02 2.525888e-02 3.020178e-02 1.720857e-01 1.335443e-01 1.354451e-01 3.208155e-01 5.101029e-01 3.663074e-01 2.088090e-01 5.760661e-01 1.890188e-01 2.985494e-01 7.630025e-03
<GCONST> 8.325265e+01
<STATE> 17
<MEAN> 39
 -2.331124e+01 3.125606e+00 -4.701968e+00 -2.682438e-01 5.613461e+00 -1.210781e+01 4.414127e+00 -5.911850e+00 6.589352e-01 -7.572285e+00 -6.315646e-01 -4.986497e+00 6.020490e+01 6.048847e-01 -1.549212e+00 2.326338e-01 -2.698294e-02 -2.057465e-01 1.516312e+00 1.414745e-01 -7.832863e-02 9.297857e-02 -3.428670e-01 -5.109910e-01 -3.985872e-02 -6.289914e-01 -4.113142e-02 6.816250e-02 -1.448052e-02 -4.894607e-02 -6.115558e-02 -2.825984e-02 1.799847e-02 5.119810e-02 1.199492e-01 1.365431e-01 1.871033e-01 -5.269847e-02 4.974517e-02
<VARIANCE> 39
 6.574213e+00 8.998259e+00 9.275371e+00 2.535279e+01 3.866156e+01 4.322165e+01 2.305080e+01 3.064450e+01 3.362811e+01 3.094924e+01 2.950236e+01 2.266247e+01 9.262874e-01 1.873669e-01 3.488359e-01 6.789717e-01 6.162544e-01 1.214280e+00 1.055012e+00 1.305674e+00 1.516720e+00 1.654769e+00 2.323420e+00 1.497004e+00 1.081729e+00 5.822676e-02 2.239283e-02 5.828630e-02 1.127424e-01 1.431726e-01 1.621691e-01 1.420332e-01 1.673070e-01 3.130408e-01 3.122926e-01 3.768947e-01 2.634736e-01 2.218125e-01 1.117305e-02
<GCONST> 7.793100e+01
<STATE> 18
<MEAN> 39
 -2.035878e+01 -2.868980e+00 -3.347866e+00 -2.625988e+00 3.549902e+00 -7.328734e+00 5.357183e+00 -7.218897e+00 2.997498e+00 -6.932791e+00 -5.421705e-01 -5.856010e+00 5.773345e+01 5.245880e-01 -1.043839e+00 2.981793e-01 -4.683238e-01 -2.942889e-01 1.197631e+00 -3.545029e-01 3.477162e-01 2.508528e-01 1.806395e-01 -5.173582e-02 -7.126309e-01 -4.286550e-01 7.091529e-04 8.636791e-02 3.645577e-02 6.123663e-02 4.974157e-02 -7.418532e-02 -7.016593e-02 9.245598e-02 -6.736656e-02 -7.282253e-02 -3.705573e-02 -3.960432e-02 2.563591e-02
<VARIANCE> 39
 7.209324e+00 7.691788e+00 8.366481e+00 1.344667e+01 8.280280e+00 2.638846e+01 1.357490e+01 2.561407e+01 8.573430e+00 2.663775e+01 1.587249e+01 1.744266e+01 8.480345e-01 1.839120e-01 3.748229e-01 4.346697e-01 7.214804e-01 1.048594e+00 8.957077e-01 8.444315e-01 1.541224e+00 1.123317e+00 1.437820e+00 1.146661e+00 1.437513e+00 2.978467e-02 3.086131e-02 5.858808e-02 6.848457e-02 8.318207e-02 1.316746e-01 1.439387e-01 1.709123e-01 2.439568e-01 2.103314e-01 2.504343e-01 2.751792e-01 2.830049e-01 7.175928e-03
<GCONST> 6.731577e+01
<STATE> 19
<MEAN> 39
 -1.917215e+01 -5.831258e+00 -1.401212e+00 -1.094828e+00 3.842602e+00 -1.003483e+00 3.100404e+00 -5.083680e+00 6.484231e-01 -8.779923e+00 -2.037721e+00 -9.426752e+00 5.625457e+01 6.056821e-01 -7.293876e-01 3.174060e-01 -2.176880e-01 -1.678574e-01 6.695727e-01 -2.705404e-01 3.606894e-01 -6.400377e-02 1.187174e-02 5.190046e-01 1.534907e-01 -2.387153e-01 5.847818e-02 1.096166e-01 -4.335634e-02 -1.043790e-02 -5.331846e-02 -1.103862e-01 -7.871209e-02 -7.329851e-02 -7.684559e-02 -1.204812e-01 8.251345e-02 1.446362e-01 7.419075e-02
<VARIANCE> 39
 1.052638e+01 6.184120e+00 1.379659e+01 1.912654e+01 5.061668e+01 2.228056e+01 2.876552e+01 1.786646e+01 2.667540e+01 5.149597e+01 5.176684e+01 3.095557e+01 9.398668e-01 3.799750e-01 3.551267e-01 7.778545e-01 1.406343e+00 1.487717e+00 2.065507e+00 1.989931e+00 1.146983e+00 2.675341e+00 2.495220e+00 1.707281e+00 1.274076e+00 7.325158e-02 5.869511e-02 6.868818e-02 1.219494e-01 3.140655e-01 3.453722e-01 2.992778e-01 2.081613e-01 2.129108e-01 4.184079e-01 3.632835e-01 3.294666e-01 3.125685e-01 1.163816e-02
<GCONST> 8.656535e+01
<TRANSP> 20
 0.000000e+00 1.000000e+00 0.000000e+00 0.000000e+00 0.000000e+00 0.000000e+00 0.000000e+00 0.000000e+00 0.000000e+00 0.000000e+00 0.000000e+00 0.000000e+00 0.000000e+00 0.000000e+00 0.000000e+00 0.000000e+00 0.000000e+00 0.000000e+00 0.000000e+00 0.000000e+00
 0.000000e+00 7.367537e-01 2.632463e-01 0.000000e+00 0.000000e+00 0.000000e+00 0.000000e+00 0.000000e+00 0.000000e+00 0.000000e+00 0.000000e+00 0.000000e+00 0.000000e+00 0.000000e+00 0.000000e+00 0.000000e+00 0.000000e+00 0.000000e+00 0.000000e+00 0.000000e+00
 0.000000e+00 0.000000e+00 7.477134e-01 2.522866e-01 0.000000e+00 0.000000e+00 0.000000e+00 0.000000e+00 0.000000e+00 0.000000e+00 0.000000e+00 0.000000e+00 0.000000e+00 0.000000e+00 0.000000e+00 0.000000e+00 0.000000e+00 0.000000e+00 0.000000e+00 0.000000e+00
 0.000000e+00 0.000000e+00 0.000000e+00 7.304089e-01 2.695911e-01 0.000000e+00 0.000000e+00 0.000000e+00 0.000000e+00 0.000000e+00 0.000000e+00 0.000000e+00 0.000000e+00 0.000000e+00 0.000000e+00 0.000000e+00 0.000000e+00 0.000000e+00 0.000000e+00 0.000000e+00
 0.000000e+00 0.000000e+00 0.000000e+00 0.000000e+00 7.235826e-01 2.764174e-01 0.000000e+00 0.000000e+00 0.000000e+00 0.000000e+00 0.000000e+00 0.000000e+00 0.000000e+00 0.000000e+00 0.000000e+00 0.000000e+00 0.000000e+00 0.000000e+00 0.000000e+00 0.000000e+00
 0.000000e+00 0.000000e+00 0.000000e+00 0.000000e+00 0.000000e+00 8.559006e-01 1.440993e-01 0.000000e+00 0.000000e+00 0.000000e+00 0.000000e+00 0.000000e+00 0.000000e+00 0.000000e+00 0.000000e+00 0.000000e+00 0.000000e+00 0.000000e+00 0.000000e+00 0.000000e+00
 0.000000e+00 0.000000e+00 0.000000e+00 0.000000e+00 0.000000e+00 0.000000e+00 7.915832e-01 2.084169e-01 0.000000e+00 0.000000e+00 0.000000e+00 0.000000e+00 0.000000e+00 0.000000e+00 0.000000e+00 0.000000e+00 0.000000e+00 0.000000e+00 0.000000e+00 0.000000e+00
 0.000000e+00 0.000000e+00 0.000000e+00 0.000000e+00 0.000000e+00 0.000000e+00 0.000000e+00 6.925024e-01 3.074976e-01 0.000000e+00 0.000000e+00 0.000000e+00 0.000000e+00 0.000000e+00 0.000000e+00 0.000000e+00 0.000000e+00 0.000000e+00 0.000000e+00 0.000000e+00
 0.000000e+00 0.000000e+00 0.000000e+00 0.000000e+00 0.000000e+00 0.000000e+00 0.000000e+00 0.000000e+00 7.277254e-01 2.722746e-01 0.000000e+00 0.000000e+00 0.000000e+00 0.000000e+00 0.000000e+00 0.000000e+00 0.000000e+00 0.000000e+00 0.000000e+00 0.000000e+00
 0.000000e+00 0.000000e+00 0.000000e+00 0.000000e+00 0.000000e+00 0.000000e+00 0.000000e+00 0.000000e+00 0.000000e+00 7.544214e-01 2.455787e-01 0.000000e+00 0.000000e+00 0.000000e+00 0.000000e+00 0.000000e+00 0.000000e+00 0.000000e+00 0.000000e+00 0.000000e+00
 0.000000e+00 0.000000e+00 0.000000e+00 0.000000e+00 0.000000e+00 0.000000e+00 0.000000e+00 0.000000e+00 0.000000e+00 0.000000e+00 7.216628e-01 2.783372e-01 0.000000e+00 0.000000e+00 0.000000e+00 0.000000e+00 0.000000e+00 0.000000e+00 0.000000e+00 0.000000e+00
 0.000000e+00 0.000000e+00 0.000000e+00 0.000000e+00 0.000000e+00 0.000000e+00 0.000000e+00 0.000000e+00 0.000000e+00 0.000000e+00 0.000000e+00 7.426512e-01 2.573488e-01 0.000000e+00 0.000000e+00 0.000000e+00 0.000000e+00 0.000000e+00 0.000000e+00 0.000000e+00
 0.000000e+00 0.000000e+00 0.000000e+00 0.000000e+00 0.000000e+00 0.000000e+00 0.000000e+00 0.000000e+00 0.000000e+00 0.000000e+00 0.000000e+00 0.000000e+00 8.051605e-01 1.948395e-01 0.000000e+00 0.000000e+00 0.000000e+00 0.000000e+00 0.000000e+00 0.000000e+00
 0.000000e+00 0.000000e+00 0.000000e+00 0.000000e+00 0.000000e+00 0.000000e+00 0.000000e+00 0.000000e+00 0.000000e+00 0.000000e+00 0.000000e+00 0.000000e+00 0.000000e+00 7.641364e-01 2.358637e-01 0.000000e+00 0.000000e+00 0.000000e+00 0.000000e+00 0.000000e+00
 0.000000e+00 0.000000e+00 0.000000e+00 0.000000e+00 0.000000e+00 0.000000e+00 0.000000e+00 0.000000e+00 0.000000e+00 0.000000e+00 0.000000e+00 0.000000e+00 0.000000e+00 0.000000e+00 7.815465e-01 2.184534e-01 0.000000e+00 0.000000e+00 0.000000e+00 0.000000e+00
 0.000000e+00 0.000000e+00 0.000000e+00 0.000000e+00 0.000000e+00 0.000000e+00 0.000000e+00 0.000000e+00 0.000000e+00 0.000000e+00 0.000000e+00 0.000000e+00 0.000000e+00 0.000000e+00 0.000000e+00 7.451844e-01 2.548155e-01 0.000000e+00 0.000000e+00 0.000000e+00
 0.000000e+00 0.000000e+00 0.000000e+00 0.000000e+00 0.000000e+00 0.000000e+00 0.000000e+00 0.000000e+00 0.000000e+00 0.000000e+00 0.000000e+00 0.000000e+00 0.000000e+00 0.000000e+00 0.000000e+00 0.000000e+00 7.683496e-01 2.316503e-01 0.000000e+00 0.000000e+00
 0.000000e+00 0.000000e+00 0.000000e+00 0.000000e+00 0.000000e+00 0.000000e+00 0.000000e+00 0.000000e+00 0.000000e+00 0.000000e+00 0.000000e+00 0.000000e+00 0.000000e+00 0.000000e+00 0.000000e+00 0.000000e+00 0.000000e+00 7.912438e-01 2.087562e-01 0.000000e+00
 0.000000e+00 0.000000e+00 0.000000e+00 0.000000e+00 0.000000e+00 0.000000e+00 0.000000e+00 0.000000e+00 0.000000e+00 0.000000e+00 0.000000e+00 0.000000e+00 0.000000e+00 0.000000e+00 0.000000e+00 0.000000e+00 0.000000e+00 0.000000e+00 7.478847e-01 2.521153e-01
 0.000000e+00 0.000000e+00 0.000000e+00 0.000000e+00 0.000000e+00 0.000000e+00 0.000000e+00 0.000000e+00 0.000000e+00 0.000000e+00 0.000000e+00 0.000000e+00 0.000000e+00 0.000000e+00 0.000000e+00 0.000000e+00 0.000000e+00 0.000000e+00 0.000000e+00 0.000000e+00
<ENDHMM>
