~o
<STREAMINFO> 1 39
<VECSIZE> 39<NULLD><MFCC_D_A_0><DIAGC>
~h "nyalakan"
<BEGINHMM>
<NUMSTATES> 20
<STATE> 2
<MEAN> 39
 -1.458144e+01 -5.600112e+00 5.328057e-01 -2.814995e+00 -6.210994e-01 -2.649109e+00 -1.659472e+00 -4.658347e+00 -1.238101e+00 -7.500669e+00 1.128638e+00 -7.223546e+00 5.704938e+01 1.708303e+00 2.134943e+00 1.545426e+00 2.493718e-01 -6.072196e-01 -1.441751e+00 -9.369941e-01 -9.470638e-01 -1.205652e+00 -8.135967e-01 -3.131156e-01 -1.412072e-01 1.062220e+00 5.689472e-01 2.724420e-01 2.639439e-01 -3.482815e-01 -7.794979e-01 -8.958471e-01 -4.044255e-01 8.331166e-02 -3.641926e-01 -2.034001e-02 2.038465e-01 1.210504e-02 4.505921e-01
<VARIANCE> 39
 9.232738e+00 1.337878e+01 1.577237e+01 6.924424e+00 1.312914e+01 2.193515e+01 2.173784e+01 2.162803e+01 2.131783e+01 2.755027e+01 2.469910e+01 1.503593e+01 2.302013e+00 2.002119e+00 2.135621e+00 2.048211e+00 1.046771e+00 2.163557e+00 4.163274e+00 4.146398e+00 3.104698e+00 2.972878e+00 3.863039e+00 3.245267e+00 2.115305e+00 6.892716e-01 1.822370e-01 3.856167e-01 2.266592e-01 1.803146e-01 3.627174e-01 3.461408e-01 4.748904e-01 6.656099e-01 5.783983e-01 8.152331e-01 6.587167e-01 2.920622e-01 6.313477e-02
<GCONST> 1.028516e+02
<STATE> 3
<MEAN> 39
 -3.606838e+00 2.521663e+00 7.644914e+00 -7.311623e+00 -1.026340e+01 -1.454266e+01 -5.937080e+00 -4.372175e+00 -8.746610e+00 -1.054086e+01 3.664977e+00 -7.151917e+00 6.515147e+01 1.614898e+00 -1.102523e+00 5.011533e-01 -9.326991e-01 -2.373437e+00 -2.165136e+00 1.118786e+00 2.971572e+00 -1.282215e+00 -1.074317e+00 5.991850e-01 4.027548e-01 2.295788e+00 -4.927050e-01 -1.300238e+00 -6.794623e-01 3.392270e-01 5.163841e-01 6.231123e-01 5.283571e-01 6.278751e-01 4.882959e-01 -3.619821e-01 -5.168524e-01 3.327150e-02 -3.301309e-02
<VARIANCE> 39
 7.149561e+00 2.204796e+01 5.994072e+01 4.431846e+01 3.831007e+01 3.787380e+01 4.212748e+01 1.385650e+02 4.367577e+01 6.765736e+01 1.161040e+02 2.868832e+01 1.175092e+01 1.899999e+00 7.896857e+00 3.774835e+00 4.483894e+00 5.404768e+00 5.880262e+00 6.763286e+00 1.004467e+01 6.197629e+00 7.019915e+00 7.454457e+00 4.425510e+00 5.178184e-01 1.412321e-01 4.325516e-01 2.540082e-01 1.050628e+00 1.093100e+00 8.979384e-01 1.424717e+00 1.824954e+00 9.912000e-01 9.269878e-01 1.219090e+00 8.542247e-01 8.780839e-02
<GCONST> 1.333098e+02
<STATE> 4
<MEAN> 39
 -1.356739e+00 -1.087191e+01 5.219501e+00 -4.299428e+00 -1.195326e+01 -1.770941e+01 -2.171440e-01 1.027174e+01 -8.635339e+00 -1.695033e+01 5.978370e-01 -6.293416e+00 7.297091e+01 5.167797e-01 -2.568037e+00 -1.994511e+00 6.535792e-01 2.043379e+00 1.266552e+00 -1.254527e+00 -1.896414e-01 1.639345e+00 -7.528817e-01 -2.603233e+00 -7.389911e-01 1.149856e+00 -2.468140e-02 6.754591e-01 -3.433114e-01 -3.550547e-01 8.407718e-01 8.285167e-01 -8.697065e-01 -1.517655e+00 4.811269e-01 8.984591e-01 1.862819e-02 -4.630777e-01 -4.571313e-01
<VARIANCE> 39
 5.410107e+00 1.215621e+01 1.024792e+02 1.515352e+01 4.496745e+01 5.797519e+01 7.015189e+01 2.072139e+02 7.074033e+01 9.505257e+01 1.225239e+02 3.956767e+01 6.209342e+00 2.702799e-01 1.117712e+00 1.110851e+00 2.253921e+00 2.700117e+00 2.886995e+00 4.085011e+00 7.296427e+00 2.705605e+00 3.539991e+00 1.658231e+00 3.641882e+00 3.130553e-01 6.367421e-02 1.128408e-01 3.049242e-01 2.574139e-01 7.684637e-01 6.929597e-01 8.910322e-01 9.368741e-01 9.922252e-01 4.874792e-01 7.891561e-01 3.988842e-01 1.852499e-02
<GCONST> 1.136907e+02
<STATE> 5
<MEAN> 39
 5.639341e-01 -1.547411e+01 -1.438474e+00 -5.954604e+00 -2.623941e+00 -9.994650e+00 -6.415248e+00 4.932893e+00 -2.309700e+00 -9.778380e+00 -2.556548e+00 -1.230670e+01 7.484126e+01 4.327760e-01 8.187351e-03 -1.675088e+00 -1.022206e+00 1.880816e+00 2.365635e+00 -1.491563e+00 -2.907998e+00 1.352632e+00 1.699591e+00 -3.286999e-01 -8.970077e-01 -4.892086e-02 -1.053119e-02 5.706662e-01 3.231221e-01 -1.585177e-01 -4.891700e-01 -1.978410e-01 3.489347e-01 4.102325e-02 -4.123024e-01 1.433768e-01 5.929376e-01 2.833721e-01 -1.961535e-01
<VARIANCE> 39
 3.815103e+00 9.499136e+00 5.744507e+01 2.270401e+01 6.648521e+01 5.352270e+01 2.144504e+01 1.867666e+02 3.079488e+01 9.804153e+01 6.563105e+01 8.098501e+01 5.629992e+00 2.276569e-01 6.990822e-01 8.288007e-01 7.098870e-01 1.645037e+00 1.298467e+00 1.439228e+00 2.397414e+00 2.792390e+00 1.218149e+00 2.184869e+00 1.772413e+00 6.850798e-02 2.726066e-02 5.354602e-02 6.443489e-02 1.908445e-01 1.827400e-01 2.363404e-01 1.364989e-01 4.562579e-01 2.621514e-01 2.365943e-01 3.894729e-01 3.788541e-01 1.218010e-02
<GCONST> 9.081079e+01
<STATE> 6
<MEAN> 39
 1.721481e+00 -1.221918e+01 -1.182529e+01 -9.925357e+00 -1.189128e+00 -4.284930e-01 -8.606662e+00 -1.478617e+01 1.709791e+00 -1.055481e+01 -1.096987e+01 -1.139042e+01 7.230316e+01 5.827392e-02 2.024449e-01 -6.266878e-01 -5.642476e-02 4.663086e-01 1.269262e-01 1.987469e-01 -5.299162e-01 2.041913e-01 8.912488e-01 -1.405773e-01 -3.600703e-01 -1.856183e-01 -1.228422e-01 5.698202e-02 1.827487e-01 1.063398e-01 -9.757028e-02 -2.624593e-01 8.722062e-02 2.358847e-01 -9.658787e-02 -7.952560e-02 2.061921e-02 -3.440099e-02 -7.006306e-02
<VARIANCE> 39
 2.607017e+00 6.303163e+00 2.569043e+01 1.707392e+01 5.333858e+01 7.536012e+01 3.990841e+01 8.288522e+01 2.316779e+01 9.817077e+01 8.251360e+01 6.853159e+01 4.852229e+00 2.043871e-01 6.337202e-01 9.216418e-01 1.224773e+00 1.322176e+00 2.183249e+00 1.025168e+00 2.406097e+00 1.503627e+00 2.496948e+00 1.517097e+00 2.010124e+00 1.520744e-01 3.271471e-02 1.398610e-01 1.356606e-01 1.914920e-01 1.821727e-01 2.820528e-01 1.770074e-01 2.774271e-01 3.633444e-01 4.422697e-01 2.151496e-01 2.456412e-01 3.578400e-02
<GCONST> 9.238852e+01
<STATE> 7
<MEAN> 39
 1.957722e+00 -1.067095e+01 -1.802958e+00 -9.988214e+00 9.088985e+00 -3.961725e+00 -1.204744e+01 3.157375e+00 -1.256953e+00 1.611144e+00 1.915431e+00 -1.657334e+01 7.475333e+01 -3.626706e-01 5.768021e-01 3.220875e-01 1.690856e-01 -1.416742e-02 1.458442e-01 1.045046e-01 -3.520370e-01 -1.025541e-01 -3.497157e-01 -1.094606e-01 -1.970142e-01 -4.788216e-01 -1.323424e-01 -6.889606e-03 4.796133e-02 9.580611e-02 5.444584e-03 9.610206e-02 1.040082e-01 -7.722982e-03 -3.389260e-02 -2.533850e-01 -3.864176e-02 8.062692e-02 -1.107314e-01
<VARIANCE> 39
 4.235394e+00 1.241065e+01 5.049983e+01 4.079440e+01 2.949599e+01 5.474900e+01 1.606995e+01 9.603484e+01 5.254895e+01 5.571336e+01 7.071170e+01 4.279686e+01 7.158161e+00 4.329744e-01 1.225905e+00 8.266207e-01 1.211456e+00 9.776045e-01 2.113156e+00 9.670118e-01 1.382356e+00 1.352931e+00 1.620235e+00 1.765530e+00 1.337163e+00 7.803281e-01 5.637578e-02 1.396163e-01 1.132233e-01 1.505298e-01 1.765761e-01 3.502351e-01 1.613500e-01 2.200732e-01 2.561105e-01 2.622704e-01 3.427591e-01 2.985011e-01 6.365507e-02
<GCONST> 9.497115e+01
<STATE> 8
<MEAN> 39
 -5.345997e+00 -6.032708e+00 -6.438597e+00 -6.787381e+00 2.796721e+00 -1.542385e+00 -4.283222e+00 -1.044053e+01 -7.551220e-01 -8.070655e+00 -6.834743e+00 -1.499776e+01 6.497072e+01 -1.049990e+00 5.593787e-01 2.598523e-01 1.691555e-01 2.332230e-01 1.406891e-01 6.609858e-01 5.518181e-01 -2.786573e-01 -9.027420e-01 -2.806128e-01 1.280280e-01 -9.718454e-01 8.113351e-02 -2.187621e-01 -1.480430e-01 3.519573e-02 5.250246e-02 -2.774513e-01 -1.066919e-01 2.279366e-01 2.417547e-01 8.654253e-02 -1.547415e-01 1.184935e-01 1.979851e-01
<VARIANCE> 39
 8.752490e+00 7.231933e+00 2.546666e+01 2.567234e+01 2.950236e+01 2.831455e+01 2.277333e+01 6.327760e+01 2.124769e+01 4.767385e+01 4.813990e+01 2.368764e+01 6.254904e+00 2.255177e-01 3.332780e-01 8.035102e-01 7.240428e-01 1.161385e+00 1.456199e+00 1.422861e+00 1.887525e+00 1.478497e+00 1.444093e+00 1.533715e+00 1.146523e+00 1.836864e-01 3.952585e-02 7.038239e-02 9.835764e-02 2.399766e-01 2.515480e-01 5.050894e-01 4.453491e-01 2.819114e-01 3.206587e-01 3.366562e-01 3.382254e-01 2.086398e-01 2.494225e-02
<GCONST> 8.777625e+01
<STATE> 9
<MEAN> 39
 -8.839859e+00 -7.562262e+00 -8.712135e+00 -3.340670e+00 5.942870e+00 -8.525605e+00 -5.337202e+00 -3.423966e+00 3.622952e+00 -1.185888e+01 -9.066723e+00 -1.158672e+01 6.392239e+01 3.309558e-01 -1.045790e+00 -5.096197e-01 6.140475e-01 -1.332500e-01 -2.242105e+00 -8.669953e-01 1.291722e+00 1.493504e+00 9.791080e-01 -1.103497e-01 9.013468e-01 8.426365e-01 6.103822e-01 -2.618094e-01 -8.846582e-03 -4.001485e-01 -5.109531e-01 2.097957e-01 -1.178742e-01 -3.206766e-01 -1.636937e-01 5.576964e-01 1.949819e-01 -9.946663e-02 5.116450e-01
<VARIANCE> 39
 6.860641e+00 1.433509e+01 2.736155e+01 3.995171e+01 3.037932e+01 7.276051e+01 3.701412e+01 7.853867e+01 3.794427e+01 2.597312e+01 5.129657e+01 3.548008e+01 6.672405e+00 2.064467e+00 1.150232e+00 1.567207e+00 4.007324e+00 5.738256e+00 5.910438e+00 6.042601e+00 4.425805e+00 4.540076e+00 4.908611e+00 4.561795e+00 4.218304e+00 1.121989e+00 1.745480e-01 2.406696e-01 3.765292e-01 7.434336e-01 1.204486e+00 1.486503e+00 1.232200e+00 9.579144e-01 1.357696e+00 7.464404e-01 7.883388e-01 1.227194e+00 1.255481e-01
<GCONST> 1.251350e+02
<STATE> 10
<MEAN> 39
 -1.700234e+00 -1.294311e+01 -8.321302e+00 -6.978777e+00 -1.161412e-01 -1.514080e+01 -8.618440e+00 5.675732e-01 3.800631e+00 -4.281675e+00 -8.105538e+00 -1.138352e+01 7.204846e+01 2.072355e+00 -1.840538e+00 -9.608049e-02 -1.440528e+00 -1.950015e+00 4.758720e-01 4.076509e-01 -4.056290e-01 -2.166240e+00 6.034833e-01 -2.478522e-01 -3.584957e-02 2.603830e+00 -4.314847e-01 1.011982e-01 5.503758e-02 2.221249e-01 3.437335e-01 5.824633e-01 6.153465e-01 -2.130954e-01 -6.919283e-01 -8.637367e-01 -2.940941e-01 2.415551e-01 -2.967826e-01
<VARIANCE> 39
 7.492572e+00 1.740291e+01 8.451961e+01 1.964480e+01 7.999400e+01 1.021851e+02 4.104055e+01 1.454952e+02 6.123171e+01 4.116835e+01 9.160056e+01 5.032824e+01 1.691608e+01 1.180905e+00 1.857290e+00 2.308920e+00 2.949109e+00 9.758696e+00 9.467722e+00 3.379276e+00 4.292982e+00 5.651196e+00 7.875484e+00 3.901458e+00 8.691082e+00 7.274889e-01 1.964515e-01 2.619959e-01 3.350517e-01 3.898829e-01 9.357444e-01 8.038182e-01 6.078308e-01 4.519053e-01 1.081913e+00 6.758072e-01 5.638360e-01 8.260310e-01 2.112250e-01
<GCONST> 1.284569e+02
<STATE> 11
<MEAN> 39
 -6.009489e-02 -1.780448e+01 -1.023844e+01 -6.136153e+00 -7.118513e+00 -6.861413e+00 -3.367208e+00 -5.570208e+00 -5.783647e-01 -6.269742e+00 -1.218265e+01 -6.475912e+00 7.585871e+01 -5.496990e-02 -5.425202e-01 7.293555e-01 1.007003e-01 -5.762019e-01 8.178557e-02 2.301441e-01 3.303412e-01 -8.083786e-01 -1.045472e+00 -7.206918e-02 4.031390e-01 2.509350e-01 -2.291693e-01 5.659648e-01 3.547755e-01 1.636459e-01 1.902401e-01 -3.393185e-01 -3.675285e-01 3.350418e-01 3.396259e-01 -1.451644e-01 1.881785e-01 -3.100675e-01 -4.613019e-01
<VARIANCE> 39
 4.419646e+00 1.990596e+01 4.238237e+01 3.148241e+01 1.417543e+02 2.531904e+02 3.726303e+01 1.031272e+02 1.030435e+02 8.588605e+01 4.258675e+01 3.561186e+01 9.954837e+00 1.770390e-01 8.206683e-01 9.404396e-01 6.791082e-01 1.574438e+00 2.698003e+00 1.419990e+00 2.019078e+00 2.049209e+00 2.626194e+00 1.617242e+00 1.385022e+00 2.531457e-01 1.226672e-01 1.553286e-01 1.460238e-01 2.451736e-01 4.488890e-01 4.508674e-01 2.003962e-01 3.108553e-01 5.171220e-01 6.079137e-01 2.270971e-01 3.765056e-01 5.603402e-02
<GCONST> 1.038791e+02
<STATE> 12
<MEAN> 39
 -5.027083e-02 -1.576215e+01 -2.511411e+00 -7.482517e+00 -3.294924e+00 -1.257368e+01 -7.468750e+00 3.487155e+00 -2.911165e+00 -8.016785e+00 -7.751294e+00 -1.165879e+01 7.559543e+01 1.077471e-01 2.248705e+00 1.111668e+00 6.904400e-01 2.891193e-01 -5.255598e-01 -5.833257e-01 -4.710366e-01 2.365148e-01 -4.943458e-01 5.177447e-01 -2.234798e-01 -1.039878e+00 -4.607032e-03 4.726330e-01 -5.572658e-02 2.054647e-01 9.692457e-02 1.766882e-01 -1.377648e-02 -7.656016e-01 -2.674079e-02 6.697723e-02 1.407461e-01 1.155823e-01 -2.326999e-01
<VARIANCE> 39
 5.554571e+00 1.522330e+01 3.500810e+01 1.798339e+01 7.449923e+01 1.361473e+02 3.376509e+01 7.566190e+01 6.127464e+01 5.313828e+01 4.317389e+01 7.672398e+01 8.030085e+00 1.702121e-01 8.450942e-01 1.608262e+00 1.364984e+00 2.021403e+00 1.781060e+00 1.493395e+00 4.489768e+00 2.163301e+00 1.695634e+00 7.002442e-01 1.584902e+00 1.942262e-01 1.898223e-02 1.393633e-01 1.385018e-01 1.870158e-01 1.924436e-01 2.046527e-01 2.106571e-01 4.768008e-01 3.980356e-01 3.059691e-01 1.004928e-01 2.798673e-01 2.531483e-02
<GCONST> 9.522925e+01
<STATE> 13
<MEAN> 39
 -5.209693e-01 -5.150264e+00 1.561901e+00 -2.339573e+00 -1.970473e+00 -1.101998e+01 -7.465710e+00 -5.168984e+00 -2.062070e+00 -9.472819e+00 -5.475523e+00 -8.239161e+00 6.984486e+01 -1.097962e-01 2.038125e+00 6.711642e-01 5.838960e-01 4.172417e-01 -6.469647e-02 -2.782317e-01 -1.517625e+00 -6.454681e-01 -7.525430e-01 1.685032e-01 2.904963e-01 -1.024464e+00 -5.104740e-02 -2.634678e-01 -1.629351e-01 -1.891973e-01 -5.839384e-03 1.266596e-01 1.046885e-01 2.676332e-01 1.053905e-02 -8.137684e-02 -2.074940e-01 -4.147238e-02 1.112439e-01
<VARIANCE> 39
 5.691796e+00 1.348549e+01 2.069455e+01 1.142581e+01 2.411811e+01 7.083902e+01 3.018380e+01 4.101760e+01 5.330624e+01 4.392588e+01 4.169970e+01 3.696191e+01 4.288306e+00 9.373996e-02 6.239718e-01 5.479914e-01 7.139716e-01 2.008105e+00 1.653467e+00 1.081282e+00 2.928532e+00 1.845063e+00 1.564506e+00 9.988906e-01 1.515200e+00 1.139319e-01 1.660555e-02 7.699765e-02 6.330373e-02 1.332631e-01 1.142507e-01 1.586781e-01 1.973789e-01 3.089840e-01 3.437481e-01 1.832169e-01 1.377928e-01 1.488385e-01 1.647290e-02
<GCONST> 8.147845e+01
<STATE> 14
<MEAN> 39
 -6.828657e-01 2.194235e+00 3.345811e-01 -4.711070e+00 -3.825232e+00 -1.488965e+01 -9.605748e+00 -1.137612e+01 -8.012302e+00 -1.878246e+01 -1.075628e+01 -9.666080e+00 6.617062e+01 -5.323430e-01 9.148496e-01 5.250374e-01 -8.959061e-02 -5.141531e-02 4.565303e-01 1.329929e-02 -5.965870e-01 8.993836e-02 3.679087e-01 3.651125e-01 1.073569e-01 -6.926396e-01 -1.004441e-01 -2.307181e-01 -9.086301e-02 -3.989669e-02 6.035432e-03 1.600856e-02 1.155079e-01 4.829259e-02 2.382140e-02 3.047137e-01 1.281093e-01 6.212428e-02 2.143361e-02
<VARIANCE> 39
 2.307914e+00 5.544083e+00 1.150460e+01 8.351255e+00 1.539729e+01 1.911176e+01 2.289666e+01 1.280401e+01 1.581125e+01 3.414904e+01 3.545406e+01 1.545077e+01 2.274734e+00 1.131678e-01 3.172763e-01 6.305891e-01 8.524987e-01 1.085643e+00 1.354769e+00 8.003797e-01 8.248667e-01 1.020721e+00 2.642320e+00 2.054199e+00 1.487236e+00 4.839522e-02 1.733231e-02 3.552375e-02 5.794259e-02 1.132503e-01 1.443538e-01 2.040815e-01 1.023184e-01 1.359133e-01 2.349501e-01 4.864831e-01 3.053425e-01 2.377983e-01 7.498651e-03
<GCONST> 6.877563e+01
<STATE> 15
<MEAN> 39
 -3.710269e+00 3.974280e+00 3.093301e+00 -1.942299e+00 -5.796673e-02 -8.333783e+00 -5.196458e+00 -9.772482e+00 -3.450254e+00 -1.214551e+01 -6.197942e+00 -7.198594e+00 6.350717e+01 -6.331936e-01 3.933165e-01 1.100046e-01 2.667018e-01 6.865037e-01 1.216101e+00 1.061277e+00 2.681454e-01 -3.070460e-02 -5.052198e-01 -4.190799e-01 -3.659396e-01 -6.292820e-01 -7.825153e-02 -1.414119e-01 1.409714e-02 7.259592e-02 1.511262e-01 8.117822e-02 1.402928e-01 2.237496e-01 1.015797e-01 -6.558090e-02 -1.109318e-01 -1.912553e-01 1.059996e-02
<VARIANCE> 39
 1.509611e+00 6.542577e+00 8.945482e+00 2.925331e+01 5.658708e+01 4.573590e+01 2.449964e+01 2.930619e+01 4.185248e+01 4.300874e+01 2.932280e+01 2.126862e+01 1.589786e+00 2.150193e-01 3.547010e-01 5.505443e-01 8.877667e-01 1.257987e+00 1.456034e+00 1.257921e+00 1.078308e+00 1.046434e+00 1.651746e+00 1.601255e+00 1.011903e+00 7.589364e-02 4.604604e-02 5.647817e-02 1.142471e-01 1.875359e-01 2.189750e-01 4.107418e-01 2.450532e-01 1.621481e-01 1.948993e-01 3.848268e-01 4.491782e-01 1.952676e-01 1.394629e-02
<GCONST> 7.971071e+01
<STATE> 16
<MEAN> 39
 -8.760305e+00 2.956587e+00 3.592909e+00 -2.522674e+00 -1.188259e+00 -8.558640e+00 -5.431056e+00 -1.399971e+01 -8.878702e+00 -1.734279e+01 -1.039354e+01 -1.263578e+01 6.022669e+01 -7.459072e-01 -4.034168e-01 8.203579e-03 2.175664e-01 6.691802e-01 5.342404e-01 8.673673e-03 -7.473482e-02 3.177205e-01 6.451832e-01 4.734251e-01 -2.477247e-02 -4.110371e-01 3.414846e-02 -5.899876e-02 -7.201550e-02 -3.643963e-02 -3.026960e-02 -4.044892e-02 -9.591194e-02 -3.065748e-02 4.199409e-02 8.661822e-02 9.149224e-02 1.008734e-01 3.476564e-02
<VARIANCE> 39
 4.626642e+00 4.750840e+00 4.584969e+00 1.520989e+01 2.220440e+01 1.583939e+01 1.624949e+01 2.092244e+01 3.099891e+01 2.146313e+01 1.974759e+01 1.975766e+01 1.657429e+00 1.735900e-01 2.745531e-01 5.082368e-01 7.805021e-01 5.225894e-01 8.385258e-01 1.173330e+00 7.092082e-01 1.219476e+00 1.677483e+00 1.386892e+00 1.336174e+00 6.707431e-02 1.943137e-02 6.393902e-02 7.648386e-02 1.358056e-01 9.395406e-02 1.620232e-01 2.934448e-01 1.582535e-01 2.128126e-01 2.417502e-01 2.121277e-01 2.615311e-01 4.799919e-03
<GCONST> 6.761879e+01
<STATE> 17
<MEAN> 39
 -1.134266e+01 1.967829e+00 2.886942e+00 2.536736e-01 8.214697e+00 1.407488e+00 1.074391e+00 -6.765886e+00 -1.344674e+00 -8.750316e+00 -1.574828e+00 -7.991254e+00 5.861924e+01 -5.961307e-01 -3.507769e-01 -9.506768e-02 6.187220e-02 4.163749e-02 3.755606e-01 3.939555e-01 -3.457785e-01 -6.000198e-01 2.060195e-01 1.591057e-01 -5.383062e-01 -3.008216e-01 4.578492e-02 -2.552769e-02 6.381526e-02 4.714553e-02 -6.432035e-02 -4.247114e-02 9.858002e-03 -8.774900e-02 -1.377849e-01 -1.258807e-01 -6.482729e-02 -5.487865e-02 4.304924e-02
<VARIANCE> 39
 4.551620e+00 1.052133e+01 7.402424e+00 1.391152e+01 3.638523e+01 2.631003e+01 3.642762e+01 5.111528e+01 2.878081e+01 1.656379e+01 2.346026e+01 1.898209e+01 1.485523e+00 2.648154e-01 4.781132e-01 9.493503e-01 1.471387e+00 2.390329e+00 1.438814e+00 1.689622e+00 1.358019e+00 2.250860e+00 1.339798e+00 1.541855e+00 1.634218e+00 7.371756e-02 4.986385e-02 5.139327e-02 1.524984e-01 2.831692e-01 4.067562e-01 2.022012e-01 2.312073e-01 3.491671e-01 4.807452e-01 2.644705e-01 2.409986e-01 2.859730e-01 1.122968e-02
<GCONST> 8.363933e+01
<STATE> 18
<MEAN> 39
 -1.473542e+01 -1.107231e+00 3.584828e+00 8.198009e-01 6.687407e+00 1.834224e+00 1.831650e+00 -1.155838e+01 -9.445235e+00 -1.466955e+01 -8.991969e+00 -1.610554e+01 5.727413e+01 -4.996868e-01 -5.801454e-01 -2.371190e-01 9.239884e-02 2.136746e-01 3.624800e-01 4.068976e-01 2.821574e-01 7.111738e-02 -1.033250e-01 1.143826e-01 2.115106e-01 -1.932465e-01 4.285770e-02 -1.524263e-02 -1.113650e-01 -6.732789e-02 -1.378582e-02 -5.513048e-02 -9.644569e-02 6.614067e-02 1.204683e-01 1.048161e-01 1.667080e-01 2.571146e-01 2.605830e-02
<VARIANCE> 39
 6.412276e+00 1.584797e+01 1.902822e+01 7.821649e+00 1.357145e+01 2.022003e+01 3.450354e+01 5.232190e+01 2.248740e+01 2.094454e+01 2.283759e+01 1.490020e+01 2.184729e+00 8.827277e-02 3.138165e-01 1.152204e+00 8.298783e-01 7.245241e-01 1.111024e+00 1.985592e+00 2.990974e+00 1.950934e+00 1.817592e+00 2.096163e+00 2.000213e+00 2.823094e-02 2.355764e-02 5.613150e-02 2.033824e-01 1.845675e-01 1.785316e-01 2.570156e-01 4.533581e-01 6.047438e-01 2.807897e-01 2.709945e-01 3.444422e-01 3.082764e-01 6.722300e-03
<GCONST> 8.013870e+01
<STATE> 19
<MEAN> 39
 -1.569831e+01 -4.101491e+00 -2.983685e-01 -1.153197e+00 4.972332e+00 2.623663e-01 3.957435e-01 -1.044950e+01 -4.244364e+00 -8.354280e+00 -1.451978e+00 -8.285146e+00 5.723068e+01 -1.634015e-01 -1.304260e-01 -1.164102e-01 -2.809584e-01 -3.071638e-01 -5.222335e-02 3.839888e-01 6.811044e-01 5.105467e-01 3.291914e-01 4.772599e-01 4.162457e-01 -8.134235e-02 1.976953e-02 3.407129e-02 2.454308e-02 -8.797619e-02 -8.958565e-02 5.746040e-04 1.251535e-01 1.079646e-01 6.628336e-02 -5.014295e-02 -1.253151e-01 -1.414852e-01 -5.764730e-03
<VARIANCE> 39
 2.479285e+00 6.166611e+00 1.336836e+01 1.874593e+01 2.288120e+01 2.877511e+01 2.486702e+01 4.394981e+01 3.709228e+01 2.282426e+01 2.173007e+01 1.658628e+01 9.914268e-01 1.333399e-01 4.032296e-01 8.451889e-01 5.551201e-01 9.890146e-01 1.690368e+00 2.314240e+00 2.102779e+00 2.011060e+00 1.206432e+00 1.626640e+00 1.826464e+00 4.176878e-02 2.477582e-02 1.071618e-01 1.725864e-01 1.588789e-01 1.732448e-01 2.668811e-01 3.261932e-01 4.183667e-01 5.480461e-01 2.289397e-01 2.547198e-01 2.680224e-01 7.067392e-03
<GCONST> 7.894483e+01
<TRANSP> 20
 0.000000e+00 1.000000e+00 0.000000e+00 0.000000e+00 0.000000e+00 0.000000e+00 0.000000e+00 0.000000e+00 0.000000e+00 0.000000e+00 0.000000e+00 0.000000e+00 0.000000e+00 0.000000e+00 0.000000e+00 0.000000e+00 0.000000e+00 0.000000e+00 0.000000e+00 0.000000e+00
 0.000000e+00 7.206171e-01 2.793829e-01 0.000000e+00 0.000000e+00 0.000000e+00 0.000000e+00 0.000000e+00 0.000000e+00 0.000000e+00 0.000000e+00 0.000000e+00 0.000000e+00 0.000000e+00 0.000000e+00 0.000000e+00 0.000000e+00 0.000000e+00 0.000000e+00 0.000000e+00
 0.000000e+00 0.000000e+00 7.736264e-01 2.263736e-01 0.000000e+00 0.000000e+00 0.000000e+00 0.000000e+00 0.000000e+00 0.000000e+00 0.000000e+00 0.000000e+00 0.000000e+00 0.000000e+00 0.000000e+00 0.000000e+00 0.000000e+00 0.000000e+00 0.000000e+00 0.000000e+00
 0.000000e+00 0.000000e+00 0.000000e+00 6.898732e-01 3.101268e-01 0.000000e+00 0.000000e+00 0.000000e+00 0.000000e+00 0.000000e+00 0.000000e+00 0.000000e+00 0.000000e+00 0.000000e+00 0.000000e+00 0.000000e+00 0.000000e+00 0.000000e+00 0.000000e+00 0.000000e+00
 0.000000e+00 0.000000e+00 0.000000e+00 0.000000e+00 6.990804e-01 3.009196e-01 0.000000e+00 0.000000e+00 0.000000e+00 0.000000e+00 0.000000e+00 0.000000e+00 0.000000e+00 0.000000e+00 0.000000e+00 0.000000e+00 0.000000e+00 0.000000e+00 0.000000e+00 0.000000e+00
 0.000000e+00 0.000000e+00 0.000000e+00 0.000000e+00 0.000000e+00 8.778185e-01 1.221815e-01 0.000000e+00 0.000000e+00 0.000000e+00 0.000000e+00 0.000000e+00 0.000000e+00 0.000000e+00 0.000000e+00 0.000000e+00 0.000000e+00 0.000000e+00 0.000000e+00 0.000000e+00
 0.000000e+00 0.000000e+00 0.000000e+00 0.000000e+00 0.000000e+00 0.000000e+00 8.306838e-01 1.693163e-01 0.000000e+00 0.000000e+00 0.000000e+00 0.000000e+00 0.000000e+00 0.000000e+00 0.000000e+00 0.000000e+00 0.000000e+00 0.000000e+00 0.000000e+00 0.000000e+00
 0.000000e+00 0.000000e+00 0.000000e+00 0.000000e+00 0.000000e+00 0.000000e+00 0.000000e+00 8.470446e-01 1.529554e-01 0.000000e+00 0.000000e+00 0.000000e+00 0.000000e+00 0.000000e+00 0.000000e+00 0.000000e+00 0.000000e+00 0.000000e+00 0.000000e+00 0.000000e+00
 0.000000e+00 0.000000e+00 0.000000e+00 0.000000e+00 0.000000e+00 0.000000e+00 0.000000e+00 0.000000e+00 7.928788e-01 2.071212e-01 0.000000e+00 0.000000e+00 0.000000e+00 0.000000e+00 0.000000e+00 0.000000e+00 0.000000e+00 0.000000e+00 0.000000e+00 0.000000e+00
 0.000000e+00 0.000000e+00 0.000000e+00 0.000000e+00 0.000000e+00 0.000000e+00 0.000000e+00 0.000000e+00 0.000000e+00 6.569582e-01 3.430418e-01 0.000000e+00 0.000000e+00 0.000000e+00 0.000000e+00 0.000000e+00 0.000000e+00 0.000000e+00 0.000000e+00 0.000000e+00
 0.000000e+00 0.000000e+00 0.000000e+00 0.000000e+00 0.000000e+00 0.000000e+00 0.000000e+00 0.000000e+00 0.000000e+00 0.000000e+00 7.687695e-01 2.312305e-01 0.000000e+00 0.000000e+00 0.000000e+00 0.000000e+00 0.000000e+00 0.000000e+00 0.000000e+00 0.000000e+00
 0.000000e+00 0.000000e+00 0.000000e+00 0.000000e+00 0.000000e+00 0.000000e+00 0.000000e+00 0.000000e+00 0.000000e+00 0.000000e+00 0.000000e+00 7.007778e-01 2.992222e-01 0.000000e+00 0.000000e+00 0.000000e+00 0.000000e+00 0.000000e+00 0.000000e+00 0.000000e+00
 0.000000e+00 0.000000e+00 0.000000e+00 0.000000e+00 0.000000e+00 0.000000e+00 0.000000e+00 0.000000e+00 0.000000e+00 0.000000e+00 0.000000e+00 0.000000e+00 7.673144e-01 2.326856e-01 0.000000e+00 0.000000e+00 0.000000e+00 0.000000e+00 0.000000e+00 0.000000e+00
 0.000000e+00 0.000000e+00 0.000000e+00 0.000000e+00 0.000000e+00 0.000000e+00 0.000000e+00 0.000000e+00 0.000000e+00 0.000000e+00 0.000000e+00 0.000000e+00 0.000000e+00 7.782109e-01 2.217891e-01 0.000000e+00 0.000000e+00 0.000000e+00 0.000000e+00 0.000000e+00
 0.000000e+00 0.000000e+00 0.000000e+00 0.000000e+00 0.000000e+00 0.000000e+00 0.000000e+00 0.000000e+00 0.000000e+00 0.000000e+00 0.000000e+00 0.000000e+00 0.000000e+00 0.000000e+00 7.620279e-01 2.379721e-01 0.000000e+00 0.000000e+00 0.000000e+00 0.000000e+00
 0.000000e+00 0.000000e+00 0.000000e+00 0.000000e+00 0.000000e+00 0.000000e+00 0.000000e+00 0.000000e+00 0.000000e+00 0.000000e+00 0.000000e+00 0.000000e+00 0.000000e+00 0.000000e+00 0.000000e+00 8.274227e-01 1.725773e-01 0.000000e+00 0.000000e+00 0.000000e+00
 0.000000e+00 0.000000e+00 0.000000e+00 0.000000e+00 0.000000e+00 0.000000e+00 0.000000e+00 0.000000e+00 0.000000e+00 0.000000e+00 0.000000e+00 0.000000e+00 0.000000e+00 0.000000e+00 0.000000e+00 0.000000e+00 8.232076e-01 1.767925e-01 0.000000e+00 0.000000e+00
 0.000000e+00 0.000000e+00 0.000000e+00 0.000000e+00 0.000000e+00 0.000000e+00 0.000000e+00 0.000000e+00 0.000000e+00 0.000000e+00 0.000000e+00 0.000000e+00 0.000000e+00 0.000000e+00 0.000000e+00 0.000000e+00 0.000000e+00 8.343479e-01 1.656521e-01 0.000000e+00
 0.000000e+00 0.000000e+00 0.000000e+00 0.000000e+00 0.000000e+00 0.000000e+00 0.000000e+00 0.000000e+00 0.000000e+00 0.000000e+00 0.000000e+00 0.000000e+00 0.000000e+00 0.000000e+00 0.000000e+00 0.000000e+00 0.000000e+00 0.000000e+00 8.126557e-01 1.873443e-01
 0.000000e+00 0.000000e+00 0.000000e+00 0.000000e+00 0.000000e+00 0.000000e+00 0.000000e+00 0.000000e+00 0.000000e+00 0.000000e+00 0.000000e+00 0.000000e+00 0.000000e+00 0.000000e+00 0.000000e+00 0.000000e+00 0.000000e+00 0.000000e+00 0.000000e+00 0.000000e+00
<ENDHMM>
