~o
<STREAMINFO> 1 39
<VECSIZE> 39<NULLD><MFCC_D_A_0><DIAGC>
~h "sembilan"
<BEGINHMM>
<NUMSTATES> 5
<STATE> 2
<MEAN> 39
 -1.887446e+01 3.735654e+00 -6.684528e+00 -1.202422e+00 -3.449448e-01 -1.084408e+01 2.885239e+00 -1.160798e+01 3.503955e+00 -8.459011e+00 7.729911e-01 -5.799920e+00 6.219568e+01 6.886252e-01 7.886181e-01 -5.665351e-02 5.967561e-02 -8.998092e-02 -5.466197e-01 -4.757343e-01 -6.794728e-01 -2.481556e-02 1.608994e-02 1.508590e-01 -6.087037e-02 7.111943e-01 7.141028e-02 -1.948291e-02 5.395204e-02 9.734241e-03 2.582975e-02 6.080436e-02 -3.112940e-02 -5.003494e-03 -8.339586e-02 4.336549e-03 5.293320e-02 5.382893e-03 -9.774760e-03
<VARIANCE> 39
 7.619643e+01 6.224763e+01 4.594505e+01 2.736443e+01 4.257492e+01 4.436146e+01 6.897576e+01 4.534178e+01 3.476140e+01 6.243609e+01 3.833483e+01 4.345049e+01 2.731385e+01 6.843931e+00 2.870211e+00 3.029413e+00 2.171160e+00 2.349669e+00 2.482657e+00 6.962855e+00 3.374789e+00 4.105044e+00 3.115689e+00 3.459526e+00 3.122344e+00 8.072945e-01 7.906141e-01 4.877204e-01 3.999416e-01 3.243554e-01 4.224361e-01 4.778467e-01 1.078309e+00 6.675510e-01 7.845418e-01 5.401397e-01 5.596102e-01 6.030205e-01 1.900138e-01
<GCONST> 1.272444e+02
<STATE> 3
<MEAN> 39
 -1.241705e+00 -2.849551e+00 6.028886e+00 -5.444996e+00 -8.241051e+00 -1.286587e+01 -7.153311e+00 -7.759855e+00 -6.490728e+00 -4.630016e+00 -8.796716e-01 -5.855248e+00 7.078636e+01 6.474479e-02 -1.952506e-01 1.963988e-01 1.401768e-02 -5.857509e-02 1.146872e-01 3.159371e-02 2.429871e-01 -8.118282e-02 -1.939080e-01 -2.716739e-01 3.752749e-02 -7.896483e-02 -4.235831e-02 3.558826e-02 -1.571012e-02 1.482444e-02 1.610623e-02 -9.976465e-03 1.345787e-02 -4.775408e-03 3.142540e-02 -1.955069e-02 -2.219687e-02 -1.461666e-02 -1.653126e-02
<VARIANCE> 39
 7.246840e+00 7.968095e+01 1.539909e+02 3.754657e+01 1.265103e+02 8.330864e+01 4.642048e+01 1.251495e+02 1.373295e+02 8.901296e+01 1.317324e+02 5.142206e+01 1.551270e+01 3.919539e-01 2.350393e+00 4.183888e+00 2.076337e+00 4.362494e+00 2.817392e+00 2.703795e+00 3.745924e+00 4.384110e+00 3.893305e+00 3.220925e+00 2.763457e+00 6.883294e-01 5.200483e-02 2.334720e-01 3.215207e-01 2.942028e-01 5.273094e-01 4.341939e-01 4.365127e-01 5.875287e-01 5.125283e-01 5.950770e-01 5.551708e-01 4.144043e-01 7.473350e-02
<GCONST> 1.223010e+02
<STATE> 4
<MEAN> 39
 -1.145130e+01 -2.291034e-01 2.958146e+00 -2.168200e-01 3.602175e+00 -2.381337e+00 5.411022e-01 -8.053354e+00 -4.364738e+00 -1.314247e+01 -4.454883e+00 -7.523033e+00 5.921275e+01 -5.906228e-01 -2.608804e-01 -1.922949e-01 6.907417e-02 3.714350e-01 4.422861e-01 4.308798e-01 9.061593e-02 2.452715e-02 1.249771e-01 1.548375e-01 -1.350988e-01 -3.740165e-01 6.194725e-03 -6.065452e-02 -3.239324e-02 -2.895220e-02 -2.807084e-02 1.692561e-02 1.406484e-02 3.222690e-02 3.153269e-03 4.054365e-02 -1.207218e-03 -2.491693e-03 2.421745e-02
<VARIANCE> 39
 3.288180e+01 2.319435e+01 1.701249e+01 2.371614e+01 4.281031e+01 4.981431e+01 4.557087e+01 4.112698e+01 6.074585e+01 4.506267e+01 3.421930e+01 2.717752e+01 1.022240e+01 1.952285e-01 6.411113e-01 5.854315e-01 7.246510e-01 1.264758e+00 1.537358e+00 1.493229e+00 1.994762e+00 2.260163e+00 2.001934e+00 1.586145e+00 1.630953e+00 1.170474e-01 2.708988e-02 7.475270e-02 1.101173e-01 1.338586e-01 1.845814e-01 2.420710e-01 2.413528e-01 3.361777e-01 4.071674e-01 3.582191e-01 2.863041e-01 3.014820e-01 8.071039e-03
<GCONST> 9.049181e+01
<TRANSP> 5
 0.000000e+00 1.000000e+00 0.000000e+00 0.000000e+00 0.000000e+00
 0.000000e+00 9.490413e-01 5.095870e-02 0.000000e+00 0.000000e+00
 0.000000e+00 0.000000e+00 9.765543e-01 2.344574e-02 0.000000e+00
 0.000000e+00 0.000000e+00 0.000000e+00 9.667313e-01 3.326877e-02
 0.000000e+00 0.000000e+00 0.000000e+00 0.000000e+00 0.000000e+00
<ENDHMM>
