~o
<STREAMINFO> 1 39
<VECSIZE> 39<NULLD><MFCC_D_A_0><DIAGC>
~h "empat"
<BEGINHMM>
<NUMSTATES> 20
<STATE> 2
<MEAN> 39
 -1.715611e+01 -6.274300e+00 -2.789371e+00 -5.162240e+00 1.391002e+00 -2.486772e+00 -1.873989e-02 -7.100775e+00 -2.987405e-01 -6.274231e+00 7.952932e-01 -6.043589e+00 5.682410e+01 2.048873e+00 6.525429e-01 2.705659e-01 -5.916917e-01 -3.829654e-02 6.442108e-01 -1.113745e+00 -1.622234e+00 -4.868025e-01 2.190691e-01 -2.019391e-02 -2.158994e-01 1.433240e+00 9.087837e-01 2.231320e-01 8.460221e-02 -3.499187e-01 -2.338942e-01 1.767868e-01 -2.973841e-01 -6.099886e-01 -1.632475e-01 2.872746e-01 -9.149845e-02 -2.615369e-01 6.296539e-01
<VARIANCE> 39
 3.647097e+00 6.016339e+00 5.794631e+00 1.084382e+01 1.047765e+01 1.240251e+01 1.629282e+01 1.492312e+01 1.893853e+01 1.368853e+01 9.278947e+00 9.542335e+00 1.622541e+00 2.818640e+00 1.818169e+00 1.253278e+00 4.465343e+00 3.515245e+00 3.473569e+00 5.183145e+00 7.094005e+00 6.306557e+00 3.817021e+00 1.092385e+00 2.956196e+00 1.627488e+00 1.646424e-01 3.593846e-01 2.196476e-01 4.731605e-01 6.482869e-01 7.195978e-01 6.782131e-01 8.409933e-01 6.146836e-01 4.844359e-01 2.171215e-01 3.626938e-01 1.374105e-01
<GCONST> 1.019426e+02
<STATE> 3
<MEAN> 39
 -3.025707e+00 -5.345606e+00 -1.949768e+00 -1.192711e+01 -4.664072e-01 3.547210e+00 -5.271456e+00 -1.512366e+01 -1.622012e-01 5.729525e-01 1.342975e+00 -9.525571e+00 6.820948e+01 3.135196e+00 8.550577e-01 3.156864e-01 -5.940541e-01 -1.685103e-01 8.068495e-01 -1.059557e+00 -2.100989e+00 -1.079856e+00 6.764776e-01 6.678804e-01 3.256126e-01 2.103410e+00 -6.120049e-01 1.540903e-01 -6.313242e-02 4.758927e-01 5.138841e-02 -3.982028e-01 3.929121e-01 3.851365e-01 -2.359226e-01 -4.602337e-01 2.368992e-01 6.411613e-01 -6.196511e-01
<VARIANCE> 39
 2.419835e+01 3.426149e+01 3.178865e+01 9.399390e+01 1.224173e+02 1.238830e+02 7.642809e+01 1.403119e+02 7.567921e+01 6.832528e+01 1.921536e+01 3.402799e+01 3.467878e+01 2.158522e+00 2.290845e+00 1.395637e+00 3.508097e+00 4.942886e+00 6.773717e+00 3.619573e+00 8.833547e+00 5.001159e+00 5.835602e+00 3.693246e+00 6.472901e+00 2.333594e+00 2.693503e-01 4.860421e-01 3.104940e-01 6.438809e-01 7.962388e-01 1.154472e+00 5.666457e-01 1.212403e+00 6.971989e-01 5.765451e-01 4.908307e-01 4.666983e-01 2.875827e-01
<GCONST> 1.337105e+02
<STATE> 4
<MEAN> 39
 -1.668479e-01 1.391398e+00 -2.346280e+00 -5.639717e+00 3.259549e+00 -2.171774e+00 -1.151799e+01 -2.510740e+01 -1.205448e+01 -9.867475e+00 5.280070e-01 -5.069283e+00 6.660611e+01 7.421065e-01 7.013724e-01 -7.578250e-02 9.083267e-02 7.452997e-02 4.048329e-02 -5.889412e-02 -6.318746e-01 -5.566045e-01 -7.926171e-02 6.071169e-01 6.600889e-01 2.268519e-01 -5.705100e-01 -1.721138e-01 1.835119e-01 1.621935e-01 -3.114700e-02 -8.483514e-02 3.069396e-01 5.578741e-01 3.906152e-01 7.822075e-02 3.899599e-02 -9.944750e-02 -3.505971e-01
<VARIANCE> 39
 7.730836e+00 1.272398e+01 1.429176e+01 2.385473e+01 3.767730e+01 3.112464e+01 4.839533e+01 5.394554e+01 5.138666e+01 7.525823e+01 3.952392e+01 7.884731e+01 8.978063e+00 8.099123e-01 1.114889e+00 8.983130e-01 9.842666e-01 1.500260e+00 2.000664e+00 1.543332e+00 2.119695e+00 2.054667e+00 1.202900e+00 2.336690e+00 2.328758e+00 4.862070e-01 8.625665e-02 1.365728e-01 1.595709e-01 1.684776e-01 2.097900e-01 2.671661e-01 3.313229e-01 3.521470e-01 4.505110e-01 4.181580e-01 5.151445e-01 5.733148e-01 2.410355e-02
<GCONST> 9.976676e+01
<STATE> 5
<MEAN> 39
 1.463438e+00 1.280837e+00 1.169080e-01 -8.742501e+00 -2.446048e+00 1.448231e+00 -1.553716e+00 -1.636231e+01 -6.455792e+00 -2.796859e+00 7.434620e+00 -2.870550e+00 6.834508e+01 -4.942039e-01 1.051504e+00 7.994814e-01 1.323902e+00 6.250630e-01 -9.919281e-01 -1.649679e-01 2.879941e-01 -7.370143e-01 -1.457246e+00 -4.685902e-01 7.669531e-02 -7.682968e-01 -1.446111e-01 -1.432187e-01 1.457139e-02 -5.464636e-03 1.520493e-01 1.230055e-01 -1.322843e-01 -1.768819e-02 1.352782e-01 -2.598220e-02 -3.997757e-01 -2.762316e-01 -1.925166e-02
<VARIANCE> 39
 3.766596e+00 2.025461e+01 1.431693e+01 2.771113e+01 7.386636e+01 4.303923e+01 5.212188e+01 5.822467e+01 2.970084e+01 4.278959e+01 1.546196e+01 2.154497e+01 6.869622e+00 1.144161e-01 4.218099e-01 4.898424e-01 5.220682e-01 1.357779e+00 1.157933e+00 1.719392e+00 1.452112e+00 1.289513e+00 1.818100e+00 1.269545e+00 1.973385e+00 9.099297e-02 3.698698e-02 5.414252e-02 7.180134e-02 1.527336e-01 1.802198e-01 1.611526e-01 2.162426e-01 1.570939e-01 1.761076e-01 3.288324e-01 1.618481e-01 2.895402e-01 1.768161e-02
<GCONST> 8.171449e+01
<STATE> 6
<MEAN> 39
 -2.249745e+00 6.616367e+00 5.241965e+00 -6.347924e-01 3.752898e+00 -3.730323e+00 -6.731633e+00 -1.840984e+01 -9.497715e+00 -8.670019e+00 3.230004e+00 -1.714385e+00 6.397555e+01 -9.194654e-01 -6.149313e-02 4.840176e-01 4.804005e-01 -5.902142e-02 -4.328122e-01 -1.652708e-01 4.889086e-02 -1.172935e-01 -4.545906e-01 -5.765591e-01 -4.165836e-01 -6.091757e-01 -1.835513e-01 -2.353501e-01 -2.026790e-01 -1.486392e-01 -1.250335e-01 2.128293e-02 2.325224e-01 1.749016e-01 4.517037e-02 5.334077e-02 1.254804e-01 1.711736e-02 -5.316461e-02
<VARIANCE> 39
 4.738827e+00 8.810603e+00 2.161317e+01 1.376468e+01 1.302159e+01 1.432042e+01 1.861983e+01 4.531753e+01 4.302302e+01 2.986297e+01 2.609071e+01 4.753094e+01 2.233862e+00 3.715311e-01 4.514946e-01 5.668765e-01 5.318165e-01 9.232985e-01 1.237274e+00 1.602620e+00 1.616277e+00 1.371577e+00 1.349649e+00 1.062401e+00 1.427507e+00 1.124729e-01 1.591428e-02 4.400472e-02 9.117145e-02 5.426324e-02 1.661106e-01 1.845127e-01 2.400509e-01 1.483404e-01 1.876596e-01 2.318086e-01 2.307562e-01 3.228267e-01 6.228022e-03
<GCONST> 7.489944e+01
<STATE> 7
<MEAN> 39
 -8.368693e+00 2.214586e+00 3.216158e+00 -8.911959e-01 3.120963e+00 -4.313879e+00 -5.152021e+00 -1.637214e+01 -9.391269e+00 -1.106868e+01 -1.027411e+00 -6.622031e+00 6.081380e+01 -1.094622e+00 -6.898024e-01 -2.974502e-01 -6.132361e-02 -1.164618e-01 -8.858799e-02 1.004842e+00 1.285442e+00 5.206885e-01 -2.790853e-01 -6.137415e-01 -1.381681e-01 -5.493480e-01 2.412919e-01 -3.798169e-03 -1.543431e-01 -1.044736e-01 -7.362569e-03 -3.033550e-03 -8.570764e-02 -2.156391e-02 1.271705e-01 1.251746e-01 8.586020e-02 5.586996e-02 1.931482e-01
<VARIANCE> 39
 5.991946e+00 4.541630e+00 9.533175e+00 1.188183e+01 1.065259e+01 1.062024e+01 1.625278e+01 3.281865e+01 2.248807e+01 1.417724e+01 2.263867e+01 3.262913e+01 1.601560e+00 1.861028e-01 4.101863e-01 7.591163e-01 4.463156e-01 4.680489e-01 7.893438e-01 8.909788e-01 1.513762e+00 1.034178e+00 9.596328e-01 1.797822e+00 1.735821e+00 5.069273e-02 5.527411e-02 7.474221e-02 1.945205e-01 1.317449e-01 1.668705e-01 2.472077e-01 1.683536e-01 3.605282e-01 2.375593e-01 2.455072e-01 3.316410e-01 2.764283e-01 2.888483e-02
<GCONST> 7.343704e+01
<STATE> 8
<MEAN> 39
 -1.079744e+01 8.711449e-01 2.897434e+00 -6.499729e-01 3.067156e+00 -4.626984e+00 -2.350591e+00 -1.261872e+01 -7.273855e+00 -1.271620e+01 -3.053360e+00 -6.153942e+00 5.974499e+01 3.459041e-01 -1.065941e+00 -1.700107e+00 -9.289166e-01 -4.013143e-01 -5.657929e-02 4.349562e-01 1.951315e-01 1.094493e+00 1.051531e+00 6.379009e-01 -8.566868e-02 7.422077e-01 1.184735e+00 -4.728655e-01 -1.293470e+00 -1.266421e+00 -2.524005e-01 7.682465e-01 -2.346553e-01 -7.192314e-01 2.345665e-01 8.497502e-01 2.241580e-01 -5.913003e-01 9.094805e-01
<VARIANCE> 39
 4.876535e+00 6.097390e+00 8.381912e+00 1.201871e+01 1.573034e+01 9.316284e+00 2.560865e+01 2.530771e+01 1.148943e+01 2.358705e+01 2.756569e+01 2.457773e+01 1.138757e+00 1.124293e+00 7.579207e-01 2.222084e+00 2.167583e+00 1.731763e+00 2.626548e+00 1.780710e+00 3.265935e+00 1.280548e+00 2.378991e+00 2.004168e+00 1.072186e+00 6.067328e-01 9.648781e-02 1.707788e-01 3.343551e-01 2.987392e-01 3.702709e-01 3.036013e-01 9.795974e-01 4.938742e-01 2.063712e-01 5.446883e-01 4.975043e-01 4.374804e-01 5.907133e-02
<GCONST> 9.359995e+01
<STATE> 9
<MEAN> 39
 -6.436218e+00 -2.446187e+00 -5.955989e+00 -7.085567e+00 1.575310e-01 -4.624352e+00 -2.386330e+00 -1.361182e+01 -4.969514e+00 -7.076180e+00 7.056711e-01 -8.016998e+00 6.396162e+01 3.668096e+00 -2.209786e+00 -4.769851e+00 -4.562214e+00 -7.139180e-01 2.995044e+00 -4.321908e-01 -1.376993e+00 1.953246e+00 2.803923e+00 -1.167734e-01 -2.419418e+00 3.065555e+00 4.495417e-01 -4.706016e-01 1.571912e-02 -2.592635e-01 2.175375e-01 6.911052e-01 -3.567266e-01 -5.886741e-02 4.755621e-01 1.549908e-01 -6.113567e-01 -5.146559e-01 4.899155e-01
<VARIANCE> 39
 1.935802e+01 8.492180e+00 3.352322e+01 3.883282e+01 3.122789e+01 3.467305e+01 2.483430e+01 3.000847e+01 2.872517e+01 2.941788e+01 2.062140e+01 1.821631e+01 8.128119e+00 8.850700e-01 2.287694e+00 3.917479e+00 2.241874e+00 4.011841e+00 3.408278e+00 9.170645e+00 3.048852e+00 3.016476e+00 6.448993e+00 3.618838e+00 2.991235e+00 1.017912e+00 4.319205e-01 2.150984e-01 1.053792e+00 8.855202e-01 8.226157e-01 5.916665e-01 6.029325e-01 5.493431e-01 6.033537e-01 6.894829e-01 5.061343e-01 5.054126e-01 1.961251e-01
<GCONST> 1.183675e+02
<STATE> 10
<MEAN> 39
 3.196369e+00 -9.580558e+00 -1.625540e+01 -1.866577e+01 -1.266629e+00 6.987461e+00 -3.603500e+00 -1.890591e+01 1.639041e+00 1.061051e+00 -2.967221e+00 -1.506099e+01 7.225084e+01 1.700057e+00 -2.733272e+00 -1.212109e+00 -1.101310e+00 1.633921e-01 1.869474e+00 -8.672353e-01 7.259933e-02 2.581086e+00 1.519254e+00 -2.026905e+00 -1.808140e+00 2.334440e+00 -1.098984e+00 1.693977e-01 1.531506e+00 1.771551e+00 2.140164e-01 -1.173028e+00 -5.569372e-02 7.985615e-01 -3.178151e-01 -1.166538e+00 -4.479895e-01 7.558536e-01 -5.919448e-01
<VARIANCE> 39
 1.860192e+00 2.046999e+01 5.739518e+01 1.597669e+01 4.777927e+01 4.177219e+01 7.334652e+01 5.676148e+01 4.078912e+01 7.505113e+01 3.662438e+01 3.711301e+01 7.521046e+00 1.867880e+00 1.998471e+00 7.218997e+00 6.926206e+00 4.626349e+00 4.799819e+00 3.577687e+00 5.689308e+00 3.127447e+00 6.994422e+00 2.443519e+00 2.941997e+00 1.273084e+00 7.857735e-02 2.724572e-01 3.166606e-01 2.423566e-01 2.701620e-01 3.125797e-01 1.098667e+00 4.636734e-01 8.638416e-01 7.276327e-01 5.734566e-01 3.543614e-01 6.558789e-02
<GCONST> 1.176324e+02
<STATE> 11
<MEAN> 39
 1.897904e+00 -1.755105e+01 -7.051425e+00 -1.530974e+01 7.587053e-01 6.681480e+00 -8.416714e+00 -8.492895e+00 6.505866e+00 -1.520315e+00 -7.541616e+00 -1.723106e+01 7.739539e+01 -3.419057e-01 -1.397987e+00 7.429175e-01 1.103354e+00 -2.550032e-01 -1.678151e+00 -2.489465e-01 1.115211e+00 -1.067090e-01 -9.293089e-01 -1.567823e+00 5.964974e-01 6.860272e-01 -2.663173e-01 6.783579e-01 -4.719634e-02 3.222743e-01 -1.702897e-01 -7.007751e-01 2.983348e-01 -1.899488e-01 -5.423295e-01 -3.951258e-01 4.908732e-01 6.578053e-01 -5.375429e-01
<VARIANCE> 39
 3.509581e+00 3.060264e+01 1.487184e+02 6.729270e+00 5.672676e+01 5.522366e+01 8.020752e+01 1.957718e+02 6.265508e+01 8.486747e+01 3.888853e+01 3.925918e+01 1.809775e+01 1.234560e-01 1.368136e+00 1.564696e+00 2.855237e+00 5.820168e-01 2.583925e+00 2.016931e+00 2.493335e+00 4.877182e+00 2.580774e+00 1.655460e+00 9.183269e-01 3.548966e-01 1.214229e-01 2.716487e-01 4.233525e-01 2.734306e-01 3.097095e-01 4.281319e-01 4.038586e-01 7.176260e-01 5.757805e-01 8.303623e-01 2.863597e-01 5.083271e-01 9.718341e-02
<GCONST> 1.096131e+02
<STATE> 12
<MEAN> 39
 1.300522e+00 -1.577383e+01 -1.643797e+01 -8.168088e+00 -1.782622e+00 -2.841579e+00 -3.635135e+00 -1.226932e+01 4.633355e+00 -8.765823e+00 -1.151763e+01 -8.232527e+00 7.458234e+01 -3.175907e-01 -6.680146e-02 4.317342e-01 7.501071e-01 -6.888255e-01 -1.699636e+00 1.056911e-01 1.473021e+00 1.111668e-01 -1.485961e+00 -1.708436e-01 1.312724e+00 -1.832444e-01 -4.826688e-02 4.342821e-01 1.292550e-01 -2.414993e-01 -2.623961e-02 5.629029e-02 -9.003025e-02 -1.175695e-01 -1.030372e-01 2.054953e-01 2.219705e-01 -1.458996e-01 -2.987192e-01
<VARIANCE> 39
 4.041372e+00 1.539587e+01 4.713644e+01 4.071255e+01 9.319629e+01 6.807112e+01 3.562751e+01 7.102280e+01 2.800397e+01 1.022101e+02 3.790044e+01 5.938415e+01 6.120788e+00 1.501749e-01 1.208686e+00 6.588715e-01 1.064156e+00 1.388839e+00 8.891842e-01 1.007597e+00 1.370393e+00 1.253712e+00 1.985962e+00 1.193658e+00 1.270174e+00 3.333296e-01 4.561318e-02 9.264259e-02 1.059680e-01 2.293978e-01 3.464017e-01 2.653937e-01 2.162009e-01 3.302777e-01 3.813885e-01 4.266467e-01 1.787828e-01 2.395172e-01 1.926827e-02
<GCONST> 9.302558e+01
<STATE> 13
<MEAN> 39
 -9.594368e-01 -1.362356e+01 -5.758841e+00 -9.147922e+00 -3.300695e+00 -6.708419e+00 -7.693036e+00 -5.122589e+00 4.022771e+00 -8.687108e+00 -8.925754e+00 -9.988807e+00 7.294558e+01 -8.052287e-01 1.828736e+00 7.498657e-01 9.105472e-01 3.664628e-01 3.846727e-02 3.540641e-01 -3.606124e-01 -4.092875e-01 -3.095218e-01 1.056213e-01 -3.717266e-01 -1.734439e+00 -1.711850e-01 -3.821054e-02 -1.057750e-02 -8.047356e-02 2.471536e-01 6.416991e-01 4.132157e-01 -8.302416e-02 -2.889068e-01 -6.304870e-04 6.159739e-02 -2.251746e-01 -9.850106e-02
<VARIANCE> 39
 7.852274e+00 9.811273e+00 7.743867e+01 2.417772e+01 5.492014e+01 4.876406e+01 5.183975e+01 6.338190e+01 4.745549e+01 3.701125e+01 6.148487e+01 4.236540e+01 8.746576e+00 3.005390e-01 7.582368e-01 1.362874e+00 1.184366e+00 2.327542e+00 1.653128e+00 1.854285e+00 2.643791e+00 1.936391e+00 2.490259e+00 1.054721e+00 1.335518e+00 1.678056e-01 7.663559e-02 2.063874e-01 1.640351e-01 1.858038e-01 2.145889e-01 2.606243e-01 2.100613e-01 6.169430e-01 3.442462e-01 3.095345e-01 4.168921e-01 2.704593e-01 6.630689e-02
<GCONST> 9.941980e+01
<STATE> 14
<MEAN> 39
 -3.511806e+00 -8.408392e+00 -7.342909e+00 -6.186934e+00 -1.170161e+00 -6.546613e+00 -4.494633e+00 -6.204120e+00 1.148421e+00 -1.295421e+01 -7.463211e+00 -8.309277e+00 6.717439e+01 -1.076932e+00 1.068628e+00 5.083249e-01 -6.411959e-02 2.248519e-01 3.888658e-01 4.912240e-01 -4.181895e-01 -1.108438e+00 -2.479212e-01 7.888214e-01 -1.636855e-01 -1.354504e+00 1.362635e-02 -2.384382e-01 -2.017433e-01 -9.186072e-02 -4.997058e-02 -1.049369e-01 -7.556283e-02 6.865487e-02 2.165904e-01 1.142891e-01 -1.383987e-01 -3.022935e-02 1.705776e-01
<VARIANCE> 39
 1.980981e+00 5.036440e+00 3.958595e+01 1.350273e+01 2.210269e+01 4.959974e+01 2.574907e+01 4.037639e+01 1.964178e+01 2.529748e+01 4.854695e+01 4.497545e+01 2.573599e+00 2.821073e-01 2.487228e-01 1.252188e+00 4.515178e-01 1.176633e+00 1.290757e+00 1.840300e+00 1.106501e+00 8.634204e-01 1.376512e+00 2.373038e+00 7.725821e-01 1.141618e-01 1.936940e-02 1.769000e-02 4.214618e-02 6.447206e-02 1.730725e-01 2.055084e-01 1.367671e-01 1.827312e-01 1.870858e-01 2.516527e-01 2.333030e-01 1.923520e-01 9.526828e-03
<GCONST> 7.383224e+01
<STATE> 15
<MEAN> 39
 -5.872752e+00 -6.603443e+00 -5.636206e+00 -7.318553e+00 -2.092442e+00 -2.793539e+00 -9.759634e-01 -8.096477e+00 1.034957e+00 -1.016866e+01 -9.942402e+00 -1.150333e+01 6.470671e+01 -9.086055e-01 7.582335e-01 1.048872e-01 -1.439201e-02 4.234348e-01 -7.828659e-02 1.416862e-01 3.437212e-01 -1.153702e-01 -9.608964e-02 -1.119679e-01 -4.663058e-01 -9.805900e-01 -1.621262e-02 -1.033056e-01 4.709217e-02 7.165584e-02 2.325225e-02 -1.423490e-02 -1.374417e-02 2.569269e-02 7.858861e-02 7.703970e-02 3.778952e-02 4.346351e-02 6.618864e-02
<VARIANCE> 39
 1.740235e+00 1.111317e+01 1.624953e+01 1.031398e+01 2.399388e+01 4.623458e+01 2.193641e+01 4.095195e+01 1.060898e+01 2.317194e+01 2.485173e+01 1.509212e+01 2.759626e+00 5.971576e-02 1.628356e-01 7.783903e-01 6.973478e-01 5.975085e-01 8.474213e-01 8.503872e-01 1.670420e+00 1.113393e+00 1.204951e+00 6.099153e-01 1.044895e+00 2.958682e-02 1.949996e-02 1.930623e-02 6.131882e-02 7.437965e-02 1.031015e-01 2.027075e-01 2.110179e-01 2.593050e-01 1.823059e-01 1.764587e-01 1.169924e-01 9.476515e-02 1.089343e-02
<GCONST> 6.426222e+01
<STATE> 16
<MEAN> 39
 -9.706018e+00 -5.052177e+00 -6.106422e+00 -7.360364e+00 -6.742016e-01 -5.403923e+00 -2.278644e+00 -6.796138e+00 -7.971383e-01 -1.167044e+01 -7.273053e+00 -1.092944e+01 6.132004e+01 -8.463607e-01 4.040062e-01 4.013441e-01 1.966419e-01 3.038764e-01 3.098438e-01 4.381544e-01 4.166162e-02 -3.195397e-01 1.217668e-01 4.435966e-01 1.730910e-01 -7.160697e-01 6.371561e-02 -7.991062e-02 6.289659e-03 6.140189e-02 -3.762905e-03 -6.819981e-02 9.068178e-03 -4.998642e-03 5.954102e-02 9.798339e-03 5.627842e-02 1.789841e-01 5.539620e-02
<VARIANCE> 39
 1.569047e+00 5.865231e+00 9.926303e+00 8.028797e+00 1.205905e+01 2.721699e+01 1.810505e+01 1.318968e+01 1.477822e+01 1.519112e+01 2.559302e+01 3.868509e+01 1.073205e+00 8.710758e-02 1.675579e-01 4.943497e-01 5.541165e-01 7.522982e-01 1.424780e+00 1.748305e+00 1.760698e+00 1.058067e+00 6.936393e-01 9.856786e-01 7.760731e-01 2.649316e-02 1.230163e-02 3.074350e-02 5.436653e-02 9.246992e-02 1.005564e-01 1.616044e-01 1.903248e-01 1.872656e-01 2.191156e-01 8.390599e-02 1.086966e-01 1.458157e-01 3.236275e-03
<GCONST> 5.888915e+01
<STATE> 17
<MEAN> 39
 -1.293523e+01 -4.508864e+00 -3.844021e+00 -5.149044e+00 1.728370e+00 -5.352477e+00 3.257411e-01 -4.405569e+00 -2.513919e-01 -1.043532e+01 -5.078743e+00 -9.918578e+00 5.876283e+01 -6.933697e-01 -3.198301e-02 4.726934e-01 4.340009e-01 7.429069e-02 -2.205672e-01 1.150677e-01 3.629422e-01 2.180661e-01 3.671663e-01 4.173558e-01 2.757764e-01 -4.997152e-01 -2.736951e-02 -6.648951e-02 -4.321944e-02 -7.682139e-02 -1.301147e-01 8.985722e-02 -3.105988e-02 -9.157921e-04 -1.031435e-01 -1.061503e-01 -1.117120e-01 -2.888731e-02 2.115882e-02
<VARIANCE> 39
 2.404546e+00 4.104020e+00 9.844560e+00 1.045619e+01 8.686134e+00 1.014974e+01 1.813045e+01 2.357145e+01 1.465923e+01 1.382211e+01 2.675209e+01 4.113487e+01 7.750804e-01 6.239290e-02 1.050246e-01 4.401908e-01 7.569841e-01 5.895646e-01 6.110634e-01 7.807837e-01 6.841117e-01 1.157671e+00 8.914119e-01 9.007915e-01 9.572065e-01 2.292794e-02 1.360530e-02 3.559989e-02 5.412085e-02 1.507604e-01 1.167945e-01 1.391341e-01 1.425599e-01 1.273370e-01 2.388058e-01 1.961271e-01 1.960122e-01 1.495666e-01 3.295396e-03
<GCONST> 5.665467e+01
<STATE> 18
<MEAN> 39
 -1.486769e+01 -4.883909e+00 -3.884166e+00 -4.910229e+00 -4.798394e-01 -4.201901e+00 2.622243e+00 -6.186562e+00 -3.781748e+00 -1.171977e+01 -3.354439e+00 -4.961689e+00 5.739973e+01 -8.042520e-01 -5.113660e-01 2.906744e-01 4.365530e-01 -2.561358e-01 4.630605e-01 1.537422e+00 7.815090e-01 -7.877081e-01 -7.434978e-01 2.349553e-01 3.457860e-01 -3.477674e-01 -1.845598e-03 2.700112e-02 1.404171e-01 1.370050e-01 1.005294e-01 2.814172e-02 1.665750e-01 1.565421e-01 5.015144e-02 -1.043774e-01 -1.351552e-02 -3.537466e-02 2.876472e-02
<VARIANCE> 39
 2.430192e+00 8.188073e+00 1.015267e+01 3.528044e+01 2.252801e+01 1.725345e+01 9.249571e+01 5.062204e+01 4.749124e+01 2.507377e+01 4.394375e+01 2.638930e+01 5.392205e-01 1.338163e-01 6.157165e-01 5.511559e-01 1.940781e+00 1.705540e+00 1.753782e+00 2.716598e+00 1.408016e+00 3.122320e+00 1.344059e+00 1.241870e+00 8.691811e-01 9.115834e-02 1.515511e-02 1.380307e-01 1.021999e-01 2.647828e-01 2.761115e-01 2.045199e-01 4.890899e-01 2.832285e-01 6.806734e-01 3.314523e-01 3.288427e-01 1.507114e-01 2.003865e-02
<GCONST> 8.457397e+01
<STATE> 19
<MEAN> 39
 -1.761254e+01 -4.788979e+00 -4.365667e-01 -1.485895e+00 1.112442e+00 -4.978688e+00 3.867333e+00 -2.841263e+00 -2.861138e+00 -1.252511e+01 -4.025236e+00 -7.689209e+00 5.594383e+01 -6.075377e-01 6.652446e-03 6.433606e-01 4.664252e-01 2.501397e-01 1.179569e-01 4.524519e-01 4.647661e-01 1.692313e-01 1.493599e-01 7.286018e-01 7.971858e-01 -3.597980e-01 1.068761e-01 -2.916174e-02 -2.252573e-02 5.329869e-02 1.443273e-01 1.600620e-01 3.133639e-02 2.384243e-02 1.201438e-01 2.338842e-01 1.216957e-01 1.806461e-01 5.884318e-02
<VARIANCE> 39
 2.865986e+00 2.822014e+00 1.246844e+01 3.396456e+01 1.652008e+01 1.474720e+01 9.785890e+01 4.080830e+01 1.686794e+01 2.090292e+01 3.436169e+01 2.969581e+01 9.923872e-01 2.531555e-01 1.891488e-01 3.656482e-01 6.821881e-01 6.444349e-01 1.221513e+00 7.808612e-01 9.642158e-01 1.033539e+00 2.329232e+00 1.979768e+00 8.506098e-01 8.708697e-02 3.335367e-02 4.377393e-02 6.777224e-02 1.586582e-01 1.638123e-01 2.795265e-01 2.701918e-01 2.421722e-01 2.207961e-01 4.044635e-01 3.590291e-01 1.706120e-01 8.598467e-03
<GCONST> 7.356106e+01
<TRANSP> 20
 0.000000e+00 1.000000e+00 0.000000e+00 0.000000e+00 0.000000e+00 0.000000e+00 0.000000e+00 0.000000e+00 0.000000e+00 0.000000e+00 0.000000e+00 0.000000e+00 0.000000e+00 0.000000e+00 0.000000e+00 0.000000e+00 0.000000e+00 0.000000e+00 0.000000e+00 0.000000e+00
 0.000000e+00 7.068250e-01 2.931750e-01 0.000000e+00 0.000000e+00 0.000000e+00 0.000000e+00 0.000000e+00 0.000000e+00 0.000000e+00 0.000000e+00 0.000000e+00 0.000000e+00 0.000000e+00 0.000000e+00 0.000000e+00 0.000000e+00 0.000000e+00 0.000000e+00 0.000000e+00
 0.000000e+00 0.000000e+00 6.765105e-01 3.234896e-01 0.000000e+00 0.000000e+00 0.000000e+00 0.000000e+00 0.000000e+00 0.000000e+00 0.000000e+00 0.000000e+00 0.000000e+00 0.000000e+00 0.000000e+00 0.000000e+00 0.000000e+00 0.000000e+00 0.000000e+00 0.000000e+00
 0.000000e+00 0.000000e+00 0.000000e+00 7.073796e-01 2.926204e-01 0.000000e+00 0.000000e+00 0.000000e+00 0.000000e+00 0.000000e+00 0.000000e+00 0.000000e+00 0.000000e+00 0.000000e+00 0.000000e+00 0.000000e+00 0.000000e+00 0.000000e+00 0.000000e+00 0.000000e+00
 0.000000e+00 0.000000e+00 0.000000e+00 0.000000e+00 7.492331e-01 2.507669e-01 0.000000e+00 0.000000e+00 0.000000e+00 0.000000e+00 0.000000e+00 0.000000e+00 0.000000e+00 0.000000e+00 0.000000e+00 0.000000e+00 0.000000e+00 0.000000e+00 0.000000e+00 0.000000e+00
 0.000000e+00 0.000000e+00 0.000000e+00 0.000000e+00 0.000000e+00 7.687082e-01 2.312918e-01 0.000000e+00 0.000000e+00 0.000000e+00 0.000000e+00 0.000000e+00 0.000000e+00 0.000000e+00 0.000000e+00 0.000000e+00 0.000000e+00 0.000000e+00 0.000000e+00 0.000000e+00
 0.000000e+00 0.000000e+00 0.000000e+00 0.000000e+00 0.000000e+00 0.000000e+00 7.744926e-01 2.255074e-01 0.000000e+00 0.000000e+00 0.000000e+00 0.000000e+00 0.000000e+00 0.000000e+00 0.000000e+00 0.000000e+00 0.000000e+00 0.000000e+00 0.000000e+00 0.000000e+00
 0.000000e+00 0.000000e+00 0.000000e+00 0.000000e+00 0.000000e+00 0.000000e+00 0.000000e+00 5.204477e-01 4.795524e-01 0.000000e+00 0.000000e+00 0.000000e+00 0.000000e+00 0.000000e+00 0.000000e+00 0.000000e+00 0.000000e+00 0.000000e+00 0.000000e+00 0.000000e+00
 0.000000e+00 0.000000e+00 0.000000e+00 0.000000e+00 0.000000e+00 0.000000e+00 0.000000e+00 0.000000e+00 5.384134e-01 4.615866e-01 0.000000e+00 0.000000e+00 0.000000e+00 0.000000e+00 0.000000e+00 0.000000e+00 0.000000e+00 0.000000e+00 0.000000e+00 0.000000e+00
 0.000000e+00 0.000000e+00 0.000000e+00 0.000000e+00 0.000000e+00 0.000000e+00 0.000000e+00 0.000000e+00 0.000000e+00 5.861467e-01 4.138533e-01 0.000000e+00 0.000000e+00 0.000000e+00 0.000000e+00 0.000000e+00 0.000000e+00 0.000000e+00 0.000000e+00 0.000000e+00
 0.000000e+00 0.000000e+00 0.000000e+00 0.000000e+00 0.000000e+00 0.000000e+00 0.000000e+00 0.000000e+00 0.000000e+00 0.000000e+00 5.887596e-01 4.112404e-01 0.000000e+00 0.000000e+00 0.000000e+00 0.000000e+00 0.000000e+00 0.000000e+00 0.000000e+00 0.000000e+00
 0.000000e+00 0.000000e+00 0.000000e+00 0.000000e+00 0.000000e+00 0.000000e+00 0.000000e+00 0.000000e+00 0.000000e+00 0.000000e+00 0.000000e+00 8.027834e-01 1.972166e-01 0.000000e+00 0.000000e+00 0.000000e+00 0.000000e+00 0.000000e+00 0.000000e+00 0.000000e+00
 0.000000e+00 0.000000e+00 0.000000e+00 0.000000e+00 0.000000e+00 0.000000e+00 0.000000e+00 0.000000e+00 0.000000e+00 0.000000e+00 0.000000e+00 0.000000e+00 6.573810e-01 3.426190e-01 0.000000e+00 0.000000e+00 0.000000e+00 0.000000e+00 0.000000e+00 0.000000e+00
 0.000000e+00 0.000000e+00 0.000000e+00 0.000000e+00 0.000000e+00 0.000000e+00 0.000000e+00 0.000000e+00 0.000000e+00 0.000000e+00 0.000000e+00 0.000000e+00 0.000000e+00 6.355245e-01 3.644755e-01 0.000000e+00 0.000000e+00 0.000000e+00 0.000000e+00 0.000000e+00
 0.000000e+00 0.000000e+00 0.000000e+00 0.000000e+00 0.000000e+00 0.000000e+00 0.000000e+00 0.000000e+00 0.000000e+00 0.000000e+00 0.000000e+00 0.000000e+00 0.000000e+00 0.000000e+00 6.843760e-01 3.156240e-01 0.000000e+00 0.000000e+00 0.000000e+00 0.000000e+00
 0.000000e+00 0.000000e+00 0.000000e+00 0.000000e+00 0.000000e+00 0.000000e+00 0.000000e+00 0.000000e+00 0.000000e+00 0.000000e+00 0.000000e+00 0.000000e+00 0.000000e+00 0.000000e+00 0.000000e+00 7.659759e-01 2.340242e-01 0.000000e+00 0.000000e+00 0.000000e+00
 0.000000e+00 0.000000e+00 0.000000e+00 0.000000e+00 0.000000e+00 0.000000e+00 0.000000e+00 0.000000e+00 0.000000e+00 0.000000e+00 0.000000e+00 0.000000e+00 0.000000e+00 0.000000e+00 0.000000e+00 0.000000e+00 7.376909e-01 2.623091e-01 0.000000e+00 0.000000e+00
 0.000000e+00 0.000000e+00 0.000000e+00 0.000000e+00 0.000000e+00 0.000000e+00 0.000000e+00 0.000000e+00 0.000000e+00 0.000000e+00 0.000000e+00 0.000000e+00 0.000000e+00 0.000000e+00 0.000000e+00 0.000000e+00 0.000000e+00 6.071219e-01 3.928781e-01 0.000000e+00
 0.000000e+00 0.000000e+00 0.000000e+00 0.000000e+00 0.000000e+00 0.000000e+00 0.000000e+00 0.000000e+00 0.000000e+00 0.000000e+00 0.000000e+00 0.000000e+00 0.000000e+00 0.000000e+00 0.000000e+00 0.000000e+00 0.000000e+00 0.000000e+00 6.794517e-01 3.205483e-01
 0.000000e+00 0.000000e+00 0.000000e+00 0.000000e+00 0.000000e+00 0.000000e+00 0.000000e+00 0.000000e+00 0.000000e+00 0.000000e+00 0.000000e+00 0.000000e+00 0.000000e+00 0.000000e+00 0.000000e+00 0.000000e+00 0.000000e+00 0.000000e+00 0.000000e+00 0.000000e+00
<ENDHMM>
