~o
<STREAMINFO> 1 39
<VECSIZE> 39<NULLD><MFCC_D_A_0><DIAGC>
~h "matikan"
<BEGINHMM>
<NUMSTATES> 20
<STATE> 2
<MEAN> 39
 -1.289843e+01 -3.409840e+00 -1.567294e+00 -5.259346e+00 -2.287069e-01 -5.377673e+00 -2.011453e+00 -1.034823e+01 -3.825180e+00 -9.120828e+00 -9.838601e-01 -6.518222e+00 5.887906e+01 3.101944e+00 1.197202e+00 -7.069517e-01 -8.921026e-01 2.700899e-01 -1.188994e-01 -1.493427e+00 -1.463026e+00 -1.203519e+00 -4.649239e-01 -6.476154e-01 -1.134112e+00 1.901258e+00 4.786436e-01 -4.076717e-01 -7.072867e-01 -3.460046e-01 2.789236e-01 9.593637e-02 -2.335788e-01 3.790593e-01 4.655770e-01 1.668262e-01 -9.496616e-02 -3.737012e-01 4.591138e-01
<VARIANCE> 39
 3.405996e+01 2.234989e+01 1.383125e+01 1.557696e+01 1.337691e+01 1.804428e+01 3.422243e+01 4.631401e+01 3.611556e+01 2.351804e+01 2.784110e+01 2.103034e+01 9.508522e+00 3.424165e+00 2.160054e+00 4.898734e+00 3.797560e+00 3.029186e+00 3.760037e+00 5.071951e+00 6.447924e+00 4.209556e+00 4.954274e+00 6.413476e+00 3.219801e+00 1.665320e+00 5.740077e-01 8.618737e-01 6.313254e-01 4.369565e-01 4.080487e-01 4.315955e-01 7.462981e-01 2.051829e+00 1.107081e+00 6.633490e-01 6.026374e-01 6.938555e-01 1.267786e-01
<GCONST> 1.227805e+02
<STATE> 3
<MEAN> 39
 1.231525e+00 -5.465675e+00 -1.243182e+01 -1.205522e+01 3.325335e+00 -3.077948e+00 -7.756909e+00 -1.007551e+01 -7.766902e-01 -7.467848e+00 -4.086177e+00 -1.325979e+01 6.943143e+01 1.692340e+00 -2.112243e+00 -1.801312e+00 -2.747963e-01 7.194264e-01 -6.092685e-01 -1.226480e+00 2.239666e+00 2.036912e+00 -6.309980e-01 -1.475566e+00 -8.172920e-01 1.961766e+00 -1.033765e+00 -6.265194e-02 1.050638e+00 8.632373e-01 -4.071345e-01 -6.570635e-01 3.859964e-01 5.513844e-01 -7.633986e-02 -4.677418e-01 -1.411240e-02 6.197003e-01 -6.519503e-01
<VARIANCE> 39
 2.474885e+00 1.346172e+01 1.350639e+01 2.081180e+01 4.140479e+01 5.298011e+01 4.092805e+01 8.623259e+01 3.760738e+01 7.664330e+01 1.307218e+02 2.893387e+01 6.654833e+00 2.164792e+00 2.052934e+00 4.192456e+00 3.217952e+00 4.179795e+00 3.200114e+00 2.102370e+00 1.083373e+01 2.941580e+00 4.326845e+00 2.885093e+00 5.583657e+00 1.025810e+00 9.575243e-02 6.472652e-01 3.168876e-01 2.651094e-01 6.204479e-01 3.185303e-01 4.056866e-01 1.047381e+00 8.285431e-01 4.333172e-01 1.288193e+00 5.867355e-01 5.827743e-02
<GCONST> 1.180635e+02
<STATE> 4
<MEAN> 39
 2.164638e+00 -1.041035e+01 -8.900523e+00 -8.250215e+00 2.535161e+00 -1.135296e+01 -1.048041e+01 2.745906e+00 2.124636e+00 -1.202756e+01 -3.884214e+00 -1.132731e+01 7.302971e+01 -3.865294e-01 5.675229e-01 9.516757e-01 9.962276e-01 -5.721776e-01 -1.292584e+00 1.193530e-02 4.798540e-01 3.832132e-02 -5.170166e-01 8.609164e-03 3.960753e-01 -5.460218e-01 -3.819994e-01 5.868967e-01 2.165676e-01 -1.704119e-02 1.419621e-01 5.212811e-01 3.082643e-01 -8.315235e-01 -3.172919e-01 3.405603e-01 2.883519e-01 -8.149592e-02 -5.638589e-01
<VARIANCE> 39
 1.211336e+00 2.660072e+01 2.386177e+01 1.844643e+01 6.471986e+01 7.395884e+01 3.217794e+01 1.322504e+02 3.051673e+01 9.932656e+01 6.407414e+01 3.897787e+01 9.768371e+00 3.616249e-01 1.641000e+00 1.027152e+00 6.443399e-01 2.016314e+00 2.079693e+00 1.789307e+00 3.516244e+00 1.631321e+00 1.919454e+00 2.341730e+00 1.784312e+00 8.930835e-01 6.928585e-02 2.162504e-01 2.894886e-01 2.185435e-01 5.329044e-01 4.101708e-01 3.414330e-01 4.210661e-01 4.556974e-01 3.070173e-01 2.293639e-01 5.620583e-01 5.351746e-02
<GCONST> 1.036173e+02
<STATE> 5
<MEAN> 39
 -3.202187e+00 -4.160477e+00 -6.069339e+00 -5.131078e+00 2.013518e+00 -8.710795e+00 -6.135275e+00 -5.045217e+00 4.329338e-01 -1.176067e+01 -5.730522e+00 -1.148431e+01 6.574540e+01 -1.346729e+00 4.692489e-01 5.777289e-01 2.505349e-01 -2.191965e-01 7.084287e-01 1.074540e+00 -4.724568e-01 -4.082829e-01 6.593467e-02 1.944258e-01 1.573978e-01 -1.148216e+00 -1.321700e-02 -2.189913e-01 -7.781353e-02 -9.911671e-02 -1.990271e-01 -8.054369e-02 2.669082e-02 1.900704e-01 -2.267532e-03 2.383092e-02 1.594178e-01 1.686793e-01 1.776675e-01
<VARIANCE> 39
 4.339498e+00 1.147162e+01 1.146907e+01 1.617175e+01 2.260151e+01 2.767606e+01 1.991318e+01 5.868934e+01 2.692066e+01 4.771618e+01 5.492223e+01 3.092533e+01 4.693121e+00 1.295393e-01 5.794198e-01 6.212596e-01 7.663735e-01 1.036587e+00 1.440354e+00 9.630226e-01 2.010452e+00 1.102803e+00 1.616756e+00 1.289662e+00 1.062899e+00 1.672860e-01 2.400449e-02 6.488495e-02 1.345019e-01 1.345130e-01 1.610009e-01 2.998064e-01 1.640160e-01 1.916753e-01 2.714746e-01 2.884966e-01 2.992276e-01 1.988065e-01 2.252857e-02
<GCONST> 8.115770e+01
<STATE> 6
<MEAN> 39
 -8.746551e+00 -3.583410e+00 -3.008054e+00 -3.579278e+00 -2.405091e+00 -1.009972e+01 -2.358791e+00 -5.753561e+00 -1.632963e+00 -1.261005e+01 -1.921778e+00 -8.382262e+00 6.309155e+01 -3.445175e-01 4.504715e-01 2.744320e+00 2.757575e-01 -2.931470e+00 -2.479234e+00 -6.392605e-01 -1.040030e+00 -1.566503e+00 2.330726e-01 2.614174e+00 1.226786e+00 6.950144e-01 5.226740e-01 2.419026e-01 1.000875e+00 -3.993735e-01 -9.009048e-01 -4.995079e-01 -8.058493e-01 -5.207476e-01 -3.847634e-01 2.857261e-01 3.776005e-01 -4.541723e-02 5.157666e-01
<VARIANCE> 39
 2.613847e+00 8.581299e+00 1.501762e+01 1.852142e+01 3.111793e+01 4.120349e+01 1.841540e+01 1.720842e+01 1.418747e+01 3.400514e+01 3.660490e+01 2.031523e+01 2.826469e+00 9.600180e-01 1.435326e+00 6.193684e+00 3.240147e+00 7.003871e+00 3.883834e+00 4.929073e+00 2.844780e+00 5.737070e+00 3.525011e+00 3.895854e+00 1.072302e+00 1.075601e+00 7.972681e-02 1.566660e-01 6.297238e-01 5.700045e-01 6.568255e-01 9.553641e-01 4.121800e-01 2.756299e-01 4.895643e-01 8.034594e-01 7.021952e-01 4.342857e-01 1.060178e-01
<GCONST> 1.085200e+02
<STATE> 7
<MEAN> 39
 -6.057609e+00 -2.885483e-01 1.559712e+01 -8.079998e+00 -1.826813e+01 -1.761151e+01 -1.135760e+01 -1.278564e+01 -9.561030e+00 -7.490580e+00 8.366051e+00 -6.291117e+00 6.884993e+01 5.015867e-01 8.181690e-01 3.192756e+00 -1.421312e+00 -1.579970e+00 5.799371e-01 -1.445496e+00 -9.839976e-01 -3.093263e-01 8.106880e-01 2.574675e-01 -4.326260e-01 5.495898e-01 -2.602102e-01 -1.299477e-01 -1.191589e+00 3.167137e-01 1.394433e+00 8.719750e-01 7.210214e-01 4.325242e-01 5.455381e-01 -4.830703e-01 -1.014315e+00 -2.969704e-01 -5.817521e-01
<VARIANCE> 39
 3.315017e+00 3.703644e+01 1.527068e+02 3.667694e+01 8.841074e+01 2.596126e+01 6.364465e+01 5.970814e+01 1.156138e+02 9.301120e+01 8.051646e+01 2.791414e+01 8.514916e+00 7.438285e-01 9.498535e-01 8.622161e+00 2.800558e+00 7.549072e+00 3.584310e+00 3.781828e+00 2.560435e+00 6.237972e+00 5.418594e+00 6.816537e+00 2.504160e+00 1.314995e+00 1.214731e-01 2.643601e-01 8.893087e-01 5.892581e-01 7.370971e-01 8.755195e-01 7.048885e-01 3.371671e-01 1.228014e+00 9.889572e-01 8.195162e-01 4.189539e-01 7.970427e-02
<GCONST> 1.259150e+02
<STATE> 8
<MEAN> 39
 -8.533427e+00 1.905316e+00 1.662314e+01 -8.382255e+00 -1.380505e+01 -1.208337e+01 -9.904076e+00 -1.537458e+01 -9.632152e+00 -8.895523e+00 4.506139e+00 -7.855009e+00 6.476670e+01 -6.950165e-01 1.365097e-01 -1.369875e+00 4.924598e-01 1.193907e+00 3.578213e-01 6.372154e-01 -3.400363e-01 -1.285771e-01 -4.642943e-01 -5.902140e-01 1.414316e-01 -1.083073e+00 -8.845761e-02 -1.747192e-01 -2.048239e-01 1.480611e-01 -6.411350e-04 -3.463103e-01 6.710702e-02 1.508156e-01 -3.205496e-02 3.879362e-02 1.094494e-01 1.803033e-01 3.230104e-02
<VARIANCE> 39
 6.520397e+00 1.982998e+01 1.009091e+02 2.916079e+01 4.776688e+01 2.368945e+01 5.005401e+01 6.982327e+01 6.088710e+01 6.506075e+01 4.613036e+01 2.087691e+01 1.003326e+01 1.565487e-01 7.616299e-01 9.310286e-01 6.679822e-01 1.534895e+00 2.357066e+00 2.560483e+00 1.270447e+00 2.031842e+00 2.382624e+00 1.802374e+00 1.118332e+00 1.095653e-01 5.018327e-02 8.909702e-02 2.413218e-01 1.713253e-01 2.759631e-01 3.248395e-01 3.381217e-01 3.352328e-01 3.198067e-01 4.691090e-01 2.573062e-01 1.723204e-01 4.289370e-02
<GCONST> 9.576085e+01
<STATE> 9
<MEAN> 39
 -1.144498e+01 8.039595e-01 6.660576e+00 -5.102247e+00 -7.829907e+00 -1.538982e+01 -5.305531e+00 -1.332752e+01 -7.458972e+00 -1.168180e+01 3.596185e-01 -5.303649e+00 6.090680e+01 -5.192391e-01 -2.103517e+00 -1.227841e+00 1.760289e+00 7.219118e-01 -2.248514e+00 9.679338e-01 1.398437e+00 5.326769e-01 -3.959103e-01 -5.281097e-01 1.380129e+00 3.947553e-01 2.636056e-01 -6.776257e-01 -9.297393e-02 3.681241e-01 -2.044727e-01 -6.119841e-01 1.069588e-01 4.634941e-01 1.250238e-01 -4.571883e-02 1.427535e-01 1.946808e-01 5.980967e-01
<VARIANCE> 39
 5.656778e+00 1.980497e+01 4.033956e+01 2.414727e+01 2.966253e+01 4.855569e+01 2.928039e+01 5.835733e+01 3.358656e+01 2.748198e+01 4.004641e+01 3.346155e+01 2.848683e+00 8.972600e-01 3.241407e+00 2.076192e+00 4.103145e+00 4.549674e+00 5.460225e+00 4.109659e+00 7.709521e+00 4.273936e+00 5.438998e+00 2.749994e+00 3.716789e+00 1.000618e+00 1.883247e-01 3.602287e-01 1.717754e-01 5.357459e-01 4.440395e-01 6.561321e-01 7.491620e-01 1.103568e+00 7.120424e-01 6.714696e-01 4.535682e-01 5.145177e-01 9.503044e-02
<GCONST> 1.173716e+02
<STATE> 10
<MEAN> 39
 -1.252133e+01 -1.066671e+01 2.680390e+00 3.754678e+00 -6.191577e+00 -2.686434e+01 -2.284529e+00 -6.831578e+00 -5.038055e+00 -1.157648e+01 7.819653e-01 5.405540e-01 6.611933e+01 1.412346e+00 -1.212741e+00 -1.042544e+00 -7.620273e-01 -7.271896e-01 -6.911696e-01 1.357993e+00 3.085493e+00 1.228920e+00 5.276023e-01 -3.603373e-01 -1.043976e+00 1.672847e+00 6.997963e-01 5.396551e-01 2.016919e-01 -1.027430e+00 -3.600405e-01 1.343597e+00 5.522896e-02 1.533064e-01 -7.413162e-02 -3.268904e-02 -4.257694e-01 -1.036700e+00 1.153465e-01
<VARIANCE> 39
 1.078112e+01 1.578893e+01 1.870689e+01 9.620171e+01 8.563333e+01 1.225506e+02 5.329631e+01 1.402304e+02 7.669367e+01 6.623895e+01 9.147240e+01 3.822561e+01 9.557267e+00 2.721982e+00 3.732334e+00 3.220476e+00 1.040362e+01 4.411047e+00 1.542962e+01 4.513406e+00 8.032400e+00 5.527541e+00 7.359911e+00 4.550116e+00 6.865922e+00 1.336619e+00 2.090265e-01 6.238602e-01 5.621969e-01 1.531054e+00 1.088193e+00 1.927795e+00 9.401469e-01 1.633795e+00 1.284000e+00 2.098207e+00 9.886472e-01 7.911081e-01 2.636128e-01
<GCONST> 1.409111e+02
<STATE> 11
<MEAN> 39
 -2.524889e+00 -1.300361e+01 -1.078278e-01 -4.932707e+00 -1.015588e+01 -2.072484e+01 1.868727e+00 6.031874e+00 -2.533869e+00 -1.197698e+01 -3.375685e+00 -9.774193e+00 7.337267e+01 1.865282e+00 -1.566669e+00 -9.208218e-01 -4.670728e-01 2.853215e-01 2.503195e+00 8.027138e-01 1.051939e+00 -6.858431e-01 -9.089832e-01 -1.301345e+00 -1.499128e+00 1.707927e+00 -6.927642e-01 1.534026e-01 5.120988e-02 7.028207e-01 7.069340e-01 5.345191e-02 -3.797186e-01 -9.823707e-01 -2.291348e-01 2.329179e-02 2.431201e-01 7.943659e-01 -5.501332e-01
<VARIANCE> 39
 4.627126e+00 1.719354e+01 3.055651e+01 3.097451e+01 9.626992e+01 7.734267e+01 2.873061e+01 1.627004e+02 3.428352e+01 3.649722e+01 8.820710e+01 1.965314e+01 1.780911e+01 1.237514e+00 1.819079e+00 1.925076e+00 5.265361e+00 3.757326e+00 8.922239e+00 4.520587e+00 9.619003e+00 4.563416e+00 5.831095e+00 4.981887e+00 4.257781e+00 1.651920e+00 5.863246e-02 3.038680e-01 2.884548e-01 6.184462e-01 4.931618e-01 7.976277e-01 6.350553e-01 7.084799e-01 7.513831e-01 5.838052e-01 5.348609e-01 3.890486e-01 1.528775e-01
<GCONST> 1.232361e+02
<STATE> 12
<MEAN> 39
 -1.117457e+00 -1.541536e+01 -4.643018e+00 -2.438878e+00 -1.005502e+01 -1.181299e+01 3.699970e+00 3.211416e-01 -2.078182e+00 -1.388001e+01 -7.822984e+00 -8.242339e+00 7.300036e+01 8.018825e-03 7.181569e-01 2.833332e-01 2.960494e-01 1.006593e+00 7.127334e-01 -3.880955e-01 7.625826e-02 2.551435e-01 -1.607312e-01 -2.986473e-01 -2.481489e-01 -5.186049e-01 -2.449179e-01 6.483498e-01 4.631459e-01 -1.019486e-02 1.329380e-01 -3.220058e-01 -2.601383e-01 -1.028235e-01 1.042930e-01 3.098259e-01 3.014483e-01 2.048047e-02 -3.581806e-01
<VARIANCE> 39
 2.934691e+00 2.516758e+01 2.216089e+01 2.453139e+01 3.608679e+01 1.436754e+02 2.762885e+01 8.919933e+01 4.903199e+01 3.566493e+01 7.939081e+01 1.747637e+01 1.335350e+01 1.223372e-01 1.564121e+00 9.081078e-01 1.005019e+00 1.578478e+00 1.974830e+00 1.062444e+00 1.991476e+00 2.057148e+00 1.843280e+00 1.110132e+00 1.256807e+00 2.512569e-01 3.458043e-02 1.920981e-01 1.507701e-01 1.652305e-01 2.309437e-01 5.578821e-01 2.266275e-01 5.865349e-01 5.937957e-01 4.143174e-01 4.042781e-01 3.107257e-01 4.835820e-02
<GCONST> 9.708075e+01
<STATE> 13
<MEAN> 39
 -9.323027e-01 -1.207289e+01 2.651895e+00 -3.653817e+00 2.630337e+00 -1.333772e+01 -3.814927e+00 1.002781e+01 -2.538648e+00 -8.117539e+00 -1.644921e+00 -1.341836e+01 7.415698e+01 -8.897812e-02 1.601100e+00 2.981227e-01 5.698689e-01 4.079422e-01 3.590947e-01 -3.191134e-01 -1.216803e+00 7.648177e-03 1.217542e-01 9.446733e-02 4.298227e-01 -1.023162e+00 -5.006026e-02 1.819417e-01 7.619554e-02 5.247062e-02 -2.080018e-01 -4.873252e-02 6.775420e-02 -1.946215e-01 -6.367807e-02 -1.497960e-01 1.091547e-01 2.042857e-01 -1.120052e-01
<VARIANCE> 39
 3.158030e+00 1.687680e+01 2.265208e+01 1.311868e+01 6.365618e+01 4.676599e+01 2.481363e+01 8.171860e+01 1.576809e+01 2.571467e+01 4.966193e+01 2.122465e+01 1.583509e+01 1.428816e-01 1.179515e+00 1.315132e+00 1.142981e+00 2.144921e+00 1.315867e+00 8.777101e-01 1.045651e+00 1.001384e+00 8.100713e-01 1.376055e+00 1.112477e+00 2.619194e-01 2.456113e-02 8.669952e-02 1.501293e-01 2.056750e-01 1.845042e-01 1.203375e-01 1.571334e-01 1.166346e-01 2.502949e-01 8.001924e-02 2.402759e-01 2.278001e-01 3.213719e-02
<GCONST> 8.345383e+01
<STATE> 14
<MEAN> 39
 -3.138103e+00 -2.038144e+00 2.764242e+00 3.404443e-01 -1.351459e+00 -1.054954e+01 -8.578007e-01 -2.277670e+00 -3.712877e+00 -1.313991e+01 -4.678876e+00 -7.364349e+00 6.599960e+01 -5.556205e-01 1.313923e+00 5.976050e-01 3.693880e-01 8.013776e-01 6.900121e-01 -1.197663e-01 -5.243978e-01 -4.773987e-02 2.423822e-02 3.219354e-01 4.242568e-01 -8.937624e-01 -7.589653e-02 -2.333968e-01 -1.637215e-01 -1.494289e-01 -6.355444e-02 4.123162e-02 1.012736e-01 1.334896e-01 1.616770e-01 7.479633e-02 -2.681852e-02 -5.969453e-02 6.179198e-02
<VARIANCE> 39
 4.058944e+00 1.431438e+01 1.316489e+01 1.300674e+01 2.057753e+01 2.844991e+01 2.728195e+01 3.518461e+01 2.212048e+01 2.626005e+01 4.724384e+01 2.069761e+01 4.041214e+00 1.097940e-01 3.275270e-01 6.311080e-01 4.646855e-01 1.118722e+00 1.075765e+00 9.616733e-01 1.740807e+00 9.998384e-01 8.873509e-01 1.256761e+00 1.805043e+00 3.903219e-02 1.327350e-02 3.553166e-02 9.451903e-02 9.652410e-02 1.290153e-01 1.123093e-01 1.255762e-01 1.945357e-01 1.273348e-01 1.721165e-01 1.463258e-01 2.167480e-01 7.363517e-03
<GCONST> 6.988738e+01
<STATE> 15
<MEAN> 39
 -6.973176e+00 2.572191e+00 4.605696e+00 4.218896e-01 1.378190e-01 -7.903567e+00 -2.859502e-01 -4.658560e+00 -2.180533e+00 -1.102937e+01 -2.279729e+00 -4.913270e+00 6.175538e+01 -7.625399e-01 2.930058e-01 2.986077e-01 -2.589325e-01 6.008932e-01 1.257133e+00 4.162541e-01 -4.373513e-01 5.241905e-01 9.028541e-01 5.628426e-01 2.670922e-02 -5.956170e-01 4.921133e-02 -1.034275e-01 6.531319e-03 7.186980e-02 1.699315e-01 2.197477e-01 2.046535e-02 -8.623515e-02 -1.558145e-01 -3.654246e-03 1.170700e-02 -2.122925e-01 7.641643e-02
<VARIANCE> 39
 5.289627e+00 1.454635e+01 1.376431e+01 9.013224e+00 1.345285e+01 1.196210e+01 1.852642e+01 1.917068e+01 1.130392e+01 3.362580e+01 5.004068e+01 4.302420e+01 1.748858e+00 1.616925e-01 2.387192e-01 4.921186e-01 4.223653e-01 1.123276e+00 1.396898e+00 7.796024e-01 9.173647e-01 1.196170e+00 3.958529e-01 1.077291e+00 1.067032e+00 8.592188e-02 2.381667e-02 2.285390e-02 7.747239e-02 7.877648e-02 1.899808e-01 1.542532e-01 2.059376e-01 2.598020e-01 2.074298e-01 1.578808e-01 2.212832e-01 1.800374e-01 9.839400e-03
<GCONST> 6.785971e+01
<STATE> 16
<MEAN> 39
 -8.290333e+00 4.087934e+00 6.101200e+00 1.306893e+00 5.038354e+00 -1.167084e-01 2.824257e+00 -5.298364e+00 8.055059e-01 -6.079184e+00 3.136424e-01 -5.300276e+00 6.055444e+01 -7.264488e-01 -1.806806e-01 -3.675486e-01 -3.308961e-01 5.107715e-01 1.150158e+00 2.992463e-01 -2.323686e-01 -7.253198e-02 3.466115e-02 -4.473314e-01 -7.404480e-01 -4.413123e-01 -6.314871e-02 -1.074554e-01 -1.111315e-01 -1.206938e-01 -1.808248e-01 -2.244726e-01 -1.344014e-01 -4.713448e-02 -1.213132e-01 -1.861240e-01 -1.760254e-01 -7.128286e-02 -2.052304e-02
<VARIANCE> 39
 3.326426e+00 1.146779e+01 1.760499e+01 1.370181e+01 5.857663e+00 1.083728e+01 1.828613e+01 3.413744e+01 1.444174e+01 3.114117e+01 2.563119e+01 2.285052e+01 9.135609e-01 1.786955e-01 4.504738e-01 3.561236e-01 7.257298e-01 1.251673e+00 1.174909e+00 9.513230e-01 2.203593e+00 1.340431e+00 1.377307e+00 6.452582e-01 6.911219e-01 8.658361e-02 3.075759e-02 3.409676e-02 7.726014e-02 1.614506e-01 1.477829e-01 1.591426e-01 1.582776e-01 3.204339e-01 2.269519e-01 1.448820e-01 1.729482e-01 1.389486e-01 8.323494e-03
<GCONST> 6.848720e+01
<STATE> 17
<MEAN> 39
 -1.166839e+01 1.807743e+00 3.454442e+00 -8.031360e-01 6.589735e+00 2.110220e+00 2.215341e+00 -6.481245e+00 -3.124441e+00 -1.291593e+01 -6.948145e+00 -1.175190e+01 5.852224e+01 -4.533415e-01 -2.613789e-03 1.044203e-01 1.217139e-01 1.747034e-01 1.707683e-01 -2.841988e-01 -4.361071e-01 -1.728184e-01 -1.552146e-01 -8.932769e-02 -1.741975e-01 -3.066175e-01 -4.892197e-03 -7.389165e-02 -1.006711e-02 -2.044912e-02 -1.358123e-01 -1.798099e-01 -2.030113e-02 4.355632e-02 1.416711e-01 2.088313e-01 1.958344e-01 1.382797e-01 2.668530e-02
<VARIANCE> 39
 1.355766e+00 3.993618e+00 4.810102e+00 7.550786e+00 9.326612e+00 1.706784e+01 1.695065e+01 1.834709e+01 2.007108e+01 3.185259e+01 2.236771e+01 2.557148e+01 7.631404e-01 2.646116e-01 2.454609e-01 4.725693e-01 1.207140e+00 7.435250e-01 7.328205e-01 1.374409e+00 1.510400e+00 1.014998e+00 1.173638e+00 1.438385e+00 1.421257e+00 8.185144e-02 3.805079e-02 5.592534e-02 8.585697e-02 1.292664e-01 1.161398e-01 1.901674e-01 3.034663e-01 1.563073e-01 1.836413e-01 2.802580e-01 2.563744e-01 2.666222e-01 9.110793e-03
<GCONST> 6.765975e+01
<STATE> 18
<MEAN> 39
 -1.468145e+01 -1.281801e+00 2.185692e+00 -1.471955e+00 4.075552e+00 -6.398849e-01 2.921767e+00 -5.022229e+00 9.991654e-01 -6.436364e+00 -1.435819e+00 -9.350926e+00 5.736816e+01 -6.429549e-01 -5.972669e-01 -4.062814e-01 -3.081669e-01 4.808578e-02 -7.523237e-02 -1.057629e-01 -7.147497e-02 8.180336e-01 1.185488e+00 6.221462e-01 1.058741e-01 -2.934651e-01 6.650394e-02 1.613134e-02 4.126716e-02 1.093835e-01 9.515757e-02 3.635225e-02 -5.583226e-02 -5.563725e-03 -1.286007e-01 -9.641533e-02 -1.279089e-01 -1.722713e-02 3.420689e-02
<VARIANCE> 39
 1.823854e+00 5.711422e+00 5.474617e+00 1.166821e+01 1.039371e+01 1.407567e+01 1.855966e+01 3.831758e+01 3.907538e+01 3.239877e+01 3.034293e+01 1.995371e+01 3.839735e-01 1.203146e-01 2.349282e-01 2.879323e-01 5.903090e-01 7.645281e-01 8.068172e-01 1.703497e+00 1.259390e+00 1.947848e+00 2.400359e+00 1.401896e+00 1.161724e+00 5.538477e-02 1.541855e-02 4.940427e-02 7.346240e-02 1.303231e-01 1.048658e-01 1.435216e-01 2.829165e-01 1.881056e-01 4.054425e-01 4.946433e-01 2.500669e-01 1.648340e-01 7.031215e-03
<GCONST> 6.768983e+01
<STATE> 19
<MEAN> 39
 -1.707860e+01 -1.089624e+00 3.462113e+00 -1.008357e+00 6.759207e+00 2.216916e+00 1.102449e+00 -8.708856e+00 -1.661742e+00 -7.958809e+00 -4.299541e+00 -1.106025e+01 5.587177e+01 -4.814591e-01 -5.093189e-01 -1.211184e-01 1.287245e-01 -1.907974e-01 -1.078232e-01 4.491572e-01 7.181286e-02 -5.535154e-01 -1.689390e-01 -1.979114e-01 3.055152e-03 -1.942063e-01 7.669545e-02 -2.349263e-02 -5.873707e-02 -3.114265e-02 -1.577441e-01 -1.037873e-01 1.559045e-01 9.645686e-02 -5.493774e-02 -1.619485e-01 3.796700e-02 9.690922e-02 4.570169e-02
<VARIANCE> 39
 2.216421e+00 1.871804e+01 1.528426e+01 1.579054e+01 2.798395e+01 3.550950e+01 3.080853e+01 5.840467e+01 4.071317e+01 4.317871e+01 5.428246e+01 1.503613e+01 1.331292e+00 1.174521e-01 2.215098e-01 6.350904e-01 9.044249e-01 1.792095e+00 3.058219e+00 2.285904e+00 1.641986e+00 1.886631e+00 1.232620e+00 2.842555e+00 1.341845e+00 6.891745e-02 1.877576e-02 3.364785e-02 9.450514e-02 2.230674e-01 3.277620e-01 3.480650e-01 4.358614e-01 3.288141e-01 4.102648e-01 2.894857e-01 5.376936e-01 2.247143e-01 1.298312e-02
<GCONST> 8.414841e+01
<TRANSP> 20
 0.000000e+00 1.000000e+00 0.000000e+00 0.000000e+00 0.000000e+00 0.000000e+00 0.000000e+00 0.000000e+00 0.000000e+00 0.000000e+00 0.000000e+00 0.000000e+00 0.000000e+00 0.000000e+00 0.000000e+00 0.000000e+00 0.000000e+00 0.000000e+00 0.000000e+00 0.000000e+00
 0.000000e+00 7.735931e-01 2.264069e-01 0.000000e+00 0.000000e+00 0.000000e+00 0.000000e+00 0.000000e+00 0.000000e+00 0.000000e+00 0.000000e+00 0.000000e+00 0.000000e+00 0.000000e+00 0.000000e+00 0.000000e+00 0.000000e+00 0.000000e+00 0.000000e+00 0.000000e+00
 0.000000e+00 0.000000e+00 6.841627e-01 3.158373e-01 0.000000e+00 0.000000e+00 0.000000e+00 0.000000e+00 0.000000e+00 0.000000e+00 0.000000e+00 0.000000e+00 0.000000e+00 0.000000e+00 0.000000e+00 0.000000e+00 0.000000e+00 0.000000e+00 0.000000e+00 0.000000e+00
 0.000000e+00 0.000000e+00 0.000000e+00 7.448266e-01 2.551735e-01 0.000000e+00 0.000000e+00 0.000000e+00 0.000000e+00 0.000000e+00 0.000000e+00 0.000000e+00 0.000000e+00 0.000000e+00 0.000000e+00 0.000000e+00 0.000000e+00 0.000000e+00 0.000000e+00 0.000000e+00
 0.000000e+00 0.000000e+00 0.000000e+00 0.000000e+00 8.063632e-01 1.936368e-01 0.000000e+00 0.000000e+00 0.000000e+00 0.000000e+00 0.000000e+00 0.000000e+00 0.000000e+00 0.000000e+00 0.000000e+00 0.000000e+00 0.000000e+00 0.000000e+00 0.000000e+00 0.000000e+00
 0.000000e+00 0.000000e+00 0.000000e+00 0.000000e+00 0.000000e+00 7.391571e-01 2.608429e-01 0.000000e+00 0.000000e+00 0.000000e+00 0.000000e+00 0.000000e+00 0.000000e+00 0.000000e+00 0.000000e+00 0.000000e+00 0.000000e+00 0.000000e+00 0.000000e+00 0.000000e+00
 0.000000e+00 0.000000e+00 0.000000e+00 0.000000e+00 0.000000e+00 0.000000e+00 7.395551e-01 2.604449e-01 0.000000e+00 0.000000e+00 0.000000e+00 0.000000e+00 0.000000e+00 0.000000e+00 0.000000e+00 0.000000e+00 0.000000e+00 0.000000e+00 0.000000e+00 0.000000e+00
 0.000000e+00 0.000000e+00 0.000000e+00 0.000000e+00 0.000000e+00 0.000000e+00 0.000000e+00 8.348470e-01 1.651530e-01 0.000000e+00 0.000000e+00 0.000000e+00 0.000000e+00 0.000000e+00 0.000000e+00 0.000000e+00 0.000000e+00 0.000000e+00 0.000000e+00 0.000000e+00
 0.000000e+00 0.000000e+00 0.000000e+00 0.000000e+00 0.000000e+00 0.000000e+00 0.000000e+00 0.000000e+00 7.287962e-01 2.712038e-01 0.000000e+00 0.000000e+00 0.000000e+00 0.000000e+00 0.000000e+00 0.000000e+00 0.000000e+00 0.000000e+00 0.000000e+00 0.000000e+00
 0.000000e+00 0.000000e+00 0.000000e+00 0.000000e+00 0.000000e+00 0.000000e+00 0.000000e+00 0.000000e+00 0.000000e+00 7.209928e-01 2.790073e-01 0.000000e+00 0.000000e+00 0.000000e+00 0.000000e+00 0.000000e+00 0.000000e+00 0.000000e+00 0.000000e+00 0.000000e+00
 0.000000e+00 0.000000e+00 0.000000e+00 0.000000e+00 0.000000e+00 0.000000e+00 0.000000e+00 0.000000e+00 0.000000e+00 0.000000e+00 6.571944e-01 3.428057e-01 0.000000e+00 0.000000e+00 0.000000e+00 0.000000e+00 0.000000e+00 0.000000e+00 0.000000e+00 0.000000e+00
 0.000000e+00 0.000000e+00 0.000000e+00 0.000000e+00 0.000000e+00 0.000000e+00 0.000000e+00 0.000000e+00 0.000000e+00 0.000000e+00 0.000000e+00 7.076095e-01 2.923906e-01 0.000000e+00 0.000000e+00 0.000000e+00 0.000000e+00 0.000000e+00 0.000000e+00 0.000000e+00
 0.000000e+00 0.000000e+00 0.000000e+00 0.000000e+00 0.000000e+00 0.000000e+00 0.000000e+00 0.000000e+00 0.000000e+00 0.000000e+00 0.000000e+00 0.000000e+00 6.932538e-01 3.067462e-01 0.000000e+00 0.000000e+00 0.000000e+00 0.000000e+00 0.000000e+00 0.000000e+00
 0.000000e+00 0.000000e+00 0.000000e+00 0.000000e+00 0.000000e+00 0.000000e+00 0.000000e+00 0.000000e+00 0.000000e+00 0.000000e+00 0.000000e+00 0.000000e+00 0.000000e+00 8.390756e-01 1.609244e-01 0.000000e+00 0.000000e+00 0.000000e+00 0.000000e+00 0.000000e+00
 0.000000e+00 0.000000e+00 0.000000e+00 0.000000e+00 0.000000e+00 0.000000e+00 0.000000e+00 0.000000e+00 0.000000e+00 0.000000e+00 0.000000e+00 0.000000e+00 0.000000e+00 0.000000e+00 7.367610e-01 2.632390e-01 0.000000e+00 0.000000e+00 0.000000e+00 0.000000e+00
 0.000000e+00 0.000000e+00 0.000000e+00 0.000000e+00 0.000000e+00 0.000000e+00 0.000000e+00 0.000000e+00 0.000000e+00 0.000000e+00 0.000000e+00 0.000000e+00 0.000000e+00 0.000000e+00 0.000000e+00 7.131126e-01 2.868874e-01 0.000000e+00 0.000000e+00 0.000000e+00
 0.000000e+00 0.000000e+00 0.000000e+00 0.000000e+00 0.000000e+00 0.000000e+00 0.000000e+00 0.000000e+00 0.000000e+00 0.000000e+00 0.000000e+00 0.000000e+00 0.000000e+00 0.000000e+00 0.000000e+00 0.000000e+00 7.983681e-01 2.016320e-01 0.000000e+00 0.000000e+00
 0.000000e+00 0.000000e+00 0.000000e+00 0.000000e+00 0.000000e+00 0.000000e+00 0.000000e+00 0.000000e+00 0.000000e+00 0.000000e+00 0.000000e+00 0.000000e+00 0.000000e+00 0.000000e+00 0.000000e+00 0.000000e+00 0.000000e+00 7.597930e-01 2.402070e-01 0.000000e+00
 0.000000e+00 0.000000e+00 0.000000e+00 0.000000e+00 0.000000e+00 0.000000e+00 0.000000e+00 0.000000e+00 0.000000e+00 0.000000e+00 0.000000e+00 0.000000e+00 0.000000e+00 0.000000e+00 0.000000e+00 0.000000e+00 0.000000e+00 0.000000e+00 7.752165e-01 2.247835e-01
 0.000000e+00 0.000000e+00 0.000000e+00 0.000000e+00 0.000000e+00 0.000000e+00 0.000000e+00 0.000000e+00 0.000000e+00 0.000000e+00 0.000000e+00 0.000000e+00 0.000000e+00 0.000000e+00 0.000000e+00 0.000000e+00 0.000000e+00 0.000000e+00 0.000000e+00 0.000000e+00
<ENDHMM>
