~o
<STREAMINFO> 1 39
<VECSIZE> 39<NULLD><MFCC_D_A_0><DIAGC>
~h "empat"
<BEGINHMM>
<NUMSTATES> 20
<STATE> 2
<MEAN> 39
 -1.715608e+01 -6.274291e+00 -2.789353e+00 -5.162313e+00 1.390975e+00 -2.486657e+00 -1.870011e-02 -7.100850e+00 -2.987970e-01 -6.274122e+00 7.953237e-01 -6.043645e+00 5.682410e+01 2.048928e+00 6.526040e-01 2.706011e-01 -5.916288e-01 -3.821326e-02 6.441543e-01 -1.113857e+00 -1.622231e+00 -4.868658e-01 2.190380e-01 -2.021072e-02 -2.159540e-01 1.433277e+00 9.087851e-01 2.231219e-01 8.459762e-02 -3.499004e-01 -2.338555e-01 1.767374e-01 -2.974049e-01 -6.099378e-01 -1.632584e-01 2.872666e-01 -9.149843e-02 -2.615480e-01 6.296629e-01
<VARIANCE> 39
 3.647388e+00 6.016468e+00 5.794508e+00 1.084398e+01 1.047729e+01 1.240214e+01 1.629297e+01 1.492311e+01 1.893843e+01 1.368872e+01 9.278913e+00 9.542416e+00 1.622655e+00 2.818641e+00 1.818164e+00 1.253260e+00 4.465270e+00 3.515150e+00 3.473504e+00 5.182995e+00 7.093998e+00 6.306668e+00 3.817038e+00 1.092370e+00 2.956218e+00 1.627515e+00 1.646383e-01 3.594167e-01 2.196423e-01 4.731429e-01 6.482729e-01 7.196026e-01 6.781982e-01 8.410238e-01 6.146848e-01 4.844320e-01 2.171220e-01 3.627010e-01 1.374115e-01
<GCONST> 1.019427e+02
<STATE> 3
<MEAN> 39
 -3.025630e+00 -5.345680e+00 -1.949670e+00 -1.192655e+01 -4.654028e-01 3.546484e+00 -5.271734e+00 -1.512262e+01 -1.625838e-01 5.729090e-01 1.343016e+00 -9.525993e+00 6.820961e+01 3.135170e+00 8.549954e-01 3.156827e-01 -5.939845e-01 -1.683953e-01 8.067690e-01 -1.059503e+00 -2.100828e+00 -1.079919e+00 6.765313e-01 6.679104e-01 3.256237e-01 2.103421e+00 -6.120122e-01 1.541090e-01 -6.314046e-02 4.758544e-01 5.131136e-02 -3.981681e-01 3.929405e-01 3.850609e-01 -2.359108e-01 -4.602116e-01 2.369090e-01 6.411877e-01 -6.196680e-01
<VARIANCE> 39
 2.419767e+01 3.426162e+01 3.178701e+01 9.399202e+01 1.224180e+02 1.238784e+02 7.642459e+01 1.403267e+02 7.567758e+01 6.832439e+01 1.921479e+01 3.402875e+01 3.467892e+01 2.158501e+00 2.291199e+00 1.395558e+00 3.507878e+00 4.943086e+00 6.773305e+00 3.619511e+00 8.834111e+00 5.001083e+00 5.835472e+00 3.693103e+00 6.472994e+00 2.333652e+00 2.693342e-01 4.861047e-01 3.104760e-01 6.438718e-01 7.963001e-01 1.154437e+00 5.666244e-01 1.212504e+00 6.972035e-01 5.765545e-01 4.908063e-01 4.667125e-01 2.875855e-01
<GCONST> 1.337106e+02
<STATE> 4
<MEAN> 39
 -1.669170e-01 1.391372e+00 -2.346263e+00 -5.639615e+00 3.259706e+00 -2.171850e+00 -1.151782e+01 -2.510723e+01 -1.205467e+01 -9.867335e+00 5.281109e-01 -5.069425e+00 6.660608e+01 7.421118e-01 7.014046e-01 -7.577398e-02 9.083265e-02 7.449049e-02 4.044769e-02 -5.890388e-02 -6.318969e-01 -5.566030e-01 -7.926086e-02 6.071214e-01 6.600865e-01 2.268426e-01 -5.705140e-01 -1.721177e-01 1.835157e-01 1.621971e-01 -3.113840e-02 -8.483403e-02 3.069184e-01 5.578783e-01 3.906380e-01 7.821791e-02 3.898834e-02 -9.944804e-02 -3.505986e-01
<VARIANCE> 39
 7.730984e+00 1.272395e+01 1.429152e+01 2.385423e+01 3.767676e+01 3.112306e+01 4.839545e+01 5.395033e+01 5.138641e+01 7.526052e+01 3.952300e+01 7.884599e+01 8.978397e+00 8.099046e-01 1.114926e+00 8.982964e-01 9.842632e-01 1.500322e+00 2.000678e+00 1.543318e+00 2.119704e+00 2.054739e+00 1.202873e+00 2.336708e+00 2.328855e+00 4.862162e-01 8.625591e-02 1.365716e-01 1.595684e-01 1.684750e-01 2.097935e-01 2.671587e-01 3.313337e-01 3.521485e-01 4.505296e-01 4.181689e-01 5.151411e-01 5.733200e-01 2.410316e-02
<GCONST> 9.976691e+01
<STATE> 5
<MEAN> 39
 1.463503e+00 1.280886e+00 1.169466e-01 -8.742166e+00 -2.445312e+00 1.447750e+00 -1.554095e+00 -1.636166e+01 -6.455892e+00 -2.796623e+00 7.434817e+00 -2.870518e+00 6.834515e+01 -4.941838e-01 1.051549e+00 7.994960e-01 1.323886e+00 6.250226e-01 -9.918769e-01 -1.649897e-01 2.879057e-01 -7.369617e-01 -1.457298e+00 -4.685544e-01 7.679819e-02 -7.683023e-01 -1.446093e-01 -1.432247e-01 1.457583e-02 -5.459854e-03 1.520533e-01 1.230135e-01 -1.322706e-01 -1.769690e-02 1.352771e-01 -2.598727e-02 -3.997901e-01 -2.762282e-01 -1.924887e-02
<VARIANCE> 39
 3.766539e+00 2.025376e+01 1.431655e+01 2.771227e+01 7.386708e+01 4.304245e+01 5.212154e+01 5.823078e+01 2.970013e+01 4.279098e+01 1.546245e+01 2.154423e+01 6.869687e+00 1.144173e-01 4.218296e-01 4.898283e-01 5.220450e-01 1.357786e+00 1.157949e+00 1.719329e+00 1.452314e+00 1.289512e+00 1.818166e+00 1.269563e+00 1.973355e+00 9.099515e-02 3.698824e-02 5.414038e-02 7.179958e-02 1.527272e-01 1.802434e-01 1.611502e-01 2.162480e-01 1.570935e-01 1.761085e-01 3.288574e-01 1.618427e-01 2.895237e-01 1.768186e-02
<GCONST> 8.171487e+01
<STATE> 6
<MEAN> 39
 -2.249610e+00 6.616508e+00 5.242186e+00 -6.344720e-01 3.753237e+00 -3.730326e+00 -6.731511e+00 -1.840972e+01 -9.497775e+00 -8.669997e+00 3.230048e+00 -1.714184e+00 6.397563e+01 -9.194486e-01 -6.146447e-02 4.840421e-01 4.804130e-01 -5.902920e-02 -4.327269e-01 -1.652167e-01 4.884857e-02 -1.172902e-01 -4.545973e-01 -5.765980e-01 -4.165870e-01 -6.091733e-01 -1.835466e-01 -2.353495e-01 -2.026770e-01 -1.486329e-01 -1.250221e-01 2.128202e-02 2.325084e-01 1.749160e-01 4.516384e-02 5.333579e-02 1.254779e-01 1.709860e-02 -5.316141e-02
<VARIANCE> 39
 4.739106e+00 8.810629e+00 2.161330e+01 1.376543e+01 1.302240e+01 1.431983e+01 1.861910e+01 4.531511e+01 4.301997e+01 2.986137e+01 2.609023e+01 4.752992e+01 2.234025e+00 3.715111e-01 4.514932e-01 5.668834e-01 5.317873e-01 9.233320e-01 1.237274e+00 1.602585e+00 1.616239e+00 1.371491e+00 1.349564e+00 1.062366e+00 1.427421e+00 1.124637e-01 1.591378e-02 4.400588e-02 9.118113e-02 5.426326e-02 1.661146e-01 1.845063e-01 2.400447e-01 1.483423e-01 1.876470e-01 2.317935e-01 2.307489e-01 3.228049e-01 6.228148e-03
<GCONST> 7.489885e+01
<STATE> 7
<MEAN> 39
 -8.368771e+00 2.214668e+00 3.216370e+00 -8.909578e-01 3.121134e+00 -4.313700e+00 -5.151882e+00 -1.637202e+01 -9.391340e+00 -1.106883e+01 -1.027511e+00 -6.622054e+00 6.081374e+01 -1.094617e+00 -6.898188e-01 -2.974539e-01 -6.133648e-02 -1.164578e-01 -8.855929e-02 1.004843e+00 1.285467e+00 5.206876e-01 -2.791084e-01 -6.137869e-01 -1.382123e-01 -5.493427e-01 2.412820e-01 -3.796820e-03 -1.543285e-01 -1.044640e-01 -7.352650e-03 -3.040637e-03 -8.570161e-02 -2.154975e-02 1.271749e-01 1.251693e-01 8.585476e-02 5.587790e-02 1.931422e-01
<VARIANCE> 39
 5.991779e+00 4.541945e+00 9.533496e+00 1.188193e+01 1.065285e+01 1.062044e+01 1.625271e+01 3.281844e+01 2.248770e+01 1.417758e+01 2.263876e+01 3.262905e+01 1.601510e+00 1.860976e-01 4.102135e-01 7.591334e-01 4.463176e-01 4.680448e-01 7.893430e-01 8.909485e-01 1.513744e+00 1.034234e+00 9.596778e-01 1.797839e+00 1.735742e+00 5.069063e-02 5.527231e-02 7.474664e-02 1.945212e-01 1.317456e-01 1.668676e-01 2.472042e-01 1.683458e-01 3.605258e-01 2.375635e-01 2.455159e-01 3.316560e-01 2.764233e-01 2.888344e-02
<GCONST> 7.343717e+01
<STATE> 8
<MEAN> 39
 -1.079765e+01 8.710158e-01 2.897616e+00 -6.496401e-01 3.067426e+00 -4.626851e+00 -2.350212e+00 -1.261826e+01 -7.273788e+00 -1.271646e+01 -3.053707e+00 -6.153979e+00 5.974493e+01 3.459153e-01 -1.066006e+00 -1.700149e+00 -9.289031e-01 -4.012648e-01 -5.659910e-02 4.349492e-01 1.951908e-01 1.094524e+00 1.051484e+00 6.379881e-01 -8.558346e-02 7.422301e-01 1.184741e+00 -4.728707e-01 -1.293461e+00 -1.266421e+00 -2.524143e-01 7.682068e-01 -2.347222e-01 -7.192586e-01 2.345549e-01 8.497648e-01 2.241933e-01 -5.913011e-01 9.094832e-01
<VARIANCE> 39
 4.876773e+00 6.097911e+00 8.381604e+00 1.201987e+01 1.573079e+01 9.316483e+00 2.560962e+01 2.531002e+01 1.148913e+01 2.358739e+01 2.756444e+01 2.457776e+01 1.138833e+00 1.124372e+00 7.579735e-01 2.222105e+00 2.167606e+00 1.731705e+00 2.626499e+00 1.780715e+00 3.265959e+00 1.280421e+00 2.379057e+00 2.004194e+00 1.072244e+00 6.067513e-01 9.649325e-02 1.707705e-01 3.343725e-01 2.987503e-01 3.702682e-01 3.036258e-01 9.796360e-01 4.938821e-01 2.063667e-01 5.446937e-01 4.974972e-01 4.374929e-01 5.907191e-02
<GCONST> 9.360072e+01
<STATE> 9
<MEAN> 39
 -6.436207e+00 -2.446349e+00 -5.956017e+00 -7.085424e+00 1.577774e-01 -4.624219e+00 -2.386368e+00 -1.361162e+01 -4.969348e+00 -7.076293e+00 7.056777e-01 -8.016987e+00 6.396164e+01 3.668143e+00 -2.209835e+00 -4.769825e+00 -4.562256e+00 -7.139773e-01 2.994952e+00 -4.323667e-01 -1.377063e+00 1.953253e+00 2.804038e+00 -1.167347e-01 -2.419486e+00 3.065602e+00 4.495243e-01 -4.705991e-01 1.576338e-02 -2.592673e-01 2.175120e-01 6.910719e-01 -3.567255e-01 -5.885334e-02 4.755367e-01 1.550085e-01 -6.113967e-01 -5.147040e-01 4.899148e-01
<VARIANCE> 39
 1.935815e+01 8.492225e+00 3.352313e+01 3.883342e+01 3.122833e+01 3.467188e+01 2.483305e+01 3.000944e+01 2.872430e+01 2.941781e+01 2.062192e+01 1.821636e+01 8.128113e+00 8.850827e-01 2.287698e+00 3.917695e+00 2.241872e+00 4.011899e+00 3.408509e+00 9.171107e+00 3.048938e+00 3.016506e+00 6.449080e+00 3.618798e+00 2.991205e+00 1.017944e+00 4.319283e-01 2.150982e-01 1.053838e+00 8.855069e-01 8.226046e-01 5.916507e-01 6.029238e-01 5.493377e-01 6.033497e-01 6.894757e-01 5.061302e-01 5.054229e-01 1.961273e-01
<GCONST> 1.183677e+02
<STATE> 10
<MEAN> 39
 3.196344e+00 -9.580912e+00 -1.625521e+01 -1.866566e+01 -1.266555e+00 6.987200e+00 -3.603828e+00 -1.890568e+01 1.639140e+00 1.061168e+00 -2.967365e+00 -1.506133e+01 7.225097e+01 1.700047e+00 -2.733292e+00 -1.212017e+00 -1.101350e+00 1.633492e-01 1.869345e+00 -8.672634e-01 7.268400e-02 2.581017e+00 1.519275e+00 -2.026943e+00 -1.808257e+00 2.334469e+00 -1.098994e+00 1.694249e-01 1.531502e+00 1.771541e+00 2.140322e-01 -1.173001e+00 -5.564090e-02 7.985938e-01 -3.178492e-01 -1.166577e+00 -4.479895e-01 7.558689e-01 -5.919583e-01
<VARIANCE> 39
 1.860099e+00 2.047171e+01 5.739899e+01 1.597778e+01 4.777765e+01 4.177417e+01 7.334777e+01 5.676570e+01 4.078804e+01 7.505093e+01 3.662426e+01 3.711235e+01 7.521555e+00 1.867857e+00 1.998585e+00 7.219275e+00 6.926165e+00 4.626245e+00 4.799767e+00 3.577657e+00 5.689257e+00 3.127587e+00 6.994222e+00 2.443462e+00 2.942123e+00 1.273182e+00 7.857715e-02 2.724613e-01 3.166841e-01 2.423665e-01 2.701661e-01 3.125947e-01 1.098736e+00 4.636778e-01 8.638930e-01 7.276294e-01 5.734496e-01 3.543623e-01 6.559081e-02
<GCONST> 1.176332e+02
<STATE> 11
<MEAN> 39
 1.897880e+00 -1.755125e+01 -7.051167e+00 -1.530970e+01 7.586932e-01 6.680925e+00 -8.416824e+00 -8.492515e+00 6.505505e+00 -1.520284e+00 -7.541737e+00 -1.723143e+01 7.739552e+01 -3.418926e-01 -1.397925e+00 7.429085e-01 1.103299e+00 -2.550105e-01 -1.678128e+00 -2.489262e-01 1.115247e+00 -1.068475e-01 -9.293526e-01 -1.567786e+00 5.965199e-01 6.860116e-01 -2.663112e-01 6.783866e-01 -4.722175e-02 3.222900e-01 -1.702809e-01 -7.007452e-01 2.983249e-01 -1.899860e-01 -5.423016e-01 -3.951374e-01 4.908949e-01 6.578547e-01 -5.375643e-01
<VARIANCE> 39
 3.509542e+00 3.060324e+01 1.487166e+02 6.728957e+00 5.672378e+01 5.522764e+01 8.020463e+01 1.957705e+02 6.265761e+01 8.486462e+01 3.888806e+01 3.925821e+01 1.809781e+01 1.234606e-01 1.368161e+00 1.564659e+00 2.855258e+00 5.819952e-01 2.583817e+00 2.016925e+00 2.493328e+00 4.877356e+00 2.580745e+00 1.655436e+00 9.184628e-01 3.549072e-01 1.214193e-01 2.716792e-01 4.233445e-01 2.734295e-01 3.096953e-01 4.281250e-01 4.038577e-01 7.176492e-01 5.758098e-01 8.303373e-01 2.863546e-01 5.083622e-01 9.719736e-02
<GCONST> 1.096134e+02
<STATE> 12
<MEAN> 39
 1.300532e+00 -1.577378e+01 -1.643798e+01 -8.168159e+00 -1.782421e+00 -2.841707e+00 -3.635240e+00 -1.226915e+01 4.633314e+00 -8.765828e+00 -1.151772e+01 -8.232860e+00 7.458231e+01 -3.175877e-01 -6.676850e-02 4.317284e-01 7.501132e-01 -6.887906e-01 -1.699639e+00 1.056835e-01 1.473016e+00 1.111622e-01 -1.485988e+00 -1.708132e-01 1.312749e+00 -1.832588e-01 -4.826811e-02 4.342813e-01 1.292581e-01 -2.415004e-01 -2.624214e-02 5.629969e-02 -9.003063e-02 -1.175813e-01 -1.030332e-01 2.055027e-01 2.219740e-01 -1.459015e-01 -2.987213e-01
<VARIANCE> 39
 4.041291e+00 1.539605e+01 4.713792e+01 4.071242e+01 9.319361e+01 6.806980e+01 3.562722e+01 7.102363e+01 2.800508e+01 1.022085e+02 3.790205e+01 5.938437e+01 6.120946e+00 1.501737e-01 1.208714e+00 6.588700e-01 1.064172e+00 1.388839e+00 8.891613e-01 1.007606e+00 1.370498e+00 1.253692e+00 1.986004e+00 1.193685e+00 1.270159e+00 3.333301e-01 4.561327e-02 9.264217e-02 1.059673e-01 2.294039e-01 3.463918e-01 2.653905e-01 2.162006e-01 3.302830e-01 3.813997e-01 4.266562e-01 1.787814e-01 2.395120e-01 1.926888e-02
<GCONST> 9.302581e+01
<STATE> 13
<MEAN> 39
 -9.593728e-01 -1.362354e+01 -5.758566e+00 -9.148032e+00 -3.300482e+00 -6.708540e+00 -7.693368e+00 -5.122371e+00 4.022341e+00 -8.687087e+00 -8.925492e+00 -9.989117e+00 7.294566e+01 -8.052430e-01 1.828741e+00 7.498649e-01 9.105597e-01 3.663999e-01 3.847289e-02 3.540866e-01 -3.606238e-01 -4.092149e-01 -3.094937e-01 1.056247e-01 -3.717030e-01 -1.734455e+00 -1.711905e-01 -3.822022e-02 -1.058030e-02 -8.046845e-02 2.471441e-01 6.416744e-01 4.132205e-01 -8.299264e-02 -2.888806e-01 -6.061050e-04 6.156921e-02 -2.251954e-01 -9.849939e-02
<VARIANCE> 39
 7.852364e+00 9.811082e+00 7.743999e+01 2.417678e+01 5.491598e+01 4.876254e+01 5.183961e+01 6.337771e+01 4.745794e+01 3.700966e+01 6.148666e+01 4.236385e+01 8.746816e+00 3.005374e-01 7.582448e-01 1.362842e+00 1.184343e+00 2.327405e+00 1.653019e+00 1.854223e+00 2.643811e+00 1.936455e+00 2.490258e+00 1.054699e+00 1.335504e+00 1.678098e-01 7.663667e-02 2.063867e-01 1.640350e-01 1.858008e-01 2.145763e-01 2.606141e-01 2.100563e-01 6.169494e-01 3.442571e-01 3.095381e-01 4.168990e-01 2.704754e-01 6.630822e-02
<GCONST> 9.941946e+01
<STATE> 14
<MEAN> 39
 -3.511790e+00 -8.408363e+00 -7.342694e+00 -6.187055e+00 -1.170102e+00 -6.546657e+00 -4.494789e+00 -6.204038e+00 1.148356e+00 -1.295399e+01 -7.463192e+00 -8.309696e+00 6.717442e+01 -1.076942e+00 1.068632e+00 5.082923e-01 -6.410190e-02 2.248351e-01 3.888383e-01 4.912482e-01 -4.181465e-01 -1.108401e+00 -2.478923e-01 7.887812e-01 -1.636637e-01 -1.354507e+00 1.362619e-02 -2.384376e-01 -2.017499e-01 -9.185684e-02 -4.996280e-02 -1.049308e-01 -7.555810e-02 6.864829e-02 2.165813e-01 1.142681e-01 -1.384025e-01 -3.021555e-02 1.705773e-01
<VARIANCE> 39
 1.980989e+00 5.036345e+00 3.958791e+01 1.350271e+01 2.210242e+01 4.959874e+01 2.574916e+01 4.037569e+01 1.964149e+01 2.529883e+01 4.854820e+01 4.497687e+01 2.573689e+00 2.821034e-01 2.487219e-01 1.252241e+00 4.515034e-01 1.176595e+00 1.290657e+00 1.840345e+00 1.106498e+00 8.634484e-01 1.376523e+00 2.373140e+00 7.725644e-01 1.141557e-01 1.936944e-02 1.769057e-02 4.214676e-02 6.446977e-02 1.730669e-01 2.054952e-01 1.367649e-01 1.827305e-01 1.870830e-01 2.516719e-01 2.333005e-01 1.923608e-01 9.526606e-03
<GCONST> 7.383225e+01
<STATE> 15
<MEAN> 39
 -5.872665e+00 -6.603416e+00 -5.636177e+00 -7.318543e+00 -2.092620e+00 -2.793868e+00 -9.759856e-01 -8.096420e+00 1.034602e+00 -1.016896e+01 -9.942833e+00 -1.150354e+01 6.470683e+01 -9.086105e-01 7.582470e-01 1.048985e-01 -1.438728e-02 4.234031e-01 -7.826884e-02 1.416778e-01 3.436835e-01 -1.153410e-01 -9.623377e-02 -1.119668e-01 -4.662469e-01 -9.806024e-01 -1.621322e-02 -1.033152e-01 4.708898e-02 7.164078e-02 2.325531e-02 -1.424291e-02 -1.373753e-02 2.567966e-02 7.860186e-02 7.707434e-02 3.781938e-02 4.346820e-02 6.618385e-02
<VARIANCE> 39
 1.739954e+00 1.111322e+01 1.624986e+01 1.031422e+01 2.399319e+01 4.623590e+01 2.193732e+01 4.095074e+01 1.060766e+01 2.316983e+01 2.484880e+01 1.509229e+01 2.759482e+00 5.971557e-02 1.628305e-01 7.784176e-01 6.973507e-01 5.975336e-01 8.474549e-01 8.503700e-01 1.670471e+00 1.113433e+00 1.204805e+00 6.099558e-01 1.045002e+00 2.958565e-02 1.949958e-02 1.930219e-02 6.131493e-02 7.437963e-02 1.031050e-01 2.027085e-01 2.110208e-01 2.592981e-01 1.823027e-01 1.764409e-01 1.169955e-01 9.476572e-02 1.089305e-02
<GCONST> 6.426147e+01
<STATE> 16
<MEAN> 39
 -9.705961e+00 -5.052155e+00 -6.106219e+00 -7.360348e+00 -6.742160e-01 -5.403968e+00 -2.278697e+00 -6.796015e+00 -7.968295e-01 -1.167004e+01 -7.272924e+00 -1.092952e+01 6.132010e+01 -8.463598e-01 4.040232e-01 4.013182e-01 1.966567e-01 3.038533e-01 3.098167e-01 4.381307e-01 4.157576e-02 -3.194907e-01 1.218429e-01 4.435622e-01 1.730749e-01 -7.160819e-01 6.371161e-02 -7.990412e-02 6.302209e-03 6.140702e-02 -3.765279e-03 -6.818778e-02 9.040627e-03 -4.997907e-03 5.952967e-02 9.784430e-03 5.627017e-02 1.789636e-01 5.539781e-02
<VARIANCE> 39
 1.569002e+00 5.865377e+00 9.926697e+00 8.028453e+00 1.205967e+01 2.721840e+01 1.810493e+01 1.319091e+01 1.477961e+01 1.519300e+01 2.559296e+01 3.868172e+01 1.073213e+00 8.710533e-02 1.675664e-01 4.943645e-01 5.541031e-01 7.523358e-01 1.424720e+00 1.748304e+00 1.760625e+00 1.058039e+00 6.937312e-01 9.856531e-01 7.760059e-01 2.649358e-02 1.230212e-02 3.074675e-02 5.436878e-02 9.247093e-02 1.005637e-01 1.615999e-01 1.903247e-01 1.872589e-01 2.190989e-01 8.391695e-02 1.086956e-01 1.458092e-01 3.236811e-03
<GCONST> 5.888984e+01
<STATE> 17
<MEAN> 39
 -1.293518e+01 -4.508796e+00 -3.843903e+00 -5.148980e+00 1.728263e+00 -5.352529e+00 3.255818e-01 -4.405730e+00 -2.513066e-01 -1.043529e+01 -5.078775e+00 -9.918517e+00 5.876285e+01 -6.933823e-01 -3.198194e-02 4.726933e-01 4.339868e-01 7.428846e-02 -2.205604e-01 1.150604e-01 3.629532e-01 2.180616e-01 3.671493e-01 4.173401e-01 2.757931e-01 -4.997256e-01 -2.737037e-02 -6.648944e-02 -4.322237e-02 -7.682796e-02 -1.301017e-01 8.985324e-02 -3.105664e-02 -9.087455e-04 -1.031537e-01 -1.061605e-01 -1.117142e-01 -2.888514e-02 2.115973e-02
<VARIANCE> 39
 2.404550e+00 4.104067e+00 9.844704e+00 1.045612e+01 8.686532e+00 1.014995e+01 1.813184e+01 2.357189e+01 1.465960e+01 1.382224e+01 2.675111e+01 4.113334e+01 7.750791e-01 6.239488e-02 1.050235e-01 4.402062e-01 7.569763e-01 5.895570e-01 6.110464e-01 7.808198e-01 6.841177e-01 1.157666e+00 8.914064e-01 9.008091e-01 9.571726e-01 2.293039e-02 1.360513e-02 3.559941e-02 5.411986e-02 1.507616e-01 1.167933e-01 1.391331e-01 1.425599e-01 1.273374e-01 2.388074e-01 1.961258e-01 1.960144e-01 1.495606e-01 3.295522e-03
<GCONST> 5.665494e+01
<STATE> 18
<MEAN> 39
 -1.486767e+01 -4.883828e+00 -3.884175e+00 -4.910319e+00 -4.798764e-01 -4.202010e+00 2.621844e+00 -6.186752e+00 -3.781677e+00 -1.171971e+01 -3.354533e+00 -4.961810e+00 5.739973e+01 -8.042657e-01 -5.113469e-01 2.906632e-01 4.365184e-01 -2.560874e-01 4.630450e-01 1.537359e+00 7.814875e-01 -7.877197e-01 -7.435000e-01 2.349654e-01 3.457903e-01 -3.477808e-01 -1.845699e-03 2.699802e-02 1.404245e-01 1.370058e-01 1.005226e-01 2.813276e-02 1.665802e-01 1.565408e-01 5.015050e-02 -1.043774e-01 -1.351203e-02 -3.537417e-02 2.876621e-02
<VARIANCE> 39
 2.430154e+00 8.188048e+00 1.015253e+01 3.527935e+01 2.252865e+01 1.725384e+01 9.249762e+01 5.062149e+01 4.749180e+01 2.507397e+01 4.394275e+01 2.638955e+01 5.392524e-01 1.338208e-01 6.157027e-01 5.511629e-01 1.940762e+00 1.705511e+00 1.753757e+00 2.716647e+00 1.408008e+00 3.122260e+00 1.344041e+00 1.241822e+00 8.691635e-01 9.116128e-02 1.515459e-02 1.380264e-01 1.022011e-01 2.647726e-01 2.761076e-01 2.045158e-01 4.890898e-01 2.832255e-01 6.806582e-01 3.314507e-01 3.288388e-01 1.507040e-01 2.003816e-02
<GCONST> 8.457371e+01
<STATE> 19
<MEAN> 39
 -1.761250e+01 -4.788873e+00 -4.364689e-01 -1.485999e+00 1.112401e+00 -4.978773e+00 3.867129e+00 -2.841437e+00 -2.861082e+00 -1.252514e+01 -4.025335e+00 -7.689214e+00 5.594384e+01 -6.075504e-01 6.659710e-03 6.433876e-01 4.664444e-01 2.501401e-01 1.179473e-01 4.524940e-01 4.647884e-01 1.692154e-01 1.493306e-01 7.285912e-01 7.971704e-01 -3.598067e-01 1.068748e-01 -2.916609e-02 -2.252389e-02 5.331162e-02 1.443232e-01 1.600838e-01 3.136396e-02 2.385916e-02 1.201482e-01 2.338849e-01 1.216971e-01 1.806560e-01 5.884476e-02
<VARIANCE> 39
 2.865965e+00 2.822128e+00 1.246846e+01 3.396571e+01 1.652030e+01 1.474827e+01 9.786039e+01 4.080734e+01 1.686761e+01 2.090183e+01 3.436030e+01 2.969491e+01 9.924103e-01 2.531497e-01 1.891489e-01 3.656564e-01 6.822073e-01 6.444499e-01 1.221484e+00 7.809012e-01 9.641827e-01 1.033550e+00 2.329188e+00 1.979762e+00 8.506094e-01 8.708446e-02 3.335277e-02 4.377466e-02 6.777617e-02 1.586678e-01 1.638148e-01 2.795344e-01 2.702059e-01 2.421628e-01 2.208055e-01 4.044610e-01 3.590434e-01 1.706152e-01 8.598302e-03
<GCONST> 7.356133e+01
<TRANSP> 20
 0.000000e+00 1.000000e+00 0.000000e+00 0.000000e+00 0.000000e+00 0.000000e+00 0.000000e+00 0.000000e+00 0.000000e+00 0.000000e+00 0.000000e+00 0.000000e+00 0.000000e+00 0.000000e+00 0.000000e+00 0.000000e+00 0.000000e+00 0.000000e+00 0.000000e+00 0.000000e+00
 0.000000e+00 7.068229e-01 2.931771e-01 0.000000e+00 0.000000e+00 0.000000e+00 0.000000e+00 0.000000e+00 0.000000e+00 0.000000e+00 0.000000e+00 0.000000e+00 0.000000e+00 0.000000e+00 0.000000e+00 0.000000e+00 0.000000e+00 0.000000e+00 0.000000e+00 0.000000e+00
 0.000000e+00 0.000000e+00 6.765099e-01 3.234901e-01 0.000000e+00 0.000000e+00 0.000000e+00 0.000000e+00 0.000000e+00 0.000000e+00 0.000000e+00 0.000000e+00 0.000000e+00 0.000000e+00 0.000000e+00 0.000000e+00 0.000000e+00 0.000000e+00 0.000000e+00 0.000000e+00
 0.000000e+00 0.000000e+00 0.000000e+00 7.073748e-01 2.926252e-01 0.000000e+00 0.000000e+00 0.000000e+00 0.000000e+00 0.000000e+00 0.000000e+00 0.000000e+00 0.000000e+00 0.000000e+00 0.000000e+00 0.000000e+00 0.000000e+00 0.000000e+00 0.000000e+00 0.000000e+00
 0.000000e+00 0.000000e+00 0.000000e+00 0.000000e+00 7.492269e-01 2.507731e-01 0.000000e+00 0.000000e+00 0.000000e+00 0.000000e+00 0.000000e+00 0.000000e+00 0.000000e+00 0.000000e+00 0.000000e+00 0.000000e+00 0.000000e+00 0.000000e+00 0.000000e+00 0.000000e+00
 0.000000e+00 0.000000e+00 0.000000e+00 0.000000e+00 0.000000e+00 7.687220e-01 2.312780e-01 0.000000e+00 0.000000e+00 0.000000e+00 0.000000e+00 0.000000e+00 0.000000e+00 0.000000e+00 0.000000e+00 0.000000e+00 0.000000e+00 0.000000e+00 0.000000e+00 0.000000e+00
 0.000000e+00 0.000000e+00 0.000000e+00 0.000000e+00 0.000000e+00 0.000000e+00 7.744974e-01 2.255026e-01 0.000000e+00 0.000000e+00 0.000000e+00 0.000000e+00 0.000000e+00 0.000000e+00 0.000000e+00 0.000000e+00 0.000000e+00 0.000000e+00 0.000000e+00 0.000000e+00
 0.000000e+00 0.000000e+00 0.000000e+00 0.000000e+00 0.000000e+00 0.000000e+00 0.000000e+00 5.204585e-01 4.795415e-01 0.000000e+00 0.000000e+00 0.000000e+00 0.000000e+00 0.000000e+00 0.000000e+00 0.000000e+00 0.000000e+00 0.000000e+00 0.000000e+00 0.000000e+00
 0.000000e+00 0.000000e+00 0.000000e+00 0.000000e+00 0.000000e+00 0.000000e+00 0.000000e+00 0.000000e+00 5.384132e-01 4.615868e-01 0.000000e+00 0.000000e+00 0.000000e+00 0.000000e+00 0.000000e+00 0.000000e+00 0.000000e+00 0.000000e+00 0.000000e+00 0.000000e+00
 0.000000e+00 0.000000e+00 0.000000e+00 0.000000e+00 0.000000e+00 0.000000e+00 0.000000e+00 0.000000e+00 0.000000e+00 5.861459e-01 4.138541e-01 0.000000e+00 0.000000e+00 0.000000e+00 0.000000e+00 0.000000e+00 0.000000e+00 0.000000e+00 0.000000e+00 0.000000e+00
 0.000000e+00 0.000000e+00 0.000000e+00 0.000000e+00 0.000000e+00 0.000000e+00 0.000000e+00 0.000000e+00 0.000000e+00 0.000000e+00 5.887631e-01 4.112369e-01 0.000000e+00 0.000000e+00 0.000000e+00 0.000000e+00 0.000000e+00 0.000000e+00 0.000000e+00 0.000000e+00
 0.000000e+00 0.000000e+00 0.000000e+00 0.000000e+00 0.000000e+00 0.000000e+00 0.000000e+00 0.000000e+00 0.000000e+00 0.000000e+00 0.000000e+00 8.027768e-01 1.972232e-01 0.000000e+00 0.000000e+00 0.000000e+00 0.000000e+00 0.000000e+00 0.000000e+00 0.000000e+00
 0.000000e+00 0.000000e+00 0.000000e+00 0.000000e+00 0.000000e+00 0.000000e+00 0.000000e+00 0.000000e+00 0.000000e+00 0.000000e+00 0.000000e+00 0.000000e+00 6.573820e-01 3.426180e-01 0.000000e+00 0.000000e+00 0.000000e+00 0.000000e+00 0.000000e+00 0.000000e+00
 0.000000e+00 0.000000e+00 0.000000e+00 0.000000e+00 0.000000e+00 0.000000e+00 0.000000e+00 0.000000e+00 0.000000e+00 0.000000e+00 0.000000e+00 0.000000e+00 0.000000e+00 6.355254e-01 3.644746e-01 0.000000e+00 0.000000e+00 0.000000e+00 0.000000e+00 0.000000e+00
 0.000000e+00 0.000000e+00 0.000000e+00 0.000000e+00 0.000000e+00 0.000000e+00 0.000000e+00 0.000000e+00 0.000000e+00 0.000000e+00 0.000000e+00 0.000000e+00 0.000000e+00 0.000000e+00 6.843590e-01 3.156410e-01 0.000000e+00 0.000000e+00 0.000000e+00 0.000000e+00
 0.000000e+00 0.000000e+00 0.000000e+00 0.000000e+00 0.000000e+00 0.000000e+00 0.000000e+00 0.000000e+00 0.000000e+00 0.000000e+00 0.000000e+00 0.000000e+00 0.000000e+00 0.000000e+00 0.000000e+00 7.659829e-01 2.340171e-01 0.000000e+00 0.000000e+00 0.000000e+00
 0.000000e+00 0.000000e+00 0.000000e+00 0.000000e+00 0.000000e+00 0.000000e+00 0.000000e+00 0.000000e+00 0.000000e+00 0.000000e+00 0.000000e+00 0.000000e+00 0.000000e+00 0.000000e+00 0.000000e+00 0.000000e+00 7.376816e-01 2.623184e-01 0.000000e+00 0.000000e+00
 0.000000e+00 0.000000e+00 0.000000e+00 0.000000e+00 0.000000e+00 0.000000e+00 0.000000e+00 0.000000e+00 0.000000e+00 0.000000e+00 0.000000e+00 0.000000e+00 0.000000e+00 0.000000e+00 0.000000e+00 0.000000e+00 0.000000e+00 6.071219e-01 3.928781e-01 0.000000e+00
 0.000000e+00 0.000000e+00 0.000000e+00 0.000000e+00 0.000000e+00 0.000000e+00 0.000000e+00 0.000000e+00 0.000000e+00 0.000000e+00 0.000000e+00 0.000000e+00 0.000000e+00 0.000000e+00 0.000000e+00 0.000000e+00 0.000000e+00 0.000000e+00 6.794442e-01 3.205558e-01
 0.000000e+00 0.000000e+00 0.000000e+00 0.000000e+00 0.000000e+00 0.000000e+00 0.000000e+00 0.000000e+00 0.000000e+00 0.000000e+00 0.000000e+00 0.000000e+00 0.000000e+00 0.000000e+00 0.000000e+00 0.000000e+00 0.000000e+00 0.000000e+00 0.000000e+00 0.000000e+00
<ENDHMM>
