~o
<STREAMINFO> 1 39
<VECSIZE> 39<NULLD><MFCC_D_A_0><DIAGC>
~h "kurang"
<BEGINHMM>
<NUMSTATES> 5
<STATE> 2
<MEAN> 39
 -2.908835e+00 -3.072497e+00 -7.979097e+00 -1.005517e+01 -3.330989e+00 -5.053222e+00 -5.629242e+00 -1.168398e+01 -4.150087e+00 -4.043866e+00 6.124815e+00 -3.691805e+00 6.617877e+01 8.042594e-01 -3.916681e-01 -3.725107e-01 8.569133e-02 -1.406415e-01 -1.487583e-01 -2.279574e-01 7.425865e-02 1.432084e-01 2.220228e-01 -1.368001e-02 -3.203996e-01 7.089716e-01 -1.510989e-02 -3.758654e-02 1.103531e-03 -2.385484e-03 -1.455297e-02 3.451447e-02 4.218018e-02 2.795691e-02 1.766045e-02 -1.728647e-02 -6.705203e-02 -1.623868e-02 1.323256e-02
<VARIANCE> 39
 7.181654e+01 6.696347e+01 4.315219e+01 6.352776e+01 6.466403e+01 7.418291e+01 8.382347e+01 1.003491e+02 6.716000e+01 6.949152e+01 7.072443e+01 6.934869e+01 3.482256e+01 2.386246e+00 4.678284e+00 3.298283e+00 4.366204e+00 3.416841e+00 4.657902e+00 4.458236e+00 6.551736e+00 5.220107e+00 5.571130e+00 4.147908e+00 4.829787e+00 7.332026e-01 3.395117e-01 5.779634e-01 7.100187e-01 5.885463e-01 5.478188e-01 7.897614e-01 7.045518e-01 7.917168e-01 8.480823e-01 1.066582e+00 6.328363e-01 7.207386e-01 1.370178e-01
<GCONST> 1.365645e+02
<STATE> 3
<MEAN> 39
 1.328140e+00 -8.430077e+00 -8.020578e+00 -6.171697e+00 3.201638e-01 -4.471416e+00 -4.624671e+00 -5.934283e+00 8.616760e-01 -5.737020e+00 -4.151451e+00 -1.203023e+01 7.117914e+01 -2.910842e-01 1.006069e+00 6.359470e-01 -7.444754e-02 4.108233e-01 2.943020e-01 7.210789e-02 -2.370197e-01 -3.661953e-01 -5.502558e-01 -2.515239e-01 6.814277e-02 -5.281276e-01 -4.682860e-02 6.978705e-02 4.837313e-02 6.659254e-02 3.062021e-02 -7.107265e-02 -1.471672e-02 -2.501904e-02 -1.883271e-03 6.002010e-03 6.549537e-02 3.760232e-03 -6.578407e-02
<VARIANCE> 39
 5.232339e+00 6.847168e+01 6.665124e+01 2.011421e+01 7.157539e+01 5.260730e+01 2.375056e+01 7.866141e+01 5.369933e+01 7.557846e+01 6.638422e+01 4.823187e+01 1.710072e+01 2.138427e-01 6.822218e-01 1.105050e+00 1.150563e+00 1.548354e+00 1.427742e+00 1.184997e+00 2.171225e+00 3.240565e+00 1.646283e+00 1.579125e+00 1.812149e+00 1.857531e-01 3.678473e-02 8.666340e-02 1.425203e-01 1.551717e-01 1.749036e-01 1.871479e-01 1.921985e-01 2.891310e-01 4.768763e-01 2.839715e-01 2.221716e-01 3.067336e-01 2.008983e-02
<GCONST> 9.637841e+01
<STATE> 4
<MEAN> 39
 -1.238985e+01 -3.082891e-02 3.395464e+00 8.881655e-01 5.945902e+00 -7.858090e-02 3.452828e+00 -4.259721e+00 -1.713678e+00 -1.156945e+01 -5.408998e+00 -1.060678e+01 5.868988e+01 -6.959695e-01 -4.079091e-01 2.541111e-02 1.977499e-01 4.813738e-02 1.916839e-01 4.602659e-01 3.145520e-01 1.791529e-01 9.402815e-02 3.811014e-02 7.152172e-02 -3.720582e-01 2.576784e-02 -3.908288e-02 -5.013584e-02 -3.727883e-02 -2.948814e-03 8.702658e-03 -2.839241e-02 1.211718e-02 -2.229843e-04 8.325313e-03 1.353928e-02 1.835025e-02 2.581969e-02
<VARIANCE> 39
 2.660375e+01 1.943521e+01 1.629274e+01 1.772904e+01 2.466693e+01 2.916336e+01 5.232865e+01 7.574382e+01 6.219357e+01 6.175566e+01 4.363875e+01 3.063960e+01 7.516963e+00 2.828757e-01 5.495155e-01 8.347906e-01 8.925359e-01 1.141138e+00 1.372965e+00 1.708336e+00 1.399767e+00 1.350978e+00 1.362297e+00 1.276438e+00 1.085953e+00 1.029581e-01 3.504195e-02 8.252211e-02 1.087311e-01 1.473957e-01 1.971399e-01 2.094320e-01 2.880762e-01 2.603552e-01 2.594352e-01 2.445684e-01 2.157266e-01 1.964660e-01 1.030277e-02
<GCONST> 8.750087e+01
<TRANSP> 5
 0.000000e+00 1.000000e+00 0.000000e+00 0.000000e+00 0.000000e+00
 0.000000e+00 9.606336e-01 3.936638e-02 0.000000e+00 0.000000e+00
 0.000000e+00 0.000000e+00 9.487288e-01 5.127120e-02 0.000000e+00
 0.000000e+00 0.000000e+00 0.000000e+00 9.584952e-01 4.150483e-02
 0.000000e+00 0.000000e+00 0.000000e+00 0.000000e+00 0.000000e+00
<ENDHMM>
