~o
<STREAMINFO> 1 39
<VECSIZE> 39<NULLD><MFCC_D_A_0><DIAGC>
~h "lebih"
<BEGINHMM>
<NUMSTATES> 5
<STATE> 2
<MEAN> 39
 -4.964294e+00 -2.032419e+00 3.407984e+00 -3.825843e+00 -2.209489e+00 -9.977513e+00 -1.283557e+01 -1.001160e+01 1.538507e+00 -1.894134e+00 1.649521e+00 -9.688418e+00 6.615392e+01 1.374380e+00 4.397501e-01 5.629044e-01 -7.681461e-02 -4.845923e-01 -6.546469e-01 -1.168695e+00 -4.332916e-01 -7.280886e-02 3.544175e-01 -7.418692e-03 -4.389749e-01 1.049430e+00 -1.374041e-01 -4.171246e-02 7.611861e-04 -4.341595e-02 1.162218e-01 1.771140e-01 1.893784e-01 8.534501e-02 1.083658e-02 -6.582898e-02 -3.202621e-02 -4.248081e-02 -9.684926e-02
<VARIANCE> 39
 5.129352e+01 2.510297e+01 7.468617e+01 2.495629e+01 9.055141e+01 1.011225e+02 1.215588e+02 1.407221e+02 6.033957e+01 1.125954e+02 8.793734e+01 3.309785e+01 4.494533e+01 2.882591e+00 3.609743e+00 3.959903e+00 2.405508e+00 5.220160e+00 7.484756e+00 8.183772e+00 9.480185e+00 6.958176e+00 8.704439e+00 5.663964e+00 3.512508e+00 2.346857e+00 4.041381e-01 6.367851e-01 6.133347e-01 4.675799e-01 8.205113e-01 1.277121e+00 1.064987e+00 1.590754e+00 1.280170e+00 1.575144e+00 9.825845e-01 7.595209e-01 3.924719e-01
<GCONST> 1.438443e+02
<STATE> 3
<MEAN> 39
 -5.658733e+00 2.635331e+00 1.181457e+01 -5.940156e-01 -8.897832e+00 -1.144475e+01 -7.954706e+00 -1.349312e+01 -5.727256e+00 -7.454207e+00 1.967305e+00 -8.115625e+00 6.598915e+01 -4.913227e-01 2.341120e-01 4.415842e-01 2.684800e-01 6.002275e-02 2.214622e-01 3.962301e-01 -3.150800e-01 -2.083251e-01 -3.158120e-01 1.125273e-01 4.356233e-01 -2.924328e-01 -1.627063e-02 -5.954487e-02 -8.062267e-02 -1.958802e-02 1.928429e-02 -7.351262e-03 -8.301180e-03 4.761552e-04 4.060228e-02 6.415471e-02 -1.610501e-02 4.481693e-02 7.174313e-03
<VARIANCE> 39
 1.809323e+01 1.676008e+01 1.075939e+02 5.307319e+01 1.700567e+02 5.630681e+01 4.520266e+01 9.785324e+01 6.609330e+01 6.807912e+01 1.096697e+02 4.314003e+01 1.065487e+01 5.110233e-01 9.936762e-01 2.151859e+00 2.117606e+00 7.608399e+00 4.473274e+00 2.571407e+00 2.815744e+00 3.156098e+00 2.977199e+00 3.792444e+00 2.582654e+00 6.578604e-01 8.240145e-02 1.591597e-01 2.403663e-01 3.035070e-01 1.043432e+00 7.517772e-01 4.008836e-01 3.997366e-01 4.692638e-01 4.593910e-01 5.449192e-01 4.749692e-01 9.203432e-02
<GCONST> 1.189950e+02
<STATE> 4
<MEAN> 39
 -1.576600e+01 -1.455552e+00 5.823832e+00 -1.686320e-01 4.296653e+00 -1.031122e+00 -4.436422e-01 -1.217242e+01 -2.905487e+00 -1.201357e+01 -2.964688e+00 -4.179634e+00 5.897780e+01 -3.876725e-01 -5.207633e-01 -7.317864e-01 -5.733472e-02 5.577663e-01 4.348241e-01 4.529870e-01 6.095168e-01 2.123187e-01 -1.518840e-01 -3.437656e-01 -2.273008e-01 -3.697734e-01 2.392148e-02 -6.882720e-03 -4.088581e-03 -1.305763e-02 -7.541960e-02 -3.213580e-02 -4.247626e-03 5.052872e-02 2.950458e-02 1.810926e-02 2.182809e-02 -3.672907e-02 1.491374e-02
<VARIANCE> 39
 1.902447e+01 1.845865e+01 4.198979e+01 2.511872e+01 6.025448e+01 4.938746e+01 6.081704e+01 6.662068e+01 4.428857e+01 4.956350e+01 3.646095e+01 3.162173e+01 9.963739e+00 2.122757e-01 3.910300e-01 5.830445e-01 9.969026e-01 1.346987e+00 1.062611e+00 1.272250e+00 1.602961e+00 1.530119e+00 1.925176e+00 1.865016e+00 1.458232e+00 8.682535e-02 2.921529e-02 6.801519e-02 8.364971e-02 1.680853e-01 1.648405e-01 1.672744e-01 1.924524e-01 2.358463e-01 3.033803e-01 2.752271e-01 3.200622e-01 2.638242e-01 9.899491e-03
<GCONST> 8.878571e+01
<TRANSP> 5
 0.000000e+00 1.000000e+00 0.000000e+00 0.000000e+00 0.000000e+00
 0.000000e+00 9.210069e-01 7.899310e-02 0.000000e+00 0.000000e+00
 0.000000e+00 0.000000e+00 9.531825e-01 4.681748e-02 0.000000e+00
 0.000000e+00 0.000000e+00 0.000000e+00 9.548481e-01 4.515196e-02
 0.000000e+00 0.000000e+00 0.000000e+00 0.000000e+00 0.000000e+00
<ENDHMM>
