~o
<STREAMINFO> 1 39
<VECSIZE> 39<NULLD><MFCC_D_A_0><DIAGC>
~h "pukul"
<BEGINHMM>
<NUMSTATES> 5
<STATE> 2
<MEAN> 39
 -4.630829e+00 2.605105e+00 -3.194293e+00 -1.294649e+01 -5.427576e+00 -5.175100e+00 -1.492229e+00 -9.101233e+00 -6.282640e+00 -1.083096e+01 1.962607e+00 -3.953774e+00 6.354137e+01 6.522934e-01 3.818125e-01 -1.561675e-01 -4.838340e-01 -2.271579e-01 6.899887e-02 -2.664010e-01 -4.051045e-01 -4.518125e-01 -6.544454e-02 3.332205e-01 1.233458e-01 3.917662e-01 1.287988e-03 -2.496886e-02 -6.011579e-03 -1.278863e-02 1.710469e-02 4.068342e-02 -2.380493e-02 -1.945277e-02 7.489244e-03 7.687761e-02 4.233250e-02 -2.453495e-02 1.182552e-02
<VARIANCE> 39
 5.000768e+01 3.290213e+01 2.541649e+01 5.615913e+01 4.850784e+01 4.077173e+01 3.591358e+01 5.082993e+01 4.201526e+01 2.476303e+01 5.859270e+01 3.239087e+01 1.640478e+01 3.674395e+00 2.397959e+00 2.032825e+00 4.819750e+00 3.243929e+00 2.913830e+00 4.042284e+00 4.059416e+00 2.671502e+00 2.100317e+00 3.373219e+00 2.150923e+00 1.165682e+00 4.692722e-01 3.651749e-01 3.941256e-01 7.072210e-01 5.581490e-01 5.360159e-01 7.553555e-01 7.052339e-01 4.493630e-01 3.697865e-01 5.151407e-01 4.016570e-01 1.326406e-01
<GCONST> 1.218330e+02
<STATE> 3
<MEAN> 39
 1.348256e+00 2.309000e+00 -5.371822e+00 -1.814328e+01 -2.940156e+00 -2.138851e+00 -1.349114e+01 -2.040145e+01 -9.502604e+00 -5.853370e-01 6.734697e+00 -8.805833e+00 6.938111e+01 -3.888788e-01 -2.201511e-01 2.917435e-01 6.355766e-01 3.149881e-01 -1.593548e-01 -8.724605e-02 -1.636243e-01 3.636981e-01 1.516300e-01 -5.767914e-01 -4.269282e-01 -2.787271e-01 -6.181192e-02 2.525352e-02 3.094136e-02 8.713724e-02 4.284280e-03 -7.907758e-02 5.244432e-02 7.229910e-02 -1.194950e-02 -1.299353e-01 -8.399436e-02 2.854322e-02 -6.424443e-02
<VARIANCE> 39
 8.604288e+00 1.243966e+01 5.261681e+01 5.141223e+01 4.833310e+01 6.529381e+01 9.416522e+01 8.566108e+01 6.116547e+01 4.704099e+01 9.714707e+01 5.730598e+01 1.174706e+01 2.433146e-01 5.449917e-01 8.977181e-01 1.065593e+00 1.332323e+00 1.538583e+00 2.069486e+00 3.177320e+00 1.994439e+00 4.061392e+00 1.807683e+00 1.903481e+00 2.422451e-01 3.150256e-02 7.001025e-02 1.075262e-01 1.378163e-01 1.889157e-01 2.444969e-01 2.864736e-01 3.773087e-01 3.726669e-01 4.888364e-01 3.166756e-01 3.281543e-01 1.242475e-02
<GCONST> 9.882126e+01
<STATE> 4
<MEAN> 39
 -1.245197e+01 -2.279713e+00 4.332134e-01 -1.271599e+00 3.662716e+00 -3.533978e+00 -3.298565e+00 -1.259867e+01 -4.758279e+00 -9.160591e+00 -3.471833e+00 -1.127021e+01 5.890948e+01 -6.310553e-01 -4.049861e-01 -1.965882e-02 2.994200e-01 2.599067e-01 2.614203e-01 6.273468e-01 7.229110e-01 1.631010e-01 -2.084656e-01 -2.366043e-01 -8.145428e-02 -3.353751e-01 3.071608e-02 -8.373779e-03 -2.170911e-02 -5.231586e-02 -2.195732e-02 4.525174e-02 3.806264e-02 4.842541e-02 4.135834e-02 3.058816e-02 1.531131e-02 -1.174127e-02 2.684722e-02
<VARIANCE> 39
 1.812533e+01 1.382746e+01 8.441786e+00 1.627747e+01 3.099987e+01 4.832299e+01 5.261144e+01 5.151043e+01 2.821043e+01 2.581608e+01 3.807771e+01 3.188963e+01 4.666491e+00 1.709813e-01 3.426828e-01 6.553528e-01 8.677323e-01 9.546896e-01 1.220769e+00 1.171429e+00 1.714870e+00 1.521736e+00 1.316974e+00 1.680642e+00 1.722321e+00 5.683368e-02 2.409720e-02 5.908322e-02 1.126179e-01 1.515341e-01 1.746921e-01 2.003328e-01 2.140217e-01 3.012305e-01 3.014474e-01 2.458866e-01 2.904822e-01 3.086554e-01 6.021154e-03
<GCONST> 8.206772e+01
<TRANSP> 5
 0.000000e+00 1.000000e+00 0.000000e+00 0.000000e+00 0.000000e+00
 0.000000e+00 9.692629e-01 3.073710e-02 0.000000e+00 0.000000e+00
 0.000000e+00 0.000000e+00 9.524993e-01 4.750072e-02 0.000000e+00
 0.000000e+00 0.000000e+00 0.000000e+00 9.553847e-01 4.461536e-02
 0.000000e+00 0.000000e+00 0.000000e+00 0.000000e+00 0.000000e+00
<ENDHMM>
