~o
<STREAMINFO> 1 39
<VECSIZE> 39<NULLD><MFCC_D_A_0><DIAGC>
~h "satu"
<BEGINHMM>
<NUMSTATES> 5
<STATE> 2
<MEAN> 39
 -1.399720e+01 -5.960613e-02 -1.007516e+01 -4.769667e+00 1.347702e+00 -9.184357e+00 1.496294e+00 -1.122440e+01 4.222025e+00 -7.734737e+00 -2.628160e+00 -6.219150e+00 6.344726e+01 2.366583e-01 1.924133e-01 -1.062675e-01 -1.126453e-01 9.130485e-02 -5.292426e-02 -9.181117e-02 -1.237910e-02 -2.279100e-02 2.617980e-03 -9.795649e-02 -2.628691e-01 2.343579e-01 9.827710e-02 -3.809144e-02 3.975179e-02 -4.296590e-02 -1.215572e-02 -2.210395e-02 -5.474063e-02 2.561644e-02 -2.140614e-02 4.577337e-02 -1.527072e-02 -4.304896e-02 4.361740e-02
<VARIANCE> 39
 1.102564e+02 3.954401e+01 4.858473e+01 3.421358e+01 1.760615e+01 3.694585e+01 7.247346e+01 2.711947e+01 3.807645e+01 4.031060e+01 9.890321e+01 2.763130e+01 2.595954e+01 5.049932e+00 2.337078e+00 2.716503e+00 2.201189e+00 1.510375e+00 1.979366e+00 4.277487e+00 2.198178e+00 2.504058e+00 2.244103e+00 4.165123e+00 1.860694e+00 1.314253e+00 5.405579e-01 3.057378e-01 3.329639e-01 3.222453e-01 3.015709e-01 3.686458e-01 6.307186e-01 3.972787e-01 3.941597e-01 3.746998e-01 5.596630e-01 3.539073e-01 1.493221e-01
<GCONST> 1.186339e+02
<STATE> 3
<MEAN> 39
 -2.984151e+00 -3.289283e+00 -2.390671e+00 -1.119361e+01 3.985999e+00 -1.095209e+01 -8.947840e+00 -8.254524e+00 -5.464890e+00 -4.237686e-02 1.121415e+00 -8.222167e+00 7.013003e+01 6.945541e-01 2.299424e-01 -7.521848e-02 -5.512852e-01 -1.196174e-01 -4.625980e-02 -5.067360e-01 -6.151701e-01 -7.040893e-01 2.343586e-01 4.801935e-01 5.984833e-01 2.805139e-01 -9.265586e-02 5.120246e-02 -3.416450e-02 3.315439e-02 -5.349053e-02 9.001780e-02 8.812179e-02 1.881386e-02 -2.776004e-02 -1.117962e-01 -3.768604e-02 3.120196e-02 -9.608016e-02
<VARIANCE> 39
 2.409171e+01 4.476311e+01 5.294691e+01 4.558762e+01 6.027797e+01 6.544036e+01 1.446107e+02 1.821665e+02 8.063775e+01 5.921768e+01 6.258653e+01 6.270233e+01 4.524380e+01 2.653284e+00 2.648209e+00 2.437779e+00 1.777680e+00 3.175596e+00 6.345783e+00 5.134985e+00 5.910252e+00 3.543091e+00 5.223547e+00 2.825348e+00 3.223110e+00 2.609039e+00 4.319267e-01 2.536861e-01 3.867972e-01 3.348731e-01 4.661612e-01 1.091966e+00 8.449961e-01 9.323570e-01 5.905183e-01 7.998003e-01 4.863218e-01 5.246241e-01 2.776971e-01
<GCONST> 1.328189e+02
<STATE> 4
<MEAN> 39
 -7.397351e+00 2.211769e+00 1.638337e-01 -8.121428e+00 -3.979472e+00 -8.184314e+00 -4.352271e+00 -1.371752e+01 -8.412271e+00 -9.287876e+00 2.501079e+00 -1.174478e+00 6.133029e+01 -5.885924e-01 -2.579028e-01 2.514983e-01 4.983623e-01 3.651486e-02 1.557519e-01 3.672111e-01 3.880641e-01 2.891660e-01 -2.764667e-01 -2.617809e-01 -1.631361e-01 -3.745125e-01 -1.011889e-02 -2.749455e-02 -9.745250e-03 1.419465e-02 3.544242e-02 -1.412833e-02 -3.239699e-02 -1.010457e-02 2.969680e-02 4.063004e-02 4.914164e-03 -2.227505e-02 1.287821e-02
<VARIANCE> 39
 4.511969e+01 1.897020e+01 3.068519e+01 5.377361e+01 3.231862e+01 1.754601e+01 3.480954e+01 4.328511e+01 4.184601e+01 3.305212e+01 2.600551e+01 4.209937e+01 1.488564e+01 2.349037e-01 4.055837e-01 7.662662e-01 1.034582e+00 1.300848e+00 1.146882e+00 1.547804e+00 1.585063e+00 1.643292e+00 1.705613e+00 1.602790e+00 1.759129e+00 9.040139e-02 3.314367e-02 5.221308e-02 1.076624e-01 1.592787e-01 1.706224e-01 2.174854e-01 2.722690e-01 2.518267e-01 3.188284e-01 3.094690e-01 3.009033e-01 3.519053e-01 8.947746e-03
<GCONST> 8.912814e+01
<TRANSP> 5
 0.000000e+00 1.000000e+00 0.000000e+00 0.000000e+00 0.000000e+00
 0.000000e+00 9.615650e-01 3.843501e-02 0.000000e+00 0.000000e+00
 0.000000e+00 0.000000e+00 9.498554e-01 5.014466e-02 0.000000e+00
 0.000000e+00 0.000000e+00 0.000000e+00 9.684605e-01 3.153949e-02
 0.000000e+00 0.000000e+00 0.000000e+00 0.000000e+00 0.000000e+00
<ENDHMM>
