~o
<STREAMINFO> 1 39
<VECSIZE> 39<NULLD><MFCC_D_A_0><DIAGC>
~h "nol"
<BEGINHMM>
<NUMSTATES> 5
<STATE> 2
<MEAN> 39
 -6.910511e+00 1.000723e+00 1.653185e+00 -3.812272e+00 1.371422e+00 -8.091834e+00 -6.509091e+00 -1.070491e+01 -1.544947e+00 -6.531488e+00 6.505052e-01 -7.386823e+00 6.324855e+01 1.394752e+00 1.013622e-01 -4.654735e-01 -7.573627e-01 2.586108e-01 3.606135e-01 -7.010843e-01 -1.931905e-01 4.138177e-02 1.297763e-01 2.032077e-01 -3.277005e-01 1.074627e+00 -7.794891e-03 -1.046389e-01 -1.351237e-01 -1.427754e-01 -2.774301e-03 1.771843e-01 1.442750e-01 -2.968804e-02 -2.113315e-03 -4.156673e-02 -1.712754e-03 3.813669e-02 1.835824e-02
<VARIANCE> 39
 7.613451e+01 5.211283e+01 7.341353e+01 4.494976e+01 3.655779e+01 4.232507e+01 8.540588e+01 5.585464e+01 4.676456e+01 5.682214e+01 8.298920e+01 4.216096e+01 3.282473e+01 1.863347e+00 6.998586e+00 8.388606e+00 4.960526e+00 3.877464e+00 6.595021e+00 4.914503e+00 5.182202e+00 4.103964e+00 2.728833e+00 3.669636e+00 3.236695e+00 6.307566e-01 3.208144e-01 9.923982e-01 1.077579e+00 5.952747e-01 6.854707e-01 8.595889e-01 7.032209e-01 9.564699e-01 7.530692e-01 4.727212e-01 5.746639e-01 6.065795e-01 1.199204e-01
<GCONST> 1.338989e+02
<STATE> 3
<MEAN> 39
 2.910578e+00 -3.148005e+00 -9.091145e+00 -2.040020e+01 8.908899e-01 7.044669e+00 -7.598647e+00 -1.450173e+01 -3.657828e+00 -6.994718e+00 1.118852e+00 -7.584642e+00 7.181202e+01 -1.741229e-01 2.761926e-01 2.188564e-01 9.413175e-02 -1.995545e-01 7.125630e-02 1.934611e-01 -2.639754e-01 -1.845649e-01 -1.529745e-01 -1.894125e-01 1.151712e-01 -2.494232e-01 -5.445566e-02 4.259842e-02 7.445364e-02 1.353206e-01 2.774273e-02 -1.365999e-01 -2.234310e-02 6.708533e-02 1.732959e-02 1.875823e-02 -4.316159e-03 -2.151104e-02 -5.437427e-02
<VARIANCE> 39
 2.942890e+00 3.237025e+01 6.295913e+01 1.935728e+01 8.894496e+01 6.587695e+01 7.250057e+01 1.134419e+02 6.980021e+01 5.700513e+01 1.443586e+02 4.537597e+01 1.197979e+01 1.822017e-01 5.047178e-01 9.932531e-01 1.277799e+00 1.588388e+00 2.050826e+00 1.306579e+00 1.777544e+00 1.592774e+00 2.026326e+00 1.227625e+00 1.167157e+00 1.805150e-01 1.958903e-02 9.021457e-02 1.264838e-01 1.101521e-01 2.251091e-01 2.160090e-01 1.909725e-01 2.685929e-01 2.483231e-01 2.703376e-01 2.073778e-01 1.796754e-01 1.107750e-02
<GCONST> 9.318491e+01
<STATE> 4
<MEAN> 39
 -1.016256e+01 -9.556838e-01 -7.815453e-01 -4.546568e+00 7.947484e-01 -2.608237e+00 6.688714e-01 -9.705951e+00 -3.793298e+00 -1.065969e+01 -4.092963e+00 -8.986938e+00 6.009815e+01 -6.215376e-01 -2.667046e-01 1.071544e-01 3.831676e-01 -7.804607e-04 -2.826590e-01 3.021325e-01 4.230022e-01 1.831546e-01 9.734119e-02 1.240544e-02 -3.389155e-03 -3.842088e-01 3.045087e-02 -1.997234e-02 -3.240553e-02 -7.170984e-02 -2.774098e-02 2.927443e-02 -2.826348e-02 -9.047057e-04 2.444303e-02 2.461959e-02 7.516719e-03 -8.680941e-03 2.998876e-02
<VARIANCE> 39
 2.344717e+01 1.185348e+01 1.198002e+01 3.259759e+01 1.835544e+01 3.307233e+01 2.798842e+01 3.403874e+01 2.483001e+01 2.708232e+01 3.990560e+01 2.735470e+01 8.178165e+00 1.764574e-01 3.730862e-01 6.541215e-01 1.102757e+00 1.059089e+00 1.310252e+00 1.492192e+00 1.616207e+00 1.424534e+00 1.273089e+00 1.903034e+00 1.835660e+00 9.545398e-02 2.401951e-02 6.716545e-02 9.753393e-02 1.593431e-01 1.834050e-01 1.908346e-01 2.573837e-01 2.817999e-01 2.554883e-01 2.254622e-01 2.918288e-01 3.129892e-01 7.073245e-03
<GCONST> 8.303682e+01
<TRANSP> 5
 0.000000e+00 1.000000e+00 0.000000e+00 0.000000e+00 0.000000e+00
 0.000000e+00 9.318385e-01 6.816155e-02 0.000000e+00 0.000000e+00
 0.000000e+00 0.000000e+00 9.583814e-01 4.161862e-02 0.000000e+00
 0.000000e+00 0.000000e+00 0.000000e+00 9.602140e-01 3.978597e-02
 0.000000e+00 0.000000e+00 0.000000e+00 0.000000e+00 0.000000e+00
<ENDHMM>
