~o
<STREAMINFO> 1 39
<VECSIZE> 39<NULLD><MFCC_D_A_0><DIAGC>
~h "jam"
<BEGINHMM>
<NUMSTATES> 20
<STATE> 2
<MEAN> 39
 -1.681215e+01 -5.725181e+00 -8.582682e-01 -2.000114e+00 3.949010e+00 -3.406380e-01 2.877793e+00 -4.927465e+00 4.546153e-01 -8.003653e+00 -2.273656e+00 -8.106405e+00 5.685627e+01 1.488819e+00 1.913280e+00 1.726539e+00 1.337736e+00 5.844419e-01 -1.733878e-01 -9.190991e-01 -1.463501e+00 -1.832102e+00 -1.287038e+00 -9.752352e-01 -6.449168e-01 5.974623e-01 3.472723e-01 5.748993e-01 4.957154e-01 2.508981e-01 -1.885953e-02 -3.365591e-01 -2.969952e-01 -4.071198e-01 -4.704842e-01 -2.624297e-01 -2.063766e-01 -2.295368e-01 1.850840e-01
<VARIANCE> 39
 4.701976e+00 8.915174e+00 8.750196e+00 1.332644e+01 1.562115e+01 1.303827e+01 2.323299e+01 2.382696e+01 2.052072e+01 1.657916e+01 1.967238e+01 1.681238e+01 8.451088e-01 1.392205e+00 2.922048e+00 2.607872e+00 1.294404e+00 8.507038e-01 1.736727e+00 3.173588e+00 3.344594e+00 4.051003e+00 3.361115e+00 3.284441e+00 2.084878e+00 2.277346e-01 1.547837e-01 2.143300e-01 2.289991e-01 1.713676e-01 1.923849e-01 2.709584e-01 4.521259e-01 4.853525e-01 6.281130e-01 5.326210e-01 3.416998e-01 2.957777e-01 1.733927e-02
<GCONST> 9.313874e+01
<STATE> 3
<MEAN> 39
 -7.394611e+00 6.263370e+00 9.406320e+00 3.785750e+00 4.064566e+00 -4.978759e+00 -3.208403e+00 -1.178314e+01 -7.525627e+00 -1.468703e+01 -7.179984e+00 -1.149675e+01 6.093882e+01 2.451777e-01 1.067388e+00 5.395769e-01 1.479306e-01 4.420747e-01 -8.127320e-01 2.178486e-01 -6.297675e-01 -1.296033e-01 6.478686e-02 -6.766903e-02 -2.538055e-02 6.343353e-01 -8.174616e-01 -3.955413e-01 -5.894697e-01 -6.136719e-01 8.436821e-02 -3.957825e-01 4.644791e-01 1.656954e-01 5.226910e-01 4.815308e-01 4.621499e-01 3.402384e-01 9.960350e-02
<VARIANCE> 39
 7.611895e+00 1.007458e+01 8.542484e+00 1.990811e+01 3.388269e+01 4.995541e+01 4.571476e+01 3.185138e+01 5.289527e+01 7.000196e+01 6.534906e+01 4.633496e+01 1.613561e+00 3.729081e+00 2.816890e+00 2.678904e+00 2.071878e+00 1.526541e+00 2.483475e+00 2.974276e+00 2.953211e+00 3.298088e+00 4.523628e+00 2.340744e+00 2.913042e+00 3.684477e-01 1.885801e-01 4.507853e-01 3.493005e-01 4.938419e-01 4.341924e-01 1.019195e+00 4.046525e-01 8.669960e-01 5.685726e-01 7.668911e-01 5.336542e-01 5.349720e-01 1.677800e-01
<GCONST> 1.138229e+02
<STATE> 4
<MEAN> 39
 -1.626346e+01 8.013631e+00 5.632336e+00 -1.237163e+00 1.128935e+01 -1.179276e+01 2.893490e+00 -1.403130e+01 -2.689705e+00 -9.854424e+00 -3.270388e+00 -7.905309e+00 6.518689e+01 -1.474452e+00 1.261297e+00 -1.363140e-01 -2.687855e+00 -1.263029e+00 -5.774051e+00 -6.255415e-01 -4.388913e-01 2.227736e-01 1.160613e+00 3.050285e+00 1.983143e+00 2.482276e+00 1.048574e+00 -6.075141e-01 5.484281e-01 5.023364e-02 -1.924073e+00 -8.288555e-01 -6.592745e-01 1.132586e+00 -5.605385e-01 -1.417485e-01 8.265225e-01 3.223961e-01 3.442867e-01
<VARIANCE> 39
 2.171783e+01 3.412818e+01 3.808995e+01 5.682616e+01 4.298320e+01 7.107177e+01 3.864169e+01 6.372588e+01 6.262047e+01 5.660064e+01 1.014517e+02 5.883297e+01 1.517311e+01 4.049097e+00 1.251031e+00 5.094207e+00 3.925407e+00 1.128879e+01 3.147325e+00 4.537846e+00 8.516924e+00 5.268190e+00 7.116996e+00 8.489388e+00 4.933003e+00 4.345943e-01 6.034448e-01 7.368815e-01 5.826110e-01 1.172576e+00 1.014575e+00 9.839483e-01 4.448767e-01 1.267614e+00 1.470175e+00 8.114408e-01 8.236606e-01 7.724463e-01 1.591104e-01
<GCONST> 1.358744e+02
<STATE> 5
<MEAN> 39
 -1.216220e+01 6.857281e+00 1.180655e+01 -5.513344e+00 -6.870332e+00 -3.102379e+01 -2.144684e+00 -6.784023e+00 -8.151797e+00 -7.606506e+00 1.160952e+01 -7.666255e-01 7.331482e+01 2.861306e+00 -3.371811e+00 1.276192e+00 -5.674118e-02 -5.907165e+00 -3.480731e+00 -4.318221e-01 4.400622e+00 -1.056617e+00 1.244867e-01 2.581510e+00 1.311346e+00 2.399924e+00 3.939760e-01 -1.142860e+00 -7.790182e-01 5.361216e-01 1.022414e+00 1.910429e+00 5.348428e-01 5.522792e-01 5.693133e-01 -2.250965e-01 -1.466901e+00 -8.722819e-01 -3.911935e-01
<VARIANCE> 39
 2.660283e+01 2.722497e+01 7.883046e+01 4.885229e+01 1.297179e+02 2.839923e+01 2.786261e+01 1.351877e+02 2.823309e+01 6.292500e+01 1.822763e+02 5.408179e+01 1.213957e+01 1.204547e+00 2.600971e+00 4.266789e+00 2.511353e+00 7.629137e+00 6.602818e+00 3.701411e+00 5.101469e+00 1.357499e+01 2.612051e+00 6.119381e+00 3.589661e+00 6.704463e-01 7.404351e-01 3.499711e-01 1.049009e+00 7.267196e-01 2.662907e+00 4.257787e-01 3.227310e-01 1.732849e+00 9.667838e-01 8.678799e-01 8.580613e-01 6.078542e-01 6.219282e-02
<GCONST> 1.330872e+02
<STATE> 6
<MEAN> 39
 -5.755719e+00 -5.095918e+00 9.318095e+00 -4.809984e+00 -1.293273e+01 -3.195585e+01 -1.534526e-02 5.127461e+00 -6.067718e+00 -8.551740e+00 9.475825e+00 -2.056500e+00 7.731346e+01 1.375601e+00 -3.579583e+00 -2.200737e+00 8.672735e-02 1.186379e+00 1.870948e+00 1.144988e-01 1.917958e+00 1.166090e+00 -4.715754e-02 -2.276171e+00 -1.651040e+00 7.388206e-01 -4.126859e-01 4.427837e-01 -6.285130e-01 -1.318290e-01 1.693149e+00 1.184192e+00 -2.884615e-01 -1.359413e+00 8.525356e-02 4.319175e-02 -9.275064e-01 -6.761308e-01 -4.411904e-01
<VARIANCE> 39
 6.292736e+00 2.071027e+01 9.988864e+01 2.207672e+01 7.544899e+01 5.268303e+01 3.637619e+01 1.051097e+02 7.557554e+01 2.775081e+01 2.032053e+02 4.311776e+01 1.275094e+01 4.280804e-01 9.685372e-01 3.743151e+00 1.848936e+00 3.928441e+00 3.101548e+00 1.602578e+00 5.169665e+00 2.953430e+00 3.641084e+00 1.653398e+00 2.977849e+00 2.160335e-01 5.268735e-02 1.724634e-01 4.924228e-01 2.464724e-01 7.359107e-01 4.137021e-01 3.341594e-01 7.040777e-01 9.853716e-01 3.152493e-01 3.927152e-01 4.207599e-01 4.463156e-02
<GCONST> 1.126354e+02
<STATE> 7
<MEAN> 39
 -2.459395e+00 -1.369471e+01 9.800632e-01 -6.190238e+00 -3.065264e+00 -2.252794e+01 -2.529118e+00 4.207539e+00 -4.832416e+00 -8.022610e+00 3.317009e-01 -9.969311e+00 7.827045e+01 8.613629e-01 -1.460834e+00 -2.036371e+00 -5.366917e-01 2.115649e+00 3.332780e+00 -6.623272e-01 -1.019958e+00 4.165760e-01 5.390550e-01 -2.373897e+00 -2.365986e+00 -2.337996e-02 -9.837541e-02 6.453940e-01 3.685669e-01 -8.170194e-02 -4.141497e-01 8.464561e-02 -3.976664e-02 -4.263597e-01 -1.010364e-01 2.906006e-01 4.476283e-01 1.080151e-01 -1.728602e-01
<VARIANCE> 39
 3.758425e+00 1.008331e+01 7.546772e+01 7.351143e+00 5.511607e+01 6.826704e+01 4.938250e+01 1.002605e+02 8.743982e+01 3.642422e+01 1.978014e+02 5.494147e+01 1.000420e+01 1.116954e-01 9.055750e-01 8.839881e-01 7.872304e-01 1.262159e+00 2.129220e+00 1.253455e+00 4.005910e+00 2.010253e+00 1.812192e+00 1.399109e+00 1.200958e+00 1.195477e-01 1.557006e-02 6.615265e-02 1.422841e-01 1.631866e-01 1.643410e-01 2.036306e-01 1.567184e-01 4.726710e-01 3.717572e-01 5.049935e-01 2.116489e-01 4.303451e-01 1.563118e-02
<GCONST> 9.280176e+01
<STATE> 8
<MEAN> 39
 1.178330e-01 -1.515661e+01 -4.633877e+00 -9.018782e+00 -1.312967e+00 -7.525587e+00 -4.983429e+00 -2.211667e+00 -3.094491e+00 -1.583726e+00 -2.865341e+00 -1.682578e+01 7.664234e+01 3.748180e-01 4.464898e-01 -5.943372e-01 -4.386686e-01 2.152179e-01 1.510200e+00 -6.774141e-01 -1.379871e+00 6.325491e-01 7.298421e-01 -7.731358e-02 -3.233232e-01 -5.631858e-01 -8.509774e-02 3.280912e-01 2.318555e-01 6.105652e-02 -2.152298e-01 -4.638658e-01 1.421317e-02 5.162280e-02 -6.012855e-02 -1.707016e-01 3.453205e-01 3.429969e-01 -1.168022e-01
<VARIANCE> 39
 2.849657e+00 9.812325e+00 4.776662e+01 7.677695e+00 6.185451e+01 1.295371e+02 3.225842e+01 8.155570e+01 6.614596e+01 2.120681e+01 9.121080e+01 1.918477e+01 7.889147e+00 1.312644e-01 5.227941e-01 3.876353e-01 6.080575e-01 8.318456e-01 1.548187e+00 1.170346e+00 1.318649e+00 1.107368e+00 1.362388e+00 1.185112e+00 1.936315e+00 9.700410e-02 2.159894e-02 4.551375e-02 7.866099e-02 1.119191e-01 1.838725e-01 2.009602e-01 2.141495e-01 3.628623e-01 2.668195e-01 1.528573e-01 1.769046e-01 1.610092e-01 1.000000e-02
<GCONST> 8.115347e+01
<STATE> 9
<MEAN> 39
 1.315441e+00 -1.016338e+01 -5.672178e+00 -1.033477e+01 -1.522091e-01 -5.452826e+00 -8.695086e+00 -8.153549e+00 1.427124e+00 -8.697125e-01 -2.225695e+00 -1.523505e+01 7.322807e+01 -2.200203e-02 2.213332e+00 1.055974e+00 5.742360e-01 -4.101058e-01 -2.913791e-01 -3.854758e-01 -7.999818e-01 -6.925490e-01 -4.042825e-01 8.120465e-01 7.057207e-01 -1.252998e+00 -1.303361e-01 2.059433e-01 4.705361e-01 4.618386e-01 1.247912e-01 -2.496541e-01 6.319702e-02 1.055457e-01 -5.891277e-01 -6.099256e-01 -3.928171e-01 1.071931e-01 -3.401499e-02
<VARIANCE> 39
 1.918214e+00 1.010998e+01 6.081700e+01 1.131925e+01 1.947018e+01 8.632626e+01 4.120434e+01 6.010431e+01 3.566926e+01 1.954578e+01 1.242609e+02 1.455103e+01 5.082422e+00 9.691576e-02 2.400667e-01 8.570823e-01 9.913061e-01 2.435587e+00 9.189496e-01 1.005800e+00 3.026729e+00 1.328603e+00 2.152807e+00 1.439105e+00 1.877752e+00 5.978126e-02 2.241992e-02 1.183622e-01 8.645362e-02 1.078321e-01 1.119777e-01 1.419117e-01 1.545093e-01 2.638436e-01 2.011496e-01 5.467359e-01 3.736172e-01 3.425514e-01 1.666923e-02
<GCONST> 8.300760e+01
<STATE> 10
<MEAN> 39
 8.856452e-01 -3.359564e+00 -6.166225e-02 -6.358871e+00 8.411941e-02 -5.095653e+00 -8.063307e+00 -9.323714e+00 -4.653463e+00 -5.576936e+00 -2.520482e+00 -1.331305e+01 6.991734e+01 -1.060746e-01 1.668906e+00 9.891949e-01 6.613241e-01 3.649319e-01 6.214165e-02 -4.057657e-01 -7.036761e-01 -2.061846e+00 -2.063529e+00 -6.906084e-01 2.468512e-01 -7.853172e-01 -2.821756e-02 -2.565813e-01 -2.327115e-01 -1.464480e-01 2.178486e-01 1.275503e-01 -5.636575e-02 -6.625380e-02 3.047396e-03 -1.485886e-02 -1.193709e-02 -1.051488e-02 1.303124e-01
<VARIANCE> 39
 2.477951e+00 5.436986e+00 3.448079e+01 1.155568e+01 9.300976e+00 5.631525e+01 4.106818e+01 3.034000e+01 2.819569e+01 4.494673e+01 1.256307e+02 2.697488e+01 2.216906e+00 1.209539e-01 4.636420e-01 1.201318e+00 7.680169e-01 1.516019e+00 1.164434e+00 1.514789e+00 3.093334e+00 1.228476e+00 1.845033e+00 1.177261e+00 2.749707e+00 8.349648e-02 1.229677e-02 6.156525e-02 7.376520e-02 1.286943e-01 1.104702e-01 1.195607e-01 1.639729e-01 1.578477e-01 1.810769e-01 3.071309e-01 2.961790e-01 3.245519e-01 1.000000e-02
<GCONST> 7.872362e+01
<STATE> 11
<MEAN> 39
 1.479162e-01 7.842790e-01 4.187047e-02 -5.013196e+00 2.273438e+00 -6.139772e+00 -1.010577e+01 -1.411571e+01 -1.153212e+01 -1.285523e+01 -5.443132e+00 -1.354309e+01 6.737889e+01 -2.760698e-01 9.551516e-01 4.099636e-01 6.142281e-01 5.797535e-01 -1.472369e-01 -3.047939e-01 -1.039157e+00 -5.654422e-01 -5.176384e-01 2.473826e-01 2.923730e-01 -6.111665e-01 -4.525849e-02 -7.586142e-02 -5.661770e-02 3.705511e-02 -2.791277e-02 5.883629e-02 1.690798e-01 9.886619e-02 5.006857e-01 3.103567e-01 1.828901e-02 -6.749062e-02 -6.612890e-03
<VARIANCE> 39
 2.900772e+00 4.990474e+00 2.335139e+01 8.601734e+00 2.620848e+01 3.072088e+01 3.378159e+01 5.501272e+01 2.084768e+01 7.722823e+01 1.430988e+02 5.136613e+01 1.426781e+00 1.415999e-01 4.560035e-01 7.635487e-01 8.179507e-01 1.016447e+00 7.823455e-01 7.241476e-01 2.079398e+00 1.516462e+00 1.269992e+00 1.383261e+00 1.368321e+00 5.350496e-02 3.246201e-02 8.842460e-02 1.089189e-01 8.666349e-02 1.106433e-01 2.451250e-01 2.129247e-01 2.637778e-01 2.356843e-01 1.867360e-01 2.348677e-01 2.991853e-01 1.230092e-02
<GCONST> 7.866778e+01
<STATE> 12
<MEAN> 39
 -8.471144e-01 3.883773e+00 1.667180e+00 -2.358016e+00 2.781368e+00 -6.524244e+00 -1.331205e+01 -1.954122e+01 -9.196090e+00 -1.254113e+01 -5.583982e+00 -1.251983e+01 6.514455e+01 -5.685927e-01 6.403057e-01 3.677685e-01 5.433522e-01 7.892119e-01 8.971679e-01 7.301040e-01 -1.554424e-01 2.470477e-01 -5.169026e-01 -1.529201e-01 2.041237e-01 -6.830923e-01 -1.461888e-01 -1.906436e-01 -1.047352e-01 -1.634569e-01 -4.409119e-03 6.098156e-02 2.701260e-01 3.179127e-01 3.312716e-02 7.920434e-02 -1.072044e-02 4.975501e-02 -3.220773e-02
<VARIANCE> 39
 1.987516e+00 7.667624e+00 2.103747e+01 1.289893e+01 1.433464e+01 2.817048e+01 2.348135e+01 3.190785e+01 1.951682e+01 4.916947e+01 6.069096e+01 5.216942e+01 1.092453e+00 1.114437e-01 2.090057e-01 2.683992e-01 9.879558e-01 8.041701e-01 1.224985e+00 1.697659e+00 7.116892e-01 1.284217e+00 1.079630e+00 1.283861e+00 9.781529e-01 4.230754e-02 1.196202e-02 2.552961e-02 6.604084e-02 1.843982e-01 1.387644e-01 2.371045e-01 2.224153e-01 1.286415e-01 1.334545e-01 2.873210e-01 1.074211e-01 1.531033e-01 1.000000e-02
<GCONST> 6.867449e+01
<STATE> 13
<MEAN> 39
 -4.228599e+00 5.860992e+00 2.899413e+00 -2.024957e+00 6.772173e+00 -2.233390e+00 -6.351370e+00 -1.484534e+01 -7.522847e+00 -1.173638e+01 -4.232799e+00 -9.288939e+00 6.225580e+01 -8.747006e-01 1.894409e-01 -3.744800e-02 -2.377343e-02 1.378103e-01 4.166206e-01 1.518450e-01 -1.249961e-01 5.529529e-01 1.045198e-01 -3.293967e-01 2.457170e-01 -7.474032e-01 1.044093e-02 -7.168871e-02 -4.426639e-03 3.880755e-02 -9.748100e-02 3.146876e-02 -1.998374e-01 -2.058452e-01 -6.021283e-02 1.358646e-02 1.577535e-02 -5.482348e-02 4.105028e-02
<VARIANCE> 39
 4.661053e+00 1.590442e+01 1.790791e+01 2.124018e+01 4.256925e+01 3.405991e+01 2.084281e+01 6.639271e+01 2.313046e+01 5.255122e+01 4.943321e+01 4.470889e+01 1.374058e+00 2.322784e-01 4.423598e-01 4.948147e-01 6.609814e-01 1.050261e+00 1.131638e+00 1.188216e+00 1.352254e+00 1.221108e+00 1.315636e+00 1.393282e+00 1.047960e+00 6.374561e-02 3.102629e-02 4.535413e-02 8.044499e-02 2.036616e-01 1.514332e-01 2.121412e-01 2.059619e-01 1.974600e-01 1.610218e-01 3.059228e-01 1.814194e-01 2.058250e-01 1.000000e-02
<GCONST> 7.868961e+01
<STATE> 14
<MEAN> 39
 -7.563937e+00 5.232352e+00 2.484020e+00 -1.263998e+00 5.774535e+00 -1.790387e+00 -8.373834e+00 -2.020004e+01 -7.182310e+00 -1.205044e+01 -7.076216e+00 -1.059512e+01 5.986510e+01 -8.450217e-01 -2.524409e-01 1.319541e-01 2.898996e-01 3.882885e-01 7.059665e-01 5.989296e-01 -7.029231e-02 4.435442e-01 3.499244e-01 5.206676e-02 1.090167e-01 -4.843384e-01 -9.043625e-03 -9.255286e-02 2.602316e-02 -7.040071e-02 -6.636361e-02 -4.704541e-02 1.854532e-01 2.267978e-01 -1.940999e-02 2.811505e-04 9.206693e-02 -1.516092e-02 4.332235e-02
<VARIANCE> 39
 3.596562e+00 1.688863e+01 1.443061e+01 1.688006e+01 5.218288e+01 3.974825e+01 1.480443e+01 4.532921e+01 4.060824e+01 6.442451e+01 4.383078e+01 5.986916e+01 1.062366e+00 5.521936e-02 3.648488e-01 5.069530e-01 7.277474e-01 9.796921e-01 1.494963e+00 1.186858e+00 1.178799e+00 1.230162e+00 2.357958e+00 1.266513e+00 1.717652e+00 3.997869e-02 1.216434e-02 4.820503e-02 1.292505e-01 1.370845e-01 2.760942e-01 1.960786e-01 2.457519e-01 1.746358e-01 3.428837e-01 5.384502e-01 2.205317e-01 2.540046e-01 1.000000e-02
<GCONST> 7.895012e+01
<STATE> 15
<MEAN> 39
 -1.075856e+01 2.878881e+00 4.248359e+00 5.451407e-01 5.448452e+00 -8.089875e-02 -3.108497e+00 -1.646510e+01 -9.683586e+00 -1.530074e+01 -7.554516e+00 -1.144719e+01 5.868422e+01 -6.005294e-01 -1.119010e-01 3.172732e-01 -1.484285e-02 9.097083e-02 4.734191e-01 9.311405e-01 5.296989e-01 -5.480755e-01 -4.121059e-01 -1.759887e-01 -4.984568e-01 -2.658913e-01 6.019934e-02 6.058307e-02 2.922288e-04 -7.324909e-02 2.105728e-02 9.009948e-02 -8.879546e-02 2.029460e-03 6.983385e-02 8.209723e-02 -1.754384e-01 -2.159902e-01 3.649705e-02
<VARIANCE> 39
 3.196570e+00 1.603693e+01 1.462498e+01 2.157164e+01 3.118366e+01 2.072235e+01 1.765260e+01 2.904411e+01 3.367775e+01 3.868966e+01 1.692778e+01 2.778531e+01 8.187764e-01 1.867349e-01 4.308007e-01 5.519285e-01 9.776245e-01 9.588926e-01 1.353070e+00 9.552224e-01 5.958107e-01 1.664291e+00 1.949025e+00 1.544034e+00 1.436741e+00 5.320416e-02 4.333367e-02 1.079798e-01 9.287248e-02 1.685456e-01 1.213244e-01 2.610064e-01 1.690863e-01 9.104906e-02 4.754948e-01 2.570304e-01 2.602862e-01 1.821339e-01 1.218662e-02
<GCONST> 7.609827e+01
<STATE> 16
<MEAN> 39
 -1.230950e+01 5.632192e+00 4.778697e+00 -1.714753e+00 1.019855e+01 7.338340e+00 -6.974349e-01 -1.488783e+01 -6.162680e+00 -1.131312e+01 -5.841093e+00 -1.206295e+01 5.708244e+01 -6.702008e-01 -6.455871e-01 -1.233459e-01 -1.285373e-01 1.233332e-01 5.675948e-01 5.456157e-01 -7.171172e-02 -5.384768e-02 7.991992e-01 2.098238e-01 -4.156492e-01 -2.133135e-01 4.576756e-02 -1.994065e-01 -2.320678e-01 2.257804e-02 1.445852e-01 -4.441088e-02 1.402950e-03 -5.132602e-02 5.825918e-02 1.295039e-01 1.409456e-01 3.151931e-01 5.487511e-02
<VARIANCE> 39
 4.676806e+00 1.631310e+01 8.144172e+00 1.304691e+01 6.024132e+01 6.118864e+01 2.844278e+01 3.377128e+01 4.770271e+01 8.209498e+01 5.842952e+01 3.369801e+01 9.324073e-01 1.694918e-01 4.410396e-01 7.150365e-01 5.956385e-01 2.456921e+00 2.106474e+00 1.056025e+00 1.092014e+00 2.443806e+00 9.673741e-01 2.421884e+00 2.108237e+00 4.995918e-02 2.862850e-02 8.395125e-02 1.277022e-01 1.321379e-01 2.907544e-01 3.338140e-01 2.567202e-01 2.338526e-01 3.826448e-01 3.573098e-01 4.192372e-01 2.829437e-01 1.000000e-02
<GCONST> 8.539429e+01
<STATE> 17
<MEAN> 39
 -1.423927e+01 1.702897e-02 2.662188e+00 -7.855566e-01 8.555985e+00 5.466740e+00 2.277779e+00 -1.357284e+01 -6.679585e+00 -1.125242e+01 -7.280223e+00 -1.393446e+01 5.735602e+01 -2.801094e-01 -4.133735e-01 -5.561634e-01 -1.377801e-01 2.078517e-01 9.857982e-01 1.329729e+00 1.273824e+00 1.239115e+00 5.640807e-01 1.317138e-01 2.159793e-01 -1.331934e-01 6.847505e-03 5.010235e-03 -4.219015e-02 -4.022455e-02 -2.700360e-01 -2.693208e-01 -7.267991e-02 3.196418e-01 1.610615e-01 -2.021464e-02 9.373476e-02 6.981333e-02 -1.421980e-02
<VARIANCE> 39
 9.618189e-01 1.563606e+01 1.258405e+01 2.492880e+01 2.578776e+01 3.990150e+01 4.618203e+01 6.088285e+01 3.735090e+01 5.459224e+01 6.041183e+01 2.269435e+01 1.064559e+00 1.673656e-01 6.960220e-01 9.292279e-01 1.272575e+00 2.400292e+00 1.247985e+00 2.284019e+00 1.780386e+00 1.698583e+00 2.689152e+00 2.303952e+00 9.464460e-01 4.585995e-02 1.700003e-02 8.395816e-02 1.154525e-01 1.281565e-01 4.521885e-01 2.407300e-01 4.687577e-01 3.665572e-01 4.065485e-01 6.029322e-01 3.225548e-01 1.938697e-01 1.000000e-02
<GCONST> 8.612669e+01
<STATE> 18
<MEAN> 39
 -1.543752e+01 -1.404722e+00 4.197556e-02 -2.429899e+00 8.188893e+00 6.585909e+00 4.233661e+00 -7.951550e+00 -1.681183e+00 -7.962909e+00 -2.365482e+00 -9.745822e+00 5.671644e+01 -5.098713e-01 -9.335721e-01 -3.129207e-01 -4.829340e-02 -5.584338e-01 -8.262997e-01 -2.590207e-01 7.859629e-01 4.535002e-01 6.361886e-02 1.646397e-01 4.256965e-01 -1.712732e-01 -1.800122e-02 -4.094535e-03 2.203207e-01 1.187729e-01 6.049655e-02 -1.569594e-01 -7.959921e-02 -2.042203e-01 -2.659050e-01 -2.031866e-01 -2.189393e-01 -2.493962e-01 -6.994294e-03
<VARIANCE> 39
 1.378832e+00 9.317698e+00 1.004072e+01 2.984789e+01 2.289056e+01 1.860081e+01 1.673694e+01 2.998469e+01 2.481485e+01 3.212043e+01 5.207371e+01 4.427401e+01 6.055323e-01 1.609441e-01 2.995070e-01 7.961206e-01 1.231346e+00 1.620147e+00 1.120909e+00 9.677305e-01 1.659338e+00 1.199708e+00 2.214830e+00 2.912565e+00 2.365201e+00 3.988321e-02 2.993523e-02 3.811277e-02 1.939686e-01 1.520433e-01 3.092044e-01 2.925321e-01 1.848287e-01 2.187745e-01 2.900711e-01 2.060914e-01 4.740552e-01 3.763455e-01 1.000000e-02
<GCONST> 7.877463e+01
<STATE> 19
<MEAN> 39
 -1.805285e+01 -3.689529e+00 1.845019e+00 8.394066e-01 9.555245e+00 5.062541e+00 4.304295e+00 -6.946521e+00 -3.058624e+00 -1.075931e+01 -6.620899e+00 -1.231579e+01 5.550328e+01 -3.864731e-01 -5.237115e-01 2.296988e-02 2.159755e-01 2.051681e-02 -2.019107e-02 4.612239e-01 3.854553e-01 8.194518e-03 -1.916966e-02 -5.442576e-02 -1.739038e-01 -1.058331e-01 7.292071e-02 9.564471e-02 -1.578124e-02 -5.183398e-02 -1.168888e-03 1.053312e-01 -1.904646e-02 -1.959984e-01 -5.373879e-02 -7.635741e-03 8.738340e-02 1.411752e-01 3.597695e-02
<VARIANCE> 39
 4.763247e+00 1.432111e+01 9.715282e+00 2.859421e+01 3.165417e+01 3.512373e+01 2.631153e+01 2.679721e+01 3.292934e+01 3.555683e+01 1.861146e+01 3.161966e+01 1.043685e+00 2.438073e-01 3.721805e-01 8.052927e-01 5.596573e-01 8.415937e-01 1.898323e+00 1.634801e+00 2.598248e+00 2.083074e+00 3.058169e+00 2.222145e+00 3.097509e+00 6.660938e-02 5.023143e-02 6.273237e-02 9.909715e-02 1.011581e-01 2.373641e-01 4.030885e-01 4.016428e-01 3.470569e-01 4.185018e-01 5.948094e-01 4.225130e-01 6.100491e-01 1.237237e-02
<GCONST> 8.655603e+01
<TRANSP> 20
 0.000000e+00 1.000000e+00 0.000000e+00 0.000000e+00 0.000000e+00 0.000000e+00 0.000000e+00 0.000000e+00 0.000000e+00 0.000000e+00 0.000000e+00 0.000000e+00 0.000000e+00 0.000000e+00 0.000000e+00 0.000000e+00 0.000000e+00 0.000000e+00 0.000000e+00 0.000000e+00
 0.000000e+00 7.333333e-01 2.666667e-01 0.000000e+00 0.000000e+00 0.000000e+00 0.000000e+00 0.000000e+00 0.000000e+00 0.000000e+00 0.000000e+00 0.000000e+00 0.000000e+00 0.000000e+00 0.000000e+00 0.000000e+00 0.000000e+00 0.000000e+00 0.000000e+00 0.000000e+00
 0.000000e+00 0.000000e+00 8.032787e-01 1.967213e-01 0.000000e+00 0.000000e+00 0.000000e+00 0.000000e+00 0.000000e+00 0.000000e+00 0.000000e+00 0.000000e+00 0.000000e+00 0.000000e+00 0.000000e+00 0.000000e+00 0.000000e+00 0.000000e+00 0.000000e+00 0.000000e+00
 0.000000e+00 0.000000e+00 0.000000e+00 6.756757e-01 3.243243e-01 0.000000e+00 0.000000e+00 0.000000e+00 0.000000e+00 0.000000e+00 0.000000e+00 0.000000e+00 0.000000e+00 0.000000e+00 0.000000e+00 0.000000e+00 0.000000e+00 0.000000e+00 0.000000e+00 0.000000e+00
 0.000000e+00 0.000000e+00 0.000000e+00 0.000000e+00 6.363636e-01 3.636364e-01 0.000000e+00 0.000000e+00 0.000000e+00 0.000000e+00 0.000000e+00 0.000000e+00 0.000000e+00 0.000000e+00 0.000000e+00 0.000000e+00 0.000000e+00 0.000000e+00 0.000000e+00 0.000000e+00
 0.000000e+00 0.000000e+00 0.000000e+00 0.000000e+00 0.000000e+00 6.363636e-01 3.636364e-01 0.000000e+00 0.000000e+00 0.000000e+00 0.000000e+00 0.000000e+00 0.000000e+00 0.000000e+00 0.000000e+00 0.000000e+00 0.000000e+00 0.000000e+00 0.000000e+00 0.000000e+00
 0.000000e+00 0.000000e+00 0.000000e+00 0.000000e+00 0.000000e+00 0.000000e+00 7.333333e-01 2.666667e-01 0.000000e+00 0.000000e+00 0.000000e+00 0.000000e+00 0.000000e+00 0.000000e+00 0.000000e+00 0.000000e+00 0.000000e+00 0.000000e+00 0.000000e+00 0.000000e+00
 0.000000e+00 0.000000e+00 0.000000e+00 0.000000e+00 0.000000e+00 0.000000e+00 0.000000e+00 8.309859e-01 1.690141e-01 0.000000e+00 0.000000e+00 0.000000e+00 0.000000e+00 0.000000e+00 0.000000e+00 0.000000e+00 0.000000e+00 0.000000e+00 0.000000e+00 0.000000e+00
 0.000000e+00 0.000000e+00 0.000000e+00 0.000000e+00 0.000000e+00 0.000000e+00 0.000000e+00 0.000000e+00 6.250000e-01 3.750000e-01 0.000000e+00 0.000000e+00 0.000000e+00 0.000000e+00 0.000000e+00 0.000000e+00 0.000000e+00 0.000000e+00 0.000000e+00 0.000000e+00
 0.000000e+00 0.000000e+00 0.000000e+00 0.000000e+00 0.000000e+00 0.000000e+00 0.000000e+00 0.000000e+00 0.000000e+00 7.073171e-01 2.926829e-01 0.000000e+00 0.000000e+00 0.000000e+00 0.000000e+00 0.000000e+00 0.000000e+00 0.000000e+00 0.000000e+00 0.000000e+00
 0.000000e+00 0.000000e+00 0.000000e+00 0.000000e+00 0.000000e+00 0.000000e+00 0.000000e+00 0.000000e+00 0.000000e+00 0.000000e+00 7.333333e-01 2.666667e-01 0.000000e+00 0.000000e+00 0.000000e+00 0.000000e+00 0.000000e+00 0.000000e+00 0.000000e+00 0.000000e+00
 0.000000e+00 0.000000e+00 0.000000e+00 0.000000e+00 0.000000e+00 0.000000e+00 0.000000e+00 0.000000e+00 0.000000e+00 0.000000e+00 0.000000e+00 7.142857e-01 2.857143e-01 0.000000e+00 0.000000e+00 0.000000e+00 0.000000e+00 0.000000e+00 0.000000e+00 0.000000e+00
 0.000000e+00 0.000000e+00 0.000000e+00 0.000000e+00 0.000000e+00 0.000000e+00 0.000000e+00 0.000000e+00 0.000000e+00 0.000000e+00 0.000000e+00 0.000000e+00 7.600000e-01 2.400000e-01 0.000000e+00 0.000000e+00 0.000000e+00 0.000000e+00 0.000000e+00 0.000000e+00
 0.000000e+00 0.000000e+00 0.000000e+00 0.000000e+00 0.000000e+00 0.000000e+00 0.000000e+00 0.000000e+00 0.000000e+00 0.000000e+00 0.000000e+00 0.000000e+00 0.000000e+00 7.272727e-01 2.727273e-01 0.000000e+00 0.000000e+00 0.000000e+00 0.000000e+00 0.000000e+00
 0.000000e+00 0.000000e+00 0.000000e+00 0.000000e+00 0.000000e+00 0.000000e+00 0.000000e+00 0.000000e+00 0.000000e+00 0.000000e+00 0.000000e+00 0.000000e+00 0.000000e+00 0.000000e+00 7.446808e-01 2.553191e-01 0.000000e+00 0.000000e+00 0.000000e+00 0.000000e+00
 0.000000e+00 0.000000e+00 0.000000e+00 0.000000e+00 0.000000e+00 0.000000e+00 0.000000e+00 0.000000e+00 0.000000e+00 0.000000e+00 0.000000e+00 0.000000e+00 0.000000e+00 0.000000e+00 0.000000e+00 7.000000e-01 3.000000e-01 0.000000e+00 0.000000e+00 0.000000e+00
 0.000000e+00 0.000000e+00 0.000000e+00 0.000000e+00 0.000000e+00 0.000000e+00 0.000000e+00 0.000000e+00 0.000000e+00 0.000000e+00 0.000000e+00 0.000000e+00 0.000000e+00 0.000000e+00 0.000000e+00 0.000000e+00 7.209302e-01 2.790698e-01 0.000000e+00 0.000000e+00
 0.000000e+00 0.000000e+00 0.000000e+00 0.000000e+00 0.000000e+00 0.000000e+00 0.000000e+00 0.000000e+00 0.000000e+00 0.000000e+00 0.000000e+00 0.000000e+00 0.000000e+00 0.000000e+00 0.000000e+00 0.000000e+00 0.000000e+00 7.142857e-01 2.857143e-01 0.000000e+00
 0.000000e+00 0.000000e+00 0.000000e+00 0.000000e+00 0.000000e+00 0.000000e+00 0.000000e+00 0.000000e+00 0.000000e+00 0.000000e+00 0.000000e+00 0.000000e+00 0.000000e+00 0.000000e+00 0.000000e+00 0.000000e+00 0.000000e+00 0.000000e+00 7.692308e-01 2.307692e-01
 0.000000e+00 0.000000e+00 0.000000e+00 0.000000e+00 0.000000e+00 0.000000e+00 0.000000e+00 0.000000e+00 0.000000e+00 0.000000e+00 0.000000e+00 0.000000e+00 0.000000e+00 0.000000e+00 0.000000e+00 0.000000e+00 0.000000e+00 0.000000e+00 0.000000e+00 0.000000e+00
<ENDHMM>
