~o
<STREAMINFO> 1 39
<VECSIZE> 39<NULLD><MFCC_D_A_0><DIAGC>
~h "belas"
<BEGINHMM>
<NUMSTATES> 20
<STATE> 2
<MEAN> 39
 -1.611856e+01 -6.459626e+00 3.586263e-02 -4.041220e+00 3.118767e+00 -4.825859e+00 2.327487e+00 -5.791124e+00 1.103475e+00 -6.850410e+00 3.060330e-01 -5.114055e+00 5.665522e+01 7.159889e-01 1.094341e+00 8.881003e-01 7.185451e-01 2.016063e-02 -2.183725e-01 -4.997817e-01 -7.675365e-01 -1.085713e+00 -9.680932e-01 -4.576871e-01 -4.777051e-01 3.592492e-01 4.623249e-01 4.896077e-01 3.979105e-01 2.403514e-01 -5.305844e-02 -2.199540e-01 -4.670327e-01 -4.678372e-01 -3.650152e-01 -2.054050e-01 -1.485442e-01 -2.167491e-01 2.001789e-01
<VARIANCE> 39
 2.227373e+00 8.306589e+00 7.921083e+00 1.556644e+01 1.541312e+01 2.027157e+01 1.686463e+01 2.393946e+01 1.861574e+01 1.633840e+01 1.297892e+01 1.631421e+01 6.126531e-01 1.304900e+00 1.982436e+00 1.747620e+00 1.851649e+00 1.226133e+00 1.927276e+00 2.610822e+00 3.519577e+00 3.435590e+00 2.631794e+00 2.287879e+00 2.421777e+00 2.338482e-01 1.788415e-01 2.355797e-01 2.030158e-01 3.145735e-01 2.745252e-01 3.313833e-01 3.242670e-01 3.290685e-01 4.380601e-01 3.842378e-01 3.569923e-01 3.695031e-01 3.598274e-02
<GCONST> 9.171640e+01
<STATE> 3
<MEAN> 39
 -6.959083e+00 5.183137e+00 9.044188e+00 2.022686e+00 2.401255e+00 -8.879295e+00 -5.650817e+00 -1.469336e+01 -7.862103e+00 -1.345557e+01 -5.123525e+00 -1.079694e+01 6.091224e+01 2.288929e+00 1.681863e+00 5.440999e-01 -2.399274e-01 -7.721975e-01 -1.136273e+00 -2.167389e+00 -1.484854e+00 -9.673492e-03 1.328590e+00 4.428728e-01 -6.227002e-01 1.342661e+00 -5.677507e-02 -9.470544e-01 -1.061534e+00 -9.994668e-01 -3.978743e-01 5.703222e-02 -2.173688e-01 1.474202e-01 9.738659e-01 1.252175e+00 6.353786e-01 3.132338e-01 2.046774e-01
<VARIANCE> 39
 8.425082e+00 1.335926e+01 9.607126e+00 1.426731e+01 2.643544e+01 3.231853e+01 3.702214e+01 3.766646e+01 3.222421e+01 2.623146e+01 5.492752e+01 3.912696e+01 2.376637e+00 1.303964e+00 4.025316e+00 4.913205e+00 5.279496e+00 3.104497e+00 3.127373e+00 3.223490e+00 3.417531e+00 3.495955e+00 6.793914e+00 5.430797e+00 2.718693e+00 4.805419e-01 1.346776e-01 3.349647e-01 4.007211e-01 5.816073e-01 9.190065e-01 4.760809e-01 5.684685e-01 1.005040e+00 6.085081e-01 6.236585e-01 5.960295e-01 5.336028e-01 7.587802e-02
<GCONST> 1.146686e+02
<STATE> 4
<MEAN> 39
 8.160989e-01 3.053567e+00 2.055616e+00 -7.081874e+00 -4.188104e+00 -1.264073e+01 -1.618064e+01 -1.897519e+01 5.387748e-01 2.430424e+00 3.183960e+00 -1.001808e+01 6.777015e+01 1.774873e+00 -2.332964e+00 -2.736264e+00 -2.530154e+00 -1.347176e+00 1.585513e-01 -2.541552e+00 -7.157207e-01 2.939347e+00 2.873021e+00 5.764366e-01 -7.833961e-02 2.139041e+00 -5.532758e-01 -4.328293e-01 1.537752e-01 4.669379e-01 5.409202e-01 6.254429e-01 6.460045e-01 7.388886e-01 -8.989669e-02 -1.183443e+00 -8.564867e-01 1.220306e-01 -2.718284e-01
<VARIANCE> 39
 6.037658e+00 2.189924e+01 4.052943e+01 2.495566e+01 7.078063e+01 6.813085e+01 5.976435e+01 8.127721e+01 3.047901e+01 6.422057e+01 7.646850e+01 3.651427e+01 7.720740e+00 7.277158e-01 1.778497e+00 3.536403e+00 4.015002e+00 1.443044e+01 7.021620e+00 3.319127e+00 9.166533e+00 5.003577e+00 1.167904e+01 4.185021e+00 4.415242e+00 3.677409e-01 1.267314e-01 4.892258e-01 7.606337e-01 6.383788e-01 8.455723e-01 2.962902e-01 3.368830e-01 9.446542e-01 7.723476e-01 6.140576e-01 5.059509e-01 3.511573e-01 1.152760e-01
<GCONST> 1.242703e+02
<STATE> 5
<MEAN> 39
 2.658967e+00 -3.968234e+00 -3.283959e+00 -9.567094e+00 -3.760922e+00 -8.781532e+00 -1.833945e+01 -1.746887e+01 5.803353e+00 1.560451e+00 -1.181207e+00 -8.563082e+00 7.137573e+01 9.606656e-02 -9.821927e-01 -3.322114e-01 -4.177229e-01 3.352828e-01 7.677388e-01 -4.100060e-01 6.711711e-01 1.010139e+00 -3.437390e-01 -1.191759e+00 7.588386e-01 4.468085e-01 -2.491539e-01 6.712221e-01 6.157775e-01 2.424095e-01 2.462546e-01 -1.255594e-01 3.172783e-01 -7.330955e-02 -6.485438e-01 -1.830916e-01 6.288345e-02 -8.446021e-02 -3.843108e-01
<VARIANCE> 39
 2.787795e+00 1.925202e+01 5.182151e+01 2.333354e+01 1.274367e+02 1.123834e+02 7.289164e+01 1.266852e+02 4.961965e+01 1.288084e+02 1.314907e+02 3.077155e+01 3.998058e+00 9.172281e-02 1.103893e+00 1.954399e+00 8.790974e-01 1.262696e+00 1.129960e+00 1.508539e+00 2.244780e+00 2.618375e+00 2.229610e+00 2.552132e+00 1.582547e+00 1.982645e-01 5.016119e-02 1.287381e-01 3.709064e-01 2.226867e-01 7.648556e-01 2.700584e-01 3.567832e-01 4.662328e-01 7.223580e-01 1.195712e+00 5.817006e-01 4.348031e-01 5.432348e-02
<GCONST> 1.059394e+02
<STATE> 6
<MEAN> 39
 2.589415e+00 -2.986728e+00 -3.696324e+00 -1.022118e+01 -5.624405e-03 -1.147120e+01 -1.948467e+01 -1.435472e+01 4.709256e+00 1.485823e+00 -4.744924e+00 -7.952600e+00 7.120359e+01 -7.531762e-03 1.579951e-02 -1.747106e-01 -5.502639e-01 4.500231e-01 2.913873e-01 4.111406e-01 1.805151e-01 -1.600524e-01 5.034943e-01 -1.571798e-01 -4.206230e-01 8.560067e-02 2.524542e-03 -9.755826e-02 -1.639830e-01 -9.854008e-02 -5.760108e-02 7.247326e-03 2.406934e-01 2.417294e-01 2.156912e-02 -1.056836e-01 -1.222560e-01 -1.995906e-01 4.912812e-02
<VARIANCE> 39
 1.488461e+00 1.797667e+01 3.319019e+01 2.299893e+01 8.072861e+01 1.534233e+02 3.357105e+01 1.403592e+02 4.285675e+01 7.452817e+01 1.481252e+02 3.172366e+01 6.024994e+00 6.222475e-02 3.199136e-01 5.819144e-01 5.328179e-01 4.896846e-01 4.164945e-01 1.131568e+00 1.101101e+00 1.524227e+00 1.466557e+00 1.371579e+00 7.338917e-01 4.803544e-02 8.068747e-03 6.161424e-02 8.825465e-02 1.139348e-01 7.713761e-02 1.152212e-01 1.439621e-01 2.481035e-01 2.346389e-01 3.455730e-01 3.574764e-01 1.632611e-01 1.172057e-02
<GCONST> 7.906023e+01
<STATE> 7
<MEAN> 39
 2.611428e+00 -5.271605e+00 -3.227934e+00 -1.608434e+01 4.946409e-01 -4.310375e+00 -1.597233e+01 -1.115520e+01 6.288854e+00 4.962612e+00 -2.403914e+00 -1.382156e+01 7.347053e+01 -1.993129e-01 -1.808269e+00 -5.495504e-01 -6.854162e-01 2.024090e-02 7.279117e-01 1.607267e+00 2.970742e+00 -3.496810e-02 -1.447173e+00 -2.322713e+00 -8.701702e-01 8.444346e-01 -1.243263e-01 -3.793318e-01 1.746635e-01 3.501416e-01 -1.610038e-01 1.074422e-01 2.111108e-01 2.579453e-01 -2.912032e-01 -6.014777e-01 -2.366279e-01 4.215278e-01 1.050285e-01
<VARIANCE> 39
 6.515265e-01 1.757480e+01 5.605282e+01 2.095843e+01 1.596776e+02 1.442915e+02 7.493790e+01 2.056999e+02 5.633592e+01 5.940769e+01 1.871929e+02 3.318610e+01 7.626333e+00 2.145020e-01 1.514488e+00 1.025929e+00 1.599953e+00 1.117113e+00 1.217708e+00 1.954721e+00 2.250950e+00 2.121870e+00 2.863529e+00 1.695299e+00 1.794064e+00 2.849824e-01 1.764938e-02 1.674784e-01 1.560487e-01 2.279664e-01 2.288345e-01 1.494350e-01 2.808458e-01 5.986734e-01 4.113331e-01 1.917721e-01 4.238344e-01 2.470991e-01 2.781229e-02
<GCONST> 9.987847e+01
<STATE> 8
<MEAN> 39
 2.641976e-01 -1.551362e+01 -2.128741e+00 -1.424194e+01 -3.217036e+00 1.191194e+00 -8.572455e+00 -3.221140e+00 3.817335e+00 -3.336077e+00 -1.147148e+01 -9.300605e+00 7.781754e+01 -2.252381e-01 -5.998684e-01 -1.551142e-01 6.021174e-01 -2.331474e-01 -1.696015e-01 8.048916e-01 6.591748e-01 -5.587693e-01 -1.778396e+00 -7.624726e-01 1.026431e+00 1.616809e-01 3.336333e-02 4.975075e-01 -1.206813e-02 5.630273e-02 4.929470e-02 -3.219134e-01 -2.214098e-01 -4.172604e-01 6.310759e-02 1.762345e-01 4.011243e-01 4.933475e-02 -2.281107e-01
<VARIANCE> 39
 2.418112e+00 1.006704e+01 5.068219e+01 1.242598e+01 1.816430e+02 1.753082e+02 3.690010e+01 2.136080e+02 1.043107e+02 2.977161e+01 9.235582e+01 7.178341e+01 1.133669e+01 1.427124e-01 1.863891e+00 7.998089e-01 9.684237e-01 1.748378e+00 1.219588e+00 1.207679e+00 2.353576e+00 1.472253e+00 2.288567e+00 1.498261e+00 8.832389e-01 3.345085e-01 4.268689e-02 1.100288e-01 1.580616e-01 1.732065e-01 1.929759e-01 1.460711e-01 1.599045e-01 4.526636e-01 1.810833e-01 3.667222e-01 1.608262e-01 2.192677e-01 2.139910e-02
<GCONST> 9.549113e+01
<STATE> 9
<MEAN> 39
 5.869363e-01 -1.070179e+01 -8.565894e+00 -1.062249e+01 -6.572768e-01 -1.288561e+01 -6.542143e+00 4.861988e-01 -5.338868e-01 -1.330317e+01 -1.527557e+01 -5.055012e+00 7.402391e+01 -2.481516e-01 6.446161e-01 6.116230e-01 7.562644e-01 -9.018621e-02 -6.648014e-01 4.723065e-01 -1.234105e-01 -4.225096e-01 -4.488997e-01 2.285339e-01 3.755931e-01 -4.669281e-01 -1.437531e-01 1.867731e-01 1.734911e-01 2.647034e-01 1.585717e-01 5.181890e-02 -1.406863e-02 -2.640345e-01 1.521939e-02 2.318729e-01 5.349305e-02 -1.257379e-02 -1.318443e-01
<VARIANCE> 39
 2.172689e+00 1.809075e+01 2.455361e+01 2.217163e+01 4.535962e+01 1.937524e+02 1.774169e+01 9.614937e+01 6.381903e+01 2.414984e+01 3.244208e+01 6.558503e+01 8.384151e+00 2.518126e-01 8.294414e-01 9.696994e-01 8.560574e-01 1.904380e+00 1.385693e+00 1.006277e+00 1.940198e+00 9.070402e-01 8.801911e-01 5.581666e-01 1.215524e+00 2.583093e-01 6.515501e-02 1.364621e-01 1.089252e-01 1.920297e-01 2.647135e-01 2.415169e-01 2.347423e-01 1.749709e-01 1.998709e-01 1.858464e-01 1.070952e-01 2.003508e-01 9.449494e-03
<GCONST> 8.689251e+01
<STATE> 10
<MEAN> 39
 -2.219261e+00 -7.581485e+00 -1.827748e+00 -5.657070e+00 -1.433575e+00 -8.866498e+00 -4.229677e+00 -5.768828e+00 2.121174e-01 -1.124095e+01 -1.428891e+01 -4.848817e+00 7.055946e+01 -1.732232e+00 1.775181e+00 -1.469860e-02 1.621097e+00 7.101626e-01 -1.797999e-01 1.141323e+00 -1.241798e+00 2.186771e-01 -2.163929e-01 7.805960e-01 -2.445898e-01 -9.417146e-01 -6.985962e-01 6.088697e-01 -8.508632e-01 -7.637935e-02 -9.549703e-02 -9.040716e-02 5.407379e-01 -2.383030e-01 4.002619e-01 -1.224627e-01 2.920093e-01 -5.321584e-01 2.571963e-01
<VARIANCE> 39
 4.426023e+00 8.976402e+00 1.377555e+01 2.777885e+01 2.258016e+01 1.212761e+02 1.514485e+01 5.162604e+01 9.659727e+01 3.017935e+01 5.816898e+01 3.286935e+01 1.333115e+01 7.898024e-01 2.169025e+00 1.828792e+00 1.443296e+00 1.183620e+00 2.431558e+00 2.438233e+00 2.174764e+00 4.148851e+00 1.455025e+00 2.237824e+00 3.342344e+00 2.164116e-01 1.296715e-01 2.365508e-01 1.616124e-01 2.445993e-01 3.253735e-01 3.598674e-01 3.316013e-01 1.878301e-01 7.551802e-01 2.753071e-01 4.708335e-01 3.826283e-01 5.433444e-02
<GCONST> 1.026876e+02
<STATE> 11
<MEAN> 39
 -9.903352e+00 -1.543352e-01 -5.225210e+00 -2.546664e+00 7.593569e-01 -1.089108e+01 1.327083e+00 -9.635665e+00 2.962729e+00 -1.352383e+01 -9.549648e+00 -1.027761e+01 6.995521e+01 -3.955225e+00 4.139247e+00 -2.710082e+00 1.910293e+00 5.282842e-01 -1.090726e+00 2.712639e+00 -1.644119e+00 1.140548e+00 -8.940859e-01 1.319360e+00 -5.763418e-01 3.400417e-01 -2.665393e-01 2.213471e-01 -3.777001e-01 -4.676211e-02 -4.885583e-02 -9.949559e-02 -5.653555e-02 4.560280e-01 -2.048476e-01 2.530364e-01 -1.070576e-02 5.017871e-01 2.732860e-01
<VARIANCE> 39
 1.726771e+01 1.136136e+01 1.187962e+01 2.425112e+01 3.240012e+01 6.765781e+01 2.006474e+01 3.695068e+01 3.615815e+01 2.627418e+01 4.459931e+01 4.034025e+01 1.283929e+01 3.645092e-01 2.195452e+00 1.227019e+00 1.832916e+00 5.610221e+00 2.202418e+00 2.286574e+00 3.150263e+00 6.371243e+00 1.280366e+00 4.009169e+00 1.859173e+00 2.555340e-01 1.838232e-01 2.312056e-01 1.874765e-01 2.663393e-01 2.728896e-01 9.612292e-02 2.284651e-01 2.913289e-01 6.800321e-01 3.085229e-01 2.816318e-01 1.986689e-01 2.961436e-02
<GCONST> 1.011743e+02
<STATE> 12
<MEAN> 39
 -1.949785e+01 1.005775e+01 -1.284279e+01 2.124800e+00 8.462926e-01 -1.301778e+01 6.967294e+00 -9.868065e+00 3.214269e+00 -1.373392e+01 -6.034311e+00 -6.639768e+00 7.183883e+01 -2.668444e+00 2.517902e+00 -1.401277e+00 7.117758e-01 7.255875e-01 -4.637210e-01 1.056952e+00 1.336681e-01 -6.236555e-01 5.707454e-01 8.554209e-01 1.858338e-01 7.077245e-02 6.073886e-01 -7.382355e-01 7.511827e-01 -3.606839e-01 9.165115e-02 3.040286e-01 -5.478315e-01 3.298623e-01 -3.880894e-01 2.898295e-01 -1.743789e-01 9.967391e-03 -1.509979e-01
<VARIANCE> 39
 1.169510e+01 1.738537e+01 1.647402e+01 2.804445e+01 6.300314e+01 4.846098e+01 3.980258e+01 1.515882e+01 2.469637e+01 5.075911e+01 4.813227e+01 4.431340e+01 7.862051e+00 8.688875e-01 1.642243e+00 2.012361e+00 1.193167e+00 1.803946e+00 1.928161e+00 1.804069e+00 1.400429e+00 3.063338e+00 1.616730e+00 1.364505e+00 1.417982e+00 1.845821e-01 7.281823e-02 1.693942e-01 1.281764e-01 2.359944e-01 5.809636e-01 2.786902e-01 3.686288e-01 2.852805e-01 5.606373e-01 2.516004e-01 3.335400e-01 1.909719e-01 2.092336e-02
<GCONST> 9.784448e+01
<STATE> 13
<MEAN> 39
 -2.504655e+01 1.446212e+01 -1.133304e+01 3.020859e+00 4.399232e+00 -1.415180e+01 7.419487e+00 -7.769548e+00 -3.637630e-01 -1.219885e+01 -1.736717e+00 -8.605595e+00 7.024250e+01 -6.655219e-01 2.430827e-01 1.236610e-01 -4.915019e-02 1.610612e-01 4.862400e-01 1.116095e-01 3.139860e-01 -2.103822e-01 2.985820e-01 5.912329e-01 -4.919674e-02 -4.589752e-01 1.865772e-01 -3.009089e-01 2.158920e-02 -5.565975e-02 -8.681404e-02 1.209535e-01 3.512235e-02 -5.152567e-02 1.452328e-01 -7.553888e-02 -1.467324e-02 3.698954e-02 -5.902969e-02
<VARIANCE> 39
 5.624974e+00 2.070264e+01 1.592552e+01 2.925311e+01 6.632243e+01 5.114639e+01 2.684044e+01 2.902608e+01 2.705979e+01 4.156528e+01 5.289169e+01 3.256327e+01 7.144892e+00 2.477538e-01 5.019353e-01 4.826674e-01 9.507681e-01 1.072991e+00 1.417454e+00 2.066329e+00 1.447957e+00 2.197705e+00 8.823446e-01 9.745421e-01 1.563514e+00 1.001173e-01 6.131360e-02 5.690870e-02 9.397405e-02 1.298414e-01 2.510318e-01 2.005794e-01 3.729889e-01 2.827185e-01 3.243479e-01 1.238355e-01 1.686410e-01 3.210298e-01 1.487199e-02
<GCONST> 8.560107e+01
<STATE> 14
<MEAN> 39
 -2.912427e+01 1.698584e+01 -1.633756e+01 4.893390e+00 4.348055e+00 -9.334349e+00 8.774541e+00 -6.312092e+00 -2.510268e+00 -3.331962e+00 -3.600546e+00 -3.315476e+00 6.723443e+01 -1.454520e-01 -4.599986e-01 1.455235e-01 1.684024e-01 -2.712017e-02 9.022377e-02 1.029432e-01 2.084050e-02 -2.569111e-01 -7.453992e-02 2.819922e-01 4.064331e-01 -4.927318e-01 7.772882e-02 -1.073866e-01 3.186539e-02 -5.423139e-03 3.469433e-02 2.093462e-02 -7.863785e-07 -8.866231e-02 -6.566282e-02 -1.466910e-01 -2.887257e-02 3.760299e-03 -2.587558e-02
<VARIANCE> 39
 5.097924e+00 1.113921e+01 1.425939e+01 2.318797e+01 2.759811e+01 1.302563e+01 1.812982e+01 1.497537e+01 2.379999e+01 2.781136e+01 2.899736e+01 3.869164e+01 7.786498e+00 2.608328e-01 4.365970e-01 3.690124e-01 6.004182e-01 9.803678e-01 9.175260e-01 1.146996e+00 1.179759e+00 1.559644e+00 1.292468e+00 1.179505e+00 8.519378e-01 1.682851e-01 5.237906e-02 5.335990e-02 4.101772e-02 7.081518e-02 2.381817e-01 1.660175e-01 2.262470e-01 2.466564e-01 3.606691e-01 2.351402e-01 1.863185e-01 1.116025e-01 2.348884e-02
<GCONST> 7.608784e+01
<STATE> 15
<MEAN> 39
 -2.628218e+01 7.014836e+00 -1.026465e+01 1.454687e+00 4.334267e+00 -6.867466e+00 8.431601e+00 -7.987439e+00 -2.085770e+00 -1.334832e+01 -1.651025e-01 -6.006658e+00 6.309431e+01 3.884814e-01 -1.218764e+00 4.288298e-01 -4.941941e-03 3.289913e-01 1.120818e+00 -9.518818e-03 -3.918875e-01 -7.969391e-02 -5.241629e-01 -6.585022e-01 -1.386796e-01 -8.897676e-01 8.971287e-02 2.585405e-02 9.957533e-02 7.228965e-02 7.343585e-02 7.155731e-02 -9.937001e-02 -7.272960e-04 1.203848e-01 1.586100e-01 -1.183304e-01 -1.861764e-01 1.516133e-02
<VARIANCE> 39
 6.597608e+00 1.590753e+01 2.335188e+01 3.809855e+01 7.604946e+01 2.262618e+01 1.688674e+01 2.229568e+01 5.166981e+01 2.625138e+01 3.411845e+01 3.869169e+01 8.210810e+00 1.357961e-01 4.555140e-01 7.225885e-01 7.388509e-01 1.411475e+00 8.460256e-01 1.360537e+00 1.412648e+00 1.494771e+00 1.560772e+00 1.588766e+00 8.762962e-01 9.179400e-02 3.051130e-02 7.607117e-02 1.007928e-01 1.211877e-01 1.417214e-01 1.700706e-01 2.800986e-01 1.576412e-01 3.233084e-01 2.852946e-01 2.628147e-01 1.736721e-01 1.658655e-02
<GCONST> 8.233083e+01
<STATE> 16
<MEAN> 39
 -2.420209e+01 4.963331e+00 -7.804629e+00 4.602322e+00 8.041363e+00 -3.012319e+00 1.059056e+01 -1.017592e+01 1.405149e+00 -1.197892e+01 -2.096285e+00 -8.579114e+00 6.054781e+01 6.953925e-01 -1.195061e+00 6.810178e-01 -3.269013e-01 3.226796e-02 7.855783e-01 -9.731808e-02 2.027737e-01 6.112528e-01 7.953068e-01 -2.188865e-01 -1.000235e+00 -5.054346e-01 -1.324304e-02 -1.522999e-01 -1.395302e-01 -1.808915e-01 -2.794154e-01 -1.592206e-01 -3.947104e-02 1.842580e-01 8.107210e-03 -4.652169e-02 -1.003094e-01 -7.562699e-02 1.151757e-02
<VARIANCE> 39
 6.123415e+00 2.422569e+01 1.133545e+01 1.270636e+01 3.064704e+01 5.129212e+01 2.705039e+01 3.093008e+01 5.626028e+01 3.234975e+01 1.719907e+01 2.362488e+01 5.716319e+00 1.074046e-01 6.386410e-01 7.250325e-01 1.517402e+00 1.350838e+00 1.524003e+00 1.452121e+00 3.013312e+00 2.764984e+00 1.717828e+00 9.857496e-01 1.512379e+00 6.201530e-02 1.680369e-02 7.718769e-02 1.277320e-01 1.709400e-01 9.844102e-02 1.658268e-01 2.503444e-01 3.967823e-01 5.620191e-01 3.188446e-01 1.702262e-01 3.259977e-01 1.076460e-02
<GCONST> 8.374586e+01
<STATE> 17
<MEAN> 39
 -2.245724e+01 -2.276163e+00 -6.673498e+00 1.450140e+00 4.388030e+00 -3.622312e-01 8.178617e+00 -7.489764e+00 2.030720e+00 -1.110268e+01 -5.794497e+00 -1.090341e+01 5.789679e+01 4.691713e-01 -1.062052e+00 7.037569e-01 -2.536002e-01 -2.567306e-01 3.024054e-01 -6.614969e-01 -1.573214e-01 -5.663469e-01 -6.016856e-01 -2.324170e-01 2.357709e-01 -5.259941e-01 2.701855e-02 2.121344e-01 1.266749e-01 5.806270e-02 1.208763e-01 -3.064787e-02 -7.660127e-02 -8.782794e-02 -2.935734e-01 -1.399343e-01 3.687488e-01 5.157517e-01 5.555100e-02
<VARIANCE> 39
 6.401305e+00 1.262844e+01 1.025381e+01 1.130892e+01 1.916824e+01 3.247002e+01 2.382025e+01 3.215199e+01 5.458710e+01 2.481427e+01 3.517129e+01 2.752625e+01 2.007987e+00 1.013592e-01 5.095407e-01 8.212394e-01 6.107287e-01 1.034322e+00 2.317792e+00 2.210109e+00 2.442320e+00 2.025309e+00 1.997979e+00 2.098845e+00 2.026453e+00 5.802574e-02 2.574639e-02 7.482821e-02 1.050391e-01 1.031208e-01 2.035028e-01 2.925362e-01 3.802192e-01 4.928056e-01 3.058285e-01 3.659984e-01 2.962610e-01 2.900771e-01 7.236233e-03
<GCONST> 8.274100e+01
<STATE> 18
<MEAN> 39
 -1.995507e+01 -6.370111e+00 -2.058226e+00 1.128259e+00 6.757414e+00 3.102690e+00 4.949497e+00 -8.312979e+00 -4.269085e+00 -1.371937e+01 -3.470848e+00 -5.199221e+00 5.591625e+01 6.566628e-01 -6.941002e-01 7.091556e-01 -4.819219e-01 4.806997e-01 5.321075e-01 8.653494e-02 2.561172e-01 -5.728989e-01 -2.118379e-01 -2.543764e-02 3.117802e-01 -2.467305e-01 -3.175741e-02 -4.279966e-02 -1.233791e-01 -2.088215e-01 -9.954427e-02 -9.367345e-02 7.957993e-02 3.076429e-01 2.378897e-01 1.588364e-01 -1.656937e-01 -3.013211e-01 2.710821e-02
<VARIANCE> 39
 6.361893e+00 1.879313e+01 1.027968e+01 2.699521e+01 2.833508e+01 2.291183e+01 1.833667e+01 3.272966e+01 6.358900e+01 3.715806e+01 4.018931e+01 1.693587e+01 1.456393e+00 2.424958e-01 7.889180e-01 1.183581e+00 1.140233e+00 1.296078e+00 9.185155e-01 1.660256e+00 2.728410e+00 2.054577e+00 2.673993e+00 2.350907e+00 1.374505e+00 4.802286e-02 2.791819e-02 1.090156e-01 2.352360e-01 2.130037e-01 2.422728e-01 2.305367e-01 3.271481e-01 7.367280e-01 5.255557e-01 4.383168e-01 4.109080e-01 1.988211e-01 1.089241e-02
<GCONST> 8.820903e+01
<STATE> 19
<MEAN> 39
 -1.851962e+01 -8.205274e+00 -1.367889e+00 -2.908716e+00 6.486171e+00 2.923865e+00 6.271561e+00 -6.071165e+00 -4.194157e+00 -1.335919e+01 -5.084287e+00 -8.488321e+00 5.535987e+01 1.278147e-01 -1.283565e+00 1.860741e-01 -9.438578e-01 -4.634653e-01 -1.653096e-01 -6.415170e-01 1.287161e+00 2.923287e-01 5.490335e-01 3.201469e-01 -3.524345e-01 -3.157738e-01 -9.234197e-02 -2.266616e-02 1.023574e-01 2.076705e-01 1.662382e-02 -6.317707e-02 -3.160191e-02 -5.243143e-02 -6.069947e-02 7.565773e-02 2.662356e-02 5.343070e-02 -1.243964e-02
<VARIANCE> 39
 5.648443e+00 1.957263e+01 1.361657e+01 1.848617e+01 1.095896e+01 2.131687e+01 3.366809e+01 3.105389e+01 4.647456e+01 4.048425e+01 2.189581e+01 1.878017e+01 2.438129e+00 2.533267e-01 4.160180e-01 5.264602e-01 1.180268e+00 1.045473e+00 1.264658e+00 1.499898e+00 2.691267e+00 2.420715e+00 2.359364e+00 2.738436e+00 1.290442e+00 8.949179e-02 3.010679e-02 6.816410e-02 6.121394e-02 1.277759e-01 2.712338e-01 2.351728e-01 3.114798e-01 2.723049e-01 2.622046e-01 3.712090e-01 3.892856e-01 1.904640e-01 1.097981e-02
<GCONST> 8.260484e+01
<TRANSP> 20
 0.000000e+00 1.000000e+00 0.000000e+00 0.000000e+00 0.000000e+00 0.000000e+00 0.000000e+00 0.000000e+00 0.000000e+00 0.000000e+00 0.000000e+00 0.000000e+00 0.000000e+00 0.000000e+00 0.000000e+00 0.000000e+00 0.000000e+00 0.000000e+00 0.000000e+00 0.000000e+00
 0.000000e+00 8.064575e-01 1.935425e-01 0.000000e+00 0.000000e+00 0.000000e+00 0.000000e+00 0.000000e+00 0.000000e+00 0.000000e+00 0.000000e+00 0.000000e+00 0.000000e+00 0.000000e+00 0.000000e+00 0.000000e+00 0.000000e+00 0.000000e+00 0.000000e+00 0.000000e+00
 0.000000e+00 0.000000e+00 7.645610e-01 2.354390e-01 0.000000e+00 0.000000e+00 0.000000e+00 0.000000e+00 0.000000e+00 0.000000e+00 0.000000e+00 0.000000e+00 0.000000e+00 0.000000e+00 0.000000e+00 0.000000e+00 0.000000e+00 0.000000e+00 0.000000e+00 0.000000e+00
 0.000000e+00 0.000000e+00 0.000000e+00 6.473621e-01 3.526379e-01 0.000000e+00 0.000000e+00 0.000000e+00 0.000000e+00 0.000000e+00 0.000000e+00 0.000000e+00 0.000000e+00 0.000000e+00 0.000000e+00 0.000000e+00 0.000000e+00 0.000000e+00 0.000000e+00 0.000000e+00
 0.000000e+00 0.000000e+00 0.000000e+00 0.000000e+00 6.618398e-01 3.381603e-01 0.000000e+00 0.000000e+00 0.000000e+00 0.000000e+00 0.000000e+00 0.000000e+00 0.000000e+00 0.000000e+00 0.000000e+00 0.000000e+00 0.000000e+00 0.000000e+00 0.000000e+00 0.000000e+00
 0.000000e+00 0.000000e+00 0.000000e+00 0.000000e+00 0.000000e+00 8.202821e-01 1.797179e-01 0.000000e+00 0.000000e+00 0.000000e+00 0.000000e+00 0.000000e+00 0.000000e+00 0.000000e+00 0.000000e+00 0.000000e+00 0.000000e+00 0.000000e+00 0.000000e+00 0.000000e+00
 0.000000e+00 0.000000e+00 0.000000e+00 0.000000e+00 0.000000e+00 0.000000e+00 7.054163e-01 2.945836e-01 0.000000e+00 0.000000e+00 0.000000e+00 0.000000e+00 0.000000e+00 0.000000e+00 0.000000e+00 0.000000e+00 0.000000e+00 0.000000e+00 0.000000e+00 0.000000e+00
 0.000000e+00 0.000000e+00 0.000000e+00 0.000000e+00 0.000000e+00 0.000000e+00 0.000000e+00 7.952607e-01 2.047393e-01 0.000000e+00 0.000000e+00 0.000000e+00 0.000000e+00 0.000000e+00 0.000000e+00 0.000000e+00 0.000000e+00 0.000000e+00 0.000000e+00 0.000000e+00
 0.000000e+00 0.000000e+00 0.000000e+00 0.000000e+00 0.000000e+00 0.000000e+00 0.000000e+00 0.000000e+00 8.077895e-01 1.922105e-01 0.000000e+00 0.000000e+00 0.000000e+00 0.000000e+00 0.000000e+00 0.000000e+00 0.000000e+00 0.000000e+00 0.000000e+00 0.000000e+00
 0.000000e+00 0.000000e+00 0.000000e+00 0.000000e+00 0.000000e+00 0.000000e+00 0.000000e+00 0.000000e+00 0.000000e+00 6.662939e-01 3.337062e-01 0.000000e+00 0.000000e+00 0.000000e+00 0.000000e+00 0.000000e+00 0.000000e+00 0.000000e+00 0.000000e+00 0.000000e+00
 0.000000e+00 0.000000e+00 0.000000e+00 0.000000e+00 0.000000e+00 0.000000e+00 0.000000e+00 0.000000e+00 0.000000e+00 0.000000e+00 5.191412e-01 4.808588e-01 0.000000e+00 0.000000e+00 0.000000e+00 0.000000e+00 0.000000e+00 0.000000e+00 0.000000e+00 0.000000e+00
 0.000000e+00 0.000000e+00 0.000000e+00 0.000000e+00 0.000000e+00 0.000000e+00 0.000000e+00 0.000000e+00 0.000000e+00 0.000000e+00 0.000000e+00 7.041606e-01 2.958395e-01 0.000000e+00 0.000000e+00 0.000000e+00 0.000000e+00 0.000000e+00 0.000000e+00 0.000000e+00
 0.000000e+00 0.000000e+00 0.000000e+00 0.000000e+00 0.000000e+00 0.000000e+00 0.000000e+00 0.000000e+00 0.000000e+00 0.000000e+00 0.000000e+00 0.000000e+00 8.310365e-01 1.689635e-01 0.000000e+00 0.000000e+00 0.000000e+00 0.000000e+00 0.000000e+00 0.000000e+00
 0.000000e+00 0.000000e+00 0.000000e+00 0.000000e+00 0.000000e+00 0.000000e+00 0.000000e+00 0.000000e+00 0.000000e+00 0.000000e+00 0.000000e+00 0.000000e+00 0.000000e+00 8.433357e-01 1.566643e-01 0.000000e+00 0.000000e+00 0.000000e+00 0.000000e+00 0.000000e+00
 0.000000e+00 0.000000e+00 0.000000e+00 0.000000e+00 0.000000e+00 0.000000e+00 0.000000e+00 0.000000e+00 0.000000e+00 0.000000e+00 0.000000e+00 0.000000e+00 0.000000e+00 0.000000e+00 8.169133e-01 1.830867e-01 0.000000e+00 0.000000e+00 0.000000e+00 0.000000e+00
 0.000000e+00 0.000000e+00 0.000000e+00 0.000000e+00 0.000000e+00 0.000000e+00 0.000000e+00 0.000000e+00 0.000000e+00 0.000000e+00 0.000000e+00 0.000000e+00 0.000000e+00 0.000000e+00 0.000000e+00 7.209099e-01 2.790901e-01 0.000000e+00 0.000000e+00 0.000000e+00
 0.000000e+00 0.000000e+00 0.000000e+00 0.000000e+00 0.000000e+00 0.000000e+00 0.000000e+00 0.000000e+00 0.000000e+00 0.000000e+00 0.000000e+00 0.000000e+00 0.000000e+00 0.000000e+00 0.000000e+00 0.000000e+00 7.149160e-01 2.850840e-01 0.000000e+00 0.000000e+00
 0.000000e+00 0.000000e+00 0.000000e+00 0.000000e+00 0.000000e+00 0.000000e+00 0.000000e+00 0.000000e+00 0.000000e+00 0.000000e+00 0.000000e+00 0.000000e+00 0.000000e+00 0.000000e+00 0.000000e+00 0.000000e+00 0.000000e+00 7.857953e-01 2.142047e-01 0.000000e+00
 0.000000e+00 0.000000e+00 0.000000e+00 0.000000e+00 0.000000e+00 0.000000e+00 0.000000e+00 0.000000e+00 0.000000e+00 0.000000e+00 0.000000e+00 0.000000e+00 0.000000e+00 0.000000e+00 0.000000e+00 0.000000e+00 0.000000e+00 0.000000e+00 6.776231e-01 3.223769e-01
 0.000000e+00 0.000000e+00 0.000000e+00 0.000000e+00 0.000000e+00 0.000000e+00 0.000000e+00 0.000000e+00 0.000000e+00 0.000000e+00 0.000000e+00 0.000000e+00 0.000000e+00 0.000000e+00 0.000000e+00 0.000000e+00 0.000000e+00 0.000000e+00 0.000000e+00 0.000000e+00
<ENDHMM>
