~o
<STREAMINFO> 1 39
<VECSIZE> 39<NULLD><MFCC_D_A_0><DIAGC>
~h "sil"
<BEGINHMM>
<NUMSTATES> 20
<STATE> 2
<MEAN> 39
 -1.530761e+01 -4.889502e+00 -5.630255e-01 -3.212591e+00 2.384666e+00 -1.094269e+00 3.417802e+00 -4.803750e+00 -1.063152e+00 -7.936922e+00 -1.167329e+00 -6.697145e+00 5.752634e+01 -3.921391e-01 -3.214588e-01 -3.418179e-02 -1.286386e-01 -1.204940e-01 -1.273310e-02 1.420345e-01 3.637181e-01 2.620659e-01 -1.729384e-02 -9.579445e-02 -5.025182e-02 1.363436e-01 -2.614501e-02 3.460798e-02 -3.126027e-02 6.385058e-02 2.405218e-02 5.142784e-03 -6.849365e-02 6.964251e-02 4.507505e-02 1.150010e-01 1.610409e-02 3.590848e-02 -3.965919e-01
<VARIANCE> 39
 3.882998e+01 2.077474e+01 3.228299e+01 4.242207e+01 3.554543e+01 4.912375e+01 4.124135e+01 3.304002e+01 3.829501e+01 3.999505e+01 4.455193e+01 3.035830e+01 2.380828e+01 4.652366e-01 4.875160e-01 8.998274e-01 1.232368e+00 1.651522e+00 1.702027e+00 1.940184e+00 2.219470e+00 1.921114e+00 2.495845e+00 1.543725e+00 1.838770e+00 3.794674e+00 6.149745e-02 9.484885e-02 1.635258e-01 2.357976e-01 2.603697e-01 2.846369e-01 3.312363e-01 3.897907e-01 3.758831e-01 4.264243e-01 3.583916e-01 3.441209e-01 8.694394e-01
<GCONST> 1.059336e+02
<STATE> 3
<MEAN> 39
 -1.498935e+01 -5.614268e+00 8.060914e-01 -3.239026e+00 2.187297e+00 -2.533598e+00 9.587699e-01 -5.210138e+00 -1.723086e+00 -8.702991e+00 -1.414231e+00 -6.839733e+00 5.684611e+01 -3.164001e-01 -3.158152e-01 -3.250204e-02 2.074942e-02 1.324906e-01 -3.643984e-02 -2.892506e-02 1.963043e-01 1.741933e-01 1.799772e-01 2.318626e-02 2.715385e-02 -1.967665e-01 5.195822e-03 -7.586215e-03 -6.274594e-02 -2.758732e-02 1.833964e-02 3.234924e-02 2.511430e-02 -3.087631e-02 4.946239e-04 3.546766e-02 1.611910e-02 -1.165019e-02 2.520756e-02
<VARIANCE> 39
 1.764820e+01 2.997022e+01 2.353566e+01 3.106279e+01 3.675192e+01 4.789132e+01 4.934321e+01 4.134635e+01 4.291488e+01 3.951698e+01 3.976488e+01 3.115748e+01 6.441661e+00 4.447822e-01 4.917257e-01 7.925425e-01 1.009122e+00 1.416629e+00 1.616567e+00 1.900173e+00 1.989315e+00 1.921455e+00 2.059580e+00 1.948979e+00 1.572965e+00 1.063968e-01 3.896225e-02 7.716540e-02 1.281195e-01 1.588469e-01 2.506904e-01 2.580049e-01 3.319215e-01 3.595956e-01 3.580621e-01 3.576416e-01 3.127737e-01 2.810536e-01 1.018216e-02
<GCONST> 9.308804e+01
<STATE> 4
<MEAN> 39
 -2.089494e+01 -9.494449e+00 -3.857259e+00 -3.619730e+00 6.424715e+00 4.746703e+00 8.951790e+00 5.033078e-01 2.909581e+00 -7.074648e+00 -1.988195e+00 -8.236764e+00 5.450179e+01 -1.370058e-01 -2.153092e-01 -1.851732e-01 -2.089112e-01 -1.875537e-01 -1.016326e-01 1.253181e-01 3.190062e-01 3.700920e-01 3.584962e-01 2.750475e-01 8.234130e-02 -2.863165e-02 7.739770e-02 8.447019e-02 7.088588e-02 3.549203e-02 -4.921407e-02 -9.132757e-02 -1.270134e-01 -1.494552e-01 -1.257719e-01 -8.279932e-02 -1.451427e-02 -5.205408e-03 3.997480e-02
<VARIANCE> 39
 1.130979e+01 2.203063e+01 2.529190e+01 3.493260e+01 4.079102e+01 5.478757e+01 5.730708e+01 5.401767e+01 7.673067e+01 6.958070e+01 4.472589e+01 3.492290e+01 2.564794e+00 2.626553e-01 5.141475e-01 7.774698e-01 1.498977e+00 2.058642e+00 2.373108e+00 2.334706e+00 2.623319e+00 2.742392e+00 2.846323e+00 2.469520e+00 1.972244e+00 6.916807e-02 3.554640e-02 8.522461e-02 1.357649e-01 2.665693e-01 3.482654e-01 3.876782e-01 4.358330e-01 5.024266e-01 5.347102e-01 5.819619e-01 4.301506e-01 3.908117e-01 1.001367e-02
<GCONST> 9.892971e+01
<STATE> 5
<MEAN> 39
 -1.842056e+01 -8.016819e+00 -2.875814e+00 -4.941628e+00 1.771774e+00 -1.233483e+00 3.616279e+00 -3.020119e+00 5.350269e-01 -7.019471e+00 -4.380764e-02 -6.653771e+00 5.577109e+01 1.149773e-01 1.314546e-01 2.163088e-01 2.285906e-01 9.879741e-02 4.579835e-02 -7.702246e-02 -2.759128e-01 -4.093647e-01 -3.551954e-01 -2.468025e-01 -1.536924e-01 5.923469e-02 2.373088e-02 4.973442e-02 8.032330e-02 1.571802e-01 1.798626e-01 1.573072e-01 7.744762e-02 -1.841505e-02 -6.920701e-02 -1.042553e-01 -1.188258e-01 -4.993547e-02 6.120213e-03
<VARIANCE> 39
 7.230494e+00 1.329791e+01 2.019616e+01 2.228005e+01 2.528576e+01 3.854270e+01 4.328644e+01 3.753219e+01 3.876194e+01 3.165141e+01 3.161349e+01 2.743752e+01 1.660437e+00 2.996050e-01 5.340561e-01 8.016726e-01 1.233073e+00 1.741717e+00 2.287559e+00 2.893121e+00 2.887066e+00 2.758644e+00 2.490502e+00 2.006840e+00 1.962463e+00 8.919156e-02 3.546056e-02 7.789935e-02 1.359088e-01 1.933935e-01 3.026823e-01 4.044672e-01 4.411458e-01 4.299313e-01 3.892380e-01 3.811741e-01 3.555503e-01 3.230810e-01 1.189478e-02
<GCONST> 9.175711e+01
<STATE> 6
<MEAN> 39
 -1.880538e+01 -7.532229e+00 -7.151657e-01 -5.404415e-01 6.734417e+00 2.966602e+00 6.256554e+00 -3.162844e+00 -1.879841e+00 -1.147898e+01 -4.821025e+00 -9.254496e+00 5.566945e+01 -1.006402e-02 -1.717796e-02 5.789140e-02 2.078251e-01 2.016555e-01 7.333376e-02 -8.030318e-02 -1.595033e-01 -8.756701e-02 9.514271e-03 -1.200026e-02 1.180581e-02 3.647164e-03 -1.900211e-02 -6.694271e-02 -1.334930e-01 -1.917415e-01 -2.099379e-01 -1.669951e-01 -8.508209e-02 4.446199e-02 1.738460e-01 2.257716e-01 2.040626e-01 1.335558e-01 -8.886959e-04
<VARIANCE> 39
 5.170181e+00 7.899239e+00 1.180154e+01 2.367034e+01 3.381164e+01 4.081896e+01 3.453437e+01 3.237302e+01 3.698720e+01 4.035561e+01 3.526730e+01 2.954640e+01 1.156464e+00 2.025499e-01 4.281097e-01 6.773205e-01 1.047663e+00 1.432964e+00 1.765541e+00 1.959971e+00 2.070608e+00 2.609576e+00 2.361199e+00 1.870869e+00 1.779001e+00 5.095632e-02 3.425266e-02 5.972308e-02 1.033926e-01 1.899673e-01 2.729725e-01 2.972435e-01 3.420316e-01 3.697058e-01 4.502930e-01 4.272593e-01 3.444736e-01 3.088696e-01 8.633344e-03
<GCONST> 8.591341e+01
<STATE> 7
<MEAN> 39
 -1.791003e+01 -6.905612e+00 -7.304141e-01 -2.103336e+00 3.967766e+00 -1.126181e-01 3.539987e+00 -4.165786e+00 -2.005258e-01 -7.003553e+00 -3.807925e-01 -6.306900e+00 5.595594e+01 -5.964790e-02 -2.220791e-01 -3.860698e-01 -5.391337e-01 -6.525505e-01 -4.621900e-01 -3.605104e-01 -6.436619e-02 3.315248e-01 6.117313e-01 6.024762e-01 4.107861e-01 1.336288e-02 -6.092663e-02 -1.268982e-01 -1.926961e-01 -2.150423e-01 -1.802332e-01 -1.249355e-01 -1.672104e-02 7.860866e-02 6.729399e-02 2.856720e-02 6.993894e-02 3.861198e-02 -1.326925e-02
<VARIANCE> 39
 6.888950e+00 1.038413e+01 1.424523e+01 2.013431e+01 2.532810e+01 3.785060e+01 4.833554e+01 4.220455e+01 2.799327e+01 2.581531e+01 3.061362e+01 3.039578e+01 1.599420e+00 2.244836e-01 3.656663e-01 5.440955e-01 1.150934e+00 1.757806e+00 1.964270e+00 1.803057e+00 1.964753e+00 2.249766e+00 2.267656e+00 2.039165e+00 1.773828e+00 5.485204e-02 3.435112e-02 6.604446e-02 1.265467e-01 1.808464e-01 2.603563e-01 3.259729e-01 3.859072e-01 3.877698e-01 3.591509e-01 3.744156e-01 3.889088e-01 3.503705e-01 9.751531e-03
<GCONST> 8.666711e+01
<STATE> 8
<MEAN> 39
 -1.817773e+01 -7.816787e+00 -2.920028e+00 -4.668094e+00 1.456454e+00 -1.957632e+00 2.865391e+00 -3.633248e+00 8.290929e-01 -6.501126e+00 3.117385e-01 -6.238834e+00 5.612078e+01 -2.304517e-01 -4.058661e-01 -4.942071e-01 -4.221056e-01 -3.341823e-01 -2.460794e-01 -1.302365e-01 1.393600e-01 2.305565e-01 1.700460e-01 2.366932e-01 1.465479e-01 -6.353284e-02 1.614603e-03 7.280273e-03 2.830193e-02 6.958261e-02 6.854964e-02 3.263054e-02 4.409448e-02 7.294552e-03 -3.266857e-03 -5.123280e-02 -6.364857e-02 -2.067122e-02 -3.710123e-03
<VARIANCE> 39
 4.155850e+00 5.781163e+00 9.238050e+00 1.297660e+01 1.941074e+01 2.892977e+01 3.207246e+01 2.717012e+01 2.373691e+01 2.494032e+01 2.593957e+01 2.448171e+01 9.681273e-01 1.577148e-01 2.697316e-01 5.606422e-01 9.091241e-01 1.240076e+00 1.469509e+00 1.679818e+00 1.795013e+00 1.908671e+00 1.978217e+00 1.844690e+00 1.533343e+00 4.053473e-02 2.821069e-02 4.332924e-02 9.218048e-02 1.488495e-01 2.135832e-01 2.471012e-01 3.058564e-01 3.537564e-01 3.670659e-01 3.902576e-01 3.397051e-01 3.240317e-01 7.820393e-03
<GCONST> 7.742169e+01
<STATE> 9
<MEAN> 39
 -1.894080e+01 -8.975633e+00 -3.540286e+00 -5.166696e+00 1.761259e+00 -1.253763e+00 3.644344e+00 -3.000237e+00 9.442726e-01 -6.194998e+00 4.557799e-01 -5.995655e+00 5.568215e+01 -1.570097e-01 -3.278222e-01 -4.106665e-01 -3.428525e-01 -3.861666e-01 -3.984937e-01 -1.523230e-01 4.621883e-02 3.118346e-01 3.150409e-01 2.323456e-01 2.615175e-01 -3.587961e-02 1.248304e-01 2.233559e-01 2.699126e-01 2.709837e-01 2.025717e-01 4.184007e-02 -1.091383e-02 -1.330660e-01 -1.744039e-01 -1.978541e-01 -1.597368e-01 -4.909586e-02 4.141071e-02
<VARIANCE> 39
 5.901992e+00 7.797991e+00 1.132412e+01 1.811282e+01 2.606970e+01 3.432792e+01 4.119239e+01 3.350466e+01 2.933505e+01 2.772243e+01 2.881912e+01 2.419487e+01 1.108951e+00 1.626759e-01 2.372325e-01 5.697092e-01 7.631539e-01 1.301688e+00 1.707666e+00 1.776828e+00 1.438560e+00 1.644099e+00 1.744788e+00 2.127966e+00 1.757832e+00 4.594828e-02 2.267647e-02 4.103542e-02 9.056566e-02 1.915687e-01 2.451188e-01 3.049257e-01 3.558234e-01 3.974469e-01 4.248732e-01 4.015317e-01 3.499475e-01 2.903773e-01 5.947570e-03
<GCONST> 8.038727e+01
<STATE> 10
<MEAN> 39
 -1.909024e+01 -9.423926e+00 -3.930101e+00 -5.182605e+00 1.488520e+00 -1.730937e+00 3.153580e+00 -3.035161e+00 1.386292e+00 -5.800149e+00 6.794423e-01 -5.899652e+00 5.564803e+01 7.591236e-02 7.077533e-02 4.228719e-02 1.265131e-01 -2.615540e-02 -2.695524e-01 -1.802296e-01 -1.859928e-01 -2.853003e-02 -8.136071e-02 -2.348530e-02 1.563270e-01 3.954455e-02 1.601600e-01 3.007058e-01 3.417161e-01 3.014410e-01 2.508976e-01 1.196036e-01 5.891751e-03 -1.569304e-01 -2.476105e-01 -2.624114e-01 -1.943034e-01 -1.039326e-01 5.851566e-02
<VARIANCE> 39
 5.895035e+00 7.422937e+00 1.290892e+01 1.735622e+01 2.273419e+01 3.350748e+01 3.791522e+01 2.834531e+01 2.442320e+01 2.790480e+01 2.693923e+01 2.475418e+01 1.162865e+00 1.275807e-01 1.914109e-01 4.393906e-01 6.863880e-01 1.110214e+00 1.547136e+00 1.908429e+00 1.827844e+00 1.795109e+00 2.002419e+00 1.741155e+00 1.576131e+00 3.662085e-02 2.790254e-02 4.904691e-02 1.082648e-01 1.747116e-01 2.538579e-01 3.162600e-01 3.594371e-01 3.563892e-01 3.878709e-01 3.473960e-01 3.827747e-01 3.161615e-01 7.492482e-03
<GCONST> 7.937321e+01
<STATE> 11
<MEAN> 39
 -1.892667e+01 -8.995548e+00 -3.834356e+00 -5.058229e+00 1.369958e+00 -2.150422e+00 2.940688e+00 -3.277855e+00 1.596146e+00 -6.103526e+00 1.397650e-01 -5.802771e+00 5.576915e+01 3.126443e-01 5.391697e-01 6.200891e-01 6.250902e-01 4.471053e-01 2.037753e-02 -1.429048e-01 -3.641788e-01 -4.979360e-01 -5.784174e-01 -3.516567e-01 -1.384442e-01 1.375298e-01 9.675179e-02 1.937584e-01 2.014926e-01 1.368051e-01 1.265076e-01 1.059438e-01 2.513682e-02 -8.954496e-02 -1.915385e-01 -1.662920e-01 -9.745293e-02 -1.164201e-01 3.504681e-02
<VARIANCE> 39
 4.795189e+00 6.752539e+00 1.156008e+01 1.713522e+01 2.259383e+01 3.277502e+01 3.319097e+01 2.611737e+01 2.514111e+01 2.978349e+01 3.062491e+01 2.610650e+01 1.012886e+00 1.495948e-01 2.636760e-01 5.469876e-01 8.448468e-01 1.398411e+00 1.734065e+00 2.039977e+00 2.154773e+00 2.073673e+00 2.045311e+00 1.955404e+00 1.466206e+00 3.426155e-02 2.876721e-02 4.434702e-02 9.214722e-02 1.431903e-01 2.258009e-01 2.904426e-01 3.382044e-01 2.969346e-01 3.081657e-01 3.633741e-01 4.013359e-01 3.124724e-01 8.019498e-03
<GCONST> 7.951047e+01
<STATE> 12
<MEAN> 39
 -1.804738e+01 -7.347659e+00 -2.029344e+00 -3.552766e+00 2.517905e+00 -1.822580e+00 2.998783e+00 -4.255355e+00 -2.539832e-01 -7.873560e+00 -4.835595e-01 -6.140519e+00 5.612140e+01 3.316550e-01 5.960703e-01 6.335580e-01 5.652770e-01 4.614876e-01 1.596688e-01 -3.515286e-02 -3.910451e-01 -5.332862e-01 -4.834777e-01 -3.051036e-01 -1.942381e-01 1.390238e-01 -4.797323e-02 -8.334696e-02 -1.111601e-01 -1.285711e-01 -1.064872e-01 -1.602597e-02 -2.066719e-02 4.514053e-02 1.269998e-01 1.730634e-01 8.484775e-02 -1.980129e-02 -1.675606e-02
<VARIANCE> 39
 4.021724e+00 6.429893e+00 9.956994e+00 1.556312e+01 1.995717e+01 2.766845e+01 2.813224e+01 2.597033e+01 2.359746e+01 2.289786e+01 2.024124e+01 1.932143e+01 9.043828e-01 1.726707e-01 2.933463e-01 5.866926e-01 9.180850e-01 1.417966e+00 1.752334e+00 1.872955e+00 2.156468e+00 2.204144e+00 2.055902e+00 1.866306e+00 1.599268e+00 4.904228e-02 2.869111e-02 4.720846e-02 9.307302e-02 1.663054e-01 2.404481e-01 2.931744e-01 3.269317e-01 3.822214e-01 3.394398e-01 3.596041e-01 3.176203e-01 2.889012e-01 8.444374e-03
<GCONST> 7.856488e+01
<STATE> 13
<MEAN> 39
 -1.767754e+01 -6.491195e+00 -4.860125e-01 -1.652591e+00 4.145874e+00 -1.217816e+00 2.478780e+00 -5.630804e+00 -2.266702e+00 -9.374969e+00 -1.827466e+00 -6.816059e+00 5.625536e+01 8.340739e-02 1.392045e-01 -6.510943e-03 -1.282367e-01 -1.820650e-01 -1.094308e-01 -1.054014e-01 -3.943711e-02 1.535643e-01 2.998545e-01 1.665820e-01 -1.224211e-01 4.273244e-02 -1.006766e-01 -2.124056e-01 -2.904566e-01 -3.193627e-01 -2.924451e-01 -1.435641e-01 -2.164314e-02 1.740267e-01 3.237291e-01 3.239780e-01 2.212107e-01 9.502500e-02 -4.039478e-02
<VARIANCE> 39
 4.058326e+00 7.159769e+00 9.835675e+00 1.726634e+01 2.078133e+01 2.374352e+01 2.560130e+01 3.023485e+01 3.012332e+01 2.737276e+01 2.682276e+01 2.522229e+01 9.551593e-01 1.599311e-01 2.827386e-01 5.321743e-01 8.155220e-01 1.149416e+00 1.537330e+00 1.772244e+00 2.007635e+00 2.006563e+00 1.867526e+00 1.493362e+00 1.421843e+00 4.130981e-02 3.263154e-02 6.181397e-02 1.187046e-01 1.661292e-01 2.474878e-01 3.167711e-01 3.084130e-01 3.790567e-01 4.010357e-01 3.744582e-01 3.164634e-01 2.696249e-01 7.425067e-03
<GCONST> 7.893041e+01
<STATE> 14
<MEAN> 39
 -1.807143e+01 -7.498630e+00 -2.443295e+00 -3.552562e+00 2.960773e+00 -3.904267e-01 4.525525e+00 -2.103009e+00 2.060942e+00 -5.769696e+00 1.077908e-01 -6.824199e+00 5.615189e+01 -2.104183e-02 -1.247793e-01 -2.920630e-01 -3.954485e-01 -5.420318e-01 -5.120575e-01 -3.837312e-01 -5.770490e-02 2.661812e-01 3.139304e-01 2.840777e-01 2.175644e-01 7.255076e-03 -2.096662e-02 -2.988744e-02 -2.499135e-03 1.576456e-02 -4.038813e-02 -1.363871e-01 -1.575527e-01 -1.661958e-01 -1.645517e-01 -1.390868e-01 -4.958166e-02 2.456445e-02 -7.525454e-03
<VARIANCE> 39
 2.939257e+00 4.910669e+00 7.159751e+00 1.096200e+01 1.447934e+01 1.907202e+01 2.189135e+01 2.688681e+01 2.741652e+01 2.281192e+01 2.170661e+01 1.815681e+01 5.856040e-01 1.789005e-01 3.154866e-01 4.498904e-01 7.368649e-01 1.002406e+00 1.493363e+00 1.544380e+00 1.871823e+00 1.959018e+00 1.961441e+00 1.564149e+00 1.559183e+00 4.047496e-02 2.956795e-02 5.425701e-02 7.896851e-02 1.238282e-01 1.967303e-01 2.773251e-01 3.010432e-01 3.647570e-01 3.972035e-01 3.922427e-01 3.264668e-01 2.773052e-01 7.381464e-03
<GCONST> 7.375497e+01
<STATE> 15
<MEAN> 39
 -1.764648e+01 -7.087030e+00 -2.771642e+00 -4.615082e+00 3.940121e-01 -4.394601e+00 5.340428e-01 -5.678485e+00 2.160734e-02 -6.871562e+00 3.293208e-01 -5.848833e+00 5.652885e+01 -2.765390e-02 -5.261470e-02 -6.164264e-02 -8.244873e-02 -1.153791e-01 -1.596270e-01 -1.390300e-01 -1.259342e-01 -6.793407e-02 -1.077664e-02 1.398874e-02 3.897113e-02 -8.941082e-03 -4.612538e-03 -1.262041e-03 4.577724e-03 1.211436e-02 2.954859e-02 3.506095e-02 2.937319e-02 1.806298e-02 -1.982878e-03 -1.446318e-02 -1.656480e-02 -1.126136e-02 -9.499248e-04
<VARIANCE> 39
 1.211455e+00 2.519064e+00 4.401973e+00 6.461741e+00 8.399083e+00 1.021212e+01 1.234400e+01 1.353249e+01 1.415951e+01 1.275540e+01 1.197214e+01 1.216892e+01 3.351759e-01 1.182200e-01 2.492799e-01 4.369413e-01 6.245301e-01 8.368098e-01 1.065106e+00 1.317121e+00 1.499441e+00 1.592474e+00 1.396168e+00 1.253094e+00 1.292827e+00 3.200640e-02 2.203541e-02 4.571077e-02 8.784223e-02 1.286570e-01 1.635569e-01 2.122352e-01 2.624019e-01 2.913970e-01 3.177554e-01 2.848406e-01 2.496488e-01 2.574936e-01 6.396438e-03
<GCONST> 6.086382e+01
<STATE> 16
<MEAN> 39
 -1.839748e+01 -8.258782e+00 -3.962443e+00 -6.091794e+00 -1.033901e+00 -5.913028e+00 -9.664329e-01 -6.825296e+00 -6.041219e-01 -7.183455e+00 1.352330e-01 -5.677373e+00 5.616430e+01 1.510500e-01 2.301650e-01 2.245440e-01 2.676600e-01 3.088032e-01 2.864873e-01 2.262632e-01 1.321287e-01 5.067017e-02 -6.050813e-02 -2.721804e-02 -1.053164e-01 7.437402e-02 1.060168e-01 1.614561e-01 2.034384e-01 2.458239e-01 2.873994e-01 3.226500e-01 2.868305e-01 2.023858e-01 1.002357e-01 5.308424e-02 1.604798e-02 -1.169065e-02 3.896545e-02
<VARIANCE> 39
 1.818302e+00 3.284800e+00 6.542253e+00 9.147057e+00 1.426650e+01 1.649777e+01 1.952626e+01 1.837727e+01 1.914582e+01 1.687056e+01 1.710365e+01 1.683981e+01 4.809025e-01 1.469855e-01 3.255467e-01 5.750599e-01 8.233377e-01 1.113703e+00 1.364267e+00 1.656695e+00 1.710658e+00 1.714797e+00 1.730345e+00 1.438893e+00 1.345801e+00 3.562159e-02 2.637799e-02 6.288001e-02 9.732615e-02 1.383937e-01 2.044892e-01 2.420934e-01 2.848375e-01 3.286967e-01 3.585204e-01 3.444835e-01 2.941052e-01 3.040532e-01 6.631461e-03
<GCONST> 7.009010e+01
<STATE> 17
<MEAN> 39
 -1.688740e+01 -5.919909e+00 -9.628325e-01 -2.430389e+00 2.985822e+00 -1.650420e+00 2.834097e+00 -4.245808e+00 7.183212e-01 -6.549668e+00 3.926345e-01 -6.073117e+00 5.677071e+01 8.424565e-02 1.008261e-01 1.170513e-01 1.531977e-01 1.717730e-01 2.169740e-01 2.376446e-01 2.174655e-01 1.027334e-01 3.311781e-02 1.185800e-02 3.950343e-02 3.659454e-02 -8.473014e-02 -1.274146e-01 -1.716244e-01 -1.999727e-01 -2.248923e-01 -2.322644e-01 -1.983969e-01 -1.279429e-01 -3.629496e-02 -3.417634e-03 -1.458143e-02 1.973867e-02 -2.987130e-02
<VARIANCE> 39
 2.021378e+00 3.936905e+00 5.758490e+00 9.125731e+00 1.090466e+01 1.309921e+01 1.415955e+01 1.463570e+01 1.554868e+01 1.648105e+01 1.490217e+01 1.189186e+01 5.586563e-01 1.571253e-01 3.397591e-01 5.949667e-01 9.075298e-01 1.257267e+00 1.500154e+00 1.402878e+00 1.377505e+00 1.460910e+00 1.534353e+00 1.359448e+00 1.156210e+00 4.111083e-02 2.829201e-02 5.614146e-02 8.570845e-02 1.386624e-01 2.086217e-01 2.509218e-01 2.633996e-01 2.704830e-01 2.930205e-01 3.268471e-01 2.704229e-01 2.122048e-01 7.666014e-03
<GCONST> 6.742103e+01
<STATE> 18
<MEAN> 39
 -1.755992e+01 -7.002963e+00 -2.848791e+00 -4.622824e+00 3.880401e-01 -4.393056e+00 4.866196e-01 -5.727596e+00 3.406927e-01 -6.535172e+00 3.751236e-01 -5.849061e+00 5.657835e+01 -1.082928e-02 -1.714865e-02 -3.121363e-02 -3.736022e-02 -5.461438e-02 -6.189865e-02 -6.086383e-02 -3.278671e-02 -1.128409e-03 1.764641e-02 -6.765227e-03 -4.245458e-05 -2.169637e-03 5.599780e-03 6.331809e-03 1.115331e-02 1.514097e-02 1.012162e-02 7.887061e-03 4.690077e-03 3.737148e-03 3.245577e-03 -1.426571e-03 -4.893195e-03 -4.557591e-03 1.910192e-03
<VARIANCE> 39
 9.936655e-01 2.182989e+00 3.870548e+00 5.311853e+00 7.141286e+00 9.233326e+00 1.094402e+01 1.190805e+01 1.239153e+01 1.189977e+01 1.166217e+01 1.058280e+01 2.640741e-01 1.082658e-01 2.431559e-01 4.255444e-01 5.514614e-01 7.382750e-01 9.908407e-01 1.207455e+00 1.286327e+00 1.349511e+00 1.302535e+00 1.294429e+00 1.082722e+00 2.763375e-02 2.202423e-02 4.881128e-02 8.546132e-02 1.096473e-01 1.471264e-01 2.036260e-01 2.495392e-01 2.662134e-01 2.780655e-01 2.656371e-01 2.626760e-01 2.254590e-01 5.524734e-03
<GCONST> 5.700934e+01
<STATE> 19
<MEAN> 39
 -1.671802e+01 -6.074075e+00 -1.709470e+00 -3.831143e+00 5.684229e-01 -5.337790e+00 4.991855e-01 -6.004650e+00 -3.973700e-01 -7.835348e+00 -7.026566e-01 -6.075107e+00 5.699296e+01 4.158825e-02 2.868726e-02 7.552603e-03 1.793640e-02 -7.544358e-02 -1.413331e-01 -1.515330e-01 -6.522910e-02 1.792121e-02 -8.573514e-02 -1.230465e-01 -6.585398e-02 3.407512e-02 1.942636e-02 2.717435e-02 5.958322e-03 -6.227001e-03 -2.144765e-02 8.051060e-03 1.280491e-03 -4.249988e-02 -1.683655e-02 -3.193821e-03 1.787053e-02 -2.097429e-02 1.622832e-02
<VARIANCE> 39
 6.184887e+00 8.447405e+00 7.776912e+00 1.391990e+01 1.915316e+01 2.491629e+01 2.740468e+01 2.920031e+01 2.746822e+01 2.398873e+01 2.073753e+01 1.871439e+01 1.815051e+00 2.072832e-01 4.098527e-01 5.043474e-01 8.461413e-01 1.142141e+00 1.540340e+00 1.730501e+00 1.871051e+00 1.730570e+00 1.663508e+00 1.559163e+00 1.513595e+00 5.367394e-02 4.456287e-02 9.017938e-02 1.130387e-01 1.749831e-01 2.230426e-01 2.879089e-01 3.271870e-01 3.856223e-01 3.476971e-01 3.072204e-01 3.110850e-01 2.877705e-01 1.302614e-02
<GCONST> 8.038610e+01
<TRANSP> 20
 0.000000e+00 1.000000e+00 0.000000e+00 0.000000e+00 0.000000e+00 0.000000e+00 0.000000e+00 0.000000e+00 0.000000e+00 0.000000e+00 0.000000e+00 0.000000e+00 0.000000e+00 0.000000e+00 0.000000e+00 0.000000e+00 0.000000e+00 0.000000e+00 0.000000e+00 0.000000e+00
 0.000000e+00 2.422112e-01 7.577888e-01 0.000000e+00 0.000000e+00 0.000000e+00 0.000000e+00 0.000000e+00 0.000000e+00 0.000000e+00 0.000000e+00 0.000000e+00 0.000000e+00 0.000000e+00 0.000000e+00 0.000000e+00 0.000000e+00 0.000000e+00 0.000000e+00 0.000000e+00
 0.000000e+00 0.000000e+00 7.013330e-01 2.986670e-01 0.000000e+00 0.000000e+00 0.000000e+00 0.000000e+00 0.000000e+00 0.000000e+00 0.000000e+00 0.000000e+00 0.000000e+00 0.000000e+00 0.000000e+00 0.000000e+00 0.000000e+00 0.000000e+00 0.000000e+00 0.000000e+00
 0.000000e+00 0.000000e+00 0.000000e+00 6.730705e-01 3.269295e-01 0.000000e+00 0.000000e+00 0.000000e+00 0.000000e+00 0.000000e+00 0.000000e+00 0.000000e+00 0.000000e+00 0.000000e+00 0.000000e+00 0.000000e+00 0.000000e+00 0.000000e+00 0.000000e+00 0.000000e+00
 0.000000e+00 0.000000e+00 0.000000e+00 0.000000e+00 4.606147e-01 5.393853e-01 0.000000e+00 0.000000e+00 0.000000e+00 0.000000e+00 0.000000e+00 0.000000e+00 0.000000e+00 0.000000e+00 0.000000e+00 0.000000e+00 0.000000e+00 0.000000e+00 0.000000e+00 0.000000e+00
 0.000000e+00 0.000000e+00 0.000000e+00 0.000000e+00 0.000000e+00 5.813839e-01 4.186162e-01 0.000000e+00 0.000000e+00 0.000000e+00 0.000000e+00 0.000000e+00 0.000000e+00 0.000000e+00 0.000000e+00 0.000000e+00 0.000000e+00 0.000000e+00 0.000000e+00 0.000000e+00
 0.000000e+00 0.000000e+00 0.000000e+00 0.000000e+00 0.000000e+00 0.000000e+00 2.444119e-01 7.555881e-01 0.000000e+00 0.000000e+00 0.000000e+00 0.000000e+00 0.000000e+00 0.000000e+00 0.000000e+00 0.000000e+00 0.000000e+00 0.000000e+00 0.000000e+00 0.000000e+00
 0.000000e+00 0.000000e+00 0.000000e+00 0.000000e+00 0.000000e+00 0.000000e+00 0.000000e+00 5.762627e-01 4.237373e-01 0.000000e+00 0.000000e+00 0.000000e+00 0.000000e+00 0.000000e+00 0.000000e+00 0.000000e+00 0.000000e+00 0.000000e+00 0.000000e+00 0.000000e+00
 0.000000e+00 0.000000e+00 0.000000e+00 0.000000e+00 0.000000e+00 0.000000e+00 0.000000e+00 0.000000e+00 0.000000e+00 1.000000e+00 0.000000e+00 0.000000e+00 0.000000e+00 0.000000e+00 0.000000e+00 0.000000e+00 0.000000e+00 0.000000e+00 0.000000e+00 0.000000e+00
 0.000000e+00 0.000000e+00 0.000000e+00 0.000000e+00 0.000000e+00 0.000000e+00 0.000000e+00 0.000000e+00 0.000000e+00 0.000000e+00 1.000000e+00 0.000000e+00 0.000000e+00 0.000000e+00 0.000000e+00 0.000000e+00 0.000000e+00 0.000000e+00 0.000000e+00 0.000000e+00
 0.000000e+00 0.000000e+00 0.000000e+00 0.000000e+00 0.000000e+00 0.000000e+00 0.000000e+00 0.000000e+00 0.000000e+00 0.000000e+00 2.140615e-01 7.859384e-01 0.000000e+00 0.000000e+00 0.000000e+00 0.000000e+00 0.000000e+00 0.000000e+00 0.000000e+00 0.000000e+00
 0.000000e+00 0.000000e+00 0.000000e+00 0.000000e+00 0.000000e+00 0.000000e+00 0.000000e+00 0.000000e+00 0.000000e+00 0.000000e+00 0.000000e+00 2.817399e-01 7.182601e-01 0.000000e+00 0.000000e+00 0.000000e+00 0.000000e+00 0.000000e+00 0.000000e+00 0.000000e+00
 0.000000e+00 0.000000e+00 0.000000e+00 0.000000e+00 0.000000e+00 0.000000e+00 0.000000e+00 0.000000e+00 0.000000e+00 0.000000e+00 0.000000e+00 0.000000e+00 3.871973e-01 6.128027e-01 0.000000e+00 0.000000e+00 0.000000e+00 0.000000e+00 0.000000e+00 0.000000e+00
 0.000000e+00 0.000000e+00 0.000000e+00 0.000000e+00 0.000000e+00 0.000000e+00 0.000000e+00 0.000000e+00 0.000000e+00 0.000000e+00 0.000000e+00 0.000000e+00 0.000000e+00 5.726615e-01 4.273385e-01 0.000000e+00 0.000000e+00 0.000000e+00 0.000000e+00 0.000000e+00
 0.000000e+00 0.000000e+00 0.000000e+00 0.000000e+00 0.000000e+00 0.000000e+00 0.000000e+00 0.000000e+00 0.000000e+00 0.000000e+00 0.000000e+00 0.000000e+00 0.000000e+00 0.000000e+00 8.833403e-01 1.166597e-01 0.000000e+00 0.000000e+00 0.000000e+00 0.000000e+00
 0.000000e+00 0.000000e+00 0.000000e+00 0.000000e+00 0.000000e+00 0.000000e+00 0.000000e+00 0.000000e+00 0.000000e+00 0.000000e+00 0.000000e+00 0.000000e+00 0.000000e+00 0.000000e+00 0.000000e+00 5.769842e-01 4.230159e-01 0.000000e+00 0.000000e+00 0.000000e+00
 0.000000e+00 0.000000e+00 0.000000e+00 0.000000e+00 0.000000e+00 0.000000e+00 0.000000e+00 0.000000e+00 0.000000e+00 0.000000e+00 0.000000e+00 0.000000e+00 0.000000e+00 0.000000e+00 0.000000e+00 0.000000e+00 6.673833e-01 3.326167e-01 0.000000e+00 0.000000e+00
 0.000000e+00 0.000000e+00 0.000000e+00 0.000000e+00 0.000000e+00 0.000000e+00 0.000000e+00 0.000000e+00 0.000000e+00 0.000000e+00 0.000000e+00 0.000000e+00 0.000000e+00 0.000000e+00 0.000000e+00 0.000000e+00 0.000000e+00 9.209400e-01 7.906003e-02 0.000000e+00
 0.000000e+00 0.000000e+00 0.000000e+00 0.000000e+00 0.000000e+00 0.000000e+00 0.000000e+00 0.000000e+00 0.000000e+00 0.000000e+00 0.000000e+00 0.000000e+00 0.000000e+00 0.000000e+00 0.000000e+00 0.000000e+00 0.000000e+00 0.000000e+00 5.016785e-01 4.983215e-01
 0.000000e+00 0.000000e+00 0.000000e+00 0.000000e+00 0.000000e+00 0.000000e+00 0.000000e+00 0.000000e+00 0.000000e+00 0.000000e+00 0.000000e+00 0.000000e+00 0.000000e+00 0.000000e+00 0.000000e+00 0.000000e+00 0.000000e+00 0.000000e+00 0.000000e+00 0.000000e+00
<ENDHMM>
