~o
<STREAMINFO> 1 39
<VECSIZE> 39<NULLD><MFCC_D_A_0><DIAGC>
~h "matikan"
<BEGINHMM>
<NUMSTATES> 20
<STATE> 2
<MEAN> 39
 -1.289851e+01 -3.410084e+00 -1.567589e+00 -5.259460e+00 -2.286228e-01 -5.377393e+00 -2.011044e+00 -1.034780e+01 -3.824972e+00 -9.120484e+00 -9.836191e-01 -6.517952e+00 5.887908e+01 3.102024e+00 1.197154e+00 -7.070022e-01 -8.921211e-01 2.702022e-01 -1.187841e-01 -1.493438e+00 -1.462934e+00 -1.203408e+00 -4.648754e-01 -6.475319e-01 -1.134069e+00 1.901332e+00 4.786669e-01 -4.076688e-01 -7.072604e-01 -3.460039e-01 2.789392e-01 9.592342e-02 -2.336219e-01 3.790469e-01 4.655646e-01 1.667708e-01 -9.498002e-02 -3.737220e-01 4.591393e-01
<VARIANCE> 39
 3.405978e+01 2.234863e+01 1.383122e+01 1.557742e+01 1.337670e+01 1.804379e+01 3.422425e+01 4.631540e+01 3.611463e+01 2.351728e+01 2.784064e+01 2.103017e+01 9.508742e+00 3.424135e+00 2.159927e+00 4.898410e+00 3.797590e+00 3.029332e+00 3.759939e+00 5.072220e+00 6.448046e+00 4.209439e+00 4.954118e+00 6.413692e+00 3.219929e+00 1.665370e+00 5.740120e-01 8.618239e-01 6.312797e-01 4.369585e-01 4.080359e-01 4.315859e-01 7.463232e-01 2.051901e+00 1.107056e+00 6.633403e-01 6.026554e-01 6.938761e-01 1.267827e-01
<GCONST> 1.227804e+02
<STATE> 3
<MEAN> 39
 1.231439e+00 -5.465857e+00 -1.243168e+01 -1.205516e+01 3.325441e+00 -3.077569e+00 -7.756448e+00 -1.007489e+01 -7.761445e-01 -7.467659e+00 -4.085651e+00 -1.325931e+01 6.943148e+01 1.692435e+00 -2.112189e+00 -1.801211e+00 -2.747921e-01 7.194126e-01 -6.093030e-01 -1.226585e+00 2.239614e+00 2.036868e+00 -6.310099e-01 -1.475449e+00 -8.173360e-01 1.961847e+00 -1.033785e+00 -6.268567e-02 1.050600e+00 8.632352e-01 -4.071186e-01 -6.570573e-01 3.859960e-01 5.513893e-01 -7.634616e-02 -4.677086e-01 -1.410698e-02 6.196618e-01 -6.519593e-01
<VARIANCE> 39
 2.475015e+00 1.346130e+01 1.350631e+01 2.081252e+01 4.140565e+01 5.297777e+01 4.092952e+01 8.622854e+01 3.760415e+01 7.664400e+01 1.307214e+02 2.893345e+01 6.654945e+00 2.164914e+00 2.053041e+00 4.192260e+00 3.217926e+00 4.179705e+00 3.199990e+00 2.102545e+00 1.083423e+01 2.941767e+00 4.327001e+00 2.885196e+00 5.583610e+00 1.025861e+00 9.574741e-02 6.472322e-01 3.168778e-01 2.651132e-01 6.204470e-01 3.185178e-01 4.057068e-01 1.047370e+00 8.285271e-01 4.333159e-01 1.288226e+00 5.867417e-01 5.828178e-02
<GCONST> 1.180637e+02
<STATE> 4
<MEAN> 39
 2.164692e+00 -1.041054e+01 -8.900195e+00 -8.250157e+00 2.535675e+00 -1.135262e+01 -1.048057e+01 2.746518e+00 2.124882e+00 -1.202788e+01 -3.883501e+00 -1.132710e+01 7.302995e+01 -3.864991e-01 5.675086e-01 9.516159e-01 9.962085e-01 -5.721344e-01 -1.292552e+00 1.187249e-02 4.798220e-01 3.829145e-02 -5.169943e-01 8.571195e-03 3.960224e-01 -5.460038e-01 -3.820036e-01 5.868908e-01 2.165470e-01 -1.703653e-02 1.419414e-01 5.212616e-01 3.082778e-01 -8.315121e-01 -3.172868e-01 3.405727e-01 2.883134e-01 -8.145775e-02 -5.638630e-01
<VARIANCE> 39
 1.211409e+00 2.660049e+01 2.386255e+01 1.844541e+01 6.471933e+01 7.395261e+01 3.217922e+01 1.322481e+02 3.051734e+01 9.933044e+01 6.407221e+01 3.897562e+01 9.768356e+00 3.616475e-01 1.641058e+00 1.027167e+00 6.443313e-01 2.016246e+00 2.079590e+00 1.789232e+00 3.516360e+00 1.631272e+00 1.919540e+00 2.341645e+00 1.784257e+00 8.931224e-01 6.928840e-02 2.162482e-01 2.894859e-01 2.185522e-01 5.328937e-01 4.101419e-01 3.414312e-01 4.210555e-01 4.557005e-01 3.070120e-01 2.293508e-01 5.620474e-01 5.352116e-02
<GCONST> 1.036172e+02
<STATE> 5
<MEAN> 39
 -3.202239e+00 -4.160511e+00 -6.069289e+00 -5.130938e+00 2.013808e+00 -8.710433e+00 -6.135205e+00 -5.044938e+00 4.331660e-01 -1.176034e+01 -5.730012e+00 -1.148400e+01 6.574541e+01 -1.346712e+00 4.692695e-01 5.776934e-01 2.505580e-01 -2.191961e-01 7.083808e-01 1.074522e+00 -4.725060e-01 -4.082862e-01 6.594748e-02 1.943647e-01 1.573818e-01 -1.148218e+00 -1.320988e-02 -2.189915e-01 -7.779945e-02 -9.911181e-02 -1.990310e-01 -8.056163e-02 2.669134e-02 1.900749e-01 -2.269679e-03 2.380912e-02 1.594034e-01 1.686613e-01 1.776678e-01
<VARIANCE> 39
 4.339725e+00 1.147145e+01 1.146999e+01 1.617238e+01 2.260188e+01 2.767519e+01 1.991367e+01 5.868986e+01 2.692076e+01 4.771489e+01 5.491802e+01 3.092495e+01 4.693336e+00 1.295408e-01 5.793972e-01 6.212422e-01 7.664143e-01 1.036568e+00 1.440297e+00 9.630470e-01 2.010404e+00 1.102856e+00 1.616849e+00 1.289634e+00 1.062866e+00 1.672945e-01 2.400448e-02 6.487899e-02 1.345035e-01 1.345102e-01 1.610020e-01 2.997802e-01 1.640155e-01 1.916749e-01 2.714906e-01 2.884993e-01 2.992142e-01 1.988135e-01 2.252894e-02
<GCONST> 8.115776e+01
<STATE> 6
<MEAN> 39
 -8.746518e+00 -3.583510e+00 -3.007987e+00 -3.579151e+00 -2.404850e+00 -1.009955e+01 -2.358826e+00 -5.753376e+00 -1.632973e+00 -1.260954e+01 -1.921794e+00 -8.382134e+00 6.309150e+01 -3.445047e-01 4.504078e-01 2.744441e+00 2.756935e-01 -2.931583e+00 -2.479238e+00 -6.393003e-01 -1.040067e+00 -1.566638e+00 2.331325e-01 2.614099e+00 1.226783e+00 6.950322e-01 5.226598e-01 2.418913e-01 1.000956e+00 -3.993827e-01 -9.009548e-01 -4.994754e-01 -8.058462e-01 -5.207574e-01 -3.847834e-01 2.857387e-01 3.776728e-01 -4.541465e-02 5.157912e-01
<VARIANCE> 39
 2.613814e+00 8.581022e+00 1.501859e+01 1.852250e+01 3.111916e+01 4.120259e+01 1.841476e+01 1.720831e+01 1.418828e+01 3.400034e+01 3.660196e+01 2.031611e+01 2.826329e+00 9.599677e-01 1.435340e+00 6.193940e+00 3.240191e+00 7.003985e+00 3.883563e+00 4.928811e+00 2.845052e+00 5.737397e+00 3.524785e+00 3.895753e+00 1.072361e+00 1.075623e+00 7.972264e-02 1.566684e-01 6.296785e-01 5.699815e-01 6.568190e-01 9.553483e-01 4.121679e-01 2.756476e-01 4.895827e-01 8.034173e-01 7.021050e-01 4.343308e-01 1.060048e-01
<GCONST> 1.085196e+02
<STATE> 7
<MEAN> 39
 -6.057709e+00 -2.888241e-01 1.559811e+01 -8.079997e+00 -1.826839e+01 -1.761106e+01 -1.135766e+01 -1.278577e+01 -9.561542e+00 -7.490169e+00 8.366481e+00 -6.291238e+00 6.885011e+01 5.015275e-01 8.181359e-01 3.192954e+00 -1.421300e+00 -1.580045e+00 5.800135e-01 -1.445500e+00 -9.840471e-01 -3.093776e-01 8.106912e-01 2.575780e-01 -4.326905e-01 5.496453e-01 -2.601963e-01 -1.299174e-01 -1.191629e+00 3.167073e-01 1.394440e+00 8.719265e-01 7.209866e-01 4.324978e-01 5.455711e-01 -4.830603e-01 -1.014343e+00 -2.969463e-01 -5.817594e-01
<VARIANCE> 39
 3.314977e+00 3.703656e+01 1.527022e+02 3.667794e+01 8.841043e+01 2.595948e+01 6.364587e+01 5.971144e+01 1.156201e+02 9.300906e+01 8.051832e+01 2.791564e+01 8.514228e+00 7.437839e-01 9.498399e-01 8.622121e+00 2.800809e+00 7.549331e+00 3.584189e+00 3.781875e+00 2.560464e+00 6.238388e+00 5.418649e+00 6.816832e+00 2.504367e+00 1.315022e+00 1.214621e-01 2.643532e-01 8.893201e-01 5.892509e-01 7.370802e-01 8.755168e-01 7.048751e-01 3.371712e-01 1.228049e+00 9.889764e-01 8.195028e-01 4.189989e-01 7.970443e-02
<GCONST> 1.259153e+02
<STATE> 8
<MEAN> 39
 -8.533672e+00 1.905395e+00 1.662399e+01 -8.382455e+00 -1.380531e+01 -1.208309e+01 -9.904424e+00 -1.537533e+01 -9.632627e+00 -8.895049e+00 4.506444e+00 -7.855070e+00 6.476670e+01 -6.949920e-01 1.365417e-01 -1.369913e+00 4.924394e-01 1.193881e+00 3.577317e-01 6.371567e-01 -3.400981e-01 -1.285319e-01 -4.642320e-01 -5.901316e-01 1.414980e-01 -1.083071e+00 -8.844321e-02 -1.747181e-01 -2.048297e-01 1.480640e-01 -6.344799e-04 -3.463005e-01 6.710822e-02 1.508370e-01 -3.205897e-02 3.876753e-02 1.094606e-01 1.803065e-01 3.229826e-02
<VARIANCE> 39
 6.520511e+00 1.983075e+01 1.009019e+02 2.916362e+01 4.776537e+01 2.368788e+01 5.005589e+01 6.982670e+01 6.089126e+01 6.505602e+01 4.612918e+01 2.087750e+01 1.003357e+01 1.565493e-01 7.616289e-01 9.309906e-01 6.679751e-01 1.534875e+00 2.356853e+00 2.560464e+00 1.270424e+00 2.031792e+00 2.382647e+00 1.802357e+00 1.118260e+00 1.095635e-01 5.017831e-02 8.909614e-02 2.413190e-01 1.713232e-01 2.759665e-01 3.248201e-01 3.381359e-01 3.352200e-01 3.198027e-01 4.691169e-01 2.573088e-01 1.723161e-01 4.289316e-02
<GCONST> 9.576048e+01
<STATE> 9
<MEAN> 39
 -1.144516e+01 8.039654e-01 6.661176e+00 -5.102068e+00 -7.829998e+00 -1.538969e+01 -5.305945e+00 -1.332816e+01 -7.459352e+00 -1.168141e+01 3.603496e-01 -5.303277e+00 6.090670e+01 -5.192059e-01 -2.103515e+00 -1.227968e+00 1.760477e+00 7.220392e-01 -2.248578e+00 9.679278e-01 1.398659e+00 5.326328e-01 -3.961925e-01 -5.281119e-01 1.380153e+00 3.947268e-01 2.636002e-01 -6.776395e-01 -9.299852e-02 3.681660e-01 -2.044475e-01 -6.119943e-01 1.069909e-01 4.635711e-01 1.250250e-01 -4.575692e-02 1.427322e-01 1.946550e-01 5.981057e-01
<VARIANCE> 39
 5.656762e+00 1.980572e+01 4.033858e+01 2.414901e+01 2.966172e+01 4.855621e+01 2.928035e+01 5.835954e+01 3.358982e+01 2.748421e+01 4.004817e+01 3.346037e+01 2.849051e+00 8.971921e-01 3.241322e+00 2.075960e+00 4.103426e+00 4.549510e+00 5.460048e+00 4.109918e+00 7.709362e+00 4.274203e+00 5.439099e+00 2.750012e+00 3.716681e+00 1.000551e+00 1.883289e-01 3.602282e-01 1.717886e-01 5.357698e-01 4.440273e-01 6.561458e-01 7.492361e-01 1.103582e+00 7.120542e-01 6.714930e-01 4.536245e-01 5.145127e-01 9.503303e-02
<GCONST> 1.173723e+02
<STATE> 10
<MEAN> 39
 -1.252139e+01 -1.066664e+01 2.680355e+00 3.755578e+00 -6.191470e+00 -2.686461e+01 -2.284665e+00 -6.830760e+00 -5.038741e+00 -1.157718e+01 7.830374e-01 5.408511e-01 6.611910e+01 1.412345e+00 -1.212765e+00 -1.042608e+00 -7.620493e-01 -7.271419e-01 -6.912066e-01 1.358031e+00 3.085582e+00 1.229005e+00 5.276129e-01 -3.603620e-01 -1.043983e+00 1.672888e+00 6.997947e-01 5.396367e-01 2.017428e-01 -1.027526e+00 -3.600576e-01 1.343651e+00 5.521936e-02 1.531921e-01 -7.406390e-02 -3.253666e-02 -4.258010e-01 -1.036734e+00 1.153696e-01
<VARIANCE> 39
 1.078076e+01 1.578797e+01 1.870708e+01 9.620225e+01 8.562920e+01 1.225491e+02 5.329906e+01 1.402210e+02 7.669141e+01 6.624220e+01 9.146777e+01 3.822689e+01 9.557427e+00 2.722021e+00 3.732398e+00 3.220513e+00 1.040438e+01 4.411043e+00 1.543040e+01 4.513702e+00 8.032167e+00 5.527607e+00 7.360118e+00 4.550348e+00 6.866502e+00 1.336620e+00 2.090199e-01 6.238506e-01 5.621669e-01 1.531077e+00 1.088172e+00 1.927818e+00 9.401855e-01 1.633792e+00 1.284017e+00 2.098227e+00 9.886487e-01 7.911441e-01 2.636083e-01
<GCONST> 1.409113e+02
<STATE> 11
<MEAN> 39
 -2.524734e+00 -1.300373e+01 -1.077107e-01 -4.932646e+00 -1.015561e+01 -2.072444e+01 1.868803e+00 6.032049e+00 -2.533565e+00 -1.197667e+01 -3.375462e+00 -9.774509e+00 7.337283e+01 1.865317e+00 -1.566646e+00 -9.207492e-01 -4.671603e-01 2.853348e-01 2.503323e+00 8.027070e-01 1.051803e+00 -6.857045e-01 -9.087297e-01 -1.301421e+00 -1.499266e+00 1.707962e+00 -6.927679e-01 1.534118e-01 5.120901e-02 7.028806e-01 7.069255e-01 5.339610e-02 -3.797685e-01 -9.823659e-01 -2.292099e-01 2.325239e-02 2.431718e-01 7.944230e-01 -5.501440e-01
<VARIANCE> 39
 4.627112e+00 1.719307e+01 3.055886e+01 3.097452e+01 9.626360e+01 7.733690e+01 2.873151e+01 1.626945e+02 3.428070e+01 3.649469e+01 8.820404e+01 1.965254e+01 1.780852e+01 1.237564e+00 1.819017e+00 1.925156e+00 5.265541e+00 3.757273e+00 8.921870e+00 4.520788e+00 9.619032e+00 4.563310e+00 5.830851e+00 4.981765e+00 4.257983e+00 1.651965e+00 5.863518e-02 3.038549e-01 2.884576e-01 6.184400e-01 4.931553e-01 7.975641e-01 6.350852e-01 7.085000e-01 7.513643e-01 5.837958e-01 5.348526e-01 3.890056e-01 1.528828e-01
<GCONST> 1.232357e+02
<STATE> 12
<MEAN> 39
 -1.117229e+00 -1.541536e+01 -4.643119e+00 -2.438864e+00 -1.005468e+01 -1.181227e+01 3.699945e+00 3.205881e-01 -2.078011e+00 -1.387950e+01 -7.823019e+00 -8.242541e+00 7.300053e+01 8.004127e-03 7.181305e-01 2.833170e-01 2.960033e-01 1.006622e+00 7.127510e-01 -3.881667e-01 7.619391e-02 2.550699e-01 -1.607181e-01 -2.986258e-01 -2.481040e-01 -5.186101e-01 -2.449175e-01 6.483261e-01 4.631216e-01 -1.019984e-02 1.329339e-01 -3.220225e-01 -2.601190e-01 -1.027551e-01 1.042968e-01 3.097925e-01 3.014532e-01 2.047859e-02 -3.581780e-01
<VARIANCE> 39
 2.934651e+00 2.516659e+01 2.216093e+01 2.453087e+01 3.608545e+01 1.436666e+02 2.762713e+01 8.919959e+01 4.903321e+01 3.566323e+01 7.938814e+01 1.747636e+01 1.335304e+01 1.223414e-01 1.563974e+00 9.080585e-01 1.005009e+00 1.578442e+00 1.974752e+00 1.062383e+00 1.991469e+00 2.057039e+00 1.843210e+00 1.110232e+00 1.256820e+00 2.512554e-01 3.457953e-02 1.920891e-01 1.507707e-01 1.652199e-01 2.309164e-01 5.578650e-01 2.266191e-01 5.865251e-01 5.937734e-01 4.143061e-01 4.042908e-01 3.107269e-01 4.835862e-02
<GCONST> 9.707985e+01
<STATE> 13
<MEAN> 39
 -9.322940e-01 -1.207358e+01 2.651966e+00 -3.654040e+00 2.630534e+00 -1.333751e+01 -3.815305e+00 1.002851e+01 -2.538622e+00 -8.117512e+00 -1.645028e+00 -1.341902e+01 7.415747e+01 -8.897108e-02 1.601008e+00 2.980393e-01 5.698177e-01 4.080340e-01 3.591243e-01 -3.191685e-01 -1.216672e+00 7.742075e-03 1.218122e-01 9.441902e-02 4.296374e-01 -1.023112e+00 -5.005553e-02 1.819841e-01 7.620787e-02 5.247308e-02 -2.080589e-01 -4.875607e-02 6.779610e-02 -1.946511e-01 -6.367099e-02 -1.498048e-01 1.091916e-01 2.043062e-01 -1.120300e-01
<VARIANCE> 39
 3.157826e+00 1.687298e+01 2.265324e+01 1.311892e+01 6.365313e+01 4.676404e+01 2.481249e+01 8.172108e+01 1.576801e+01 2.571222e+01 4.965957e+01 2.122516e+01 1.583362e+01 1.428790e-01 1.179572e+00 1.315192e+00 1.143056e+00 2.144958e+00 1.315807e+00 8.777437e-01 1.045666e+00 1.001420e+00 8.100224e-01 1.376225e+00 1.112291e+00 2.619376e-01 2.456257e-02 8.668563e-02 1.501451e-01 2.057037e-01 1.844973e-01 1.203410e-01 1.571333e-01 1.166229e-01 2.502876e-01 8.001684e-02 2.402790e-01 2.278304e-01 3.213258e-02
<GCONST> 8.345346e+01
<STATE> 14
<MEAN> 39
 -3.137167e+00 -2.038838e+00 2.764294e+00 3.402750e-01 -1.351048e+00 -1.054938e+01 -8.584502e-01 -2.276824e+00 -3.711351e+00 -1.313764e+01 -4.677343e+00 -7.363534e+00 6.600060e+01 -5.555416e-01 1.314174e+00 5.977249e-01 3.695224e-01 8.012989e-01 6.898126e-01 -1.200610e-01 -5.248486e-01 -4.796807e-02 2.402547e-02 3.220916e-01 4.247874e-01 -8.938135e-01 -7.589952e-02 -2.333617e-01 -1.636733e-01 -1.493915e-01 -6.344797e-02 4.127297e-02 1.012701e-01 1.335739e-01 1.615794e-01 7.468880e-02 -2.688589e-02 -5.980031e-02 6.180846e-02
<VARIANCE> 39
 4.057534e+00 1.431590e+01 1.316710e+01 1.300735e+01 2.057914e+01 2.845224e+01 2.728350e+01 3.518427e+01 2.211874e+01 2.625700e+01 4.724540e+01 2.069088e+01 4.040059e+00 1.097908e-01 3.273332e-01 6.311058e-01 4.646581e-01 1.118911e+00 1.075778e+00 9.607213e-01 1.740006e+00 9.996301e-01 8.872622e-01 1.256714e+00 1.804690e+00 3.904352e-02 1.327428e-02 3.553443e-02 9.449633e-02 9.652809e-02 1.289592e-01 1.122884e-01 1.255831e-01 1.944937e-01 1.272990e-01 1.721016e-01 1.463288e-01 2.166790e-01 7.363641e-03
<GCONST> 6.988310e+01
<STATE> 15
<MEAN> 39
 -6.972870e+00 2.571426e+00 4.605001e+00 4.218651e-01 1.379063e-01 -7.904235e+00 -2.860367e-01 -4.658848e+00 -2.182598e+00 -1.103190e+01 -2.281817e+00 -4.915400e+00 6.175576e+01 -7.626151e-01 2.930289e-01 2.985015e-01 -2.588799e-01 6.008409e-01 1.256939e+00 4.165636e-01 -4.367217e-01 5.243340e-01 9.027696e-01 5.624722e-01 2.624772e-02 -5.956907e-01 4.917137e-02 -1.035079e-01 6.411987e-03 7.174984e-02 1.696845e-01 2.196012e-01 2.044577e-02 -8.629613e-02 -1.555690e-01 -3.473479e-03 1.175856e-02 -2.120795e-01 7.638877e-02
<VARIANCE> 39
 5.288106e+00 1.454295e+01 1.376122e+01 9.013408e+00 1.345111e+01 1.196500e+01 1.852464e+01 1.917498e+01 1.131791e+01 3.363794e+01 5.004374e+01 4.303659e+01 1.748686e+00 1.616572e-01 2.386587e-01 4.920560e-01 4.222623e-01 1.122886e+00 1.396451e+00 7.806028e-01 9.188904e-01 1.196071e+00 3.959363e-01 1.077422e+00 1.067685e+00 8.590227e-02 2.381678e-02 2.286888e-02 7.754359e-02 7.878843e-02 1.900986e-01 1.542856e-01 2.058835e-01 2.597474e-01 2.075810e-01 1.579183e-01 2.212678e-01 1.802034e-01 9.839514e-03
<GCONST> 6.786706e+01
<STATE> 16
<MEAN> 39
 -8.290448e+00 4.088155e+00 6.101383e+00 1.307075e+00 5.038408e+00 -1.168443e-01 2.823845e+00 -5.298772e+00 8.056194e-01 -6.078592e+00 3.141263e-01 -5.299924e+00 6.055435e+01 -7.264512e-01 -1.806913e-01 -3.675198e-01 -3.309218e-01 5.107179e-01 1.150203e+00 2.992549e-01 -2.324829e-01 -7.258490e-02 3.467419e-02 -4.473319e-01 -7.404757e-01 -4.413146e-01 -6.315532e-02 -1.074665e-01 -1.111250e-01 -1.207170e-01 -1.808344e-01 -2.244700e-01 -1.344044e-01 -4.717196e-02 -1.213217e-01 -1.861232e-01 -1.760181e-01 -7.129305e-02 -2.052462e-02
<VARIANCE> 39
 3.326394e+00 1.146761e+01 1.760548e+01 1.370214e+01 5.857967e+00 1.083798e+01 1.828561e+01 3.413836e+01 1.444132e+01 3.114017e+01 2.563290e+01 2.285001e+01 9.135385e-01 1.786999e-01 4.504601e-01 3.561415e-01 7.258011e-01 1.251592e+00 1.174965e+00 9.514207e-01 2.203672e+00 1.340482e+00 1.377351e+00 6.453205e-01 6.910986e-01 8.658043e-02 3.075865e-02 3.409921e-02 7.725872e-02 1.614575e-01 1.477838e-01 1.591464e-01 1.582859e-01 3.204313e-01 2.269543e-01 1.448805e-01 1.729466e-01 1.389535e-01 8.323484e-03
<GCONST> 6.848788e+01
<STATE> 17
<MEAN> 39
 -1.166843e+01 1.807794e+00 3.454453e+00 -8.031841e-01 6.589531e+00 2.110094e+00 2.215072e+00 -6.481507e+00 -3.124468e+00 -1.291588e+01 -6.948160e+00 -1.175175e+01 5.852222e+01 -4.533692e-01 -2.618801e-03 1.044345e-01 1.217162e-01 1.746874e-01 1.707936e-01 -2.841626e-01 -4.361731e-01 -1.728531e-01 -1.551971e-01 -8.927604e-02 -1.742066e-01 -3.066333e-01 -4.892879e-03 -7.389040e-02 -1.007175e-02 -2.044334e-02 -1.357761e-01 -1.797937e-01 -2.029195e-02 4.355816e-02 1.416832e-01 2.088346e-01 1.958396e-01 1.382766e-01 2.668522e-02
<VARIANCE> 39
 1.355839e+00 3.993657e+00 4.810482e+00 7.550918e+00 9.327163e+00 1.706873e+01 1.694976e+01 1.834807e+01 2.006998e+01 3.185270e+01 2.237012e+01 2.557290e+01 7.631786e-01 2.646150e-01 2.454474e-01 4.725873e-01 1.207193e+00 7.434753e-01 7.328023e-01 1.374366e+00 1.510432e+00 1.014985e+00 1.173643e+00 1.438454e+00 1.421178e+00 8.185574e-02 3.804893e-02 5.592307e-02 8.585450e-02 1.292702e-01 1.161455e-01 1.901619e-01 3.034422e-01 1.563004e-01 1.836377e-01 2.802345e-01 2.563752e-01 2.665891e-01 9.111071e-03
<GCONST> 6.765976e+01
<STATE> 18
<MEAN> 39
 -1.468154e+01 -1.281703e+00 2.185758e+00 -1.472089e+00 4.075306e+00 -6.400422e-01 2.921509e+00 -5.022507e+00 9.992868e-01 -6.436132e+00 -1.435535e+00 -9.350792e+00 5.736813e+01 -6.429683e-01 -5.972629e-01 -4.062583e-01 -3.081474e-01 4.812162e-02 -7.522818e-02 -1.057865e-01 -7.143539e-02 8.180671e-01 1.185455e+00 6.221086e-01 1.058210e-01 -2.934715e-01 6.650680e-02 1.612511e-02 4.126358e-02 1.093885e-01 9.514721e-02 3.634543e-02 -5.581402e-02 -5.538826e-03 -1.286003e-01 -9.639737e-02 -1.279031e-01 -1.721775e-02 3.420924e-02
<VARIANCE> 39
 1.823874e+00 5.711564e+00 5.474723e+00 1.166800e+01 1.039411e+01 1.407591e+01 1.856034e+01 3.832159e+01 3.907496e+01 3.239780e+01 3.034487e+01 1.995432e+01 3.839795e-01 1.203313e-01 2.349382e-01 2.879260e-01 5.903482e-01 7.645535e-01 8.068050e-01 1.703469e+00 1.259493e+00 1.947879e+00 2.400427e+00 1.402001e+00 1.161815e+00 5.538810e-02 1.541970e-02 4.940651e-02 7.346147e-02 1.303284e-01 1.048681e-01 1.435216e-01 2.829151e-01 1.880996e-01 4.054115e-01 4.946475e-01 2.500836e-01 1.648391e-01 7.031261e-03
<GCONST> 6.769086e+01
<STATE> 19
<MEAN> 39
 -1.707867e+01 -1.089317e+00 3.462441e+00 -1.008442e+00 6.759084e+00 2.216956e+00 1.102190e+00 -8.709451e+00 -1.661845e+00 -7.958407e+00 -4.299048e+00 -1.106024e+01 5.587170e+01 -4.814620e-01 -5.093141e-01 -1.211302e-01 1.286815e-01 -1.907648e-01 -1.077312e-01 4.492371e-01 7.182885e-02 -5.535503e-01 -1.688870e-01 -1.978238e-01 3.076467e-03 -1.942130e-01 7.669969e-02 -2.349837e-02 -5.874399e-02 -3.112316e-02 -1.577255e-01 -1.037589e-01 1.559128e-01 9.644929e-02 -5.494598e-02 -1.619425e-01 3.797754e-02 9.692881e-02 4.570618e-02
<VARIANCE> 39
 2.216390e+00 1.871840e+01 1.528506e+01 1.579038e+01 2.798435e+01 3.551110e+01 3.080729e+01 5.841359e+01 4.071539e+01 4.318350e+01 5.428896e+01 1.503688e+01 1.331261e+00 1.174514e-01 2.215194e-01 6.350938e-01 9.044378e-01 1.792213e+00 3.058524e+00 2.285905e+00 1.641913e+00 1.886523e+00 1.232612e+00 2.842633e+00 1.341886e+00 6.891944e-02 1.877691e-02 3.365035e-02 9.450582e-02 2.230733e-01 3.277848e-01 3.480754e-01 4.358555e-01 3.288076e-01 4.102625e-01 2.894917e-01 5.377144e-01 2.247370e-01 1.298364e-02
<GCONST> 8.414957e+01
<TRANSP> 20
 0.000000e+00 1.000000e+00 0.000000e+00 0.000000e+00 0.000000e+00 0.000000e+00 0.000000e+00 0.000000e+00 0.000000e+00 0.000000e+00 0.000000e+00 0.000000e+00 0.000000e+00 0.000000e+00 0.000000e+00 0.000000e+00 0.000000e+00 0.000000e+00 0.000000e+00 0.000000e+00
 0.000000e+00 7.735829e-01 2.264172e-01 0.000000e+00 0.000000e+00 0.000000e+00 0.000000e+00 0.000000e+00 0.000000e+00 0.000000e+00 0.000000e+00 0.000000e+00 0.000000e+00 0.000000e+00 0.000000e+00 0.000000e+00 0.000000e+00 0.000000e+00 0.000000e+00 0.000000e+00
 0.000000e+00 0.000000e+00 6.841574e-01 3.158427e-01 0.000000e+00 0.000000e+00 0.000000e+00 0.000000e+00 0.000000e+00 0.000000e+00 0.000000e+00 0.000000e+00 0.000000e+00 0.000000e+00 0.000000e+00 0.000000e+00 0.000000e+00 0.000000e+00 0.000000e+00 0.000000e+00
 0.000000e+00 0.000000e+00 0.000000e+00 7.448357e-01 2.551643e-01 0.000000e+00 0.000000e+00 0.000000e+00 0.000000e+00 0.000000e+00 0.000000e+00 0.000000e+00 0.000000e+00 0.000000e+00 0.000000e+00 0.000000e+00 0.000000e+00 0.000000e+00 0.000000e+00 0.000000e+00
 0.000000e+00 0.000000e+00 0.000000e+00 0.000000e+00 8.063681e-01 1.936319e-01 0.000000e+00 0.000000e+00 0.000000e+00 0.000000e+00 0.000000e+00 0.000000e+00 0.000000e+00 0.000000e+00 0.000000e+00 0.000000e+00 0.000000e+00 0.000000e+00 0.000000e+00 0.000000e+00
 0.000000e+00 0.000000e+00 0.000000e+00 0.000000e+00 0.000000e+00 7.391545e-01 2.608455e-01 0.000000e+00 0.000000e+00 0.000000e+00 0.000000e+00 0.000000e+00 0.000000e+00 0.000000e+00 0.000000e+00 0.000000e+00 0.000000e+00 0.000000e+00 0.000000e+00 0.000000e+00
 0.000000e+00 0.000000e+00 0.000000e+00 0.000000e+00 0.000000e+00 0.000000e+00 7.395606e-01 2.604394e-01 0.000000e+00 0.000000e+00 0.000000e+00 0.000000e+00 0.000000e+00 0.000000e+00 0.000000e+00 0.000000e+00 0.000000e+00 0.000000e+00 0.000000e+00 0.000000e+00
 0.000000e+00 0.000000e+00 0.000000e+00 0.000000e+00 0.000000e+00 0.000000e+00 0.000000e+00 8.348570e-01 1.651429e-01 0.000000e+00 0.000000e+00 0.000000e+00 0.000000e+00 0.000000e+00 0.000000e+00 0.000000e+00 0.000000e+00 0.000000e+00 0.000000e+00 0.000000e+00
 0.000000e+00 0.000000e+00 0.000000e+00 0.000000e+00 0.000000e+00 0.000000e+00 0.000000e+00 0.000000e+00 7.287897e-01 2.712103e-01 0.000000e+00 0.000000e+00 0.000000e+00 0.000000e+00 0.000000e+00 0.000000e+00 0.000000e+00 0.000000e+00 0.000000e+00 0.000000e+00
 0.000000e+00 0.000000e+00 0.000000e+00 0.000000e+00 0.000000e+00 0.000000e+00 0.000000e+00 0.000000e+00 0.000000e+00 7.209999e-01 2.790001e-01 0.000000e+00 0.000000e+00 0.000000e+00 0.000000e+00 0.000000e+00 0.000000e+00 0.000000e+00 0.000000e+00 0.000000e+00
 0.000000e+00 0.000000e+00 0.000000e+00 0.000000e+00 0.000000e+00 0.000000e+00 0.000000e+00 0.000000e+00 0.000000e+00 0.000000e+00 6.572037e-01 3.427963e-01 0.000000e+00 0.000000e+00 0.000000e+00 0.000000e+00 0.000000e+00 0.000000e+00 0.000000e+00 0.000000e+00
 0.000000e+00 0.000000e+00 0.000000e+00 0.000000e+00 0.000000e+00 0.000000e+00 0.000000e+00 0.000000e+00 0.000000e+00 0.000000e+00 0.000000e+00 7.076077e-01 2.923923e-01 0.000000e+00 0.000000e+00 0.000000e+00 0.000000e+00 0.000000e+00 0.000000e+00 0.000000e+00
 0.000000e+00 0.000000e+00 0.000000e+00 0.000000e+00 0.000000e+00 0.000000e+00 0.000000e+00 0.000000e+00 0.000000e+00 0.000000e+00 0.000000e+00 0.000000e+00 6.932484e-01 3.067517e-01 0.000000e+00 0.000000e+00 0.000000e+00 0.000000e+00 0.000000e+00 0.000000e+00
 0.000000e+00 0.000000e+00 0.000000e+00 0.000000e+00 0.000000e+00 0.000000e+00 0.000000e+00 0.000000e+00 0.000000e+00 0.000000e+00 0.000000e+00 0.000000e+00 0.000000e+00 8.390499e-01 1.609500e-01 0.000000e+00 0.000000e+00 0.000000e+00 0.000000e+00 0.000000e+00
 0.000000e+00 0.000000e+00 0.000000e+00 0.000000e+00 0.000000e+00 0.000000e+00 0.000000e+00 0.000000e+00 0.000000e+00 0.000000e+00 0.000000e+00 0.000000e+00 0.000000e+00 0.000000e+00 7.368586e-01 2.631414e-01 0.000000e+00 0.000000e+00 0.000000e+00 0.000000e+00
 0.000000e+00 0.000000e+00 0.000000e+00 0.000000e+00 0.000000e+00 0.000000e+00 0.000000e+00 0.000000e+00 0.000000e+00 0.000000e+00 0.000000e+00 0.000000e+00 0.000000e+00 0.000000e+00 0.000000e+00 7.131070e-01 2.868930e-01 0.000000e+00 0.000000e+00 0.000000e+00
 0.000000e+00 0.000000e+00 0.000000e+00 0.000000e+00 0.000000e+00 0.000000e+00 0.000000e+00 0.000000e+00 0.000000e+00 0.000000e+00 0.000000e+00 0.000000e+00 0.000000e+00 0.000000e+00 0.000000e+00 0.000000e+00 7.983623e-01 2.016377e-01 0.000000e+00 0.000000e+00
 0.000000e+00 0.000000e+00 0.000000e+00 0.000000e+00 0.000000e+00 0.000000e+00 0.000000e+00 0.000000e+00 0.000000e+00 0.000000e+00 0.000000e+00 0.000000e+00 0.000000e+00 0.000000e+00 0.000000e+00 0.000000e+00 0.000000e+00 7.597833e-01 2.402167e-01 0.000000e+00
 0.000000e+00 0.000000e+00 0.000000e+00 0.000000e+00 0.000000e+00 0.000000e+00 0.000000e+00 0.000000e+00 0.000000e+00 0.000000e+00 0.000000e+00 0.000000e+00 0.000000e+00 0.000000e+00 0.000000e+00 0.000000e+00 0.000000e+00 0.000000e+00 7.752178e-01 2.247822e-01
 0.000000e+00 0.000000e+00 0.000000e+00 0.000000e+00 0.000000e+00 0.000000e+00 0.000000e+00 0.000000e+00 0.000000e+00 0.000000e+00 0.000000e+00 0.000000e+00 0.000000e+00 0.000000e+00 0.000000e+00 0.000000e+00 0.000000e+00 0.000000e+00 0.000000e+00 0.000000e+00
<ENDHMM>
