~o
<STREAMINFO> 1 39
<VECSIZE> 39<NULLD><MFCC_D_A_0><DIAGC>
~h "jam"
<BEGINHMM>
<NUMSTATES> 5
<STATE> 2
<MEAN> 39
 -1.116412e+01 1.631767e+00 6.794536e+00 -1.351828e+00 4.967380e-01 -1.406228e+01 -2.064333e-01 -6.575829e+00 -4.806008e+00 -1.013786e+01 4.251693e-01 -7.037437e+00 6.596851e+01 8.100782e-01 -2.569457e-01 2.153051e-01 -1.774396e-01 -5.508739e-01 -1.309696e+00 -3.096865e-01 3.576388e-01 -3.366931e-01 -3.281419e-02 2.089823e-01 3.528307e-02 1.201919e+00 1.045452e-02 -1.634996e-01 -1.661200e-01 -5.567266e-02 9.917682e-02 1.703189e-01 -1.427890e-02 -1.657619e-02 5.106376e-02 3.179619e-02 -1.301384e-01 -1.298756e-01 -1.456780e-02
<VARIANCE> 39
 3.345465e+01 6.184982e+01 5.975788e+01 4.141121e+01 1.179526e+02 2.030047e+02 4.275547e+01 1.115953e+02 5.988726e+01 5.650771e+01 1.565782e+02 5.864322e+01 6.700352e+01 4.016911e+00 7.366467e+00 5.395340e+00 3.829390e+00 1.025272e+01 1.027801e+01 3.320593e+00 8.646929e+00 6.148506e+00 4.723728e+00 7.901343e+00 4.800286e+00 1.098507e+00 7.540926e-01 7.804474e-01 8.129599e-01 6.863245e-01 2.056942e+00 1.566411e+00 5.931195e-01 1.585308e+00 1.088260e+00 7.478954e-01 1.174968e+00 7.367451e-01 1.799979e-01
<GCONST> 1.465954e+02
<STATE> 3
<MEAN> 39
 9.370278e-02 -7.993357e+00 -2.138787e+00 -7.245045e+00 -9.882579e-02 -8.712936e+00 -7.377467e+00 -7.065326e+00 -5.038399e+00 -6.089027e+00 -3.301502e+00 -1.422930e+01 7.270365e+01 1.221462e-01 7.656784e-01 -1.684611e-02 1.515979e-01 4.961534e-01 9.246740e-01 -4.487478e-01 -1.016539e+00 -2.689258e-01 -2.016174e-01 -3.059812e-01 -2.359383e-01 -6.351548e-01 -7.690345e-02 1.398670e-01 1.313197e-01 4.832305e-02 -8.703009e-02 -1.346008e-01 5.303160e-02 2.425658e-02 -2.135132e-02 -3.439089e-02 1.284280e-01 1.249298e-01 -3.978213e-02
<VARIANCE> 39
 3.494099e+00 5.620660e+01 4.982814e+01 1.326720e+01 3.574837e+01 1.069919e+02 4.670586e+01 1.100705e+02 6.187457e+01 6.245056e+01 1.283091e+02 3.931649e+01 2.402348e+01 2.681050e-01 1.443630e+00 1.609529e+00 9.934163e-01 1.630482e+00 2.663167e+00 1.249046e+00 2.391482e+00 2.308856e+00 2.586140e+00 2.087713e+00 2.643657e+00 1.773780e-01 2.139279e-02 1.481838e-01 1.484446e-01 1.569799e-01 1.908657e-01 2.406194e-01 2.026712e-01 2.918398e-01 3.154423e-01 3.849140e-01 3.124495e-01 3.072140e-01 1.853357e-02
<GCONST> 1.001967e+02
<STATE> 4
<MEAN> 39
 -1.105977e+01 2.167801e+00 2.735331e+00 -9.296829e-01 7.490302e+00 2.200091e+00 -1.887472e+00 -1.378494e+01 -6.240944e+00 -1.159727e+01 -5.764146e+00 -1.133246e+01 5.868866e+01 -6.009432e-01 -3.020024e-01 -4.539530e-02 6.567497e-02 1.232057e-01 3.596493e-01 5.710054e-01 3.677066e-01 2.764151e-01 1.182059e-01 -3.142933e-02 3.913024e-03 -3.378822e-01 1.310168e-02 -3.754707e-02 -1.601046e-02 -2.752467e-02 -3.054394e-02 -2.875141e-02 -1.925479e-02 1.280738e-03 -9.735161e-03 1.688821e-02 3.910547e-03 -1.434571e-03 2.311070e-02
<VARIANCE> 39
 2.926578e+01 2.687819e+01 1.492588e+01 2.303338e+01 4.026113e+01 5.203766e+01 5.312164e+01 6.159389e+01 3.996136e+01 5.371912e+01 4.527600e+01 4.016666e+01 8.036024e+00 2.142659e-01 5.850223e-01 7.278814e-01 9.171118e-01 1.506894e+00 1.750846e+00 1.547830e+00 1.637758e+00 1.898014e+00 2.185005e+00 1.962092e+00 1.875929e+00 1.088566e-01 3.298305e-02 7.458220e-02 1.269255e-01 1.540495e-01 2.643088e-01 2.910233e-01 2.894195e-01 2.678225e-01 3.558326e-01 4.158874e-01 3.260821e-01 3.239603e-01 8.913289e-03
<GCONST> 9.317113e+01
<TRANSP> 5
 0.000000e+00 1.000000e+00 0.000000e+00 0.000000e+00 0.000000e+00
 0.000000e+00 9.451467e-01 5.485331e-02 0.000000e+00 0.000000e+00
 0.000000e+00 0.000000e+00 9.505867e-01 4.941332e-02 0.000000e+00
 0.000000e+00 0.000000e+00 0.000000e+00 9.648490e-01 3.515102e-02
 0.000000e+00 0.000000e+00 0.000000e+00 0.000000e+00 0.000000e+00
<ENDHMM>
