~o
<STREAMINFO> 1 39
<VECSIZE> 39<NULLD><MFCC_D_A_0><DIAGC>
~h "sepuluh"
<BEGINHMM>
<NUMSTATES> 20
<STATE> 2
<MEAN> 39
 -1.825126e+01 -6.576229e+00 -3.260764e+00 -3.607825e+00 1.444005e+00 -2.844206e+00 3.989877e+00 -4.662586e+00 1.348126e+00 -6.383378e+00 8.655744e-01 -6.925233e+00 5.680687e+01 -7.311899e-01 1.271781e+00 -9.792611e-01 2.335431e-01 -1.321087e-01 -1.118600e+00 7.893976e-01 -9.613842e-01 9.308359e-01 -6.035048e-01 7.742169e-01 6.004689e-03 5.062830e-01 -4.151179e-01 6.134307e-01 -3.773273e-01 2.880544e-01 1.442301e-01 -2.761478e-01 3.934073e-01 -3.463959e-01 3.011276e-01 -2.623897e-01 9.714300e-03 8.202130e-02 2.253356e-01
<VARIANCE> 39
 2.909548e+00 4.842312e+00 4.908536e+00 8.109756e+00 1.413319e+01 2.516284e+01 2.559126e+01 1.752014e+01 1.737109e+01 1.632392e+01 1.533624e+01 1.230826e+01 8.052474e-01 9.964881e-01 2.039295e+00 1.181039e+00 1.540284e+00 1.536319e+00 2.191205e+00 2.304856e+00 2.129147e+00 2.349886e+00 2.801752e+00 2.225169e+00 1.697946e+00 2.756324e-01 1.482121e-01 1.927015e-01 1.599964e-01 2.502673e-01 2.483217e-01 4.102144e-01 3.618941e-01 2.441882e-01 4.421519e-01 6.168807e-01 3.927225e-01 3.021440e-01 2.415771e-02
<GCONST> 8.805696e+01
<STATE> 3
<MEAN> 39
 -2.722280e+01 6.250499e+00 -1.156313e+01 4.116667e-01 3.909427e+00 -1.059099e+01 1.211873e+01 -1.185987e+01 8.103324e+00 -9.620101e+00 2.811377e+00 -3.800719e+00 6.186960e+01 -1.410419e+00 2.235929e+00 -8.133685e-01 4.097669e-01 9.833588e-01 -1.602060e+00 1.104757e+00 -1.661557e-01 -1.452501e-01 6.265255e-01 -7.511904e-01 8.577596e-01 1.008508e+00 6.719040e-01 -6.030368e-01 5.952913e-01 -4.051549e-01 -4.242161e-02 3.335235e-02 -7.233258e-01 4.259437e-01 -5.887190e-01 3.424086e-01 -3.075713e-01 -1.463181e-01 -1.522493e-01
<VARIANCE> 39
 8.792617e+00 2.392614e+01 9.073776e+00 1.682683e+01 1.208733e+01 1.810437e+01 2.121649e+01 1.377918e+01 2.615902e+01 4.303858e+01 2.980780e+01 2.978608e+01 4.602151e+00 1.614297e+00 2.521132e+00 2.439041e+00 2.357637e+00 1.365625e+00 1.372637e+00 2.671239e+00 3.104421e+00 3.591928e+00 4.316832e+00 2.345344e+00 2.473033e+00 3.507935e-01 4.112502e-01 3.258311e-01 2.087499e-01 3.256172e-01 3.741776e-01 3.168629e-01 7.041565e-01 6.452358e-01 3.971936e-01 6.876237e-01 6.105322e-01 6.778229e-01 5.416888e-02
<GCONST> 1.050949e+02
<STATE> 4
<MEAN> 39
 -1.919701e+01 8.324877e+00 -9.315600e+00 -3.947688e+00 4.118399e+00 -1.765762e+01 3.401983e+00 -9.794645e+00 3.173347e+00 -2.139314e+00 -6.362572e-01 -4.839389e+00 6.692218e+01 4.187171e+00 -8.101494e-01 6.148753e-01 -1.578147e+00 -7.148420e-01 -2.710133e-01 -3.612251e+00 -8.295854e-01 -4.742722e-01 9.674333e-01 5.039299e-01 -1.510561e+00 1.470936e+00 2.557940e-01 -2.490420e-01 -6.244624e-02 3.027820e-03 6.264590e-02 6.820627e-01 -1.431332e-02 -2.245053e-01 2.029085e-02 -1.359251e-01 3.596834e-01 -1.135394e-01 1.542081e-02
<VARIANCE> 39
 9.755014e+01 1.438737e+01 1.962760e+01 4.827534e+01 6.541741e+01 3.577739e+01 1.051017e+02 7.002486e+01 3.082303e+01 1.028000e+02 3.568565e+01 2.882341e+01 2.069447e+01 4.050496e+00 9.196205e-01 2.229952e+00 1.768279e+00 6.518681e+00 4.883824e+00 7.374784e+00 9.766773e+00 3.228043e+00 3.539603e+00 3.727283e+00 1.873840e+00 1.987623e+00 1.940510e+00 2.130861e-01 3.390760e-01 3.605559e-01 1.153306e+00 5.662040e-01 2.265454e+00 1.020328e+00 6.069707e-01 6.575511e-01 4.562240e-01 6.015364e-01 4.614787e-01
<GCONST> 1.303998e+02
<STATE> 5
<MEAN> 39
 -4.021230e+00 3.740963e+00 -7.798489e+00 -9.620016e+00 8.160337e+00 -1.154716e+01 -5.830830e+00 -1.135083e+01 6.468616e-01 5.423800e-01 5.025917e+00 -8.584475e+00 7.237536e+01 4.423582e-01 -1.432144e-01 7.277732e-01 4.373920e-01 6.281289e-01 1.935049e+00 4.027449e-01 -3.796132e-01 -1.052871e+00 -9.341800e-01 2.056215e-02 7.038414e-02 -1.084828e+00 -8.741356e-01 1.234955e-01 2.168106e-01 4.208052e-01 -2.532210e-01 -2.309858e-01 4.447612e-01 4.770944e-01 2.249100e-01 -4.236304e-01 -4.207435e-01 1.080082e-01 -6.509840e-01
<VARIANCE> 39
 4.885081e+01 1.853898e+01 3.645744e+01 5.375288e+01 1.874391e+02 7.097437e+01 7.607370e+01 2.164112e+02 1.667748e+01 1.225080e+02 4.791437e+01 1.903370e+01 2.710341e+01 1.068448e+00 6.276081e-01 8.151128e-01 1.283868e+00 1.897862e+00 1.530692e+00 1.699239e+00 2.768013e+00 1.007608e+00 2.780033e+00 2.134247e+00 1.456841e+00 7.773558e-01 2.593771e-01 2.060565e-01 3.218089e-01 3.904079e-01 6.862722e-01 5.385263e-01 7.600849e-01 1.233718e+00 2.175553e-01 5.759344e-01 4.188689e-01 2.751398e-01 2.467963e-01
<GCONST> 1.154817e+02
<STATE> 6
<MEAN> 39
 -9.949646e+00 1.241013e+00 -3.781259e+00 -5.652234e+00 2.901834e+00 -7.458285e+00 -2.454695e+00 -1.103775e+01 -4.998335e-01 -5.569691e+00 1.902763e+00 -8.332450e+00 6.282535e+01 -4.204350e-01 -9.037601e-01 7.729624e-01 1.738931e-01 -6.014865e-01 4.343155e-01 -3.900881e-02 5.367175e-01 -2.361452e-01 -3.725063e-01 -3.294486e-01 5.375854e-02 -8.992665e-01 4.313625e-02 -4.266330e-02 -8.669582e-02 5.986309e-03 2.081426e-02 -6.256849e-02 -4.488242e-03 -2.615770e-02 2.909068e-02 6.282607e-02 -1.035539e-02 8.997713e-02 1.598648e-01
<VARIANCE> 39
 4.122609e+01 1.474503e+01 1.280381e+01 1.802674e+01 4.771832e+01 2.641372e+01 3.082356e+01 6.169352e+01 2.709588e+01 4.448783e+01 2.136230e+01 1.326020e+01 1.377541e+01 4.375467e-01 3.416895e-01 6.926645e-01 1.035635e+00 1.579805e+00 1.116885e+00 1.564413e+00 1.818868e+00 9.235848e-01 2.232918e+00 1.642097e+00 1.096425e+00 2.481409e-01 3.336458e-02 8.266465e-02 9.682690e-02 1.828537e-01 2.232428e-01 2.162670e-01 2.812870e-01 1.879415e-01 2.216958e-01 3.106861e-01 3.355484e-01 2.126365e-01 1.303026e-02
<GCONST> 8.732742e+01
<STATE> 7
<MEAN> 39
 -9.942268e+00 -2.580792e+00 -4.617626e-01 -4.318286e+00 1.468029e-01 -6.715687e+00 -4.691405e+00 -1.041041e+01 -3.178998e+00 -8.861015e+00 -7.746303e-01 -6.985303e+00 6.104121e+01 2.150085e+00 8.292264e-01 -2.177625e-01 -1.410449e+00 -1.476861e+00 -4.440533e-01 -1.341471e+00 -1.398490e-01 -1.120206e+00 -9.705787e-01 6.805091e-02 1.149571e+00 8.755835e-01 8.065459e-01 7.633209e-01 -2.438607e-01 -9.264622e-01 -6.142227e-01 -1.775633e-01 -1.510960e-01 -8.871479e-02 -3.809578e-01 -1.370679e-01 2.162506e-01 2.940780e-01 3.916184e-01
<VARIANCE> 39
 2.296806e+01 1.599646e+01 1.800390e+01 1.865190e+01 2.300225e+01 3.672815e+01 2.599081e+01 3.510857e+01 1.559830e+01 3.329056e+01 2.474023e+01 1.523177e+01 4.824224e+00 3.437625e+00 4.797057e+00 2.386548e+00 5.584058e+00 3.949454e+00 3.952585e+00 2.637624e+00 2.352805e+00 4.878261e+00 4.085053e+00 2.411781e+00 2.346578e+00 7.869695e-01 2.126654e-01 3.492024e-01 1.948096e-01 6.272287e-01 4.214104e-01 5.770538e-01 5.920916e-01 3.855874e-01 7.380721e-01 6.187941e-01 3.835253e-01 3.736545e-01 8.206642e-02
<GCONST> 1.123452e+02
<STATE> 8
<MEAN> 39
 2.952137e+00 6.408875e+00 -2.011272e+00 -1.644255e+01 -1.140657e+01 -1.006740e+01 -8.233761e+00 -9.485398e+00 -8.427674e+00 -1.395796e+01 -5.300395e-01 -1.884750e+00 6.615085e+01 2.309678e+00 1.502213e+00 -5.999537e-01 -2.700891e+00 -1.617829e+00 8.579746e-01 4.176264e-01 1.597200e-01 -1.508394e+00 -8.046090e-01 6.766609e-01 1.315391e+00 1.090337e+00 -8.679860e-01 -7.888131e-01 1.949343e-02 7.801310e-01 1.010578e+00 7.779706e-01 4.302015e-01 -3.455839e-01 9.071518e-02 6.662086e-01 4.995350e-01 -1.072092e-01 -2.936973e-01
<VARIANCE> 39
 5.546465e+00 1.063294e+01 4.200611e+01 1.576584e+01 2.997147e+01 3.321486e+01 2.150164e+01 5.825532e+01 5.606540e+01 2.112210e+01 3.381131e+01 3.419553e+01 2.210468e+00 1.763213e+00 1.965118e+00 8.085190e-01 4.427815e+00 3.422717e+00 3.361587e+00 2.242905e+00 1.966054e+00 5.263805e+00 2.372711e+00 3.594793e+00 2.774024e+00 3.983039e-01 9.538811e-02 2.405941e-01 3.461243e-01 4.413948e-01 2.081086e-01 6.227509e-01 4.877007e-01 9.539217e-01 4.827188e-01 6.001264e-01 5.537869e-01 5.662267e-01 3.745485e-02
<GCONST> 1.074129e+02
<STATE> 9
<MEAN> 39
 4.974588e+00 6.391079e+00 -3.615650e+00 -1.784652e+01 -1.015923e+01 -3.953705e+00 -6.767894e+00 -1.367861e+01 -1.209381e+01 -1.106014e+01 4.791197e+00 1.287942e+00 6.748038e+01 1.294198e-01 -7.603338e-01 -4.373249e-01 3.770768e-01 9.756190e-01 1.809732e+00 -3.798552e-01 -2.381049e+00 -1.444821e+00 2.129157e+00 2.236659e+00 4.626360e-01 3.453163e-01 -2.765732e-01 -3.238754e-01 1.073807e-01 6.725415e-01 2.889216e-01 -3.123385e-01 -3.131776e-01 -4.164843e-01 1.228544e-01 6.012737e-01 -1.245154e-01 -7.149994e-01 -8.238840e-02
<VARIANCE> 39
 2.407626e+00 1.129232e+01 2.686398e+01 9.628685e+00 4.805074e+01 5.341110e+01 1.487297e+01 4.862030e+01 6.063994e+01 3.314427e+01 5.754823e+01 3.891606e+01 1.898966e+00 1.868676e-01 1.205621e+00 1.038963e+00 1.585760e+00 9.617086e-01 2.715415e+00 2.421705e+00 4.998760e+00 3.022058e+00 4.575496e+00 2.491879e+00 3.405566e+00 1.479214e-01 1.065254e-01 1.164680e-01 1.988986e-01 3.094084e-01 2.424432e-01 6.219579e-01 3.193140e-01 5.652487e-01 7.493161e-01 4.692421e-01 5.220330e-01 7.781001e-01 3.505105e-02
<GCONST> 1.001684e+02
<STATE> 10
<MEAN> 39
 3.655315e+00 3.789827e+00 -1.114725e+00 -1.522704e+01 7.927357e-02 1.099250e+00 -1.173493e+01 -2.090914e+01 -2.012795e+01 -2.203812e+00 1.583422e+01 -1.309064e+00 6.926987e+01 -1.888215e-01 -5.207302e-01 3.599223e-01 1.630646e+00 6.050323e-01 -6.670779e-01 -7.662225e-01 -1.419180e+00 1.239812e-01 1.508774e+00 -1.634032e-01 -1.907534e+00 -5.897692e-02 -2.937362e-02 1.339593e-01 1.344265e-01 2.986986e-02 -1.162747e-01 -3.657087e-01 -3.705518e-02 5.105206e-01 3.686717e-01 -4.266214e-01 -3.883341e-01 -9.299212e-02 -6.087896e-02
<VARIANCE> 39
 3.207426e+00 1.957459e+01 5.404745e+01 5.395285e+01 6.452483e+01 1.818373e+01 4.005087e+01 8.531416e+01 5.859330e+01 8.286139e+01 4.432567e+01 3.278714e+01 2.712876e+00 1.448584e-01 7.385460e-01 9.346730e-01 1.145192e+00 1.874108e+00 1.135341e+00 2.119159e+00 2.630315e+00 3.755134e+00 3.051933e+00 1.921330e+00 3.200584e+00 8.905055e-02 2.329213e-02 1.577374e-01 1.864544e-01 3.237484e-01 2.521642e-01 2.999967e-01 4.952706e-01 4.585753e-01 6.185989e-01 8.399880e-01 2.679488e-01 6.134274e-01 3.124610e-02
<GCONST> 9.950524e+01
<STATE> 11
<MEAN> 39
 3.199146e+00 1.239904e+00 -2.134019e+00 -6.114361e+00 1.961851e-01 -7.003190e+00 -1.817482e+01 -2.360419e+01 -1.259226e+01 -6.936780e-01 6.935361e+00 -7.687499e+00 6.801814e+01 -1.665088e-01 -3.367975e-02 2.656036e-01 5.979760e-02 2.300671e-01 -7.596216e-01 -6.154041e-01 6.317455e-01 5.664754e-01 2.287862e-02 6.443577e-01 -2.809564e-01 1.407264e-01 6.211071e-02 1.467625e-01 -1.419315e-01 -5.365228e-01 -2.051299e-01 3.264998e-01 2.161634e-01 1.650131e-01 -1.463710e-01 -2.202198e-01 1.983430e-01 4.625735e-01 4.723507e-02
<VARIANCE> 39
 5.880711e+00 1.974494e+01 7.412703e+01 3.120202e+01 4.788674e+01 3.312717e+01 5.291320e+01 3.189528e+01 5.311539e+01 3.485022e+01 6.486926e+01 1.180786e+01 4.200796e+00 1.744054e-01 6.330992e-01 6.834055e-01 2.494501e+00 1.265376e+00 1.818765e+00 2.742405e+00 1.617795e+00 3.109207e+00 2.499791e+00 2.875567e+00 2.454204e+00 2.565707e-01 3.004243e-02 7.540910e-02 1.762567e-01 1.758867e-01 2.842447e-01 3.231584e-01 3.835533e-01 3.090903e-01 5.452673e-01 5.277268e-01 4.814341e-01 4.713185e-01 2.237277e-02
<GCONST> 9.726347e+01
<STATE> 12
<MEAN> 39
 3.124483e+00 1.812627e+00 -1.760128e+00 -1.360358e+01 -2.324617e+00 -4.397218e+00 -1.568447e+01 -2.098586e+01 -1.315066e+01 3.546246e+00 1.420990e+01 -8.018111e+00 7.019549e+01 1.193489e-01 4.484642e-01 -8.903026e-01 -1.052840e+00 -1.250440e-01 6.870753e-01 5.787405e-01 9.768841e-03 -2.827265e-02 -6.828544e-01 -2.000967e-01 8.122891e-01 -9.131888e-02 -6.235273e-02 4.259071e-02 -5.971082e-02 1.686396e-01 3.306927e-02 -3.218795e-02 1.535202e-01 -4.707525e-02 -4.170799e-02 -3.060893e-01 -2.436939e-01 1.637663e-01 -1.165625e-01
<VARIANCE> 39
 2.196300e+00 1.098424e+01 4.764869e+01 4.514446e+01 6.676158e+01 3.532983e+01 1.187817e+02 8.545391e+01 6.725971e+01 5.881750e+01 2.199502e+01 4.792791e+01 5.269800e+00 1.420918e-01 5.010532e-01 8.103303e-01 2.091157e+00 1.127972e+00 1.183832e+00 1.582793e+00 2.093671e+00 1.415182e+00 1.756103e+00 9.429392e-01 1.791983e+00 1.956141e-01 2.549143e-02 8.532574e-02 2.224045e-01 2.734157e-01 2.294602e-01 2.047339e-01 3.046083e-01 3.145882e-01 2.714359e-01 2.907155e-01 1.284489e-01 3.055402e-01 2.426646e-02
<GCONST> 9.177647e+01
<STATE> 13
<MEAN> 39
 3.229614e+00 4.331612e+00 -8.398608e+00 -1.488525e+01 -5.743054e+00 -2.415367e+00 -8.607437e+00 -2.222601e+01 -1.454379e+01 -4.983884e+00 1.015274e+01 2.174287e-01 6.775615e+01 -4.119273e-01 4.181220e-01 4.114852e-01 2.160902e-01 6.924129e-02 -2.918516e-02 5.319424e-01 6.975256e-01 9.685180e-02 -1.110965e+00 -6.774433e-01 3.093441e-01 -3.285403e-01 -1.199999e-01 -6.827724e-02 2.923789e-01 3.384912e-01 1.851401e-01 -7.102012e-02 -2.413050e-02 -1.894560e-02 4.777213e-02 1.542592e-01 -3.027086e-02 -2.122759e-01 -6.510752e-02
<VARIANCE> 39
 2.787751e+00 6.202860e+00 1.678783e+01 7.109179e+00 4.502287e+01 2.569106e+01 3.351564e+01 3.200066e+01 1.962874e+01 2.253953e+01 2.531072e+01 3.434147e+01 1.472260e+00 1.840775e-01 2.486624e-01 7.177329e-01 1.069923e+00 8.199914e-01 5.193775e-01 1.127368e+00 1.518240e+00 1.898726e+00 1.562328e+00 8.109372e-01 6.179521e-01 7.868081e-02 2.537115e-02 3.389728e-02 5.966879e-02 8.605425e-02 1.269657e-01 1.281056e-01 2.404235e-01 2.012463e-01 2.087326e-01 2.096365e-01 1.459021e-01 1.139046e-01 3.809269e-03
<GCONST> 6.850282e+01
<STATE> 14
<MEAN> 39
 -1.111697e+00 5.038880e+00 -1.227823e+00 -9.803486e+00 -2.096844e+00 -5.089083e+00 -8.313854e+00 -1.786696e+01 -1.102477e+01 -8.263710e+00 7.119956e+00 -1.550949e+00 6.505656e+01 -1.000297e+00 -4.110867e-01 6.223066e-01 1.195674e+00 7.099865e-01 -3.546135e-01 3.796846e-01 3.870685e-01 4.086005e-01 -1.556187e-01 -4.124951e-01 -6.476568e-03 -6.330834e-01 -6.639023e-02 -1.555794e-01 -1.723406e-01 -1.051547e-01 -1.216365e-01 -4.180248e-02 -5.960956e-02 6.253307e-02 1.038745e-01 9.384959e-02 5.857944e-02 -9.088231e-03 -5.307463e-03
<VARIANCE> 39
 2.899269e+00 6.432627e+00 1.392422e+01 1.163013e+01 4.534652e+01 4.996971e+01 3.695877e+01 3.727637e+01 2.407228e+01 1.192770e+01 1.736635e+01 4.751972e+01 1.264533e+00 2.362055e-01 3.186317e-01 9.140239e-01 7.828144e-01 1.097004e+00 1.513309e+00 1.005828e+00 1.457693e+00 1.790963e+00 1.065425e+00 1.339203e+00 1.652261e+00 1.046657e-01 2.302454e-02 4.511813e-02 7.666253e-02 1.122759e-01 1.367278e-01 2.708197e-01 1.784784e-01 2.604083e-01 3.672738e-01 2.329802e-01 2.669825e-01 2.611815e-01 5.227325e-03
<GCONST> 7.604081e+01
<STATE> 15
<MEAN> 39
 -5.970622e+00 2.364592e+00 7.007459e-01 -4.030485e+00 1.163699e+00 -5.625111e+00 -7.304010e+00 -1.791252e+01 -1.113235e+01 -1.053359e+01 3.081632e+00 -4.254022e+00 6.205025e+01 -9.328579e-01 -3.913448e-01 4.241403e-01 7.588514e-01 8.070381e-02 -1.967770e-01 2.401578e-01 1.495774e-01 3.216832e-01 -4.840224e-01 -1.034679e+00 -3.161761e-01 -5.598468e-01 1.403885e-02 2.732584e-04 -5.714748e-02 -1.330095e-01 -5.838851e-02 8.082493e-04 -3.935071e-02 -2.768427e-02 1.175186e-02 5.263547e-02 5.106018e-03 5.240834e-02 2.932068e-02
<VARIANCE> 39
 2.486685e+00 6.394053e+00 1.639277e+01 1.348437e+01 2.260107e+01 2.576935e+01 3.214777e+01 4.672618e+01 2.315108e+01 1.606195e+01 2.850671e+01 4.282884e+01 9.681675e-01 1.665124e-01 3.351577e-01 3.504379e-01 6.283071e-01 6.306764e-01 9.919922e-01 1.219390e+00 1.108385e+00 1.105355e+00 1.338805e+00 1.284859e+00 9.901885e-01 2.875858e-02 2.949213e-02 7.055794e-02 8.567101e-02 1.047808e-01 1.275816e-01 1.789080e-01 1.421130e-01 1.962800e-01 2.163505e-01 2.386322e-01 2.004100e-01 2.074018e-01 5.672737e-03
<GCONST> 6.947070e+01
<STATE> 16
<MEAN> 39
 -1.069833e+01 -5.663972e-01 1.038919e+00 -1.707014e+00 2.601249e+00 -5.803048e+00 -5.556135e+00 -1.490432e+01 -7.890084e+00 -1.115540e+01 4.091522e-02 -3.672240e+00 5.977521e+01 -7.818972e-01 -6.713200e-01 -1.305878e-01 4.871825e-01 5.541776e-01 2.838353e-01 4.418088e-01 6.214942e-01 2.921414e-01 -3.670375e-02 -2.714088e-01 -1.261855e-01 -3.462946e-01 9.155080e-02 1.625707e-02 -8.530564e-03 2.269649e-02 1.051919e-01 1.570843e-01 1.191719e-01 1.084010e-01 3.467461e-02 6.720560e-03 -1.368152e-02 -1.030370e-01 4.221031e-02
<VARIANCE> 39
 2.726524e+00 6.048956e+00 1.166358e+01 1.576407e+01 3.348732e+01 2.139029e+01 1.728985e+01 2.441921e+01 2.292386e+01 1.713784e+01 2.811341e+01 3.352909e+01 1.233790e+00 1.414896e-01 2.772891e-01 3.319714e-01 7.001575e-01 1.127227e+00 7.713597e-01 1.136312e+00 9.042131e-01 8.769295e-01 7.446121e-01 1.010242e+00 1.684830e+00 4.111924e-02 2.055248e-02 6.063298e-02 5.547497e-02 9.726925e-02 1.769445e-01 1.091265e-01 2.310989e-01 1.646038e-01 1.845861e-01 1.427203e-01 2.509948e-01 3.584953e-01 6.730563e-03
<GCONST> 6.727853e+01
<STATE> 17
<MEAN> 39
 -1.379558e+01 -3.587998e+00 1.342559e-01 -4.656934e-01 5.348552e+00 -1.689703e+00 -8.163468e-01 -9.099758e+00 -3.449460e+00 -7.880572e+00 9.727070e-02 -5.577875e+00 5.829661e+01 -5.510911e-01 -3.836136e-01 1.046234e-02 1.459016e-02 5.155346e-02 3.921788e-01 9.077970e-01 1.128974e+00 7.541995e-01 1.409185e-01 -6.020860e-01 -6.519328e-01 -2.980716e-01 6.353982e-03 5.324325e-02 3.751464e-02 -5.781624e-03 -1.430683e-02 -4.201300e-03 2.553652e-03 -1.280535e-01 -1.418802e-01 -1.323766e-01 1.120554e-03 4.811512e-03 1.268725e-02
<VARIANCE> 39
 2.614059e+00 3.070498e+00 1.122440e+01 1.626206e+01 3.016342e+01 3.250751e+01 2.166570e+01 2.045539e+01 2.301649e+01 2.037551e+01 2.569490e+01 2.943605e+01 1.165650e+00 4.148966e-02 1.897051e-01 4.912628e-01 6.960632e-01 1.340843e+00 1.246957e+00 1.077473e+00 1.790554e+00 1.782297e+00 1.231033e+00 1.063531e+00 1.344288e+00 1.574073e-02 1.080014e-02 3.367654e-02 9.102984e-02 1.755577e-01 2.585749e-01 3.015081e-01 2.029113e-01 3.907252e-01 2.919837e-01 2.072511e-01 1.811590e-01 2.629156e-01 3.621292e-03
<GCONST> 6.851459e+01
<STATE> 18
<MEAN> 39
 -1.663788e+01 -4.990787e+00 1.026330e+00 1.203254e+00 6.549087e+00 -2.113875e-01 1.430305e+00 -9.504980e+00 -6.974120e+00 -1.410559e+01 -5.297792e+00 -8.883721e+00 5.690541e+01 -6.007958e-01 -3.934168e-01 -1.313087e-02 2.550200e-01 5.185476e-01 9.400958e-01 5.952819e-01 2.317239e-01 -7.967949e-02 -5.668086e-01 -3.184246e-01 -2.198232e-01 -2.713035e-01 -8.377014e-03 -3.353642e-02 -9.041928e-02 -1.141724e-01 -7.872639e-02 -3.474408e-02 -1.472372e-01 2.743598e-02 1.384124e-01 1.289158e-01 8.238387e-02 1.167690e-01 -2.649547e-02
<VARIANCE> 39
 1.699319e+00 1.782047e+00 5.009030e+00 1.002659e+01 1.603195e+01 1.906773e+01 2.424293e+01 2.683016e+01 2.631952e+01 3.863843e+01 3.438955e+01 3.480504e+01 4.821822e-01 9.019530e-02 2.247824e-01 5.930933e-01 7.196093e-01 8.826629e-01 1.394040e+00 1.186716e+00 2.173157e+00 1.046543e+00 9.408159e-01 1.163231e+00 1.768055e+00 5.278600e-02 1.601538e-02 2.904328e-02 8.597156e-02 1.198174e-01 1.415847e-01 1.878630e-01 2.383911e-01 4.042557e-01 1.375284e-01 1.432563e-01 2.072200e-01 3.117525e-01 9.260776e-03
<GCONST> 6.678984e+01
<STATE> 19
<MEAN> 39
 -1.940427e+01 -7.766326e+00 -1.035945e+00 3.870848e-01 7.809172e+00 3.137211e+00 4.185445e+00 -6.273499e+00 -4.317933e+00 -1.511424e+01 -7.547920e+00 -1.057953e+01 5.548134e+01 -3.528772e-01 -3.808677e-01 -2.964369e-01 -1.192778e-01 -4.539947e-02 1.070472e-01 2.224475e-01 2.402312e-01 4.646259e-01 1.542466e-01 -4.606034e-01 -5.516190e-01 -1.809931e-01 1.110111e-01 6.760942e-02 2.154641e-02 -3.247156e-02 -4.689031e-02 -7.239401e-02 7.523671e-02 2.448874e-02 -7.886831e-02 -1.446668e-02 -5.461764e-02 -1.105217e-01 7.091381e-02
<VARIANCE> 39
 1.928560e+00 2.788521e+00 1.303778e+01 2.231540e+01 2.994719e+01 1.976317e+01 2.615606e+01 3.186118e+01 3.957592e+01 6.039675e+01 4.228463e+01 3.409232e+01 5.018629e-01 2.781343e-01 2.296847e-01 6.726923e-01 1.028205e+00 1.139141e+00 1.273445e+00 1.475443e+00 1.779872e+00 1.927025e+00 2.628522e+00 1.591476e+00 1.668485e+00 6.883904e-02 3.282743e-02 3.827720e-02 1.509891e-01 2.123823e-01 1.933617e-01 2.327952e-01 2.498378e-01 3.655844e-01 3.180437e-01 4.838946e-01 2.125807e-01 3.581483e-01 7.801402e-03
<GCONST> 7.973227e+01
<TRANSP> 20
 0.000000e+00 1.000000e+00 0.000000e+00 0.000000e+00 0.000000e+00 0.000000e+00 0.000000e+00 0.000000e+00 0.000000e+00 0.000000e+00 0.000000e+00 0.000000e+00 0.000000e+00 0.000000e+00 0.000000e+00 0.000000e+00 0.000000e+00 0.000000e+00 0.000000e+00 0.000000e+00
 0.000000e+00 7.857172e-01 2.142828e-01 0.000000e+00 0.000000e+00 0.000000e+00 0.000000e+00 0.000000e+00 0.000000e+00 0.000000e+00 0.000000e+00 0.000000e+00 0.000000e+00 0.000000e+00 0.000000e+00 0.000000e+00 0.000000e+00 0.000000e+00 0.000000e+00 0.000000e+00
 0.000000e+00 0.000000e+00 7.939395e-01 2.060606e-01 0.000000e+00 0.000000e+00 0.000000e+00 0.000000e+00 0.000000e+00 0.000000e+00 0.000000e+00 0.000000e+00 0.000000e+00 0.000000e+00 0.000000e+00 0.000000e+00 0.000000e+00 0.000000e+00 0.000000e+00 0.000000e+00
 0.000000e+00 0.000000e+00 0.000000e+00 7.769554e-01 2.230446e-01 0.000000e+00 0.000000e+00 0.000000e+00 0.000000e+00 0.000000e+00 0.000000e+00 0.000000e+00 0.000000e+00 0.000000e+00 0.000000e+00 0.000000e+00 0.000000e+00 0.000000e+00 0.000000e+00 0.000000e+00
 0.000000e+00 0.000000e+00 0.000000e+00 0.000000e+00 6.581670e-01 3.418330e-01 0.000000e+00 0.000000e+00 0.000000e+00 0.000000e+00 0.000000e+00 0.000000e+00 0.000000e+00 0.000000e+00 0.000000e+00 0.000000e+00 0.000000e+00 0.000000e+00 0.000000e+00 0.000000e+00
 0.000000e+00 0.000000e+00 0.000000e+00 0.000000e+00 0.000000e+00 8.648179e-01 1.351822e-01 0.000000e+00 0.000000e+00 0.000000e+00 0.000000e+00 0.000000e+00 0.000000e+00 0.000000e+00 0.000000e+00 0.000000e+00 0.000000e+00 0.000000e+00 0.000000e+00 0.000000e+00
 0.000000e+00 0.000000e+00 0.000000e+00 0.000000e+00 0.000000e+00 0.000000e+00 7.695971e-01 2.304029e-01 0.000000e+00 0.000000e+00 0.000000e+00 0.000000e+00 0.000000e+00 0.000000e+00 0.000000e+00 0.000000e+00 0.000000e+00 0.000000e+00 0.000000e+00 0.000000e+00
 0.000000e+00 0.000000e+00 0.000000e+00 0.000000e+00 0.000000e+00 0.000000e+00 0.000000e+00 6.500821e-01 3.499179e-01 0.000000e+00 0.000000e+00 0.000000e+00 0.000000e+00 0.000000e+00 0.000000e+00 0.000000e+00 0.000000e+00 0.000000e+00 0.000000e+00 0.000000e+00
 0.000000e+00 0.000000e+00 0.000000e+00 0.000000e+00 0.000000e+00 0.000000e+00 0.000000e+00 0.000000e+00 7.471586e-01 2.528415e-01 0.000000e+00 0.000000e+00 0.000000e+00 0.000000e+00 0.000000e+00 0.000000e+00 0.000000e+00 0.000000e+00 0.000000e+00 0.000000e+00
 0.000000e+00 0.000000e+00 0.000000e+00 0.000000e+00 0.000000e+00 0.000000e+00 0.000000e+00 0.000000e+00 0.000000e+00 7.907270e-01 2.092731e-01 0.000000e+00 0.000000e+00 0.000000e+00 0.000000e+00 0.000000e+00 0.000000e+00 0.000000e+00 0.000000e+00 0.000000e+00
 0.000000e+00 0.000000e+00 0.000000e+00 0.000000e+00 0.000000e+00 0.000000e+00 0.000000e+00 0.000000e+00 0.000000e+00 0.000000e+00 7.986834e-01 2.013166e-01 0.000000e+00 0.000000e+00 0.000000e+00 0.000000e+00 0.000000e+00 0.000000e+00 0.000000e+00 0.000000e+00
 0.000000e+00 0.000000e+00 0.000000e+00 0.000000e+00 0.000000e+00 0.000000e+00 0.000000e+00 0.000000e+00 0.000000e+00 0.000000e+00 0.000000e+00 7.979513e-01 2.020487e-01 0.000000e+00 0.000000e+00 0.000000e+00 0.000000e+00 0.000000e+00 0.000000e+00 0.000000e+00
 0.000000e+00 0.000000e+00 0.000000e+00 0.000000e+00 0.000000e+00 0.000000e+00 0.000000e+00 0.000000e+00 0.000000e+00 0.000000e+00 0.000000e+00 0.000000e+00 8.183086e-01 1.816914e-01 0.000000e+00 0.000000e+00 0.000000e+00 0.000000e+00 0.000000e+00 0.000000e+00
 0.000000e+00 0.000000e+00 0.000000e+00 0.000000e+00 0.000000e+00 0.000000e+00 0.000000e+00 0.000000e+00 0.000000e+00 0.000000e+00 0.000000e+00 0.000000e+00 0.000000e+00 8.025779e-01 1.974221e-01 0.000000e+00 0.000000e+00 0.000000e+00 0.000000e+00 0.000000e+00
 0.000000e+00 0.000000e+00 0.000000e+00 0.000000e+00 0.000000e+00 0.000000e+00 0.000000e+00 0.000000e+00 0.000000e+00 0.000000e+00 0.000000e+00 0.000000e+00 0.000000e+00 0.000000e+00 8.011473e-01 1.988526e-01 0.000000e+00 0.000000e+00 0.000000e+00 0.000000e+00
 0.000000e+00 0.000000e+00 0.000000e+00 0.000000e+00 0.000000e+00 0.000000e+00 0.000000e+00 0.000000e+00 0.000000e+00 0.000000e+00 0.000000e+00 0.000000e+00 0.000000e+00 0.000000e+00 0.000000e+00 8.158721e-01 1.841279e-01 0.000000e+00 0.000000e+00 0.000000e+00
 0.000000e+00 0.000000e+00 0.000000e+00 0.000000e+00 0.000000e+00 0.000000e+00 0.000000e+00 0.000000e+00 0.000000e+00 0.000000e+00 0.000000e+00 0.000000e+00 0.000000e+00 0.000000e+00 0.000000e+00 0.000000e+00 7.922479e-01 2.077521e-01 0.000000e+00 0.000000e+00
 0.000000e+00 0.000000e+00 0.000000e+00 0.000000e+00 0.000000e+00 0.000000e+00 0.000000e+00 0.000000e+00 0.000000e+00 0.000000e+00 0.000000e+00 0.000000e+00 0.000000e+00 0.000000e+00 0.000000e+00 0.000000e+00 0.000000e+00 7.663149e-01 2.336852e-01 0.000000e+00
 0.000000e+00 0.000000e+00 0.000000e+00 0.000000e+00 0.000000e+00 0.000000e+00 0.000000e+00 0.000000e+00 0.000000e+00 0.000000e+00 0.000000e+00 0.000000e+00 0.000000e+00 0.000000e+00 0.000000e+00 0.000000e+00 0.000000e+00 0.000000e+00 7.573122e-01 2.426878e-01
 0.000000e+00 0.000000e+00 0.000000e+00 0.000000e+00 0.000000e+00 0.000000e+00 0.000000e+00 0.000000e+00 0.000000e+00 0.000000e+00 0.000000e+00 0.000000e+00 0.000000e+00 0.000000e+00 0.000000e+00 0.000000e+00 0.000000e+00 0.000000e+00 0.000000e+00 0.000000e+00
<ENDHMM>
