~o
<STREAMINFO> 1 39
<VECSIZE> 39<NULLD><MFCC_D_A_0><DIAGC>
~h "alarm"
<BEGINHMM>
<NUMSTATES> 5
<STATE> 2
<MEAN> 39
 -9.302536e+00 -1.217938e+01 -8.797196e+00 -6.115999e+00 2.921228e+00 -2.900679e+00 -1.753002e+00 -9.383819e+00 1.040324e+00 -7.776868e+00 -4.650541e+00 -9.933849e+00 6.507585e+01 2.217563e+00 -1.190676e+00 -1.327535e+00 -5.629732e-01 2.768583e-01 4.741426e-01 -7.452170e-01 -5.498871e-01 1.003081e-01 -2.460293e-01 -1.011894e+00 -7.717952e-01 2.361676e+00 -1.897356e-02 7.492946e-02 1.299799e-01 1.876571e-02 -1.372561e-01 -4.667169e-02 -8.753643e-02 6.279145e-02 -1.259147e-01 5.134566e-02 5.891585e-02 8.232879e-02 1.279517e-02
<VARIANCE> 39
 5.636296e+01 3.289602e+01 6.117329e+01 2.237394e+01 5.481327e+01 4.503067e+01 7.068610e+01 8.074541e+01 5.706636e+01 5.851417e+01 4.476538e+01 2.622947e+01 6.586197e+01 2.737263e+00 2.836501e+00 4.403312e+00 2.666798e+00 4.985032e+00 3.409482e+00 4.149672e+00 7.916534e+00 4.015056e+00 4.984950e+00 4.179352e+00 2.753481e+00 2.824108e+00 7.068670e-01 7.241330e-01 8.733091e-01 4.061404e-01 7.858576e-01 5.698063e-01 6.709557e-01 1.170653e+00 6.754397e-01 6.775361e-01 6.370378e-01 6.051327e-01 7.841041e-01
<GCONST> 1.348403e+02
<STATE> 3
<MEAN> 39
 1.346649e+00 -1.004419e+01 -8.710640e+00 -8.966319e+00 3.691100e-01 -5.097613e+00 -7.130182e+00 -7.513441e+00 -1.126546e-01 -4.677106e+00 -4.347829e+00 -1.241026e+01 7.356088e+01 -1.181062e-02 4.539523e-01 3.208770e-01 1.073721e-01 -1.439297e-01 -2.371451e-01 -2.369019e-02 -2.996086e-02 -1.304827e-01 -3.205094e-02 8.110540e-02 -1.404477e-02 -2.303486e-01 -2.891811e-02 2.979781e-02 1.796385e-02 2.395676e-02 4.845297e-02 1.083701e-02 1.056124e-02 -2.283293e-02 2.276018e-03 -4.033701e-02 -5.734858e-03 -5.949455e-03 -3.901060e-02
<VARIANCE> 39
 4.475193e+00 2.587347e+01 8.275694e+01 3.936430e+01 8.433058e+01 6.693213e+01 6.279206e+01 1.441381e+02 4.127917e+01 7.615092e+01 1.136860e+02 3.767005e+01 1.388028e+01 2.516793e-01 1.659571e+00 1.417705e+00 1.312704e+00 1.614856e+00 1.765661e+00 1.350258e+00 2.042001e+00 1.843174e+00 2.474289e+00 1.626549e+00 1.767844e+00 3.601905e-01 4.630613e-02 1.884129e-01 1.966816e-01 1.938108e-01 2.376595e-01 2.840000e-01 2.164579e-01 3.100044e-01 2.918324e-01 4.321030e-01 2.713346e-01 2.953757e-01 6.064353e-02
<GCONST> 1.038721e+02
<STATE> 4
<MEAN> 39
 -1.072298e+01 3.051088e+00 7.248558e+00 8.562419e-01 -6.623873e-01 -8.432805e+00 -4.046543e+00 -1.103659e+01 -6.323034e+00 -1.239219e+01 -3.269880e+00 -9.168000e+00 5.923336e+01 -5.604560e-01 -7.236739e-02 2.428871e-01 2.003014e-01 1.216874e-01 9.587730e-02 1.498609e-01 1.156103e-01 3.773024e-02 1.809736e-02 1.867177e-01 3.089662e-01 -3.613770e-01 3.400007e-03 -6.613126e-02 -5.880661e-02 -3.068599e-02 -2.172527e-02 -9.416758e-03 6.883726e-03 2.468325e-02 3.131378e-02 3.119795e-02 -1.025639e-03 7.768407e-03 1.766321e-02
<VARIANCE> 39
 3.724820e+01 1.552219e+01 3.433969e+01 3.190434e+01 3.695304e+01 4.092976e+01 4.591185e+01 4.742666e+01 4.359076e+01 4.619668e+01 4.958786e+01 3.638319e+01 1.328350e+01 2.219639e-01 6.820843e-01 1.123628e+00 9.495119e-01 1.390870e+00 1.529664e+00 1.547845e+00 2.114495e+00 1.840146e+00 1.817898e+00 1.667090e+00 1.790353e+00 1.071555e-01 3.016326e-02 7.783858e-02 1.540329e-01 1.757732e-01 2.310511e-01 2.555833e-01 2.630584e-01 3.514080e-01 3.155419e-01 3.411838e-01 2.935180e-01 3.301412e-01 8.353067e-03
<GCONST> 9.369893e+01
<TRANSP> 5
 0.000000e+00 1.000000e+00 0.000000e+00 0.000000e+00 0.000000e+00
 0.000000e+00 8.782962e-01 1.217038e-01 0.000000e+00 0.000000e+00
 0.000000e+00 0.000000e+00 9.732981e-01 2.670186e-02 0.000000e+00
 0.000000e+00 0.000000e+00 0.000000e+00 9.688296e-01 3.117041e-02
 0.000000e+00 0.000000e+00 0.000000e+00 0.000000e+00 0.000000e+00
<ENDHMM>
