~o
<STREAMINFO> 1 39
<VECSIZE> 39<NULLD><MFCC_D_A_0><DIAGC>
~h "tujuh"
<BEGINHMM>
<NUMSTATES> 5
<STATE> 2
<MEAN> 39
 -9.880954e+00 -2.236263e-01 3.917794e+00 -4.008992e+00 -4.577242e+00 -1.469028e+01 -7.140383e+00 -9.780866e+00 -3.824517e+00 -8.289156e+00 -2.399457e+00 -6.712035e+00 6.490318e+01 5.855486e-01 3.991202e-01 4.303992e-01 1.776838e-01 -4.197308e-01 -7.276266e-01 -6.451533e-01 -1.581591e-02 -2.089844e-01 -4.278447e-02 1.099959e-01 -8.203591e-02 6.297467e-01 6.856680e-02 -6.528952e-03 -3.374831e-02 -3.093170e-03 5.448905e-02 4.319027e-02 -3.279103e-02 4.505584e-02 2.367584e-03 2.323345e-02 5.300958e-03 -2.996293e-02 1.145569e-02
<VARIANCE> 39
 6.173227e+01 3.231107e+01 3.590680e+01 3.775915e+01 8.427032e+01 1.299769e+02 6.768698e+01 5.652254e+01 6.345937e+01 5.403416e+01 8.769013e+01 5.455416e+01 3.707834e+01 4.972524e+00 2.002450e+00 1.923733e+00 2.656115e+00 5.619892e+00 1.175226e+01 5.256962e+00 4.578941e+00 4.454206e+00 3.320640e+00 4.652738e+00 2.754550e+00 1.475567e+00 7.382355e-01 3.636189e-01 3.581238e-01 5.426568e-01 1.011578e+00 1.941890e+00 9.237870e-01 8.866762e-01 7.195075e-01 5.865767e-01 5.992191e-01 4.865289e-01 1.942746e-01
<GCONST> 1.349877e+02
<STATE> 3
<MEAN> 39
 -3.169307e+00 2.388890e+00 8.702353e+00 -4.773757e-01 -3.289312e+00 -1.580240e+01 -1.236296e+01 -8.697104e+00 -8.354539e+00 -5.671696e+00 9.181590e+00 -5.820818e+00 6.951175e+01 2.131959e-02 -4.516931e-02 -3.109308e-01 1.552398e-03 5.216901e-01 5.308118e-01 1.331575e-01 -5.257826e-01 5.916402e-02 2.451800e-01 2.508919e-02 3.446354e-02 -2.886579e-01 -9.439629e-02 2.940889e-03 4.657878e-02 3.114334e-02 1.085727e-02 1.546222e-02 1.087390e-01 2.862494e-03 1.502368e-02 -4.988805e-02 -3.568061e-02 3.500954e-02 -4.263383e-02
<VARIANCE> 39
 2.368320e+01 3.220093e+01 9.523154e+01 4.703637e+01 8.940232e+01 5.683947e+01 5.966802e+01 1.020151e+02 7.373190e+01 6.089423e+01 9.361766e+01 5.573656e+01 1.915827e+01 1.223093e+00 1.359327e+00 2.769176e+00 1.795784e+00 4.227066e+00 3.127051e+00 2.484442e+00 4.183781e+00 3.849596e+00 3.321775e+00 3.308823e+00 2.495373e+00 7.797465e-01 1.603971e-01 2.005010e-01 3.596125e-01 2.953740e-01 5.909815e-01 5.310637e-01 3.981492e-01 7.299472e-01 6.784815e-01 5.028817e-01 5.690167e-01 4.336236e-01 6.639645e-02
<GCONST> 1.220759e+02
<STATE> 4
<MEAN> 39
 -1.183027e+01 -2.175143e+00 -5.570744e-01 -1.385122e+00 4.311679e+00 -3.628728e+00 -2.272440e+00 -1.161823e+01 -2.066717e+00 -7.084571e+00 -9.389222e-01 -6.927795e+00 5.901615e+01 -5.230491e-01 -3.098886e-01 -8.075037e-02 -8.467552e-02 2.539537e-02 3.297307e-01 5.738985e-01 5.288500e-01 1.935451e-01 -2.135275e-01 -2.173276e-01 -7.253419e-02 -2.983046e-01 1.711500e-02 -1.089746e-03 -5.489019e-03 -1.819055e-02 -3.444679e-02 -1.721930e-02 -2.909286e-02 -5.944189e-03 -1.301531e-02 8.301689e-03 2.325244e-02 2.369472e-03 2.322496e-02
<VARIANCE> 39
 2.701298e+01 2.001168e+01 1.536038e+01 2.070569e+01 2.534445e+01 5.035664e+01 6.786221e+01 7.022230e+01 3.949892e+01 2.977057e+01 4.826850e+01 3.491455e+01 7.097550e+00 1.910070e-01 4.060649e-01 6.549250e-01 9.956244e-01 1.149187e+00 1.492120e+00 1.537410e+00 2.111144e+00 1.722763e+00 1.890628e+00 1.606014e+00 1.395387e+00 6.512465e-02 2.752689e-02 5.874472e-02 1.106742e-01 1.907340e-01 1.960955e-01 2.773204e-01 2.699883e-01 3.474263e-01 3.222730e-01 3.322341e-01 2.355402e-01 2.162635e-01 5.444694e-03
<GCONST> 8.781266e+01
<TRANSP> 5
 0.000000e+00 1.000000e+00 0.000000e+00 0.000000e+00 0.000000e+00
 0.000000e+00 9.573254e-01 4.267460e-02 0.000000e+00 0.000000e+00
 0.000000e+00 0.000000e+00 9.575310e-01 4.246901e-02 0.000000e+00
 0.000000e+00 0.000000e+00 0.000000e+00 9.650393e-01 3.496072e-02
 0.000000e+00 0.000000e+00 0.000000e+00 0.000000e+00 0.000000e+00
<ENDHMM>
